url,0,1,2,3,4,high_carb,high_protein,high_fat,high_sodium,high_sugar
https://mykoreankitchen.com/spicy-mayo-recipe/,-0.00864627046548591,0.0023739763128629516,-0.012461729390113783,0.0003062563069392182,0.0012423503742133711,0.0,0.0,0.0,0.0,0.0
https://mykoreankitchen.com/strawberry-milk/,0.02885745395162224,0.04478348954325416,-0.019576749811525608,-0.009241070820736212,0.013501798365061728,1.0,0.0,0.0,0.0,1.0
https://mykoreankitchen.com/dakgangjeong-soy-garlic-fried-chicken/,-0.0029779124130870542,-0.011553209448913082,-0.0076231173315374585,-0.00015481379759958733,0.003368922690776998,1.0,1.0,0.0,1.0,1.0
https://mykoreankitchen.com/chili-oil-recipe/,0.008719203709764416,-0.031082364673424918,-0.007562235070966506,-0.006527293754223818,-0.0038624959705590867,1.0,0.0,1.0,1.0,1.0
https://mykoreankitchen.com/dalgona-coffee-whipped-coffee/,0.032552472782487546,0.049378590661349704,-0.023987573881995117,-0.012573212647248424,0.015033143057750796,0.0,0.0,0.0,0.0,1.0
https://mykoreankitchen.com/omelet-rice-omurice/,-0.008266894821437647,-0.0035402709657409302,-0.0023861861456482393,-0.002174585329663045,-0.001517073904799231,1.0,1.0,1.0,1.0,1.0
https://mykoreankitchen.com/tuna-pancakes-chamchijeon/,-0.012686268399728492,-0.004946864066882647,-0.0013890770063434092,-0.0007090265398285168,0.002841872629602653,0.0,0.0,0.0,0.0,0.0
https://mykoreankitchen.com/pan-fried-zucchini/,-0.02217115135602659,0.003774216188231519,-0.003346475119291006,-0.0034358950967285406,0.0010409420330720245,0.0,0.0,0.0,0.0,0.0
https://mykoreankitchen.com/slow-cooker-short-ribs/,0.004368819349588117,-0.021413653953835664,-0.00825938626884814,-0.008341502554144639,-0.0030659801140274744,1.0,0.0,0.0,1.0,1.0
https://mykoreankitchen.com/korean-ground-beef-rice-bowls/,0.0023079179113793496,-0.018890486845614278,-0.004687105350250078,-0.003911126753937408,0.0001341026743207776,0.0,0.0,1.0,0.0,1.0
https://mykoreankitchen.com/doenjang-jjigae/,5.700952335501035e-05,-0.024524876084915447,-0.0032917122048679473,-0.001196661230368721,0.005646727355477544,0.0,0.0,0.0,0.0,0.0
https://mykoreankitchen.com/spicy-sweet-and-vinegary-noodles-bibim-guksu/,0.00530839989736335,-0.01883871947480538,-0.008517607732760935,-0.005976002472848453,-0.0029840454896411924,1.0,0.0,0.0,1.0,1.0
https://mykoreankitchen.com/galbitang-beef-short-rib-soup/,-0.0002791772710890999,-0.008012328613081637,0.028301445840279313,-0.013143051732554508,-0.004220625942907852,0.0,1.0,0.0,1.0,0.0
https://mykoreankitchen.com/nuclear-fire-noodle-fries/,-0.0012701360415708156,-0.031950566983337314,-0.017795316554500923,-0.019494418873193354,-0.008407305233464385,1.0,0.0,1.0,1.0,0.0
https://mykoreankitchen.com/kimchi-jjim-braised-kimchi/,-0.0007117433456258371,-0.016927123414027814,-0.005487272916164519,0.0021562821139600153,0.0051163067460126485,0.0,0.0,0.0,0.0,0.0
https://mykoreankitchen.com/air-fryer-chicken-wings/,0.0008682300645969852,-0.016168079630971815,-0.009634234488012969,-0.005366146021284079,-0.0010895076551333332,0.0,0.0,0.0,1.0,1.0
https://mykoreankitchen.com/pickled-radishes/,-0.023095009023433394,0.006227927260927716,-0.012798553995669176,0.004222415639209725,0.0055621184135155235,0.0,0.0,0.0,0.0,0.0
https://mykoreankitchen.com/air-fryer-chickpeas/,0.010945794466872851,-0.035993749746559375,-0.012197959357514762,-0.01696595835581668,-0.008203533353262054,0.0,0.0,0.0,0.0,0.0
https://mykoreankitchen.com/bean-sprout-rice-kongnamul-bap/,-0.001216278133359549,-0.024006301630644683,-0.00868919774078999,-0.006529620013447439,0.0009247205669470782,1.0,0.0,0.0,1.0,0.0
https://mykoreankitchen.com/gochujang-chicken/,0.0023738783238607996,-0.017690072557189115,-0.005795252878665793,-0.0010116677772275394,0.002537445882873938,1.0,1.0,0.0,1.0,1.0
https://mykoreankitchen.com/korean-style-tuna-cakes/,-0.012686268399728492,-0.004946864066882642,-0.0013890770063433753,-0.0007090265398284995,0.0028418726296026557,0.0,0.0,0.0,0.0,0.0
https://www.justonecookbook.com/cherry-blossom-milk-pudding/,-0.009543856093726379,0.015657845035819122,-0.007594061885140238,0.004166416539542844,0.002907546668174489,0.3837837837837838,0.054945054945054944,0.07692307692307693,0.06521739130434782,0.7348066298342542
https://www.justonecookbook.com/easy-apple-pie/,0.0024686543512307687,0.006332867242353366,0.07499505959050749,-0.02732884675123076,-0.014584176552131619,0.3837837837837838,0.054945054945054944,0.07692307692307693,0.06521739130434782,0.7348066298342542
https://www.justonecookbook.com/chocolate-gateau-chocolate-cake/,-0.017632665724105833,0.013419081818956862,0.0026421144992371205,0.001777283897792062,0.0030109734785721816,0.3837837837837838,0.054945054945054944,0.07692307692307693,0.06521739130434782,0.7348066298342542
https://www.justonecookbook.com/matcha-and-white-chocolate-truffles-guest-post-by-with-a-glass/,0.05320398382632472,0.007446668902129142,-0.006264145859260314,0.05389748736332482,-0.05177760041477662,0.3837837837837838,0.054945054945054944,0.07692307692307693,0.06521739130434782,0.7348066298342542
https://www.justonecookbook.com/sesame-cookies/,-0.0077966664300064305,0.004043604077224544,0.039733431720479884,-0.014171005057887058,-0.004766057108496759,0.3837837837837838,0.054945054945054944,0.07692307692307693,0.06521739130434782,0.7348066298342542
https://www.justonecookbook.com/pineapple-sorbet/,-0.036681825051155616,0.015246065885448886,-0.012553448610917603,0.011831906405528189,0.008939079966444876,0.3837837837837838,0.054945054945054944,0.07692307692307693,0.06521739130434782,0.7348066298342542
https://www.justonecookbook.com/dorayaki-japanese-red-bean-pancake/,0.020782225561559717,-0.027510757388981007,0.007613792945201432,0.0009604406636637415,0.01299065844862233,0.3837837837837838,0.054945054945054944,0.07692307692307693,0.06521739130434782,0.7348066298342542
https://www.justonecookbook.com/green-tea-cookie-vegan/,0.03788272579452991,0.008810495239392946,-0.006039245083671927,0.055956511398129384,-0.049122945116060496,0.3837837837837838,0.054945054945054944,0.07692307692307693,0.06521739130434782,0.7348066298342542
https://www.justonecookbook.com/basque-burnt-cheesecake/,-0.007597290908075198,0.005363862245821578,0.0024894739823183272,0.0014504437270474553,0.0017730634318964848,1.0,1.0,1.0,1.0,1.0
https://www.justonecookbook.com/orange-chiffon-cake/,0.0014282532279014536,-0.014204670888078277,-0.0029207292391860698,-0.01737989361100233,-0.011650552538830213,0.3837837837837838,0.054945054945054944,0.07692307692307693,0.06521739130434782,0.7348066298342542
https://www.justonecookbook.com/warabi-mochi/,-0.034040100852867,0.015203231294577322,-0.014200295510889699,0.010194614114086075,0.007844127105947101,0.3837837837837838,0.054945054945054944,0.07692307692307693,0.06521739130434782,0.7348066298342542
https://www.justonecookbook.com/pineapple-upside-down-cake/,-0.014649688650580901,0.0118112085572375,0.0266115578888712,-0.007600252230781018,-0.004166809634000487,0.3837837837837838,0.054945054945054944,0.07692307692307693,0.06521739130434782,0.7348066298342542
https://www.justonecookbook.com/green-tea-madeleine/,0.006292454974811081,0.010399571846013988,-0.0006351818059126827,0.022817987569900066,-0.019714395413900215,0.3837837837837838,0.054945054945054944,0.07692307692307693,0.06521739130434782,0.7348066298342542
https://www.justonecookbook.com/yuzu-sorbet/,-0.034040100852867,0.015203231294577322,-0.014200295510889699,0.010194614114086075,0.007844127105947101,0.3837837837837838,0.054945054945054944,0.07692307692307693,0.06521739130434782,0.7348066298342542
https://www.justonecookbook.com/matcha-zenzai/,0.05345326370658275,-0.023577827259908573,0.014980636141899588,0.04720338422240691,0.002388327605830325,0.3837837837837838,0.054945054945054944,0.07692307692307693,0.06521739130434782,0.7348066298342542
https://www.justonecookbook.com/frozen-chocolate-banana/,0.021907511120203792,-0.049418792733344465,-0.026297639275663538,-0.04261094765423391,-0.025430554128340895,0.3837837837837838,0.054945054945054944,0.07692307692307693,0.06521739130434782,0.7348066298342542
https://www.justonecookbook.com/custard-cream-pastry-cream/,0.003852238281141866,0.004734071257271137,0.038381674680105796,-0.0035654111419594577,-0.0008973497381126752,0.3837837837837838,0.054945054945054944,0.07692307692307693,0.06521739130434782,0.7348066298342542
https://www.justonecookbook.com/chocolate-cake-guest-post-by-gourmantines-blog/,-0.022573309849925796,0.013283309463599935,-0.0009747036361452772,0.0033059469793018047,0.004017736988408189,0.3837837837837838,0.054945054945054944,0.07692307692307693,0.06521739130434782,0.7348066298342542
https://www.justonecookbook.com/blueberry-cake/,-0.013402944468568762,0.011610208299230965,0.025987434993231327,-0.007279001619266011,-0.003787994821678653,0.3837837837837838,0.054945054945054944,0.07692307692307693,0.06521739130434782,0.7348066298342542
https://www.justonecookbook.com/chocolate-ice-cream/,-0.005351371471072089,0.015491798779313245,0.033216458628949924,-0.009293817421520965,-0.007256902068481295,0.3837837837837838,0.054945054945054944,0.07692307692307693,0.06521739130434782,0.7348066298342542
https://www.justonecookbook.com/coconut-macaroons/,-0.015339695831939245,0.008776377941431398,0.0036811282307262203,0.0011898314766820336,0.002534497074960783,0.3837837837837838,0.054945054945054944,0.07692307692307693,0.06521739130434782,0.7348066298342542
https://www.justonecookbook.com/shiratama-dango/,-0.0002779487955524668,-0.01077280257828108,0.0005136875414718699,0.013451427361605695,0.009107135772656521,0.3837837837837838,0.054945054945054944,0.07692307692307693,0.06521739130434782,0.7348066298342542
https://www.justonecookbook.com/green-tea-white-chocolate-cookies/,0.004022489100451495,0.010972633158635628,0.024523497101265272,0.0047962215621721906,-0.016612468458653926,0.3837837837837838,0.054945054945054944,0.07692307692307693,0.06521739130434782,0.7348066298342542
https://www.justonecookbook.com/yuzu-ice-cream/,-0.005647820947585012,0.013824166353271071,0.03288816056412072,-0.010963734248917358,-0.006591415048413466,0.3837837837837838,0.054945054945054944,0.07692307692307693,0.06521739130434782,0.7348066298342542
https://www.justonecookbook.com/coffee-ice-cream/,-0.007056307203322455,0.013589274279991037,0.029437948152127018,-0.00920519669810451,-0.005269834956053575,0.3837837837837838,0.054945054945054944,0.07692307692307693,0.06521739130434782,0.7348066298342542
https://www.justonecookbook.com/strawberry-cheesecake-ice-cream/,0.000732215383391403,0.01332434014817117,0.03643853347228237,-0.013021849938742848,-0.008923840674026835,0.3837837837837838,0.054945054945054944,0.07692307692307693,0.06521739130434782,0.7348066298342542
https://www.justonecookbook.com/chocolate-chiffon-cake/,-0.0036168833482731963,-0.005191811011400022,-0.003764563290443786,-0.009712046229034583,-0.007169792352315744,0.3837837837837838,0.054945054945054944,0.07692307692307693,0.06521739130434782,0.7348066298342542
https://www.justonecookbook.com/panettone-bread-pudding/,-0.012672984418193261,0.009585976638934466,-0.0011174760276026219,-0.000384198114524395,0.0015905833677640941,0.0,0.0,1.0,0.0,1.0
https://www.justonecookbook.com/castella/,-0.017593353851966958,0.010602824340957084,0.003876763993314688,-0.0003508687670434554,-0.002713287991748275,0.3837837837837838,0.054945054945054944,0.07692307692307693,0.06521739130434782,0.7348066298342542
https://www.justonecookbook.com/chocolate-chip-cookies-with-nutella-recipe/,0.0011574261570987986,0.007806752567166551,0.03149390155715723,-0.011135191093167945,-0.005136710765541,0.3837837837837838,0.054945054945054944,0.07692307692307693,0.06521739130434782,0.7348066298342542
https://www.justonecookbook.com/sweet-potato-pie/,-0.0025968941655320375,0.006142340457893728,0.0451010861473725,-0.015914813079175784,-0.006164088757495864,0.3837837837837838,0.054945054945054944,0.07692307692307693,0.06521739130434782,0.7348066298342542
https://www.justonecookbook.com/cherry-blossom-madeleines/,-0.023588843135161155,0.011891033959660818,0.004305239673656081,0.0029246190392923665,0.0028427955633565207,0.3837837837837838,0.054945054945054944,0.07692307692307693,0.06521739130434782,0.7348066298342542
https://www.justonecookbook.com/kashiwa-mochi/,0.03375062095997035,-0.029640451609660785,0.02244444021392002,0.030168573791325207,0.0460668892335368,0.3837837837837838,0.054945054945054944,0.07692307692307693,0.06521739130434782,0.7348066298342542
https://www.justonecookbook.com/meyer-lemon-cookies/,-0.013088816883507446,0.011303354316545,-0.0024864076449639056,0.005140154446406113,0.001315857380770226,0.3837837837837838,0.054945054945054944,0.07692307692307693,0.06521739130434782,0.7348066298342542
https://www.justonecookbook.com/nama-chocolate/,-0.00868629485909511,0.020663308975403097,-0.00751272769817521,0.007239349928990947,0.007040607498743171,0.3837837837837838,0.054945054945054944,0.07692307692307693,0.06521739130434782,0.7348066298342542
https://www.justonecookbook.com/cherry-blossom-cookies/,-0.0019133766779431442,0.006643225590497836,0.04270683539451669,-0.01483819184681294,-0.007175477637539906,0.3837837837837838,0.054945054945054944,0.07692307692307693,0.06521739130434782,0.7348066298342542
https://www.justonecookbook.com/matcha-tiramisu/,0.027391078466449406,0.012450019294844645,0.03371820266707379,0.01652359279076569,-0.0359602388406278,0.3837837837837838,0.054945054945054944,0.07692307692307693,0.06521739130434782,0.7348066298342542
https://www.justonecookbook.com/souffle-japanese-cheesecake/,-0.013534621390546873,0.01113299830014455,0.003906440013314132,0.0009439588228884809,0.00011186885217832314,0.3837837837837838,0.054945054945054944,0.07692307692307693,0.06521739130434782,0.7348066298342542
https://www.justonecookbook.com/matcha-vegan-panna-cotta/,0.04963714173489798,-0.014849835464570964,0.011973895665057065,0.04856041044648898,0.0004935072346750316,0.3837837837837838,0.054945054945054944,0.07692307692307693,0.06521739130434782,0.7348066298342542
https://www.justonecookbook.com/peanut-butter-chocolate-chip-cookies/,-0.01254333045740223,0.010081689060902356,0.012650240234960655,0.0007304009432698701,0.0011335240038516708,0.3837837837837838,0.054945054945054944,0.07692307692307693,0.06521739130434782,0.7348066298342542
https://www.justonecookbook.com/tofu-pudding-blancmange/,-0.004199962885266398,0.008050014408242571,-0.012484078127686789,0.0012002441435493315,-0.0023728408532350176,0.3837837837837838,0.054945054945054944,0.07692307692307693,0.06521739130434782,0.7348066298342542
https://www.justonecookbook.com/mitarashi-dango/,0.0010396359786610761,-0.010044796100030937,0.0007303034585599044,0.009452064549944704,0.007908682478355803,0.3837837837837838,0.054945054945054944,0.07692307692307693,0.06521739130434782,0.7348066298342542
https://www.justonecookbook.com/daifuku/,0.030294480459213003,-0.02917536353982431,0.018808010796873737,0.025804792670670026,0.035231565161908285,0.3837837837837838,0.054945054945054944,0.07692307692307693,0.06521739130434782,0.7348066298342542
https://www.justonecookbook.com/tart-crust/,-0.023408390106291498,0.010813216547297846,0.0030891449791483052,0.0020837760216286987,0.004485032080665986,0.3837837837837838,0.054945054945054944,0.07692307692307693,0.06521739130434782,0.7348066298342542
https://www.justonecookbook.com/pear-almond-tart/,-0.02035977875643227,0.01032534020859691,-0.0012728084624513147,0.002232051858265926,0.002978979027875368,0.3837837837837838,0.054945054945054944,0.07692307692307693,0.06521739130434782,0.7348066298342542
https://www.justonecookbook.com/sakura-mochi/,0.04393621023489681,-0.03763172153687474,0.02413868937345484,0.03437183365729619,0.04726336587641587,0.3837837837837838,0.054945054945054944,0.07692307692307693,0.06521739130434782,0.7348066298342542
https://www.justonecookbook.com/miso-butter-cookies/,-0.018666962185368657,0.005155479939901854,0.006150739241937192,0.001441421716841721,0.00291651258533906,0.3837837837837838,0.054945054945054944,0.07692307692307693,0.06521739130434782,0.7348066298342542
https://www.justonecookbook.com/green-tea-donuts/,0.009080362474814658,0.009019180254145113,0.001136501698613013,0.02104177430683062,-0.019228367791101632,0.3837837837837838,0.054945054945054944,0.07692307692307693,0.06521739130434782,0.7348066298342542
https://www.justonecookbook.com/lavender-madeleines-guest-post-by-roti-n-rice/,-0.02120744387936081,0.011127080524237186,-0.0004915977714047056,0.0029646820334851428,0.003494551781172081,0.3837837837837838,0.054945054945054944,0.07692307692307693,0.06521739130434782,0.7348066298342542
https://www.justonecookbook.com/purin-dora/,-0.0014084405863179572,-0.0004512632339548218,0.01658250872474847,-0.015954788370124966,-0.01106263332424067,0.3837837837837838,0.054945054945054944,0.07692307692307693,0.06521739130434782,0.7348066298342542
https://www.justonecookbook.com/twinkie-minions/,-0.011617838206591485,0.018145783419600575,-0.00792836291044518,0.013630873998750914,0.004751580033913715,0.3837837837837838,0.054945054945054944,0.07692307692307693,0.06521739130434782,0.7348066298342542
https://www.justonecookbook.com/zenzai-red-bean-soup/,0.025204682608033244,-0.024793113471604875,0.016116709328673137,0.02683526310929222,0.04194630147683569,0.3837837837837838,0.054945054945054944,0.07692307692307693,0.06521739130434782,0.7348066298342542
https://www.justonecookbook.com/chocolate-souffle/,-0.01671440744453511,0.013085859756287385,0.0078526251544855,0.002084631316277912,0.00119208130227201,0.3837837837837838,0.054945054945054944,0.07692307692307693,0.06521739130434782,0.7348066298342542
https://www.justonecookbook.com/fruit-jelly/,-0.025113621975628022,0.01648732794817924,-0.01271126297332793,0.009059980062375295,0.00733061147115351,0.3837837837837838,0.054945054945054944,0.07692307692307693,0.06521739130434782,0.7348066298342542
https://www.justonecookbook.com/meyer-lemon-chiffon-cake/,0.0004432208129594267,-0.012736259918237578,-0.003811540852414553,-0.01570050718826269,-0.010783193363245099,0.3837837837837838,0.054945054945054944,0.07692307692307693,0.06521739130434782,0.7348066298342542
https://www.justonecookbook.com/lychee-coconut-sorbet/,0.014067994361006858,-0.010617406615770974,-0.01408724634623786,-0.004809759897204846,-0.005302412009208781,0.3837837837837838,0.054945054945054944,0.07692307692307693,0.06521739130434782,0.7348066298342542
https://www.justonecookbook.com/chocolate-covered-strawberries/,-0.009439251313935616,0.018600652090405737,-0.00883078031793787,0.010210793189006105,0.005527580138851964,0.3837837837837838,0.054945054945054944,0.07692307692307693,0.06521739130434782,0.7348066298342542
https://www.justonecookbook.com/white-bean-paste-shiroan/,-0.027652993114368613,0.010069428419269551,-0.013313412255663081,0.005217007014595624,0.009253396506048686,0.3837837837837838,0.054945054945054944,0.07692307692307693,0.06521739130434782,0.7348066298342542
https://www.justonecookbook.com/green-tea-chiffon-cake/,0.026016088915891238,-0.006664504215686446,0.019868032901208737,0.0005618972679635787,-0.03437930908791399,0.3837837837837838,0.054945054945054944,0.07692307692307693,0.06521739130434782,0.7348066298342542
https://www.justonecookbook.com/banana-bread/,-0.008066187597940012,-0.006282841478688248,-0.00805757888096144,-0.010792262963525989,-0.005281132853654674,0.3837837837837838,0.054945054945054944,0.07692307692307693,0.06521739130434782,0.7348066298342542
https://www.justonecookbook.com/matcha-marble-pound-cake/,0.007836306329954008,0.009713619491693056,0.0005471965552465161,0.024259795324461462,-0.021104636675132064,0.3837837837837838,0.054945054945054944,0.07692307692307693,0.06521739130434782,0.7348066298342542
https://www.justonecookbook.com/matcha-swiss-roll/,0.01489680984648547,0.011828728180972923,0.0030620089713301753,0.026031840024786906,-0.024350537288411925,0.3837837837837838,0.054945054945054944,0.07692307692307693,0.06521739130434782,0.7348066298342542
https://www.justonecookbook.com/easy-apple-tart/,-0.0006151769578220682,0.0070964860701042244,0.04968025762119579,-0.017637967033706275,-0.009728073322249411,0.3837837837837838,0.054945054945054944,0.07692307692307693,0.06521739130434782,0.7348066298342542
https://www.justonecookbook.com/nougat-and-glace-with-orange-caramel-guest-post-by-mad-about-macarons/,-0.016574165245296,0.010101393854748973,0.004180087021736838,5.2364351788496996e-05,0.0011262465979030966,0.3837837837837838,0.054945054945054944,0.07692307692307693,0.06521739130434782,0.7348066298342542
https://www.justonecookbook.com/black-sesame-ice-cream/,-0.003931333824295044,0.006870291907370158,0.021771637353462926,-0.0059782801941512375,-0.0006322702785882877,0.3837837837837838,0.054945054945054944,0.07692307692307693,0.06521739130434782,0.7348066298342542
https://www.justonecookbook.com/mochi-ice-cream/,-0.003301476420917203,-0.0036474410743534435,-0.0006697639055028997,0.010489752116470623,0.008439516427562476,0.3837837837837838,0.054945054945054944,0.07692307692307693,0.06521739130434782,0.7348066298342542
https://www.justonecookbook.com/blueberry-frozen-yogurt/,-0.004357064929608097,0.008389102230843694,-0.008333127588868151,0.0016674796185857184,-0.0005404976491711616,0.3837837837837838,0.054945054945054944,0.07692307692307693,0.06521739130434782,0.7348066298342542
https://www.justonecookbook.com/mango-lassi-popsicles/,0.04002362306961431,0.018712712431421797,-0.006332528057273032,-0.013090333588096751,-0.00016634808584905074,0.3837837837837838,0.054945054945054944,0.07692307692307693,0.06521739130434782,0.7348066298342542
https://www.justonecookbook.com/ohagi-botamochi/,0.020897360075795502,-0.024460754713915067,0.011576399701360512,0.02296125039490161,0.03341624422955242,0.3837837837837838,0.054945054945054944,0.07692307692307693,0.06521739130434782,0.7348066298342542
https://www.justonecookbook.com/almond-cookies/,0.007990232574768642,-0.011293057613025018,0.03058868485702144,-0.027829710539041402,-0.015176225391517998,0.3837837837837838,0.054945054945054944,0.07692307692307693,0.06521739130434782,0.7348066298342542
https://www.justonecookbook.com/imagawayaki-obanyaki/,0.02004229939534929,-0.024690234919653234,0.007821837502192104,0.0010650779183767097,0.01121122553049582,0.3837837837837838,0.054945054945054944,0.07692307692307693,0.06521739130434782,0.7348066298342542
https://www.justonecookbook.com/kabocha-squash-pie/,-0.0029494262997282064,0.00649470238534049,0.034390245253877606,-0.012106810182790724,-0.003502635558867677,0.3837837837837838,0.054945054945054944,0.07692307692307693,0.06521739130434782,0.7348066298342542
https://www.justonecookbook.com/strawberry-daifuku/,0.02688037643880112,-0.02479073756306886,0.016213355423119146,0.02407623959217235,0.03260174813463378,0.3837837837837838,0.054945054945054944,0.07692307692307693,0.06521739130434782,0.7348066298342542
https://www.justonecookbook.com/no-bake-creme-caramel/,-0.006345173015757725,0.01484267910537917,0.03316318382604552,-0.009611286447169574,-0.006846359438681482,0.3837837837837838,0.054945054945054944,0.07692307692307693,0.06521739130434782,0.7348066298342542
https://www.justonecookbook.com/strawberry-frozen-yogurt/,-0.007365951386485113,0.012304712409475584,-0.009941780773526225,0.002654969059679385,0.004070768570770679,0.3837837837837838,0.054945054945054944,0.07692307692307693,0.06521739130434782,0.7348066298342542
https://www.justonecookbook.com/meyer-lemon-pound-cake/,-0.006392401597182195,0.007764649066187257,0.0002756301299833678,-0.0020925391658908163,-0.0008046078532427756,0.3837837837837838,0.054945054945054944,0.07692307692307693,0.06521739130434782,0.7348066298342542
https://www.justonecookbook.com/green-tea-mochi/,0.03486489904261517,-0.0037107084566812888,-0.0004625339121872076,0.04180931784497769,-0.029631353808450632,0.3837837837837838,0.054945054945054944,0.07692307692307693,0.06521739130434782,0.7348066298342542
https://www.justonecookbook.com/soy-sauce-caramel-ice-cream/,-0.007178848973905692,0.012012047685717446,0.023011756783467622,-0.006553694582910788,-0.003939676115435371,0.3837837837837838,0.054945054945054944,0.07692307692307693,0.06521739130434782,0.7348066298342542
https://www.justonecookbook.com/tsukimi-dango/,-0.03139837642852827,0.015160396661045178,-0.015847142332587463,0.008557321733154053,0.006749174235842345,0.3837837837837838,0.054945054945054944,0.07692307692307693,0.06521739130434782,0.7348066298342542
https://www.justonecookbook.com/japanese-strawberry-shortcake/,-0.014191391085991809,0.01252027564229302,0.0005844414299695119,0.0033148931478484338,0.0023778288105518524,0.3837837837837838,0.054945054945054944,0.07692307692307693,0.06521739130434782,0.7348066298342542
https://www.justonecookbook.com/sata-andagi/,-0.002556334508741551,-0.012854221056183173,-0.002500958803161827,-0.015880459604243658,-0.008381590610269465,0.3837837837837838,0.054945054945054944,0.07692307692307693,0.06521739130434782,0.7348066298342542
https://www.justonecookbook.com/green-tea-pudding/,0.04524777580905543,-0.012183168126990144,0.011303209735204125,0.04470951021347273,-2.642798356451125e-05,0.3837837837837838,0.054945054945054944,0.07692307692307693,0.06521739130434782,0.7348066298342542
https://www.justonecookbook.com/coffee-jelly/,-0.034040100852867,0.015203231294577322,-0.014200295510889699,0.010194614114086075,0.007844127105947101,0.3837837837837838,0.054945054945054944,0.07692307692307693,0.06521739130434782,0.7348066298342542
https://www.justonecookbook.com/red-bean-ice-cream/,0.019250139896383207,-0.015934033729175578,0.01256376940459268,0.020875633743514234,0.030666611346293338,0.3837837837837838,0.054945054945054944,0.07692307692307693,0.06521739130434782,0.7348066298342542
https://www.justonecookbook.com/chocolate-almond-toffee/,-0.024210885061027594,0.012022343246487932,-0.010501644598739325,0.006885443134676769,0.0075937672415786845,0.3837837837837838,0.054945054945054944,0.07692307692307693,0.06521739130434782,0.7348066298342542
https://www.justonecookbook.com/pon-de-ring-donut-recipe/,-0.0035693670606818293,0.007820739388640141,-0.00040116026488502,0.011353911184836729,-0.009727235344913349,0.3837837837837838,0.054945054945054944,0.07692307692307693,0.06521739130434782,0.7348066298342542
https://www.justonecookbook.com/green-tea-ice-cream-matcha-ice-cream/,0.04064585089649658,0.007475327342350345,-0.007910349561805073,0.0540601215508447,-0.04836276655456789,0.3837837837837838,0.054945054945054944,0.07692307692307693,0.06521739130434782,0.7348066298342542
https://www.justonecookbook.com/japanese-sweet-potato/,0.002617442791337337,0.0073478492386377875,0.0583726211105173,-0.02170002288822864,-0.011031530507203808,0.3837837837837838,0.054945054945054944,0.07692307692307693,0.06521739130434782,0.7348066298342542
https://www.justonecookbook.com/earl-grey-chiffon-cake/,0.008773914336297263,-0.0126363184889491,-0.005741135554056954,-0.004052086836150642,-0.02098443842093472,0.3837837837837838,0.054945054945054944,0.07692307692307693,0.06521739130434782,0.7348066298342542
https://www.justonecookbook.com/green-tea-chocolate/,0.031053185147174242,0.012678808554177952,-0.005898571066477734,0.042400655893011834,-0.03567973844994079,0.3837837837837838,0.054945054945054944,0.07692307692307693,0.06521739130434782,0.7348066298342542
https://www.justonecookbook.com/instant-pot-kabocha-flan/,-0.020267315816250027,0.016106321914347556,0.0013692426778079967,0.0032854053280476658,0.0027429554477180376,0.3837837837837838,0.054945054945054944,0.07692307692307693,0.06521739130434782,0.7348066298342542
https://www.justonecookbook.com/flambeed-pear-purses-with-caramel-sauce-and-ganache-guest-post-by-five-euro-food/,-0.020694518893050226,0.01677741568427245,-0.008858359032900413,0.005739315431667733,0.007337274993092935,0.3837837837837838,0.054945054945054944,0.07692307692307693,0.06521739130434782,0.7348066298342542
https://www.justonecookbook.com/mizu-yokan/,0.03404561168791925,-0.030512995847274994,0.02021244602278261,0.028978600019793764,0.04666161876536134,0.3837837837837838,0.054945054945054944,0.07692307692307693,0.06521739130434782,0.7348066298342542
https://www.justonecookbook.com/mini-fruit-puff-pastry-with-lemon-glaze/,-0.009141870337991423,0.007836445688410824,0.0071518522071223126,-0.0010787204535055732,-0.0023367623600339697,0.3837837837837838,0.054945054945054944,0.07692307692307693,0.06521739130434782,0.7348066298342542
https://www.justonecookbook.com/custard-pudding/,-0.024616246759699617,0.014167738680755064,0.004260627303923811,0.003032677795942033,0.0009289000490752919,0.3837837837837838,0.054945054945054944,0.07692307692307693,0.06521739130434782,0.7348066298342542
https://www.justonecookbook.com/ume-shaved-ice/,0.15655668895418987,0.08970626554382935,-0.03209780853250935,-0.057753546578767585,0.024082205349602363,0.3837837837837838,0.054945054945054944,0.07692307692307693,0.06521739130434782,0.7348066298342542
https://www.justonecookbook.com/orange-jelly/,0.008421203564748873,0.019656945011240188,-0.010799686847262806,-0.005544893215184454,0.006573612932683962,0.3837837837837838,0.054945054945054944,0.07692307692307693,0.06521739130434782,0.7348066298342542
https://www.justonecookbook.com/sesame-cupcakes-with-honey-meringue-frosting-guest-post-by-t-and-tea-cake/,-0.0062871471213702115,-0.0051274592156522626,0.00037991017943469314,-0.004578848059448083,-0.0016829980189429507,0.3837837837837838,0.054945054945054944,0.07692307692307693,0.06521739130434782,0.7348066298342542
https://www.justonecookbook.com/cherry-clafoutis/,-0.024808405194028087,0.011944455568246613,-0.0009638214811562599,0.0031514307705099854,0.0037183815513815405,0.3837837837837838,0.054945054945054944,0.07692307692307693,0.06521739130434782,0.7348066298342542
https://www.justonecookbook.com/how-to-make-agar/,-0.034040100852867,0.015203231294577322,-0.014200295510889699,0.010194614114086075,0.007844127105947101,0.3837837837837838,0.054945054945054944,0.07692307692307693,0.06521739130434782,0.7348066298342542
https://www.justonecookbook.com/how-to-make-anko-red-bean-paste/,-0.027652993114368613,0.010069428419269551,-0.013313412255663081,0.005217007014595624,0.009253396506048686,0.3837837837837838,0.054945054945054944,0.07692307692307693,0.06521739130434782,0.7348066298342542
https://www.justonecookbook.com/cherry-bars/,-0.025178286385032486,0.011464979296213337,-0.000253962071118455,0.002634800171042572,0.004096813645566197,0.3837837837837838,0.054945054945054944,0.07692307692307693,0.06521739130434782,0.7348066298342542
https://www.justonecookbook.com/mango-ice-cream/,-0.016401890658306297,0.015459560613661938,-0.00944709646389564,0.005762708622141139,0.004702442591551307,0.3837837837837838,0.054945054945054944,0.07692307692307693,0.06521739130434782,0.7348066298342542
https://www.justonecookbook.com/green-tea-souffle/,0.014525265061393686,0.012572184201061,0.008563488991361402,0.022171782058997794,-0.024755272795034578,0.3837837837837838,0.054945054945054944,0.07692307692307693,0.06521739130434782,0.7348066298342542
https://www.justonecookbook.com/matcha-basque-cheesecake/,0.001654202240289239,0.005836655185290892,0.03566280064721423,-0.007899615207257986,-0.008087973229536518,1.0,1.0,1.0,1.0,1.0
https://www.justonecookbook.com/simple-crepes/,-0.0030250423695675046,-0.0005466564522799182,-0.007901296022631687,-0.00963427863945648,-0.00311770950320755,0.3837837837837838,0.054945054945054944,0.07692307692307693,0.06521739130434782,0.7348066298342542
https://www.justonecookbook.com/taro-tapioca-dessert-soup/,-0.014697767760882439,0.006962800405668234,-0.011331083202673354,0.004941083807735368,0.001316386725633527,0.3837837837837838,0.054945054945054944,0.07692307692307693,0.06521739130434782,0.7348066298342542
https://www.justonecookbook.com/fruit-popsicles/,0.006773419687689208,-0.01209172358460204,-0.0005632697236905063,0.0017310533761556773,0.011041689106068954,0.3837837837837838,0.054945054945054944,0.07692307692307693,0.06521739130434782,0.7348066298342542
https://www.justonecookbook.com/butter-cookies-hato-sabure-recipe/,-0.022891223205628138,0.011640465443200321,0.006382844050857286,0.003010894427963473,0.003138234901951262,0.3837837837837838,0.054945054945054944,0.07692307692307693,0.06521739130434782,0.7348066298342542
https://www.justonecookbook.com/blueberry-cheesecake/,-0.007929155480732723,0.011235748560508277,0.023792160464941328,-0.007940771885818267,-0.004730010475069297,0.3837837837837838,0.054945054945054944,0.07692307692307693,0.06521739130434782,0.7348066298342542
https://www.justonecookbook.com/ujikintoki-green-tea-shaved-ice/,0.06135609935809322,-0.003207472114034627,0.008119371470351588,0.03156702484386338,0.01882460938379444,0.3837837837837838,0.054945054945054944,0.07692307692307693,0.06521739130434782,0.7348066298342542
https://www.justonecookbook.com/hanami-dango/,-0.0002779487955524668,-0.01077280257828108,0.0005136875414718699,0.013451427361605695,0.009107135772656521,0.3837837837837838,0.054945054945054944,0.07692307692307693,0.06521739130434782,0.7348066298342542
https://www.justonecookbook.com/cherry-ice-cream/,-0.003962472285973483,0.004643060265983482,-0.0009037611415258308,0.01291451829646845,0.01476029442611598,0.3837837837837838,0.054945054945054944,0.07692307692307693,0.06521739130434782,0.7348066298342542
https://www.justonecookbook.com/matcha-mille-crepe-cake/,0.013364260137436322,-0.0020694782798395786,-0.004143589272875683,0.009062041106070623,-0.02286965078812487,0.3837837837837838,0.054945054945054944,0.07692307692307693,0.06521739130434782,0.7348066298342542
https://www.justonecookbook.com/green-tea-creme-brulee/,0.02591543407384662,0.012645607114332083,0.031802890799110306,0.015357459950310959,-0.03410528814833609,0.3837837837837838,0.054945054945054944,0.07692307692307693,0.06521739130434782,0.7348066298342542
https://www.justonecookbook.com/nougat-semifreddo-guest-post-by-alterkitchen/,-0.020213097095336887,0.014307066809783659,0.0008203427037658293,0.0028505159788784224,0.0026189225959859985,0.3837837837837838,0.054945054945054944,0.07692307692307693,0.06521739130434782,0.7348066298342542
https://omnivorescookbook.com/eight-treasure-rice/,0.022255052270233514,-0.02344717273966614,0.01010046758333645,0.01782729852465875,0.03041760045335906,1.0,0.0,0.0,0.0,1.0
https://omnivorescookbook.com/mango-sago/,-0.014697767760882439,0.006962800405668234,-0.011331083202673354,0.004941083807735368,0.001316386725633527,1.0,0.0,0.0,0.0,1.0
https://omnivorescookbook.com/dou-fu-nao/,-0.009421578658977458,-0.005513988076260344,-0.009143906043008894,-0.0026329140324978257,0.0016660632604414837,0.0,1.0,0.0,0.0,0.0
https://omnivorescookbook.com/strawberry-thumbprint-cookies/,-0.023435874038537138,0.013461766140243204,0.0006172571187512494,0.004124200062959356,0.004531858471563811,0.0,0.0,0.0,0.0,0.0
https://omnivorescookbook.com/red-bean-popsicles/,-0.010857522328984251,0.014978739796993355,-0.0025563416876666204,0.005543659721500372,-0.0034758299876846413,0.0,0.0,0.0,0.0,1.0
https://omnivorescookbook.com/chinese-fish-en-papillote/,0.005623319098069131,-0.025320322019286856,-0.016303643963350815,-0.012236590631284912,-0.007264831698633757,0.0,1.0,0.0,0.0,0.0
https://omnivorescookbook.com/gluten-free-apple-crumble/,-0.0011273374090116116,0.006398279745516744,-0.0056817670662420335,0.0015887104247557294,0.004094200795444247,0.0,0.0,0.0,0.0,1.0
https://omnivorescookbook.com/white-chocolate-lemon-cupcakes/,-0.01690914188179219,0.011141617696887896,-0.002405202212831946,0.0037763524247983755,0.001998279792072876,0.0,0.0,0.0,0.0,1.0
https://omnivorescookbook.com/ginger-creme-brulee/,0.001799028761120733,0.007487480585272124,0.04988171832940973,-0.01657546068867604,-0.010351003470763216,0.0,0.0,0.0,0.0,0.0
https://omnivorescookbook.com/recipes/black-rice-with-coconut-milk-and-fruits/,0.03368312023693174,0.038158415972519844,-0.020784718782778062,-0.011373843788845385,0.010876913434118724,1.0,0.0,0.0,0.0,1.0
https://omnivorescookbook.com/recipes/family-favorite-fruitcake/,-0.009132536407185296,0.005669175044363928,0.006716256024343374,0.0013464794131497133,0.0020067365335060166,0.0,0.0,0.0,0.0,1.0
https://omnivorescookbook.com/chinese-bird-nest/,-0.036681825051155616,0.015246065885448886,-0.012553448610917603,0.011831906405528189,0.008939079966444876,0.3837837837837838,0.054945054945054944,0.07692307692307693,0.06521739130434782,0.7348066298342542
https://omnivorescookbook.com/recipes/how-to-make-red-bean-paste/,-0.033460906062173966,0.011943686267832212,-0.013015438676378712,0.008201964797755394,0.009186708340612266,0.0,0.0,0.0,0.0,1.0
https://omnivorescookbook.com/easy-pie-crust/,0.005960109808412458,0.02885509085175571,-0.0012463870563247414,-0.008639375834409888,0.008230349300644342,0.0,0.0,0.0,0.0,0.0
https://omnivorescookbook.com/chinese-banana-fritters/,-0.00795059441005549,0.014009247147410229,-0.006613513079125472,0.0006269739691456193,0.004988233781105073,0.0,0.0,0.0,0.0,1.0
https://omnivorescookbook.com/vegan-mango-pudding/,-0.0027304395830403095,-0.00020941359247631552,-0.012275205874218754,0.001107014347075679,-0.002553760151739828,0.0,0.0,0.0,0.0,1.0
https://omnivorescookbook.com/recipes/zongzi-red-bean-paste/,0.0789987042113168,-0.060928398595645486,0.046180263737566035,0.04761844080348119,0.07526526135838241,0.0,0.0,0.0,0.0,0.0
https://omnivorescookbook.com/recipes/apple-pie-cookies/,-0.011607076131936034,-0.0036756570399024673,-0.010538963199514449,-0.0031238411053083055,-0.0004358431765054307,0.3837837837837838,0.054945054945054944,0.07692307692307693,0.06521739130434782,0.7348066298342542
https://omnivorescookbook.com/black-sesame-soup/,-0.011422640942086495,-0.0032167036718265167,-0.005176686425845149,0.00451925821954295,0.007516473288980406,0.0,0.0,0.0,0.0,0.0
https://omnivorescookbook.com/mango-sticky-rice/,-0.01677127218851924,0.0021064586197602118,-0.008703386672992895,0.003980585982860383,0.005288062359015056,0.0,0.0,0.0,0.0,1.0
https://omnivorescookbook.com/red-bean-soup/,-0.033460906062173966,0.011943686267832212,-0.013015438676378712,0.008201964797755394,0.009186708340612266,0.0,0.0,0.0,0.0,1.0
https://omnivorescookbook.com/almond-tofu/,-0.02180732051791283,0.016853776245518,-0.00987973383355966,0.008807908082895357,0.005185050949389722,0.0,0.0,0.0,0.0,1.0
https://omnivorescookbook.com/chinese-walnut-cookies/,-0.011648611664177891,0.009564610582825104,0.00411556353734873,0.0013696528640961285,0.0018621779496092894,0.3837837837837838,0.054945054945054944,0.07692307692307693,0.06521739130434782,0.7348066298342542
https://omnivorescookbook.com/japanese-strawberry-shortcake/,-0.012600216589332048,0.011850368909422272,0.016282123530465747,-0.0027113847309797458,-0.0009302487023128178,0.3837837837837838,0.054945054945054944,0.07692307692307693,0.06521739130434782,0.7348066298342542
https://omnivorescookbook.com/tang-yuan/,-0.013087656254779832,-0.003142783880507608,-0.008152528285247505,0.002947105149418996,0.0031896566426192706,0.3837837837837838,0.054945054945054944,0.07692307692307693,0.06521739130434782,0.7348066298342542
https://omnivorescookbook.com/eight-treasure-congee/,-0.034040100852867,0.015203231294577322,-0.014200295510889699,0.010194614114086075,0.007844127105947101,0.0,0.0,0.0,0.0,0.0
https://omnivorescookbook.com/salted-chocolate-chip-cookies/,-0.010180830242940626,0.006802680468063883,0.0037754441756973718,0.00383626286294723,0.007566528058380985,0.3837837837837838,0.054945054945054944,0.07692307692307693,0.06521739130434782,0.7348066298342542
https://omnivorescookbook.com/sticky-rice-cake-with-red-bean-paste/,0.0317965856213378,-0.0405671412586411,0.013185845572534775,0.012962415197270238,0.02831849819846295,0.0,0.0,0.0,0.0,0.7348066298342542
https://omnivorescookbook.com/snow-skin-mooncake-custard/,-0.0016541267081760485,-0.0006720297690056981,0.02333402365872412,-0.01245331031093375,-0.008167222294524747,0.0,0.0,0.0,0.0,1.0
https://omnivorescookbook.com/kabocha-pumpkin-pie/,-0.010150154625674155,0.00835275000756061,0.004373711760251322,0.0014341574678510217,0.001972216725048577,0.0,0.0,0.0,0.0,0.0
https://omnivorescookbook.com/black-sesame-ice-cream/,-0.01715935891021911,0.008448883954330893,-0.008313976730281853,0.005535831659217167,0.007614090590428612,0.0,0.0,0.0,0.0,1.0
https://omnivorescookbook.com/shen-jian-bao/,-0.0030667623211450153,-0.015945834577556807,-0.010164465342320458,-0.007668757572192388,-0.0014556709127994387,0.0,0.0,0.0,0.0,0.0
https://thewoksoflife.com/peach-squares/,-0.027710558370591335,0.012812196068737658,0.0006464791598920211,0.004977364437051013,0.00411977210324915,0.0,0.0,0.0,0.0,1.0
https://thewoksoflife.com/alkaline-rice-dumplings-zongzi/,0.008507494847805618,-0.01883215042255447,-0.013636626538405333,-0.00598048531270531,-0.004942633812596931,1.0,0.0,0.0,0.0,0.0
https://thewoksoflife.com/lotus-mooncakes-egg-yolks/,0.011258120708481749,0.005856878093760182,0.053402934196665613,-0.024915554357663038,-0.013041213044125284,1.0,0.0,0.0,0.0,1.0
https://thewoksoflife.com/apple-cinnamon-coffee-cake/,0.006638284299249036,0.0002283126824874137,-0.009534280716523184,-0.006175572209603815,-0.0027456282708063625,1.0,0.0,0.0,0.0,1.0
https://thewoksoflife.com/baobing-chinese-shaved-ice/,-0.021146333313599202,0.008938020936517013,-0.012663564229689625,0.005590519490151685,0.004026534335449394,0.3837837837837838,0.054945054945054944,0.07692307692307693,0.06521739130434782,0.7348066298342542
https://thewoksoflife.com/pumpkin-mochi-pumpkin-filling/,0.0024326053463787295,-0.005813153668544846,-0.00040312919045622193,0.007907565667075825,0.007438903301527118,0.0,0.0,0.0,0.0,1.0
https://thewoksoflife.com/snow-skin-mooncakes/,0.019207245642313967,-0.023603826412146263,0.005512909820962958,0.007423430473920164,0.012407027522450563,1.0,0.0,0.0,0.0,1.0
https://thewoksoflife.com/peanut-butter-and-jelly-cookies/,-0.011408943369518065,0.009849613265232642,0.002979082855826005,0.0008904568349081779,0.0009055392870192672,0.0,0.0,0.0,0.0,1.0
https://thewoksoflife.com/matcha-bacon-sugar-cookies/,0.0003731743110163451,0.010749564720687917,0.00398875184245127,0.016276648994794297,-0.013241339552029533,0.3837837837837838,0.054945054945054944,0.07692307692307693,0.06521739130434782,0.7348066298342542
https://thewoksoflife.com/shepherds-purse-tofu-soup/,-0.004186677987107638,-0.017861057953915092,-0.004089376296541331,-0.015236510672059958,-0.004877690874363782,0.0,0.0,0.0,0.0,0.0
https://thewoksoflife.com/favorite-carrot-cake-recipe/,-0.013349875622612627,0.007320478803173332,-0.006701440580968651,0.001659717463455309,0.0008267392358311011,1.0,0.0,0.0,0.0,1.0
https://thewoksoflife.com/sesame-balls/,0.01977022600735328,-0.028247596687691657,0.0081285320702073,0.011411405511868951,0.022982062173669354,1.0,0.0,0.0,0.0,1.0
https://thewoksoflife.com/xiamen-mei-fun-noodles/,0.004322745260476901,-0.027931638491283117,-0.0027724337140934484,-0.013394691661831545,-0.00510543754877666,1.0,0.0,0.0,0.0,0.0
https://thewoksoflife.com/triple-layer-berry-cake-w-lemon-cream-thyme/,0.00038067537619702955,-0.012910928117911778,-0.005977591627760709,-0.014760179346758343,-0.009279968725965291,1.0,0.0,0.0,0.0,1.0
https://thewoksoflife.com/nian-gao-recipe/,-0.0005102423892197536,-0.01258661311104302,-0.006924763078498288,-0.006699057705108806,-0.0017007626876013595,1.0,0.0,0.0,0.0,1.0
https://thewoksoflife.com/yogurt-popsicles-fruit/,0.00594540025490804,0.014342437657486176,-0.00549130783231775,0.0014800772300681342,-0.0025064504218036683,0.0,0.0,0.0,0.0,0.0
https://thewoksoflife.com/mulberry-galette-w-vanilla-sauce/,0.009524103105897175,0.021840193134880507,0.01859314724534952,-0.014615477367588812,-0.0025915132988564423,1.0,0.0,0.0,0.0,1.0
https://thewoksoflife.com/cantonese-steamed-milk-egg-pudding/,-0.015809420732821287,0.014312266529383444,0.009384477441845496,0.0019742640890629683,0.0004108644816276763,0.0,0.0,0.0,0.0,1.0
https://thewoksoflife.com/osmanthus-cake/,-0.006513070875506825,0.002280214966644325,-0.00489565287704591,-0.006954359910735403,-0.0017944603658019288,0.0,0.0,0.0,0.0,1.0
https://thewoksoflife.com/spanish-chicken-stew/,0.010309306842428437,-0.048306258727862275,-0.015273678594858514,-0.024824990270643884,-0.012074315743568662,0.0,0.0,0.0,0.0,0.0
https://thewoksoflife.com/sweet-red-bean-paste-recipe-instant-pot/,-0.006996394385217535,-0.017775812417993732,-0.017180296471424137,-0.012801839690225093,-0.004962658319883511,0.0,0.0,0.0,0.0,0.0
https://thewoksoflife.com/frozen-mango-coconut/,0.07642547480832222,0.04626371720150576,-0.02140885505619104,-0.028128937289909197,0.010793622599397933,0.0,0.0,0.0,0.0,1.0
https://thewoksoflife.com/welsh-cakes/,-0.017535433783819877,0.008304128635868423,-0.00255861258865315,0.002156495911067503,0.002373782197552402,0.0,0.0,0.0,0.0,0.0
https://thewoksoflife.com/peanut-mochi-coconut/,-0.0005022797596347165,-0.009790612102807102,-0.003188222284558632,0.005501485808313588,0.0037006859873191327,0.0,0.0,0.0,0.0,0.0
https://thewoksoflife.com/red-bean-soup/,-0.012302846022155653,0.0012901727950433545,-0.004622536979233467,-0.006432905317762054,0.0012374442436596997,0.0,0.0,0.0,0.0,0.0
https://thewoksoflife.com/mung-bean-popsicles/,-0.0002779487955524668,-0.01077280257828108,0.0005136875414718699,0.013451427361605695,0.009107135772656521,1.0,0.0,0.0,0.0,1.0
https://thewoksoflife.com/strawberry-cheesecake/,-0.018557643926253288,0.012738551631423976,-0.003955323756883799,0.004469611668250836,0.003774084719981814,1.0,0.0,1.0,0.0,1.0
https://thewoksoflife.com/pumpkin-tres-leches-cake/,-0.005318052611963254,-0.00010981252160458476,-0.005912118111741602,-0.003164875960756593,-0.00144602784315086,0.0,0.0,0.0,0.0,1.0
https://thewoksoflife.com/inside-hong-kong-coconut-buns/,-0.002558564105530931,0.00979496675220993,0.02808861085363011,-0.008665214995729519,-0.005519150053976447,1.0,0.0,0.0,0.0,1.0
https://thewoksoflife.com/peanut-butter-cupcakes-with-black-sesame-frosting/,-0.01696679836659477,0.00635841883168342,0.0006542213578023156,0.003062545224920347,0.0037418060263836946,1.0,0.0,0.0,0.0,1.0
https://thewoksoflife.com/black-sticky-rice-mango-dessert/,0.022369592179483443,0.03490081906665684,-0.01968082322131856,-0.008208083842576503,0.010442028669850457,1.0,0.0,0.0,0.0,1.0
https://thewoksoflife.com/blueberry-yogurt-scones/,-0.015378519590733521,0.012266677487897006,-0.000396173010279545,0.0032270617532250603,0.0022046075671064425,0.0,0.0,0.0,0.0,1.0
https://thewoksoflife.com/holiday-marshmallow-treats/,-0.019218800133532953,0.011957850688864633,-0.00742244102443348,0.006908782787472004,0.005578072490323475,0.0,0.0,0.0,0.0,1.0
https://thewoksoflife.com/tang-yuan-recipe/,-0.0078116177505331355,-0.007667335282467124,-0.002662695108698031,0.010165929868404729,0.008693538262531152,1.0,0.0,0.0,0.0,1.0
https://thewoksoflife.com/pumpkin-pie-pecan-streusel/,-0.007680151345802791,0.0026006102851274158,-0.0007230574837402973,-0.0001746964059219859,0.0011632553209099017,0.0,0.0,0.0,0.0,1.0
https://thewoksoflife.com/funfetti-ice-cream-sandwiches/,0.012726051743065443,0.018951123944456923,0.026557161323539653,-0.016286683299152678,-0.0012102666836593726,1.0,0.0,0.0,0.0,1.0
https://thewoksoflife.com/honey-banana-cake/,-0.0015194778033144247,0.008170605911542724,-0.0045548543423055395,-0.0004586096353345522,-0.0020399409572711877,1.0,0.0,0.0,0.0,1.0
https://thewoksoflife.com/classic-peanut-butter-cake/,-0.018259786989224248,0.010489050653566824,-0.005652310271478482,0.0031261407896782155,0.0021749362121146996,1.0,0.0,1.0,0.0,1.0
https://thewoksoflife.com/ham-nut-mooncake-recipe/,0.009880234646459403,-0.004169678281818786,0.02745936520049574,-0.010817816010331388,-0.0020377270912663994,1.0,0.0,0.0,0.0,1.0
https://thewoksoflife.com/chocolate-nutella-rolls/,-0.011657868735078557,0.011198774406112144,0.007235797226373411,0.001497269789131114,0.002015297919396662,1.0,0.0,0.0,0.0,1.0
https://thewoksoflife.com/dairy-free-lemon-cake/,-0.01056973655360553,-0.003581677759056536,-0.0036915131870015314,-0.009311213749617941,-0.00562549285058087,1.0,0.0,0.0,0.0,1.0
https://thewoksoflife.com/red-bean-bread/,-0.00276601784695035,0.012477025022367652,0.006818007218123643,-0.0019327305765298307,0.0021291918837606787,1.0,0.0,0.0,0.0,1.0
https://thewoksoflife.com/apple-fritters-cinnamon-sugar/,-0.010709668707436207,-0.004258693094496084,-0.007953091224124567,-0.007298689799046933,-0.004055562508187076,1.0,0.0,0.0,0.0,1.0
https://thewoksoflife.com/easy-irish-soda-bread-raisins/,-0.01751762539787004,0.011629880827242213,0.0041075329253003065,0.0020708849391529163,0.001930842516593865,1.0,0.0,0.0,0.0,1.0
https://thewoksoflife.com/pumpkin-cake-w-mexican-chocolate-whipped-cream/,0.001261869765811953,0.0006484115531477898,-0.007608787896193061,-0.003479160566315132,-0.0014293995195267962,0.0,0.0,0.0,0.0,1.0
https://thewoksoflife.com/coconut-tapioca-dessert/,-0.00024121386323242014,-0.004175844951913496,-0.0030706875004036733,0.009418250067874077,0.005897225973716072,1.0,0.0,0.0,0.0,1.0
https://thewoksoflife.com/thai-black-rice-dessert/,0.015952556848702386,0.03148719699467893,-0.018085618416468746,-0.005587113273731661,0.010274246017063579,0.3837837837837838,0.054945054945054944,0.07692307692307693,0.06521739130434782,0.7348066298342542
https://thewoksoflife.com/chinese-walnut-cookies/,-0.012421577668236523,0.01068882333488016,0.0018295006525316905,0.0036671061720122394,0.0014629998239867853,1.0,0.0,1.0,0.0,1.0
https://thewoksoflife.com/yellow-cake/,-0.007851468863016343,0.003849861211441007,0.02155955524972818,-0.012896622334644519,-0.007942216035916005,0.0,0.0,0.0,0.0,1.0
https://thewoksoflife.com/flaky-apple-pie-recipe/,-0.018095383884991826,0.008082068423352897,-0.00462522472758529,0.0032205171076216937,0.0026355075768464947,1.0,0.0,0.0,0.0,1.0
https://thewoksoflife.com/churn-bourbon-cherry-pie-ice-cream/,-0.017742031481545916,0.015950130929475764,-0.008790838136720875,0.00611980321737972,0.007076923958343783,0.0,0.0,0.0,0.0,1.0
https://thewoksoflife.com/pumpkin-cupcakes/,-0.0017130738189158174,0.00760177059625293,-0.0023573584666693893,-0.00012115772226635717,0.0021722657722944645,1.0,0.0,0.0,0.0,1.0
https://thewoksoflife.com/flourless-chocolate-citrus-almond-cake/,-0.01160215586717299,0.008373651104534344,-0.002482724200317739,-0.001993967000781361,0.0024166126283112193,0.0,0.0,1.0,0.0,1.0
https://thewoksoflife.com/quick-blackberry-apple-tart/,-0.007265007354413278,0.004173778409567526,0.0022650761154889443,-0.008763736628467862,-0.006146096356583803,0.0,0.0,0.0,0.0,1.0
https://thewoksoflife.com/easy-rough-puff-pastry/,0.012103901983851337,0.03488102682574918,-0.01886400866106789,-0.007882898985871634,0.01330896950960974,0.0,0.0,0.0,0.0,0.0
https://thewoksoflife.com/blueberry-pancakes/,-0.013230853455237309,0.009283723700941148,-0.0011959454813820808,-0.0006121754680683898,-0.0009210312194824704,0.0,0.0,0.0,0.0,1.0
https://thewoksoflife.com/mango-pie/,-0.0071200761950264415,0.0038738157860714584,-0.004487483278289859,-0.0011124583491337438,-0.0015589757436025066,1.0,0.0,0.0,0.0,1.0
https://thewoksoflife.com/chocolate-cake-recipe/,-0.0032855378108510775,0.0016108700168859435,0.031041327058749103,-0.016300797108740578,-0.009707087600698267,1.0,0.0,1.0,0.0,1.0
https://thewoksoflife.com/chocolate-rice-krispie-nuggets/,-0.02189820986372737,0.011560450791359965,-0.011235376418450854,0.005842121827842182,0.00741782610098077,1.0,0.0,0.0,0.0,1.0
https://thewoksoflife.com/hong-kong-egg-tarts/,-0.026766178515658393,0.013030952954332424,-0.0003401788432493464,0.0034095360226943797,0.0028087410313196856,0.0,0.0,0.0,0.0,0.0
https://thewoksoflife.com/vegan-chocolate-peanut-butter-silk-tart/,-0.011295065531169605,0.0031972414779006253,-0.01259780304083557,0.0018605579270329455,-0.0006662430018866334,0.0,0.0,1.0,0.0,1.0
https://thewoksoflife.com/bai-tang-gao-white-sugar-sponge-cake/,0.0005130975329896741,-0.01403888323213385,-0.004398820420540667,-0.007405395694076849,-0.0028499633975651926,0.0,0.0,0.0,0.0,1.0
https://thewoksoflife.com/key-lime-tart/,-0.012285563813761962,0.009686863821049118,-0.0036381490517458787,-0.007069547862617455,-0.0018867620047808952,1.0,0.0,0.0,0.0,1.0
https://thewoksoflife.com/pumpkin-granola/,0.007701188616339927,-0.001161903729599305,-0.009150703820945478,-0.0037197705944836614,0.003514453536999314,1.0,0.0,0.0,0.0,1.0
https://thewoksoflife.com/chinese-pineapple-buns-pork/,0.002563663951827842,-0.0009595015915382646,0.02351488438840784,-0.01168937565520954,-0.006190726262094747,1.0,1.0,0.0,0.0,1.0
https://thewoksoflife.com/dark-chocolate-pumpkin-scones/,-0.006914144252345921,0.00596308074455817,-0.004613267304181908,0.0030303735508678507,0.0026818836851450418,0.0,0.0,0.0,0.0,1.0
https://thewoksoflife.com/chinese-swiss-roll/,-0.0023330311648005215,-0.006805267077371424,-0.005679550914684008,-0.011192214763975143,-0.006290846654108223,0.0,0.0,0.0,0.0,1.0
https://thewoksoflife.com/sweet-cherry-hand-pies/,0.0029290142454316153,0.02583040972013719,-0.008945761241867908,-0.005427552308659893,0.008837087848351508,0.0,0.0,0.0,0.0,1.0
https://thewoksoflife.com/portuguese-custard-tarts-pasteis-de-nata/,-0.004156466068736548,0.014429685314871826,0.03311660432505987,-0.010080612197693564,-0.006772926587481702,0.0,0.0,0.0,0.0,1.0
https://thewoksoflife.com/apple-cream-cheese-tart/,-0.00904018498179132,0.005271440571658855,-0.004827162382911662,-0.002505800029247485,-0.001052700519536544,0.0,0.0,0.0,0.0,1.0
https://thewoksoflife.com/snow-fungus-soup-pears/,-0.034040100852867,0.015203231294577322,-0.014200295510889699,0.010194614114086075,0.007844127105947101,0.3837837837837838,0.054945054945054944,0.07692307692307693,0.06521739130434782,0.7348066298342542
https://thewoksoflife.com/lemon-basil-yogurt-cake/,0.00039657007104992246,-0.011966628844139057,-0.005497787724482345,-0.01373185505136516,-0.009293875226732114,1.0,0.0,0.0,0.0,1.0
https://thewoksoflife.com/cinnamon-raisin-buns/,-0.011027054416732796,0.010517903011618045,0.005522803074176199,0.0019240745197492252,0.0018517136665733309,1.0,0.0,0.0,0.0,1.0
https://thewoksoflife.com/pumpkin-mini-muffins/,-0.005617412624517389,-0.004302349351195092,-0.0035579435904517114,-0.007418825125769604,-0.0027001171330162466,1.0,0.0,0.0,0.0,1.0
https://thewoksoflife.com/clementine-cakes/,-0.012370643229708626,0.0076292526829119,-0.00025153270550576633,-0.0012296900336750114,3.948629518019252e-05,0.0,0.0,0.0,0.0,1.0
https://thewoksoflife.com/bourbon-banana-cream-pie/,-0.008663457267993148,0.012640175384667808,0.021853737945209742,-0.005272484742397274,-0.0038540192444302735,1.0,0.0,0.0,0.0,1.0
https://thewoksoflife.com/grass-jelly-dessert/,0.05743687745016457,0.0012340646731316127,-0.0013026190440927738,0.01380508612343696,0.008224823324860532,0.3837837837837838,0.054945054945054944,0.07692307692307693,0.06521739130434782,0.7348066298342542
https://thewoksoflife.com/chock-full-o-nuts-chocolate-chip-cookies/,-0.011073938700662126,0.00984795816681738,-0.0029383669926327043,0.004204941292672467,0.002731668348943824,0.0,0.0,0.0,0.0,1.0
https://thewoksoflife.com/mango-muffins/,-0.0077463010623185415,0.005843557432191324,-0.0036558464426555263,0.002730687651550522,0.0021073647808291214,0.0,0.0,0.0,0.0,1.0
https://thewoksoflife.com/peach-pie/,0.007495932582451817,0.018932059833200017,-0.010004821425722985,-0.006369534697777675,0.004956285467274921,1.0,0.0,0.0,0.0,1.0
https://thewoksoflife.com/ma-lai-go-chinese-steamed-cake/,-0.011712692333531198,-2.5364260117348095e-05,-0.0017513478365535067,-0.0037750847448431474,-0.0024043247815920526,0.0,0.0,0.0,0.0,1.0
https://thewoksoflife.com/lotus-seed-paste/,-0.01834931697095908,0.002472093074059098,-0.01144278527159235,0.0017172663548653002,0.002944573435134567,0.0,0.0,0.0,0.0,1.0
https://thewoksoflife.com/brussels-cookies-recipe/,-0.02594378063311936,0.01314758937263196,-0.00879975660915055,0.00888366349813992,0.005894175748951177,0.0,0.0,0.0,0.0,0.0
https://thewoksoflife.com/steamed-red-bean-buns/,0.01782498253183985,-0.014290728942758717,0.013482507157680037,0.018469175782814807,0.027497225966364915,0.0,0.0,0.0,0.0,1.0
https://thewoksoflife.com/mango-sago/,-0.00998704383150235,0.005549266503464814,-0.009984729526912107,0.0043766859976786835,0.00142587614830697,1.0,0.0,0.0,0.0,1.0
https://thewoksoflife.com/grilled-peach-crisps-yogurt/,0.006095069588034835,0.011372585899384158,-0.00580579831239138,-0.001035701859199046,0.0024410598919587566,1.0,0.0,0.0,0.0,1.0
https://thewoksoflife.com/summer-berry-pie/,0.0076148408006664154,0.01759381770412725,-0.00799936623182375,-0.009812083029123297,0.0032491888174774877,1.0,0.0,0.0,0.0,1.0
https://thewoksoflife.com/how-to-cook-tapioca-pearls/,-0.034040100852867,0.015203231294577322,-0.014200295510889699,0.010194614114086075,0.007844127105947101,0.3837837837837838,0.054945054945054944,0.07692307692307693,0.06521739130434782,0.7348066298342542
https://thewoksoflife.com/olive-oil-pecan-rum-cake/,-0.009046260284428422,-0.008833773365057963,-0.005607226672205272,-0.009218104309991225,-0.005629436192817345,0.0,0.0,0.0,0.0,1.0
https://thewoksoflife.com/pineapple-buns/,0.0014008952567416994,0.008435078944441976,0.035226426220684295,-0.010633199503710538,-0.005723411855320686,1.0,0.0,0.0,0.0,1.0
https://thewoksoflife.com/nai-wong-bao-custard-buns/,-0.012878374741068831,0.010092259199156534,-0.001708957110133702,0.002311780249591897,0.003079204494774171,0.0,0.0,0.0,0.0,0.0
https://thewoksoflife.com/almond-cookies-chinese/,0.012403492050268158,0.007751805960595604,0.07230394792571894,-0.027149428596910267,-0.017344067614976057,0.0,0.0,0.0,0.0,0.0
https://thewoksoflife.com/pumpkin-brownies-swirl/,-0.00988582670224121,-0.0012420959774391677,-0.005069820129937148,-0.004119479113127279,-0.0008698023300675879,0.0,0.0,1.0,0.0,1.0
https://thewoksoflife.com/glazed-pumpkin-scones/,-0.008136813430358422,0.006244696832293691,0.000838810213546816,0.0016694759662811303,0.0013962704962187764,1.0,0.0,0.0,0.0,1.0
https://thewoksoflife.com/dairy-free-cheesecake/,-0.013633968803713443,0.00522628001008358,-0.005410424963041797,-0.0006406663198778085,0.001324773602086376,0.0,0.0,0.0,0.0,1.0
https://thewoksoflife.com/peanut-butter-and-jelly-scones/,-0.007344180091310227,0.009700588148314874,0.036450085354458636,-0.011516575853556818,-0.005954206595104253,1.0,0.0,0.0,0.0,1.0
https://thewoksoflife.com/guo-bao-rou-dongbei/,0.00323256462446002,-0.021844858159000113,-0.011500933983833039,-0.005478975911122174,-0.0028766935424947206,1.0,1.0,0.0,0.0,1.0
https://thewoksoflife.com/stone-fruit-semolina-olive-oil-cake-earl-grey-rose-syrup/,0.014501871011395016,-0.016128007883869668,-0.01063455583115404,-0.00567997434511898,-0.018819029147655732,1.0,0.0,0.0,0.0,1.0
https://thewoksoflife.com/coconut-buns-cocktail-buns/,-0.010276670332777996,0.006423860475547723,0.0041059761615597715,0.00122665633056812,0.0024378085033535295,1.0,0.0,0.0,0.0,1.0
https://thewoksoflife.com/peach-pancakes/,-0.004569324058711968,0.012383882333455368,-0.003802815280466532,0.0002676099793285736,0.002391678588274958,1.0,0.0,0.0,0.0,1.0
https://thewoksoflife.com/basil-berry-cake/,-0.02070857063688519,0.010550713132612168,0.00144525711750004,0.0022276598121076688,0.001587137116142977,0.0,0.0,0.0,0.0,1.0
https://thewoksoflife.com/cranberry-orange-cookies/,-0.0070603859193957945,0.004288081041746749,0.00010102300496047821,-0.0021623591282781303,0.000967498874755526,0.0,0.0,0.0,0.0,1.0
https://thewoksoflife.com/citrus-cake-candied-oranges/,-0.002795120890075572,-0.003989174160829666,-0.0074523650375557665,-0.006962850552335205,-0.003712465589905411,1.0,0.0,0.0,0.0,1.0
https://thewoksoflife.com/berry-tart-mascarpone/,-0.019352066106623367,0.013851736400716536,-0.007912325779384253,0.005286695719827806,0.006536148561272728,0.0,0.0,0.0,0.0,1.0
https://thewoksoflife.com/chinese-sesame-peanut-brittle/,-0.02076057853445832,-0.006532297826777928,-0.012517315860107387,0.0004968541931302311,0.004235768626567073,0.0,0.0,0.0,0.0,1.0
https://thewoksoflife.com/palmiers-recipe/,-0.019931509588325087,0.010644524131498875,-0.0079392740012679,0.004912941025005548,0.006088996590973271,0.0,0.0,0.0,0.0,0.0
https://thewoksoflife.com/red-bean-mooncakes-su-style/,0.030237068297112462,-0.02516584839069672,0.021277429423600135,0.027567687042438144,0.039488080210240056,1.0,0.0,0.0,0.0,1.0
https://thewoksoflife.com/how-to-make-golden-syrup/,-0.009852169207727524,0.006597269482639859,-0.009729532946652996,0.003226006614543382,0.00034602372541990523,0.0,0.0,0.0,0.0,1.0
https://thewoksoflife.com/butternut-squash-pie/,-0.0003971331373430103,0.01395151022980164,-0.0037205931042648545,-0.0036092927059206384,0.00503715256429969,1.0,0.0,0.0,0.0,1.0
https://www.justonecookbook.com/soba-salad/,0.02468419055032904,-0.03422186370585761,-0.014523201863126736,-0.026677645686461575,-0.011037317770826597,0.3837837837837838,0.054945054945054944,0.07692307692307693,0.06521739130434782,0.7348066298342542
https://www.justonecookbook.com/seaweed-salad-recipe/,0.010869358654487779,-0.03172228839204092,-0.00776322354553359,-0.008877325174971402,-0.00303450438592124,0.3837837837837838,0.054945054945054944,0.07692307692307693,0.06521739130434782,0.7348066298342542
https://www.justonecookbook.com/daikon-salad-radish-salad/,0.010972112967715754,-0.03138051989760346,-0.010712953794034601,-0.011043206231947465,-0.006602568211524629,0.3837837837837838,0.054945054945054944,0.07692307692307693,0.06521739130434782,0.7348066298342542
https://www.justonecookbook.com/shabu-shabu-salad/,-0.00019372882349442993,-0.01898484500680578,-0.008148502362326004,-0.0021292678858144593,0.002272246945638473,0.3837837837837838,0.054945054945054944,0.07692307692307693,0.06521739130434782,0.7348066298342542
https://www.justonecookbook.com/eggplant-and-myoga-salad/,0.003086877735522211,-0.021147576244598967,-0.0160585931508387,-0.011532624282772283,-0.004407021570079153,0.3837837837837838,0.054945054945054944,0.07692307692307693,0.06521739130434782,0.7348066298342542
https://www.justonecookbook.com/japanese-salad-dressings/,0.014107974382928426,-0.04326919940635456,-0.014606084970799491,-0.022354699142883603,-0.010069904559734956,0.3837837837837838,0.054945054945054944,0.07692307692307693,0.06521739130434782,0.7348066298342542
https://www.justonecookbook.com/apple-walnut-salad/,-0.004710456710794419,0.0014919806578036288,-0.008797643594391754,0.0018263599801821026,0.0032906844028640103,0.3837837837837838,0.054945054945054944,0.07692307692307693,0.06521739130434782,0.7348066298342542
https://www.justonecookbook.com/pork-shabu-salad-with-ponzu-dressing-egg-drop-soup/,-0.00346248182050323,-0.014563588907693702,-0.0032672865957352614,-0.005722114203823325,-0.00022305466265144482,0.3837837837837838,0.054945054945054944,0.07692307692307693,0.06521739130434782,0.7348066298342542
https://www.justonecookbook.com/tomato-myoga-salad/,0.006064840152527121,-0.024429737960346563,-0.009129848558845445,-0.004637533138565205,-0.0015685389821616508,0.3837837837837838,0.054945054945054944,0.07692307692307693,0.06521739130434782,0.7348066298342542
https://www.justonecookbook.com/gobo-salad-japanese-burdock-root-salad/,0.005585894011559967,-0.0265035827259574,-0.008295470785453254,-0.00657629943973475,-0.0017041060375024223,0.3837837837837838,0.054945054945054944,0.07692307692307693,0.06521739130434782,0.7348066298342542
https://www.justonecookbook.com/sunomono-with-cucumber-and-wakame/,-0.0033444133722728402,-0.01219566792120732,-0.00532971477600651,0.003227659970088961,0.005833903652839772,0.3837837837837838,0.054945054945054944,0.07692307692307693,0.06521739130434782,0.7348066298342542
https://www.justonecookbook.com/pressure-cooker-potato-salad/,-0.003202245009559895,-0.00887534819027142,0.00785747756259771,-0.0008942981037863634,0.00320706057738765,0.3837837837837838,0.054945054945054944,0.07692307692307693,0.06521739130434782,0.7348066298342542
https://www.justonecookbook.com/seafood-salad/,0.01064921114602798,-0.03935620426606567,-0.011859344877348466,-0.016206285188797166,-0.00729410760546779,0.3837837837837838,0.054945054945054944,0.07692307692307693,0.06521739130434782,0.7348066298342542
https://www.justonecookbook.com/steak-salad-shoyu-dressing/,0.011606816549340898,-0.03645595559348887,-0.01238764112137757,-0.017396853398789457,-0.007958808592631084,0.3837837837837838,0.054945054945054944,0.07692307692307693,0.06521739130434782,0.7348066298342542
https://www.justonecookbook.com/carrot-ginger-dressing/,0.010594916539863218,-0.03395764902628492,-0.01383772856233808,-0.016489755378599487,-0.00733397163237924,0.3837837837837838,0.054945054945054944,0.07692307692307693,0.06521739130434782,0.7348066298342542
https://www.justonecookbook.com/caesar-salad/,0.007735156694042246,-0.035065575637768555,-0.015290725373327204,-0.018255105150961303,-0.009074367621209856,0.3837837837837838,0.054945054945054944,0.07692307692307693,0.06521739130434782,0.7348066298342542
https://www.justonecookbook.com/spinach-salad-with-asian-salad-dressing/,0.005895553512386805,-0.025471858122246806,-0.009310339141137276,-0.0082678063305386,-0.0009884909474891423,0.3837837837837838,0.054945054945054944,0.07692307692307693,0.06521739130434782,0.7348066298342542
https://www.justonecookbook.com/sesame-dressing/,0.005585894011559967,-0.0265035827259574,-0.008295470785453254,-0.00657629943973475,-0.0017041060375024223,0.3837837837837838,0.054945054945054944,0.07692307692307693,0.06521739130434782,0.7348066298342542
https://www.justonecookbook.com/japanese-cucumber-salad/,-0.006149809288054261,-0.009460061575454207,-0.006381457354555398,0.0037606261229397417,0.005925430485504668,0.3837837837837838,0.054945054945054944,0.07692307692307693,0.06521739130434782,0.7348066298342542
https://www.justonecookbook.com/japanese-potato-salad/,-0.012284901364076298,-0.0005926887923482913,0.01037642864684231,-0.0024815773499934184,0.004882695439149255,0.3837837837837838,0.054945054945054944,0.07692307692307693,0.06521739130434782,0.7348066298342542
https://www.justonecookbook.com/asian-coleslaw/,-0.004301103969435124,-0.0198051361012276,-0.009037446869625886,-0.005404884462395635,0.0018991632391704026,0.3837837837837838,0.054945054945054944,0.07692307692307693,0.06521739130434782,0.7348066298342542
https://www.justonecookbook.com/warm-mushroom-salad-sesame-dressing/,0.009092224311195133,-0.03220186058174692,-0.013541234061778701,-0.01703430424081809,-0.007159971143563337,0.3837837837837838,0.054945054945054944,0.07692307692307693,0.06521739130434782,0.7348066298342542
https://www.justonecookbook.com/hijiki-salad/,0.008582524251660171,-0.03461467073786485,-0.020651618411254017,-0.02751585744980976,-0.014446561513276656,0.3837837837837838,0.054945054945054944,0.07692307692307693,0.06521739130434782,0.7348066298342542
https://www.justonecookbook.com/crab-salad-with-ponzu-mayonnaise-dressing/,0.001191955146655805,-0.018130661819861654,-0.0021571105243246252,0.0014157091458214253,0.007096157682478621,0.3837837837837838,0.054945054945054944,0.07692307692307693,0.06521739130434782,0.7348066298342542
https://www.justonecookbook.com/honey-sesame-shirataki-noodles/,0.007246935110830879,-0.02352405584380348,-0.006208418246104927,-0.012750429636726957,-0.005556706021931828,0.3837837837837838,0.054945054945054944,0.07692307692307693,0.06521739130434782,0.7348066298342542
https://www.justonecookbook.com/octopus-salad-tako-su/,-0.0033444133722728402,-0.01219566792120732,-0.00532971477600651,0.003227659970088961,0.005833903652839772,0.3837837837837838,0.054945054945054944,0.07692307692307693,0.06521739130434782,0.7348066298342542
https://www.justonecookbook.com/smoked-salmon-salad-with-lemon-vinaigrette/,0.011243326107278306,-0.0378993166952478,-0.010782052149592956,-0.02119651389084529,-0.010932492824372315,0.3837837837837838,0.054945054945054944,0.07692307692307693,0.06521739130434782,0.7348066298342542
https://www.justonecookbook.com/wafu-dressing-japanese-salad-dressing/,0.009950213203485075,-0.03308668697763103,-0.00874511252889514,-0.01222417196170922,-0.0035629774933388716,0.3837837837837838,0.054945054945054944,0.07692307692307693,0.06521739130434782,0.7348066298342542
https://www.justonecookbook.com/easy-carrot-salad/,0.0031766615640581725,-0.030804419352235806,-0.016777823646810262,-0.01714067515409318,-0.007919359062432404,0.3837837837837838,0.054945054945054944,0.07692307692307693,0.06521739130434782,0.7348066298342542
https://www.justonecookbook.com/mizuna-myoga-salad-with-soy-sesame-dressing/,0.007034111918598212,-0.02744239904602008,-0.01133518428163781,-0.009420330866572303,-0.0029978261385000815,0.3837837837837838,0.054945054945054944,0.07692307692307693,0.06521739130434782,0.7348066298342542
https://www.justonecookbook.com/harusame-salad/,0.007361716806366351,-0.030574096100502723,-0.01242066324785061,-0.014337489004992324,-0.004426908948046499,0.3837837837837838,0.054945054945054944,0.07692307692307693,0.06521739130434782,0.7348066298342542
https://www.justonecookbook.com/spicy-bean-sprout-salad/,0.008788225602783393,-0.027685396089918067,-0.0027051180498037083,-0.0002416603226448119,0.009517064962276023,0.3837837837837838,0.054945054945054944,0.07692307692307693,0.06521739130434782,0.7348066298342542
https://www.justonecookbook.com/kabocha-salad/,-0.01351257966521837,-0.006256257492040021,-0.009415171916582438,0.002550682885138589,0.011374275281341072,0.3837837837837838,0.054945054945054944,0.07692307692307693,0.06521739130434782,0.7348066298342542
https://www.justonecookbook.com/green-bean-shiraae/,-0.011170165846275854,-0.006044908547353257,-0.006938382963725052,0.0030448368097986656,0.008020688526562804,0.3837837837837838,0.054945054945054944,0.07692307692307693,0.06521739130434782,0.7348066298342542
https://www.justonecookbook.com/strawberry-dressing/,0.015503537425348556,-0.04767076507993328,-0.02096036895880582,-0.03100991600630298,-0.020380476852620524,0.3837837837837838,0.054945054945054944,0.07692307692307693,0.06521739130434782,0.7348066298342542
https://www.justonecookbook.com/massaged-kale-salad-with-mango/,0.006013630431039973,-0.03644086886593796,-0.016227509524202925,-0.01975779557659347,-0.00726098649937561,0.3837837837837838,0.054945054945054944,0.07692307692307693,0.06521739130434782,0.7348066298342542
https://www.justonecookbook.com/apple-salad/,0.0023312409746481444,0.007690572309768171,-0.008303620879331482,0.0012469016398815515,-0.0031761876582641273,0.3837837837837838,0.054945054945054944,0.07692307692307693,0.06521739130434782,0.7348066298342542
https://www.justonecookbook.com/japanese-macaroni-salad/,0.005400578758211146,-0.030627011177066166,-0.0023359476875173565,-0.014817137310570121,-0.0065682639779418624,0.3837837837837838,0.054945054945054944,0.07692307692307693,0.06521739130434782,0.7348066298342542
https://www.justonecookbook.com/broccolini-gomaae/,-0.011170165846275854,-0.006044908547353257,-0.006938382963725052,0.0030448368097986656,0.008020688526562804,0.3837837837837838,0.054945054945054944,0.07692307692307693,0.06521739130434782,0.7348066298342542
https://www.justonecookbook.com/arugula-fennel-navel-orange-salad/,0.006934677650553912,-0.03823830158093023,-0.015725924496382583,-0.020223308889854484,-0.007770894605384007,0.3837837837837838,0.054945054945054944,0.07692307692307693,0.06521739130434782,0.7348066298342542
https://www.justonecookbook.com/spring-mix-salad-with-sweet-miso-dressing/,0.00951820191154051,-0.03307211159462935,-0.009122694494412395,-0.009944128083593018,-0.004054601374862146,0.3837837837837838,0.054945054945054944,0.07692307692307693,0.06521739130434782,0.7348066298342542
https://www.justonecookbook.com/roasted-cauliflower-kale-salad-with-miso-tahini-dressing/,0.0067049578549195545,-0.03480601536318223,-0.011917186511460832,-0.013869768828054229,-0.005941342147957404,0.3837837837837838,0.054945054945054944,0.07692307692307693,0.06521739130434782,0.7348066298342542
https://www.justonecookbook.com/bitter-melon-salad/,-0.003372019411964572,-0.016188850362716646,-0.011928652532464286,-0.005029129688889861,0.0006775405413274396,0.3837837837837838,0.054945054945054944,0.07692307692307693,0.06521739130434782,0.7348066298342542
https://www.justonecookbook.com/spiralized-cucumber-salad/,-0.0033444133722728402,-0.01219566792120732,-0.00532971477600651,0.003227659970088961,0.005833903652839772,0.3837837837837838,0.054945054945054944,0.07692307692307693,0.06521739130434782,0.7348066298342542
https://www.justonecookbook.com/green-salad-with-blood-orange-vinaigrette/,0.007183298039317289,-0.030230423827712846,-0.012793311360094943,-0.019371314673605134,-0.008797493532074083,0.3837837837837838,0.054945054945054944,0.07692307692307693,0.06521739130434782,0.7348066298342542
https://www.justonecookbook.com/spinach-with-sesame-sauce/,-0.011170165846275854,-0.006044908547353257,-0.006938382963725052,0.0030448368097986656,0.008020688526562804,0.3837837837837838,0.054945054945054944,0.07692307692307693,0.06521739130434782,0.7348066298342542
https://www.justonecookbook.com/shrimp-salad-recipe/,-0.015347275400414471,0.0030491805059968883,0.0032010835671595662,-0.00022651476761175056,0.003979202992198635,0.3837837837837838,0.054945054945054944,0.07692307692307693,0.06521739130434782,0.7348066298342542
https://www.justonecookbook.com/arugula-salad/,0.00760538206979421,-0.03592114044414136,-0.017247198113056358,-0.020359850080793655,-0.009792519358336086,0.3837837837837838,0.054945054945054944,0.07692307692307693,0.06521739130434782,0.7348066298342542
https://www.justonecookbook.com/tofu-salad-with-sesame-ponzu-dressing/,-0.0009267164078086305,-0.021421179002758157,-0.01126172838669211,-0.00936682092588344,-0.00022690474622834097,0.3837837837837838,0.054945054945054944,0.07692307692307693,0.06521739130434782,0.7348066298342542
https://thewoksoflife.com/tamarind-iced-tea/,0.07154286952857583,0.03148165829460386,-0.020248727044112753,0.0004863071047645798,-0.01511599279351047,0.0,0.0,0.0,0.0,1.0
https://thewoksoflife.com/how-to-make-soy-milk/,-0.03081918189525667,0.01190085170570578,-0.01466228557724723,0.006564672551958063,0.008091755392291067,0.0,0.0,0.0,0.0,0.0
https://thewoksoflife.com/avocado-smoothies-boba/,0.055630571755380664,0.06075609874255564,-0.02779894891216691,-0.02070825207914248,0.017064497270179196,1.0,0.0,0.0,0.0,1.0
https://thewoksoflife.com/sour-plum-drink-suan-mei-tang/,0.016094059214358622,0.003661904397468563,-0.011514372379497468,0.035633738958625365,-0.024083869729712576,0.0,0.054945054945054944,0.07692307692307693,0.0,1.0
https://thewoksoflife.com/frozen-white-peach-mango-margaritas/,0.09429113058641242,0.0626846125189675,-0.025891015181642062,-0.036978356638505905,0.019199582554569543,0.0,0.0,0.0,0.0,1.0
https://thewoksoflife.com/yuanyang-tea-hong-kong/,0.04450059688040777,0.005789472855449723,-0.014823539246612824,0.06612329030756121,-0.05706317128055313,0.0,0.0,0.0,0.0,0.0
https://thewoksoflife.com/bubble-tea/,0.019200939482846353,0.008913114068527678,-0.015164740268553087,0.046934634033227264,-0.03579238933627339,1.0,0.0,0.0,0.0,1.0
https://thewoksoflife.com/sweet-corn-drink/,-0.01457334334856788,0.010675622927285416,-0.011847365186577079,0.004137480222477698,-0.0011084419761678375,0.0,0.0,0.0,0.0,1.0
https://thewoksoflife.com/how-to-make-vietnamese-coffee/,-0.026438924178039596,0.01571006923322694,-0.01159984876253582,0.008179213455879943,0.0035308334460160723,0.0,0.0,0.0,0.0,1.0
https://thewoksoflife.com/hong-kong-milk-tea/,0.024268389969651288,0.009251006336919016,-0.013431108968972828,0.04559103379938972,-0.03866791808077004,0.0,0.0,0.0,0.0,1.0
https://thewoksoflife.com/peach-daiquiris-frozen/,0.15655668895418987,0.08970626554382935,-0.03209780853250935,-0.057753546578767585,0.024082205349602363,0.0,0.0,0.0,0.0,1.0
https://thewoksoflife.com/chrysanthemum-tea-benefits/,0.04714232185440717,0.0057466384045680476,-0.01647038601383667,0.06448599801208056,-0.05815812410854305,0.0,0.054945054945054944,0.07692307692307693,0.0,0.7348066298342542
https://thewoksoflife.com/shandong-pork-fish-dumplings/,-0.0012540349476447372,-0.02247680337126485,-0.014839383295888835,-0.011030617929771022,-0.0042188613104144354,0.0,0.0,0.0,0.0,0.0
https://thewoksoflife.com/hawthorn-iced-tea/,-0.034040100852867,0.015203231294577322,-0.014200295510889699,0.010194614114086075,0.007844127105947101,0.0,0.054945054945054944,0.07692307692307693,0.0,0.0
https://thewoksoflife.com/sparkling-strawberry-oolong-arnold-palmer/,0.05057679139849073,0.02081969544961593,-0.014499146966661961,-0.00464786565342384,-0.013101627645387498,0.0,0.0,0.0,0.0,1.0
https://thewoksoflife.com/chinese-ginger-tea-dates/,-0.006609635419022444,0.005169402136629061,-0.014169038907260399,0.00539004453855087,-0.0012736741035636596,0.0,0.0,0.0,0.0,1.0
https://omnivorescookbook.com/steamed-char-siu-bao/,-0.011741812025289209,-0.00011136309993594472,-0.0019174267476638647,0.0022429118175530676,0.003650320747817831,0.0,0.0,0.0,0.0,0.0
https://omnivorescookbook.com/recipes/addictive-kimchi-pork-steamed-bun/,-0.00313692208912674,-0.0016720188977557436,0.0022470142452511097,0.001865174502840055,0.004106328539163563,0.0,0.0,0.0,0.0,0.7348066298342542
https://omnivorescookbook.com/candied-walnut/,-0.004885319550433404,-0.012560340957877331,-0.017306408979915398,-0.010312604488396408,-0.004910712446164167,0.0,0.0,0.0,0.0,1.0
https://omnivorescookbook.com/recipes/no-sugar-shortbread-cookies-with-nuts/,-0.031031967464462188,0.01053817950850927,-0.009879196159844918,0.006589824721520508,0.007898126168963168,0.0,0.0,0.0,0.0,0.7348066298342542
https://omnivorescookbook.com/fluffy-burger-bun/,-0.00564982975249109,-0.016438634666877505,-0.003397155387867306,-0.014672372541263296,-0.008511016774939343,0.3837837837837838,0.054945054945054944,0.07692307692307693,0.06521739130434782,0.7348066298342542
https://omnivorescookbook.com/chinese-almond-cookies/,-0.0004957624281696654,0.0074537765197169896,0.049506170262021414,-0.018241681178041754,-0.009308624349847685,0.0,0.0,0.0,0.0,0.0
https://omnivorescookbook.com/soft-cinnamon-rolls-with-sesame/,-0.008120691825296742,0.0071190150905886705,0.005811617669567273,0.0028377518839098653,0.005869066149061532,1.0,0.0,0.0,0.0,1.0
https://omnivorescookbook.com/recipe/low-sugar-banana-bread/,-0.019375898072839723,0.012373092614022885,-0.002768134963492253,0.004225191552766418,0.0031625876505412074,0.0,0.0,0.0,0.0,1.0
https://omnivorescookbook.com/fluffy-monkey-bread-jujube-syrup/,-0.012092646535648977,0.007069877350887607,0.007276181402054001,0.001005666794830072,0.0017418645704432602,1.0,0.0,0.0,0.0,1.0
https://omnivorescookbook.com/recipes/matcha-cake/,0.02447519832643359,-0.010933398525259845,0.03419794878625839,0.007336953415974184,0.009484016689073557,0.3837837837837838,0.054945054945054944,0.07692307692307693,0.06521739130434782,0.7348066298342542
https://omnivorescookbook.com/pineapple-buns/,0.002254895616064305,0.009877990890828843,0.045671687661541,-0.015612623319139249,-0.009527445610833862,0.0,0.0,0.0,0.0,1.0
https://omnivorescookbook.com/recipes/chinese-pumpkin-bun/,-0.00182148408171838,-0.009461747659562366,-0.0028661609712217696,0.002397617265185474,0.006476118501867702,0.3837837837837838,0.054945054945054944,0.07692307692307693,0.06521739130434782,0.7348066298342542
https://omnivorescookbook.com/milk-bread-rolls/,-0.016212243395949087,0.01005356706955934,0.00747292990135842,0.0011489626850863452,0.0012167843357480167,0.0,0.0,0.0,0.0,1.0
https://omnivorescookbook.com/steamed-custard-buns/,-0.011636992886091409,0.00930886156620731,-0.0007718153567526517,0.004670882742771905,0.002486736429676,0.0,0.0,0.0,0.0,0.0
https://omnivorescookbook.com/homemade-lotus-seed-paste/,-0.007780596763198192,-0.024418254778259103,-0.019009164843635667,-0.016962547004166002,-0.007916643125595108,0.0,0.0,0.0,0.06521739130434782,0.0
https://omnivorescookbook.com/baked-bbq-pork-buns/,-0.014541052207113393,0.0017435340358550114,0.00192020894468964,0.0010795923727271734,0.0034434406711762967,0.0,0.0,0.0,0.0,0.0
https://omnivorescookbook.com/chinese-egg-cake/,-0.003705071723613019,-0.0029814393447517218,-0.008222592088673148,-0.004991457500407672,-0.003959411157017756,0.0,0.0,0.0,0.0,0.0
https://omnivorescookbook.com/dan-huang-su/,0.023415784780223416,0.00041623328586032934,0.024524124009710734,0.001213990192762857,0.017923623718796522,0.0,0.0,0.0,0.0,0.0
https://omnivorescookbook.com/sesame-checkerboard-cookies/,-0.014517250519828648,0.0005974495005194114,-0.00606693180954439,0.005474471198838073,0.01011484281489294,0.0,0.0,0.0,0.0,0.0
