url,0,1,2,3,4,high_carb,high_protein,high_fat,high_sodium,high_sugar
https://glebekitchen.com/miso-chicken-with-maple-and-ginger/,0.024637742161041244,0.015124885663460937,-0.005074075994451911,0.027586708387497556,0.010298495964241566,0.0,1.0,0.0,0.0,0.0
https://glebekitchen.com/tonkotsu-ramen-home/,0.05886315935744486,0.05853602414506191,-0.04132767966256366,0.040353605612912444,-0.020039086089161884,1.0,1.0,1.0,1.0,1.0
https://glebekitchen.com/garlic-ginger-grilled-chicken/,-0.03341962838810462,0.0047276895631973605,0.012604027088586949,0.012228441198732311,0.019042013428120237,0.0,1.0,1.0,1.0,0.0
https://glebekitchen.com/tonkotsu-ramen-broth-home/,0.024388412434148757,0.014878543807368172,-0.08551843759328331,-0.04136163821876678,-0.04478657950080313,0.0,0.235207100591716,0.2431430689399555,0.0,0.2341389728096677
https://glebekitchen.com/japanese-chicken-curry-curry-rice/,0.0003608149328091758,0.018970340456217913,0.022905795965034028,-0.018612391877460645,0.019237030962328587,0.0,0.0,0.0,1.0,0.0
https://glebekitchen.com/chicken-karaage-japanese-fried-chicken/,-0.0007683495050824356,0.011545637904619847,-0.03105596584550857,-0.009433931478822166,-0.020941678818132255,0.0,1.0,1.0,1.0,0.0
https://glebekitchen.com/curry-chicken-ramen/,0.007101936178225679,0.021064795669121575,-0.027000104020451814,0.016506098600923794,-0.03284668331014677,1.0,1.0,1.0,0.0,0.0
https://glebekitchen.com/sous-vide-steak-tataki-style/,0.009471889452660675,0.010309619403350123,0.00869523692543247,0.006247985856743804,0.023648602180651755,0.0,0.0,0.0,0.0,0.0
https://glebekitchen.com/momofuku-pork-belly/,-0.058444860570161065,0.006655679616489054,-0.00843060496249872,-0.0009342506333128315,-0.021699225708609604,0.0,0.0,1.0,1.0,0.0
https://glebekitchen.com/gyudon-japanese-beef-bowl/,0.07812157762930394,0.07402327893370204,-0.027336743050782392,0.06255016779040515,-0.021787386225326704,0.0,1.0,0.0,1.0,1.0
https://glebekitchen.com/japadog-style-terimayo-hot-dog/,-0.00846162957266737,0.024409014677691493,-0.005164354768723585,0.02949051572252533,0.01074741789042668,1.0,0.0,1.0,1.0,1.0
https://glebekitchen.com/japanese-miso-soup/,0.10628930323950704,0.09938852395087054,-0.03254747847442386,0.08260936472274648,-0.0373802831255094,0.0,0.0,0.0,1.0,0.0
https://glebekitchen.com/japanese-chicken-yakitori/,-0.05540581646940885,0.0074364750819275426,-0.0004795506932291749,0.022410594132954858,-0.009690733724565045,0.0,0.0,0.0,0.0,0.0
https://glebekitchen.com/miso-ramen-with-chashu-pork/,0.04189025795905461,0.037550823605597534,-0.04437998895871994,0.03021531596345342,-0.036128633276843375,1.0,1.0,1.0,1.0,1.0
https://glebekitchen.com/30-minute-curry-ramen/,0.02572830104889875,0.021247122028092254,-0.031787924740984054,0.024423447393109282,-0.04208700583175702,0.0,1.0,0.0,1.0,0.0
https://glebekitchen.com/japanese-gyoza/,0.031014772974363808,0.07437261985556205,-0.008346362514837866,0.01613632346301701,-0.014852809455485736,0.0,0.0,0.0,0.0,0.2341389728096677
https://glebekitchen.com/vietnamese-chicken-curry-ca-ri-ga/,-0.01889860662412636,0.007930110042790145,0.011955723879081063,-0.0019122896618560224,0.0029630210758380356,1.0,1.0,1.0,1.0,0.0
https://glebekitchen.com/asian-grilled-chicken-wings/,0.06053060476090574,0.0707488545106516,-0.02151227105920171,-0.030943319218509225,0.03867858868318242,0.2470501474926253,0.0,0.0,1.0,0.2341389728096677
https://glebekitchen.com/carpaccio-asian-style/,-0.02781652436469628,0.017785632298341535,0.021583275614583432,-0.01630113097178017,0.014940997248428308,0.0,0.0,0.0,0.0,0.2341389728096677
https://glebekitchen.com/vietnamese-grilled-chicken-with-ginger-soy-noodle-salad/,0.02663940754283375,0.042109059156088285,0.01490709277246555,-0.022738525859712,0.02348275310901795,1.0,1.0,1.0,1.0,1.0
https://glebekitchen.com/vietnamese-lemongrass-chicken-noodle-bowl/,0.04979428616048189,0.044305365675974595,0.010279500108100572,-0.02164250238884283,0.01991667981291961,1.0,0.0,0.0,1.0,1.0
https://glebekitchen.com/vietnamese-spring-rolls-with-peanut-sauce/,0.033039399610490384,0.010891403569920244,-0.0036388076777867746,0.003821574360853605,0.015053510855377058,1.0,0.0,0.0,0.0,0.0
https://glebekitchen.com/nuoc-cham-vietnamese-dipping-sauce/,0.015889799243703828,0.008091121144482018,0.010843502132307455,-0.0352544560993982,0.048206689342223774,1.0,0.0,0.0,1.0,1.0
https://glebekitchen.com/salmon-with-rice-noodles/,-0.020646834595196374,-0.00186710616782642,0.009643941718742399,-0.000762186532393145,0.02921837472362435,0.0,1.0,0.0,0.0,0.0
https://glebekitchen.com/vietnamese-noodle-salad/,0.027930252377061773,0.042843106267550814,0.0008192871171170771,-0.00010837087569080612,0.03019431565317766,1.0,1.0,1.0,1.0,1.0
https://glebekitchen.com/vietnamese-sate-sauce/,-0.037615872012904436,0.017899064564184913,0.009259659314366155,-0.0023219694412425296,0.007114209342816692,1.0,0.0,1.0,1.0,1.0
https://glebekitchen.com/authentic-pho-ga-vietnamese-chicken-noodle-soup/,-0.010349513398190865,0.018308128518511945,-0.016515489402557666,-0.004581345236856485,-0.02227115649810441,1.0,1.0,1.0,1.0,0.0
https://glebekitchen.com/bun-cha-vietnamese-grilled-pork-with-rice-noodles/,0.07564006593866293,0.055316200561548415,0.009069927142473127,-0.024165095598088313,0.03683669515765447,0.0,1.0,1.0,1.0,1.0
https://glebekitchen.com/vietnamese-ginger-beef-stir-fry/,-0.0548236667890072,0.007977625836342483,0.007456429645108792,-0.002301700898953163,-0.0037981748922094947,0.0,1.0,1.0,1.0,0.0
https://glebekitchen.com/beef-pho-easy-vietnamese-pho-bo/,0.02484665395736137,0.022286870938637005,0.003061106346774407,-0.01888660534633309,-0.007470349099452605,1.0,1.0,1.0,1.0,1.0
https://glebekitchen.com/vietnamese-banh-mi-gochujang-mayo/,-0.014771297693683773,0.028720417778569676,-0.002234613879568651,-0.005460176099319583,-0.012883040946214067,0.2470501474926253,0.0,1.0,0.0,0.2341389728096677
https://glebekitchen.com/bo-kho-vietnamese-beef-stew-with-egg-noodles/,0.012625572930313286,0.029770716792833517,-0.0030964460667183813,-0.025606611116423584,0.005898326600316207,1.0,1.0,1.0,1.0,0.0
https://glebekitchen.com/vietnamese-beef-noodle-salad/,0.054497272237255937,0.04576449858998582,0.013178197203790896,-0.01722675233531339,0.03192487977658022,1.0,1.0,0.0,1.0,1.0
https://glebekitchen.com/bun-thit-nuong-vietnamese-grilled-pork-with-rice-noodles/,-0.011236593477373377,0.017908098989289405,0.008500172941599798,-0.008193931142241519,0.015406212515202905,1.0,0.0,0.0,1.0,0.0
https://glebekitchen.com/spicy-beef-noodle-soup-vietnamese-style/,0.04592219220617577,0.04060381944772122,-0.011541708190002532,-0.03533988123135816,-0.00034800613107202247,1.0,1.0,0.0,1.0,0.0
https://glebekitchen.com/shaking-beef-vietnamese-bo-luc-lac/,-0.00920503638047531,0.019798976668798915,-0.0022538950920355516,-0.005721584732955239,0.0018874642178894256,0.0,1.0,0.0,1.0,1.0
https://glebekitchen.com/vindaloo-paste/,-0.05198883534098182,0.010713071302137028,0.018192826422623688,-0.004360361265285082,0.01992433507254088,0.0,0.0,1.0,0.0,1.0
https://glebekitchen.com/beef-rogan-josh/,0.00798049727401693,0.010080677999303886,0.030849931861778597,-0.036092153170441836,0.04226696066168936,0.0,1.0,1.0,0.0,0.0
https://glebekitchen.com/achari-chicken-curry-indian-hotel-style/,-0.002506671184336254,0.021803161845616165,0.02396320718162319,-0.03834980847460489,0.027894568934005007,0.0,1.0,1.0,1.0,0.0
https://glebekitchen.com/indian-restaurant-hariyali-chicken-curry/,-0.01001873186965968,0.017746306541220603,0.0388843128098478,-0.023844334453675085,0.02488469129412654,0.0,1.0,1.0,1.0,0.0
https://glebekitchen.com/ceylon-chicken-curry-indian-hotel-style/,0.009223768207155914,-0.0028063448555238815,0.03174141007691391,-0.030994741076010333,0.026647775336110003,0.0,1.0,1.0,1.0,1.0
https://glebekitchen.com/lemon-coriander-chicken-curry/,0.002385675641355348,0.0072673038939283265,0.025808139773050867,-0.025541557454761714,0.03710615992952344,0.0,0.0,1.0,0.0,0.0
https://glebekitchen.com/lamb-vindaloo-indian-restaurant-style/,0.015482668146670436,0.02661056769802029,0.015282688926730568,-0.03475448058550117,0.03408583612790045,0.0,1.0,1.0,0.0,0.0
https://glebekitchen.com/kari-ayam-malaysian-curry-chicken/,0.03363677743576311,0.005162391510957926,0.014620200845527117,-0.032532578010159685,0.01951015371706226,0.2470501474926253,0.235207100591716,0.2431430689399555,0.18065967016491755,0.2341389728096677
https://glebekitchen.com/indian-spiced-chicken-wings-with-tamarind-dipping-sauce/,0.003641109791087964,0.009395573104636236,0.017367856002606225,-0.03040527122582738,0.03903382160168113,0.0,0.0,0.0,0.0,1.0
https://glebekitchen.com/gobi-manchurian-indian-cauliflower-wings/,-0.002664479657869465,0.01031193008593644,0.01061870641792829,-0.040545156581939405,0.005512608952269513,0.0,0.0,0.0,1.0,0.0
https://glebekitchen.com/tandoori-marinade/,0.005600176978443164,0.017745220584185997,0.037349912607828814,-0.02993134673395624,0.04216673439274476,0.0,0.0,1.0,1.0,0.0
https://glebekitchen.com/chicken-vindaloo-restaurant-style/,0.009059875718873511,0.021406775623148935,0.03350030085932887,-0.03650251028476621,0.030404332352874226,0.0,0.0,1.0,0.0,0.0
https://glebekitchen.com/chicken-tikka/,0.0075922841096432905,0.01612217238145542,0.030273341287264357,-0.028826561256201203,0.037899866117669295,0.0,0.0,0.0,0.0,0.2341389728096677
https://glebekitchen.com/garam-masala-indias-most-famous-spice-mix/,0.08418175185560524,0.010665817596224028,0.047545336516140915,-0.0716853057255722,0.08699195508463799,0.0,0.0,0.0,0.0,0.2341389728096677
https://glebekitchen.com/indian-restaurant-curry-base/,-0.025031009746923325,0.0034469823924779524,0.02333479600350022,-0.00593158148808208,0.02544529303751687,0.0,0.0,0.0,0.0,0.0
https://glebekitchen.com/nearly-restaurant-style-chicken-saag-curry/,0.011768501956543182,0.023990665871519833,0.02578185252614226,-0.03447394907477868,0.03706326839377447,0.0,1.0,1.0,0.0,0.0
https://glebekitchen.com/nihari-gosht-indian-beef-stew/,0.04186376187875733,0.0017638624716172756,0.0236178252779156,-0.05068861363879298,0.04159370394988554,0.0,1.0,1.0,0.0,0.0
https://glebekitchen.com/palak-paneer-indian-restaurant-style-spinach-curry/,0.025918837262856088,0.02883939066247855,0.03467150242239646,-0.04009348168508852,0.03535799036001867,0.0,0.0,1.0,0.0,0.0
https://glebekitchen.com/tandoori-chicken/,0.012912751753743786,0.015595965961823598,0.03672868262221708,-0.025886926042261095,0.04909551191815013,0.0,1.0,1.0,1.0,0.2341389728096677
https://glebekitchen.com/bagara-baingan-indian-hotel-style-eggplant-curry/,0.01131475707053411,0.008164932174366127,0.02596080775362682,-0.03192864428178329,0.036498346464944174,1.0,0.0,1.0,1.0,1.0
https://glebekitchen.com/sambar-south-indian-lentil-and-vegetable-stew/,0.017520853459663338,0.025816448761939764,0.02509245762366995,-0.05958414451473312,0.021862749568125037,1.0,0.0,0.0,0.0,1.0
https://glebekitchen.com/indian-restaurant-spice-mix/,0.056680456583112826,0.03687812975232583,0.03963780657606681,-0.054233834777721215,0.06047364380030286,1.0,0.0,0.0,0.0,0.0
https://glebekitchen.com/bombay-potatoes-restaurant-style-bombay-aloo/,-0.004889210535267679,0.01730736367957617,0.026095952037947106,-0.03142630935419902,0.029168602253680818,1.0,0.0,0.0,0.0,0.0
https://glebekitchen.com/hariyali-chicken-curry-indian-hotel-style/,-0.0029112195461239803,0.01558538760065381,0.03048258198950989,-0.028087512807525944,0.03759868101688851,0.0,1.0,1.0,1.0,0.0
https://glebekitchen.com/lamb-keema-papadum/,0.024179549390637826,0.01695267576014728,0.030169756466873508,-0.0345958943942362,0.038661833640089814,0.0,0.0,0.0,0.0,0.0
https://glebekitchen.com/restaurant-style-chicken-tikka-masala/,0.006048186574901727,-0.009864932992123966,0.004667596757376608,-0.015239468621016002,0.013463501257121195,0.0,0.0,1.0,1.0,1.0
https://glebekitchen.com/dal-palak-indian-spinach-and-lentil-curry/,-0.006894372011690096,0.020549843918020255,0.02307510105642865,-0.03353103355680223,0.03130132189148094,0.0,0.0,0.0,0.0,0.0
https://glebekitchen.com/mulligatawny-soup/,-0.04083989645413787,0.009605209871422217,0.011025265675918392,-0.011749558002068112,0.011104690103334985,0.0,1.0,0.0,0.0,0.0
https://glebekitchen.com/indian-restaurant-chicken-jalfrezi/,0.008462504643974812,0.02360532932758214,0.023817423315811083,-0.041419457636570185,0.028916898602797846,0.0,1.0,1.0,1.0,0.0
https://glebekitchen.com/lamb-or-beef-keema/,0.020977273600580087,0.013009311322996688,0.03082116621775207,-0.04216873074897678,0.03028851972840953,0.0,1.0,1.0,0.0,0.2341389728096677
https://glebekitchen.com/indian-restaurant-lamb-curry/,0.019887175030121305,0.0174140068489573,0.028250641468638104,-0.04114454183379879,0.035360355833495644,0.0,0.0,1.0,0.0,0.0
https://glebekitchen.com/naga-chicken-tikka-curry-indian-hotel-style/,-0.002129876005071684,0.0015723014855318087,0.028338613527464588,-0.027465784643857453,0.015645685088359788,0.0,1.0,1.0,1.0,0.0
https://glebekitchen.com/restaurant-style-pathia-curry/,0.009279180090073549,0.0191190466390775,0.024526331402840787,-0.03748650031705633,0.026897746292147737,0.0,1.0,1.0,1.0,0.0
https://glebekitchen.com/gunpowder-potatoes/,0.02018811397224275,0.015681550895900946,0.03294474124951058,-0.04746635373137514,0.04381937194148954,1.0,0.0,1.0,1.0,0.0
https://glebekitchen.com/nearly-restaurant-style-chettinad-chicken-curry/,0.01328317619426884,0.009771904437959873,0.028923637543706252,-0.03303018141613805,0.032386968427665815,0.0,1.0,1.0,1.0,0.0
https://glebekitchen.com/bengali-masoor-dal/,-0.057334658786337485,0.004162352687613801,0.011103043477558448,-0.0008687823998401768,0.012678085665200714,0.0,0.0,0.0,0.0,0.0
https://glebekitchen.com/indian-restaurant-vindaloo-curry/,-0.003277710708604067,0.02119857937616525,0.019806321946517002,-0.031043951541406867,0.022804841026191774,0.0,1.0,0.0,1.0,0.0
https://glebekitchen.com/shahi-chicken-korma/,0.009839693737540532,-0.008965117525259227,0.015937685425452788,-0.02065958991799932,0.025850126857262335,0.0,1.0,1.0,0.0,0.0
https://glebekitchen.com/saag-aloo-indian-restaurant-style/,0.022258154998130542,0.024654302862680045,0.02333623493158792,-0.04371371486504179,0.03821619746667826,0.0,0.0,0.0,1.0,0.0
https://glebekitchen.com/chole-masala-punjabi-chickpea-curry/,0.012934416657115515,0.009037524772953233,0.033546158349381204,-0.047314565547476074,0.04199070845676622,0.0,0.0,1.0,1.0,1.0
https://glebekitchen.com/aloo-keema-indian-restaurant-potato-and-beef-curry/,-0.020790508538398398,0.012904839306914676,0.02627532200775813,-0.02384767279904566,0.018238592662788995,0.0,1.0,1.0,1.0,0.0
https://glebekitchen.com/kerala-fried-chicken/,0.023640085068685836,0.017802541924107143,0.029065833291300185,-0.04248483655502852,0.027441176008572123,1.0,1.0,0.0,1.0,0.0
https://glebekitchen.com/easy-mint-raita-indian-mint-sauce/,-0.0064372119560920016,-0.013999327005713139,0.056398877630769007,0.007449492084835876,0.046714079009808965,0.0,0.0,0.0,0.0,0.0
https://glebekitchen.com/chicken-masala-indian-restaurant-style/,0.0019754313908579126,0.007862145446503762,0.028987631520150332,-0.034873556045276616,0.03277602703867559,0.0,1.0,1.0,0.0,0.0
https://glebekitchen.com/indian-lentil-curry-with-spinach/,-0.010262798800901389,0.018824492132887217,0.021643900647381743,-0.02931507978667496,0.028191942465399456,0.0,0.0,0.0,0.0,0.0
https://glebekitchen.com/garlic-chilli-chicken-indian-restaurant-style/,0.011768185658603795,0.012387453515944245,0.033883281088810446,-0.03946360831680466,0.03416232235293536,0.0,0.0,1.0,1.0,0.0
https://glebekitchen.com/homemade-curry-powder/,0.04726104204246039,0.022327281428866683,0.031567698547358705,-0.05563752274968446,0.06005256079088208,1.0,0.0,0.0,0.0,0.0
https://glebekitchen.com/karahi-chicken-indian-restaurant-style/,-0.011525790087412455,0.012162492284852677,0.0243558138568214,-0.02215473513766326,0.02106331726571676,0.0,1.0,1.0,1.0,0.0
https://glebekitchen.com/garlic-ginger-paste/,-0.0115467073933371,0.0008412988743403212,0.007602291285634876,0.00871853238556595,0.027440903353952797,0.0,0.0,0.0,0.0,0.0
https://glebekitchen.com/papadum-with-red-onion-chutney-and-mint-raita/,0.034459424303267275,0.01496411384996774,0.02168311552270761,-0.044316142773061194,0.04233038548264888,0.2470501474926253,0.235207100591716,0.2431430689399555,0.18065967016491755,0.2341389728096677
https://glebekitchen.com/chicken-bhuna-curry/,0.04536828085431581,0.01531430352803423,0.031018558321263472,-0.05000971554253266,0.05619011492840609,0.0,1.0,0.0,0.0,1.0
https://glebekitchen.com/tarka-dhal/,0.006005805668629417,0.019020219522927286,0.024252353283685472,-0.03416243645327823,0.040941050114380206,0.0,0.0,0.0,0.0,0.0
https://glebekitchen.com/chaat-masala-indian-street-food-spice-mix/,0.008611340766592422,0.034186857222530856,0.02565619122309017,-0.05648766449301017,0.0483239396722576,0.0,0.0,0.0,1.0,0.0
https://glebekitchen.com/keema-matar-nearly-restaurant-style/,0.016808914663516753,0.02348275068203407,0.02048840739038935,-0.042076733442699396,0.030639731423042545,0.0,1.0,1.0,0.0,0.0
https://glebekitchen.com/pilau-rice-indian-restaurant-style/,0.09202609585673774,0.01682651764527182,0.05757498647883117,-0.0707663325559876,0.08190610746003811,0.0,0.0,0.0,0.0,0.0
https://glebekitchen.com/dal-tadka-restaurant-style/,0.020099563112996,0.009914173114156133,0.03500592373320734,-0.05396234870222945,0.043765006660454596,0.0,0.0,0.0,0.0,0.0
https://glebekitchen.com/eggplant-curry-baingan-masala-restaurant-style/,0.013675604772654278,0.026771839270197027,0.028006805241143202,-0.04720369760385432,0.035611268112834125,0.0,0.0,0.0,1.0,1.0
https://glebekitchen.com/restaurant-style-aloo-chaat-chicken-curry/,0.004427572263768849,0.019049960139410974,0.029131987642532976,-0.0359947719438026,0.02539061835352734,1.0,1.0,1.0,1.0,0.0
https://glebekitchen.com/chicken-65-south-indian-fried-chicken-bites/,0.019274627003873418,0.025951751369766237,0.01744368072103492,-0.0516387152959559,0.028291681592320372,0.0,1.0,0.0,0.0,0.2341389728096677
https://glebekitchen.com/seekh-kebab-spicy-lamb-skewers/,0.01869100777257646,0.03208621241460731,0.02306296478980172,-0.039790284614948976,0.04496530562898545,0.0,0.0,1.0,1.0,0.0
https://glebekitchen.com/nearly-indian-restaurant-style-chicken-tikka-masala/,0.0038457738655957733,0.009495294309976629,0.021783767865266715,-0.025391640181945445,0.031128137782001304,0.0,1.0,1.0,1.0,0.0
https://glebekitchen.com/chana-masala/,0.01689954611122907,0.029414795828553775,0.03503368764741971,-0.038551277733502004,0.04453674450067562,0.0,0.0,0.0,0.0,0.0
https://glebekitchen.com/chana-chaat-indian-chickpea-salad/,0.0072314829005313145,0.02805606890802594,0.030122336762266534,-0.04627715694282479,0.026763400262000952,0.0,0.235207100591716,0.0,0.0,0.0
https://glebekitchen.com/chicken-tikka-jalfrezi-indian-hotel-style/,-0.007457957217970274,0.01587116060523931,0.028331772290454613,-0.03303241891628507,0.02324793799368283,0.0,1.0,1.0,1.0,1.0
https://glebekitchen.com/mint-coriander-chutney/,-0.015880012796622437,0.017481230663751374,0.02897787665546972,-0.020370020060813933,0.036326276967389964,0.0,0.0,0.2431430689399555,0.0,0.0
https://glebekitchen.com/indian-restaurant-dhansak-curry/,0.006386792975652691,0.022930587573866183,0.02481012535591219,-0.03692161205756675,0.026133922211368617,0.0,1.0,1.0,1.0,0.0
https://glebekitchen.com/chicken-biryani-indian-restaurant-style/,0.03633128633219078,0.022855394127323722,0.030592138412585942,-0.0432663382084031,0.05213537134052989,1.0,0.0,0.0,1.0,0.0
https://glebekitchen.com/indian-restaurant-dopiaza-curry/,-0.0057326957055844055,0.019851219926734488,0.02317542314411368,-0.033642303021461255,0.01968561773705663,0.0,0.0,0.0,1.0,0.0
https://glebekitchen.com/indian-restaurant-bhuna-curry/,0.007494493846898119,0.02517829204841427,0.023094696943685628,-0.04012760348657766,0.033009273389666825,0.0,1.0,1.0,1.0,0.0
https://glebekitchen.com/butter-chicken-indian-restaurant-style/,0.002139154816567629,0.00393344946657453,0.019631427566387836,-0.02884712295241036,0.018353548369372953,0.0,1.0,1.0,1.0,0.0
https://glebekitchen.com/nearly-restaurant-chicken-jalfrezi/,-0.01648417667465908,0.015770789883854,0.021458527435898996,-0.029389680827423367,0.02233398844157868,0.0,1.0,1.0,0.0,0.0
https://glebekitchen.com/nadan-chicken-curry/,0.011140018242687259,0.01903230107802981,0.02162194146192228,-0.030747210214660554,0.02848409328951217,0.0,1.0,1.0,1.0,0.0
https://glebekitchen.com/tandoori-paste-pataks-copycat/,0.0026538404710223177,0.009604401917257614,0.025330220342930237,-0.023555964109097327,0.02290407166372505,1.0,0.0,0.0,1.0,1.0
https://glebekitchen.com/tandoori-chicken-tacos/,0.008565640266831728,0.0019503639992843836,0.005806666167448095,-0.03778206990618213,0.0041717424493757736,0.0,0.0,0.2431430689399555,0.0,0.2341389728096677
https://glebekitchen.com/hotel-style-indian-curry-gravy/,-0.004616193253101279,0.012629120510037123,0.03276111180504031,-0.02697899271988684,0.036595819748904905,0.0,0.0,1.0,0.0,1.0
https://glebekitchen.com/methi-chicken-curry-indian-hotel-style/,0.01610508792287473,0.026463393709127103,0.02999148506919161,-0.03943461233428327,0.03995481659939727,0.0,1.0,1.0,1.0,0.0
https://glebekitchen.com/restaurant-style-keema-matar/,-0.004011042640209738,0.01793829002404083,0.025058697499923448,-0.035867491098680614,0.018146332924439887,0.0,1.0,1.0,1.0,0.0
https://glebekitchen.com/chicken-chaat-salad/,-0.03579810254511854,0.006175604674465802,0.011142126423710387,-0.0014001347063414844,0.02991108457551122,0.0,0.0,0.0,0.0,0.2341389728096677
https://glebekitchen.com/easy-chana-masala/,0.019119548280379,0.02911172469980839,0.03515604341334141,-0.04563703818898247,0.0391033368162156,1.0,0.0,0.0,1.0,0.0
https://glebekitchen.com/green-chili-chana-achari/,-0.003570827521992478,0.022845198182639515,0.020969240778820526,-0.04395727894766152,0.01705947493677391,0.0,0.0,0.0,0.0,0.0
https://glebekitchen.com/masala-chilli-chicken-restaurant-style/,0.0015960619809256339,0.018882869335078944,0.036104498394919686,-0.036302650553759745,0.020229673046138104,0.0,1.0,1.0,1.0,1.0
https://glebekitchen.com/laal-maas-spicy-lamb-curry/,0.03590287579443368,0.034795588360722524,0.025617543464043293,-0.05092417445002101,0.045108053255489895,0.0,1.0,1.0,1.0,0.0
https://glebekitchen.com/chettinad-chicken-curry-indian-hotel-style/,0.02001845956360348,0.00760356106925382,0.030045247075821006,-0.04000397917801285,0.03665954363176721,0.0,1.0,1.0,1.0,0.0
https://glebekitchen.com/bengali-chicken-curry-restaurant-style/,-0.02130229987005968,0.011648659228394465,0.022730909406162684,-0.025252537403262887,0.013318390747035795,0.0,1.0,1.0,0.0,0.0
https://glebekitchen.com/chicken-dhansak-bengali-style/,-0.00047814196923997286,0.006337520170346965,0.02803211330487883,-0.03656619023501774,0.03487091255468601,1.0,1.0,0.0,0.0,0.0
https://glebekitchen.com/spinach-potato-curry/,-0.006035011782660711,0.017906153509455413,0.01731897587567312,-0.026972677346172286,0.021175989984234252,0.0,0.0,0.0,0.0,0.0
https://glebekitchen.com/chicken-shashlik/,-0.025827689791743182,0.012815719023850577,0.018990859624157017,-0.023480970837179774,0.018032314003937663,0.0,1.0,1.0,1.0,0.0
https://glebekitchen.com/nearly-restaurant-style-chicken-madras/,-0.00791567338723275,0.00558406159946484,0.024381520997444017,-0.026845588572950406,0.025799146616911572,0.0,1.0,1.0,0.0,0.0
https://glebekitchen.com/lamb-saag-indian-restaurant-style/,0.0252861728899238,0.029951584385835305,0.02717691345274912,-0.04128631724238868,0.02957970671067086,0.0,0.0,1.0,1.0,0.0
https://glebekitchen.com/simple-chicken-curry/,0.004085037705393096,0.001646740478423304,0.023624720770436498,-0.029006411491662117,0.038438487582428155,0.0,1.0,0.0,0.0,0.0
https://glebekitchen.com/egg-curry-south-indian-restaurant-style/,0.017998655765651416,0.00674101123039397,0.023909115810442173,-0.038925964438955164,0.03151454826488666,0.0,0.0,1.0,1.0,0.0
https://glebekitchen.com/chicken-dopiaza-indian-hotel-style/,-0.014123176887156016,0.01580861311395865,0.02554523840412489,-0.028287421619001465,0.02476359515849325,0.0,1.0,1.0,1.0,1.0
https://glebekitchen.com/green-chili-chicken-curry-indian-hotel-style/,0.006447061964857415,0.022656628208285772,0.03004580070773239,-0.03889530999852942,0.02910102312399585,0.2470501474926253,0.235207100591716,0.2431430689399555,0.18065967016491755,0.2341389728096677
https://glebekitchen.com/punjabi-dal-makhani/,0.01919055026544843,-0.0022462601636815535,0.03368341651766906,-0.039018699501220076,0.03379275695004814,0.0,0.0,0.0,0.0,0.0
https://glebekitchen.com/kerala-chicken-curry-nadan-kohzi-indian-hotel-style/,0.027503492954839413,0.012764252760981561,0.028803153295111062,-0.04007092008600374,0.039757114260525785,0.0,1.0,1.0,1.0,0.0
https://glebekitchen.com/chettinad-chicken-curry/,-0.03439855090378808,-0.0029242488611368658,0.01817308771666452,-0.006700183187903978,0.007222160295569569,0.0,1.0,1.0,1.0,0.0
https://glebekitchen.com/chicken-and-chickpea-curry-easy-restaurant-style/,-0.018113361553015336,0.01030122212962149,0.021901293307151792,-0.020142986264860597,0.026603777828237488,1.0,1.0,1.0,0.0,0.0
https://glebekitchen.com/indian-restaurant-madras-curry/,0.014010086900319085,0.0022083766658127736,0.023545145031677324,-0.02953391950448974,0.03025105716440895,0.0,1.0,1.0,1.0,0.0
https://glebekitchen.com/lamb-madras-indian-hotel-style/,0.013517928983874368,0.010732565006135418,0.022976344130260135,-0.02933470797618603,0.023321134579338265,0.0,1.0,1.0,1.0,0.0
https://glebekitchen.com/kachumber-indian-tomato-and-cucumber-salad/,0.001818711533684636,0.016182341927142227,0.02968940858872955,-0.020094121655949863,0.04279772489066873,0.0,0.235207100591716,0.0,0.0,0.0
https://glebekitchen.com/murgir-jhol-homestyle-bengali-chicken-curry/,-0.009915497404808266,0.004423196360118807,0.025851120405460577,-0.028228206578749665,0.028635543988135705,0.0,1.0,0.0,0.0,0.0
https://glebekitchen.com/lamb-rogan-josh-restaurant-style-at-home/,0.028081502053877536,0.016004515803518714,0.02075001176592223,-0.049492874818997515,0.03609843449763284,0.0,1.0,1.0,1.0,0.0
https://glebekitchen.com/thai-chicken-khao-soi/,0.008504880558447172,-0.0005858773949326798,0.00583770660470459,-0.016484894717000997,0.006631062973666513,1.0,1.0,0.0,1.0,0.0
https://glebekitchen.com/thai-grilled-chicken-with-sweet-chili-sauce/,0.016265577617580858,0.04182844094122633,0.010624487766647381,-0.01059079567961362,0.01903239847732821,1.0,0.0,0.0,1.0,1.0
https://glebekitchen.com/thai-tom-yum-soup/,0.004772568564211803,0.02322501194924649,0.01373724085045542,-0.02292173097625394,0.03682343458619365,0.0,0.0,0.0,1.0,0.0
https://glebekitchen.com/chicken-pad-thai/,0.03116499797121603,0.03661937644023024,-0.006308879456128097,-0.024555669213202888,-0.0031069726371192917,1.0,1.0,1.0,1.0,1.0
https://glebekitchen.com/thai-cucumber-salad/,0.014164620189201449,0.014233453653565412,0.009169999820743025,-0.03275080600962166,0.04182268865858673,0.0,0.0,0.0,0.0,0.0
https://glebekitchen.com/thai-fried-rice-khao-pad/,-0.02022759196256329,0.00721154550154381,-0.0042497586960607275,-0.012209513997483934,0.009568157848506245,1.0,1.0,1.0,1.0,0.0
https://glebekitchen.com/nam-prik-pao-thai-chili-paste/,-0.050363119174168476,0.013458490408377047,-0.0012057575399498192,0.009903456182822366,0.0014405851890557648,0.0,0.0,1.0,0.0,0.0
https://glebekitchen.com/thai-red-chicken-curry/,0.05431797737079464,0.032081445391059726,0.023003715679399867,-0.05269370088041129,0.026304013915768545,0.0,1.0,1.0,0.0,0.0
https://glebekitchen.com/thai-sweet-chili-sauce/,0.02888256769813394,0.07280306467062367,0.001984293450626487,0.018882096103784985,0.02703595221551423,1.0,0.0,0.0,1.0,1.0
https://glebekitchen.com/panang-curry-with-chicken/,0.0093624176093344,0.014519212468365723,0.010500631100030534,-0.016477079709905838,0.029712840013717875,0.0,1.0,0.0,1.0,1.0
https://glebekitchen.com/sesame-noodles-thai-style/,0.04582910981363769,0.02548498007162654,-0.008119951067068913,-0.019053983062565023,0.0004630340984649081,1.0,1.0,1.0,1.0,0.0
https://glebekitchen.com/thai-basil-chicken-pad-kra-pao/,-0.023201015993842604,0.010107027586952167,-0.004453006370161423,-0.008694552359941087,0.009166560699509763,0.0,1.0,1.0,1.0,0.0
https://glebekitchen.com/easy-beef-massaman-curry/,0.03255056113509432,-0.005934599332379538,0.022126143077939864,-0.038208557125296756,0.02666157014834127,1.0,1.0,1.0,1.0,1.0
https://glebekitchen.com/larb-thai-pork-salad/,0.029597325869203644,0.021910582991223154,0.008808005731349832,-0.03805264011773518,0.02079477311875632,0.0,0.0,0.0,1.0,0.0
https://glebekitchen.com/grilled-pork-belly-skewers-asian-style/,0.046944825677532824,0.03865261906660232,0.007903840477914072,-0.014696299739815248,0.01599411339013489,0.0,0.0,0.0,0.0,0.0
https://glebekitchen.com/spicy-thai-beef-salad/,0.0352296370790891,0.040622666379302966,0.02361188230411662,-0.03406139292231011,0.05395901945124448,0.0,1.0,0.0,1.0,0.0
https://glebekitchen.com/thai-green-curry-from-scratch/,-0.002942294725131576,0.00754817100948949,0.005991859791664847,-0.009668713287619,0.04273498152638721,1.0,1.0,1.0,1.0,1.0
https://glebekitchen.com/thai-basil-beef-pad-gra-prow/,-0.03872829866825187,0.01402697793541251,0.007378524841649667,-0.012599172304047005,0.008255980053512375,0.0,1.0,1.0,0.0,0.0
https://glebekitchen.com/pad-thai-rest-us/,0.037085153614945084,0.04297112455773609,0.0006329309121500193,-0.022983109793415602,0.009710852038291695,1.0,0.0,1.0,1.0,1.0
https://glebekitchen.com/thai-chicken-salad-with-rice-noodles/,0.0056968728755119906,0.01095500140980582,0.016713259586232525,-0.014840386658837317,0.047313908832365914,0.2470501474926253,0.235207100591716,0.2431430689399555,0.18065967016491755,0.2341389728096677
https://glebekitchen.com/papaya-salad-som-tam-thai/,0.03807437692400998,0.023751789133205064,0.012550364020346382,-0.060748290935453995,0.036890465848526274,0.0,0.0,0.0,0.0,1.0
https://glebekitchen.com/thai-dipping-sauce/,-0.004576801326378722,0.010254347715751663,0.014584734931507167,-0.024676153883925255,0.030116249530923244,0.0,0.0,0.2431430689399555,1.0,1.0
https://glebekitchen.com/thai-beef-stir-fry-with-rice-noodles/,-0.0051948691670268615,0.009892669270945459,0.007480914996982527,-0.01582840450074921,0.004083085564493239,1.0,1.0,0.0,1.0,1.0
https://glebekitchen.com/thai-roast-chicken/,-0.03505787720614476,0.011403913323926125,0.010475642577031066,-0.008283303757419817,-0.021125416270108506,1.0,1.0,1.0,0.0,0.0
https://glebekitchen.com/thai-beef-noodles/,0.03722778223937231,0.04833655798669325,-0.012792947886939137,-0.01891173465605516,-0.006002160807917208,1.0,1.0,1.0,1.0,1.0
https://glebekitchen.com/beef-and-broccoli-thai-style/,0.00189595064637433,0.040653713692404496,-0.0036395662239605588,-0.002699958391111706,0.01133574854870948,0.0,1.0,1.0,1.0,0.0
https://glebekitchen.com/thai-curry-noodle-soup/,0.028339748611990876,0.014184388739012293,0.007400903758043708,-0.03076663732334398,-0.00408659006065582,1.0,1.0,1.0,1.0,0.0
https://glebekitchen.com/thai-chicken-buddha-bowl/,0.016735816732723924,0.03202216940021838,0.016157069714678528,-0.028216628077267505,0.019852931403129274,1.0,0.0,0.0,1.0,0.0
https://glebekitchen.com/thai-ribs-with-hot-and-sweet-dipping-sauce/,0.044043393230670976,0.05764422936935741,-0.009373949161714136,-0.034202917302866,0.02735701014619447,0.0,0.0,0.0,1.0,1.0
https://glebekitchen.com/spicy-grilled-korean-chicken-wings/,-0.029220048258029863,0.0027341358320468697,-0.007106178624121375,-0.011129451389418303,-0.00693531424601101,0.0,0.0,0.0,0.0,0.2341389728096677
https://glebekitchen.com/korean-ramen/,0.04133983875364003,0.04570927270793166,-0.03544005685490825,0.03496017460304878,-0.0391845202797524,1.0,1.0,0.0,1.0,1.0
https://glebekitchen.com/korean-pork-ribs-with-gochujang-glaze/,-0.03884838122544315,0.010528624650536163,-0.005936557412729167,0.013859838147439591,-0.014188023733721696,0.0,1.0,1.0,1.0,1.0
https://glebekitchen.com/korean-pork-stew-kimchi-jjigae/,-0.014241195982161413,0.03170152588386324,-0.01548571494299603,0.014222508777418522,-0.02855080920194476,0.0,0.0,1.0,0.0,0.0
https://glebekitchen.com/korean-pork-bone-soup-gamjatang/,0.034606024823115096,0.06933355923361512,-0.013791182646890606,0.011366492615421529,-0.009281880634882795,0.0,1.0,1.0,1.0,0.0
https://glebekitchen.com/korean-bbq-shrimp/,-0.03722179472483698,0.003683980140062012,-0.007903618111481292,0.0143360997992024,0.009484946637465016,0.2470501474926253,0.235207100591716,0.2431430689399555,0.18065967016491755,0.2341389728096677
https://glebekitchen.com/korean-beef-stew-with-gochujang/,0.058600007984671076,0.08600957328716956,-0.019749605119965777,0.08897879233239911,-0.03566544661088497,0.0,1.0,1.0,1.0,0.0
https://glebekitchen.com/korean-meatloaf-gochujang-glaze/,-0.003951391906037977,-0.004781408899739077,-0.026718512425487045,-0.000706074061807021,-0.002860569466435351,0.0,1.0,1.0,1.0,1.0
https://glebekitchen.com/korean-bulgogi-sauce/,-0.033256533010141996,-0.012110522603443558,0.019873954137165774,-0.0034060511702932238,0.0132982758588872,1.0,0.0,0.0,1.0,1.0
https://glebekitchen.com/spicy-miso-grilled-chicken/,-0.02081101143410253,0.028794296725825702,-0.0005390021462888762,0.019986779291249545,-0.0065437868983166895,0.0,1.0,0.0,0.0,0.0
https://glebekitchen.com/korean-style-pork-chops/,-0.04096700923409498,-0.0032689227801286323,0.016062200108510154,0.003377931646471677,-0.004066725874850223,0.0,1.0,0.0,0.0,0.0
https://glebekitchen.com/spicy-korean-chicken/,-0.029580224445796933,0.011898884884893114,0.013688316116599751,0.0021338644226273113,0.002066653885157458,1.0,1.0,0.0,0.0,0.2341389728096677
https://glebekitchen.com/easy-korean-beef-bulgogi/,-0.007253814936853074,0.023391536301981746,0.008170105019467588,-0.004307629572411561,0.008563207592462856,0.0,0.0,0.0,0.0,0.0
https://glebekitchen.com/korean-braised-pork-ribs/,-0.02704585988219506,0.03808061806812152,-0.012501673023289294,0.0329590910395094,-0.01493189555598749,0.0,1.0,1.0,0.0,0.0
https://glebekitchen.com/gochujang-mayonnaise/,-0.03798468395868864,-0.005260128734563152,-0.02331631917472661,0.03539527708468177,0.017677078813930488,0.0,0.235207100591716,0.0,0.0,0.0
https://glebekitchen.com/korean-chicken-wings-gochujang-sauce/,-0.014161844635066607,-0.006138948903760456,-0.010960281371088553,-0.010216897209856595,-0.011638327092701531,1.0,1.0,1.0,1.0,1.0
https://mykoreankitchen.com/spicy-mayo-recipe/,0.007021126894809425,-0.009556655907313812,0.016502940485063053,0.000944062549988326,0.0656187114462888,0.0,0.0,0.0,0.0,0.0
https://mykoreankitchen.com/strawberry-milk/,0.08651723094620771,-0.11890437059421566,0.02767042105618342,0.047035330703728964,0.0530184083155688,1.0,0.0,0.0,0.0,1.0
https://mykoreankitchen.com/dakgangjeong-soy-garlic-fried-chicken/,0.0037300742832364936,0.0032949009263759737,0.0033578506353996577,-0.025879659528898355,0.006584737941332695,1.0,1.0,0.0,1.0,1.0
https://mykoreankitchen.com/chili-oil-recipe/,-0.049700577466009296,0.010128505570683795,0.01585000331575188,-0.00977031273345535,0.003928319236234524,1.0,0.0,1.0,1.0,1.0
https://mykoreankitchen.com/dalgona-coffee-whipped-coffee/,0.07914463327511517,-0.11733882782024511,0.03837514506513475,0.03683840285467095,0.029744719457739703,0.0,0.0,0.0,0.0,1.0
https://mykoreankitchen.com/omelet-rice-omurice/,0.03880318331196422,-0.003576041966123695,-0.03770033532813024,-0.04051682428812149,-0.030801815351123807,1.0,1.0,1.0,1.0,1.0
https://mykoreankitchen.com/tuna-pancakes-chamchijeon/,-0.043344651077761184,-0.009049456871593375,-0.0019192211998833736,0.0013341458506106224,-0.009245433036946728,0.0,0.0,0.0,0.0,0.0
https://mykoreankitchen.com/pan-fried-zucchini/,-0.07256053994724532,-0.03393565422417943,-0.00990864436294548,0.02770565626275867,-0.011534990755864314,0.0,0.0,0.0,0.0,0.0
https://mykoreankitchen.com/slow-cooker-short-ribs/,0.01229556481759239,0.006017161255692234,-0.01606612486596409,-0.03597695491029938,-0.01168177285555306,1.0,0.0,0.0,1.0,1.0
https://mykoreankitchen.com/korean-ground-beef-rice-bowls/,0.01627307433252177,0.023746076839953452,-0.0038828358829109295,-0.013084598963413411,-0.011750998930422902,0.0,0.0,1.0,0.0,1.0
https://mykoreankitchen.com/doenjang-jjigae/,-0.02085273639289362,0.021738005609840065,-0.00032252999547427094,-0.012965057700037502,-0.014056695805359313,0.0,0.0,0.0,0.0,0.0
https://mykoreankitchen.com/spicy-sweet-and-vinegary-noodles-bibim-guksu/,-0.002527461648697762,0.02140487071014771,0.0030121633781480515,0.004446372812144129,-0.008236046939420802,1.0,0.0,0.0,1.0,1.0
https://mykoreankitchen.com/galbitang-beef-short-rib-soup/,0.02632249420565534,0.016737156930452603,-0.058438771327239965,0.011600016043091342,-0.01175007892386482,0.0,1.0,0.0,1.0,0.0
https://mykoreankitchen.com/nuclear-fire-noodle-fries/,-0.013527635345239227,0.014923892213141571,0.013376050593011756,0.020729369156022186,-0.0050618672226775425,1.0,0.0,1.0,1.0,0.0
https://mykoreankitchen.com/kimchi-jjim-braised-kimchi/,-0.003967128705511046,0.03064195251491642,0.010119857936011356,-0.014054486343080111,-0.003500157611342504,0.0,0.0,0.0,0.0,0.0
https://mykoreankitchen.com/air-fryer-chicken-wings/,0.006162732651583821,0.0014371083860694805,-0.0005628907987917941,-0.030023336055004356,0.008716186698898475,0.0,0.0,0.0,1.0,1.0
https://mykoreankitchen.com/pickled-radishes/,0.005120061652282823,0.05995181740801737,-0.002307144338280368,0.03492062858213723,-0.006328768528565624,0.0,0.0,0.0,0.0,0.0
https://mykoreankitchen.com/air-fryer-chickpeas/,-0.007573161752160547,-0.005316940168224588,0.01338186882250706,-0.015316137855264337,0.023449804960018975,0.0,0.0,0.0,0.0,0.0
https://mykoreankitchen.com/bean-sprout-rice-kongnamul-bap/,-0.024794970870365,0.014192063578112183,0.006256265043005869,-0.017844727348209088,-0.010492428935383963,1.0,0.0,0.0,1.0,0.0
https://mykoreankitchen.com/gochujang-chicken/,0.005070378137643022,0.00861814983214052,0.0020073427931878844,-0.026524032160058227,0.009665960597468784,1.0,1.0,0.0,1.0,1.0
https://mykoreankitchen.com/korean-style-tuna-cakes/,-0.01365533209688032,0.002841498687667668,-0.019810589195209418,0.00160222100942152,0.007810680998040669,0.0,0.0,0.0,0.0,0.0
https://www.justonecookbook.com/corn-dogs/,0.041662287401761665,-0.06448265727979546,-0.03942813077748268,0.003439063459152423,0.0009880237844700549,0.2470501474926253,0.235207100591716,0.2431430689399555,0.18065967016491755,0.2341389728096677
https://www.justonecookbook.com/renkon-chips/,0.050051211678539424,0.015946688295708264,0.03856033755618905,-0.01737563706509331,0.006590144334979966,0.2470501474926253,0.235207100591716,0.2431430689399555,0.18065967016491755,0.2341389728096677
https://www.justonecookbook.com/mini-fruit-puff-pastry-with-lemon-glaze/,0.03724173155381854,-0.0776185663882554,-0.02425161762651702,0.019290994534101758,0.024929719256407957,0.2470501474926253,0.235207100591716,0.2431430689399555,0.18065967016491755,0.2341389728096677
https://www.justonecookbook.com/tandoori-chicken-puffs/,0.0226941440934119,-0.031443162993596396,-0.020980383854149548,0.011330472613911877,0.026187603457071572,0.2470501474926253,0.235207100591716,0.2431430689399555,0.18065967016491755,0.2341389728096677
https://www.justonecookbook.com/steamed-cake/,0.02652771831833404,-0.06112529284351412,-0.02973168595168288,-0.01359050285257451,-0.008009093044737006,0.2470501474926253,0.235207100591716,0.2431430689399555,0.18065967016491755,0.2341389728096677
https://www.justonecookbook.com/candied-sweet-potatoes/,-0.012880995158909277,-0.0009739022333335214,0.0037498352237006548,0.00037992785425279405,-0.007912169878891605,0.2470501474926253,0.235207100591716,0.2431430689399555,0.18065967016491755,0.2341389728096677
https://www.justonecookbook.com/oyaki/,0.05246895791634447,0.04304644445014802,0.00914813563165459,0.04014691284603968,0.014912791009175499,0.2470501474926253,0.235207100591716,0.2431430689399555,0.18065967016491755,0.2341389728096677
https://www.justonecookbook.com/how-to-enjoy-japanese-mochi/,0.05318752856216962,-0.009822817370255291,0.025086440683188247,-0.07845303202246011,-0.03504881115889462,0.2470501474926253,0.235207100591716,0.2431430689399555,0.18065967016491755,0.2341389728096677
https://www.justonecookbook.com/green-tea-steamed-cake/,0.14719543008140992,-0.05852852775531614,0.06550442078043685,0.0011664717487847827,-0.03225554117230966,0.2470501474926253,0.235207100591716,0.2431430689399555,0.18065967016491755,0.2341389728096677
https://www.justonecookbook.com/spicy-edamame/,-0.03491719977260077,-0.02492896249948596,0.012601382082357343,0.003156413373282256,0.007403243991960592,0.2470501474926253,0.235207100591716,0.2431430689399555,0.18065967016491755,0.2341389728096677
https://www.justonecookbook.com/japanese-fruit-sandwich-fruit-sando/,-0.005119932574440813,-0.05293610258652107,0.014244593161431202,0.006730705081451952,0.032938938452258426,0.2470501474926253,0.235207100591716,0.2431430689399555,0.18065967016491755,0.2341389728096677
https://www.justonecookbook.com/roast-chestnuts/,0.08776400052933443,0.030253030507139216,-0.016719891403897826,-0.04973510140101791,-0.019420193248065525,0.2470501474926253,0.235207100591716,0.2431430689399555,0.18065967016491755,0.2341389728096677
https://www.justonecookbook.com/rice-cracker-recipe/,-0.03411766577557741,-0.030317651406025846,0.010946215566059082,0.013452495986481976,0.006099043415685322,0.2470501474926253,0.235207100591716,0.2431430689399555,0.18065967016491755,0.2341389728096677
https://www.justonecookbook.com/takoyaki-recipe/,0.03665187438404661,0.022398564721310146,-0.024594976782522576,0.04591332462188218,-0.009947400623278237,0.2470501474926253,0.235207100591716,0.2431430689399555,0.18065967016491755,0.2341389728096677
https://www.justonecookbook.com/nikuman-steamed-pork-buns/,-0.03322363380456789,-0.009757232672385959,-0.0005303150537653714,-0.0012805713059163273,-0.012708120783040355,0.2470501474926253,0.235207100591716,0.2431430689399555,0.18065967016491755,0.2341389728096677
https://www.justonecookbook.com/homemade-popcorn-with-truffle-salt/,-0.041243254937691765,-0.02900870138900509,0.011021768110009059,0.009907959418385811,0.0027202057513551928,0.2470501474926253,0.235207100591716,0.2431430689399555,0.18065967016491755,0.2341389728096677
https://www.justonecookbook.com/sata-andagi/,0.003175271917398744,-0.06299616226146598,-0.028045815455877428,0.013321303713896896,-0.005813967902952915,0.2470501474926253,0.235207100591716,0.2431430689399555,0.18065967016491755,0.2341389728096677
https://www.justonecookbook.com/banana-bread/,-0.021009915261953168,-0.052663669174779666,-0.006643274927180282,0.01635804101393574,0.006445071146180621,0.2470501474926253,0.235207100591716,0.2431430689399555,0.18065967016491755,0.2341389728096677
https://www.justonecookbook.com/seared-tuna-aburi-toro/,-0.06497046049240497,0.021925534524982495,0.004340307676668691,0.024107818001205213,-0.004920999669174841,0.2470501474926253,0.235207100591716,0.2431430689399555,0.18065967016491755,0.2341389728096677
https://www.justonecookbook.com/chicken-spring-rolls/,-0.03966261664328786,0.007732838949566875,0.012393353848887645,0.004366637987323498,0.004045627283887549,0.2470501474926253,0.235207100591716,0.2431430689399555,0.18065967016491755,0.2341389728096677
https://www.justonecookbook.com/gyoza-with-wings-hanetsuki-gyoza/,-0.03477673741195417,-0.03631532195585269,0.009977598400694503,0.011320612170544338,0.0027705259655383973,0.2470501474926253,0.235207100591716,0.2431430689399555,0.18065967016491755,0.2341389728096677
https://www.justonecookbook.com/sauteed-abalone/,0.07034481638522447,0.041579874770582864,-0.012642593117115537,0.05320181726775789,-0.005164257216447688,0.2470501474926253,0.235207100591716,0.2431430689399555,0.18065967016491755,0.2341389728096677
https://www.justonecookbook.com/grilled-oysters-ponzu-sauce/,0.0796072756879647,0.09038893656889882,0.002712191808307554,0.052232690964320164,0.038897932574530725,0.2470501474926253,0.235207100591716,0.2431430689399555,0.18065967016491755,0.2341389728096677
https://www.justonecookbook.com/japanese-clams-sake-steamed-clams/,-0.02849434710250692,0.021161482326694427,0.01578140546186783,-0.02951299517979091,0.011998000103064595,0.2470501474926253,0.235207100591716,0.2431430689399555,0.18065967016491755,0.2341389728096677
https://www.justonecookbook.com/miso-dengaku/,0.08713942479641452,0.07686763634296165,-0.02337107345323417,0.03227112403094027,-0.006817495629893943,0.2470501474926253,0.235207100591716,0.2431430689399555,0.18065967016491755,0.2341389728096677
https://www.justonecookbook.com/thai-chicken-lettuce-wraps/,0.0011933529871021936,0.02259453771555868,-6.280845418634134e-05,-0.007974605717182186,0.00413083154711988,0.2470501474926253,0.235207100591716,0.2431430689399555,0.18065967016491755,0.2341389728096677
https://www.justonecookbook.com/shrimp-egg-rolls/,-0.03692337644849377,-0.029386676152345127,-0.007735948073068844,0.01749531093355583,-0.0021592511926310995,0.2470501474926253,0.235207100591716,0.2431430689399555,0.18065967016491755,0.2341389728096677
https://www.justonecookbook.com/agedashi-tofu-2/,0.1312225854887096,0.10068382655777121,-0.0352120360164877,0.0502576214978612,-0.01651489582211766,0.2470501474926253,0.235207100591716,0.2431430689399555,0.18065967016491755,0.2341389728096677
https://www.justonecookbook.com/tazukuri-candied-sardines/,-0.01811819865637807,-0.024330525160966565,0.012207348582924299,0.0036247691909683756,0.009155383196552824,0.2470501474926253,0.235207100591716,0.2431430689399555,0.18065967016491755,0.2341389728096677
https://www.justonecookbook.com/pickled-chrysanthemum-turnip/,0.06721460808656539,0.06819205389401299,0.014202854721618155,0.03588130236720249,0.0328128074246884,0.2470501474926253,0.235207100591716,0.2431430689399555,0.18065967016491755,0.2341389728096677
https://www.justonecookbook.com/bitter-melon-salad/,-0.037672071508684825,0.009658660789255055,0.002174654388709687,0.022391404903769594,-0.013629863392498564,0.2470501474926253,0.235207100591716,0.2431430689399555,0.18065967016491755,0.2341389728096677
https://www.justonecookbook.com/spicy-miso-chicken/,0.04300068962373675,0.08795063176198423,-0.012463731667427806,0.07231453182457095,-0.0018205732895348842,0.2470501474926253,0.235207100591716,0.2431430689399555,0.18065967016491755,0.2341389728096677
https://www.justonecookbook.com/cheese-tart/,0.01124326221900431,-0.07524422009566936,-0.05408191230958936,0.027324673027591062,-0.009336720909028033,0.2470501474926253,0.235207100591716,0.2431430689399555,0.18065967016491755,0.2341389728096677
https://www.justonecookbook.com/bbq-king-crab/,-0.046558692472629254,0.02255946892856992,0.008707830990398966,0.006067264221271719,-0.0022019091538918894,0.2470501474926253,0.235207100591716,0.2431430689399555,0.18065967016491755,0.2341389728096677
https://www.justonecookbook.com/eggplant-agebitashi/,0.08700556106863801,0.08752356336882261,-0.02375988918779417,0.052868054303261844,-0.010219673304423643,0.2470501474926253,0.235207100591716,0.2431430689399555,0.18065967016491755,0.2341389728096677
https://www.justonecookbook.com/tsukune/,0.06502648964984416,0.10047739713731871,-0.0007687210270606275,0.05238718967021909,0.02838585044626028,0.2470501474926253,0.235207100591716,0.2431430689399555,0.18065967016491755,0.2341389728096677
https://www.justonecookbook.com/fresh-spring-rolls-yakiniku/,-0.013899855922144374,0.00844129178579523,0.018106299287604342,0.006493583614857805,0.018503714391038758,0.2470501474926253,0.235207100591716,0.2431430689399555,0.18065967016491755,0.2341389728096677
https://www.justonecookbook.com/garlic-soy-marinated-albacore/,-0.09105696386121774,-0.0005772754496402987,0.017514185017129223,0.030232942514713163,-0.008860214016767965,0.2470501474926253,0.235207100591716,0.2431430689399555,0.18065967016491755,0.2341389728096677
https://www.justonecookbook.com/tuna-tataki/,-0.03128022069525497,-0.006540326190952775,0.013131870519452957,0.0077199670987418275,0.009009101590587194,0.2470501474926253,0.235207100591716,0.2431430689399555,0.18065967016491755,0.2341389728096677
https://www.justonecookbook.com/gyutan-bbq-beef-tongue/,0.014318636402935752,0.04485566721036443,0.012056150499031578,0.050652081166209166,0.036150370026059565,0.2470501474926253,0.235207100591716,0.2431430689399555,0.18065967016491755,0.2341389728096677
https://www.justonecookbook.com/teriyaki-wings/,-0.04647282246125446,0.0012168527187984448,0.001407182115852346,0.011615827039720125,7.87115714646544e-05,0.2470501474926253,0.235207100591716,0.2431430689399555,0.18065967016491755,0.2341389728096677
https://www.justonecookbook.com/salmon-kombu-roll/,-0.024700759096037663,0.01951264333075143,-0.006516444666846587,0.03451925213993056,-0.007868143810144676,0.2470501474926253,0.235207100591716,0.2431430689399555,0.18065967016491755,0.2341389728096677
https://www.justonecookbook.com/ham-katsu/,0.06595181768676153,-0.02068408553123749,-0.08930366199521732,0.014525484344861296,0.022362185700975094,0.2470501474926253,0.235207100591716,0.2431430689399555,0.18065967016491755,0.2341389728096677
https://www.justonecookbook.com/octopus-carpaccio/,-0.03976206434091079,0.003468826921761386,0.013969586897117692,0.006427442508968006,0.025667410927618203,0.2470501474926253,0.235207100591716,0.2431430689399555,0.18065967016491755,0.2341389728096677
https://www.justonecookbook.com/grilled-clams-little-neck-clams/,-0.02704608762687294,0.02035511792349771,-0.004735509527375773,0.03381781652079333,0.004089527549724246,0.2470501474926253,0.235207100591716,0.2431430689399555,0.18065967016491755,0.2341389728096677
https://www.justonecookbook.com/napa-cabbage-gyoza/,-0.024384823262576634,0.015245649679893471,-0.0025027118301841796,-0.004402816380434746,-0.017511771741831876,0.2470501474926253,0.235207100591716,0.2431430689399555,0.18065967016491755,0.2341389728096677
https://www.justonecookbook.com/teba-shio-salted-chicken-wings/,-0.0025793025944492566,0.03952968003159972,-0.015893417484536234,0.018843335785145267,0.0315153001207554,0.2470501474926253,0.235207100591716,0.2431430689399555,0.18065967016491755,0.2341389728096677
https://www.justonecookbook.com/japanese-tofu-cold-tofu-hiyayakko/,0.15469126261717647,0.09472852355427301,-0.03623053076697869,0.012638238839000211,0.01540881911528529,0.2470501474926253,0.235207100591716,0.2431430689399555,0.18065967016491755,0.2341389728096677
https://www.justonecookbook.com/eggplant-with-sesame-ponzu-sauce/,0.05820745697199632,0.10594600549926515,0.011566003501659719,0.03231059229824828,0.03770551056932244,0.2470501474926253,0.235207100591716,0.2431430689399555,0.18065967016491755,0.2341389728096677
https://www.justonecookbook.com/chawanmushi-with-shrimp/,0.02783241862405697,0.03343794628480187,-0.036840586599350425,0.05426131068989002,-0.028760013290062527,0.2470501474926253,0.235207100591716,0.2431430689399555,0.18065967016491755,0.2341389728096677
https://www.justonecookbook.com/instant-pot-chawanmushi/,0.047266854499812425,0.0406055603692581,-0.033986456030024065,0.06262897570767217,-0.02868479098638126,0.2470501474926253,0.235207100591716,0.2431430689399555,0.18065967016491755,0.2341389728096677
https://www.justonecookbook.com/burrata-crostini/,0.1606767521528747,0.11581224840550736,-0.01085142397409794,0.11195400570571823,0.07664927836877929,0.2470501474926253,0.235207100591716,0.2431430689399555,0.18065967016491755,0.2341389728096677
https://www.justonecookbook.com/coconut-shrimp/,0.03590709309823662,0.017964387289574092,-0.05362061114079455,-0.008308111137082661,0.03090148236965113,0.2470501474926253,0.235207100591716,0.2431430689399555,0.18065967016491755,0.2341389728096677
https://www.justonecookbook.com/japanese-pickled-cucumber/,-0.05964826999423217,0.00021381090082375257,0.01795546675861656,0.014383060125571875,-0.0003135635741733523,0.2470501474926253,0.235207100591716,0.2431430689399555,0.18065967016491755,0.2341389728096677
https://www.justonecookbook.com/asian-meatball-karaage/,0.015279552582575764,-0.01943999422328752,-0.034480597956545525,-0.023839110519023907,-0.02122429084643523,0.2470501474926253,0.235207100591716,0.2431430689399555,0.18065967016491755,0.2341389728096677
https://www.justonecookbook.com/datemaki-sweet-rolled-omelette/,-0.005876488271076392,-0.018251745082172564,-0.034040185878348755,0.04902329244450521,-0.006932499504134689,0.2470501474926253,0.235207100591716,0.2431430689399555,0.18065967016491755,0.2341389728096677
https://www.justonecookbook.com/hijiki-salad/,0.1032352136612106,0.06457186320650035,-0.0016146457023538628,0.0443720981911945,-0.027593029620338702,0.2470501474926253,0.235207100591716,0.2431430689399555,0.18065967016491755,0.2341389728096677
https://www.justonecookbook.com/temari-sushi/,0.11126937216615933,0.07649478129721156,-0.02441517227365316,0.040973075540394845,0.0001031822443728005,0.2470501474926253,0.235207100591716,0.2431430689399555,0.18065967016491755,0.2341389728096677
https://www.justonecookbook.com/slow-cooker-sriracha-chili-chicken-wings/,-0.006481917966783008,0.0005883179051402144,-0.013191343871463418,-0.017217109581948623,0.013176207215780588,0.2470501474926253,0.235207100591716,0.2431430689399555,0.18065967016491755,0.2341389728096677
https://www.justonecookbook.com/momofuku-fried-chicken/,-0.03710223551311816,-0.0061465703267615445,0.0009600830015064104,-0.00848513318511489,0.0025159374364669084,0.2470501474926253,0.235207100591716,0.2431430689399555,0.18065967016491755,0.2341389728096677
https://www.justonecookbook.com/braised-pork-belly-kakuni/,0.07557721036458757,0.06689789999860331,-0.0314523396352749,0.034999224519974385,-0.00806408363160873,0.2470501474926253,0.235207100591716,0.2431430689399555,0.18065967016491755,0.2341389728096677
https://www.justonecookbook.com/bbq-chicken-wings/,-0.024268202777264748,0.004833904125120952,-0.002056386150773675,0.002800021719250583,0.007422766592514811,0.2470501474926253,0.235207100591716,0.2431430689399555,0.18065967016491755,0.2341389728096677
https://www.justonecookbook.com/japanese-beef-tendon-stew/,0.07628190615598308,0.08685831142838307,-0.02018479363513491,0.054827589444910285,-0.02758312321441755,0.2470501474926253,0.235207100591716,0.2431430689399555,0.18065967016491755,0.2341389728096677
https://www.justonecookbook.com/japanese-grilled-eggplant-yaki-nasu/,0.08166942705916591,0.10562523842676001,-0.005099324755280488,0.06374222177048712,0.04975474303298918,0.2470501474926253,0.235207100591716,0.2431430689399555,0.18065967016491755,0.2341389728096677
https://www.justonecookbook.com/kamaboko-with-salmon-roe/,0.6607579529227665,0.584436414598761,0.07559277459926664,0.2288673731274849,0.2636005003104593,0.2470501474926253,0.235207100591716,0.2431430689399555,0.18065967016491755,0.2341389728096677
https://www.justonecookbook.com/gluten-free-karaage/,0.003655775876825961,0.007999785890108921,-0.0076116471381365925,0.002642262894669665,0.004725875954749786,0.2470501474926253,0.235207100591716,0.2431430689399555,0.18065967016491755,0.2341389728096677
https://www.justonecookbook.com/edamame/,-0.09271280259361699,-0.01539524048029425,0.018708020470095663,0.030599088146821544,-0.005483220023054572,0.2470501474926253,0.235207100591716,0.2431430689399555,0.18065967016491755,0.2341389728096677
https://www.justonecookbook.com/egg-tofu/,0.09330100957209905,0.053348308570996074,-0.04802287709315023,0.08614257649247123,-0.03860499613074848,0.2470501474926253,0.235207100591716,0.2431430689399555,0.18065967016491755,0.2341389728096677
https://www.justonecookbook.com/spring-rolls-with-sesame-ponzu-vinaigrette/,0.04170633050423124,0.06398794815868251,-0.009130079770634411,0.01660074105099857,0.01055712998587406,0.2470501474926253,0.235207100591716,0.2431430689399555,0.18065967016491755,0.2341389728096677
https://www.justonecookbook.com/chawanmushi-with-matsutake-mushroom/,0.06940951505452368,0.04118381986632759,-0.047894325180958916,0.07706734639038919,-0.03782287799388782,0.2470501474926253,0.235207100591716,0.2431430689399555,0.18065967016491755,0.2341389728096677
https://www.justonecookbook.com/nagoya-style-fried-chicken-wings/,-0.019541549170193538,-0.004343423317609589,-0.008274822392955019,-0.0009514009833795928,-0.005715970297440159,0.2470501474926253,0.235207100591716,0.2431430689399555,0.18065967016491755,0.2341389728096677
https://www.justonecookbook.com/fried-chicken-wings/,-0.013288483049679849,-0.01643688396389829,-0.008440518771624347,-0.01615922360742243,0.00467485790417922,0.2470501474926253,0.235207100591716,0.2431430689399555,0.18065967016491755,0.2341389728096677
https://www.justonecookbook.com/chawanmushi-savory-steamed-egg-custard/,0.02810694190635368,0.031273906358634355,-0.030698719204384602,0.05071066794118964,-0.027089455978478966,0.2470501474926253,0.235207100591716,0.2431430689399555,0.18065967016491755,0.2341389728096677
https://www.justonecookbook.com/karashi-renkon/,0.06434161482760983,0.018754844166448133,-0.016672733617492205,0.016826720698536333,0.006044703098596789,0.2470501474926253,0.235207100591716,0.2431430689399555,0.18065967016491755,0.2341389728096677
https://www.justonecookbook.com/cranberry-brie-bites/,0.09418798398324273,-0.02289010191257703,-0.03408566318521099,-0.05204957113645185,0.10360336828071201,0.0,0.0,0.0,0.0,0.0
https://www.justonecookbook.com/shishamo-wrap/,0.1161398173329023,0.04090457375393487,0.04293338114675107,0.05616724637314459,0.024367158302458725,0.2470501474926253,0.235207100591716,0.2431430689399555,0.18065967016491755,0.2341389728096677
https://www.justonecookbook.com/boiled-squid-with-miso-vinaigrette/,0.006978628208024481,0.04487529736212498,-0.0016402459706957616,0.034012159195138655,-0.007042268465107718,0.2470501474926253,0.235207100591716,0.2431430689399555,0.18065967016491755,0.2341389728096677
https://www.justonecookbook.com/vegan-miso-soup/,0.146956957132635,0.11036673022793039,-0.027446693250261018,0.05831883737363146,-0.03718697070900847,0.2470501474926253,0.235207100591716,0.2431430689399555,0.18065967016491755,0.2341389728096677
https://www.justonecookbook.com/kimchi-gyoza-nabe/,0.04020341958387465,0.0738696716301691,-0.016825776270505473,0.0248472477334197,-0.02745181051894282,0.0,0.0,0.0,0.18065967016491755,1.0
https://www.justonecookbook.com/ozoni-zoni-japanese-new-year-mochi-soup/,0.24547274372960876,0.1641392061287569,-0.03900810392013323,0.08847375509003604,0.03994072928362115,0.2470501474926253,0.235207100591716,0.2431430689399555,0.18065967016491755,0.2341389728096677
https://www.justonecookbook.com/potato-leek-soup/,-0.05772246760556155,-0.02318972524686117,0.006059669774592941,0.013320700521335336,-0.0053383748010667675,0.2470501474926253,0.235207100591716,0.2431430689399555,0.18065967016491755,0.2341389728096677
https://www.justonecookbook.com/homemade-miso-soup/,0.18009322777764664,0.1537418338116078,-0.034795747343835975,0.10888416021897826,-0.03308252124730461,0.2470501474926253,0.235207100591716,0.2431430689399555,0.18065967016491755,0.2341389728096677
https://www.justonecookbook.com/miso-soup-yuzu-kosho/,0.08160181986319087,0.08486774350206709,-0.017013110838943486,0.04405500443472882,-0.0006679733961844447,0.2470501474926253,0.235207100591716,0.2431430689399555,0.18065967016491755,0.2341389728096677
https://www.justonecookbook.com/nabeyaki-udon/,0.07786344584018712,0.06816684933640413,-0.03193911328532919,0.04250165337665556,-0.02586751249948971,0.2470501474926253,0.235207100591716,0.2431430689399555,0.18065967016491755,0.2341389728096677
https://www.justonecookbook.com/kimchi-nabe/,0.04990257330515417,0.07072511820381483,-0.015176172248574506,0.026495651139143837,-0.03731242692390795,0.2470501474926253,0.235207100591716,0.2431430689399555,0.18065967016491755,0.2341389728096677
https://www.justonecookbook.com/chanko-nabe-sumo-stew/,0.06439317425939829,0.06664546160278649,-0.05101091841796989,0.024390074509635484,-0.02494833701429575,0.2470501474926253,0.235207100591716,0.2431430689399555,0.18065967016491755,0.2341389728096677
https://www.justonecookbook.com/monkfish-hot-pot/,0.0800793628760765,0.1096782263115977,-0.02674810620828008,0.0481854816611199,-0.03609053403916397,0.2470501474926253,0.235207100591716,0.2431430689399555,0.18065967016491755,0.2341389728096677
https://www.justonecookbook.com/mille-feuille-nabe/,0.07358858699278696,0.09694588044430943,-0.02492779041922384,0.037217567303117025,-0.02160240204151104,0.2470501474926253,0.235207100591716,0.2431430689399555,0.18065967016491755,0.2341389728096677
https://www.justonecookbook.com/thomas-kellers-clam-chowder-giveaway-winners/,0.007870551986434805,-0.016578139882823747,-0.002391330525129486,-0.0050189025020854865,0.025458778355069333,0.2470501474926253,0.235207100591716,0.2431430689399555,0.18065967016491755,0.2341389728096677
https://www.justonecookbook.com/kabocha-miso-soup/,0.026155443013747542,0.04832745295700913,0.002419060272126401,0.0345699839769559,-0.010295875699562978,0.2470501474926253,0.235207100591716,0.2431430689399555,0.18065967016491755,0.2341389728096677
https://www.justonecookbook.com/pressure-cooker-oxtail-soup/,-0.013172309514639024,0.016583863517872045,-0.0015609377726366791,-0.017184898411688212,0.013194834663241374,0.2470501474926253,0.235207100591716,0.2431430689399555,0.18065967016491755,0.2341389728096677
https://www.justonecookbook.com/shrimp-pork-wonton/,-0.016958443831572113,0.01716023327813686,-0.006475982195356178,-0.004627900980956733,-0.010389000019130887,0.2470501474926253,0.235207100591716,0.2431430689399555,0.18065967016491755,0.2341389728096677
https://www.justonecookbook.com/bouillabaisse-french-seafood-stew/,-0.025397244938586555,0.018649642562435485,0.0038973153903072697,-0.006454937076876824,0.024944283293276772,0.2470501474926253,0.235207100591716,0.2431430689399555,0.18065967016491755,0.2341389728096677
https://www.justonecookbook.com/taiwanese-hot-pot-and-homemade-meatballs/,0.012232697949568569,0.0033783892546219896,-0.04705702016029853,0.0025182306097156016,-0.025011804463795327,0.2470501474926253,0.235207100591716,0.2431430689399555,0.18065967016491755,0.2341389728096677
https://www.justonecookbook.com/japanese-clam-soup-clear-broth/,0.0391664577565576,0.08298398519785607,0.007220738905357638,0.08173676586650783,-0.01967018621791478,0.2470501474926253,0.235207100591716,0.2431430689399555,0.18065967016491755,0.2341389728096677
https://www.justonecookbook.com/chicken-corn-chowder-with-roasted-potato/,0.005575002836029326,-0.005545590625400447,-0.014815860979147458,-0.017352340267122415,0.0101634291419178,0.2470501474926253,0.235207100591716,0.2431430689399555,0.18065967016491755,0.2341389728096677
https://www.justonecookbook.com/miso-nikomi-udon/,0.14760808574105402,0.11597638915817693,-0.052485608733801974,0.09040007318873479,-0.03955967359084646,0.2470501474926253,0.235207100591716,0.2431430689399555,0.18065967016491755,0.2341389728096677
https://www.justonecookbook.com/kale-soup/,-0.05223130623449617,-0.008069673974057454,-0.0007215103253353001,0.016929600043857688,-0.009343877169302787,0.2470501474926253,0.235207100591716,0.2431430689399555,0.18065967016491755,0.2341389728096677
https://www.justonecookbook.com/hayashi-rice/,-0.033139195796152605,-0.005319117448802403,0.011758073788276844,-0.002354896417876695,0.011603216177209632,0.2470501474926253,0.235207100591716,0.2431430689399555,0.18065967016491755,0.2341389728096677
https://www.justonecookbook.com/instant-pot-cream-stew/,-0.015059159829320653,-0.0012129938987329712,0.004124877633508221,0.0015067952145709003,0.005037616612290459,0.2470501474926253,0.235207100591716,0.2431430689399555,0.18065967016491755,0.2341389728096677
https://www.justonecookbook.com/clam-soup/,0.052871674750956416,0.08414407415136659,-0.00015823243436664604,0.0649067037420135,-0.016141986281911505,0.2470501474926253,0.235207100591716,0.2431430689399555,0.18065967016491755,0.2341389728096677
https://www.justonecookbook.com/sukiyaki/,0.0840988932019805,0.0784937762567978,-0.024520445428185454,0.04381989402258014,-0.04360985094565471,0.2470501474926253,0.235207100591716,0.2431430689399555,0.18065967016491755,0.2341389728096677
https://www.justonecookbook.com/hot-pot-for-one/,0.09124531799240693,0.13033808696834454,-0.04292861299688227,0.029396901937890265,-0.011958814094117448,0.2470501474926253,0.235207100591716,0.2431430689399555,0.18065967016491755,0.2341389728096677
https://www.justonecookbook.com/homemade-instant-miso-soup/,0.09651616014795628,0.07052631894995069,-0.013216680638130186,0.07395211011130208,-0.02954111667111051,0.2470501474926253,0.235207100591716,0.2431430689399555,0.18065967016491755,0.2341389728096677
https://www.justonecookbook.com/kimchi-soup-with-malony-glass-noodles/,-0.036253843788163466,0.007245933438823123,-0.008324922517800853,0.014884091075218335,-0.0163671390840285,0.2470501474926253,0.235207100591716,0.2431430689399555,0.18065967016491755,0.2341389728096677
https://www.justonecookbook.com/oxtail-oden/,0.09124835400569806,0.062253621997825054,-0.04119028619422034,0.04041054236331499,-0.03053180201242377,0.2470501474926253,0.235207100591716,0.2431430689399555,0.18065967016491755,0.2341389728096677
https://www.justonecookbook.com/kabocha-squash-soup/,-0.018869911064035603,-0.012639488440584809,-0.005724006380988183,0.019526691713734,0.0006115716724967857,0.2470501474926253,0.235207100591716,0.2431430689399555,0.18065967016491755,0.2341389728096677
https://www.justonecookbook.com/vegetable-miso-soup/,0.08473246343088724,0.07441715665215672,-0.00852976110954213,0.014820857242852016,-0.03148937376110824,0.2470501474926253,0.235207100591716,0.2431430689399555,0.18065967016491755,0.2341389728096677
https://www.justonecookbook.com/zosui-japanese-rice-soup/,0.004080862867555228,0.01742925496789001,-0.017956316456931312,0.026448581427417777,-0.015020490739870513,0.2470501474926253,0.235207100591716,0.2431430689399555,0.18065967016491755,0.2341389728096677
https://www.justonecookbook.com/white-stew/,-0.014672639680980796,-0.013196879382852123,-0.003544506876491354,0.0030240809078973326,0.007488046716013192,0.0,1.0,0.0,1.0,1.0
https://www.justonecookbook.com/kimchi-chigae/,0.00173127693072698,0.02768478460306688,-0.0037314791992874375,0.01595826196810579,-0.03280625492712399,0.2470501474926253,0.235207100591716,0.2431430689399555,0.18065967016491755,0.2341389728096677
https://www.justonecookbook.com/corn-potage/,-0.012199730031536937,-0.02268167965927483,-0.0020446488650001852,-0.00789673879084446,0.013961962994976082,0.2470501474926253,0.235207100591716,0.2431430689399555,0.18065967016491755,0.2341389728096677
https://www.justonecookbook.com/instant-pot-tonjiru/,0.1337403292155256,0.09994411736081571,-0.034064310434766265,0.04461145542648152,0.0023859071721880104,0.2470501474926253,0.235207100591716,0.2431430689399555,0.18065967016491755,0.2341389728096677
https://www.justonecookbook.com/pressure-cooker-oxtail-broth/,-0.09756385460181788,-0.010414879514463312,0.020779249167919213,0.02908042386219307,-0.0057599190946644755,0.2470501474926253,0.235207100591716,0.2431430689399555,0.18065967016491755,0.2341389728096677
https://www.justonecookbook.com/matsutake-clear-soup/,0.0679258798041694,0.06982063192960451,-0.022439752451057084,0.047999282943845215,0.011449889691744418,0.2470501474926253,0.235207100591716,0.2431430689399555,0.18065967016491755,0.2341389728096677
https://www.justonecookbook.com/creamy-roasted-cauliflower-soup/,-0.014401412368505838,-0.007309610539327287,0.01010331153053213,0.006068198095536183,0.022422125356746717,0.2470501474926253,0.235207100591716,0.2431430689399555,0.18065967016491755,0.2341389728096677
https://www.justonecookbook.com/hot-tofu-yudofu/,0.1114403192674012,0.13025336367872875,-0.01760640135462732,0.0949299649164331,0.030166516474110085,0.2470501474926253,0.235207100591716,0.2431430689399555,0.18065967016491755,0.2341389728096677
https://www.justonecookbook.com/soup-curry/,0.018988155837810564,0.01724468439395372,0.0185279090774365,-0.019369975785837143,0.01840826123383626,0.2470501474926253,0.235207100591716,0.2431430689399555,0.18065967016491755,0.2341389728096677
https://www.justonecookbook.com/borscht-soup-hong-kong-style/,-0.01207977711262737,0.017106474758555566,-0.001997773624018781,-0.018141005155810245,0.013346819305198286,0.2470501474926253,0.235207100591716,0.2431430689399555,0.18065967016491755,0.2341389728096677
https://www.justonecookbook.com/coconut-curry/,-0.03298632937318392,-0.010961741509516882,0.008948943091330612,-0.0012873882947927672,0.0042470908312050686,0.2470501474926253,0.235207100591716,0.2431430689399555,0.18065967016491755,0.2341389728096677
https://www.justonecookbook.com/soy-milk-hot-pot-tonyu-nabe/,0.07178687280678632,0.08148351980326558,-0.022440451611966644,0.029889314374433464,-0.02184898648167794,0.2470501474926253,0.235207100591716,0.2431430689399555,0.18065967016491755,0.2341389728096677
https://www.justonecookbook.com/kare-kare-guest-post-by-ang-sarap/,-0.011863050725639944,-0.0057945055407524655,-0.008732120359472987,-0.014964256127333498,-0.009222848702357714,0.2470501474926253,0.235207100591716,0.2431430689399555,0.18065967016491755,0.2341389728096677
https://www.justonecookbook.com/shabu-shabu/,0.11279209662938856,0.13762988058114478,-0.03193448016017979,0.04246765258150755,-0.029719327137583188,0.2470501474926253,0.235207100591716,0.2431430689399555,0.18065967016491755,0.2341389728096677
https://www.justonecookbook.com/nameko-mushroom-miso-soup/,0.26332165781565037,0.1436925889792132,-0.06788106902539405,0.09395102740535556,-0.07194386726937808,0.2470501474926253,0.235207100591716,0.2431430689399555,0.18065967016491755,0.2341389728096677
https://www.justonecookbook.com/cherry-blossom-milk-pudding/,0.020302677015722796,-0.06549029041426022,0.018558017773040947,0.005659559003156547,0.015265045414354382,0.2470501474926253,0.235207100591716,0.2431430689399555,0.18065967016491755,0.2341389728096677
https://www.justonecookbook.com/easy-apple-pie/,0.14687352062028777,-0.11646048994495932,-0.20030348580677912,0.041372339597330214,0.0003779310224263916,0.2470501474926253,0.235207100591716,0.2431430689399555,0.18065967016491755,0.2341389728096677
https://www.justonecookbook.com/chocolate-gateau-chocolate-cake/,-0.0018355905461758546,-0.07431997966892674,-0.019829439237395226,0.018887625142527835,0.0030733533156844634,0.2470501474926253,0.235207100591716,0.2431430689399555,0.18065967016491755,0.2341389728096677
https://www.justonecookbook.com/matcha-and-white-chocolate-truffles-guest-post-by-with-a-glass/,0.28925561391853166,-0.10347020011017752,0.22563090025463897,0.09894271280421858,-0.0585371148040248,0.2470501474926253,0.235207100591716,0.2431430689399555,0.18065967016491755,0.2341389728096677
https://www.justonecookbook.com/sesame-cookies/,0.06707201444231599,-0.08096511611631034,-0.12256895538096561,0.03442784647977473,-0.0015277666057120752,0.2470501474926253,0.235207100591716,0.2431430689399555,0.18065967016491755,0.2341389728096677
https://www.justonecookbook.com/pineapple-sorbet/,0.007633390058468314,-0.006809349315297579,0.02129929229541794,-0.014827510880464198,0.059284663074113654,0.2470501474926253,0.235207100591716,0.2431430689399555,0.18065967016491755,0.2341389728096677
https://www.justonecookbook.com/dorayaki-japanese-red-bean-pancake/,0.029801178078475654,-0.03436371385484948,-0.0020000092484324383,-0.03762664630940751,-0.013595991277246235,0.2470501474926253,0.235207100591716,0.2431430689399555,0.18065967016491755,0.2341389728096677
https://www.justonecookbook.com/green-tea-cookie-vegan/,0.23480482541032438,-0.0794034173550507,0.188884481389134,0.07274628625780638,-0.04493354846647645,0.2470501474926253,0.235207100591716,0.2431430689399555,0.18065967016491755,0.2341389728096677
https://www.justonecookbook.com/basque-burnt-cheesecake/,0.019952659196561164,-0.056591094386119443,-0.018402617912727928,0.0024968369606843304,0.0022466511863548162,1.0,1.0,1.0,1.0,1.0
https://www.justonecookbook.com/orange-chiffon-cake/,0.03724293976960875,-0.08033735959064066,-0.01057196924102903,-0.0021511332696639222,0.012461404928595947,0.2470501474926253,0.235207100591716,0.2431430689399555,0.18065967016491755,0.2341389728096677
https://www.justonecookbook.com/warabi-mochi/,-0.11257213008177724,-0.019835903609087185,0.024198371564358438,0.03446626714796721,-0.01468175667565537,0.2470501474926253,0.235207100591716,0.2431430689399555,0.18065967016491755,0.2341389728096677
https://www.justonecookbook.com/pineapple-upside-down-cake/,0.028347037529348244,-0.0773283480167875,-0.08870346895688126,0.03702441805742847,0.0015935418937009795,0.2470501474926253,0.235207100591716,0.2431430689399555,0.18065967016491755,0.2341389728096677
https://www.justonecookbook.com/green-tea-madeleine/,0.10048055571082562,-0.08513847110879032,0.06917949940563911,0.048943296772253765,-0.026479687661872423,0.2470501474926253,0.235207100591716,0.2431430689399555,0.18065967016491755,0.2341389728096677
https://www.justonecookbook.com/yuzu-sorbet/,0.19060911557322582,0.1362021529182625,0.020522950382028917,0.15464014010533858,0.11844181748092887,0.2470501474926253,0.235207100591716,0.2431430689399555,0.18065967016491755,0.2341389728096677
https://www.justonecookbook.com/matcha-zenzai/,0.19771904281702385,-0.04523751459700068,0.10251021171639024,-0.031100140859636232,-0.07130910335783851,0.2470501474926253,0.235207100591716,0.2431430689399555,0.18065967016491755,0.2341389728096677
https://www.justonecookbook.com/frozen-chocolate-banana/,0.023938353162082086,-0.06369148686907897,0.011763953197865926,-0.0030968430572281313,0.01610412991436825,0.2470501474926253,0.235207100591716,0.2431430689399555,0.18065967016491755,0.2341389728096677
https://www.justonecookbook.com/custard-cream-pastry-cream/,0.08268561816706121,-0.10788948737719603,-0.11417481219382099,0.03101113451816037,-0.014559944048417,0.2470501474926253,0.235207100591716,0.2431430689399555,0.18065967016491755,0.2341389728096677
https://www.justonecookbook.com/chocolate-cake-guest-post-by-gourmantines-blog/,-0.03583296949980174,-0.05378656548285836,-0.014798802429188346,0.024572050395831296,-0.002925157590292243,0.2470501474926253,0.235207100591716,0.2431430689399555,0.18065967016491755,0.2341389728096677
https://www.justonecookbook.com/blueberry-cake/,0.03406125367249186,-0.08589182084569136,-0.09515935419848717,0.04348773587572006,0.0008245299131601244,0.2470501474926253,0.235207100591716,0.2431430689399555,0.18065967016491755,0.2341389728096677
https://www.justonecookbook.com/chocolate-ice-cream/,0.0768548283048164,-0.11858828955395735,-0.11102200428569288,0.04685871446929356,-0.0017546601854742667,0.2470501474926253,0.235207100591716,0.2431430689399555,0.18065967016491755,0.2341389728096677
https://www.justonecookbook.com/coconut-macaroons/,-0.01523715378932131,-0.05714360727766991,-0.023498071557707202,0.02413789403206411,-0.0036466227381107873,0.2470501474926253,0.235207100591716,0.2431430689399555,0.18065967016491755,0.2341389728096677
https://www.justonecookbook.com/shiratama-dango/,0.05334938978946422,-0.015507259899296154,-0.005793567434424116,-0.054499535969420775,-0.0682681719886292,0.2470501474926253,0.235207100591716,0.2431430689399555,0.18065967016491755,0.2341389728096677
https://www.justonecookbook.com/green-tea-white-chocolate-cookies/,0.11591059912767862,-0.10390898645217378,-0.033166404985685044,0.05431565003322405,-0.010960353416065221,0.2470501474926253,0.235207100591716,0.2431430689399555,0.18065967016491755,0.2341389728096677
https://www.justonecookbook.com/yuzu-ice-cream/,0.06854927402489504,-0.10998297433637656,-0.11311910820802544,0.04908597909792947,-0.001085274499319923,0.2470501474926253,0.235207100591716,0.2431430689399555,0.18065967016491755,0.2341389728096677
https://www.justonecookbook.com/coffee-ice-cream/,0.06346818973466757,-0.09627236431940563,-0.09226622947591055,0.03207189510554954,-0.005993072511571555,0.2470501474926253,0.235207100591716,0.2431430689399555,0.18065967016491755,0.2341389728096677
https://www.justonecookbook.com/strawberry-cheesecake-ice-cream/,0.08501297165675446,-0.10676688665014909,-0.11423597740511347,0.03854125444413064,0.016423478132841833,0.2470501474926253,0.235207100591716,0.2431430689399555,0.18065967016491755,0.2341389728096677
https://www.justonecookbook.com/chocolate-chiffon-cake/,0.023962307696781284,-0.0869694172053354,-0.011045619958988763,0.007051903977760458,0.0037207138195506596,0.2470501474926253,0.235207100591716,0.2431430689399555,0.18065967016491755,0.2341389728096677
https://www.justonecookbook.com/panettone-bread-pudding/,0.023754804585724553,-0.07322376892834011,-0.010553010884878297,0.008426929985625463,0.03710539617548474,0.0,0.0,1.0,0.0,1.0
https://www.justonecookbook.com/castella/,-0.018414277408001778,-0.064180654069518,-0.03264221145691384,0.010091823989303701,-0.011894916423533053,0.2470501474926253,0.235207100591716,0.2431430689399555,0.18065967016491755,0.2341389728096677
https://www.justonecookbook.com/chocolate-chip-cookies-with-nutella-recipe/,0.06724219180852953,-0.09291408706095536,-0.10017358158984038,0.03383518701121207,0.0008779477130515,0.2470501474926253,0.235207100591716,0.2431430689399555,0.18065967016491755,0.2341389728096677
https://www.justonecookbook.com/sweet-potato-pie/,0.08645387091139668,-0.08030718137355877,-0.1229094861608037,0.02001169450250158,-0.009260223133177993,0.2470501474926253,0.235207100591716,0.2431430689399555,0.18065967016491755,0.2341389728096677
https://www.justonecookbook.com/cherry-blossom-madeleines/,-0.014785317041559498,-0.04975868345482919,-0.022376727699638416,0.017566555437154505,0.0030557514433135436,0.2470501474926253,0.235207100591716,0.2431430689399555,0.18065967016491755,0.2341389728096677
https://www.justonecookbook.com/kashiwa-mochi/,0.04985090581000169,-0.004812323086829965,0.005174763390029682,-0.08013437577248063,-0.039166758753240265,0.2470501474926253,0.235207100591716,0.2431430689399555,0.18065967016491755,0.2341389728096677
https://www.justonecookbook.com/meyer-lemon-cookies/,0.05797106615403401,-0.0984501784618463,-0.01233585125300576,-0.002309476225189404,0.012161109053281681,0.2470501474926253,0.235207100591716,0.2431430689399555,0.18065967016491755,0.2341389728096677
https://www.justonecookbook.com/nama-chocolate/,0.027907243772786833,-0.09375306354291932,0.014905992166150744,0.013262014607270589,0.01998409273615834,0.2470501474926253,0.235207100591716,0.2431430689399555,0.18065967016491755,0.2341389728096677
https://www.justonecookbook.com/cherry-blossom-cookies/,0.09368956949039917,-0.10227418767846862,-0.11296135173059235,0.025760293561678808,0.0035958270052235237,0.2470501474926253,0.235207100591716,0.2431430689399555,0.18065967016491755,0.2341389728096677
https://www.justonecookbook.com/matcha-tiramisu/,0.20405094654098838,-0.11852182327522745,0.00037312271575528564,0.08387693959726063,-0.030798295900523857,0.2470501474926253,0.235207100591716,0.2431430689399555,0.18065967016491755,0.2341389728096677
https://www.justonecookbook.com/souffle-japanese-cheesecake/,0.01523182320778858,-0.06686920103802844,-0.02138993110690199,0.013249406988802857,0.008475687888833279,0.2470501474926253,0.235207100591716,0.2431430689399555,0.18065967016491755,0.2341389728096677
https://www.justonecookbook.com/matcha-vegan-panna-cotta/,0.1904307360286127,-0.04918481020594748,0.1219415072425029,-0.006859624482308908,-0.043158997916019314,0.2470501474926253,0.235207100591716,0.2431430689399555,0.18065967016491755,0.2341389728096677
https://www.justonecookbook.com/peanut-butter-chocolate-chip-cookies/,0.01614718865646306,-0.07113240416164834,-0.042482677919367766,0.008637964059752472,-0.007071915619949824,0.2470501474926253,0.235207100591716,0.2431430689399555,0.18065967016491755,0.2341389728096677
https://www.justonecookbook.com/tofu-pudding-blancmange/,0.09510916629360226,-0.03736393557884836,0.023607307282567054,-0.005388789958333306,0.05476569276615279,0.2470501474926253,0.235207100591716,0.2431430689399555,0.18065967016491755,0.2341389728096677
https://www.justonecookbook.com/mitarashi-dango/,0.03980265990378231,-0.007528327815976382,-0.00926923561621997,-0.02209794540239031,-0.043821265591257264,0.2470501474926253,0.235207100591716,0.2431430689399555,0.18065967016491755,0.2341389728096677
https://www.justonecookbook.com/daifuku/,0.07618463741693997,-0.006614440552173213,-0.0019705333224127653,-0.08790568926231887,-0.054126531512072154,0.2470501474926253,0.235207100591716,0.2431430689399555,0.18065967016491755,0.2341389728096677
https://www.justonecookbook.com/tart-crust/,-0.034164832401645986,-0.048838896908777775,-0.030545270537818383,0.028327166381041352,-0.007442018091458045,0.2470501474926253,0.235207100591716,0.2431430689399555,0.18065967016491755,0.2341389728096677
https://www.justonecookbook.com/pear-almond-tart/,0.00849326928569345,-0.06575346864010188,-0.01230846008723355,0.01085809777846148,0.019528969738964962,0.2470501474926253,0.235207100591716,0.2431430689399555,0.18065967016491755,0.2341389728096677
https://www.justonecookbook.com/sakura-mochi/,0.12173436203951879,0.016476183685573766,0.014222688075794384,-0.12063166427039862,-0.0742663946657574,0.2470501474926253,0.235207100591716,0.2431430689399555,0.18065967016491755,0.2341389728096677
https://www.justonecookbook.com/miso-butter-cookies/,0.01266523424079221,-0.023256529555533118,-0.026956481257302517,0.030091759846274078,-0.011232242376431655,0.2470501474926253,0.235207100591716,0.2431430689399555,0.18065967016491755,0.2341389728096677
https://www.justonecookbook.com/green-tea-donuts/,0.10284031503549916,-0.08055096173785213,0.061229987300840116,0.04914719072567533,-0.030578038946595408,0.2470501474926253,0.235207100591716,0.2431430689399555,0.18065967016491755,0.2341389728096677
https://www.justonecookbook.com/lavender-madeleines-guest-post-by-roti-n-rice/,-0.014032976694516457,-0.06523188231217295,-0.011632808071165629,0.01632574969020592,0.005936312307756136,0.2470501474926253,0.235207100591716,0.2431430689399555,0.18065967016491755,0.2341389728096677
https://www.justonecookbook.com/purin-dora/,0.04756488722401218,-0.09368562563828231,-0.06738676333766608,0.03251270816439499,0.0015403732225090215,0.2470501474926253,0.235207100591716,0.2431430689399555,0.18065967016491755,0.2341389728096677
https://www.justonecookbook.com/twinkie-minions/,0.0400672513841911,-0.1042329870888358,0.027522988230568327,-0.005619676571358759,0.007900265380815038,0.2470501474926253,0.235207100591716,0.2431430689399555,0.18065967016491755,0.2341389728096677
https://www.justonecookbook.com/zenzai-red-bean-soup/,0.0355274077717746,0.0019021420972994483,0.020049195420018723,-0.07629851768978774,-0.037313328557038755,0.2470501474926253,0.235207100591716,0.2431430689399555,0.18065967016491755,0.2341389728096677
https://www.justonecookbook.com/chocolate-souffle/,0.0182258407499775,-0.08841955539704097,-0.029890733809257483,0.017594934548547405,-0.0013883320955948742,0.2470501474926253,0.235207100591716,0.2431430689399555,0.18065967016491755,0.2341389728096677
https://www.justonecookbook.com/fruit-jelly/,-0.06631726602781687,-0.02731521690763965,0.019216905692087383,0.022298958728420408,0.005192008288945773,0.2470501474926253,0.235207100591716,0.2431430689399555,0.18065967016491755,0.2341389728096677
https://www.justonecookbook.com/meyer-lemon-chiffon-cake/,0.028650459583404175,-0.08015753847442379,-0.015713484654801615,0.00458685111014722,0.011305025238659885,0.2470501474926253,0.235207100591716,0.2431430689399555,0.18065967016491755,0.2341389728096677
https://www.justonecookbook.com/lychee-coconut-sorbet/,0.01638978361545545,-0.01294313224635218,0.030002546474882725,-0.013360474100657055,0.07684254899311749,0.2470501474926253,0.235207100591716,0.2431430689399555,0.18065967016491755,0.2341389728096677
https://www.justonecookbook.com/chocolate-covered-strawberries/,0.03312985734972897,-0.07325341452250062,0.018388481144184215,-0.003827666399769697,0.026419901190251272,0.2470501474926253,0.235207100591716,0.2431430689399555,0.18065967016491755,0.2341389728096677
https://www.justonecookbook.com/white-bean-paste-shiroan/,-0.0480558932962526,-0.007102574719062804,0.017269073452500897,-0.01230902541377049,-0.028080256786188414,0.2470501474926253,0.235207100591716,0.2431430689399555,0.18065967016491755,0.2341389728096677
https://www.justonecookbook.com/green-tea-chiffon-cake/,0.16911102009805415,-0.10829072392904353,-0.00022404156533824921,0.06392188686565223,-0.027828463682377427,0.2470501474926253,0.235207100591716,0.2431430689399555,0.18065967016491755,0.2341389728096677
https://www.justonecookbook.com/matcha-marble-pound-cake/,0.10329610854951907,-0.07752933232954029,0.07496899050935928,0.05484871226686437,-0.03630131812763772,0.2470501474926253,0.235207100591716,0.2431430689399555,0.18065967016491755,0.2341389728096677
https://www.justonecookbook.com/matcha-swiss-roll/,0.14063594015173597,-0.1005463041613725,0.08061653335952526,0.05541051386307578,-0.03845597601995109,0.2470501474926253,0.235207100591716,0.2431430689399555,0.18065967016491755,0.2341389728096677
https://www.justonecookbook.com/easy-apple-tart/,0.10844981184105144,-0.10792064317782508,-0.12786755356325147,0.026643872727263224,0.009610552150457181,0.2470501474926253,0.235207100591716,0.2431430689399555,0.18065967016491755,0.2341389728096677
https://www.justonecookbook.com/nougat-and-glace-with-orange-caramel-guest-post-by-mad-about-macarons/,0.004504888722584282,-0.058833978859379306,-0.036345705508536386,0.00652461214852566,0.017629094589381018,0.2470501474926253,0.235207100591716,0.2431430689399555,0.18065967016491755,0.2341389728096677
https://www.justonecookbook.com/black-sesame-ice-cream/,0.050765167664835686,-0.07382343671716887,-0.06903762503077711,0.026313255776250825,0.010129151102630862,0.2470501474926253,0.235207100591716,0.2431430689399555,0.18065967016491755,0.2341389728096677
https://www.justonecookbook.com/mochi-ice-cream/,0.038318398245133715,-0.023293548551570745,-0.009718387104468141,-0.043417767264717994,-0.04644859572594552,0.2470501474926253,0.235207100591716,0.2431430689399555,0.18065967016491755,0.2341389728096677
https://www.justonecookbook.com/blueberry-frozen-yogurt/,0.013786734422237712,-0.05467513002682516,0.012163698565604687,0.02090774972298217,0.028790817024137216,0.2470501474926253,0.235207100591716,0.2431430689399555,0.18065967016491755,0.2341389728096677
https://www.justonecookbook.com/mango-lassi-popsicles/,0.07643447425099952,-0.08230142631440027,0.004830109638160014,0.012619970983201887,0.050925979027624246,0.2470501474926253,0.235207100591716,0.2431430689399555,0.18065967016491755,0.2341389728096677
https://www.justonecookbook.com/ohagi-botamochi/,0.057356314409733045,0.009245996253354353,0.01513945454915779,-0.07557896152313578,-0.04878399702867198,0.2470501474926253,0.235207100591716,0.2431430689399555,0.18065967016491755,0.2341389728096677
https://www.justonecookbook.com/almond-cookies/,0.08565671784284204,-0.09334640714346751,-0.10932246051394429,0.02814474860270291,0.005899585435645228,0.2470501474926253,0.235207100591716,0.2431430689399555,0.18065967016491755,0.2341389728096677
https://www.justonecookbook.com/imagawayaki-obanyaki/,0.04111115773479712,-0.04651460705499704,-0.004567235250254602,-0.03466413658258249,-0.01477231727960974,0.2470501474926253,0.235207100591716,0.2431430689399555,0.18065967016491755,0.2341389728096677
https://www.justonecookbook.com/kabocha-squash-pie/,0.0566013868140115,-0.08634964019659051,-0.1099604428438921,0.02972919201925316,-0.004875752912310527,0.2470501474926253,0.235207100591716,0.2431430689399555,0.18065967016491755,0.2341389728096677
https://www.justonecookbook.com/strawberry-daifuku/,0.07261376718644254,-0.009161540848487125,-0.0011687827581977625,-0.08177211546595094,-0.047050383851470166,0.2470501474926253,0.235207100591716,0.2431430689399555,0.18065967016491755,0.2341389728096677
https://www.justonecookbook.com/no-bake-creme-caramel/,0.0778607942334051,-0.1140380928689969,-0.09881721182041474,0.047670885899353366,-0.0013212078878328147,0.2470501474926253,0.235207100591716,0.2431430689399555,0.18065967016491755,0.2341389728096677
https://www.justonecookbook.com/strawberry-frozen-yogurt/,-0.008683382786252877,-0.04065012336141531,0.013467200069832822,0.021369227023009987,0.03048485461866215,0.2470501474926253,0.235207100591716,0.2431430689399555,0.18065967016491755,0.2341389728096677
https://www.justonecookbook.com/meyer-lemon-pound-cake/,0.027310118892654795,-0.06588672802188177,-0.013099830908886613,0.015863167921908068,0.04309819414949246,0.2470501474926253,0.235207100591716,0.2431430689399555,0.18065967016491755,0.2341389728096677
https://www.justonecookbook.com/green-tea-mochi/,0.17015779755458893,-0.046407264768933316,0.09821793556923494,0.0074239237169732315,-0.07596389787647086,0.2470501474926253,0.235207100591716,0.2431430689399555,0.18065967016491755,0.2341389728096677
https://www.justonecookbook.com/soy-sauce-caramel-ice-cream/,0.04138152721091078,-0.094246075349046,-0.08153377166041777,0.044173370235859474,0.0032921034041232936,0.2470501474926253,0.235207100591716,0.2431430689399555,0.18065967016491755,0.2341389728096677
https://www.justonecookbook.com/tsukimi-dango/,-0.11342227802008602,-0.018305605648718946,0.025834598944684897,0.03645853446059316,-0.01585658913766877,0.2470501474926253,0.235207100591716,0.2431430689399555,0.18065967016491755,0.2341389728096677
https://www.justonecookbook.com/japanese-strawberry-shortcake/,0.012762121037740895,-0.06565530008310297,-0.0033198341027663903,0.010072159422198768,0.014612932868523882,0.2470501474926253,0.235207100591716,0.2431430689399555,0.18065967016491755,0.2341389728096677
https://www.justonecookbook.com/green-tea-pudding/,0.17709746133756438,-0.06155378967851001,0.11337628030539808,-0.0018353527469408468,-0.05324666016377802,0.2470501474926253,0.235207100591716,0.2431430689399555,0.18065967016491755,0.2341389728096677
https://www.justonecookbook.com/coffee-jelly/,-0.11257213008177724,-0.019835903609087185,0.024198371564358438,0.03446626714796721,-0.01468175667565537,0.2470501474926253,0.235207100591716,0.2431430689399555,0.18065967016491755,0.2341389728096677
https://www.justonecookbook.com/red-bean-ice-cream/,0.04749733332811955,-0.03295157646389801,0.013474333182319739,-0.049999344817515994,-0.018807131965037794,0.2470501474926253,0.235207100591716,0.2431430689399555,0.18065967016491755,0.2341389728096677
https://www.justonecookbook.com/chocolate-almond-toffee/,-0.0182142148530921,-0.04282236664443679,0.0016021160223098625,0.007282898241809061,0.0219212150078195,0.2470501474926253,0.235207100591716,0.2431430689399555,0.18065967016491755,0.2341389728096677
https://www.justonecookbook.com/pon-de-ring-donut-recipe/,0.04670277680774912,-0.0751398018566798,0.032080038525656926,0.034881179582620304,-0.016494233673955565,0.2470501474926253,0.235207100591716,0.2431430689399555,0.18065967016491755,0.2341389728096677
https://www.justonecookbook.com/green-tea-ice-cream-matcha-ice-cream/,0.23340795602697023,-0.07605176108962233,0.22376927109976913,0.10762744601947151,-0.07161069926919239,0.2470501474926253,0.235207100591716,0.2431430689399555,0.18065967016491755,0.2341389728096677
https://www.justonecookbook.com/japanese-sweet-potato/,0.11091534299848065,-0.10837493817471046,-0.16967160563574002,0.04887418866469756,0.0036689312491372888,0.2470501474926253,0.235207100591716,0.2431430689399555,0.18065967016491755,0.2341389728096677
https://www.justonecookbook.com/earl-grey-chiffon-cake/,0.05741710851537126,-0.08213351259082112,0.03534181098498962,0.012629517355375323,-0.023950420153886813,0.2470501474926253,0.235207100591716,0.2431430689399555,0.18065967016491755,0.2341389728096677
https://www.justonecookbook.com/green-tea-chocolate/,0.21122965231467705,-0.09565626298319979,0.1627303904305378,0.08085354284392807,-0.04259162148861124,0.2470501474926253,0.235207100591716,0.2431430689399555,0.18065967016491755,0.2341389728096677
https://www.justonecookbook.com/instant-pot-kabocha-flan/,-0.009522702425974342,-0.07246713098797829,-0.005990609632364339,0.019039728039245137,-0.004036487092268328,0.2470501474926253,0.235207100591716,0.2431430689399555,0.18065967016491755,0.2341389728096677
https://www.justonecookbook.com/flambeed-pear-purses-with-caramel-sauce-and-ganache-guest-post-by-five-euro-food/,-0.027767575441396967,-0.05506381270790292,0.0014236540308066536,0.025394014556154264,0.010684806120102872,0.2470501474926253,0.235207100591716,0.2431430689399555,0.18065967016491755,0.2341389728096677
https://www.justonecookbook.com/mizu-yokan/,0.0496077356359067,0.002521351172785306,0.02023656007650676,-0.08315883562993046,-0.03201314217383155,0.2470501474926253,0.235207100591716,0.2431430689399555,0.18065967016491755,0.2341389728096677
https://www.justonecookbook.com/custard-pudding/,-0.04171446731046901,-0.06265414805370208,-0.02033639673466347,0.030123912378000366,-0.010720781340014104,0.2470501474926253,0.235207100591716,0.2431430689399555,0.18065967016491755,0.2341389728096677
https://www.justonecookbook.com/ume-shaved-ice/,0.343539627677051,-0.2461193224401586,0.04155170301995882,0.06940261562234774,0.15806668416712655,0.2470501474926253,0.235207100591716,0.2431430689399555,0.18065967016491755,0.2341389728096677
https://www.justonecookbook.com/orange-jelly/,0.01649287201654865,-0.06721378786762304,0.02406462105499727,0.003671613402501955,0.0107373088494628,0.2470501474926253,0.235207100591716,0.2431430689399555,0.18065967016491755,0.2341389728096677
https://www.justonecookbook.com/sesame-cupcakes-with-honey-meringue-frosting-guest-post-by-t-and-tea-cake/,-0.02440851777815419,-0.044177556563914616,-0.012888725742210852,0.015002815769481093,-0.004316395112081326,0.2470501474926253,0.235207100591716,0.2431430689399555,0.18065967016491755,0.2341389728096677
https://www.justonecookbook.com/cherry-clafoutis/,-0.044669529713580965,-0.04985449837236191,-0.015442990664111629,0.026248215367804466,-0.005404147155744103,0.2470501474926253,0.235207100591716,0.2431430689399555,0.18065967016491755,0.2341389728096677
https://www.justonecookbook.com/how-to-make-agar/,-0.11257213008177724,-0.019835903609087185,0.024198371564358438,0.03446626714796721,-0.01468175667565537,0.2470501474926253,0.235207100591716,0.2431430689399555,0.18065967016491755,0.2341389728096677
https://www.justonecookbook.com/how-to-make-anko-red-bean-paste/,-0.0480558932962526,-0.007102574719062804,0.017269073452500897,-0.01230902541377049,-0.028080256786188414,0.2470501474926253,0.235207100591716,0.2431430689399555,0.18065967016491755,0.2341389728096677
https://www.justonecookbook.com/cherry-bars/,-0.015600865747205478,-0.05315163587995319,-0.019618558605877287,0.01530548505057919,0.008541454519910237,0.2470501474926253,0.235207100591716,0.2431430689399555,0.18065967016491755,0.2341389728096677
https://www.justonecookbook.com/mango-ice-cream/,-0.0172543460391744,-0.059020593412233785,0.01453533422088044,0.027587136113516365,0.01993894537822425,0.2470501474926253,0.235207100591716,0.2431430689399555,0.18065967016491755,0.2341389728096677
https://www.justonecookbook.com/green-tea-souffle/,0.14556695479115742,-0.10179055862659409,0.055238261920623866,0.06348768214852415,-0.01849210220323552,0.2470501474926253,0.235207100591716,0.2431430689399555,0.18065967016491755,0.2341389728096677
https://www.justonecookbook.com/matcha-basque-cheesecake/,0.09100644096415046,-0.08499212379041782,-0.09629522327112659,0.03572777410792689,-0.014799772678192564,1.0,1.0,1.0,1.0,1.0
https://www.justonecookbook.com/simple-crepes/,-0.0017883055975536904,-0.06502018490048907,-0.0012696085791595703,0.014610480234175122,0.012223207130061437,0.2470501474926253,0.235207100591716,0.2431430689399555,0.18065967016491755,0.2341389728096677
https://www.justonecookbook.com/taro-tapioca-dessert-soup/,0.06169176440515856,-0.03640296802787591,-0.00170725657427237,0.012532589442554285,-0.018798880121945083,0.2470501474926253,0.235207100591716,0.2431430689399555,0.18065967016491755,0.2341389728096677
https://www.justonecookbook.com/fruit-popsicles/,0.01627537389616095,-0.02401425836879445,0.02221185917846395,-0.042190538272622834,0.0812100623307726,0.2470501474926253,0.235207100591716,0.2431430689399555,0.18065967016491755,0.2341389728096677
https://www.justonecookbook.com/butter-cookies-hato-sabure-recipe/,-0.018636645080539773,-0.05866742330889539,-0.03670209400429746,0.025623519620749123,-0.006052538829203389,0.2470501474926253,0.235207100591716,0.2431430689399555,0.18065967016491755,0.2341389728096677
https://www.justonecookbook.com/blueberry-cheesecake/,0.047390946423759045,-0.06972685324680462,-0.0742724449632768,0.019465922139508714,0.0058666995652895395,0.2470501474926253,0.235207100591716,0.2431430689399555,0.18065967016491755,0.2341389728096677
https://www.justonecookbook.com/ujikintoki-green-tea-shaved-ice/,0.18673511397962264,-0.08356837849263613,0.0823161793813736,-0.009925654258657391,-0.025784524789506845,0.2470501474926253,0.235207100591716,0.2431430689399555,0.18065967016491755,0.2341389728096677
https://www.justonecookbook.com/hanami-dango/,0.06461248770601734,-0.02946489782553339,0.003656676631365188,-0.05454821958360511,-0.06089942694514634,0.2470501474926253,0.235207100591716,0.2431430689399555,0.18065967016491755,0.2341389728096677
https://www.justonecookbook.com/cherry-ice-cream/,-0.011866363037012358,-0.05731057374409557,0.012364934917063237,0.011610699280075827,-0.006545551882370262,0.2470501474926253,0.235207100591716,0.2431430689399555,0.18065967016491755,0.2341389728096677
https://www.justonecookbook.com/matcha-mille-crepe-cake/,0.10073238247703845,-0.08525342018077524,0.057494939664258164,0.042369964034140596,-0.023807360424027556,0.2470501474926253,0.235207100591716,0.2431430689399555,0.18065967016491755,0.2341389728096677
https://www.justonecookbook.com/green-tea-creme-brulee/,0.21630366384710759,-0.13241640595140383,0.0012636979852731374,0.08687991420500747,-0.03557576048657585,0.2470501474926253,0.235207100591716,0.2431430689399555,0.18065967016491755,0.2341389728096677
https://www.justonecookbook.com/nougat-semifreddo-guest-post-by-alterkitchen/,0.004840832412891535,-0.06985701802775467,-0.015559365492528718,0.01522418069444337,0.008882277690061379,0.2470501474926253,0.235207100591716,0.2431430689399555,0.18065967016491755,0.2341389728096677
https://www.justonecookbook.com/soba-salad/,-0.006477541697312583,-0.01644904576505664,0.008957522132196255,0.0020435752259276717,0.016979160552977098,0.2470501474926253,0.235207100591716,0.2431430689399555,0.18065967016491755,0.2341389728096677
https://www.justonecookbook.com/seaweed-salad-recipe/,0.034299909080915535,0.049965773184118115,0.0009700651023694352,0.04227339660017094,-0.014908388619290683,0.2470501474926253,0.235207100591716,0.2431430689399555,0.18065967016491755,0.2341389728096677
https://www.justonecookbook.com/daikon-salad-radish-salad/,0.08162998859337339,0.1095758069187236,-0.0001353920585421165,0.04107205632856845,0.01925791458320134,0.2470501474926253,0.235207100591716,0.2431430689399555,0.18065967016491755,0.2341389728096677
https://www.justonecookbook.com/shabu-shabu-salad/,-0.034229812155494324,0.010225511173793311,0.009486447727283593,-0.00677656432157454,0.0016727878104684948,0.2470501474926253,0.235207100591716,0.2431430689399555,0.18065967016491755,0.2341389728096677
https://www.justonecookbook.com/eggplant-and-myoga-salad/,0.051453291470391564,0.10606586958384086,0.004438451263462992,0.05593645841838481,0.035884588246025494,0.2470501474926253,0.235207100591716,0.2431430689399555,0.18065967016491755,0.2341389728096677
https://www.justonecookbook.com/japanese-salad-dressings/,-0.031012293015024308,-0.00409358410521932,0.013824426026719659,0.0033847129676189388,0.014651255853518218,0.2470501474926253,0.235207100591716,0.2431430689399555,0.18065967016491755,0.2341389728096677
https://www.justonecookbook.com/apple-walnut-salad/,0.01584228342214907,-0.020309985332177174,-0.0014866268063960413,0.008151375358727226,0.04445200722212146,0.2470501474926253,0.235207100591716,0.2431430689399555,0.18065967016491755,0.2341389728096677
