url,0,1,2,3,4,high_carb,high_protein,high_fat,high_sodium,high_sugar
https://glebekitchen.com/miso-chicken-with-maple-and-ginger/,0.025202117406757603,0.014986340890261735,-0.005190057212258482,0.027371902255840803,0.010460052280996246,0.0,1.0,0.0,0.0,0.0
https://glebekitchen.com/tonkotsu-ramen-home/,0.05867023006370914,0.05849890665623929,-0.0413439388294395,0.040381164514182055,-0.019953368183764697,1.0,1.0,1.0,1.0,1.0
https://glebekitchen.com/garlic-ginger-grilled-chicken/,-0.03340981083488792,0.004665758408671243,0.012607334661361741,0.01216902402660913,0.019073506568917546,0.0,1.0,1.0,1.0,0.0
https://glebekitchen.com/tonkotsu-ramen-broth-home/,0.024146973524857895,0.014772933969516117,-0.08537247705527526,-0.0411083667952445,-0.04488263178046344,0.0,0.235207100591716,0.2431430689399555,0.0,0.2341389728096677
https://glebekitchen.com/japanese-chicken-curry-curry-rice/,0.0003485209171389702,0.01896219555779837,0.022904778871282814,-0.018676736414863768,0.019238538867929002,0.0,0.0,0.0,1.0,0.0
https://glebekitchen.com/chicken-karaage-japanese-fried-chicken/,-0.0009259418459154986,0.01149306498835883,-0.030999534190880654,-0.009337983797777644,-0.02101756694476465,0.0,1.0,1.0,1.0,0.0
https://glebekitchen.com/curry-chicken-ramen/,0.006971079683006019,0.02102096406636873,-0.026951060707398635,0.01661383071719696,-0.03274117918254787,1.0,1.0,1.0,0.0,0.0
https://glebekitchen.com/sous-vide-steak-tataki-style/,0.009354823655114662,0.010296856523222394,0.008694372912888632,0.00621052063495326,0.023628682742136576,0.0,0.0,0.0,0.0,0.0
https://glebekitchen.com/momofuku-pork-belly/,-0.05853193249038763,0.006601860053068626,-0.008362979518787934,-0.0008031045173788781,-0.02166973551206536,0.0,0.0,1.0,1.0,0.0
https://glebekitchen.com/gyudon-japanese-beef-bowl/,0.07789861659308558,0.07398423672121943,-0.02739204695026563,0.0625329245554381,-0.0216896193445834,0.0,1.0,0.0,1.0,1.0
https://glebekitchen.com/japadog-style-terimayo-hot-dog/,-0.008471272158122971,0.024386237680529752,-0.00519397474768546,0.029382007491773852,0.010837516811128484,1.0,0.0,1.0,1.0,1.0
https://glebekitchen.com/japanese-miso-soup/,0.10601481609956527,0.09931550010043112,-0.03261825418924856,0.08263316328872601,-0.03719869555252375,0.0,0.0,0.0,1.0,0.0
https://glebekitchen.com/japanese-chicken-yakitori/,-0.05542362164491345,0.0073745033399503,-0.00046162077501001275,0.022422401495840696,-0.009612957016270423,0.0,0.0,0.0,0.0,0.0
https://glebekitchen.com/miso-ramen-with-chashu-pork/,0.04169854323100819,0.037509040539285055,-0.04436500967017814,0.03031358851308948,-0.03606839967270831,1.0,1.0,1.0,1.0,1.0
https://glebekitchen.com/30-minute-curry-ramen/,0.025529727141334235,0.021195581755549094,-0.03173007321352321,0.024583996244637054,-0.041950320979463114,0.0,1.0,0.0,1.0,0.0
https://glebekitchen.com/japanese-gyoza/,0.030918776748084572,0.07435735076016085,-0.008377840155879184,0.016154837663257274,-0.014829503756599997,0.0,0.0,0.0,0.0,0.2341389728096677
https://glebekitchen.com/vietnamese-chicken-curry-ca-ri-ga/,-0.01880663636150503,0.007922590782031384,0.011979847981170225,-0.0019489385014801726,0.00302324289574414,1.0,1.0,1.0,1.0,0.0
https://glebekitchen.com/asian-grilled-chicken-wings/,0.0603696848462296,0.07070054357612922,-0.021474366204483477,-0.03104259755647466,0.03863526949737367,0.2470501474926253,0.0,0.0,1.0,0.2341389728096677
https://glebekitchen.com/carpaccio-asian-style/,-0.027714253665049243,0.017821003362204338,0.02161663599047889,-0.016375701021950066,0.015034116976508803,0.0,0.0,0.0,0.0,0.2341389728096677
https://glebekitchen.com/vietnamese-grilled-chicken-with-ginger-soy-noodle-salad/,0.0264939782621687,0.04207705718289521,0.014930733115052587,-0.022753811938913644,0.02342500249213444,1.0,1.0,1.0,1.0,1.0
https://glebekitchen.com/vietnamese-lemongrass-chicken-noodle-bowl/,0.04971324905287839,0.04431277176662636,0.010288053257107195,-0.021686442787454432,0.01987248116354813,1.0,0.0,0.0,1.0,1.0
https://glebekitchen.com/vietnamese-spring-rolls-with-peanut-sauce/,0.03297140208521384,0.010871975145977042,-0.0036352527656826473,0.003771840366177268,0.01504036384496554,1.0,0.0,0.0,0.0,0.0
https://glebekitchen.com/nuoc-cham-vietnamese-dipping-sauce/,0.015727266434017846,0.008061668489809052,0.010894995905385339,-0.03529985597039062,0.04806376682390183,1.0,0.0,0.0,1.0,1.0
https://glebekitchen.com/salmon-with-rice-noodles/,-0.020721215705065146,-0.0018735619412018195,0.009656490563044568,-0.0008180471501803406,0.02920808476809969,0.0,1.0,0.0,0.0,0.0
https://glebekitchen.com/vietnamese-noodle-salad/,0.02778685175098407,0.042816761389328224,0.0008240626930616405,-0.0001693298974567467,0.030176595078561803,1.0,1.0,1.0,1.0,1.0
https://glebekitchen.com/vietnamese-sate-sauce/,-0.0377344589077511,0.01784923208761946,0.009304400681552203,-0.0022755958421069077,0.007132482513457283,1.0,0.0,1.0,1.0,1.0
https://glebekitchen.com/authentic-pho-ga-vietnamese-chicken-noodle-soup/,-0.010431056059468993,0.018240248069051317,-0.01647161626588332,-0.0045021086895881005,-0.02227731792874222,1.0,1.0,1.0,1.0,0.0
https://glebekitchen.com/bun-cha-vietnamese-grilled-pork-with-rice-noodles/,0.07553066035654983,0.05532275839313338,0.00908332769560967,-0.02425491523314099,0.0367880289346191,0.0,1.0,1.0,1.0,1.0
https://glebekitchen.com/vietnamese-ginger-beef-stir-fry/,-0.05481430899460804,0.007963679501780887,0.007464062228429783,-0.002295356986607753,-0.00377627394168207,0.0,1.0,1.0,1.0,0.0
https://glebekitchen.com/beef-pho-easy-vietnamese-pho-bo/,0.024826417510598338,0.02228623763198183,0.0030646858534159093,-0.018883324217161858,-0.007523585252380664,1.0,1.0,1.0,1.0,1.0
https://glebekitchen.com/vietnamese-banh-mi-gochujang-mayo/,-0.014843053804657115,0.028690223554957605,-0.0022158438761483517,-0.00537831084899342,-0.01291003773339039,0.2470501474926253,0.0,1.0,0.0,0.2341389728096677
https://glebekitchen.com/bo-kho-vietnamese-beef-stew-with-egg-noodles/,0.012841598868278214,0.029814832328001507,-0.0031624860765045878,-0.025739332016392755,0.005860333414313787,1.0,1.0,1.0,1.0,0.0
https://glebekitchen.com/vietnamese-beef-noodle-salad/,0.05440744751559489,0.04577161823861658,0.013182490697309876,-0.017305085110899083,0.031887998357325344,1.0,1.0,0.0,1.0,1.0
https://glebekitchen.com/bun-thit-nuong-vietnamese-grilled-pork-with-rice-noodles/,-0.011154567776615196,0.017922159781309125,0.008506033023226982,-0.008276078423334828,0.015444149726807133,1.0,0.0,0.0,1.0,0.0
https://glebekitchen.com/spicy-beef-noodle-soup-vietnamese-style/,0.045829337253853825,0.04059515193848694,-0.01151653357380888,-0.03532492361988498,-0.0004462497008646854,1.0,1.0,0.0,1.0,0.0
https://glebekitchen.com/shaking-beef-vietnamese-bo-luc-lac/,-0.009264461819375465,0.019785450557198964,-0.0022536805900117123,-0.0057293120061551695,0.0018441487287484235,0.0,1.0,0.0,1.0,1.0
https://glebekitchen.com/vindaloo-paste/,-0.051942127280534316,0.010715646745790843,0.01818263262342932,-0.004427572270894856,0.02001888797154004,0.0,0.0,1.0,0.0,1.0
https://glebekitchen.com/beef-rogan-josh/,0.008047861385657197,0.010124481353444004,0.030836439412205284,-0.03624324862625454,0.04221453998496384,0.0,1.0,1.0,0.0,0.0
https://glebekitchen.com/achari-chicken-curry-indian-hotel-style/,-0.00261844329220117,0.021769995481839593,0.02399987841274398,-0.038379118113262604,0.027831889100979872,0.0,1.0,1.0,1.0,0.0
https://glebekitchen.com/indian-restaurant-hariyali-chicken-curry/,-0.010130981265014811,0.017712804179203324,0.03891139315040609,-0.023828563894126242,0.02484598951655289,0.0,1.0,1.0,1.0,0.0
https://glebekitchen.com/ceylon-chicken-curry-indian-hotel-style/,0.009192419977437093,-0.00282248629147185,0.03175974202824916,-0.031041340184299517,0.026545920064931124,0.0,1.0,1.0,1.0,1.0
https://glebekitchen.com/lemon-coriander-chicken-curry/,0.0022779795158524014,0.007253095244785011,0.025830331055183568,-0.025587618821133144,0.037042703846918996,0.0,0.0,1.0,0.0,0.0
https://glebekitchen.com/lamb-vindaloo-indian-restaurant-style/,0.015490860308712924,0.026617022809580716,0.015279673800017808,-0.03488155859153751,0.03404770823554272,0.0,1.0,1.0,0.0,0.0
https://glebekitchen.com/kari-ayam-malaysian-curry-chicken/,0.03360961057405036,0.005160980793648603,0.01461053618148252,-0.032594709504611984,0.019338092636634416,0.2470501474926253,0.235207100591716,0.2431430689399555,0.18065967016491755,0.2341389728096677
https://glebekitchen.com/indian-spiced-chicken-wings-with-tamarind-dipping-sauce/,0.0036172296245711335,0.009382957660084788,0.017375186029988703,-0.03050883961462311,0.0389964825817972,0.0,0.0,0.0,0.0,1.0
https://glebekitchen.com/gobi-manchurian-indian-cauliflower-wings/,-0.0027781308864803923,0.010279902314450468,0.010667921417784007,-0.040495126891847574,0.005372867756534135,0.0,0.0,0.0,1.0,0.0
https://glebekitchen.com/tandoori-marinade/,0.005486653684553601,0.01772390342791721,0.037366874504303906,-0.029992367613381303,0.04210994849249021,0.0,0.0,1.0,1.0,0.0
https://glebekitchen.com/chicken-vindaloo-restaurant-style/,0.00910415294502093,0.02142156671619846,0.033499975416162564,-0.0366367524032926,0.03033518507818706,0.0,0.0,1.0,0.0,0.0
https://glebekitchen.com/chicken-tikka/,0.007474657097898742,0.0160993126869627,0.03029647715077287,-0.02887764201630655,0.037848907514390365,0.0,0.0,0.0,0.0,0.2341389728096677
https://glebekitchen.com/garam-masala-indias-most-famous-spice-mix/,0.08424851774848174,0.010751139482282776,0.04756335769545183,-0.07197895248133472,0.0868454085104875,0.0,0.0,0.0,0.0,0.2341389728096677
https://glebekitchen.com/indian-restaurant-curry-base/,-0.02505571401656713,0.0034443164218704225,0.023340398166370457,-0.006000732603740998,0.025495203495870113,0.0,0.0,0.0,0.0,0.0
https://glebekitchen.com/nearly-restaurant-style-chicken-saag-curry/,0.011737834822939731,0.023982493614614013,0.02580070282442194,-0.034586986864249054,0.03704733843931813,0.0,1.0,1.0,0.0,0.0
https://glebekitchen.com/nihari-gosht-indian-beef-stew/,0.04182714503555171,0.0017888635293846255,0.023635551244080753,-0.05079591468980068,0.041455982731197445,0.0,1.0,1.0,0.0,0.0
https://glebekitchen.com/palak-paneer-indian-restaurant-style-spinach-curry/,0.025874316764557728,0.02883045656863546,0.03469092680798443,-0.040181924246213675,0.035323298773716955,0.0,0.0,1.0,0.0,0.0
https://glebekitchen.com/tandoori-chicken/,0.012806191450152696,0.015583226060341905,0.036739918406797904,-0.025979772093792906,0.049051284121045174,0.0,1.0,1.0,1.0,0.2341389728096677
https://glebekitchen.com/bagara-baingan-indian-hotel-style-eggplant-curry/,0.011311996635165533,0.008163284754497258,0.025967772950516162,-0.03205012328054732,0.03644317053208237,1.0,0.0,1.0,1.0,1.0
https://glebekitchen.com/sambar-south-indian-lentil-and-vegetable-stew/,0.01748967071830357,0.025808017876215807,0.025101502508702085,-0.05965153617534736,0.021712575167744257,1.0,0.0,0.0,0.0,1.0
https://glebekitchen.com/indian-restaurant-spice-mix/,0.0566172788235119,0.036880444710365154,0.03963375445343711,-0.054392178708532114,0.06047332323651384,1.0,0.0,0.0,0.0,0.0
https://glebekitchen.com/bombay-potatoes-restaurant-style-bombay-aloo/,-0.004867332195388928,0.017303985496330714,0.026096948309618707,-0.03154044951426542,0.029137999244550235,1.0,0.0,0.0,0.0,0.0
https://glebekitchen.com/hariyali-chicken-curry-indian-hotel-style/,-0.003016221239483666,0.015562138347402875,0.0305078036262884,-0.028139528363902815,0.03755219457483275,0.0,1.0,1.0,1.0,0.0
https://glebekitchen.com/lamb-keema-papadum/,0.024137512069490316,0.016961754771921807,0.030177215785504807,-0.034688115885557154,0.03859685989093995,0.0,0.0,0.0,0.0,0.0
https://glebekitchen.com/restaurant-style-chicken-tikka-masala/,0.00609824136161337,-0.009877262008980611,0.0046950722045877675,-0.015318380044162,0.013479472807272862,0.0,0.0,1.0,1.0,1.0
https://glebekitchen.com/dal-palak-indian-spinach-and-lentil-curry/,-0.006982442987773739,0.020520277541849454,0.023102525790932263,-0.03358448600313265,0.031260388769105855,0.0,0.0,0.0,0.0,0.0
https://glebekitchen.com/mulligatawny-soup/,-0.04088880950207467,0.009568146599768814,0.011052902533997934,-0.01175863034273575,0.011108561764703066,0.0,1.0,0.0,0.0,0.0
https://glebekitchen.com/indian-restaurant-chicken-jalfrezi/,0.00842869490039194,0.023596224987996437,0.023842394170392564,-0.04148592978340288,0.02884988262232723,0.0,1.0,1.0,1.0,0.0
https://glebekitchen.com/lamb-or-beef-keema/,0.02101048325901429,0.013039629285885968,0.030807984189365752,-0.04227302436109314,0.03018750566977019,0.0,1.0,1.0,0.0,0.2341389728096677
https://glebekitchen.com/indian-restaurant-lamb-curry/,0.01987753444018964,0.017430326665320097,0.028248886687584074,-0.04124441852810836,0.03525981592390244,0.0,0.0,1.0,0.0,0.0
https://glebekitchen.com/naga-chicken-tikka-curry-indian-hotel-style/,-0.0021859201258328832,0.001548525323457332,0.028375586479471613,-0.027459032906709417,0.015602319168284222,0.0,1.0,1.0,1.0,0.0
https://glebekitchen.com/restaurant-style-pathia-curry/,0.00927517958906009,0.019101374431137328,0.024543998212975458,-0.03756890070019547,0.02682050794007984,0.0,1.0,1.0,1.0,0.0
https://glebekitchen.com/gunpowder-potatoes/,0.020135023697657864,0.01567834528201229,0.03294532974874864,-0.047574592475875414,0.04371427405733968,1.0,0.0,1.0,1.0,0.0
https://glebekitchen.com/nearly-restaurant-style-chettinad-chicken-curry/,0.013273360160524343,0.00976825861589053,0.028944355830552854,-0.03311783769517057,0.032358754077328244,0.0,1.0,1.0,1.0,0.0
https://glebekitchen.com/bengali-masoor-dal/,-0.057177602192926065,0.0042022693276749234,0.011066423582731764,-0.0009969814278917913,0.012813751990411525,0.0,0.0,0.0,0.0,0.0
https://glebekitchen.com/indian-restaurant-vindaloo-curry/,-0.0032417438412222226,0.02120556483938728,0.019813021607784732,-0.031125986844261603,0.022819111592584918,0.0,1.0,0.0,1.0,0.0
https://glebekitchen.com/shahi-chicken-korma/,0.009825052109754295,-0.008959340399617868,0.015949518373898033,-0.020717643289464915,0.02584626064943025,0.0,1.0,1.0,0.0,0.0
https://glebekitchen.com/saag-aloo-indian-restaurant-style/,0.02225994306514052,0.024654808109739863,0.023334026049595603,-0.04385320111431187,0.03814705066301325,0.0,0.0,0.0,1.0,0.0
https://glebekitchen.com/chole-masala-punjabi-chickpea-curry/,0.012918963118822166,0.009058636351034466,0.033544925871431354,-0.04742127823028735,0.04191364631678285,0.0,0.0,1.0,1.0,1.0
https://glebekitchen.com/aloo-keema-indian-restaurant-potato-and-beef-curry/,-0.02073485170784434,0.012903293893654673,0.02627468667385872,-0.02393615572581948,0.018227066695040525,0.0,1.0,1.0,1.0,0.0
https://glebekitchen.com/kerala-fried-chicken/,0.023557965272485937,0.017770158489285558,0.029100203213339164,-0.04250833021109862,0.027345643609379192,1.0,1.0,0.0,1.0,0.0
https://glebekitchen.com/easy-mint-raita-indian-mint-sauce/,-0.006515864841955947,-0.013975980021663687,0.05637006157531614,0.007387844422666323,0.04673110825222035,0.0,0.0,0.0,0.0,0.0
https://glebekitchen.com/chicken-masala-indian-restaurant-style/,0.001971843868886999,0.007875694136743503,0.02899706422684374,-0.03497263828443855,0.032720837452651634,0.0,1.0,1.0,0.0,0.0
https://glebekitchen.com/indian-lentil-curry-with-spinach/,-0.01024576829549525,0.018821900465332424,0.021660366573362275,-0.029412648456726597,0.028197871870270043,0.0,0.0,0.0,0.0,0.0
https://glebekitchen.com/garlic-chilli-chicken-indian-restaurant-style/,0.011754097097426133,0.012402028303698562,0.03388884593768042,-0.039553291342533964,0.034064927097173715,0.0,0.0,1.0,1.0,0.0
https://glebekitchen.com/homemade-curry-powder/,0.04716243352733154,0.022322253193690827,0.031577378137123045,-0.055792564176904674,0.05994985069717844,1.0,0.0,0.0,0.0,0.0
https://glebekitchen.com/karahi-chicken-indian-restaurant-style/,-0.011568081797039954,0.012148904424478878,0.024383553392907275,-0.022191471742682888,0.021054989640411578,0.0,1.0,1.0,1.0,0.0
https://glebekitchen.com/garlic-ginger-paste/,-0.01161109644947018,0.0008315065072714732,0.007595378486568162,0.008643819924985984,0.02742027223036597,0.0,0.0,0.0,0.0,0.0
https://glebekitchen.com/papadum-with-red-onion-chutney-and-mint-raita/,0.03433920317516745,0.014953354652615273,0.02170087639665215,-0.04440015670814263,0.04226439931086895,0.2470501474926253,0.235207100591716,0.2431430689399555,0.18065967016491755,0.2341389728096677
https://glebekitchen.com/chicken-bhuna-curry/,0.045328289048124866,0.015343025010311952,0.03100322831252339,-0.05017391747135613,0.056060294762242786,0.0,1.0,0.0,0.0,1.0
https://glebekitchen.com/tarka-dhal/,0.006030924367179291,0.019032049443654293,0.02425135190396818,-0.03432401573939443,0.04092180291001874,0.0,0.0,0.0,0.0,0.0
https://glebekitchen.com/chaat-masala-indian-street-food-spice-mix/,0.008502242344307388,0.03415641193165366,0.0256787910350143,-0.056589026417164824,0.04822549481056294,0.0,0.0,0.0,1.0,0.0
https://glebekitchen.com/keema-matar-nearly-restaurant-style/,0.016783190969523083,0.02348012909682922,0.020501730949967156,-0.04217516324718506,0.030542537064120565,0.0,1.0,1.0,0.0,0.0
https://glebekitchen.com/pilau-rice-indian-restaurant-style/,0.09193946843535908,0.016883139092112743,0.05754120800312515,-0.07098664446970937,0.08170338999429899,0.0,0.0,0.0,0.0,0.0
https://glebekitchen.com/dal-tadka-restaurant-style/,0.0200160378040821,0.00991779733260537,0.035024340208060244,-0.05404755245383642,0.04363470154918993,0.0,0.0,0.0,0.0,0.0
https://glebekitchen.com/eggplant-curry-baingan-masala-restaurant-style/,0.013594095435620863,0.026758326575677897,0.028024973105159147,-0.04727502170359101,0.035501554221334296,0.0,0.0,0.0,1.0,1.0
https://glebekitchen.com/restaurant-style-aloo-chaat-chicken-curry/,0.004435782496125912,0.019044498743062598,0.02913884467164383,-0.0360790963691241,0.025345338796947763,1.0,1.0,1.0,1.0,0.0
https://glebekitchen.com/chicken-65-south-indian-fried-chicken-bites/,0.01920527507846096,0.025938415139162008,0.017466403612195855,-0.051705651263162414,0.028210724559841308,0.0,1.0,0.0,0.0,0.2341389728096677
https://glebekitchen.com/seekh-kebab-spicy-lamb-skewers/,0.01854860479706018,0.03205182731985456,0.023094045713560028,-0.039842620608325476,0.04489596435115169,0.0,0.0,1.0,1.0,0.0
https://glebekitchen.com/nearly-indian-restaurant-style-chicken-tikka-masala/,0.003881510607985736,0.009476158329919361,0.02180505495759558,-0.025505206179102954,0.031142714937818075,0.0,1.0,1.0,1.0,0.0
https://glebekitchen.com/chana-masala/,0.016806580463021154,0.029393470709881936,0.03505798537493292,-0.038635276175694996,0.04451238643428476,0.0,0.0,0.0,0.0,0.0
https://glebekitchen.com/chana-chaat-indian-chickpea-salad/,0.007087687864912231,0.028012519867533277,0.03017003693830052,-0.04625689245002053,0.026677375373780763,0.0,0.235207100591716,0.0,0.0,0.0
https://glebekitchen.com/chicken-tikka-jalfrezi-indian-hotel-style/,-0.007537434181705843,0.01585233137109558,0.028360088629175332,-0.0330505210636886,0.0231743156178086,0.0,1.0,1.0,1.0,1.0
https://glebekitchen.com/mint-coriander-chutney/,-0.015957513403020755,0.017456994776448,0.028999358792253824,-0.02042133128679076,0.036331705313701515,0.0,0.0,0.2431430689399555,0.0,0.0
https://glebekitchen.com/indian-restaurant-dhansak-curry/,0.006361210501630014,0.022921442265766177,0.024832429042452493,-0.03698699373418408,0.026080037068414882,0.0,1.0,1.0,1.0,0.0
https://glebekitchen.com/chicken-biryani-indian-restaurant-style/,0.03629193439220469,0.022866817741770087,0.030592066092469093,-0.043435629402761064,0.0520660038799375,1.0,0.0,0.0,1.0,0.0
https://glebekitchen.com/indian-restaurant-dopiaza-curry/,-0.005767292983913845,0.019833162642293768,0.023209850924178665,-0.03367199111465201,0.019658408996983765,0.0,0.0,0.0,1.0,0.0
https://glebekitchen.com/indian-restaurant-bhuna-curry/,0.00752103687141045,0.025191217539756346,0.02309288251975499,-0.04023732556778708,0.032965576236107394,0.0,1.0,1.0,1.0,0.0
https://glebekitchen.com/butter-chicken-indian-restaurant-style/,0.0020930590099213974,0.003927723988637627,0.019665711539295645,-0.028884516518716697,0.01831908599233875,0.0,1.0,1.0,1.0,0.0
https://glebekitchen.com/nearly-restaurant-chicken-jalfrezi/,-0.01647931615940187,0.01576806357966148,0.021477997425711274,-0.029459752584265197,0.022296884965456586,0.0,1.0,1.0,0.0,0.0
https://glebekitchen.com/nadan-chicken-curry/,0.011069041318132597,0.018997459682905803,0.0216634690695308,-0.03078842051475671,0.028472772705512468,0.0,1.0,1.0,1.0,0.0
https://glebekitchen.com/tandoori-paste-pataks-copycat/,0.002566707097012972,0.009593277022071928,0.02535152279516168,-0.02362083620694476,0.02284251403035876,1.0,0.0,0.0,1.0,1.0
https://glebekitchen.com/tandoori-chicken-tacos/,0.008417643906903083,0.0019260361063231561,0.005856024686048118,-0.03772541930519689,0.004024303540756989,0.0,0.0,0.2431430689399555,0.0,0.2341389728096677
https://glebekitchen.com/hotel-style-indian-curry-gravy/,-0.00468390638372547,0.01262227266419791,0.03277804393686983,-0.027038486528727628,0.036560725480510474,0.0,0.0,1.0,0.0,1.0
https://glebekitchen.com/methi-chicken-curry-indian-hotel-style/,0.015992190518129005,0.02643639817907333,0.03001928545437904,-0.03951469999343491,0.03990397864186843,0.0,1.0,1.0,1.0,0.0
https://glebekitchen.com/restaurant-style-keema-matar/,-0.004023525291187455,0.017927395144335025,0.025082889497093766,-0.03590727846994628,0.018087634817293856,0.0,1.0,1.0,1.0,0.0
https://glebekitchen.com/chicken-chaat-salad/,-0.03580041956489494,0.0061739513688452916,0.011141951507475985,-0.0014868415315945809,0.030004810995016014,0.0,0.0,0.0,0.0,0.2341389728096677
https://glebekitchen.com/easy-chana-masala/,0.019102959725512552,0.029105275581936995,0.035172537191701665,-0.045759206095929914,0.03907247886722881,1.0,0.0,0.0,1.0,0.0
https://glebekitchen.com/green-chili-chana-achari/,-0.003686645968555477,0.022807067030243613,0.021012637049010772,-0.04394073019560431,0.0169701131667112,0.0,0.0,0.0,0.0,0.0
https://glebekitchen.com/masala-chilli-chicken-restaurant-style/,0.0014745862970023877,0.018847992786431938,0.036145364149090184,-0.036278829567097486,0.020169456421920418,0.0,1.0,1.0,1.0,1.0
https://glebekitchen.com/laal-maas-spicy-lamb-curry/,0.03590351042575758,0.03480096750310828,0.02562132492822287,-0.0510731711923642,0.04508894817698482,0.0,1.0,1.0,1.0,0.0
https://glebekitchen.com/chettinad-chicken-curry-indian-hotel-style/,0.019957801179075658,0.007597242034534123,0.030061483262559887,-0.040084727943501625,0.03654836575662942,0.0,1.0,1.0,1.0,0.0
https://glebekitchen.com/bengali-chicken-curry-restaurant-style/,-0.021273248685826116,0.01164408818889973,0.0227521997693885,-0.025302345144866692,0.013308802951149694,0.0,1.0,1.0,0.0,0.0
https://glebekitchen.com/chicken-dhansak-bengali-style/,-0.0005247013653026164,0.006340905833333719,0.028044248724582808,-0.03665222505645492,0.034789555526991436,1.0,1.0,0.0,0.0,0.0
https://glebekitchen.com/spinach-potato-curry/,-0.006075423799370292,0.017885083835501633,0.017322149570464015,-0.02704222112868606,0.021139319766113593,0.0,0.0,0.0,0.0,0.0
https://glebekitchen.com/chicken-shashlik/,-0.025848094612449864,0.012797743925972448,0.0190266688710517,-0.023517653438859663,0.018029392862495382,0.0,1.0,1.0,1.0,0.0
https://glebekitchen.com/nearly-restaurant-style-chicken-madras/,-0.00786760791783994,0.005612484040858201,0.024371510155741117,-0.026948353140298135,0.02578290705882808,0.0,1.0,1.0,0.0,0.0
https://glebekitchen.com/lamb-saag-indian-restaurant-style/,0.02521982855029287,0.029933805257171323,0.027207218999870966,-0.04134535812133946,0.02953973245106331,0.0,0.0,1.0,1.0,0.0
https://glebekitchen.com/simple-chicken-curry/,0.004159455706129589,0.0016906912081990281,0.023604678705700995,-0.029170058010475838,0.038439670012383464,0.0,1.0,0.0,0.0,0.0
https://glebekitchen.com/egg-curry-south-indian-restaurant-style/,0.017996456008100084,0.006740760410639422,0.023933334450787342,-0.03901458977763877,0.03147200251673074,0.0,0.0,1.0,1.0,0.0
https://glebekitchen.com/chicken-dopiaza-indian-hotel-style/,-0.014232871508784927,0.01577410951760906,0.025585180894004612,-0.028292412926038034,0.0247256882817725,0.0,1.0,1.0,1.0,1.0
https://glebekitchen.com/green-chili-chicken-curry-indian-hotel-style/,0.006354102154648201,0.02263620364831139,0.03007460089117716,-0.038926117888197644,0.029014296752459822,0.2470501474926253,0.235207100591716,0.2431430689399555,0.18065967016491755,0.2341389728096677
https://glebekitchen.com/punjabi-dal-makhani/,0.019184936476561918,-0.0022212739299458098,0.033695089173644936,-0.03911161376385343,0.03370355870869699,0.0,0.0,0.0,0.0,0.0
https://glebekitchen.com/kerala-chicken-curry-nadan-kohzi-indian-hotel-style/,0.027439510753538402,0.012759412462145464,0.0288143727530143,-0.040166774091044834,0.03965000224628395,0.0,1.0,1.0,1.0,0.0
https://glebekitchen.com/chettinad-chicken-curry/,-0.03439273383335981,-0.0029451447223397017,0.018203278692186287,-0.0067051881071046645,0.007263546739516002,0.0,1.0,1.0,1.0,0.0
https://glebekitchen.com/chicken-and-chickpea-curry-easy-restaurant-style/,-0.018167254565005737,0.010280795102363731,0.02191510859989089,-0.020202252089842623,0.02657951308773817,1.0,1.0,1.0,0.0,0.0
https://glebekitchen.com/indian-restaurant-madras-curry/,0.0140182124922236,0.0022142526839582953,0.02355929681671269,-0.029620459654626036,0.0302046832526079,0.0,1.0,1.0,1.0,0.0
https://glebekitchen.com/lamb-madras-indian-hotel-style/,0.013454854274454206,0.010714175852083315,0.023000123369726577,-0.029368390794297504,0.02324224030521969,0.0,1.0,1.0,1.0,0.0
https://glebekitchen.com/kachumber-indian-tomato-and-cucumber-salad/,0.0017443741879145682,0.016175270033319582,0.02969484662672521,-0.020173888266420425,0.042792045904313916,0.0,0.235207100591716,0.0,0.0,0.0
https://glebekitchen.com/murgir-jhol-homestyle-bengali-chicken-curry/,-0.009938333682710798,0.004425872475784703,0.025853762550031915,-0.02830505764344464,0.02856931359195349,0.0,1.0,0.0,0.0,0.0
https://glebekitchen.com/lamb-rogan-josh-restaurant-style-at-home/,0.028070721700409997,0.016010072317848414,0.02075794849595793,-0.049597159466224075,0.03600305913934886,0.0,1.0,1.0,1.0,0.0
https://glebekitchen.com/thai-chicken-khao-soi/,0.008439399292083063,-0.0006195857093032202,0.005877838845102156,-0.016482586904456486,0.006615211404166735,1.0,1.0,0.0,1.0,0.0
https://glebekitchen.com/thai-grilled-chicken-with-sweet-chili-sauce/,0.016139482919904743,0.04179083861300205,0.010650551971488684,-0.010612540492348266,0.019022213698286796,1.0,0.0,0.0,1.0,1.0
https://glebekitchen.com/thai-tom-yum-soup/,0.004654259610977423,0.023196233392344143,0.01377001658378437,-0.022968843777795126,0.03675049158505675,0.0,0.0,0.0,1.0,0.0
https://glebekitchen.com/chicken-pad-thai/,0.031125809197789574,0.03659555841093791,-0.0062870850479892805,-0.024583831660586395,-0.0031553744534131302,1.0,1.0,1.0,1.0,1.0
https://glebekitchen.com/thai-cucumber-salad/,0.014018523022734979,0.014205147925991169,0.009208512205275885,-0.032793842289555945,0.041679784891760926,0.0,0.0,0.0,0.0,0.0
https://glebekitchen.com/thai-fried-rice-khao-pad/,-0.02037347363342059,0.007170173204376856,-0.00418156889608026,-0.01216198873762423,0.00956164006730393,1.0,1.0,1.0,1.0,0.0
https://glebekitchen.com/nam-prik-pao-thai-chili-paste/,-0.050478198735783214,0.013407757257978969,-0.001158324638376499,0.00993957273505291,0.0015065375104054693,0.0,0.0,1.0,0.0,0.0
https://glebekitchen.com/thai-red-chicken-curry/,0.05429757593348161,0.03208239285463356,0.02305488869153289,-0.05273424841252995,0.026197951541141393,0.0,1.0,1.0,0.0,0.0
https://glebekitchen.com/thai-sweet-chili-sauce/,0.0287537005100661,0.07277054209672504,0.001972261175566192,0.018788577482022135,0.02711427916836009,1.0,0.0,0.0,1.0,1.0
https://glebekitchen.com/panang-curry-with-chicken/,0.009385170945379601,0.014505478367656904,0.010526632252245979,-0.01657352717679242,0.029706577368059518,0.0,1.0,0.0,1.0,1.0
https://glebekitchen.com/sesame-noodles-thai-style/,0.04573456444207834,0.025463044232748304,-0.008093934399394744,-0.01906916637627931,0.000407753073153833,1.0,1.0,1.0,1.0,0.0
https://glebekitchen.com/thai-basil-chicken-pad-kra-pao/,-0.023211538141233237,0.01011727483470729,-0.004381575010057744,-0.008708519054327936,0.009259083151512205,0.0,1.0,1.0,1.0,0.0
https://glebekitchen.com/easy-beef-massaman-curry/,0.03261579617785386,-0.005925220314323658,0.02209691539802612,-0.038337472286237025,0.02647632380586919,1.0,1.0,1.0,1.0,1.0
https://glebekitchen.com/larb-thai-pork-salad/,0.029443450085866574,0.02188058593531881,0.008845218472373335,-0.038040999690796454,0.020624755623859684,0.0,0.0,0.0,1.0,0.0
https://glebekitchen.com/grilled-pork-belly-skewers-asian-style/,0.0468395475769848,0.038630117580757906,0.007903081174085112,-0.014735957843367311,0.01591496588607515,0.0,0.0,0.0,0.0,0.0
https://glebekitchen.com/spicy-thai-beef-salad/,0.03525748090801528,0.040666112691051075,0.023598175908564084,-0.03422595294276736,0.053912630971340164,0.0,1.0,0.0,1.0,0.0
https://glebekitchen.com/thai-green-curry-from-scratch/,-0.002891476145894504,0.007541634062348433,0.006013035101957449,-0.009828781207408205,0.04278085680140829,1.0,1.0,1.0,1.0,1.0
https://glebekitchen.com/thai-basil-beef-pad-gra-prow/,-0.038641444886918445,0.014054847684126182,0.007401952754181713,-0.012640348297733608,0.008312185164603348,0.0,1.0,1.0,0.0,0.0
https://glebekitchen.com/pad-thai-rest-us/,0.037050450361916336,0.04294943861212341,0.0006368835851002479,-0.02306119111477224,0.009628361251439371,1.0,0.0,1.0,1.0,1.0
https://glebekitchen.com/thai-chicken-salad-with-rice-noodles/,0.005636302081324289,0.010960945403946654,0.01670720034090561,-0.014958216432888569,0.04723985113831932,0.2470501474926253,0.235207100591716,0.2431430689399555,0.18065967016491755,0.2341389728096677
https://glebekitchen.com/papaya-salad-som-tam-thai/,0.03797105479737496,0.023745191738990933,0.012577013009644557,-0.060819855339072824,0.036633093503541506,0.0,0.0,0.0,0.0,1.0
https://glebekitchen.com/thai-dipping-sauce/,-0.004667857211815267,0.010197322552633654,0.014624760453917054,-0.024699332736311978,0.030039101037353,0.0,0.0,0.2431430689399555,1.0,1.0
https://glebekitchen.com/thai-beef-stir-fry-with-rice-noodles/,-0.00529345084195728,0.009837351736188674,0.007517610258913631,-0.015798453809688008,0.004009570736111284,1.0,1.0,0.0,1.0,1.0
https://glebekitchen.com/thai-roast-chicken/,-0.035157112265444046,0.011365296527384623,0.010516761251145415,-0.008164981588332459,-0.021139838491079622,1.0,1.0,1.0,0.0,0.0
https://glebekitchen.com/thai-beef-noodles/,0.03712843764098099,0.04829519350672636,-0.012789389699081489,-0.01890198709732944,-0.00608636967855491,1.0,1.0,1.0,1.0,1.0
https://glebekitchen.com/beef-and-broccoli-thai-style/,0.0018121857732068388,0.04062372058912095,-0.0036313787436281246,-0.002735687533183548,0.011333578489452828,0.0,1.0,1.0,1.0,0.0
https://glebekitchen.com/thai-curry-noodle-soup/,0.02825249172782486,0.014151296413819684,0.007440368352007185,-0.030716064640265852,-0.004176769178120228,1.0,1.0,1.0,1.0,0.0
https://glebekitchen.com/thai-chicken-buddha-bowl/,0.016691100123602136,0.03202454276473646,0.016151342757868316,-0.02825810368529348,0.019760134556569255,1.0,0.0,0.0,1.0,0.0
https://glebekitchen.com/thai-ribs-with-hot-and-sweet-dipping-sauce/,0.04386572643661103,0.057590682577294605,-0.009327596922417643,-0.034225823928299016,0.02727274199797572,0.0,0.0,0.0,1.0,1.0
https://glebekitchen.com/spicy-grilled-korean-chicken-wings/,-0.029332421402747062,0.0026890518139261487,-0.007042682836647589,-0.011052001202236244,-0.00694833499503937,0.0,0.0,0.0,0.0,0.2341389728096677
https://glebekitchen.com/korean-ramen/,0.04114048168131098,0.0456581786715912,-0.03541744112966987,0.03507383129973704,-0.03908224784724341,1.0,1.0,0.0,1.0,1.0
https://glebekitchen.com/korean-pork-ribs-with-gochujang-glaze/,-0.03891166796299224,0.01046720060490136,-0.00590631353125816,0.013909630385094154,-0.014153628496004466,0.0,1.0,1.0,1.0,1.0
https://glebekitchen.com/korean-pork-stew-kimchi-jjigae/,-0.014375045690762152,0.03164239171533822,-0.015446091333996869,0.01434217318246194,-0.02847075136484524,0.0,0.0,1.0,0.0,0.0
https://glebekitchen.com/korean-pork-bone-soup-gamjatang/,0.034554281950298006,0.06931914747564799,-0.013832160573669105,0.011344682119457593,-0.009285338901498921,0.0,1.0,1.0,1.0,0.0
https://glebekitchen.com/korean-bbq-shrimp/,-0.03735098377182792,0.0036460010104078806,-0.007859711133910248,0.014348619067219497,0.009512672041903128,0.2470501474926253,0.235207100591716,0.2431430689399555,0.18065967016491755,0.2341389728096677
https://glebekitchen.com/korean-beef-stew-with-gochujang/,0.05854636327957602,0.08600383536535582,-0.01992768181841133,0.0889121864980585,-0.03555699365675036,0.0,1.0,1.0,1.0,0.0
https://glebekitchen.com/korean-meatloaf-gochujang-glaze/,-0.0040438477145221955,-0.004788904673828347,-0.02667735671566803,-0.0007118197197417059,-0.002823973031148463,0.0,1.0,1.0,1.0,1.0
https://glebekitchen.com/korean-bulgogi-sauce/,-0.03324564133807353,-0.012142729017033862,0.019880814669323697,-0.0034283512119682473,0.013286010520777693,1.0,0.0,0.0,1.0,1.0
https://glebekitchen.com/spicy-miso-grilled-chicken/,-0.020905721488959916,0.028751932565467812,-0.0005316605735252154,0.020004371685718645,-0.006506725458757402,0.0,1.0,0.0,0.0,0.0
https://glebekitchen.com/korean-style-pork-chops/,-0.040945823828573855,-0.003304435013411618,0.016078893932522896,0.003383682991055402,-0.004027275820451968,0.0,1.0,0.0,0.0,0.0
https://glebekitchen.com/spicy-korean-chicken/,-0.029649690296241517,0.011872643128337029,0.013709654808107468,0.0021610955354911497,0.0020944751998197616,1.0,1.0,0.0,0.0,0.2341389728096677
https://glebekitchen.com/easy-korean-beef-bulgogi/,-0.007337355822196987,0.023364099721760817,0.008180207810919611,-0.0043148845838083824,0.008558267655559533,0.0,0.0,0.0,0.0,0.0
https://glebekitchen.com/korean-braised-pork-ribs/,-0.027181809740149436,0.03802057209052851,-0.012491741379443018,0.03300470555771473,-0.014858897815127019,0.0,1.0,1.0,0.0,0.0
https://glebekitchen.com/gochujang-mayonnaise/,-0.03807912996166888,-0.005287288491531279,-0.023287436251590306,0.03534847043473362,0.01785666987642658,0.0,0.235207100591716,0.0,0.0,0.0
https://glebekitchen.com/korean-chicken-wings-gochujang-sauce/,-0.014263239098769495,-0.006159103869030511,-0.010924068046233283,-0.010170409069674476,-0.01173595494980971,1.0,1.0,1.0,1.0,1.0
https://mykoreankitchen.com/spicy-mayo-recipe/,0.006950005258602689,-0.009555972612540454,0.016496800676633686,0.0007990781203513005,0.06560400569432728,0.0,0.0,0.0,0.0,0.0
https://mykoreankitchen.com/strawberry-milk/,0.08644852384793411,-0.11881583082471331,0.027585423117583635,0.04693437750358405,0.05286765515207893,1.0,0.0,0.0,0.0,1.0
https://mykoreankitchen.com/dakgangjeong-soy-garlic-fried-chicken/,0.0036799841581738177,0.003268974945429883,0.003385063737858963,-0.025885193187945337,0.0065102252188171065,1.0,1.0,0.0,1.0,1.0
https://mykoreankitchen.com/chili-oil-recipe/,-0.04980309016128334,0.010078373230614475,0.015899252583219753,-0.0096996619082523,0.003944859455958334,1.0,0.0,1.0,1.0,1.0
https://mykoreankitchen.com/dalgona-coffee-whipped-coffee/,0.07905227974851886,-0.11726750153668201,0.03831730367555516,0.036847762343861445,0.0296100257351581,0.0,0.0,0.0,0.0,1.0
https://mykoreankitchen.com/omelet-rice-omurice/,0.038664172994418905,-0.0035901570261617226,-0.03764939885887115,-0.04037195367725394,-0.03094517057082281,1.0,1.0,1.0,1.0,1.0
https://mykoreankitchen.com/tuna-pancakes-chamchijeon/,-0.04340664556146486,-0.0090752552445194,-0.0018640826713884897,0.0014083032788830122,-0.009169018635316025,0.0,0.0,0.0,0.0,0.0
https://mykoreankitchen.com/pan-fried-zucchini/,-0.07255595011298059,-0.03395086172223951,-0.009858356369764702,0.02775859698954602,-0.011384267162576438,0.0,0.0,0.0,0.0,0.0
https://mykoreankitchen.com/slow-cooker-short-ribs/,0.012506238192044272,0.006070310468645828,-0.01617158983389933,-0.03608415071092646,-0.011917527454245564,1.0,0.0,0.0,1.0,1.0
https://mykoreankitchen.com/korean-ground-beef-rice-bowls/,0.016207327639169867,0.02371699745402721,-0.0038725020986428212,-0.013054092603813256,-0.011779749535496648,0.0,0.0,1.0,0.0,1.0
https://mykoreankitchen.com/doenjang-jjigae/,-0.02091696909130983,0.02170887580888879,-0.00030821917029673384,-0.012904074847325255,-0.014074310692266803,0.0,0.0,0.0,0.0,0.0
https://mykoreankitchen.com/spicy-sweet-and-vinegary-noodles-bibim-guksu/,-0.002520540735328594,0.021395993712018297,0.0029980286376048494,0.0044362212677991055,-0.00823363744478832,1.0,0.0,0.0,1.0,1.0
https://mykoreankitchen.com/galbitang-beef-short-rib-soup/,0.02621656026697469,0.016707320708705512,-0.05841352515331855,0.011607062037979453,-0.011673693613902492,0.0,1.0,0.0,1.0,0.0
https://mykoreankitchen.com/nuclear-fire-noodle-fries/,-0.013514629354393484,0.014934674386728426,0.013349649139281288,0.020670558470976517,-0.004984919727342353,1.0,0.0,1.0,1.0,0.0
https://mykoreankitchen.com/kimchi-jjim-braised-kimchi/,-0.004107680481625284,0.0305924577324869,0.010163687331152822,-0.013967599180077814,-0.003494136783852645,0.0,0.0,0.0,0.0,0.0
https://mykoreankitchen.com/air-fryer-chicken-wings/,0.0060969205500767025,0.0014083177888138086,-0.0005258940913886337,-0.03002158162519453,0.008633844380211446,0.0,0.0,0.0,1.0,1.0
https://mykoreankitchen.com/pickled-radishes/,0.005048928404328663,0.059899119730642,-0.002345605915280586,0.034935457939812044,-0.00625969624090856,0.0,0.0,0.0,0.0,0.0
https://mykoreankitchen.com/air-fryer-chickpeas/,-0.007466606939565588,-0.005366530277232322,0.013391225409440818,-0.015415847502409654,0.023538039649738864,0.0,0.0,0.0,0.0,0.0
https://mykoreankitchen.com/bean-sprout-rice-kongnamul-bap/,-0.02483665346740161,0.014171545773138781,0.006271048302136737,-0.01780178048492594,-0.010523575837569358,1.0,0.0,0.0,1.0,0.0
https://mykoreankitchen.com/gochujang-chicken/,0.0049781194653274324,0.008570713824457853,0.0020491087897274323,-0.026506517366170296,0.009597439958379823,1.0,1.0,0.0,1.0,1.0
https://mykoreankitchen.com/korean-style-tuna-cakes/,-0.013752809531981285,0.002814047149143239,-0.019763174341236416,0.001598596474891139,0.007884625499505096,0.0,0.0,0.0,0.0,0.0
https://www.justonecookbook.com/corn-dogs/,0.04148975832012539,-0.0644451079122527,-0.03935532697535665,0.003414734386381088,0.0011001155925603973,0.2470501474926253,0.235207100591716,0.2431430689399555,0.18065967016491755,0.2341389728096677
https://www.justonecookbook.com/renkon-chips/,0.04995413507014497,0.015973000219778342,0.03853233922422212,-0.017404952459690065,0.006522911853775638,0.2470501474926253,0.235207100591716,0.2431430689399555,0.18065967016491755,0.2341389728096677
https://www.justonecookbook.com/mini-fruit-puff-pastry-with-lemon-glaze/,0.037113787177043736,-0.07756083731730054,-0.024219713683570766,0.0192085248481191,0.024950327296671838,0.2470501474926253,0.235207100591716,0.2431430689399555,0.18065967016491755,0.2341389728096677
https://www.justonecookbook.com/tandoori-chicken-puffs/,0.02255506668930686,-0.03143244555049423,-0.020937154992592494,0.01127307755974111,0.026245607278776763,0.2470501474926253,0.235207100591716,0.2431430689399555,0.18065967016491755,0.2341389728096677
https://www.justonecookbook.com/steamed-cake/,0.0263743266259856,-0.06109173719556952,-0.029663781310435098,-0.013570864311042208,-0.008045227147204747,0.2470501474926253,0.235207100591716,0.2431430689399555,0.18065967016491755,0.2341389728096677
https://www.justonecookbook.com/candied-sweet-potatoes/,-0.012850144298494882,-0.0009748311855537346,0.0037258785551797582,0.0003251561712016747,-0.007919252588731085,0.2470501474926253,0.235207100591716,0.2431430689399555,0.18065967016491755,0.2341389728096677
https://www.justonecookbook.com/oyaki/,0.05236492462500949,0.04305423797023519,0.00907743252833973,0.04004822685991568,0.014992298981843278,0.2470501474926253,0.235207100591716,0.2431430689399555,0.18065967016491755,0.2341389728096677
https://www.justonecookbook.com/how-to-enjoy-japanese-mochi/,0.053031277965419774,-0.00983175672502239,0.025152358492968135,-0.07824549628458623,-0.03534431562002704,0.2470501474926253,0.235207100591716,0.2431430689399555,0.18065967016491755,0.2341389728096677
https://www.justonecookbook.com/green-tea-steamed-cake/,0.14700389871449956,-0.058442899083636146,0.06548649039010745,0.001345953098132779,-0.03212422003435678,0.2470501474926253,0.235207100591716,0.2431430689399555,0.18065967016491755,0.2341389728096677
https://www.justonecookbook.com/spicy-edamame/,-0.03498838420773601,-0.024928782292581615,0.012630184169763291,0.003116563908271617,0.0075032018582861576,0.2470501474926253,0.235207100591716,0.2431430689399555,0.18065967016491755,0.2341389728096677
https://www.justonecookbook.com/japanese-fruit-sandwich-fruit-sando/,-0.005205130633934189,-0.052907599743535434,0.014255881459583038,0.006689122869379918,0.03287456829904418,0.2470501474926253,0.235207100591716,0.2431430689399555,0.18065967016491755,0.2341389728096677
https://www.justonecookbook.com/roast-chestnuts/,0.08762967536936572,0.030259091886250103,-0.016736468148738505,-0.04964988409951658,-0.019759118976363517,0.2470501474926253,0.235207100591716,0.2431430689399555,0.18065967016491755,0.2341389728096677
https://www.justonecookbook.com/rice-cracker-recipe/,-0.034136883814353536,-0.03031462330560141,0.010956742263625297,0.013412864905601745,0.006230642613063768,0.2470501474926253,0.235207100591716,0.2431430689399555,0.18065967016491755,0.2341389728096677
https://www.justonecookbook.com/takoyaki-recipe/,0.036515988064252526,0.022382694750786917,-0.024610430706206776,0.0459030389034545,-0.00979298880845269,0.2470501474926253,0.235207100591716,0.2431430689399555,0.18065967016491755,0.2341389728096677
https://www.justonecookbook.com/nikuman-steamed-pork-buns/,-0.03327326081079289,-0.009760466645110015,-0.0004980565686627448,-0.0012295909928955674,-0.012704761423090951,0.2470501474926253,0.235207100591716,0.2431430689399555,0.18065967016491755,0.2341389728096677
https://www.justonecookbook.com/homemade-popcorn-with-truffle-salt/,-0.04110073217047755,-0.02902942800551455,0.011045985355471015,0.009834775413702179,0.0028750474016009295,0.2470501474926253,0.235207100591716,0.2431430689399555,0.18065967016491755,0.2341389728096677
https://www.justonecookbook.com/sata-andagi/,0.003071782506874371,-0.0629708625992227,-0.027981327128528174,0.01332033743834543,-0.0056869404520957685,0.2470501474926253,0.235207100591716,0.2431430689399555,0.18065967016491755,0.2341389728096677
https://www.justonecookbook.com/banana-bread/,-0.02108657495810147,-0.05264002396321263,-0.0066047521817572934,0.016341418157988195,0.006539401668613166,0.2470501474926253,0.235207100591716,0.2431430689399555,0.18065967016491755,0.2341389728096677
https://www.justonecookbook.com/seared-tuna-aburi-toro/,-0.0650781544993969,0.021864966368297205,0.004377863834261341,0.024167116170324666,-0.004784499094339539,0.2470501474926253,0.235207100591716,0.2431430689399555,0.18065967016491755,0.2341389728096677
https://www.justonecookbook.com/chicken-spring-rolls/,-0.03970374216621073,0.007710309506937697,0.01241015987585338,0.0043818371096964,0.00408563554625853,0.2470501474926253,0.235207100591716,0.2431430689399555,0.18065967016491755,0.2341389728096677
https://www.justonecookbook.com/gyoza-with-wings-hanetsuki-gyoza/,-0.03486993869127144,-0.03630133065614081,0.01000641060692483,0.011290876317327305,0.0028922120636185817,0.2470501474926253,0.235207100591716,0.2431430689399555,0.18065967016491755,0.2341389728096677
https://www.justonecookbook.com/sauteed-abalone/,0.07014292259103706,0.04154699190247956,-0.012679447728190418,0.05320679385498732,-0.005034937894628326,0.2470501474926253,0.235207100591716,0.2431430689399555,0.18065967016491755,0.2341389728096677
https://www.justonecookbook.com/grilled-oysters-ponzu-sauce/,0.07946905454170636,0.09036712603386904,0.0026069632150439717,0.05208592485508084,0.038960759516691486,0.2470501474926253,0.235207100591716,0.2431430689399555,0.18065967016491755,0.2341389728096677
https://www.justonecookbook.com/japanese-clams-sake-steamed-clams/,-0.028618739015227962,0.02110715806430269,0.01584409556149283,-0.02944792045696203,0.011979238463604209,0.2470501474926253,0.235207100591716,0.2431430689399555,0.18065967016491755,0.2341389728096677
https://www.justonecookbook.com/miso-dengaku/,0.08696134174870195,0.07683141968022908,-0.023424866024955856,0.0321823459843026,-0.006754743389923984,0.2470501474926253,0.235207100591716,0.2431430689399555,0.18065967016491755,0.2341389728096677
https://www.justonecookbook.com/thai-chicken-lettuce-wraps/,0.0011534054908533748,0.02255398551617935,-5.113312903679716e-05,-0.007982558351049142,0.0041437208896042245,0.2470501474926253,0.235207100591716,0.2431430689399555,0.18065967016491755,0.2341389728096677
https://www.justonecookbook.com/shrimp-egg-rolls/,-0.0369941454250112,-0.029392570587158537,-0.007690781988162799,0.017498591962598887,-0.002029888555122108,0.2470501474926253,0.235207100591716,0.2431430689399555,0.18065967016491755,0.2341389728096677
https://www.justonecookbook.com/agedashi-tofu-2/,0.13097537139484725,0.1006417577491642,-0.03529211996729031,0.05022188865505592,-0.016474171201089412,0.2470501474926253,0.235207100591716,0.2431430689399555,0.18065967016491755,0.2341389728096677
https://www.justonecookbook.com/tazukuri-candied-sardines/,-0.018139152773339672,-0.024302556055821697,0.0122086577242467,0.0035372911008707945,0.009222184417862865,0.2470501474926253,0.235207100591716,0.2431430689399555,0.18065967016491755,0.2341389728096677
https://www.justonecookbook.com/pickled-chrysanthemum-turnip/,0.06709527735448752,0.0681850144503385,0.014116708400761764,0.035782111639447764,0.032815479005659585,0.2470501474926253,0.235207100591716,0.2431430689399555,0.18065967016491755,0.2341389728096677
https://www.justonecookbook.com/bitter-melon-salad/,-0.037691233615544655,0.009628358087200646,0.0021843614988916534,0.02240562475657118,-0.01351675101640243,0.2470501474926253,0.235207100591716,0.2431430689399555,0.18065967016491755,0.2341389728096677
https://www.justonecookbook.com/spicy-miso-chicken/,0.04280923603223609,0.08789330757056012,-0.012540427404607642,0.07223562703290494,-0.0017130387916743175,0.2470501474926253,0.235207100591716,0.2431430689399555,0.18065967016491755,0.2341389728096677
https://www.justonecookbook.com/cheese-tart/,0.011066658234499585,-0.07521683884283818,-0.053977655180763334,0.02737473658605607,-0.009167538968935945,0.2470501474926253,0.235207100591716,0.2431430689399555,0.18065967016491755,0.2341389728096677
https://www.justonecookbook.com/bbq-king-crab/,-0.04669002188790425,0.022500050265976117,0.00875547598053791,0.006148012599060222,-0.002105818347936933,0.2470501474926253,0.235207100591716,0.2431430689399555,0.18065967016491755,0.2341389728096677
https://www.justonecookbook.com/eggplant-agebitashi/,0.086789474823427,0.08747404215149927,-0.023824389308128288,0.052834464761907916,-0.01011396495824534,0.2470501474926253,0.235207100591716,0.2431430689399555,0.18065967016491755,0.2341389728096677
https://www.justonecookbook.com/tsukune/,0.06492534363938195,0.10046826119692426,-0.0008770093603292562,0.052230267081691116,0.02847621580557831,0.2470501474926253,0.235207100591716,0.2431430689399555,0.18065967016491755,0.2341389728096677
https://www.justonecookbook.com/fresh-spring-rolls-yakiniku/,-0.013967106663847555,0.008433343756508638,0.018101806288444527,0.0064417009867737945,0.01854389402412099,0.2470501474926253,0.235207100591716,0.2431430689399555,0.18065967016491755,0.2341389728096677
https://www.justonecookbook.com/garlic-soy-marinated-albacore/,-0.09111137783491806,-0.0006161131228700005,0.017541239135954855,0.030293449586765397,-0.008720014269739788,0.2470501474926253,0.235207100591716,0.2431430689399555,0.18065967016491755,0.2341389728096677
https://www.justonecookbook.com/tuna-tataki/,-0.031333676454727885,-0.006542822042530881,0.013145620515630492,0.007672346869833042,0.009102783578904839,0.2470501474926253,0.235207100591716,0.2431430689399555,0.18065967016491755,0.2341389728096677
https://www.justonecookbook.com/gyutan-bbq-beef-tongue/,0.014321339015440658,0.044887257906939135,0.011933279670040639,0.050467684942032694,0.03621953726375638,0.2470501474926253,0.235207100591716,0.2431430689399555,0.18065967016491755,0.2341389728096677
https://www.justonecookbook.com/teriyaki-wings/,-0.046482056687500765,0.0011757970124540136,0.0014279507952505736,0.011606290638838924,0.0001424440272493491,0.2470501474926253,0.235207100591716,0.2431430689399555,0.18065967016491755,0.2341389728096677
https://www.justonecookbook.com/salmon-kombu-roll/,-0.024761102652664006,0.019473474249074703,-0.006527249256410919,0.03453293920967692,-0.00780497609037855,0.2470501474926253,0.235207100591716,0.2431430689399555,0.18065967016491755,0.2341389728096677
https://www.justonecookbook.com/ham-katsu/,0.06574747896635623,-0.02066178878124391,-0.08924778168422602,0.014336136194793937,0.02251513077815975,0.2470501474926253,0.235207100591716,0.2431430689399555,0.18065967016491755,0.2341389728096677
https://www.justonecookbook.com/octopus-carpaccio/,-0.0395596749416464,0.0034519070962931815,0.013953249632759672,0.006265689760984808,0.02587789511874811,0.2470501474926253,0.235207100591716,0.2431430689399555,0.18065967016491755,0.2341389728096677
https://www.justonecookbook.com/grilled-clams-little-neck-clams/,-0.02717908254152245,0.020318710203821064,-0.004728638477642005,0.03380821519897972,0.004174373000269328,0.2470501474926253,0.235207100591716,0.2431430689399555,0.18065967016491755,0.2341389728096677
https://www.justonecookbook.com/napa-cabbage-gyoza/,-0.024436880498411057,0.01523247715120372,-0.0024778044670787005,-0.004341474622748464,-0.01750898705212276,0.2470501474926253,0.235207100591716,0.2431430689399555,0.18065967016491755,0.2341389728096677
https://www.justonecookbook.com/teba-shio-salted-chicken-wings/,-0.002644484302727796,0.03950225525692123,-0.015898316060071232,0.01874115926754037,0.03158978229040085,0.2470501474926253,0.235207100591716,0.2431430689399555,0.18065967016491755,0.2341389728096677
https://www.justonecookbook.com/japanese-tofu-cold-tofu-hiyayakko/,0.15450582972490562,0.09472884957283219,-0.03631881146616364,0.012538688443922134,0.015292286195632467,0.2470501474926253,0.235207100591716,0.2431430689399555,0.18065967016491755,0.2341389728096677
https://www.justonecookbook.com/eggplant-with-sesame-ponzu-sauce/,0.05811128434315937,0.10595009639839287,0.011468544569889157,0.03214585363806046,0.03776224487476664,0.2470501474926253,0.235207100591716,0.2431430689399555,0.18065967016491755,0.2341389728096677
https://www.justonecookbook.com/chawanmushi-with-shrimp/,0.027664008487239506,0.033385381578862484,-0.03683074097175873,0.0543225289142934,-0.028591909375311628,0.2470501474926253,0.235207100591716,0.2431430689399555,0.18065967016491755,0.2341389728096677
https://www.justonecookbook.com/instant-pot-chawanmushi/,0.04709977074281915,0.040557513304260696,-0.03400319857003663,0.06267665143038084,-0.028517497348244707,0.2470501474926253,0.235207100591716,0.2431430689399555,0.18065967016491755,0.2341389728096677
https://www.justonecookbook.com/burrata-crostini/,0.16048230610899658,0.1158397951977534,-0.011060661783100436,0.1115886466366274,0.07675166695042222,0.2470501474926253,0.235207100591716,0.2431430689399555,0.18065967016491755,0.2341389728096677
https://www.justonecookbook.com/coconut-shrimp/,0.036121485607297193,0.01795364340324617,-0.05363531300321617,-0.008578205280444175,0.031103141776442557,0.2470501474926253,0.235207100591716,0.2431430689399555,0.18065967016491755,0.2341389728096677
https://www.justonecookbook.com/japanese-pickled-cucumber/,-0.059623254473234286,0.0001960999308533805,0.017960829684389584,0.014377565702871716,-0.00022693558997023463,0.2470501474926253,0.235207100591716,0.2431430689399555,0.18065967016491755,0.2341389728096677
https://www.justonecookbook.com/asian-meatball-karaage/,0.015111504295311447,-0.019454384907419082,-0.03440667387545838,-0.023762783305686527,-0.021329228633631542,0.2470501474926253,0.235207100591716,0.2431430689399555,0.18065967016491755,0.2341389728096677
https://www.justonecookbook.com/datemaki-sweet-rolled-omelette/,-0.006016223854756332,-0.018246766231134276,-0.03401893220708992,0.049002174264969806,-0.006800398081023012,0.2470501474926253,0.235207100591716,0.2431430689399555,0.18065967016491755,0.2341389728096677
https://www.justonecookbook.com/hijiki-salad/,0.10303217154440446,0.06454704216935048,-0.0016807888173852477,0.04439731899853227,-0.027532564538714204,0.2470501474926253,0.235207100591716,0.2431430689399555,0.18065967016491755,0.2341389728096677
https://www.justonecookbook.com/temari-sushi/,0.11107857776881928,0.0764735211386806,-0.02447492664414791,0.04092192354219166,0.00014587924654178418,0.2470501474926253,0.235207100591716,0.2431430689399555,0.18065967016491755,0.2341389728096677
https://www.justonecookbook.com/slow-cooker-sriracha-chili-chicken-wings/,-0.006534475616505017,0.0005686329215534197,-0.01315086357786062,-0.017245171309429312,0.013147400261189416,0.2470501474926253,0.235207100591716,0.2431430689399555,0.18065967016491755,0.2341389728096677
https://www.justonecookbook.com/momofuku-fried-chicken/,-0.037195292080991545,-0.006174687559033354,0.0010138234453449882,-0.0084552553599907,0.0025552868912378105,0.2470501474926253,0.235207100591716,0.2431430689399555,0.18065967016491755,0.2341389728096677
https://www.justonecookbook.com/braised-pork-belly-kakuni/,0.0753542646783532,0.06684927606879801,-0.03146690842064575,0.03501369073560079,-0.007981678465985366,0.2470501474926253,0.235207100591716,0.2431430689399555,0.18065967016491755,0.2341389728096677
https://www.justonecookbook.com/bbq-chicken-wings/,-0.02434227427156283,0.004811842058939985,-0.0020332624473527543,0.0027856808933018323,0.007439781882409111,0.2470501474926253,0.235207100591716,0.2431430689399555,0.18065967016491755,0.2341389728096677
https://www.justonecookbook.com/japanese-beef-tendon-stew/,0.07616392262919153,0.08681696787388049,-0.02028447969679385,0.05483211534476523,-0.027500540349317752,0.2470501474926253,0.235207100591716,0.2431430689399555,0.18065967016491755,0.2341389728096677
https://www.justonecookbook.com/japanese-grilled-eggplant-yaki-nasu/,0.08151026406674373,0.10561799682390238,-0.0052191742519865055,0.06353621655222393,0.04982925255413129,0.2470501474926253,0.235207100591716,0.2431430689399555,0.18065967016491755,0.2341389728096677
https://www.justonecookbook.com/kamaboko-with-salmon-roe/,0.6604850654081171,0.5846707792648469,0.07474546818664592,0.22765299401867375,0.2635994953446934,0.2470501474926253,0.235207100591716,0.2431430689399555,0.18065967016491755,0.2341389728096677
https://www.justonecookbook.com/gluten-free-karaage/,0.0035522132039758135,0.007988082390803399,-0.0075968683826732036,0.0026232091462289374,0.004732435230908245,0.2470501474926253,0.235207100591716,0.2431430689399555,0.18065967016491755,0.2341389728096677
https://www.justonecookbook.com/edamame/,-0.09262676438453216,-0.015429130427536838,0.018713192028591463,0.03065239314918337,-0.0053471369154761,0.2470501474926253,0.235207100591716,0.2431430689399555,0.18065967016491755,0.2341389728096677
https://www.justonecookbook.com/egg-tofu/,0.09310815105146086,0.05330282552111246,-0.04806973199977955,0.0861792313084126,-0.03837668854554269,0.2470501474926253,0.235207100591716,0.2431430689399555,0.18065967016491755,0.2341389728096677
https://www.justonecookbook.com/spring-rolls-with-sesame-ponzu-vinaigrette/,0.04176085991821442,0.06402681835402556,-0.00919993728186921,0.016515675956379584,0.010651313138186626,0.2470501474926253,0.235207100591716,0.2431430689399555,0.18065967016491755,0.2341389728096677
https://www.justonecookbook.com/chawanmushi-with-matsutake-mushroom/,0.06922137485445218,0.04113782590122683,-0.0479126791311771,0.07711864870726691,-0.0375905080920935,0.2470501474926253,0.235207100591716,0.2431430689399555,0.18065967016491755,0.2341389728096677
https://www.justonecookbook.com/nagoya-style-fried-chicken-wings/,-0.019606255494549463,-0.0043622554148502,-0.008246278293092527,-0.0009489515493417766,-0.005711391509834708,0.2470501474926253,0.235207100591716,0.2431430689399555,0.18065967016491755,0.2341389728096677
https://www.justonecookbook.com/fried-chicken-wings/,-0.013385458118758985,-0.016454661019525516,-0.008390000034523276,-0.016142956041235345,0.0046476980601010374,0.2470501474926253,0.235207100591716,0.2431430689399555,0.18065967016491755,0.2341389728096677
https://www.justonecookbook.com/chawanmushi-savory-steamed-egg-custard/,0.027942667016855702,0.031225618523992985,-0.03069199799581901,0.05077536818689743,-0.02692552283546479,0.2470501474926253,0.235207100591716,0.2431430689399555,0.18065967016491755,0.2341389728096677
https://www.justonecookbook.com/karashi-renkon/,0.06419492541344576,0.01875683993731308,-0.016687302453029546,0.01675285474287673,0.006082008668921873,0.2470501474926253,0.235207100591716,0.2431430689399555,0.18065967016491755,0.2341389728096677
https://www.justonecookbook.com/cranberry-brie-bites/,0.0941445012502295,-0.022840115305940715,-0.03411441605645317,-0.05239114784275386,0.10337039074418375,0.0,0.0,0.0,0.0,0.0
https://www.justonecookbook.com/shishamo-wrap/,0.1159763754950541,0.04097036639361114,0.04282184425846791,0.05607419271590471,0.024608460499276192,0.2470501474926253,0.235207100591716,0.2431430689399555,0.18065967016491755,0.2341389728096677
https://www.justonecookbook.com/boiled-squid-with-miso-vinaigrette/,0.006893267064056762,0.04483899372150135,-0.0016773952644502596,0.03399650016618963,-0.006981767609890542,0.2470501474926253,0.235207100591716,0.2431430689399555,0.18065967016491755,0.2341389728096677
https://www.justonecookbook.com/vegan-miso-soup/,0.14672029264701425,0.1103330605102971,-0.02754879918852351,0.05833765317136922,-0.03717172322513749,0.2470501474926253,0.235207100591716,0.2431430689399555,0.18065967016491755,0.2341389728096677
https://www.justonecookbook.com/kimchi-gyoza-nabe/,0.040072895998350774,0.07382472415459988,-0.016847620295986947,0.024908972505771943,-0.02740781376927495,0.0,0.0,0.0,0.18065967016491755,1.0
https://www.justonecookbook.com/ozoni-zoni-japanese-new-year-mochi-soup/,0.24517652911916535,0.16412595916422065,-0.039211322096281975,0.08819849512986232,0.03994489199388329,0.2470501474926253,0.235207100591716,0.2431430689399555,0.18065967016491755,0.2341389728096677
https://www.justonecookbook.com/potato-leek-soup/,-0.05774640626554236,-0.02320253005143402,0.006093362030454649,0.013368839931216937,-0.005276498661027813,0.2470501474926253,0.235207100591716,0.2431430689399555,0.18065967016491755,0.2341389728096677
https://www.justonecookbook.com/homemade-miso-soup/,0.17979422768864095,0.15368314179322629,-0.034955369975181644,0.10886987049132509,-0.03293936174256985,0.2470501474926253,0.235207100591716,0.2431430689399555,0.18065967016491755,0.2341389728096677
https://www.justonecookbook.com/miso-soup-yuzu-kosho/,0.08149930588975701,0.08487155290726678,-0.017102898839114748,0.043969796527722343,-0.0006472826324977371,0.2470501474926253,0.235207100591716,0.2431430689399555,0.18065967016491755,0.2341389728096677
https://www.justonecookbook.com/nabeyaki-udon/,0.07768798445845643,0.06813349063881106,-0.03198297610449438,0.042524391531220736,-0.025824569011897586,0.2470501474926253,0.235207100591716,0.2431430689399555,0.18065967016491755,0.2341389728096677
https://www.justonecookbook.com/kimchi-nabe/,0.04975446203655066,0.07068297828016012,-0.015201502370840584,0.026594825262832595,-0.03727028025012563,0.2470501474926253,0.235207100591716,0.2431430689399555,0.18065967016491755,0.2341389728096677
https://www.justonecookbook.com/chanko-nabe-sumo-stew/,0.06420499906810345,0.06660367212341363,-0.05100433425009988,0.02442156564036952,-0.02489854898349331,0.2470501474926253,0.235207100591716,0.2431430689399555,0.18065967016491755,0.2341389728096677
https://www.justonecookbook.com/monkfish-hot-pot/,0.07991022185626535,0.10964196787416257,-0.02681454477328671,0.048214608739551704,-0.03604961673793167,0.2470501474926253,0.235207100591716,0.2431430689399555,0.18065967016491755,0.2341389728096677
https://www.justonecookbook.com/mille-feuille-nabe/,0.07345391408873876,0.09691087598804994,-0.024977101468137797,0.03724715293425325,-0.021515481408615998,0.2470501474926253,0.235207100591716,0.2431430689399555,0.18065967016491755,0.2341389728096677
https://www.justonecookbook.com/thomas-kellers-clam-chowder-giveaway-winners/,0.007935936787832321,-0.016565590333753575,-0.002403730186581861,-0.005148850913438458,0.02551886886835604,0.2470501474926253,0.235207100591716,0.2431430689399555,0.18065967016491755,0.2341389728096677
https://www.justonecookbook.com/kabocha-miso-soup/,0.026108029829070494,0.048317421170666834,0.0023628182575668537,0.0344906450844211,-0.010225787968238446,0.2470501474926253,0.235207100591716,0.2431430689399555,0.18065967016491755,0.2341389728096677
https://www.justonecookbook.com/pressure-cooker-oxtail-soup/,-0.012251316766148806,0.016815504366002886,-0.0017781416596632778,-0.01764066658193665,0.013357517114680494,0.2470501474926253,0.235207100591716,0.2431430689399555,0.18065967016491755,0.2341389728096677
https://www.justonecookbook.com/shrimp-pork-wonton/,-0.017072040571819127,0.017112097795525177,-0.006431258440318897,-0.004548637528554375,-0.01037925461974274,0.2470501474926253,0.235207100591716,0.2431430689399555,0.18065967016491755,0.2341389728096677
https://www.justonecookbook.com/bouillabaisse-french-seafood-stew/,-0.024953707443935744,0.018749862536592832,0.0038483446628773863,-0.0067099243161312175,0.02520262647636909,0.2470501474926253,0.235207100591716,0.2431430689399555,0.18065967016491755,0.2341389728096677
https://www.justonecookbook.com/taiwanese-hot-pot-and-homemade-meatballs/,0.012155168843630413,0.0033707776529231822,-0.047023339461029816,0.0025645367127505184,-0.024980691605677105,0.2470501474926253,0.235207100591716,0.2431430689399555,0.18065967016491755,0.2341389728096677
https://www.justonecookbook.com/japanese-clam-soup-clear-broth/,0.039123326879776626,0.08295539163357245,0.007094681584964907,0.08174806181053686,-0.019577786565070993,0.2470501474926253,0.235207100591716,0.2431430689399555,0.18065967016491755,0.2341389728096677
https://www.justonecookbook.com/chicken-corn-chowder-with-roasted-potato/,0.005679702756910568,-0.005554815798828569,-0.01483442807237255,-0.017463273131360958,0.010159025925935095,0.2470501474926253,0.235207100591716,0.2431430689399555,0.18065967016491755,0.2341389728096677
https://www.justonecookbook.com/miso-nikomi-udon/,0.14732736973434216,0.115926977835185,-0.052577191904947564,0.09040155033576777,-0.03939464504981942,0.2470501474926253,0.235207100591716,0.2431430689399555,0.18065967016491755,0.2341389728096677
https://www.justonecookbook.com/kale-soup/,-0.052222493816874,-0.008088812111775185,-0.0007188643431648756,0.016925482465290083,-0.009279587296415471,0.2470501474926253,0.235207100591716,0.2431430689399555,0.18065967016491755,0.2341389728096677
https://www.justonecookbook.com/hayashi-rice/,-0.03289348543736408,-0.00531399335170044,0.011726333717516241,-0.0025083781781775113,0.011705269341274254,0.2470501474926253,0.235207100591716,0.2431430689399555,0.18065967016491755,0.2341389728096677
https://www.justonecookbook.com/instant-pot-cream-stew/,-0.014997193440106402,-0.001234127130182469,0.004126200146970943,0.0014532963603177242,0.005134805450180451,0.2470501474926253,0.235207100591716,0.2431430689399555,0.18065967016491755,0.2341389728096677
https://www.justonecookbook.com/clam-soup/,0.05273555416789861,0.08409898831733123,-0.0002473680944611842,0.06491360710589915,-0.01604938270254911,0.2470501474926253,0.235207100591716,0.2431430689399555,0.18065967016491755,0.2341389728096677
https://www.justonecookbook.com/sukiyaki/,0.0840125846092464,0.07847073941582065,-0.02460522350090188,0.04384058687042745,-0.04355228580869266,0.2470501474926253,0.235207100591716,0.2431430689399555,0.18065967016491755,0.2341389728096677
https://www.justonecookbook.com/hot-pot-for-one/,0.091088554893043,0.13031409665842225,-0.04298670830468694,0.029364442356874618,-0.011935758246713129,0.2470501474926253,0.235207100591716,0.2431430689399555,0.18065967016491755,0.2341389728096677
https://www.justonecookbook.com/homemade-instant-miso-soup/,0.09632099048794696,0.07049601855623076,-0.013302155875337673,0.07396332845160417,-0.029420422737932675,0.2470501474926253,0.235207100591716,0.2431430689399555,0.18065967016491755,0.2341389728096677
https://www.justonecookbook.com/kimchi-soup-with-malony-glass-noodles/,-0.0363244174518495,0.007210142708020487,-0.008283242067360922,0.014951489150673758,-0.016265301838965587,0.2470501474926253,0.235207100591716,0.2431430689399555,0.18065967016491755,0.2341389728096677
https://www.justonecookbook.com/oxtail-oden/,0.09102498978061513,0.062191071203599624,-0.04120616490555861,0.0404831546192218,-0.03046073091159557,0.2470501474926253,0.235207100591716,0.2431430689399555,0.18065967016491755,0.2341389728096677
https://www.justonecookbook.com/kabocha-squash-soup/,-0.018956087671575715,-0.012659987733383095,-0.005690912973012292,0.01955777615554778,0.0007031831675427484,0.2470501474926253,0.235207100591716,0.2431430689399555,0.18065967016491755,0.2341389728096677
https://www.justonecookbook.com/vegetable-miso-soup/,0.08453701512092761,0.0743827609199737,-0.008574640319015843,0.01488022437863497,-0.03156358927936296,0.2470501474926253,0.235207100591716,0.2431430689399555,0.18065967016491755,0.2341389728096677
https://www.justonecookbook.com/zosui-japanese-rice-soup/,0.003979625801261958,0.017397806833624675,-0.01793645760907268,0.026484103555384213,-0.014899359704710072,0.2470501474926253,0.235207100591716,0.2431430689399555,0.18065967016491755,0.2341389728096677
https://www.justonecookbook.com/white-stew/,-0.014561077076068386,-0.013190960557755973,-0.0035209036698137536,0.002944472864438825,0.007605185137511394,0.0,1.0,0.0,1.0,1.0
https://www.justonecookbook.com/kimchi-chigae/,0.001582943154866027,0.027636464190403026,-0.0037095051262591256,0.01608235946554742,-0.032755061159019216,0.2470501474926253,0.235207100591716,0.2431430689399555,0.18065967016491755,0.2341389728096677
https://www.justonecookbook.com/corn-potage/,-0.01202522038513597,-0.022653403965180247,-0.0020788259989512024,-0.008030193787638097,0.014065083526791476,0.2470501474926253,0.235207100591716,0.2431430689399555,0.18065967016491755,0.2341389728096677
https://www.justonecookbook.com/instant-pot-tonjiru/,0.13355117245820036,0.09991480757640439,-0.03416515457615551,0.044504089723329004,0.0024301010468815577,0.2470501474926253,0.235207100591716,0.2431430689399555,0.18065967016491755,0.2341389728096677
https://www.justonecookbook.com/pressure-cooker-oxtail-broth/,-0.09753092172921114,-0.010451537901283444,0.020794993576667975,0.02914391538765647,-0.005630884177988681,0.2470501474926253,0.235207100591716,0.2431430689399555,0.18065967016491755,0.2341389728096677
https://www.justonecookbook.com/matsutake-clear-soup/,0.06776468678747562,0.06978752951745436,-0.02250110820295068,0.04791658649151117,0.0114949735813519,0.2470501474926253,0.235207100591716,0.2431430689399555,0.18065967016491755,0.2341389728096677
https://www.justonecookbook.com/creamy-roasted-cauliflower-soup/,-0.014347453647392186,-0.007320967952297312,0.010110396756886394,0.005984523734058431,0.02255722447761076,0.2470501474926253,0.235207100591716,0.2431430689399555,0.18065967016491755,0.2341389728096677
https://www.justonecookbook.com/hot-tofu-yudofu/,0.1112705741340518,0.13023354141126656,-0.01776601362403021,0.09472335609351382,0.030294787215686462,0.2470501474926253,0.235207100591716,0.2431430689399555,0.18065967016491755,0.2341389728096677
https://www.justonecookbook.com/soup-curry/,0.019039169882446423,0.01725517521442837,0.018540111059987808,-0.019462656717154102,0.01847618299267409,0.2470501474926253,0.235207100591716,0.2431430689399555,0.18065967016491755,0.2341389728096677
https://www.justonecookbook.com/coconut-curry/,-0.032942152566188,-0.010972095763869306,0.00897855882545815,-0.001315083232245446,0.004340533754964948,0.2470501474926253,0.235207100591716,0.2431430689399555,0.18065967016491755,0.2341389728096677
https://www.justonecookbook.com/soy-milk-hot-pot-tonyu-nabe/,0.0716434402611472,0.08144455416942842,-0.022481777899988554,0.029901407662569542,-0.021791682015399792,0.2470501474926253,0.235207100591716,0.2431430689399555,0.18065967016491755,0.2341389728096677
https://www.justonecookbook.com/kare-kare-guest-post-by-ang-sarap/,-0.011594227847910473,-0.005729191148845996,-0.008860259381952057,-0.015113531989574948,-0.00935170402291148,0.2470501474926253,0.235207100591716,0.2431430689399555,0.18065967016491755,0.2341389728096677
https://www.justonecookbook.com/shabu-shabu/,0.11265419330001435,0.13761040783502704,-0.032049128971557754,0.042451455705657865,-0.02971172025433061,0.2470501474926253,0.235207100591716,0.2431430689399555,0.18065967016491755,0.2341389728096677
https://www.justonecookbook.com/nameko-mushroom-miso-soup/,0.2629344768536166,0.14361371472786424,-0.06800486589927664,0.09402221562787162,-0.07181468787260996,0.2470501474926253,0.235207100591716,0.2431430689399555,0.18065967016491755,0.2341389728096677
https://www.justonecookbook.com/cherry-blossom-milk-pudding/,0.02020345370085828,-0.06544461335534242,0.018564722548107634,0.005661935767412067,0.015198416660319208,0.2470501474926253,0.235207100591716,0.2431430689399555,0.18065967016491755,0.2341389728096677
https://www.justonecookbook.com/easy-apple-pie/,0.14660369504257925,-0.11641030659246131,-0.20016948250862954,0.04124671883376529,0.0006741561809666575,0.2470501474926253,0.235207100591716,0.2431430689399555,0.18065967016491755,0.2341389728096677
https://www.justonecookbook.com/chocolate-gateau-chocolate-cake/,-0.0019166280608962627,-0.07428133347155656,-0.01978625142068644,0.01888837818032532,0.00310177066762487,0.2470501474926253,0.235207100591716,0.2431430689399555,0.18065967016491755,0.2341389728096677
https://www.justonecookbook.com/matcha-and-white-chocolate-truffles-guest-post-by-with-a-glass/,0.28931395031161516,-0.1032988712712137,0.22542675774696655,0.09927880194823985,-0.05787304165507375,0.2470501474926253,0.235207100591716,0.2431430689399555,0.18065967016491755,0.2341389728096677
https://www.justonecookbook.com/sesame-cookies/,0.0669603686476287,-0.08092809429750229,-0.1224866324205018,0.034308172708396305,-0.0012891410985464713,0.2470501474926253,0.235207100591716,0.2431430689399555,0.18065967016491755,0.2341389728096677
https://www.justonecookbook.com/pineapple-sorbet/,0.007532747525657185,-0.006806107988979929,0.02130286927448362,-0.01493828530624618,0.059119069327210505,0.2470501474926253,0.235207100591716,0.2431430689399555,0.18065967016491755,0.2341389728096677
https://www.justonecookbook.com/dorayaki-japanese-red-bean-pancake/,0.029655968490944713,-0.0343449328652266,-0.0019369542929649456,-0.0375570953541856,-0.013693608987000658,0.2470501474926253,0.235207100591716,0.2431430689399555,0.18065967016491755,0.2341389728096677
https://www.justonecookbook.com/green-tea-cookie-vegan/,0.2346310479691609,-0.07923819974000249,0.18872266538349258,0.07308098702878628,-0.04447253160715558,0.2470501474926253,0.235207100591716,0.2431430689399555,0.18065967016491755,0.2341389728096677
https://www.justonecookbook.com/basque-burnt-cheesecake/,0.019838771684350415,-0.05656561556814354,-0.018354900371047256,0.0025087544770835894,0.002229061562188746,1.0,1.0,1.0,1.0,1.0
https://www.justonecookbook.com/orange-chiffon-cake/,0.0371224053379928,-0.08027503431060246,-0.010539391987524417,-0.00220790587017943,0.012443373211346536,0.2470501474926253,0.235207100591716,0.2431430689399555,0.18065967016491755,0.2341389728096677
https://www.justonecookbook.com/warabi-mochi/,-0.11259639787205022,-0.019861727700588184,0.024226827552114836,0.03456031260122756,-0.014559951417091682,0.2470501474926253,0.235207100591716,0.2431430689399555,0.18065967016491755,0.2341389728096677
https://www.justonecookbook.com/pineapple-upside-down-cake/,0.028204407070416247,-0.07730439058143997,-0.08861129716240083,0.03698610125089857,0.001807937100492949,0.2470501474926253,0.235207100591716,0.2431430689399555,0.18065967016491755,0.2341389728096677
https://www.justonecookbook.com/green-tea-madeleine/,0.10036496380793543,-0.08504164370213521,0.06913479000213832,0.04910523799489353,-0.026228736546310482,0.2470501474926253,0.235207100591716,0.2431430689399555,0.18065967016491755,0.2341389728096677
https://www.justonecookbook.com/yuzu-sorbet/,0.19048210343177496,0.13629549025672016,0.02020389229745061,0.1541131109399671,0.11860565567925509,0.2470501474926253,0.235207100591716,0.2431430689399555,0.18065967016491755,0.2341389728096677
https://www.justonecookbook.com/matcha-zenzai/,0.19749748966840658,-0.04515625202535387,0.10247697173845903,-0.030741387325183833,-0.0713643861027598,0.2470501474926253,0.235207100591716,0.2431430689399555,0.18065967016491755,0.2341389728096677
https://www.justonecookbook.com/frozen-chocolate-banana/,0.02382112504873019,-0.06364160883723577,0.011779683459511548,-0.003177508009197174,0.016180427702212365,0.2470501474926253,0.235207100591716,0.2431430689399555,0.18065967016491755,0.2341389728096677
https://www.justonecookbook.com/custard-cream-pastry-cream/,0.08246531703284399,-0.10784263391063867,-0.11406091061542271,0.031007386115226587,-0.014358772152370126,0.2470501474926253,0.235207100591716,0.2431430689399555,0.18065967016491755,0.2341389728096677
https://www.justonecookbook.com/chocolate-cake-guest-post-by-gourmantines-blog/,-0.03589401708116144,-0.05377307349845467,-0.014749216416038715,0.024604592873765003,-0.0028300526140405667,0.2470501474926253,0.235207100591716,0.2431430689399555,0.18065967016491755,0.2341389728096677
https://www.justonecookbook.com/blueberry-cake/,0.03391784081837044,-0.08586410573193581,-0.09506919175013817,0.04344050287131591,0.0010743842340088167,0.2470501474926253,0.235207100591716,0.2431430689399555,0.18065967016491755,0.2341389728096677
https://www.justonecookbook.com/chocolate-ice-cream/,0.07665154501953336,-0.11853632290309357,-0.11091715635203257,0.04682369316317811,-0.0014932414120821203,0.2470501474926253,0.235207100591716,0.2431430689399555,0.18065967016491755,0.2341389728096677
https://www.justonecookbook.com/coconut-macaroons/,-0.015109988521771815,-0.057150442666853235,-0.023443070176856103,0.024111821515689868,-0.0034603117283933,0.2470501474926253,0.235207100591716,0.2431430689399555,0.18065967016491755,0.2341389728096677
https://www.justonecookbook.com/shiratama-dango/,0.0531739657139079,-0.015510279039607043,-0.005733535155917951,-0.054288976193711244,-0.06858781207329158,0.2470501474926253,0.235207100591716,0.2431430689399555,0.18065967016491755,0.2341389728096677
https://www.justonecookbook.com/green-tea-white-chocolate-cookies/,0.11574795584948717,-0.10382680120459542,-0.03315327573301031,0.054346936958773705,-0.010672849595401275,0.2470501474926253,0.235207100591716,0.2431430689399555,0.18065967016491755,0.2341389728096677
https://www.justonecookbook.com/yuzu-ice-cream/,0.06838425397332264,-0.10994193130989462,-0.11301932059883925,0.04904107194408038,-0.000803114133576151,0.2470501474926253,0.235207100591716,0.2431430689399555,0.18065967016491755,0.2341389728096677
https://www.justonecookbook.com/coffee-ice-cream/,0.0633057657776501,-0.09623593632327812,-0.09217675883728661,0.032061490522408816,-0.005792536199091431,0.2470501474926253,0.235207100591716,0.2431430689399555,0.18065967016491755,0.2341389728096677
https://www.justonecookbook.com/strawberry-cheesecake-ice-cream/,0.0848122276789823,-0.10671389925576207,-0.11414507713457801,0.038445173671391955,0.016624750089305907,0.2470501474926253,0.235207100591716,0.2431430689399555,0.18065967016491755,0.2341389728096677
https://www.justonecookbook.com/chocolate-chiffon-cake/,0.023848300063027354,-0.08690824726731779,-0.01101120915881088,0.007029070735614922,0.0037176961691018475,0.2470501474926253,0.235207100591716,0.2431430689399555,0.18065967016491755,0.2341389728096677
https://www.justonecookbook.com/panettone-bread-pudding/,0.023669130922909988,-0.07317004710844568,-0.010533890740032434,0.008316376580512312,0.03707879396934513,0.0,0.0,1.0,0.0,1.0
https://www.justonecookbook.com/castella/,-0.018536389149737917,-0.0641521725863025,-0.03256584838702628,0.010144188144246129,-0.011844302907555306,0.2470501474926253,0.235207100591716,0.2431430689399555,0.18065967016491755,0.2341389728096677
https://www.justonecookbook.com/chocolate-chip-cookies-with-nutella-recipe/,0.06713360908302637,-0.09289646559683663,-0.1001039265542192,0.03375363017705174,0.0010634996160683494,0.2470501474926253,0.235207100591716,0.2431430689399555,0.18065967016491755,0.2341389728096677
https://www.justonecookbook.com/sweet-potato-pie/,0.08628905745623018,-0.08027160831659558,-0.12281519550459685,0.019947032191679506,-0.00910193310934446,0.2470501474926253,0.235207100591716,0.2431430689399555,0.18065967016491755,0.2341389728096677
https://www.justonecookbook.com/cherry-blossom-madeleines/,-0.014902778009835506,-0.04973198458607896,-0.022319043476897116,0.0175677066669008,0.0031138973352679397,0.2470501474926253,0.235207100591716,0.2431430689399555,0.18065967016491755,0.2341389728096677
https://www.justonecookbook.com/kashiwa-mochi/,0.049690864492758835,-0.00482676328546459,0.005243791839789021,-0.07994673521126823,-0.0395041743308038,0.2470501474926253,0.235207100591716,0.2431430689399555,0.18065967016491755,0.2341389728096677
https://www.justonecookbook.com/meyer-lemon-cookies/,0.057856637059934296,-0.09837145154560027,-0.012318273018990725,-0.0023688554783514023,0.012042480543239245,0.2470501474926253,0.235207100591716,0.2431430689399555,0.18065967016491755,0.2341389728096677
https://www.justonecookbook.com/nama-chocolate/,0.027794661597768198,-0.09369092591724905,0.014919126113131299,0.013267446290085442,0.01993691023080096,0.2470501474926253,0.235207100591716,0.2431430689399555,0.18065967016491755,0.2341389728096677
https://www.justonecookbook.com/cherry-blossom-cookies/,0.09352751579786259,-0.10221714271145814,-0.11289161348628741,0.025666391395557896,0.003698090478912439,0.2470501474926253,0.235207100591716,0.2431430689399555,0.18065967016491755,0.2341389728096677
https://www.justonecookbook.com/matcha-tiramisu/,0.20380409111189768,-0.11840376745337781,0.00036546375757967825,0.08402883998800346,-0.030269539947933383,0.2470501474926253,0.235207100591716,0.2431430689399555,0.18065967016491755,0.2341389728096677
https://www.justonecookbook.com/souffle-japanese-cheesecake/,0.015086272724050031,-0.06683527013999094,-0.021329846422514016,0.013257094756373194,0.008515623218526292,0.2470501474926253,0.235207100591716,0.2431430689399555,0.18065967016491755,0.2341389728096677
https://www.justonecookbook.com/matcha-vegan-panna-cotta/,0.19026233998295533,-0.04907949086398835,0.12186182039922665,-0.006583506247703588,-0.04310989168534732,0.2470501474926253,0.235207100591716,0.2431430689399555,0.18065967016491755,0.2341389728096677
https://www.justonecookbook.com/peanut-butter-chocolate-chip-cookies/,0.01609360682908008,-0.07114062325393686,-0.042415213777699384,0.008615031444456167,-0.007015617257629301,0.2470501474926253,0.235207100591716,0.2431430689399555,0.18065967016491755,0.2341389728096677
https://www.justonecookbook.com/tofu-pudding-blancmange/,0.09499901763588318,-0.03729767797453216,0.023545997961792436,-0.005556584062503651,0.054596893238387234,0.2470501474926253,0.235207100591716,0.2431430689399555,0.18065967016491755,0.2341389728096677
https://www.justonecookbook.com/mitarashi-dango/,0.03963735113262535,-0.007539780485312078,-0.009237606444223199,-0.0219668576180462,-0.04403019600031242,0.2470501474926253,0.235207100591716,0.2431430689399555,0.18065967016491755,0.2341389728096677
https://www.justonecookbook.com/daifuku/,0.07599778828571138,-0.006622735615732768,-0.001898722615310555,-0.08769483513843258,-0.054527760272642965,0.2470501474926253,0.235207100591716,0.2431430689399555,0.18065967016491755,0.2341389728096677
https://www.justonecookbook.com/tart-crust/,-0.03423811086903563,-0.04883176230322991,-0.03047964073425995,0.028352732777938792,-0.0072991122210866455,0.2470501474926253,0.235207100591716,0.2431430689399555,0.18065967016491755,0.2341389728096677
https://www.justonecookbook.com/pear-almond-tart/,0.008428068289632367,-0.06570807213363737,-0.012289832383471453,0.010784967064013176,0.01950922294762432,0.2470501474926253,0.235207100591716,0.2431430689399555,0.18065967016491755,0.2341389728096677
https://www.justonecookbook.com/sakura-mochi/,0.12152193285282677,0.016464592245921884,0.014289320010936074,-0.12034778557448118,-0.07480782032402844,0.2470501474926253,0.235207100591716,0.2431430689399555,0.18065967016491755,0.2341389728096677
https://www.justonecookbook.com/miso-butter-cookies/,0.012554561419589973,-0.02324133151575403,-0.026923668961517135,0.03008181190484648,-0.011118719679229587,0.2470501474926253,0.235207100591716,0.2431430689399555,0.18065967016491755,0.2341389728096677
https://www.justonecookbook.com/green-tea-donuts/,0.10270190302542362,-0.08045936141174166,0.06120074125724875,0.049323667866389226,-0.030290891160503288,0.2470501474926253,0.235207100591716,0.2431430689399555,0.18065967016491755,0.2341389728096677
https://www.justonecookbook.com/lavender-madeleines-guest-post-by-roti-n-rice/,-0.01409094689935253,-0.06519810309278234,-0.011601672331011479,0.016312270666164405,0.005951887947342079,0.2470501474926253,0.235207100591716,0.2431430689399555,0.18065967016491755,0.2341389728096677
https://www.justonecookbook.com/purin-dora/,0.04739726835555071,-0.09363720643616752,-0.06731036933172482,0.03247660381951962,0.0017292811678762045,0.2470501474926253,0.235207100591716,0.2431430689399555,0.18065967016491755,0.2341389728096677
https://www.justonecookbook.com/twinkie-minions/,0.0399689163297085,-0.10416286635673444,0.02753537926125505,-0.005557523683666543,0.007807564335550155,0.2470501474926253,0.235207100591716,0.2431430689399555,0.18065967016491755,0.2341389728096677
https://www.justonecookbook.com/zenzai-red-bean-soup/,0.035423842804788525,0.0018810205338840819,0.02010506324536784,-0.0760998553731064,-0.037586727009953635,0.2470501474926253,0.235207100591716,0.2431430689399555,0.18065967016491755,0.2341389728096677
https://www.justonecookbook.com/chocolate-souffle/,0.018107473438694517,-0.08836751465850012,-0.029836978754493128,0.01759756640203191,-0.0013672017363612961,0.2470501474926253,0.235207100591716,0.2431430689399555,0.18065967016491755,0.2341389728096677
https://www.justonecookbook.com/fruit-jelly/,-0.06634324281258955,-0.02731920731475336,0.01922205919863457,0.02232413212345472,0.005203489127724922,0.2470501474926253,0.235207100591716,0.2431430689399555,0.18065967016491755,0.2341389728096677
https://www.justonecookbook.com/meyer-lemon-chiffon-cake/,0.028528328881274125,-0.08010008514404625,-0.0156774923807869,0.004531943996640546,0.011306672567359176,0.2470501474926253,0.235207100591716,0.2431430689399555,0.18065967016491755,0.2341389728096677
https://www.justonecookbook.com/lychee-coconut-sorbet/,0.017052557866789043,-0.013018072003504286,0.02998758027318398,-0.013728140440052296,0.07692202915384029,0.2470501474926253,0.235207100591716,0.2431430689399555,0.18065967016491755,0.2341389728096677
https://www.justonecookbook.com/chocolate-covered-strawberries/,0.03306599367944279,-0.07319851733318286,0.01837394967343752,-0.003852877523641588,0.02626896788862017,0.2470501474926253,0.235207100591716,0.2431430689399555,0.18065967016491755,0.2341389728096677
https://www.justonecookbook.com/white-bean-paste-shiroan/,-0.04804784702054054,-0.0071375893926279325,0.017292976087853202,-0.012161410785196045,-0.02810647986240174,0.2470501474926253,0.235207100591716,0.2431430689399555,0.18065967016491755,0.2341389728096677
https://www.justonecookbook.com/green-tea-chiffon-cake/,0.16888805221053746,-0.10818377146391962,-0.00022221210768914247,0.06402593624369067,-0.02738270134755671,0.2470501474926253,0.235207100591716,0.2431430689399555,0.18065967016491755,0.2341389728096677
https://www.justonecookbook.com/matcha-marble-pound-cake/,0.10316775971710408,-0.07743691854857193,0.07492859717164613,0.055053987566166605,-0.03597713958875667,0.2470501474926253,0.235207100591716,0.2431430689399555,0.18065967016491755,0.2341389728096677
https://www.justonecookbook.com/matcha-swiss-roll/,0.1404594753011324,-0.10042736913734478,0.08057571741412188,0.05563554399061755,-0.03813219378585901,0.2470501474926253,0.235207100591716,0.2431430689399555,0.18065967016491755,0.2341389728096677
https://www.justonecookbook.com/easy-apple-tart/,0.10824915740000464,-0.10786057551071344,-0.12778696573318704,0.026533080138606543,0.009739535211106392,0.2470501474926253,0.235207100591716,0.2431430689399555,0.18065967016491755,0.2341389728096677
https://www.justonecookbook.com/nougat-and-glace-with-orange-caramel-guest-post-by-mad-about-macarons/,0.004407251523865354,-0.05879991354199508,-0.03629386746787115,0.006465613467427422,0.01765037844712532,0.2470501474926253,0.235207100591716,0.2431430689399555,0.18065967016491755,0.2341389728096677
https://www.justonecookbook.com/black-sesame-ice-cream/,0.05067656754434899,-0.07378042860264614,-0.06898314884453288,0.02620940591838561,0.01028472981142578,0.2470501474926253,0.235207100591716,0.2431430689399555,0.18065967016491755,0.2341389728096677
https://www.justonecookbook.com/mochi-ice-cream/,0.03815681225038921,-0.02329588403618515,-0.009662698742196536,-0.043257902387162324,-0.04671799988468436,0.2470501474926253,0.235207100591716,0.2431430689399555,0.18065967016491755,0.2341389728096677
https://www.justonecookbook.com/blueberry-frozen-yogurt/,0.013735420158596396,-0.05464183043108827,0.012156871992434606,0.02084181541427882,0.02883489822755026,0.2470501474926253,0.235207100591716,0.2431430689399555,0.18065967016491755,0.2341389728096677
https://www.justonecookbook.com/mango-lassi-popsicles/,0.07733873191388256,-0.0825555150429438,0.004633894199619465,0.012269611736993272,0.05094588982192325,0.2470501474926253,0.235207100591716,0.2431430689399555,0.18065967016491755,0.2341389728096677
https://www.justonecookbook.com/ohagi-botamochi/,0.05728349646766046,0.009239249062820648,0.015177994758869388,-0.07541843758194376,-0.04910512507149741,0.2470501474926253,0.235207100591716,0.2431430689399555,0.18065967016491755,0.2341389728096677
https://www.justonecookbook.com/almond-cookies/,0.085485113754267,-0.09330128333538336,-0.10924198994658821,0.028032259021890722,0.0061246456287063706,0.2470501474926253,0.235207100591716,0.2431430689399555,0.18065967016491755,0.2341389728096677
https://www.justonecookbook.com/imagawayaki-obanyaki/,0.04095811432224409,-0.04648588849185275,-0.004502792158793746,-0.034592094489342695,-0.014860564804345328,0.2470501474926253,0.235207100591716,0.2431430689399555,0.18065967016491755,0.2341389728096677
https://www.justonecookbook.com/kabocha-squash-pie/,0.056503294919781726,-0.08633716635820536,-0.10987182477339814,0.02965077299986943,-0.004678921245697933,0.2470501474926253,0.235207100591716,0.2431430689399555,0.18065967016491755,0.2341389728096677
https://www.justonecookbook.com/strawberry-daifuku/,0.07243816713605149,-0.009166409588532437,-0.0011050626320669255,-0.08158436304649569,-0.04743789406077141,0.2470501474926253,0.235207100591716,0.2431430689399555,0.18065967016491755,0.2341389728096677
https://www.justonecookbook.com/no-bake-creme-caramel/,0.07766911861272079,-0.11398563156727533,-0.09872722577367632,0.04763643621563675,-0.0010798526637163005,0.2470501474926253,0.235207100591716,0.2431430689399555,0.18065967016491755,0.2341389728096677
https://www.justonecookbook.com/strawberry-frozen-yogurt/,-0.008700798337579274,-0.04063204590808201,0.013449643571574917,0.0212970172213806,0.030493134710380915,0.2470501474926253,0.235207100591716,0.2431430689399555,0.18065967016491755,0.2341389728096677
https://www.justonecookbook.com/meyer-lemon-pound-cake/,0.027217710497916606,-0.06583788443474922,-0.013084923056137676,0.01573168893442104,0.043106603000930284,0.2470501474926253,0.235207100591716,0.2431430689399555,0.18065967016491755,0.2341389728096677
https://www.justonecookbook.com/green-tea-mochi/,0.1699569482071838,-0.04632570725724554,0.09816267839422406,0.0077655285939383124,-0.0758878735968419,0.2470501474926253,0.235207100591716,0.2431430689399555,0.18065967016491755,0.2341389728096677
https://www.justonecookbook.com/soy-sauce-caramel-ice-cream/,0.04121806845309209,-0.0942067014921801,-0.08145745619123337,0.04413115945045541,0.003501675862269528,0.2470501474926253,0.235207100591716,0.2431430689399555,0.18065967016491755,0.2341389728096677
https://www.justonecookbook.com/tsukimi-dango/,-0.11345449684073299,-0.018331430682766364,0.025864002458604197,0.03656177183548374,-0.015720185847521145,0.2470501474926253,0.235207100591716,0.2431430689399555,0.18065967016491755,0.2341389728096677
https://www.justonecookbook.com/japanese-strawberry-shortcake/,0.012642426080562059,-0.06561258628912432,-0.0032838766682442995,0.010064881239925952,0.01461745499274778,0.2470501474926253,0.235207100591716,0.2431430689399555,0.18065967016491755,0.2341389728096677
https://www.justonecookbook.com/green-tea-pudding/,0.176901911907885,-0.06145929279224935,0.11332985689267709,-0.0015134767171432013,-0.053141939637669756,0.2470501474926253,0.235207100591716,0.2431430689399555,0.18065967016491755,0.2341389728096677
https://www.justonecookbook.com/coffee-jelly/,-0.11259639787205022,-0.019861727700588184,0.024226827552114836,0.03456031260122756,-0.014559951417091682,0.2470501474926253,0.235207100591716,0.2431430689399555,0.18065967016491755,0.2341389728096677
https://www.justonecookbook.com/red-bean-ice-cream/,0.04741119394049789,-0.03292467833994298,0.013518785407765502,-0.049913708233902954,-0.018993349137382314,0.2470501474926253,0.235207100591716,0.2431430689399555,0.18065967016491755,0.2341389728096677
https://www.justonecookbook.com/chocolate-almond-toffee/,-0.018237413902740324,-0.04280151193473802,0.0016067677915340437,0.0072276479296304015,0.02191725962051848,0.2470501474926253,0.235207100591716,0.2431430689399555,0.18065967016491755,0.2341389728096677
https://www.justonecookbook.com/pon-de-ring-donut-recipe/,0.04660260644294548,-0.07507172609231583,0.032067775642931846,0.03497197410476081,-0.01634866164171614,0.2470501474926253,0.235207100591716,0.2431430689399555,0.18065967016491755,0.2341389728096677
https://www.justonecookbook.com/green-tea-ice-cream-matcha-ice-cream/,0.23330141649228645,-0.07589165252947289,0.2235684056494067,0.10805977154555901,-0.07094149340633968,0.2470501474926253,0.235207100591716,0.2431430689399555,0.18065967016491755,0.2341389728096677
https://www.justonecookbook.com/japanese-sweet-potato/,0.11081028828344497,-0.10831682177652548,-0.16960496831956207,0.04866501624341523,0.00396597827990364,0.2470501474926253,0.235207100591716,0.2431430689399555,0.18065967016491755,0.2341389728096677
https://www.justonecookbook.com/earl-grey-chiffon-cake/,0.057258432095355284,-0.08206728717948697,0.03536688408783458,0.012768558282610424,-0.02377428188761536,0.2470501474926253,0.235207100591716,0.2431430689399555,0.18065967016491755,0.2341389728096677
https://www.justonecookbook.com/green-tea-chocolate/,0.2110470493739382,-0.0954966723029666,0.16259218809431047,0.08115795555095577,-0.042146688059314874,0.2470501474926253,0.235207100591716,0.2431430689399555,0.18065967016491755,0.2341389728096677
https://www.justonecookbook.com/instant-pot-kabocha-flan/,-0.009641281623665112,-0.07243373832210645,-0.005934578102442211,0.01910062537541222,-0.003970887227743195,0.2470501474926253,0.235207100591716,0.2431430689399555,0.18065967016491755,0.2341389728096677
https://www.justonecookbook.com/flambeed-pear-purses-with-caramel-sauce-and-ganache-guest-post-by-five-euro-food/,-0.027860680345062765,-0.05504011745028385,0.00144931609397061,0.02539513027581228,0.010709445673936592,0.2470501474926253,0.235207100591716,0.2431430689399555,0.18065967016491755,0.2341389728096677
https://www.justonecookbook.com/mizu-yokan/,0.04951145215305926,0.002503369528203365,0.020292750018652043,-0.08297966424149827,-0.03231083497069191,0.2470501474926253,0.235207100591716,0.2431430689399555,0.18065967016491755,0.2341389728096677
https://www.justonecookbook.com/custard-pudding/,-0.041813373219038504,-0.06263005820537097,-0.02026786831266108,0.03017497095390473,-0.010575003983736918,0.2470501474926253,0.235207100591716,0.2431430689399555,0.18065967016491755,0.2341389728096677
https://www.justonecookbook.com/ume-shaved-ice/,0.34494668107315163,-0.24638284653705442,0.04104592318994649,0.06870654237521226,0.15771882612644086,0.2470501474926253,0.235207100591716,0.2431430689399555,0.18065967016491755,0.2341389728096677
https://www.justonecookbook.com/orange-jelly/,0.01714095051459101,-0.06742723536390131,0.023956924050435036,0.0035720889055122734,0.01076661972626982,0.2470501474926253,0.235207100591716,0.2431430689399555,0.18065967016491755,0.2341389728096677
https://www.justonecookbook.com/sesame-cupcakes-with-honey-meringue-frosting-guest-post-by-t-and-tea-cake/,-0.024453221405132588,-0.044157440297190556,-0.012846046682994258,0.014999106639263668,-0.004228003825609661,0.2470501474926253,0.235207100591716,0.2431430689399555,0.18065967016491755,0.2341389728096677
https://www.justonecookbook.com/cherry-clafoutis/,-0.044726078555417687,-0.04984262245767948,-0.015391859407693925,0.026279291369232516,-0.005291725382362662,0.2470501474926253,0.235207100591716,0.2431430689399555,0.18065967016491755,0.2341389728096677
https://www.justonecookbook.com/how-to-make-agar/,-0.11259639787205022,-0.019861727700588184,0.024226827552114836,0.03456031260122756,-0.014559951417091682,0.2470501474926253,0.235207100591716,0.2431430689399555,0.18065967016491755,0.2341389728096677
https://www.justonecookbook.com/how-to-make-anko-red-bean-paste/,-0.04804784702054054,-0.0071375893926279325,0.017292976087853202,-0.012161410785196045,-0.02810647986240174,0.2470501474926253,0.235207100591716,0.2431430689399555,0.18065967016491755,0.2341389728096677
https://www.justonecookbook.com/cherry-bars/,-0.01566075791194492,-0.053126072902715156,-0.01957769286989245,0.01526868785876711,0.008597842842009536,0.2470501474926253,0.235207100591716,0.2431430689399555,0.18065967016491755,0.2341389728096677
https://www.justonecookbook.com/mango-ice-cream/,-0.017352538222357137,-0.05898717761065761,0.014548943374520607,0.0275717031011233,0.019984037084817618,0.2470501474926253,0.235207100591716,0.2431430689399555,0.18065967016491755,0.2341389728096677
https://www.justonecookbook.com/green-tea-souffle/,0.14539972917966681,-0.10167090627407879,0.05518531414685765,0.06361128041079084,-0.01818994806200203,0.2470501474926253,0.235207100591716,0.2431430689399555,0.18065967016491755,0.2341389728096677
https://www.justonecookbook.com/matcha-basque-cheesecake/,0.09081303316022907,-0.08495061714460138,-0.09621790890854977,0.03571887333215111,-0.01460710683569687,1.0,1.0,1.0,1.0,1.0
https://www.justonecookbook.com/simple-crepes/,-0.0016838595244546926,-0.06503828098714191,-0.0012771757807421057,0.01454445778805681,0.012283036506521,0.2470501474926253,0.235207100591716,0.2431430689399555,0.18065967016491755,0.2341389728096677
https://www.justonecookbook.com/taro-tapioca-dessert-soup/,0.06183526293585238,-0.03642771739925177,-0.001688086166733351,0.012544146510995757,-0.01868389722505674,0.2470501474926253,0.235207100591716,0.2431430689399555,0.18065967016491755,0.2341389728096677
https://www.justonecookbook.com/fruit-popsicles/,0.016134510267731522,-0.024001897223986025,0.02225523293857086,-0.04232487587619318,0.08103902670241372,0.2470501474926253,0.235207100591716,0.2431430689399555,0.18065967016491755,0.2341389728096677
https://www.justonecookbook.com/butter-cookies-hato-sabure-recipe/,-0.018769965399978054,-0.05864633177152376,-0.03662123312622633,0.025644451983244537,-0.005919450754691949,0.2470501474926253,0.235207100591716,0.2431430689399555,0.18065967016491755,0.2341389728096677
https://www.justonecookbook.com/blueberry-cheesecake/,0.04721190607952842,-0.06970292820955289,-0.07419418783254167,0.019433518726708916,0.005959882550447448,0.2470501474926253,0.235207100591716,0.2431430689399555,0.18065967016491755,0.2341389728096677
https://www.justonecookbook.com/ujikintoki-green-tea-shaved-ice/,0.18655517738818225,-0.08347776311700358,0.0822591356196847,-0.009715915702043589,-0.025869631352299662,0.2470501474926253,0.235207100591716,0.2431430689399555,0.18065967016491755,0.2341389728096677
https://www.justonecookbook.com/hanami-dango/,0.06442724541947857,-0.029460794666693577,0.0037177220744444147,-0.05432482767682122,-0.06120503140386529,0.2470501474926253,0.235207100591716,0.2431430689399555,0.18065967016491755,0.2341389728096677
https://www.justonecookbook.com/cherry-ice-cream/,-0.011926575083734722,-0.05728839662000065,0.012386400928723661,0.011677152268956445,-0.006523211991631337,0.2470501474926253,0.235207100591716,0.2431430689399555,0.18065967016491755,0.2341389728096677
https://www.justonecookbook.com/matcha-mille-crepe-cake/,0.10057269991742804,-0.08515877820033488,0.057472366567414314,0.04250924988514183,-0.023547811280512265,0.2470501474926253,0.235207100591716,0.2431430689399555,0.18065967016491755,0.2341389728096677
https://www.justonecookbook.com/green-tea-creme-brulee/,0.21605209871410924,-0.13228393464775626,0.0012547595951862092,0.08703839300989832,-0.035036753860024895,0.2470501474926253,0.235207100591716,0.2431430689399555,0.18065967016491755,0.2341389728096677
https://www.justonecookbook.com/nougat-semifreddo-guest-post-by-alterkitchen/,0.004775842963345093,-0.0698175608435497,-0.015521497592841615,0.015199154214229934,0.008940375576134668,0.2470501474926253,0.235207100591716,0.2431430689399555,0.18065967016491755,0.2341389728096677
https://www.justonecookbook.com/soba-salad/,-0.006034884501649441,-0.016542376293299313,0.008896467717913494,0.0018781027232287625,0.017097730061002316,0.2470501474926253,0.235207100591716,0.2431430689399555,0.18065967016491755,0.2341389728096677
https://www.justonecookbook.com/seaweed-salad-recipe/,0.034208388956387524,0.049948985183997846,0.0009133253166039164,0.04222912087652861,-0.014842656621162862,0.2470501474926253,0.235207100591716,0.2431430689399555,0.18065967016491755,0.2341389728096677
https://www.justonecookbook.com/daikon-salad-radish-salad/,0.08147045118260351,0.10955611950717321,-0.00023663614006351436,0.04097570253417322,0.01927019226485485,0.2470501474926253,0.235207100591716,0.2431430689399555,0.18065967016491755,0.2341389728096677
https://www.justonecookbook.com/shabu-shabu-salad/,-0.034243872899635,0.010206874685124687,0.009510837246537687,-0.006769054746605322,0.0017001875934217778,0.2470501474926253,0.235207100591716,0.2431430689399555,0.18065967016491755,0.2341389728096677
https://www.justonecookbook.com/eggplant-and-myoga-salad/,0.05137858021064277,0.10605978357263789,0.004320018848869493,0.05576766534457482,0.035959833928802025,0.2470501474926253,0.235207100591716,0.2431430689399555,0.18065967016491755,0.2341389728096677
https://www.justonecookbook.com/japanese-salad-dressings/,-0.03083808226111467,-0.004068945410028405,0.013827871337856757,0.0032467109415430127,0.014854335679447089,0.2470501474926253,0.235207100591716,0.2431430689399555,0.18065967016491755,0.2341389728096677
https://www.justonecookbook.com/apple-walnut-salad/,0.016100713644874767,-0.020171391886781773,-0.0015727881753382804,0.007941524092658634,0.04458859937974843,0.2470501474926253,0.235207100591716,0.2431430689399555,0.18065967016491755,0.2341389728096677
https://www.justonecookbook.com/pork-shabu-salad-with-ponzu-dressing-egg-drop-soup/,0.022228552373104348,0.03306436760521188,-0.008107397239513479,0.0169509982480152,-0.0034732846495315914,0.2470501474926253,0.235207100591716,0.2431430689399555,0.18065967016491755,0.2341389728096677
