url,0,1,2,3,4,high_carb,high_protein,high_fat,high_sodium,high_sugar
https://glebekitchen.com/miso-chicken-with-maple-and-ginger/,0.03785510786445576,0.009868418530513843,0.0038854431793617786,-0.030605125360581072,-0.026932230790744825,0.0,1.0,0.0,0.0,0.0
https://glebekitchen.com/tonkotsu-ramen-home/,0.061890265468373416,0.04019762117001722,0.05527768779740031,-0.006314445770867192,-0.011629744477129018,1.0,1.0,1.0,1.0,1.0
https://glebekitchen.com/garlic-ginger-grilled-chicken/,-0.027368201747551144,0.0025506665249959825,-0.011157521318758683,0.0006561843906222858,-0.013406880200424956,0.0,1.0,1.0,1.0,0.0
https://glebekitchen.com/tonkotsu-ramen-broth-home/,0.05436873066767838,0.012349650247737695,0.08377670110134755,0.07444433818116926,0.02743298179996508,0.0,0.2590163934426229,0.2612982744453574,0.0,0.17267393126571667
https://glebekitchen.com/japanese-chicken-curry-curry-rice/,0.0116700607836144,0.006859187124964805,-0.04878121700085601,0.0023567931380992437,-0.02510476951556463,0.0,0.0,0.0,1.0,0.0
https://glebekitchen.com/chicken-karaage-japanese-fried-chicken/,0.022924258409541817,0.0009344720947420325,0.027750383122713933,0.0034944445790269308,0.011695594951704148,0.0,1.0,1.0,1.0,0.0
https://glebekitchen.com/curry-chicken-ramen/,0.024026672169922266,0.022520475713819557,0.03264268677789506,-0.005240568434582335,-0.001840910569615989,1.0,1.0,1.0,0.0,0.0
https://glebekitchen.com/sous-vide-steak-tataki-style/,0.021688195817512208,-0.004328574965625231,-0.010652192789288152,0.007494661130268779,-0.01993424229698318,0.0,0.0,0.0,0.0,0.0
https://glebekitchen.com/momofuku-pork-belly/,-0.04788679567524912,0.00858672486979565,0.027378165009238554,0.021166723821426457,0.01982378881597646,0.0,0.0,1.0,1.0,0.0
https://glebekitchen.com/gyudon-japanese-beef-bowl/,0.08050752051091839,0.06924987681580003,0.02111225950116226,-0.062065620641096365,-0.02323239375486811,0.0,1.0,0.0,1.0,1.0
https://glebekitchen.com/japadog-style-terimayo-hot-dog/,-0.02476278786875447,-0.0072921085783678105,0.013322559233518414,-0.019441882136375037,-0.009508761595834601,1.0,0.0,1.0,1.0,1.0
https://glebekitchen.com/japanese-miso-soup/,0.11071223547739527,0.11323510368505979,0.026676570131321225,-0.05931533350170409,-0.04263792395027871,0.0,0.0,0.0,1.0,0.0
https://glebekitchen.com/japanese-chicken-yakitori/,-0.04725637294228647,0.012232473023992304,0.012303627760146731,-0.015043150609239908,-0.0013036006348602141,0.0,0.0,0.0,0.0,0.0
https://glebekitchen.com/miso-ramen-with-chashu-pork/,0.06087018561900492,0.03767110961925788,0.05772065054859602,-0.003640661680091131,-0.007885856385277893,1.0,1.0,1.0,1.0,1.0
https://glebekitchen.com/30-minute-curry-ramen/,0.041390550971648725,0.025704793983518395,0.043308424631123006,-0.009932620065842702,-0.007112307861418851,0.0,1.0,0.0,1.0,0.0
https://glebekitchen.com/japanese-gyoza/,0.023222523210333936,0.04903217258658975,0.013077164876209343,-0.003761069634007057,0.015828742244415477,0.0,0.0,0.0,0.0,0.17267393126571667
https://glebekitchen.com/vietnamese-chicken-curry-ca-ri-ga/,-0.012220710741878247,0.0052950445522087905,-0.011533883662443234,0.0022141360538586626,-0.0007318776465498784,1.0,1.0,1.0,1.0,0.0
https://glebekitchen.com/asian-grilled-chicken-wings/,0.07604405038815096,0.03691270808104111,-0.04936761935469616,0.03232084513661549,-0.027466764592233857,0.2364975450081833,0.0,0.0,1.0,0.17267393126571667
https://glebekitchen.com/carpaccio-asian-style/,-0.021310654845528024,0.0029978826881586302,-0.028824281277044443,0.014425260003161675,0.007389008112188238,0.0,0.0,0.0,0.0,0.17267393126571667
https://glebekitchen.com/vietnamese-grilled-chicken-with-ginger-soy-noodle-salad/,0.03314998320024365,0.01814652089112631,-0.04653002999446875,0.013521827835984162,-0.005679196972921553,1.0,1.0,1.0,1.0,1.0
https://glebekitchen.com/vietnamese-lemongrass-chicken-noodle-bowl/,0.0550917550081677,0.020181133893095535,-0.04340017101474512,0.007690926573240934,-0.0026160188563032183,1.0,0.0,0.0,1.0,1.0
https://glebekitchen.com/vietnamese-spring-rolls-with-peanut-sauce/,0.04775293214865835,-0.0071230428355947405,-0.0017745498270150678,-0.005069610493488099,-0.014053502052085975,1.0,0.0,0.0,0.0,0.0
https://glebekitchen.com/nuoc-cham-vietnamese-dipping-sauce/,0.018009887811306545,-0.0165007328273556,-0.0388100556978607,0.03138589647542247,-0.006814130887899745,1.0,0.0,0.0,1.0,1.0
https://glebekitchen.com/salmon-with-rice-noodles/,-0.015613816285859283,-0.01165208282753769,-0.008879128110042656,0.013852157816451523,-0.012754210803629328,0.0,1.0,0.0,0.0,0.0
https://glebekitchen.com/vietnamese-noodle-salad/,0.03808894641116954,0.022797469840341693,-0.031154101847219014,0.009498776717245217,-0.02528160042373876,1.0,1.0,1.0,1.0,1.0
https://glebekitchen.com/vietnamese-sate-sauce/,-0.03221729248890128,0.010311104682703043,-0.009248894756582964,0.007121083755583672,0.0005030802998572932,1.0,0.0,1.0,1.0,1.0
https://glebekitchen.com/authentic-pho-ga-vietnamese-chicken-noodle-soup/,0.0019515082635000855,0.014890619828801008,0.014409764446034668,-0.0014387774587353486,0.014897251867440845,1.0,1.0,1.0,1.0,0.0
https://glebekitchen.com/bun-cha-vietnamese-grilled-pork-with-rice-noodles/,0.08181167215681506,0.022228883645949164,-0.05700561589246533,0.00999367441547758,-0.018072763864196945,0.0,1.0,1.0,1.0,1.0
https://glebekitchen.com/vietnamese-ginger-beef-stir-fry/,-0.04744881064362717,0.004395417723608715,-0.00025916730608243493,0.0052751224324015175,0.00938158457328962,0.0,1.0,1.0,1.0,0.0
https://glebekitchen.com/beef-pho-easy-vietnamese-pho-bo/,0.030870603844071195,0.008526327918674768,-0.01489021048503765,0.0006844924278536056,0.013586228768913864,1.0,1.0,1.0,1.0,1.0
https://glebekitchen.com/vietnamese-banh-mi-gochujang-mayo/,-0.00581554557084503,0.022848356239094758,0.0053158441111687835,0.012292987858529645,0.020426433486122584,0.2364975450081833,0.0,1.0,0.0,0.17267393126571667
https://glebekitchen.com/bo-kho-vietnamese-beef-stew-with-egg-noodles/,0.021970112241948028,0.012730926891204657,-0.016284831464204237,0.022927138416976477,0.006635949073244868,1.0,1.0,1.0,1.0,0.0
https://glebekitchen.com/vietnamese-beef-noodle-salad/,0.06043825904235178,0.01760444890505748,-0.04716980976844327,0.007800017949636088,-0.012164105125741804,1.0,1.0,0.0,1.0,1.0
https://glebekitchen.com/bun-thit-nuong-vietnamese-grilled-pork-with-rice-noodles/,-0.0046929374495955365,0.0025658908134257048,-0.012219065244679984,0.013451855256736797,0.0013805127210574065,1.0,0.0,0.0,1.0,0.0
https://glebekitchen.com/spicy-beef-noodle-soup-vietnamese-style/,0.05567606332613522,0.017009874858556824,-0.01435093503478829,0.02578747110684473,0.015896732803290476,1.0,1.0,0.0,1.0,0.0
https://glebekitchen.com/shaking-beef-vietnamese-bo-luc-lac/,0.00033096700282507323,0.008640870297412884,0.0032440617631503844,0.012517639689938312,0.0065713993279515395,0.0,1.0,0.0,1.0,1.0
https://glebekitchen.com/vindaloo-paste/,-0.0443265040143174,0.0021353157280885058,-0.02736730212602567,0.007633810688423427,-0.009588830741841749,0.0,0.0,1.0,0.0,1.0
https://glebekitchen.com/beef-rogan-josh/,0.011176033970752921,-0.013170064632957746,-0.05851669773928798,0.021249639647648887,-0.014835516302405913,0.0,1.0,1.0,0.0,0.0
https://glebekitchen.com/achari-chicken-curry-indian-hotel-style/,0.004026293986872352,-0.0022381460008998777,-0.061368518630343,0.012050339689793698,-0.009395858167956555,0.0,1.0,1.0,1.0,0.0
https://glebekitchen.com/indian-restaurant-hariyali-chicken-curry/,-0.009091336994377563,0.0018175454886763757,-0.05254202457823492,0.013775417645715587,-0.008322423467489879,0.0,1.0,1.0,1.0,0.0
https://glebekitchen.com/ceylon-chicken-curry-indian-hotel-style/,0.01310260821548797,-0.018650118364283996,-0.05237846567087938,0.004623147296033078,-0.008533890926901315,0.0,1.0,1.0,1.0,1.0
https://glebekitchen.com/lemon-coriander-chicken-curry/,0.008552198721004965,-0.010020292265033799,-0.04889231499573072,0.021359914485106,-0.019113723067969678,0.0,0.0,1.0,0.0,0.0
https://glebekitchen.com/lamb-vindaloo-indian-restaurant-style/,0.009589445752240161,0.0018677880920057006,-0.05389908064586278,0.015643299683231037,-0.011029649480922282,0.0,1.0,1.0,0.0,0.0
https://glebekitchen.com/kari-ayam-malaysian-curry-chicken/,0.02631362811119611,-0.014122307917961588,-0.03008381248189304,0.007722621332281361,0.004783316552076572,0.2364975450081833,0.2590163934426229,0.2612982744453574,0.1990008326394671,0.17267393126571667
https://glebekitchen.com/indian-spiced-chicken-wings-with-tamarind-dipping-sauce/,0.00799664425200788,-0.011614576360006757,-0.05383734190069832,0.013771785942441536,-0.01729059391913944,0.0,0.0,0.0,0.0,1.0
https://glebekitchen.com/gobi-manchurian-indian-cauliflower-wings/,0.009947912172021487,-0.011867213620972697,-0.02757940689325472,0.010704567855528101,0.01611503059039579,0.0,0.0,0.0,1.0,0.0
https://glebekitchen.com/tandoori-marinade/,0.008368985248999827,-0.005857042705250209,-0.0724554480412469,0.008873445512144305,-0.023192615172687236,0.0,0.0,1.0,1.0,0.0
https://glebekitchen.com/chicken-vindaloo-restaurant-style/,0.012314716759476542,-0.0020084759593833558,-0.07034184131140311,0.0018959592401321254,-0.008103513050287479,0.0,0.0,1.0,0.0,0.0
https://glebekitchen.com/chicken-tikka/,0.011390302568658786,-0.005993797321519829,-0.0645708008892254,0.009424225006500132,-0.022952815937094674,0.0,0.0,0.0,0.0,0.17267393126571667
https://glebekitchen.com/garam-masala-indias-most-famous-spice-mix/,0.08001722480764298,-0.03684874821578513,-0.11244257585052943,0.03218946269756306,-0.03450476729273377,0.0,0.0,0.0,0.0,0.17267393126571667
https://glebekitchen.com/indian-restaurant-curry-base/,-0.03327886686819715,-0.0017513024664521204,-0.03965533465881568,0.004350031931977922,-0.016600903313775152,0.0,0.0,0.0,0.0,0.0
https://glebekitchen.com/nearly-restaurant-style-chicken-saag-curry/,0.017826117402226564,0.0024079568757109436,-0.07079298290747843,0.009334602396314997,-0.026420453296933537,0.0,1.0,1.0,0.0,0.0
https://glebekitchen.com/nihari-gosht-indian-beef-stew/,0.04240518624102357,-0.025797976776220036,-0.05955176113335844,0.01623011295937289,-0.010722707917208625,0.0,1.0,1.0,0.0,0.0
https://glebekitchen.com/palak-paneer-indian-restaurant-style-spinach-curry/,0.032391039965051716,0.004757612654108434,-0.07607969063395788,0.01598397915249352,-0.022096774114240762,0.0,0.0,1.0,0.0,0.0
https://glebekitchen.com/tandoori-chicken/,0.015320141912830945,-0.009360300580236583,-0.07521521854203797,0.008364218355788584,-0.027809916336073198,0.0,1.0,1.0,1.0,0.17267393126571667
https://glebekitchen.com/bagara-baingan-indian-hotel-style-eggplant-curry/,0.018147624804539353,-0.015548733398085797,-0.06370526892904593,0.0002571975323474991,-0.017105619080359305,1.0,0.0,1.0,1.0,1.0
https://glebekitchen.com/sambar-south-indian-lentil-and-vegetable-stew/,0.025449992081042122,-0.004707077935248334,-0.06502810276462663,0.02228085049477214,0.013928828524498903,1.0,0.0,0.0,0.0,1.0
https://glebekitchen.com/indian-restaurant-spice-mix/,0.061105172178629,0.0029004518035478408,-0.11530793130741453,0.014067112341518237,-0.052512484510103395,1.0,0.0,0.0,0.0,0.0
https://glebekitchen.com/bombay-potatoes-restaurant-style-bombay-aloo/,-0.000263844353209986,-0.004303350295821303,-0.056144510960885054,0.01000440207285798,-0.011506301608926234,1.0,0.0,0.0,0.0,0.0
https://glebekitchen.com/hariyali-chicken-curry-indian-hotel-style/,-0.0015276538214860503,-0.00636024163780855,-0.06071947260514568,0.010556541488289843,-0.015072081638855189,0.0,1.0,1.0,1.0,0.0
https://glebekitchen.com/lamb-keema-papadum/,0.03071313343154362,-0.007477394421900996,-0.06039951990211197,0.026416328607825855,-0.015713362726294894,0.0,0.0,0.0,0.0,0.0
https://glebekitchen.com/restaurant-style-chicken-tikka-masala/,0.012352717079419748,-0.01900814550496865,-0.014860897808817308,0.0024869963712912274,-0.013687410378765922,0.0,0.0,1.0,1.0,1.0
https://glebekitchen.com/dal-palak-indian-spinach-and-lentil-curry/,0.00013657558369858464,-0.0017178405039303807,-0.05699576361424801,0.01523413563829609,-0.011363673628183833,0.0,0.0,0.0,0.0,0.0
https://glebekitchen.com/mulligatawny-soup/,-0.031679215427214615,0.0018101702690165446,-0.020280897959418658,0.012380876129072849,-0.003496484461348953,0.0,1.0,0.0,0.0,0.0
https://glebekitchen.com/indian-restaurant-chicken-jalfrezi/,0.014913590518804361,-0.0015364207291856493,-0.0536308586857048,0.026232951346124505,-0.004877505859068175,0.0,1.0,1.0,1.0,0.0
https://glebekitchen.com/lamb-or-beef-keema/,0.022457654959941155,-0.010123594866788231,-0.058147055905483976,0.023055331589860357,-0.005312564927298485,0.0,1.0,1.0,0.0,0.17267393126571667
https://glebekitchen.com/indian-restaurant-lamb-curry/,0.023626328432545095,-0.007963426614872144,-0.05675962962059825,0.02696946933724615,-0.007916814016300166,0.0,0.0,1.0,0.0,0.0
https://glebekitchen.com/naga-chicken-tikka-curry-indian-hotel-style/,0.004565543662822076,-0.012306675985383864,-0.04220820106645756,0.00529636016730464,-0.00818250397939328,0.0,1.0,1.0,1.0,0.0
https://glebekitchen.com/restaurant-style-pathia-curry/,0.014391191301664642,-0.0035433771090282802,-0.05718719034177484,0.012447494463143019,-0.0069511844558988,0.0,1.0,1.0,1.0,0.0
https://glebekitchen.com/gunpowder-potatoes/,0.028224948012725324,-0.015402400708889081,-0.06964771460130627,0.025711083419113944,-0.012753481153873458,1.0,0.0,1.0,1.0,0.0
https://glebekitchen.com/nearly-restaurant-style-chettinad-chicken-curry/,0.018984502208934183,-0.009267210555427433,-0.059586529257490084,0.010634786359536724,-0.022059863808484556,0.0,1.0,1.0,1.0,0.0
https://glebekitchen.com/bengali-masoor-dal/,-0.04955397596670459,-0.002351309670449239,-0.012049464710593635,0.004804058806624797,-0.003487011113907419,0.0,0.0,0.0,0.0,0.0
https://glebekitchen.com/indian-restaurant-vindaloo-curry/,0.002489064409942694,0.0015470641291691735,-0.044958450229385404,0.019778568318776123,-0.005442086095915611,0.0,1.0,0.0,1.0,0.0
https://glebekitchen.com/shahi-chicken-korma/,0.014781881006788613,-0.02243490111635101,-0.030069851845570622,0.008954385424930447,-0.018116778129483556,0.0,1.0,1.0,0.0,0.0
https://glebekitchen.com/saag-aloo-indian-restaurant-style/,0.03331302243815663,-0.005582786828790768,-0.06542242967321656,0.02534684916729865,-0.014080547880635168,0.0,0.0,0.0,1.0,0.0
https://glebekitchen.com/chole-masala-punjabi-chickpea-curry/,0.014536852750206596,-0.01631936866831776,-0.06904283023816254,0.023142474335309957,-0.0097300250372436,0.0,0.0,1.0,1.0,1.0
https://glebekitchen.com/aloo-keema-indian-restaurant-potato-and-beef-curry/,-0.014274605543499562,-0.0011511299673753208,-0.042945709125371455,0.010451444311535956,-0.004629427603258453,0.0,1.0,1.0,1.0,0.0
https://glebekitchen.com/kerala-fried-chicken/,0.03584782564001202,-0.009115978364138086,-0.06531906682789466,0.006520861099699766,-0.013767487084873287,1.0,1.0,0.0,1.0,0.0
https://glebekitchen.com/easy-mint-raita-indian-mint-sauce/,-0.001574789143216533,-0.03172301804294853,-0.038007282114864156,0.003280512962002162,-0.027935661010314618,0.0,0.0,0.0,0.0,0.0
https://glebekitchen.com/chicken-masala-indian-restaurant-style/,0.003914127223312917,-0.011165018829254858,-0.05579547929778967,0.015286588415588128,-0.010496914662196702,0.0,1.0,1.0,0.0,0.0
https://glebekitchen.com/indian-lentil-curry-with-spinach/,-0.005620365054290344,-6.195918696461929e-05,-0.04790511811449566,0.0180397010252472,-0.007335490667809547,0.0,0.0,0.0,0.0,0.0
https://glebekitchen.com/garlic-chilli-chicken-indian-restaurant-style/,0.013647825617504486,-0.009382291130528018,-0.056799639510098525,0.024127093135529725,-0.004327780727222551,0.0,0.0,1.0,1.0,0.0
https://glebekitchen.com/homemade-curry-powder/,0.050701408025883916,-0.016668983209056635,-0.09823939245812006,0.015730756764077945,-0.03215882390615627,1.0,0.0,0.0,0.0,0.0
https://glebekitchen.com/karahi-chicken-indian-restaurant-style/,-0.002218387591442335,-0.0050222770211239545,-0.04176247522191861,0.012074015275663364,-0.008360208833459329,0.0,1.0,1.0,1.0,0.0
https://glebekitchen.com/garlic-ginger-paste/,-0.07113038656975157,-0.0017055136186151707,-0.00020212588034100614,-0.007485408990741932,-0.003360657615613623,0.0,0.0,0.0,0.0,0.0
https://glebekitchen.com/papadum-with-red-onion-chutney-and-mint-raita/,0.04433442138905269,-0.022198779372091436,-0.06138917416094807,0.018815168133164743,-0.022531714724459962,0.2364975450081833,0.2590163934426229,0.2612982744453574,0.1990008326394671,0.17267393126571667
https://glebekitchen.com/chicken-bhuna-curry/,0.03638150328591132,-0.01650017898348991,-0.08344710307876319,0.019541159290763572,-0.018344703168309433,0.0,1.0,0.0,0.0,1.0
https://glebekitchen.com/tarka-dhal/,0.018061372781612815,-0.011353739620116666,-0.06303458823164362,0.017365229961103592,-0.017835455021240083,0.0,0.0,0.0,0.0,0.0
https://glebekitchen.com/chaat-masala-indian-street-food-spice-mix/,0.017415179178843512,-0.003845272738571862,-0.08498772337587407,0.023262539795142444,-0.015743388457413215,0.0,0.0,0.0,1.0,0.0
https://glebekitchen.com/keema-matar-nearly-restaurant-style/,0.021613646451530064,-0.002007826404703669,-0.06233278707370087,0.012204883063135342,-0.006056761237342466,0.0,1.0,1.0,0.0,0.0
https://glebekitchen.com/pilau-rice-indian-restaurant-style/,0.08493235945731804,-0.029234435283659994,-0.12624649193111556,0.02399820745357094,-0.0336286178948293,0.0,0.0,0.0,0.0,0.0
https://glebekitchen.com/dal-tadka-restaurant-style/,0.022319188707498272,-0.01895696794044958,-0.07581903878133531,0.023050583207866886,-0.009681100010759242,0.0,0.0,0.0,0.0,0.0
https://glebekitchen.com/eggplant-curry-baingan-masala-restaurant-style/,0.020693247055404217,-0.002788529883195973,-0.06527435016767606,0.025309534764781493,-0.0037449892218281945,0.0,0.0,0.0,1.0,1.0
https://glebekitchen.com/restaurant-style-aloo-chaat-chicken-curry/,0.009745469474864958,-0.0018331535486864007,-0.05763349786048518,0.016045106285677967,-0.00828837311474755,1.0,1.0,1.0,1.0,0.0
https://glebekitchen.com/chicken-65-south-indian-fried-chicken-bites/,0.03245681675790221,-0.0046545982453954065,-0.06685790525148738,0.011909097351401571,-0.011890316826899557,0.0,1.0,0.0,0.0,0.17267393126571667
https://glebekitchen.com/seekh-kebab-spicy-lamb-skewers/,0.025545655343582645,0.0008732412763564907,-0.06265995228087193,0.03452910547644271,-0.018086913600622968,0.0,0.0,1.0,1.0,0.0
https://glebekitchen.com/nearly-indian-restaurant-style-chicken-tikka-masala/,0.014340917687114062,-0.008512612428177073,-0.05456711106058791,0.004468634707064765,-0.027595398444761658,0.0,1.0,1.0,1.0,0.0
https://glebekitchen.com/chana-masala/,0.0230794846189797,0.004233603521604082,-0.08063886784048419,0.01888941853502673,-0.030069562205750577,0.0,0.0,0.0,0.0,0.0
https://glebekitchen.com/chana-chaat-indian-chickpea-salad/,0.014668391981255873,0.0031365855606840668,-0.0624156246516964,0.02854296059006871,-1.6988912661335186e-05,0.0,0.2590163934426229,0.0,0.0,0.0
https://glebekitchen.com/chicken-tikka-jalfrezi-indian-hotel-style/,-0.0013958808907093066,-0.002696125046949052,-0.04819074007590154,0.018354578331241905,-0.002527492666364029,0.0,1.0,1.0,1.0,1.0
https://glebekitchen.com/mint-coriander-chutney/,-0.013381617714151204,-0.0020936123082454148,-0.04860390526137128,0.020989119300243737,-0.00998745635027184,0.0,0.0,0.2612982744453574,0.0,0.0
https://glebekitchen.com/indian-restaurant-dhansak-curry/,0.011378364474402153,0.0005566712125104909,-0.05565620736272942,0.01703269693085077,-0.0076872910132889044,0.0,1.0,1.0,1.0,0.0
https://glebekitchen.com/chicken-biryani-indian-restaurant-style/,0.040192003114703244,-0.0064029434777904525,-0.08522810336618752,0.012675652614058548,-0.03363777850728036,1.0,0.0,0.0,1.0,0.0
https://glebekitchen.com/indian-restaurant-dopiaza-curry/,-7.365048613690432e-05,0.0006892304661892485,-0.045390561288860556,0.020609290480473115,-0.0029515492327729684,0.0,0.0,0.0,1.0,0.0
https://glebekitchen.com/indian-restaurant-bhuna-curry/,0.013428951135274881,0.00013664740114882121,-0.05388406363694063,0.02894507800627614,-0.0043603014556896635,0.0,1.0,1.0,1.0,0.0
https://glebekitchen.com/butter-chicken-indian-restaurant-style/,0.006544770656427907,-0.010947724987984856,-0.03793781685135256,0.010007194228746227,-0.007922166982905392,0.0,1.0,1.0,1.0,0.0
https://glebekitchen.com/nearly-restaurant-chicken-jalfrezi/,-0.009955680901816828,-0.0016607162667476455,-0.04107682698451699,0.018329336346321026,-0.0003418764587761812,0.0,1.0,1.0,0.0,0.0
https://glebekitchen.com/nadan-chicken-curry/,0.02107924719524646,-0.0005191412249830597,-0.05624188997241691,0.013883242352805712,-0.021306813795676033,0.0,1.0,1.0,1.0,0.0
https://glebekitchen.com/tandoori-paste-pataks-copycat/,0.013064846623732581,-0.013346210234669502,-0.05491635572049183,-0.018486297884823987,-0.02104233078434318,1.0,0.0,0.0,1.0,1.0
https://glebekitchen.com/tandoori-chicken-tacos/,0.025414210147505185,-0.02368694956698912,-0.01969354911436428,0.006369688957649554,0.015090757348877475,0.0,0.0,0.2612982744453574,0.0,0.17267393126571667
https://glebekitchen.com/hotel-style-indian-curry-gravy/,-0.0032978664751193354,-0.005858892415787807,-0.05781010783429449,0.015722570954926927,-0.014176992129675988,0.0,0.0,1.0,0.0,1.0
https://glebekitchen.com/methi-chicken-curry-indian-hotel-style/,0.022742291168464393,0.0012309096786855954,-0.08274186744197733,0.00485310986723988,-0.02991635260455918,0.0,1.0,1.0,1.0,0.0
https://glebekitchen.com/restaurant-style-keema-matar/,0.001865406085036618,0.0008526594264512009,-0.04903400457510621,0.016595821041090007,0.0023751893674999872,0.0,1.0,1.0,1.0,0.0
https://glebekitchen.com/chicken-chaat-salad/,-0.023696012460087037,-0.005083293160021729,-0.025012660079252274,0.014385657260847328,-0.022998503987361536,0.0,0.0,0.0,0.0,0.17267393126571667
https://glebekitchen.com/easy-chana-masala/,0.025779986039774463,0.0027136093881441636,-0.0844020067470712,0.013842979912599125,-0.02290904988288747,1.0,0.0,0.0,1.0,0.0
https://glebekitchen.com/green-chili-chana-achari/,0.0037291665363798276,0.0005265557699324809,-0.04940910339857053,0.021289216174910836,0.00750890522234267,0.0,0.0,0.0,0.0,0.0
https://glebekitchen.com/masala-chilli-chicken-restaurant-style/,0.004505979034725662,0.000241324884151559,-0.06269730390752093,0.00986964737081369,-0.006778052881704596,0.0,1.0,1.0,1.0,1.0
https://glebekitchen.com/laal-maas-spicy-lamb-curry/,0.042795760579106244,0.0027437444757175437,-0.08343309211077603,0.022953455735081677,-0.027609881900271693,0.0,1.0,1.0,1.0,0.0
https://glebekitchen.com/chettinad-chicken-curry-indian-hotel-style/,0.02437456370585192,-0.016638461553230514,-0.06582288060372377,0.00844611637030311,-0.013636140654497149,0.0,1.0,1.0,1.0,0.0
https://glebekitchen.com/bengali-chicken-curry-restaurant-style/,-0.013785807408442671,-0.0034646516454161025,-0.03448550807174357,0.01357918771658006,0.0008992514702747988,0.0,1.0,1.0,0.0,0.0
https://glebekitchen.com/chicken-dhansak-bengali-style/,0.003682066310712209,-0.014018506263593137,-0.056409268031251875,0.016650076794021626,-0.01148608417795099,1.0,1.0,0.0,0.0,0.0
https://glebekitchen.com/spinach-potato-curry/,0.001650224923065356,-0.002552402975949559,-0.042331020821240045,0.010314320844799107,-0.007512475218911036,0.0,0.0,0.0,0.0,0.0
https://glebekitchen.com/chicken-shashlik/,-0.018593590636965886,-0.0009270666662734901,-0.03758117230266159,0.013918492112937641,-0.004424160940973854,0.0,1.0,1.0,1.0,0.0
https://glebekitchen.com/nearly-restaurant-style-chicken-madras/,-0.003501969953767543,-0.010066939755291356,-0.04276479967503358,0.013309910622822359,-0.009499910225722736,0.0,1.0,1.0,0.0,0.0
https://glebekitchen.com/lamb-saag-indian-restaurant-style/,0.03325500071797979,0.005370219391209816,-0.06654205164275835,0.020069758302997162,-0.017884019183928637,0.0,0.0,1.0,1.0,0.0
https://glebekitchen.com/simple-chicken-curry/,0.005409343829085675,-0.01669720338889727,-0.049477460472549285,0.015089610246360078,-0.01915030152809027,0.0,1.0,0.0,0.0,0.0
https://glebekitchen.com/egg-curry-south-indian-restaurant-style/,0.025152954932926495,-0.01790956934525986,-0.053831512922769394,0.01615097176862057,-0.012531510687186862,0.0,0.0,1.0,1.0,0.0
https://glebekitchen.com/chicken-dopiaza-indian-hotel-style/,-0.009598183584045326,-0.0016561297354014087,-0.0502181597937207,0.012096506822183729,-0.009199556343466388,0.0,1.0,1.0,1.0,1.0
https://glebekitchen.com/green-chili-chicken-curry-indian-hotel-style/,0.011842282545044581,-0.0011171785212438874,-0.05783339602993742,0.021441050855916837,-0.00443336824679502,0.2364975450081833,0.2590163934426229,0.2612982744453574,0.1990008326394671,0.17267393126571667
https://glebekitchen.com/punjabi-dal-makhani/,0.028034759748385894,-0.026773749163439515,-0.0566333448221261,0.016651917475062936,-0.010160838407966478,0.0,0.0,0.0,0.0,0.0
https://glebekitchen.com/kerala-chicken-curry-nadan-kohzi-indian-hotel-style/,0.03254123867378116,-0.01374402072770989,-0.06823794333609504,0.010860143463334167,-0.017259422121400466,0.0,1.0,1.0,1.0,0.0
https://glebekitchen.com/chettinad-chicken-curry/,-0.0259498271548442,-0.007864151733015495,-0.018937673178031408,0.0009553170983420269,-0.005596823186328672,0.0,1.0,1.0,1.0,0.0
https://glebekitchen.com/chicken-and-chickpea-curry-easy-restaurant-style/,-0.012768521780571553,-0.004539516155578271,-0.04681874826286653,0.006130813282867778,-0.014587425663629675,1.0,1.0,1.0,0.0,0.0
https://glebekitchen.com/indian-restaurant-madras-curry/,0.023753668281996484,-0.018370462543908672,-0.04593069763283325,0.0150516233153049,-0.0176205450352702,0.0,1.0,1.0,1.0,0.0
https://glebekitchen.com/lamb-madras-indian-hotel-style/,0.020314160288468962,-0.008337499227173209,-0.047332618174123105,0.006596421971786432,-0.011367422313409165,0.0,1.0,1.0,1.0,0.0
https://glebekitchen.com/kachumber-indian-tomato-and-cucumber-salad/,0.012047966131418104,-0.00704006759022947,-0.04990123981447912,0.028538325477725605,-0.018340354016104433,0.0,0.2590163934426229,0.0,0.0,0.0
https://glebekitchen.com/murgir-jhol-homestyle-bengali-chicken-curry/,-0.006758116730408182,-0.011845555871317094,-0.04397832943911032,0.01578598987312397,-0.009467747381409661,0.0,1.0,0.0,0.0,0.0
https://glebekitchen.com/lamb-rogan-josh-restaurant-style-at-home/,0.03448008866930482,-0.013873370315715932,-0.0552897539841893,0.029470233171022302,-0.009144865374363154,0.0,1.0,1.0,1.0,0.0
https://glebekitchen.com/thai-chicken-khao-soi/,0.01602002485566771,-0.012461443412898144,-0.018097426389837776,-0.00046926005869144503,-0.00425520119922569,1.0,1.0,0.0,1.0,0.0
https://glebekitchen.com/thai-grilled-chicken-with-sweet-chili-sauce/,0.023216174799500035,0.02420875851160587,-0.042634571144260884,0.0018033297441823596,-0.015090409172836102,1.0,0.0,0.0,1.0,1.0
https://glebekitchen.com/thai-tom-yum-soup/,0.007321754734817099,0.0008300958326625297,-0.035640591229103506,0.024249568849677182,-0.003361737413492331,0.0,0.0,0.0,1.0,0.0
https://glebekitchen.com/chicken-pad-thai/,0.042538788213451105,0.016739529922070902,-0.02629378082318599,-0.0012830538694499631,0.01039961465670558,1.0,1.0,1.0,1.0,1.0
https://glebekitchen.com/thai-cucumber-salad/,0.020071768529683547,-0.010118029415465751,-0.03475753958598536,0.02995666555500953,0.0023868369142682547,0.0,0.0,0.0,0.0,0.0
https://glebekitchen.com/thai-fried-rice-khao-pad/,-0.012721217835494677,-0.0016486465562359051,-0.0026963110113819118,0.019436264412079067,0.0033405838379718935,1.0,1.0,1.0,1.0,0.0
https://glebekitchen.com/nam-prik-pao-thai-chili-paste/,-0.04328614192059202,0.009607189997245568,0.00523746876386888,-0.0030453699687136163,-0.004608445967200078,0.0,0.0,1.0,0.0,0.0
https://glebekitchen.com/thai-red-chicken-curry/,0.06139097695201553,-0.0031702932694240406,-0.05727335949366829,0.024806759060692424,0.009292332775913365,0.0,1.0,1.0,0.0,0.0
https://glebekitchen.com/thai-sweet-chili-sauce/,0.040973318255193646,0.05646670669731984,-0.055641555251635146,-0.02122499766332055,-0.042476237480451394,1.0,0.0,0.0,1.0,1.0
https://glebekitchen.com/panang-curry-with-chicken/,0.0024929404866229437,-0.005537002454622134,-0.029071070372238595,0.00874568325429622,-0.005887675063815332,0.0,1.0,0.0,1.0,1.0
https://glebekitchen.com/sesame-noodles-thai-style/,0.053566571414356355,0.005871681051607357,-0.017801395168948783,-0.007268831498275731,-0.0015916964418134646,1.0,1.0,1.0,1.0,0.0
https://glebekitchen.com/thai-basil-chicken-pad-kra-pao/,-0.015369604773314392,-0.0008174553831974439,-0.002664554343278517,0.013439004355609848,0.0005197624449984912,0.0,1.0,1.0,1.0,0.0
https://glebekitchen.com/easy-beef-massaman-curry/,0.03835034494572016,-0.02766539700322399,-0.04473805997359423,0.004703434428370127,-0.003771568608042755,1.0,1.0,1.0,1.0,1.0
https://glebekitchen.com/larb-thai-pork-salad/,0.037247692199920995,-0.008270236268095322,-0.028663523642754214,0.021406499870688368,0.016279848453616862,0.0,0.0,0.0,1.0,0.0
https://glebekitchen.com/grilled-pork-belly-skewers-asian-style/,0.05184177777787998,0.018485661523634102,-0.034941512750170184,0.0038654063673623958,-0.011930469220547935,0.0,0.0,0.0,0.0,0.0
https://glebekitchen.com/spicy-thai-beef-salad/,0.03808648638748057,0.004960064937147671,-0.05344255754650031,0.040631411981954975,-0.01184408834426452,0.0,1.0,0.0,1.0,0.0
https://glebekitchen.com/thai-green-curry-from-scratch/,0.008937348051767166,-0.014900102152374065,-0.034359951758653196,0.007959796296441972,-0.028439669409064807,1.0,1.0,1.0,1.0,1.0
https://glebekitchen.com/thai-basil-beef-pad-gra-prow/,-0.03205080261845258,0.0029985695049758107,-0.00895654946314751,0.016211474402539085,0.006191380494085489,0.0,1.0,1.0,0.0,0.0
https://glebekitchen.com/pad-thai-rest-us/,0.045702326508887725,0.020976004883095728,-0.0411857617112115,-0.005182241796488287,0.0030721250201497493,1.0,0.0,1.0,1.0,1.0
https://glebekitchen.com/thai-chicken-salad-with-rice-noodles/,0.00851785220252944,-0.007742510520541363,-0.029300636843343362,0.030173287534617257,-0.01298703568994176,0.2364975450081833,0.2590163934426229,0.2612982744453574,0.1990008326394671,0.17267393126571667
https://glebekitchen.com/papaya-salad-som-tam-thai/,0.04680182513386647,-0.010214255119309916,-0.053595610473139,0.036133989784680784,0.017794570338017058,0.0,0.0,0.0,0.0,1.0
https://glebekitchen.com/thai-dipping-sauce/,-0.0010208755438320736,-0.007474183474377149,-0.03045731337726694,0.02301268738129224,-0.0011551473557531446,0.0,0.0,0.2612982744453574,1.0,1.0
https://glebekitchen.com/thai-beef-stir-fry-with-rice-noodles/,0.0010674318804555698,-0.0036246589224940293,-0.014267478929912465,-0.0009674403313906471,0.009747666742549023,1.0,1.0,0.0,1.0,1.0
https://glebekitchen.com/thai-roast-chicken/,-0.028103657213776275,0.008492193117366553,-0.0010206718102539235,-0.003923192539445486,0.025556175332605704,1.0,1.0,1.0,0.0,0.0
https://glebekitchen.com/thai-beef-noodles/,0.048775437896055256,0.028661656406525855,-0.016255738800906312,0.005668236990514428,0.0077585108613254196,1.0,1.0,1.0,1.0,1.0
https://glebekitchen.com/beef-and-broccoli-thai-style/,0.010278711212918217,0.0274150489344815,-0.022591504677453616,0.0036569854301923828,-0.01189386684004243,0.0,1.0,1.0,1.0,0.0
https://glebekitchen.com/thai-curry-noodle-soup/,0.037147658481310845,-0.004208364693770895,-0.021463933843905502,0.003887631516018965,0.016060897170321515,1.0,1.0,1.0,1.0,0.0
https://glebekitchen.com/thai-chicken-buddha-bowl/,0.024137192163862183,0.012548415407548663,-0.029204187099167483,0.02896297502543244,0.009130281989407754,1.0,0.0,0.0,1.0,0.0
https://glebekitchen.com/thai-ribs-with-hot-and-sweet-dipping-sauce/,0.05468322061936342,0.02749481104773754,-0.04344763945199907,0.026657479273149137,-0.01124712074899962,0.0,0.0,0.0,1.0,1.0
https://glebekitchen.com/spicy-grilled-korean-chicken-wings/,-0.020912616856275625,-0.00416785845563881,0.008304743947514907,0.007109906346698686,0.011590502868923613,0.0,0.0,0.0,0.0,0.17267393126571667
https://glebekitchen.com/korean-ramen/,0.05776903998092988,0.04751031945064566,0.043771305584333536,-0.019660918602875613,-0.0076636855816606215,1.0,1.0,0.0,1.0,1.0
https://glebekitchen.com/korean-pork-ribs-with-gochujang-glaze/,-0.03049151180429885,0.011083260656146643,0.017776226172321694,-0.010208263035190126,0.005534988714481894,0.0,1.0,1.0,1.0,1.0
https://glebekitchen.com/korean-pork-stew-kimchi-jjigae/,-0.005594204930088277,0.03179501582420888,0.027267196090245215,0.0034402027860369485,0.009164230442554903,0.0,0.0,1.0,0.0,0.0
https://glebekitchen.com/korean-pork-bone-soup-gamjatang/,0.019561814364677813,0.04107900775785277,0.01670807385745123,0.0069217115276326525,0.009314719979682862,0.0,1.0,1.0,1.0,0.0
https://glebekitchen.com/korean-bbq-shrimp/,-0.010506226460427493,-0.004982392353354435,0.013608587779083367,0.0016825414827792344,-0.01935137927626755,0.2364975450081833,0.2590163934426229,0.2612982744453574,0.1990008326394671,0.17267393126571667
https://glebekitchen.com/korean-beef-stew-with-gochujang/,0.06541880648134223,0.10679356848949927,0.029798309538602744,-0.06405644741826953,-0.04252276416242127,0.0,1.0,1.0,1.0,0.0
https://glebekitchen.com/korean-meatloaf-gochujang-glaze/,0.013156816833755755,-0.021016892172173264,0.02321185637488029,-0.0046422003209510634,-0.009907668239486953,0.0,1.0,1.0,1.0,1.0
https://glebekitchen.com/korean-bulgogi-sauce/,-0.02810820167891788,-0.015952007940873036,-0.005432049550949566,0.01510566661061101,0.0039956819927870054,1.0,0.0,0.0,1.0,1.0
https://glebekitchen.com/spicy-miso-grilled-chicken/,-0.010708030832896277,0.031008241277014577,0.0032648020886623186,-0.011979629826979003,-0.006140906522128431,0.0,1.0,0.0,0.0,0.0
https://glebekitchen.com/korean-style-pork-chops/,-0.034800399521145185,-0.005014709499547829,-0.003808227267419217,-0.0073579500718863764,0.0076809973983701955,0.0,1.0,0.0,0.0,0.0
https://glebekitchen.com/spicy-korean-chicken/,-0.024728217551596134,0.003773360524246275,-0.004480108724784832,0.001136214312093133,0.006813781351441282,1.0,1.0,0.0,0.0,0.17267393126571667
https://glebekitchen.com/easy-korean-beef-bulgogi/,0.0016209350334153707,0.012461443239312961,-0.009774783492780215,0.015174254557998429,0.005536855173107493,0.0,0.0,0.0,0.0,0.0
https://glebekitchen.com/korean-braised-pork-ribs/,-0.0162060948447602,0.04398577361508252,0.019484004011727427,-0.015351121212520791,-0.00803465582227708,0.0,1.0,1.0,0.0,0.0
https://glebekitchen.com/gochujang-mayonnaise/,-0.02087755425897359,-0.005557292393938458,0.03252162576049026,0.009039401940013696,-0.04242403302997236,0.0,0.2590163934426229,0.0,0.0,0.0
https://glebekitchen.com/korean-chicken-wings-gochujang-sauce/,0.005418761263437983,-0.020952538225785623,0.010014057021509865,-0.01824019832609907,0.015312088134984034,1.0,1.0,1.0,1.0,1.0
https://mykoreankitchen.com/spicy-mayo-recipe/,0.025284350714796146,-0.029557563788199154,-0.034319421596837464,0.027294709285596297,-0.047111438013552304,0.0,0.0,0.0,0.0,0.0
https://mykoreankitchen.com/strawberry-milk/,0.010760617262367267,-0.07065459068441768,0.02685584919451205,-0.025609193237799345,-0.03168996465031361,1.0,0.0,0.0,0.0,1.0
https://mykoreankitchen.com/dakgangjeong-soy-garlic-fried-chicken/,0.015255287475157425,-0.015555798571775822,-0.015975926854020852,0.005528663636560266,0.005605905584365102,1.0,1.0,0.0,1.0,1.0
https://mykoreankitchen.com/chili-oil-recipe/,-0.04388830056972025,0.006015433064989543,-0.011864491817698369,0.01530874337009643,0.005103612423879714,1.0,0.0,1.0,1.0,1.0
https://mykoreankitchen.com/dalgona-coffee-whipped-coffee/,-0.008760119512681235,-0.05581195974971228,0.016044151098344672,-0.03349914789465394,-0.0017102990599370874,0.0,0.0,0.0,0.0,1.0
https://mykoreankitchen.com/omelet-rice-omurice/,0.06588927066929512,-0.020876916946876784,0.05218220953892843,0.05134971212331695,0.023947270170895277,1.0,1.0,1.0,1.0,1.0
https://mykoreankitchen.com/tuna-pancakes-chamchijeon/,-0.028533221542200723,-0.0115997458890781,0.015490648299228731,0.00551178407137247,0.005855979639462908,0.0,0.0,0.0,0.0,0.0
https://mykoreankitchen.com/pan-fried-zucchini/,-0.05246586845809355,-0.02651110738447713,0.034109776013003766,-0.019409390733869217,-0.008909775537144365,0.0,0.0,0.0,0.0,0.0
https://mykoreankitchen.com/slow-cooker-short-ribs/,0.029556221032361944,-0.0116668886077391,0.009610088568594936,0.01959415497371049,0.026079924979556426,1.0,0.0,0.0,1.0,1.0
https://mykoreankitchen.com/korean-ground-beef-rice-bowls/,0.029396979644415868,0.009217434230190898,-0.0010059370266476495,0.00395875295907518,0.01646432715657538,0.0,0.0,1.0,0.0,1.0
https://mykoreankitchen.com/doenjang-jjigae/,-0.01156313298656256,0.010886136854778239,0.00463939211515343,0.013050961140847474,0.017626117971331706,0.0,0.0,0.0,0.0,0.0
https://mykoreankitchen.com/spicy-sweet-and-vinegary-noodles-bibim-guksu/,0.010286805564005111,0.011310686454330626,0.001433329969639554,-0.0036436174812713392,0.010929274614649018,1.0,0.0,0.0,1.0,1.0
https://mykoreankitchen.com/galbitang-beef-short-rib-soup/,0.020988844114061458,0.02697494111932722,0.023414254459839186,0.019260919567286636,0.0010725077741426945,0.0,1.0,0.0,1.0,0.0
https://mykoreankitchen.com/nuclear-fire-noodle-fries/,-0.0030998927053661816,0.008917990150588702,-0.003999780545739324,-0.033695934980362253,-0.00026576074747011567,1.0,0.0,1.0,1.0,0.0
https://mykoreankitchen.com/kimchi-jjim-braised-kimchi/,0.0028560368068472016,0.016725973972451635,-0.010882035782058994,0.018377265046667462,0.010162880608961138,0.0,0.0,0.0,0.0,0.0
https://mykoreankitchen.com/air-fryer-chicken-wings/,0.0175149622156933,-0.018756504573908015,-0.014430597668960692,0.011664643830788185,0.005924176102343639,0.0,0.0,0.0,1.0,1.0
https://mykoreankitchen.com/pickled-radishes/,0.012797080915431146,0.058379264780245056,0.002628825869995269,-0.008979936111053207,0.0022440253015434657,0.0,0.0,0.0,0.0,0.0
https://mykoreankitchen.com/air-fryer-chickpeas/,-0.0015887923081745485,-0.01912763476237383,-0.02480661263916496,0.0071622454667114085,-0.019150652180373266,0.0,0.0,0.0,0.0,0.0
https://mykoreankitchen.com/bean-sprout-rice-kongnamul-bap/,-0.015218538447111676,0.0033618946911621573,-0.004675496056960715,0.009472314188671014,0.018854339275678065,1.0,0.0,0.0,1.0,0.0
https://mykoreankitchen.com/gochujang-chicken/,0.01768845529756496,-0.0112828602715876,-0.013326650661703214,0.020928734118585868,0.006244904557537594,1.0,1.0,0.0,1.0,1.0
https://mykoreankitchen.com/korean-style-tuna-cakes/,0.003159370074521361,-0.010473396953898506,0.009883736383389127,0.002841514440495296,-0.014277950648267534,0.0,0.0,0.0,0.0,0.0
https://www.justonecookbook.com/corn-dogs/,0.07651215343572965,-0.08266978125448529,0.04238421994307191,-0.023746294791229715,-0.05279002389825392,0.2364975450081833,0.2590163934426229,0.2612982744453574,0.1990008326394671,0.17267393126571667
https://www.justonecookbook.com/renkon-chips/,0.0628055967755856,-0.011659812213303537,-0.05623145397368392,-0.041133332335218216,-0.006934425019198116,0.2364975450081833,0.2590163934426229,0.2612982744453574,0.1990008326394671,0.17267393126571667
https://www.justonecookbook.com/mini-fruit-puff-pastry-with-lemon-glaze/,0.052597025876945196,-0.05525162469076318,0.03362844060388838,0.0070997169879030144,-0.05120452403918327,0.2364975450081833,0.2590163934426229,0.2612982744453574,0.1990008326394671,0.17267393126571667
https://www.justonecookbook.com/tandoori-chicken-puffs/,0.05985038261927492,-0.0403569947265212,0.011798907353834676,0.013462241151721772,-0.04327646192710242,0.2364975450081833,0.2590163934426229,0.2612982744453574,0.1990008326394671,0.17267393126571667
https://www.justonecookbook.com/steamed-cake/,0.07398456856384085,-0.08913693836647035,0.03908099649914149,-0.028292007194593866,-0.019054507136118618,0.2364975450081833,0.2590163934426229,0.2612982744453574,0.1990008326394671,0.17267393126571667
https://www.justonecookbook.com/candied-sweet-potatoes/,0.006398697167335199,-0.017463485160038494,0.0006530571714222922,-0.029497245020479342,0.0015124643472194453,0.2364975450081833,0.2590163934426229,0.2612982744453574,0.1990008326394671,0.17267393126571667
https://www.justonecookbook.com/oyaki/,0.013872893553905205,-0.00193737921958069,0.0042527030929430535,-0.04404720383467178,-0.02794424579834303,0.2364975450081833,0.2590163934426229,0.2612982744453574,0.1990008326394671,0.17267393126571667
https://www.justonecookbook.com/how-to-enjoy-japanese-mochi/,0.03218318330536767,-0.02446981640671436,-0.024992185080393345,-0.011643217846897449,0.05005770822977386,0.2364975450081833,0.2590163934426229,0.2612982744453574,0.1990008326394671,0.17267393126571667
https://www.justonecookbook.com/green-tea-steamed-cake/,0.08239744165625365,-0.072183333692798,0.008166371408804173,-0.02603914941640872,-0.018399070459101878,0.2364975450081833,0.2590163934426229,0.2612982744453574,0.1990008326394671,0.17267393126571667
https://www.justonecookbook.com/spicy-edamame/,-0.015682480602481813,-0.046007952897642646,-0.004132250609631419,-0.037865002357436686,-0.034303952156688404,0.2364975450081833,0.2590163934426229,0.2612982744453574,0.1990008326394671,0.17267393126571667
https://www.justonecookbook.com/japanese-fruit-sandwich-fruit-sando/,0.03567962488734194,-0.07667331724067003,-0.004290583548778787,0.009066599538511534,-0.026431311396078395,0.2364975450081833,0.2590163934426229,0.2612982744453574,0.1990008326394671,0.17267393126571667
https://www.justonecookbook.com/roast-chestnuts/,0.10132119424427587,0.020881946828748436,0.01000080412707667,0.04329062579260845,0.05816499000713746,0.2364975450081833,0.2590163934426229,0.2612982744453574,0.1990008326394671,0.17267393126571667
https://www.justonecookbook.com/rice-cracker-recipe/,-0.012927130331523762,-0.04856737880676101,0.004226825425184147,-0.04571703265709974,-0.03947000920245198,0.2364975450081833,0.2590163934426229,0.2612982744453574,0.1990008326394671,0.17267393126571667
https://www.justonecookbook.com/takoyaki-recipe/,0.05953290118739954,0.02272446654271864,0.027918574408981222,-0.03349703835163666,-0.05064835398464551,0.2364975450081833,0.2590163934426229,0.2612982744453574,0.1990008326394671,0.17267393126571667
https://www.justonecookbook.com/nikuman-steamed-pork-buns/,-0.015414562641730781,-0.021843644509299973,0.0108889491642237,-0.017739840216885405,0.0028741308408009826,0.2364975450081833,0.2590163934426229,0.2612982744453574,0.1990008326394671,0.17267393126571667
https://www.justonecookbook.com/homemade-popcorn-with-truffle-salt/,-0.02927328116503089,-0.03809254086119026,0.0021075500111633863,-0.03829725579728621,-0.02253612492607424,0.2364975450081833,0.2590163934426229,0.2612982744453574,0.1990008326394671,0.17267393126571667
https://www.justonecookbook.com/sata-andagi/,0.050952450113942865,-0.08617655114109844,0.03932327889123618,-0.043627414992234596,-0.04071784941624226,0.2364975450081833,0.2590163934426229,0.2612982744453574,0.1990008326394671,0.17267393126571667
https://www.justonecookbook.com/banana-bread/,0.01989701556862971,-0.07038670876652221,0.028357884030727493,-0.029425447764396588,-0.043547630592818645,0.2364975450081833,0.2590163934426229,0.2612982744453574,0.1990008326394671,0.17267393126571667
https://www.justonecookbook.com/seared-tuna-aburi-toro/,-0.06010291087569108,0.02589085620502874,0.00805294163026476,0.006308768531753966,-0.0008882390004045417,0.2364975450081833,0.2590163934426229,0.2612982744453574,0.1990008326394671,0.17267393126571667
https://www.justonecookbook.com/chicken-spring-rolls/,-0.02764173454305726,0.0017622450395793506,-0.005103307904360455,0.0028424931412701173,0.005830147134855112,0.2364975450081833,0.2590163934426229,0.2612982744453574,0.1990008326394671,0.17267393126571667
https://www.justonecookbook.com/gyoza-with-wings-hanetsuki-gyoza/,-0.011513267913758467,-0.058717921922248735,0.005548542870984058,-0.05356509410810306,-0.038962257719775385,0.2364975450081833,0.2590163934426229,0.2612982744453574,0.1990008326394671,0.17267393126571667
https://www.justonecookbook.com/sauteed-abalone/,0.09791837242200456,0.04861350818706226,0.012154074697303148,-0.017550757451786313,-0.06304981478794805,0.2364975450081833,0.2590163934426229,0.2612982744453574,0.1990008326394671,0.17267393126571667
https://www.justonecookbook.com/grilled-oysters-ponzu-sauce/,0.024675775487313714,0.048845698612922046,-0.00907410869628608,0.00991512854741313,-0.0032266417579183667,0.2364975450081833,0.2590163934426229,0.2612982744453574,0.1990008326394671,0.17267393126571667
https://www.justonecookbook.com/japanese-clams-sake-steamed-clams/,-0.022607990924386614,0.006740777463018645,-0.02497512460476781,0.03505299886300988,0.009937365131195424,0.2364975450081833,0.2590163934426229,0.2612982744453574,0.1990008326394671,0.17267393126571667
https://www.justonecookbook.com/miso-dengaku/,0.10734559378788816,0.055354604452887604,-0.003856807624974516,-0.041734206409092894,-0.024469618837436344,0.2364975450081833,0.2590163934426229,0.2612982744453574,0.1990008326394671,0.17267393126571667
https://www.justonecookbook.com/thai-chicken-lettuce-wraps/,0.0123376624674397,0.007476484965807792,-0.005752349106732372,0.00954216606527488,0.005776854173753711,0.2364975450081833,0.2590163934426229,0.2612982744453574,0.1990008326394671,0.17267393126571667
https://www.justonecookbook.com/shrimp-egg-rolls/,-0.013976414786995808,-0.03926972303882609,0.020731289538015615,-0.03352466300348544,-0.026124480020077664,0.2364975450081833,0.2590163934426229,0.2612982744453574,0.1990008326394671,0.17267393126571667
https://www.justonecookbook.com/agedashi-tofu-2/,0.12515362892184875,0.08348385660933104,0.015053411549065168,-0.04759200572296302,-0.03490421373438562,0.2364975450081833,0.2590163934426229,0.2612982744453574,0.1990008326394671,0.17267393126571667
https://www.justonecookbook.com/tazukuri-candied-sardines/,0.006862447292630574,-0.044892992455749355,-0.011343237998019564,-0.036907362104652876,-0.02423565063042907,0.2364975450081833,0.2590163934426229,0.2612982744453574,0.1990008326394671,0.17267393126571667
https://www.justonecookbook.com/pickled-chrysanthemum-turnip/,0.017728344899908724,0.027974946995965005,-0.017075467678058925,-0.00598012284245917,-0.008867657744854528,0.2364975450081833,0.2590163934426229,0.2612982744453574,0.1990008326394671,0.17267393126571667
https://www.justonecookbook.com/bitter-melon-salad/,-0.024966601293612986,0.01215119819766143,0.004502475177504309,-0.02153452046965839,0.001823756367005063,0.2364975450081833,0.2590163934426229,0.2612982744453574,0.1990008326394671,0.17267393126571667
https://www.justonecookbook.com/spicy-miso-chicken/,0.05414097587376386,0.08860820273388045,0.005902684355654929,-0.05485974607795423,-0.04451051363731365,0.2364975450081833,0.2590163934426229,0.2612982744453574,0.1990008326394671,0.17267393126571667
https://www.justonecookbook.com/cheese-tart/,0.06573945014220359,-0.07969982378283023,0.08050291615361121,0.0015706031574129877,-0.03635053709262876,0.2364975450081833,0.2590163934426229,0.2612982744453574,0.1990008326394671,0.17267393126571667
https://www.justonecookbook.com/bbq-king-crab/,-0.042194250627785465,0.020323432924213482,-0.001541480633948844,0.017804896426726592,0.003849894388192116,0.2364975450081833,0.2590163934426229,0.2612982744453574,0.1990008326394671,0.17267393126571667
https://www.justonecookbook.com/eggplant-agebitashi/,0.09938203251428103,0.08366314569201372,0.008647166273380715,-0.03591210822603643,-0.04398040793674332,0.2364975450081833,0.2590163934426229,0.2612982744453574,0.1990008326394671,0.17267393126571667
https://www.justonecookbook.com/tsukune/,-0.007695429351485057,0.02970859473100239,0.010757215083688638,-0.017110899787854933,-0.00723284957856813,0.2364975450081833,0.2590163934426229,0.2612982744453574,0.1990008326394671,0.17267393126571667
https://www.justonecookbook.com/fresh-spring-rolls-yakiniku/,-0.0049413830066354705,-0.005010097157731053,-0.012402094206455933,0.0007616511509222209,-0.011884402809973599,0.2364975450081833,0.2590163934426229,0.2612982744453574,0.1990008326394671,0.17267393126571667
https://www.justonecookbook.com/garlic-soy-marinated-albacore/,-0.08795741897030718,0.010190959089273565,0.009343189365653978,-0.012871932638317084,0.0004470585577394656,0.2364975450081833,0.2590163934426229,0.2612982744453574,0.1990008326394671,0.17267393126571667
https://www.justonecookbook.com/tuna-tataki/,-0.01182919382090949,-0.021142852482072847,-0.012579442178922038,-0.02053000572815372,-0.019169327107449684,0.2364975450081833,0.2590163934426229,0.2612982744453574,0.1990008326394671,0.17267393126571667
https://www.justonecookbook.com/gyutan-bbq-beef-tongue/,-0.06248845768525859,0.0023849248742882218,0.004877724139555852,0.005045740200507309,-0.0008297391860844588,0.2364975450081833,0.2590163934426229,0.2612982744453574,0.1990008326394671,0.17267393126571667
https://www.justonecookbook.com/teriyaki-wings/,-0.03401856383864575,6.188038114278636e-05,0.002531738446229501,-0.005069616588539033,-0.00039886267256467354,0.2364975450081833,0.2590163934426229,0.2612982744453574,0.1990008326394671,0.17267393126571667
https://www.justonecookbook.com/salmon-kombu-roll/,-0.011466253301765565,0.02096007944290221,0.018660277955361272,-0.03136630395786049,-0.011280646559734285,0.2364975450081833,0.2590163934426229,0.2612982744453574,0.1990008326394671,0.17267393126571667
https://www.justonecookbook.com/ham-katsu/,0.11363531502733136,-0.06653164800049256,0.04405389095287583,-0.043837666566645866,-0.07928927502478265,0.2364975450081833,0.2590163934426229,0.2612982744453574,0.1990008326394671,0.17267393126571667
https://www.justonecookbook.com/octopus-carpaccio/,-0.028360004320434288,-0.007471882293610826,-0.011263141005158633,0.012112358230450912,-0.01978385290890646,0.2364975450081833,0.2590163934426229,0.2612982744453574,0.1990008326394671,0.17267393126571667
https://www.justonecookbook.com/grilled-clams-little-neck-clams/,-0.004177830295581136,0.015710363249102702,0.01136180728376154,-0.017957066596221507,-0.02988518776916927,0.2364975450081833,0.2590163934426229,0.2612982744453574,0.1990008326394671,0.17267393126571667
https://www.justonecookbook.com/napa-cabbage-gyoza/,-0.008483108468052216,0.004581915660565853,0.009212597576162473,-0.00670077974788932,0.01047796069036526,0.2364975450081833,0.2590163934426229,0.2612982744453574,0.1990008326394671,0.17267393126571667
https://www.justonecookbook.com/teba-shio-salted-chicken-wings/,-0.03332590258062999,-0.011137977151619202,0.007797349272903833,0.025768877832392487,-0.0017229201871606455,0.2364975450081833,0.2590163934426229,0.2612982744453574,0.1990008326394671,0.17267393126571667
https://www.justonecookbook.com/japanese-tofu-cold-tofu-hiyayakko/,0.09705014350691166,0.028344418143764653,0.038621298233031974,0.04519126622578103,0.007802696830694743,0.2364975450081833,0.2590163934426229,0.2612982744453574,0.1990008326394671,0.17267393126571667
https://www.justonecookbook.com/eggplant-with-sesame-ponzu-sauce/,-0.0328672005432172,0.016078616666871385,-0.003647551131271098,0.00863523359719881,0.007991763476053487,0.2364975450081833,0.2590163934426229,0.2612982744453574,0.1990008326394671,0.17267393126571667
https://www.justonecookbook.com/chawanmushi-with-shrimp/,0.04448368369302015,0.04940657836409301,0.04389099542690145,-0.02764079445201753,-0.029779778415277854,0.2364975450081833,0.2590163934426229,0.2612982744453574,0.1990008326394671,0.17267393126571667
https://www.justonecookbook.com/instant-pot-chawanmushi/,0.06237313053102079,0.058920177209845964,0.04237141578151688,-0.034960081205691655,-0.03784721810240585,0.2364975450081833,0.2590163934426229,0.2612982744453574,0.1990008326394671,0.17267393126571667
https://www.justonecookbook.com/burrata-crostini/,0.014576293727989454,0.0316910717932901,0.027429967779751846,-0.015002492939008955,-0.026615379862646244,0.2364975450081833,0.2590163934426229,0.2612982744453574,0.1990008326394671,0.17267393126571667
https://www.justonecookbook.com/coconut-shrimp/,0.06253280254738307,-0.016376346930914956,0.00907396023624816,0.004721218477907823,-0.03813652444912433,0.2364975450081833,0.2590163934426229,0.2612982744453574,0.1990008326394671,0.17267393126571667
https://www.justonecookbook.com/japanese-pickled-cucumber/,-0.04507697707706154,0.00040301996984237255,-0.008365050960166783,-0.013471035292761143,0.004062985618708986,0.2364975450081833,0.2590163934426229,0.2612982744453574,0.1990008326394671,0.17267393126571667
https://www.justonecookbook.com/asian-meatball-karaage/,0.04528763852206771,-0.04307975228218012,0.031108303668171668,-0.015729357284018648,0.012351166595999708,0.2364975450081833,0.2590163934426229,0.2612982744453574,0.1990008326394671,0.17267393126571667
https://www.justonecookbook.com/datemaki-sweet-rolled-omelette/,0.019301137597859157,-0.014706775502474357,0.05121467487751732,-0.026397526354249846,-0.033064451079087134,0.2364975450081833,0.2590163934426229,0.2612982744453574,0.1990008326394671,0.17267393126571667
https://www.justonecookbook.com/hijiki-salad/,0.11361348057687429,0.06715418710980653,-0.0027958928614454713,-0.05753373151665483,-0.030056628522859983,0.2364975450081833,0.2590163934426229,0.2612982744453574,0.1990008326394671,0.17267393126571667
https://www.justonecookbook.com/temari-sushi/,0.10103640417348066,0.05303578260061054,0.013817461931772981,-0.016859638415322096,-0.02080528485793776,0.2364975450081833,0.2590163934426229,0.2612982744453574,0.1990008326394671,0.17267393126571667
https://www.justonecookbook.com/slow-cooker-sriracha-chili-chicken-wings/,0.022909781121576905,-0.017420034033212423,-0.003510892192956139,0.01681785280472331,-0.007642567978224973,0.2364975450081833,0.2590163934426229,0.2612982744453574,0.1990008326394671,0.17267393126571667
https://www.justonecookbook.com/momofuku-fried-chicken/,-0.02258389607326402,-0.019361854472495638,-0.00020478162666758373,-0.0009666578553186625,-0.004308222318272164,0.2364975450081833,0.2590163934426229,0.2612982744453574,0.1990008326394671,0.17267393126571667
https://www.justonecookbook.com/braised-pork-belly-kakuni/,0.07528808557346578,0.05077234571208422,0.028723731735192277,-0.004733029677414323,-0.02410004632683894,0.2364975450081833,0.2590163934426229,0.2612982744453574,0.1990008326394671,0.17267393126571667
https://www.justonecookbook.com/bbq-chicken-wings/,-0.010557385199205998,-0.0012825813372362965,0.00028275912147922766,0.009534168917028678,-0.0002915814230271976,0.2364975450081833,0.2590163934426229,0.2612982744453574,0.1990008326394671,0.17267393126571667
https://www.justonecookbook.com/japanese-beef-tendon-stew/,0.08477225713362373,0.09644705862345758,0.017664359978017737,-0.028640453587478226,-0.02414317643177491,0.2364975450081833,0.2590163934426229,0.2612982744453574,0.1990008326394671,0.17267393126571667
https://www.justonecookbook.com/japanese-grilled-eggplant-yaki-nasu/,0.0022196801359176243,0.05699914193160808,-0.003708738362861868,0.004257767201007919,-0.014105355609569444,0.2364975450081833,0.2590163934426229,0.2612982744453574,0.1990008326394671,0.17267393126571667
https://www.justonecookbook.com/kamaboko-with-salmon-roe/,-0.1264356894133615,0.01152300323986597,0.01599817008561931,-0.012264269568771835,0.01060601303418614,0.2364975450081833,0.2590163934426229,0.2612982744453574,0.1990008326394671,0.17267393126571667
https://www.justonecookbook.com/gluten-free-karaage/,0.018746465331661466,-0.03198552823280623,0.005956027612304734,-0.020889825363250993,-0.00027660834733082867,0.2364975450081833,0.2590163934426229,0.2612982744453574,0.1990008326394671,0.17267393126571667
https://www.justonecookbook.com/edamame/,-0.08281025374359513,-0.002097318961869064,0.011754441256488491,-0.018629612352781117,-0.0038441337455801744,0.2364975450081833,0.2590163934426229,0.2612982744453574,0.1990008326394671,0.17267393126571667
https://www.justonecookbook.com/egg-tofu/,0.11165460041508071,0.07866904401341493,0.05548479033609177,-0.05307571632738177,-0.06091605904845043,0.2364975450081833,0.2590163934426229,0.2612982744453574,0.1990008326394671,0.17267393126571667
https://www.justonecookbook.com/spring-rolls-with-sesame-ponzu-vinaigrette/,0.02721177007612106,0.02944136140130689,0.004845770765748436,0.014216658415688232,0.006666749667437164,0.2364975450081833,0.2590163934426229,0.2612982744453574,0.1990008326394671,0.17267393126571667
https://www.justonecookbook.com/chawanmushi-with-matsutake-mushroom/,0.08977402014274571,0.06530620192541504,0.05537574780733843,-0.04615699708429372,-0.050732645545409856,0.2364975450081833,0.2590163934426229,0.2612982744453574,0.1990008326394671,0.17267393126571667
https://www.justonecookbook.com/nagoya-style-fried-chicken-wings/,0.0010694406882531175,-0.017629636177477037,0.003586657421888482,-0.021853090909052103,-0.0003879825258342035,0.2364975450081833,0.2590163934426229,0.2612982744453574,0.1990008326394671,0.17267393126571667
https://www.justonecookbook.com/fried-chicken-wings/,0.00583790204525877,-0.03538179325641328,-0.00027201635098663215,-0.006158483796257973,-0.005007007480128105,0.2364975450081833,0.2590163934426229,0.2612982744453574,0.1990008326394671,0.17267393126571667
https://www.justonecookbook.com/chawanmushi-savory-steamed-egg-custard/,0.04392910370809596,0.04709448167718448,0.03899577942713356,-0.024812498662588042,-0.02905736390218358,0.2364975450081833,0.2590163934426229,0.2612982744453574,0.1990008326394671,0.17267393126571667
https://www.justonecookbook.com/karashi-renkon/,0.08581493135856197,-0.0011336987084616921,-0.008943788779399197,-0.04695226700795149,-0.03593893642058891,0.2364975450081833,0.2590163934426229,0.2612982744453574,0.1990008326394671,0.17267393126571667
https://www.justonecookbook.com/cranberry-brie-bites/,0.052167460468184115,-0.031245105258046357,-0.011523700989275267,0.05094313830765338,-0.0629083132866125,0.0,0.0,0.0,0.0,0.0
https://www.justonecookbook.com/shishamo-wrap/,-0.006266511507034859,-0.053660170612931435,0.0188555352806897,-0.0404032949702881,-0.03742106523488044,0.2364975450081833,0.2590163934426229,0.2612982744453574,0.1990008326394671,0.17267393126571667
https://www.justonecookbook.com/boiled-squid-with-miso-vinaigrette/,0.020282458178993483,0.04099837030386347,0.0020572303222724103,-0.03400988459470703,-0.01544753418137791,0.2364975450081833,0.2590163934426229,0.2612982744453574,0.1990008326394671,0.17267393126571667
https://www.justonecookbook.com/vegan-miso-soup/,0.11908284621270776,0.11276345557331699,0.015356684384479688,-0.059848871744839924,-0.02876577939297025,0.2364975450081833,0.2590163934426229,0.2612982744453574,0.1990008326394671,0.17267393126571667
https://www.justonecookbook.com/kimchi-gyoza-nabe/,0.034205567938107306,0.07079048614591475,0.012240908137694767,-0.008790565054440707,0.0028830978662145556,0.0,0.0,0.0,0.1990008326394671,1.0
https://www.justonecookbook.com/ozoni-zoni-japanese-new-year-mochi-soup/,0.17768914296814112,0.12488102378916696,-0.015003608163391326,-0.027390259133064244,-0.06309518657022656,0.2364975450081833,0.2590163934426229,0.2612982744453574,0.1990008326394671,0.17267393126571667
https://www.justonecookbook.com/potato-leek-soup/,-0.027096708925865187,-0.026619514120371016,0.019418899698905985,-0.009134483194718102,-0.009068692429529663,0.2364975450081833,0.2590163934426229,0.2612982744453574,0.1990008326394671,0.17267393126571667
https://www.justonecookbook.com/homemade-miso-soup/,0.18760026257331228,0.17507368010054,0.022680123813206252,-0.07141022992751263,-0.07907148228758276,0.2364975450081833,0.2590163934426229,0.2612982744453574,0.1990008326394671,0.17267393126571667
https://www.justonecookbook.com/miso-soup-yuzu-kosho/,0.04047046110437374,0.0633194431417577,0.00892134153188854,-0.01737229564148975,-0.008408176953954918,0.2364975450081833,0.2590163934426229,0.2612982744453574,0.1990008326394671,0.17267393126571667
https://www.justonecookbook.com/nabeyaki-udon/,0.08330382954796227,0.056908957891132095,0.03425898211303177,-0.033703486364216266,-0.007935933321075275,0.2364975450081833,0.2590163934426229,0.2612982744453574,0.1990008326394671,0.17267393126571667
https://www.justonecookbook.com/kimchi-nabe/,0.05911277867095302,0.07477913193426891,0.018039852961412087,-0.014616014912088204,0.00026811732504828186,0.2364975450081833,0.2590163934426229,0.2612982744453574,0.1990008326394671,0.17267393126571667
https://www.justonecookbook.com/chanko-nabe-sumo-stew/,0.08272063909256157,0.058394571689125124,0.03262544280307568,-0.011719374468225435,-0.013339473805104364,0.2364975450081833,0.2590163934426229,0.2612982744453574,0.1990008326394671,0.17267393126571667
https://www.justonecookbook.com/monkfish-hot-pot/,0.09115453927600115,0.10877241037489675,0.02095891086177947,-0.03456351055684474,-0.010967007827951904,0.2364975450081833,0.2590163934426229,0.2612982744453574,0.1990008326394671,0.17267393126571667
https://www.justonecookbook.com/mille-feuille-nabe/,0.07037857159124845,0.08707406066146342,0.025476638016363757,-0.003240502018508796,-0.00912008544617007,0.2364975450081833,0.2590163934426229,0.2612982744453574,0.1990008326394671,0.17267393126571667
https://www.justonecookbook.com/thomas-kellers-clam-chowder-giveaway-winners/,0.029201436097772752,-0.033323866255083386,0.0031889274006819605,0.02283503577222914,-0.031739853824122255,0.2364975450081833,0.2590163934426229,0.2612982744453574,0.1990008326394671,0.17267393126571667
https://www.justonecookbook.com/kabocha-miso-soup/,0.048660053961720226,0.04518361887743735,-0.0128686218095643,-0.04649770679574177,-0.00990890980894267,0.2364975450081833,0.2590163934426229,0.2612982744453574,0.1990008326394671,0.17267393126571667
https://www.justonecookbook.com/pressure-cooker-oxtail-soup/,-0.001240707763829775,0.00069785337025897,-0.006974323657756429,0.02072677769873708,-0.001162172880043746,0.2364975450081833,0.2590163934426229,0.2612982744453574,0.1990008326394671,0.17267393126571667
https://www.justonecookbook.com/shrimp-pork-wonton/,-0.006097025252938425,0.010556141103518255,0.004316693976959956,0.004243978088432495,0.007467420411906288,0.2364975450081833,0.2590163934426229,0.2612982744453574,0.1990008326394671,0.17267393126571667
https://www.justonecookbook.com/bouillabaisse-french-seafood-stew/,-0.016736657207851495,0.003744600898438403,-0.013546397834393271,0.019064486469481806,-0.00950878474852816,0.2364975450081833,0.2590163934426229,0.2612982744453574,0.1990008326394671,0.17267393126571667
https://www.justonecookbook.com/taiwanese-hot-pot-and-homemade-meatballs/,0.0035413220419633525,0.011738053379442243,0.01986713636317133,0.0006283851281384697,0.019569575622323004,0.2364975450081833,0.2590163934426229,0.2612982744453574,0.1990008326394671,0.17267393126571667
https://www.justonecookbook.com/japanese-clam-soup-clear-broth/,0.045626753298189285,0.0977375572844666,0.011667108368576507,-0.06244370914602785,-0.038785838890027895,0.2364975450081833,0.2590163934426229,0.2612982744453574,0.1990008326394671,0.17267393126571667
https://www.justonecookbook.com/chicken-corn-chowder-with-roasted-potato/,0.02995146879370296,-0.027880827862486676,0.015485965757111784,0.020539625508993773,-0.010064924205638372,0.2364975450081833,0.2590163934426229,0.2612982744453574,0.1990008326394671,0.17267393126571667
https://www.justonecookbook.com/miso-nikomi-udon/,0.15770946545095885,0.11732047946446761,0.056228480296497435,-0.06743929919465037,-0.042362132237480365,0.2364975450081833,0.2590163934426229,0.2612982744453574,0.1990008326394671,0.17267393126571667
https://www.justonecookbook.com/kale-soup/,-0.025593704314139393,-0.007547769985221369,0.020332452150183887,-0.0025802063664960317,-0.01050263816374928,0.2364975450081833,0.2590163934426229,0.2612982744453574,0.1990008326394671,0.17267393126571667
https://www.justonecookbook.com/hayashi-rice/,-0.020556346015305246,-0.015497017507700907,-0.005532390782876549,0.004398180334729396,-0.010617916441477405,0.2364975450081833,0.2590163934426229,0.2612982744453574,0.1990008326394671,0.17267393126571667
https://www.justonecookbook.com/instant-pot-cream-stew/,0.0011711635645057432,-0.009430561043973395,-0.000208198543360532,0.0017813387033697445,-0.014699647030383617,0.2364975450081833,0.2590163934426229,0.2612982744453574,0.1990008326394671,0.17267393126571667
https://www.justonecookbook.com/clam-soup/,0.061079219916508956,0.09107082462899063,0.00659954526921025,-0.04795062593624601,-0.03313139054885118,0.2364975450081833,0.2590163934426229,0.2612982744453574,0.1990008326394671,0.17267393126571667
https://www.justonecookbook.com/sukiyaki/,0.09814619012944971,0.07873703318802264,0.025775618961288816,-0.04486095406725699,-0.022008443024584632,0.2364975450081833,0.2590163934426229,0.2612982744453574,0.1990008326394671,0.17267393126571667
https://www.justonecookbook.com/hot-pot-for-one/,0.08833716439567113,0.10164608014628661,0.0308129617273663,0.0125229404507703,0.00646177707379126,0.2364975450081833,0.2590163934426229,0.2612982744453574,0.1990008326394671,0.17267393126571667
https://www.justonecookbook.com/homemade-instant-miso-soup/,0.09803964917634403,0.10319209433240664,0.02214767676320087,-0.060926972844753305,-0.034392059476702964,0.2364975450081833,0.2590163934426229,0.2612982744453574,0.1990008326394671,0.17267393126571667
https://www.justonecookbook.com/kimchi-soup-with-malony-glass-noodles/,-0.019893490076766523,0.008437665057102571,0.01997478341475631,-0.0010037617831501406,0.001935607042427936,0.2364975450081833,0.2590163934426229,0.2612982744453574,0.1990008326394671,0.17267393126571667
https://www.justonecookbook.com/oxtail-oden/,0.10752978011730886,0.06648797386818214,0.03573145404619679,-0.02088507614037796,-0.026010216218926935,0.2364975450081833,0.2590163934426229,0.2612982744453574,0.1990008326394671,0.17267393126571667
https://www.justonecookbook.com/kabocha-squash-soup/,0.013943343551431979,-0.018644227781296763,0.01972231523966847,-0.0038002544266184444,-0.029075681054302048,0.2364975450081833,0.2590163934426229,0.2612982744453574,0.1990008326394671,0.17267393126571667
https://www.justonecookbook.com/vegetable-miso-soup/,0.09306418454109211,0.0681422732160117,0.0013512506943791243,-0.030715073286242834,0.016777274713252587,0.2364975450081833,0.2590163934426229,0.2612982744453574,0.1990008326394671,0.17267393126571667
https://www.justonecookbook.com/zosui-japanese-rice-soup/,0.01994022970839901,0.024597210605969016,0.018985536645101612,-0.011029706954977654,-0.015371150145758034,0.2364975450081833,0.2590163934426229,0.2612982744453574,0.1990008326394671,0.17267393126571667
https://www.justonecookbook.com/white-stew/,-0.002642288676963375,-0.014630201883819,0.010203544758820866,0.001134610743998287,-0.013433012026193444,0.0,1.0,0.0,1.0,1.0
https://www.justonecookbook.com/kimchi-chigae/,-0.027403210253378132,0.02388096133595751,0.015873345317069045,-0.014472265302548233,0.01262238699205254,0.2364975450081833,0.2590163934426229,0.2612982744453574,0.1990008326394671,0.17267393126571667
https://www.justonecookbook.com/corn-potage/,0.023307503196777206,-0.04710564603516502,0.006910045861981891,-0.0031010980352621947,-0.017612337374761713,0.2364975450081833,0.2590163934426229,0.2612982744453574,0.1990008326394671,0.17267393126571667
https://www.justonecookbook.com/instant-pot-tonjiru/,0.11296409406886729,0.06215018715692504,0.027223004039423796,-0.010975241051636407,-0.0195263022669845,0.2364975450081833,0.2590163934426229,0.2612982744453574,0.1990008326394671,0.17267393126571667
https://www.justonecookbook.com/pressure-cooker-oxtail-broth/,-0.09017849692164479,0.0029359997515024665,0.00943832842160652,-0.013140484544868353,-0.00032762497063058984,0.2364975450081833,0.2590163934426229,0.2612982744453574,0.1990008326394671,0.17267393126571667
https://www.justonecookbook.com/matsutake-clear-soup/,0.05635694538718407,0.06324338982229487,-0.002851181294001004,-0.018061444947979798,-0.056534308878311824,0.2364975450081833,0.2590163934426229,0.2612982744453574,0.1990008326394671,0.17267393126571667
https://www.justonecookbook.com/creamy-roasted-cauliflower-soup/,0.004005514288732228,-0.021138624858478155,-0.002818404362793371,0.00559272785277726,-0.03273456082521905,0.2364975450081833,0.2590163934426229,0.2612982744453574,0.1990008326394671,0.17267393126571667
https://www.justonecookbook.com/hot-tofu-yudofu/,0.04913787490376851,0.09416284825016276,0.0160743381143476,-0.04086096397758305,-0.03558946556956766,0.2364975450081833,0.2590163934426229,0.2612982744453574,0.1990008326394671,0.17267393126571667
https://www.justonecookbook.com/soup-curry/,0.0312722893923807,-0.0005341928212705204,-0.03948285286898707,0.0037810097676294354,-0.01915751278699291,0.2364975450081833,0.2590163934426229,0.2612982744453574,0.1990008326394671,0.17267393126571667
https://www.justonecookbook.com/borscht-soup-hong-kong-style/,-2.7113145583712084e-05,0.0006202493746669651,-0.007192726412196816,0.021181288793796132,-0.0007159595096938021,0.2364975450081833,0.2590163934426229,0.2612982744453574,0.1990008326394671,0.17267393126571667
https://www.justonecookbook.com/coconut-curry/,-0.019542481352725,-0.019649890224791036,-0.003154409913100963,-0.0061008463428522145,-0.010828845568197024,0.2364975450081833,0.2590163934426229,0.2612982744453574,0.1990008326394671,0.17267393126571667
https://www.justonecookbook.com/soy-milk-hot-pot-tonyu-nabe/,0.08641929182904638,0.07746324641951807,0.009583465597473933,-0.014108106602875706,-0.011485848486856678,0.2364975450081833,0.2590163934426229,0.2612982744453574,0.1990008326394671,0.17267393126571667
https://www.justonecookbook.com/kare-kare-guest-post-by-ang-sarap/,0.01023542324154236,-0.021977283028724055,0.011094925173425139,-0.004762615246859371,0.0010573475456835057,0.2364975450081833,0.2590163934426229,0.2612982744453574,0.1990008326394671,0.17267393126571667
https://www.justonecookbook.com/shabu-shabu/,0.11445877377028339,0.11943653829330111,0.02017763866041268,-0.01787348826551045,0.007844508055278228,0.2364975450081833,0.2590163934426229,0.2612982744453574,0.1990008326394671,0.17267393126571667
https://www.justonecookbook.com/nameko-mushroom-miso-soup/,0.24216927819780412,0.18200785937741468,0.04548879831304315,-0.08700688453312819,-0.07978867576245818,0.2364975450081833,0.2590163934426229,0.2612982744453574,0.1990008326394671,0.17267393126571667
https://www.justonecookbook.com/pickled-ginger/,-0.0555151525015066,-0.0020934160463117746,0.004976760705084108,-0.02382936183713929,0.008157245562499133,0.2364975450081833,0.2590163934426229,0.2612982744453574,0.1990008326394671,0.17267393126571667
https://www.justonecookbook.com/korean-pancake/,0.005534890944801106,-0.040906431848462474,0.022137054910031265,-0.029367783831463542,-0.011650795336606111,0.2364975450081833,0.2590163934426229,0.2612982744453574,0.1990008326394671,0.17267393126571667
https://www.justonecookbook.com/pickled-cucumber/,-0.019642866458277498,-0.0016962450026574054,-0.0049859571487614355,0.008616744903650993,-0.0004304762982643878,0.2364975450081833,0.2590163934426229,0.2612982744453574,0.1990008326394671,0.17267393126571667
https://www.justonecookbook.com/takikomi-gohan/,0.05179615639362149,0.07846689412052005,0.026583815897860196,-0.029509884808983332,-0.027062927944072303,0.2364975450081833,0.2590163934426229,0.2612982744453574,0.1990008326394671,0.17267393126571667
https://www.justonecookbook.com/myoga-shiso-rice/,-0.03767946067262866,-0.0037652029487714777,-0.015348977688703165,-0.023018009540717924,0.006598580054985952,0.2364975450081833,0.2590163934426229,0.2612982744453574,0.1990008326394671,0.17267393126571667
https://www.justonecookbook.com/pickled-lotus-root/,0.044463546733351955,0.04548737013553022,-0.040092417211026084,-0.010238664436870796,0.015050989717054215,0.2364975450081833,0.2590163934426229,0.2612982744453574,0.1990008326394671,0.17267393126571667
https://www.justonecookbook.com/maple-and-miso-glazed-roasted-carrots/,0.05122402762756515,-0.010506589176502157,-0.011002761728845178,-0.012360752408933038,-0.04576709937763698,0.2364975450081833,0.2590163934426229,0.2612982744453574,0.1990008326394671,0.17267393126571667
https://www.justonecookbook.com/simmered-koyadofu/,0.14248147593050595,0.09049048380783013,0.014653240461581011,-0.03956807124950226,-0.017168387190084747,0.2364975450081833,0.2590163934426229,0.2612982744453574,0.1990008326394671,0.17267393126571667
https://www.justonecookbook.com/tsukemono-shiozuke-salt-pickling/,0.05926806693536774,0.06666133728451654,-0.007125075015196489,0.01125120231411626,0.011244703863113884,0.2364975450081833,0.2590163934426229,0.2612982744453574,0.1990008326394671,0.17267393126571667
https://www.justonecookbook.com/kuri-kinton-candied-chestnuts-with-sweet-potatoes/,0.059626273181642084,-0.018676650805126087,0.0028537909631855323,-0.027817890695601477,0.0002470600824798571,0.2364975450081833,0.2590163934426229,0.2612982744453574,0.1990008326394671,0.17267393126571667
https://www.justonecookbook.com/simmered-kombu-tsukudani/,0.03908400722230272,0.06167894749070808,-0.014133728112013404,-0.022865891780651328,-0.01829951862452882,0.2364975450081833,0.2590163934426229,0.2612982744453574,0.1990008326394671,0.17267393126571667
https://www.justonecookbook.com/sweet-onion-takikomi-gohan/,-0.015626469365223158,-0.004511699348230093,0.005141716714800362,-0.03488468502369368,-0.0295653693879716,0.2364975450081833,0.2590163934426229,0.2612982744453574,0.1990008326394671,0.17267393126571667
https://www.justonecookbook.com/simmered-sweet-potatoes-with-lemon/,0.02591203368453664,-0.032492157551736435,-0.008419466901943777,0.011003893187675546,0.029572056329755306,0.2364975450081833,0.2590163934426229,0.2612982744453574,0.1990008326394671,0.17267393126571667
https://www.justonecookbook.com/tsukemono-amazuzuke-sweet-vinegar-pickling/,0.02929584514108337,0.029985346828641585,-0.019679905995702154,0.013401834895212657,0.00543693861708169,0.2364975450081833,0.2590163934426229,0.2612982744453574,0.1990008326394671,0.17267393126571667
https://www.justonecookbook.com/bean-sprout-namul/,-0.021632131636884887,0.006270012372491643,-0.009370942369611408,-0.002859238348990801,0.024296048561746927,0.2364975450081833,0.2590163934426229,0.2612982744453574,0.1990008326394671,0.17267393126571667
https://www.justonecookbook.com/miso-meat-sauce-niku-miso/,0.009273837744317193,0.021711942365096354,0.01489402928255794,-0.024473761136225892,0.007997653249196185,0.2364975450081833,0.2590163934426229,0.2612982744453574,0.1990008326394671,0.17267393126571667
https://www.justonecookbook.com/quick-and-easy-tamagoyaki/,0.055393751922690956,-0.0828288921112945,0.054199000802174234,-0.040327865637521255,-0.05316196265014766,0.2364975450081833,0.2590163934426229,0.2612982744453574,0.1990008326394671,0.17267393126571667
https://www.justonecookbook.com/pickled-tomatoes/,0.05476454351051963,0.06011281051998134,0.014320561158033736,-0.026933938764666675,-0.03102760905650731,0.2364975450081833,0.2590163934426229,0.2612982744453574,0.1990008326394671,0.17267393126571667
https://www.justonecookbook.com/spinach-and-bean-sprout-namul/,-0.009498449084331326,0.0012931437400131086,-0.017808714849299072,0.022946004217617846,0.015405649784226717,0.2364975450081833,0.2590163934426229,0.2612982744453574,0.1990008326394671,0.17267393126571667
https://www.justonecookbook.com/kuromame-sweet-black-soybeans/,-0.08921436783060784,0.000295429314047087,0.012887731935726399,-0.01874568883422773,0.0010004324161062886,0.2364975450081833,0.2590163934426229,0.2612982744453574,0.1990008326394671,0.17267393126571667
https://www.justonecookbook.com/ham-flower/,0.45395753010538276,0.02385129518851283,0.3123227366189052,0.459547124228002,0.029782697247966908,0.2364975450081833,0.2590163934426229,0.2612982744453574,0.1990008326394671,0.17267393126571667
https://www.justonecookbook.com/easy-orange-ginger-cranberry-sauce/,0.024143514205869875,-0.042313949975103446,-0.04266895847554956,0.023818567974890428,-0.056319812239845626,0.2364975450081833,0.2590163934426229,0.2612982744453574,0.1990008326394671,0.17267393126571667
https://www.justonecookbook.com/tsukemono-misozuke-miso-pickling/,0.06830597026074364,0.08343106866952178,-0.010678764337427357,-0.02478009249992227,-0.01907933186442348,0.2364975450081833,0.2590163934426229,0.2612982744453574,0.1990008326394671,0.17267393126571667
https://www.justonecookbook.com/homemade-chashu/,-0.021726884034322182,-0.018823709071831222,0.01574897869927426,-0.008509520655112138,-0.006219611625694478,0.2364975450081833,0.2590163934426229,0.2612982744453574,0.1990008326394671,0.17267393126571667
https://www.justonecookbook.com/tamagoyaki-japanese-rolled-omelette/,0.0988373785485496,0.055249627805693396,0.029307831743396313,-0.043611216487711955,-0.0460257349302633,0.2364975450081833,0.2590163934426229,0.2612982744453574,0.1990008326394671,0.17267393126571667
https://www.justonecookbook.com/sekihan-japanese-azuki-beans-rice/,0.030272490554810533,-0.014449959415484478,-0.018401981604504705,-0.02896534029048589,0.06467484675388359,0.2364975450081833,0.2590163934426229,0.2612982744453574,0.1990008326394671,0.17267393126571667
https://www.justonecookbook.com/chikuzenni-simmered-chicken-and-vegetables/,0.05583766039752911,0.05316123582561145,-0.004335749392996149,-0.023097590319196233,0.010827893548821925,0.2364975450081833,0.2590163934426229,0.2612982744453574,0.1990008326394671,0.17267393126571667
https://www.justonecookbook.com/green-beans-with-yuzu-vinaigrette/,0.016081657092614925,-0.029416318216427928,-0.03403758826504496,0.026730673838793337,-0.018344590233100404,0.2364975450081833,0.2590163934426229,0.2612982744453574,0.1990008326394671,0.17267393126571667
https://www.justonecookbook.com/pearl-balls-guest-post-by-weeknite-meals/,0.013765644459270547,-0.010383578071385855,0.02752384358278022,0.0007150479362333061,0.02550006980928271,0.2364975450081833,0.2590163934426229,0.2612982744453574,0.1990008326394671,0.17267393126571667
https://www.justonecookbook.com/bamboo-rice-takenoko-gohan/,0.018542806352200035,0.06783803219170707,0.008574136366341596,-0.030195136910081282,-0.014116126698050237,0.2364975450081833,0.2590163934426229,0.2612982744453574,0.1990008326394671,0.17267393126571667
https://www.justonecookbook.com/simmered-bamboo-shoots/,0.06333081828567572,0.1266646168869443,0.012939740525476858,-0.07316536432656731,-0.0523475317341594,0.2364975450081833,0.2590163934426229,0.2612982744453574,0.1990008326394671,0.17267393126571667
https://www.justonecookbook.com/simmered-kabocha-squash/,-0.03899429613990722,0.045499828640531044,0.010124162471259463,-0.02286232476378636,-0.02317730264129477,0.2364975450081833,0.2590163934426229,0.2612982744453574,0.1990008326394671,0.17267393126571667
https://www.justonecookbook.com/how-to-make-rice/,-0.08281025374359513,-0.002097318961869064,0.011754441256488491,-0.018629612352781117,-0.0038441337455801744,0.2364975450081833,0.2590163934426229,0.2612982744453574,0.1990008326394671,0.17267393126571667
https://www.justonecookbook.com/simmered-fried-tofu-and-greens/,0.1439155764296257,0.12596438583291206,0.02054169921766372,-0.0012607977945104576,-0.00903314950753611,0.2364975450081833,0.2590163934426229,0.2612982744453574,0.1990008326394671,0.17267393126571667
https://www.justonecookbook.com/daikon-leaves-furikake/,-0.0037489159988570724,0.03405328086234637,-0.0022727430516486366,-0.026887817713222645,-0.0036916497126899326,0.2364975450081833,0.2590163934426229,0.2612982744453574,0.1990008326394671,0.17267393126571667
https://www.justonecookbook.com/plum-rice-ball/,-0.017376928767061227,-0.006637943584447896,-0.021293778411304694,-0.021273367743179877,0.004520336146168484,0.2364975450081833,0.2590163934426229,0.2612982744453574,0.1990008326394671,0.17267393126571667
https://www.justonecookbook.com/ume-shiso-rice/,0.017063310326747187,-0.008088654177824842,-0.04196890283701491,-0.023656448495992993,0.01341234188275751,0.2364975450081833,0.2590163934426229,0.2612982744453574,0.1990008326394671,0.17267393126571667
https://www.justonecookbook.com/green-bean-gomaae/,0.005605620902105497,-0.00533101678664828,-0.02026842848650014,-0.0030191316393433257,0.0407240091860187,0.2364975450081833,0.2590163934426229,0.2612982744453574,0.1990008326394671,0.17267393126571667
https://www.justonecookbook.com/pickled-daikon/,0.032211477380884944,0.03681621508760327,-0.018352694492212804,0.011423070452064234,0.011580916246610902,0.2364975450081833,0.2590163934426229,0.2612982744453574,0.1990008326394671,0.17267393126571667
https://www.justonecookbook.com/steamed-vegetables-with-miso-sesame-sauce/,0.08349071891367844,0.04580240370412078,-0.0016241432968883778,-0.015896323217026408,0.006340667587273201,0.2364975450081833,0.2590163934426229,0.2612982744453574,0.1990008326394671,0.17267393126571667
https://www.justonecookbook.com/pickled-cucumbers-and-myoga/,0.04422436104327408,0.047648868177999286,-0.022203412129784873,0.007891006308649577,-0.0070156285189759355,0.2364975450081833,0.2590163934426229,0.2612982744453574,0.1990008326394671,0.17267393126571667
https://www.justonecookbook.com/matsutake-gohan/,0.19666219663166198,0.18739092069269098,0.03706104576948953,-0.09441422788818851,-0.08524775832005253,0.2364975450081833,0.2590163934426229,0.2612982744453574,0.1990008326394671,0.17267393126571667
https://www.justonecookbook.com/yaki-onigiri-grilled-rice-ball/,-0.026845567469718463,-0.041253209369041005,0.0058837793908748815,-0.04211336259258137,-0.032959586639170854,0.2364975450081833,0.2590163934426229,0.2612982744453574,0.1990008326394671,0.17267393126571667
https://www.justonecookbook.com/how-to-cook-rice/,-0.11035618764316252,0.0026317995772681575,0.015825506198803557,-0.02049134646741926,0.006102944993545651,0.2364975450081833,0.2590163934426229,0.2612982744453574,0.1990008326394671,0.17267393126571667
https://www.justonecookbook.com/pounded-burdock-root-with-sesame-sauce/,-8.349461560654064e-06,0.01976676730270912,-0.01020041213891278,-0.04166586233551624,0.0003740370862696855,0.2364975450081833,0.2590163934426229,0.2612982744453574,0.1990008326394671,0.17267393126571667
https://www.justonecookbook.com/tsukemono-pickled-cabbage/,0.032791054795152305,0.034348610094674346,-0.02378712843689305,0.00022428995591613238,-0.00033894373191291344,0.2364975450081833,0.2590163934426229,0.2612982744453574,0.1990008326394671,0.17267393126571667
https://www.justonecookbook.com/tsukemono-kasuzuke-sake-lees-pickling/,0.05828544550774476,0.05495883302722414,-0.0010573406740811999,-0.02590520164141239,-0.016497580140551395,0.2364975450081833,0.2590163934426229,0.2612982744453574,0.1990008326394671,0.17267393126571667
https://www.justonecookbook.com/easy-soy-sauce-pickles/,0.023756113882026274,0.04392146452752933,-0.011901246576334922,0.007981329629511662,-0.0019517251238592545,0.2364975450081833,0.2590163934426229,0.2612982744453574,0.1990008326394671,0.17267393126571667
https://www.justonecookbook.com/pickled-daikon-with-shio-koji/,0.035195335073804276,0.05829904423694653,-0.013669660650363962,-0.00459797408963209,-0.008768807543127791,0.2364975450081833,0.2590163934426229,0.2612982744453574,0.1990008326394671,0.17267393126571667
https://www.justonecookbook.com/simmered-taro/,0.08094445266858542,0.04662367924892877,0.01691676645797405,-0.0597241162294276,-0.065205402658117,0.2364975450081833,0.2590163934426229,0.2612982744453574,0.1990008326394671,0.17267393126571667
https://www.justonecookbook.com/instant-pot-rice/,-0.11035618764316252,0.0026317995772681575,0.015825506198803557,-0.02049134646741926,0.006102944993545651,0.2364975450081833,0.2590163934426229,0.2612982744453574,0.1990008326394671,0.17267393126571667
https://www.justonecookbook.com/miso-yaki-onigiri/,0.04876410377992146,0.011113380418517551,-0.006488571640549059,-0.06148456519099778,-0.03862521687467006,0.2364975450081833,0.2590163934426229,0.2612982744453574,0.1990008326394671,0.17267393126571667
https://www.justonecookbook.com/pickled-turnip-with-yuzu/,0.09665395917089922,0.06712947994068379,-0.02871925943042467,0.02372263416271272,-0.026133951009959428,0.2364975450081833,0.2590163934426229,0.2612982744453574,0.1990008326394671,0.17267393126571667
https://www.justonecookbook.com/tsukemono-shoyuzuke-soy-sauce-pickling/,-0.01205926486416624,-0.0015376702597713033,-0.023688801026181216,0.016752158670473544,0.016682940773275277,0.2364975450081833,0.2590163934426229,0.2612982744453574,0.1990008326394671,0.17267393126571667
https://www.justonecookbook.com/ramen-egg/,0.011078068152182922,0.0023363206754264737,0.06104382440251168,-0.031316859247909674,-0.030622116181047068,0.2364975450081833,0.2590163934426229,0.2612982744453574,0.1990008326394671,0.17267393126571667
https://www.justonecookbook.com/pickled-watermelon-rind/,-0.04210930909248274,-0.0026227958986467237,-0.008167112175312335,-0.0245686743409042,0.010617030323045605,0.2364975450081833,0.2590163934426229,0.2612982744453574,0.1990008326394671,0.17267393126571667
https://www.justonecookbook.com/how-to-make-sushi-rice/,0.012350545188810678,0.05366327428512886,0.007653101184838721,-0.0501070695627752,-0.013317807156023955,0.2364975450081833,0.2590163934426229,0.2612982744453574,0.1990008326394671,0.17267393126571667
https://www.justonecookbook.com/simmered-kabocha-with-shio-koji/,-0.11035618764316252,0.0026317995772681575,0.015825506198803557,-0.02049134646741926,0.006102944993545651,0.2364975450081833,0.2590163934426229,0.2612982744453574,0.1990008326394671,0.17267393126571667
https://www.justonecookbook.com/nanakusa-gayu-seven-herb-rice-porridge/,-0.08281025374359513,-0.002097318961869064,0.011754441256488491,-0.018629612352781117,-0.0038441337455801744,0.2364975450081833,0.2590163934426229,0.2612982744453574,0.1990008326394671,0.17267393126571667
https://www.justonecookbook.com/kinpira-renkon-lotus-root/,0.011864513555255567,0.021094095377048535,-0.03671419591680814,-0.01083999355707514,0.017085236494387385,0.2364975450081833,0.2590163934426229,0.2612982744453574,0.1990008326394671,0.17267393126571667
https://www.justonecookbook.com/cherry-blossom-rice-balls/,0.004618922712971945,-0.014569535702451978,-0.034465476705998546,-0.001967195369685181,0.004961469098221581,0.2364975450081833,0.2590163934426229,0.2612982744453574,0.1990008326394671,0.17267393126571667
https://www.justonecookbook.com/shibazuke-pickles/,0.01192657284992835,0.03931508652507849,-0.002045911558387401,-0.01341297303430854,-0.011094025343564589,0.2364975450081833,0.2590163934426229,0.2612982744453574,0.1990008326394671,0.17267393126571667
https://www.justonecookbook.com/namasu-daikon-and-carrot-salad/,0.034250689755929806,0.030399450179253388,-0.01639822600983817,0.0024155581069990268,-0.023360175910821686,0.0,0.0,0.0,0.0,0.0
https://www.justonecookbook.com/how-to-cook-rice-in-donabe/,-0.11035618764316252,0.0026317995772681575,0.015825506198803557,-0.02049134646741926,0.006102944993545651,1.0,0.0,0.2612982744453574,0.1990008326394671,0.17267393126571667
https://www.justonecookbook.com/instant-pot-brown-rice/,-0.08281025374359513,-0.002097318961869064,0.011754441256488491,-0.018629612352781117,-0.0038441337455801744,0.2364975450081833,0.2590163934426229,0.2612982744453574,0.1990008326394671,0.17267393126571667
https://www.justonecookbook.com/onigiri-rice-balls/,0.052338572003050476,0.07003599585087705,0.01534925980062027,-0.030897679297077457,-0.043718323014783386,0.2364975450081833,0.2590163934426229,0.2612982744453574,0.1990008326394671,0.17267393126571667
https://www.justonecookbook.com/chestnut-rice-kurigohan/,0.028764125924395874,-0.010847642366576345,-0.014010447745434295,-0.027796795381766236,0.051505581674995596,0.2364975450081833,0.2590163934426229,0.2612982744453574,0.1990008326394671,0.17267393126571667
https://www.justonecookbook.com/ginger-rice/,-0.024666166647168947,0.041043376971327386,0.017669692034567808,-0.03590850609685862,-0.015115285038604613,0.2364975450081833,0.2590163934426229,0.2612982744453574,0.1990008326394671,0.17267393126571667
https://www.justonecookbook.com/instant-pot-takikomi-gohan/,0.052691808194535665,0.08141230602513148,0.028872616893821257,-0.04086406627873862,-0.03256652001653499,0.2364975450081833,0.2590163934426229,0.2612982744453574,0.1990008326394671,0.17267393126571667
https://www.justonecookbook.com/instant-pot-kuromame/,-0.08921436783060784,0.000295429314047087,0.012887731935726399,-0.01874568883422773,0.0010004324161062886,0.0,0.0,0.0,0.0,1.0
https://www.justonecookbook.com/kinpira-gobo-braised-carrot-burdock-root/,0.08737178898515778,0.061410785447705764,0.006635272191299351,-0.060312954445396694,-0.048507137269054534,0.2364975450081833,0.2590163934426229,0.2612982744453574,0.1990008326394671,0.17267393126571667
https://www.justonecookbook.com/spinach-with-sesame-miso-sauce/,0.045839595669744354,0.046276630962004656,-0.005234598244362937,-0.039950987223342095,-0.017951902274584257,0.2364975450081833,0.2590163934426229,0.2612982744453574,0.1990008326394671,0.17267393126571667
https://www.justonecookbook.com/okra-ohitashi/,0.14516010500836027,0.14935396941604195,0.031031739982148362,-0.07022927664753001,-0.08229076374474883,0.2364975450081833,0.2590163934426229,0.2612982744453574,0.1990008326394671,0.17267393126571667
https://www.justonecookbook.com/dinner-rolls/,-0.02112386166330173,-0.052868135701389596,0.021096109071986443,-0.030262099773269553,-0.014407795636887119,0.2364975450081833,0.2590163934426229,0.2612982744453574,0.1990008326394671,0.17267393126571667
https://www.justonecookbook.com/spinach-ohitashi-japanese-spinach-salad-with-bonito-flakes/,0.06576677400898072,0.08144653049341234,-0.004250500498573707,-0.04242688937131689,-0.034122510286004264,0.2364975450081833,0.2590163934426229,0.2612982744453574,0.1990008326394671,0.17267393126571667
https://www.justonecookbook.com/grilled-corn-with-miso-butter/,0.011053802666600028,-0.029976091355955914,0.010499564496903839,-0.005033532527637579,0.007889178456070636,0.2364975450081833,0.2590163934426229,0.2612982744453574,0.1990008326394671,0.17267393126571667
https://www.justonecookbook.com/onsen-tamago/,0.09817515912922244,0.09049152606629353,0.041169781014564664,-0.03908870127694527,-0.057071661065981306,0.2364975450081833,0.2590163934426229,0.2612982744453574,0.1990008326394671,0.17267393126571667
https://www.justonecookbook.com/japanese-turnips-with-soboro-ankake-sauce/,0.04962760568065181,0.03712459482439671,0.024504327818473687,-0.03342182847769012,-0.008076564815783917,0.2364975450081833,0.2590163934426229,0.2612982744453574,0.1990008326394671,0.17267393126571667
https://www.justonecookbook.com/mashed-potatoes-with-shio-koji/,-0.0009584539564410672,-0.04188488557608936,0.01982760055474027,-0.0027017346521581017,-0.01720032028532452,0.2364975450081833,0.2590163934426229,0.2612982744453574,0.1990008326394671,0.17267393126571667
https://www.justonecookbook.com/baby-sardine-tsukudani/,-0.0006400953426627099,0.02694610293800842,-0.012789082987622626,-0.041860270878137956,-0.008213341392158329,0.2364975450081833,0.2590163934426229,0.2612982744453574,0.1990008326394671,0.17267393126571667
https://www.justonecookbook.com/daikon-and-cucumber-salad-with-shio-koji/,0.03726624955473086,0.04143802599260102,-0.015408730589954487,0.008576817498816409,0.017068267262298424,0.2364975450081833,0.2590163934426229,0.2612982744453574,0.1990008326394671,0.17267393126571667
https://www.justonecookbook.com/popovers-with-strawberry-butter/,0.01445698356542131,-0.06105802787754577,0.044892482150667525,-0.018243687242155648,-0.03385077701046746,0.2364975450081833,0.2590163934426229,0.2612982744453574,0.1990008326394671,0.17267393126571667
https://www.justonecookbook.com/miso-glazed-eggplant/,0.012665033993627735,0.012124703482597034,-0.031511979352069515,0.011753301420917022,-0.003555001533739346,0.2364975450081833,0.2590163934426229,0.2612982744453574,0.1990008326394671,0.17267393126571667
https://www.justonecookbook.com/sansai-gohan/,0.05103396231538048,0.09612503662666286,0.018796211596158612,-0.06266307316663154,-0.03629686670137676,0.2364975450081833,0.2590163934426229,0.2612982744453574,0.1990008326394671,0.17267393126571667
https://www.justonecookbook.com/pickled-cucumbers/,-0.015373672335604991,0.013868803030348162,-0.005475146353445197,0.00897199893036575,0.0038514870392135406,0.2364975450081833,0.2590163934426229,0.2612982744453574,0.1990008326394671,0.17267393126571667
https://www.justonecookbook.com/chikuwa-cucumber/,0.11199062006319886,0.03818048090684177,-0.022402859860296248,0.053725409931537224,0.030560629474056845,0.2364975450081833,0.2590163934426229,0.2612982744453574,0.1990008326394671,0.17267393126571667
https://www.justonecookbook.com/broccoli-blanched-with-sesame-oil/,-0.03586062894865495,0.0009438866096996493,-0.005655690858931971,-0.01622659252606273,0.007168913797782296,0.2364975450081833,0.2590163934426229,0.2612982744453574,0.1990008326394671,0.17267393126571667
https://www.justonecookbook.com/simmered-kiriboshi-daikon/,0.07488965285585816,0.05991308832030797,0.021404839136005695,-0.05308707218388176,-0.046127913348560506,0.2364975450081833,0.2590163934426229,0.2612982744453574,0.1990008326394671,0.17267393126571667
https://www.justonecookbook.com/tai-meshi-with-leftover-baked-sea-bream/,0.059024490283595916,0.05258152137227704,0.0485576144185404,0.00822064582792889,-0.004300050788052562,1.0,0.0,0.0,0.0,0.0
https://www.justonecookbook.com/mame-gohan-green-pea-rice/,0.13367011915107824,0.10616946922470452,-0.006345156989663621,-0.04288870946251606,-0.0003103821293158994,0.2364975450081833,0.2590163934426229,0.2612982744453574,0.1990008326394671,0.17267393126571667
https://www.justonecookbook.com/how-to-make-octopus-sausage-tako-sausage/,-0.045808419086456956,-0.003795956052253092,-0.029250134478284767,-0.018852966929378146,0.012903128026269093,0.2364975450081833,0.2590163934426229,0.2612982744453574,0.1990008326394671,0.17267393126571667
https://www.justonecookbook.com/souffle-pancake/,0.07733800537371036,-0.10487009151228066,0.028649809388037555,-0.039295567906839406,-0.048211672873908734,0.2364975450081833,0.2590163934426229,0.2612982744453574,0.1990008326394671,0.17267393126571667
https://www.justonecookbook.com/rice-porridge-okayu/,0.02569179519652228,0.015519293925580002,0.001081440985865035,-0.011026235311031222,-0.0002781920887947771,0.2364975450081833,0.2590163934426229,0.2612982744453574,0.1990008326394671,0.17267393126571667
https://www.justonecookbook.com/curry-bread/,0.08263459658994288,-0.07863064638324832,0.04339596406548625,-0.04617990047134229,-0.05010612704685546,0.2364975450081833,0.2590163934426229,0.2612982744453574,0.1990008326394671,0.17267393126571667
https://www.justonecookbook.com/spinach-and-feta-turnovers-guest-post-by-katherine-martinelli/,0.010627481147131542,-0.030792005239513958,0.01778920090902015,0.013640190845726579,-0.028366683017728635,0.2364975450081833,0.2590163934426229,0.2612982744453574,0.1990008326394671,0.17267393126571667
https://www.justonecookbook.com/how-to-cook-salmon-salted-salmon/,0.01771735282082791,0.0036023772891125207,0.03661342994281667,-9.627148266308548e-05,-0.024051917155040115,0.2364975450081833,0.2590163934426229,0.2612982744453574,0.1990008326394671,0.17267393126571667
https://www.justonecookbook.com/blueberry-creme-fraiche-scones/,0.017391980294796425,-0.052883635863056944,0.04870430725890847,-0.01787754276611937,-0.03296740442850775,0.2364975450081833,0.2590163934426229,0.2612982744453574,0.1990008326394671,0.17267393126571667
https://www.justonecookbook.com/melon-pan/,0.05215108326134229,-0.08676396186110348,0.05269255910218964,-0.03546450978520208,-0.029079568378075123,0.2364975450081833,0.2590163934426229,0.2612982744453574,0.1990008326394671,0.17267393126571667
https://www.justonecookbook.com/french-toast/,0.07961979670158344,-0.08797598245641332,0.046502482222399055,-0.018797708057936523,-0.05085370462775272,0.2364975450081833,0.2590163934426229,0.2612982744453574,0.1990008326394671,0.17267393126571667
https://www.justonecookbook.com/easy-homemade-granola/,0.022946078038138418,-0.049672511260514605,-0.008104956237639932,-0.020696885165740603,-0.03201099872606874,0.2364975450081833,0.2590163934426229,0.2612982744453574,0.1990008326394671,0.17267393126571667
https://www.justonecookbook.com/avocado-toast/,0.05148420594222026,0.014007625773115717,0.006972631790333806,0.006279177138058701,-0.007480385682074796,0.2364975450081833,0.2590163934426229,0.2612982744453574,0.1990008326394671,0.17267393126571667
https://www.justonecookbook.com/matcha-souffle-pancake/,0.07733800537371036,-0.10487009151228066,0.028649809388037555,-0.039295567906839406,-0.048211672873908734,0.2364975450081833,0.2590163934426229,0.2612982744453574,0.1990008326394671,0.17267393126571667
https://www.justonecookbook.com/nutella-banana-bread/,0.023998938883519574,-0.0667621701757041,0.032442900930789935,-0.015905256633324358,-0.03340803445036381,0.2364975450081833,0.2590163934426229,0.2612982744453574,0.1990008326394671,0.17267393126571667
https://www.justonecookbook.com/buttermilk-pancakes/,0.06501200385149722,-0.07903524687280691,0.03456111472591436,-0.02271967479875658,-0.047862346178680105,0.2364975450081833,0.2590163934426229,0.2612982744453574,0.1990008326394671,0.17267393126571667
https://www.justonecookbook.com/red-bean-pancake/,0.05066093000464035,-0.057386338241463185,0.0122048781404003,-0.01671362679781234,-0.011140212744012964,0.2364975450081833,0.2590163934426229,0.2612982744453574,0.1990008326394671,0.17267393126571667
https://www.justonecookbook.com/strawberry-sauce-strawberry-compote/,0.0025963482480648166,-0.029805175057046152,0.0019120773394020803,-0.019335576073828246,0.02163035138721758,0.2364975450081833,0.2590163934426229,0.2612982744453574,0.1990008326394671,0.17267393126571667
https://www.justonecookbook.com/anpan/,0.0532725318273706,-0.06519329137581281,0.02764009221736931,-0.02667984003797014,-2.266490861841003e-05,0.2364975450081833,0.2590163934426229,0.2612982744453574,0.1990008326394671,0.17267393126571667
https://www.justonecookbook.com/banana-muffins/,0.005859961176199554,-0.06028146793565311,0.04602431326267669,-0.018770823454138632,-0.0303382251899837,0.2364975450081833,0.2590163934426229,0.2612982744453574,0.1990008326394671,0.17267393126571667
https://www.justonecookbook.com/ogura-toast/,0.06601612775532711,-0.04997773153037894,-0.014794639699139623,-0.003309776319647807,0.0263002397495426,0.2364975450081833,0.2590163934426229,0.2612982744453574,0.1990008326394671,0.17267393126571667
https://www.spicetheplate.com/chinese/chinese-pork-rib-rice-bowl/,0.019581085437703816,0.01758529537689925,0.011570778758541445,0.013268397295474625,0.02229893660279923,0.2364975450081833,0.2590163934426229,0.2612982744453574,0.1990008326394671,0.17267393126571667
https://www.spicetheplate.com/rice-noodle/cantonese-casserole-rice/,-0.026589922334558924,-0.0008369747515900053,0.01668404234849638,-0.010278367896454883,0.018266460496473493,0.2364975450081833,0.2590163934426229,0.2612982744453574,0.1990008326394671,0.17267393126571667
https://www.spicetheplate.com/rice-noodle/better-than-takeout-beef-lo-mein/,-0.010836552802276193,0.01085932777159434,0.005622078106987598,0.01498913978153008,0.01807749197894482,0.2364975450081833,0.2590163934426229,0.2612982744453574,0.1990008326394671,0.17267393126571667
https://www.spicetheplate.com/pork/braised-pork-belly/,0.00937081704433735,-0.01528389765180204,-0.007571839554276796,0.006429893571976057,0.005637525613833016,0.2364975450081833,0.2590163934426229,0.2612982744453574,0.1990008326394671,0.17267393126571667
https://www.spicetheplate.com/rice-noodle/tasty-spam-fried-rice/,0.06334832609687678,-0.021702101193242732,0.01485884800117679,0.017327213423584887,0.06502359707780629,0.2364975450081833,0.2590163934426229,0.2612982744453574,0.1990008326394671,0.17267393126571667
https://www.spicetheplate.com/rice-noodle/tuna-kimchi-fried-rice/,-0.01409088181966682,0.014489402583201479,0.014632131672996856,-0.016169941459965437,0.000559953603335437,0.2364975450081833,0.2590163934426229,0.2612982744453574,0.1990008326394671,0.17267393126571667
https://www.spicetheplate.com/rice-noodle/chili-oil-noodles-made-with-wonton-wrap/,0.01476493172003115,0.05979484432809237,-0.0003367612049995443,0.0059691959939073,0.0028736040299564116,0.2364975450081833,0.2590163934426229,0.2612982744453574,0.1990008326394671,0.17267393126571667
