url,0,1,2,3,4,high_carb,high_protein,high_fat,high_sodium,high_sugar
https://glebekitchen.com/miso-chicken-with-maple-and-ginger/,1.1816087695743929,-0.010204073056537344,-0.15133871084319706,-0.4947168342492436,-1.050598658309525,-0.5564211712129683,1.6921386861996075,-0.6016038102737051,-0.5043104245690389,-0.45252812595650316
https://glebekitchen.com/tonkotsu-ramen-home/,1.3087431919274073,-0.27702437972274435,0.7206605826644359,-1.4478575635415882,-0.4053306809409788,1.7971997683338574,1.6921386861996075,1.6622235147497502,1.9829056693693274,2.2098073968028227
https://glebekitchen.com/garlic-ginger-grilled-chicken/,0.8554353188358738,-0.10015904790134161,0.17880304775250228,-1.7552465044346455,-0.13461599904332766,-0.5564211712129683,1.6921386861996075,1.6622235147497502,1.9829056693693274,-0.45252812595650316
https://glebekitchen.com/japanese-chicken-curry-curry-rice/,1.1221173941620688,1.1745259826333825,0.6282489946951869,-0.04762236797060774,0.47894397328686455,-0.5564211712129683,-0.5909681092664519,-0.6016038102737051,1.9829056693693274,-0.45252812595650316
https://glebekitchen.com/chicken-karaage-japanese-fried-chicken/,1.0849338944271314,0.1679024869251227,0.7612747447826355,-1.0298691263256459,0.05443854920215286,-0.5564211712129683,1.6921386861996075,1.6622235147497502,1.9829056693693274,-0.45252812595650316
https://glebekitchen.com/curry-chicken-ramen/,1.2722874190305866,0.3089749038820446,-0.60305416172828,-0.10104501725910815,-0.3347264080568471,1.7971997683338574,1.6921386861996075,1.6622235147497502,-0.5043104245690389,-0.45252812595650316
https://glebekitchen.com/sous-vide-steak-tataki-style/,1.043123335642647,-0.47312274477724575,-0.14958661210780536,-1.0466181632502607,-0.4996777831945508,-0.5564211712129683,-0.5909681092664519,-0.6016038102737051,-0.5043104245690389,-0.45252812595650316
https://glebekitchen.com/momofuku-pork-belly/,1.4320330573006468,-0.15133230677252507,-0.9938349247100415,0.1291655973787506,-0.16463579556409205,-0.5564211712129683,-0.5909681092664519,1.6622235147497502,1.9829056693693274,-0.45252812595650316
https://glebekitchen.com/gyudon-japanese-beef-bowl/,1.05851463644893,-0.7228610638728054,-0.38271363858688606,-1.4398986643857905,-1.1689542936576618,-0.5564211712129683,1.6921386861996075,-0.6016038102737051,1.9829056693693274,2.2098073968028227
https://glebekitchen.com/japadog-style-terimayo-hot-dog/,0.8400640871678722,-0.31897706940358794,0.17516364750748453,-1.2012323392676916,-1.0920084048894052,1.7971997683338574,-0.5909681092664519,1.6622235147497502,1.9829056693693274,2.2098073968028227
https://glebekitchen.com/japanese-miso-soup/,1.7815846889748204,-0.3165092171561171,-0.8531138827721076,-0.5127818378406185,-0.9582110932557154,-0.5564211712129683,-0.5909681092664519,-0.6016038102737051,1.9829056693693274,-0.45252812595650316
https://glebekitchen.com/japanese-chicken-yakitori/,0.26832949031778225,-0.1499849922485944,1.1126377262379181,-1.1014234970347834,-0.6866034051925557,-0.5564211712129683,-0.5909681092664519,-0.6016038102737051,-0.5043104245690389,-0.45252812595650316
https://glebekitchen.com/miso-ramen-with-chashu-pork/,0.9134545242741485,-0.5080000528398066,-0.3222890508563104,-1.2508747105602096,-1.447451928954591,1.7971997683338574,1.6921386861996075,1.6622235147497502,1.9829056693693274,2.2098073968028227
https://glebekitchen.com/30-minute-curry-ramen/,1.398145066942952,0.08593735081761995,-1.033381545914942,-0.36237837518203775,-0.3495898993562833,-0.5564211712129683,1.6921386861996075,-0.6016038102737051,1.9829056693693274,-0.45252812595650316
https://glebekitchen.com/vietnamese-chicken-curry-ca-ri-ga/,1.0372714215331973,2.5325945359092445,1.6415712565604477,-0.16702376149736245,1.0638013710840355,1.7971997683338574,1.6921386861996075,1.6622235147497502,1.9829056693693274,-0.45252812595650316
https://glebekitchen.com/vietnamese-grilled-chicken-with-ginger-soy-noodle-salad/,0.6035614929106895,0.7216305057744343,0.7914488418333243,-1.8172660661390305,1.201745073597962,1.7971997683338574,1.6921386861996075,1.6622235147497502,1.9829056693693274,2.2098073968028227
https://glebekitchen.com/vietnamese-lemongrass-chicken-noodle-bowl/,0.6215601793595513,0.7666745794958995,0.5777064993284007,-1.3739950424637926,0.3558310353962643,1.7971997683338574,-0.5909681092664519,-0.6016038102737051,1.9829056693693274,2.2098073968028227
https://glebekitchen.com/vietnamese-spring-rolls-with-peanut-sauce/,1.5049051231556954,0.02919134829129836,-0.7429437818708667,-0.7738997323180263,-0.3612699331688383,1.7971997683338574,-0.5909681092664519,-0.6016038102737051,-0.5043104245690389,-0.45252812595650316
https://glebekitchen.com/nuoc-cham-vietnamese-dipping-sauce/,1.2642907434934982,0.032563998383891866,-1.3811196049152938,-0.770759430604021,-0.9505928401488092,1.7971997683338574,-0.5909681092664519,-0.6016038102737051,1.9829056693693274,2.2098073968028227
https://glebekitchen.com/salmon-with-rice-noodles/,0.9642941893009224,-0.18669107381573524,-0.230966566890947,-1.0702290378581598,0.03172785969280842,-0.5564211712129683,1.6921386861996075,-0.6016038102737051,-0.5043104245690389,-0.45252812595650316
https://glebekitchen.com/vietnamese-noodle-salad/,0.9699548477686313,0.256124543733249,-0.09923461805103397,-0.6148714248279298,-0.32941241606403976,1.7971997683338574,1.6921386861996075,1.6622235147497502,1.9829056693693274,2.2098073968028227
https://glebekitchen.com/vietnamese-sate-sauce/,0.9591708549575663,0.7576786810726855,-0.07267815232567888,-0.579879204016529,0.36030866245501664,1.7971997683338574,-0.5909681092664519,1.6622235147497502,1.9829056693693274,2.2098073968028227
https://glebekitchen.com/authentic-pho-ga-vietnamese-chicken-noodle-soup/,1.4439391425752928,0.3878677647057817,0.5006520061704444,-0.7039928209468584,-0.6244801035996473,1.7971997683338574,1.6921386861996075,1.6622235147497502,1.9829056693693274,-0.45252812595650316
https://glebekitchen.com/bun-cha-vietnamese-grilled-pork-with-rice-noodles/,1.1416673200299643,0.5039993897237154,-0.27404028229476585,-1.0558888690130548,0.24652953942050815,-0.5564211712129683,1.6921386861996075,1.6622235147497502,1.9829056693693274,2.2098073968028227
https://glebekitchen.com/vietnamese-ginger-beef-stir-fry/,0.6908680253008619,0.34109299376065383,0.5244071030846,-1.2607428432595407,-0.06248671025109923,-0.5564211712129683,1.6921386861996075,1.6622235147497502,1.9829056693693274,-0.45252812595650316
https://glebekitchen.com/beef-pho-easy-vietnamese-pho-bo/,1.1803520346036298,0.47827525526805775,0.23048743903801786,-1.1755047802145586,-0.5871044822117196,1.7971997683338574,1.6921386861996075,1.6622235147497502,1.9829056693693274,2.2098073968028227
https://glebekitchen.com/bo-kho-vietnamese-beef-stew-with-egg-noodles/,0.9332368501207283,1.4059685318677158,1.619242045394187,-1.5816332579661407,-0.6192163231413925,1.7971997683338574,1.6921386861996075,1.6622235147497502,1.9829056693693274,-0.45252812595650316
https://glebekitchen.com/vietnamese-beef-noodle-salad/,1.0399589498985928,0.6012254739697064,-0.14741980065743354,-1.8077829706934978,0.35990795580700086,1.7971997683338574,1.6921386861996075,-0.6016038102737051,1.9829056693693274,2.2098073968028227
https://glebekitchen.com/bun-thit-nuong-vietnamese-grilled-pork-with-rice-noodles/,0.8364464672451277,0.5643712088658454,0.03755843778592293,-0.987566305133214,0.7050657968939448,1.7971997683338574,-0.5909681092664519,-0.6016038102737051,1.9829056693693274,-0.45252812595650316
https://glebekitchen.com/spicy-beef-noodle-soup-vietnamese-style/,1.3567946011194614,0.7451011217597926,0.06674498139452316,-0.9937029370017922,-0.2269978641507185,1.7971997683338574,1.6921386861996075,-0.6016038102737051,1.9829056693693274,-0.45252812595650316
https://glebekitchen.com/shaking-beef-vietnamese-bo-luc-lac/,0.22522735104263453,0.5394428833973195,0.9915152095700699,-0.46339363222898944,0.6510201225989248,-0.5564211712129683,1.6921386861996075,-0.6016038102737051,1.9829056693693274,2.2098073968028227
https://glebekitchen.com/vindaloo-paste/,1.337483693148625,0.8935464992460439,-0.5404520444274052,-0.3768752955648225,-0.020892464097008654,-0.5564211712129683,-0.5909681092664519,1.6622235147497502,-0.5043104245690389,2.2098073968028227
https://glebekitchen.com/beef-rogan-josh/,1.7871957651965138,3.3345663084750705,2.0142751044900016,0.6927073930525947,-0.7232173002674542,-0.5564211712129683,1.6921386861996075,1.6622235147497502,-0.5043104245690389,-0.45252812595650316
https://glebekitchen.com/achari-chicken-curry-indian-hotel-style/,1.9304762238083104,3.9745152206775813,3.182447753232774,0.7800782989767389,-1.2695353257959634,-0.5564211712129683,1.6921386861996075,1.6622235147497502,1.9829056693693274,-0.45252812595650316
https://glebekitchen.com/indian-restaurant-hariyali-chicken-curry/,1.9929821952852464,2.45150971915243,1.243987365469694,0.06595107605924905,-1.1782332790783914,-0.5564211712129683,1.6921386861996075,1.6622235147497502,1.9829056693693274,-0.45252812595650316
https://glebekitchen.com/ceylon-chicken-curry-indian-hotel-style/,1.9333055105547194,3.5715205343245713,3.146061332892198,0.1630896063387864,-1.0989539072931602,-0.5564211712129683,1.6921386861996075,1.6622235147497502,1.9829056693693274,2.2098073968028227
https://glebekitchen.com/lemon-coriander-chicken-curry/,1.636064780029076,2.7967324398420637,1.2286288557078673,0.3764761729162876,-0.8237120876724006,-0.5564211712129683,-0.5909681092664519,1.6622235147497502,-0.5043104245690389,-0.45252812595650316
https://glebekitchen.com/lamb-vindaloo-indian-restaurant-style/,1.8452830377470952,3.7210215729419764,2.7911136782165302,1.0829043312450164,-1.057966000860435,-0.5564211712129683,1.6921386861996075,1.6622235147497502,-0.5043104245690389,-0.45252812595650316
https://glebekitchen.com/indian-spiced-chicken-wings-with-tamarind-dipping-sauce/,1.6931848344246774,1.4811539507911264,0.7527061101972182,0.14074442635597356,-0.7367441646803867,-0.5564211712129683,-0.5909681092664519,-0.6016038102737051,-0.5043104245690389,2.2098073968028227
https://glebekitchen.com/gobi-manchurian-indian-cauliflower-wings/,1.4594185958414898,1.2940599186746744,1.4514517961616453,0.46708490536277514,-0.4501902053773152,-0.5564211712129683,-0.5909681092664519,-0.6016038102737051,1.9829056693693274,-0.45252812595650316
https://glebekitchen.com/tandoori-marinade/,1.7371769676913968,2.001037113981218,0.49765455521222857,-0.038437917374137015,-1.0262376305782903,-0.5564211712129683,-0.5909681092664519,1.6622235147497502,1.9829056693693274,-0.45252812595650316
https://glebekitchen.com/chicken-vindaloo-restaurant-style/,1.9843723014289754,2.2125305737440506,0.7744033342750754,0.6214984311116818,-1.5241992719022628,-0.5564211712129683,-0.5909681092664519,1.6622235147497502,-0.5043104245690389,-0.45252812595650316
https://glebekitchen.com/indian-restaurant-curry-base/,1.2066712469040288,1.1583232695013823,-0.19456146027977894,-0.03897484843272706,0.2525616388087824,-0.5564211712129683,-0.5909681092664519,-0.6016038102737051,-0.5043104245690389,-0.45252812595650316
https://glebekitchen.com/nearly-restaurant-style-chicken-saag-curry/,2.06257686485008,3.0583893521982803,2.549537464490511,0.8494888636555757,-1.1783211711758854,-0.5564211712129683,1.6921386861996075,1.6622235147497502,-0.5043104245690389,-0.45252812595650316
https://glebekitchen.com/nihari-gosht-indian-beef-stew/,1.7115516455470319,2.274294342607114,0.9794154002656847,0.40358500901683886,-1.045156029080897,-0.5564211712129683,1.6921386861996075,1.6622235147497502,-0.5043104245690389,-0.45252812595650316
https://glebekitchen.com/palak-paneer-indian-restaurant-style-spinach-curry/,2.003362161163473,4.004580565325675,2.3518991783763736,0.6977203405879353,-1.5905714368396764,-0.5564211712129683,-0.5909681092664519,1.6622235147497502,-0.5043104245690389,-0.45252812595650316
https://glebekitchen.com/bagara-baingan-indian-hotel-style-eggplant-curry/,1.9408477866470895,2.4879162819348246,1.3749833120063006,0.4967262105914926,-1.3565807689684026,1.7971997683338574,-0.5909681092664519,1.6622235147497502,1.9829056693693274,2.2098073968028227
https://glebekitchen.com/sambar-south-indian-lentil-and-vegetable-stew/,1.9166865601509742,2.3051604196134914,1.547799131441571,0.4383701390674385,-1.0752260583558346,1.7971997683338574,-0.5909681092664519,-0.6016038102737051,-0.5043104245690389,2.2098073968028227
https://glebekitchen.com/indian-restaurant-spice-mix/,1.8694859629579095,1.0588875119607435,-0.6448866060606278,-0.0019468747348073217,-0.21306581978029923,1.7971997683338574,-0.5909681092664519,-0.6016038102737051,-0.5043104245690389,-0.45252812595650316
https://glebekitchen.com/bombay-potatoes-restaurant-style-bombay-aloo/,2.2017266766991788,3.576379112404151,2.037393807061339,0.7030265182655687,-1.5151171598565747,1.7971997683338574,-0.5909681092664519,-0.6016038102737051,-0.5043104245690389,-0.45252812595650316
https://glebekitchen.com/hariyali-chicken-curry-indian-hotel-style/,1.7580730809309706,3.3385311891189455,2.5508283033242165,0.43401871462620006,-1.2604466103882812,-0.5564211712129683,1.6921386861996075,1.6622235147497502,1.9829056693693274,-0.45252812595650316
https://glebekitchen.com/lamb-keema-papadum/,1.9595958936058837,3.1118653768994116,1.247590177255116,0.4114535310116559,-0.9648586865790716,-0.5564211712129683,-0.5909681092664519,-0.6016038102737051,-0.5043104245690389,-0.45252812595650316
https://glebekitchen.com/restaurant-style-chicken-tikka-masala/,1.8605136364336285,2.2515644060594684,1.0333788001747173,0.5668514913162472,-0.7101150278115158,-0.5564211712129683,-0.5909681092664519,1.6622235147497502,1.9829056693693274,2.2098073968028227
https://glebekitchen.com/dal-palak-indian-spinach-and-lentil-curry/,1.9865667517200605,2.29838116314514,0.93804395324912,0.5490708767230469,-1.521380418741821,-0.5564211712129683,-0.5909681092664519,-0.6016038102737051,-0.5043104245690389,-0.45252812595650316
https://glebekitchen.com/mulligatawny-soup/,1.6723758592426232,2.279617121769504,1.967051969906049,1.0212444962759655,0.3674226450369444,-0.5564211712129683,1.6921386861996075,-0.6016038102737051,-0.5043104245690389,-0.45252812595650316
https://glebekitchen.com/indian-restaurant-chicken-jalfrezi/,2.150579632992874,3.8036837206954313,2.7205069564618047,0.8975980529958733,-1.405979295895075,-0.5564211712129683,1.6921386861996075,1.6622235147497502,1.9829056693693274,-0.45252812595650316
https://glebekitchen.com/indian-restaurant-lamb-curry/,2.162138713946347,3.8115024099764168,2.638164609757502,0.6308061159327333,-1.2672457577783967,-0.5564211712129683,-0.5909681092664519,1.6622235147497502,-0.5043104245690389,-0.45252812595650316
https://glebekitchen.com/naga-chicken-tikka-curry-indian-hotel-style/,1.9536006207558316,3.786741786574444,3.079651131824561,0.8577288070139778,-1.881729872833227,-0.5564211712129683,1.6921386861996075,1.6622235147497502,1.9829056693693274,-0.45252812595650316
https://glebekitchen.com/restaurant-style-pathia-curry/,2.287431465363356,3.1694505729085742,2.480005188955747,0.5416486490236744,-2.155623847395692,-0.5564211712129683,1.6921386861996075,1.6622235147497502,1.9829056693693274,-0.45252812595650316
https://glebekitchen.com/gunpowder-potatoes/,1.788801085707142,1.3069150952601685,-0.06741142870170741,-0.7714113670481128,-0.5616362980741965,1.7971997683338574,-0.5909681092664519,1.6622235147497502,1.9829056693693274,-0.45252812595650316
https://glebekitchen.com/nearly-restaurant-style-chettinad-chicken-curry/,1.49146940234361,3.702472148645841,2.626527272149851,0.7217287887209867,-0.2791951116857015,-0.5564211712129683,1.6921386861996075,1.6622235147497502,1.9829056693693274,-0.45252812595650316
https://glebekitchen.com/bengali-masoor-dal/,1.5127023604923464,0.995415318859226,0.08382924557040294,0.05124515372125774,-0.6299781383867572,-0.5564211712129683,-0.5909681092664519,-0.6016038102737051,-0.5043104245690389,-0.45252812595650316
https://glebekitchen.com/indian-restaurant-vindaloo-curry/,1.709580984647062,2.567453703311791,1.740022008711616,0.23976131372636783,-0.36790512678133314,-0.5564211712129683,1.6921386861996075,-0.6016038102737051,1.9829056693693274,-0.45252812595650316
https://glebekitchen.com/shahi-chicken-korma/,2.133632015746539,2.7217932621947494,1.3684375285127368,0.4595514819055979,-1.4136770927732594,-0.5564211712129683,1.6921386861996075,1.6622235147497502,-0.5043104245690389,-0.45252812595650316
https://glebekitchen.com/saag-aloo-indian-restaurant-style/,2.145518851822896,3.044168339325178,1.2008497989750722,0.20040346330395245,-0.9634312126328354,-0.5564211712129683,-0.5909681092664519,-0.6016038102737051,1.9829056693693274,-0.45252812595650316
https://glebekitchen.com/chole-masala-punjabi-chickpea-curry/,1.7971252095156478,2.817754315554322,1.5167484991688749,0.32041260220262946,-0.8485048992908141,-0.5564211712129683,-0.5909681092664519,1.6622235147497502,1.9829056693693274,2.2098073968028227
https://glebekitchen.com/aloo-keema-indian-restaurant-potato-and-beef-curry/,2.033728924852587,2.9809952124288217,1.707116416928287,0.4904423583588205,-1.657114730374551,-0.5564211712129683,1.6921386861996075,1.6622235147497502,1.9829056693693274,-0.45252812595650316
https://glebekitchen.com/kerala-fried-chicken/,1.633877286896969,2.2578637764657064,1.4276921874975934,0.32617316360968895,0.5978795941996287,1.7971997683338574,1.6921386861996075,-0.6016038102737051,1.9829056693693274,-0.45252812595650316
https://glebekitchen.com/easy-mint-raita-indian-mint-sauce/,1.5164096925457615,0.06121417332645441,-1.255287768357086,-0.39312662634251194,-0.6528181470112048,-0.5564211712129683,-0.5909681092664519,-0.6016038102737051,-0.5043104245690389,-0.45252812595650316
https://glebekitchen.com/chicken-masala-indian-restaurant-style/,2.075901606466451,3.7620625139264305,3.272716612085011,0.6059993767654733,-1.4556433436100906,-0.5564211712129683,1.6921386861996075,1.6622235147497502,-0.5043104245690389,-0.45252812595650316
https://glebekitchen.com/indian-lentil-curry-with-spinach/,1.85648218947042,2.2335430874625977,0.8429667675649031,0.4152330221597354,-1.029131580230138,-0.5564211712129683,-0.5909681092664519,-0.6016038102737051,-0.5043104245690389,-0.45252812595650316
https://glebekitchen.com/garlic-chilli-chicken-indian-restaurant-style/,1.6945389932212138,3.9419254095353216,2.8270300897347806,0.33668251829781193,-0.5413844896866541,-0.5564211712129683,-0.5909681092664519,1.6622235147497502,1.9829056693693274,-0.45252812595650316
https://glebekitchen.com/homemade-curry-powder/,1.5512436033368215,0.7702054948336284,-1.0787353147083671,-0.4630816069448379,-1.0246877148771933,1.7971997683338574,-0.5909681092664519,-0.6016038102737051,-0.5043104245690389,-0.45252812595650316
https://glebekitchen.com/karahi-chicken-indian-restaurant-style/,2.013993665538375,4.255472739893717,2.8797960188425478,1.3923778151962174,-0.6382371247146775,-0.5564211712129683,1.6921386861996075,1.6622235147497502,1.9829056693693274,-0.45252812595650316
https://glebekitchen.com/garlic-ginger-paste/,1.1323700784214057,0.5433402186870444,-0.7509316914022066,0.11898944454272496,-0.3492924484014377,-0.5564211712129683,-0.5909681092664519,-0.6016038102737051,-0.5043104245690389,-0.45252812595650316
https://glebekitchen.com/chicken-bhuna-curry/,1.8119378098236076,3.3247314820578158,2.0828998343724923,0.4690256222676076,-0.33711698098891446,-0.5564211712129683,1.6921386861996075,-0.6016038102737051,-0.5043104245690389,2.2098073968028227
https://glebekitchen.com/tarka-dhal/,1.8668792742806222,1.5303336715788727,-0.08895969322041987,0.302520545579252,-0.846209305212737,-0.5564211712129683,-0.5909681092664519,-0.6016038102737051,-0.5043104245690389,-0.45252812595650316
https://glebekitchen.com/chaat-masala-indian-street-food-spice-mix/,1.8381608226294468,0.7029735044990056,-0.8535583707870785,-0.16916514459350718,-0.5988489439711825,-0.5564211712129683,-0.5909681092664519,-0.6016038102737051,1.9829056693693274,-0.45252812595650316
https://glebekitchen.com/keema-matar-nearly-restaurant-style/,2.2931085912948084,3.0726495935652984,2.182160298084636,0.9618060723080502,-1.6377053065704574,-0.5564211712129683,1.6921386861996075,1.6622235147497502,-0.5043104245690389,-0.45252812595650316
https://glebekitchen.com/pilau-rice-indian-restaurant-style/,1.9601365331612657,0.27652240158565533,-0.4574421804394087,0.14045295980604924,-1.112692034524661,-0.5564211712129683,-0.5909681092664519,-0.6016038102737051,-0.5043104245690389,-0.45252812595650316
https://glebekitchen.com/dal-tadka-restaurant-style/,1.8926159452957023,2.659892437355017,1.2770066032782097,0.4885982897415658,-1.1562431028069937,-0.5564211712129683,-0.5909681092664519,-0.6016038102737051,-0.5043104245690389,-0.45252812595650316
https://glebekitchen.com/eggplant-curry-baingan-masala-restaurant-style/,1.8307050420383195,3.565334205203838,2.0580011419358057,0.33679864642351703,-1.3046632999544105,-0.5564211712129683,-0.5909681092664519,-0.6016038102737051,1.9829056693693274,2.2098073968028227
https://glebekitchen.com/restaurant-style-aloo-chaat-chicken-curry/,2.3318126100286976,3.5073411043834652,2.248955090018847,0.7356335569291395,-1.5368855725903587,1.7971997683338574,1.6921386861996075,1.6622235147497502,1.9829056693693274,-0.45252812595650316
https://glebekitchen.com/seekh-kebab-spicy-lamb-skewers/,2.0074962483469436,2.124631192882232,0.7789773998453523,0.007581794473887969,-0.47717084476941246,-0.5564211712129683,-0.5909681092664519,1.6622235147497502,1.9829056693693274,-0.45252812595650316
https://glebekitchen.com/nearly-indian-restaurant-style-chicken-tikka-masala/,1.4011471680059597,3.0811363337100586,1.852079144355102,0.10648466124591187,-1.027267837747057,-0.5564211712129683,1.6921386861996075,1.6622235147497502,1.9829056693693274,-0.45252812595650316
https://glebekitchen.com/chana-masala/,1.843401828317211,2.908358561143409,1.01837625377033,0.15897110106529602,-0.7640813296287122,-0.5564211712129683,-0.5909681092664519,-0.6016038102737051,-0.5043104245690389,-0.45252812595650316
https://glebekitchen.com/chicken-tikka-jalfrezi-indian-hotel-style/,1.9771957803726972,3.7063837512878255,2.7892712765425567,0.982235568043025,-1.3914884719358853,-0.5564211712129683,1.6921386861996075,1.6622235147497502,1.9829056693693274,2.2098073968028227
https://glebekitchen.com/indian-restaurant-dhansak-curry/,2.2088635493226545,3.0534606308189716,2.0738751534379087,0.6311326893837087,-1.910799103249384,-0.5564211712129683,1.6921386861996075,1.6622235147497502,1.9829056693693274,-0.45252812595650316
https://glebekitchen.com/chicken-biryani-indian-restaurant-style/,1.388182694450642,3.32757094591446,2.6835172040237483,0.40192607739668906,-0.9459028523240802,1.7971997683338574,-0.5909681092664519,-0.6016038102737051,1.9829056693693274,-0.45252812595650316
https://glebekitchen.com/indian-restaurant-dopiaza-curry/,2.111404894418057,3.4810300891083505,2.2520538312990634,0.8010666242701484,-1.056829457622938,-0.5564211712129683,-0.5909681092664519,-0.6016038102737051,1.9829056693693274,-0.45252812595650316
https://glebekitchen.com/indian-restaurant-bhuna-curry/,2.1977460338165464,3.3745078480705897,2.4141211104831104,0.2514877864627137,-1.4856923100980903,-0.5564211712129683,1.6921386861996075,1.6622235147497502,1.9829056693693274,-0.45252812595650316
https://glebekitchen.com/butter-chicken-indian-restaurant-style/,2.1364427557229044,3.574245533497643,2.6495948279148513,0.8545931471505807,-1.1958692193909277,-0.5564211712129683,1.6921386861996075,1.6622235147497502,1.9829056693693274,-0.45252812595650316
https://glebekitchen.com/nearly-restaurant-chicken-jalfrezi/,1.6874018032332887,3.429370409473857,3.4220929200635077,0.5193834773638429,-0.7768368545811559,-0.5564211712129683,1.6921386861996075,1.6622235147497502,-0.5043104245690389,-0.45252812595650316
https://glebekitchen.com/nadan-chicken-curry/,1.3644339534377357,2.6182558315148374,1.3845834319535386,0.34803746787151224,0.6575984161687187,-0.5564211712129683,1.6921386861996075,1.6622235147497502,1.9829056693693274,-0.45252812595650316
https://glebekitchen.com/tandoori-paste-pataks-copycat/,1.6093645275615467,0.7958879703439286,-0.14121774659280908,0.12607680141877106,-1.0322588501882237,1.7971997683338574,-0.5909681092664519,-0.6016038102737051,1.9829056693693274,2.2098073968028227
https://glebekitchen.com/hotel-style-indian-curry-gravy/,1.5821007984413058,2.146780582350263,0.9117057243959782,-0.13780716518180167,-0.3434121089356006,-0.5564211712129683,-0.5909681092664519,1.6622235147497502,-0.5043104245690389,2.2098073968028227
https://glebekitchen.com/methi-chicken-curry-indian-hotel-style/,1.9855851745755098,4.149206439904598,2.887824800595873,0.7984668392539318,-1.5583855964527562,-0.5564211712129683,1.6921386861996075,1.6622235147497502,1.9829056693693274,-0.45252812595650316
https://glebekitchen.com/restaurant-style-keema-matar/,2.2171049440152486,3.0293985361458535,1.6148131552197922,0.6502778850560628,-1.529278342818526,-0.5564211712129683,1.6921386861996075,1.6622235147497502,1.9829056693693274,-0.45252812595650316
https://glebekitchen.com/easy-chana-masala/,1.6229290025362682,2.938867971225297,1.6473413880429635,0.2895132074043416,-0.39689743676690087,1.7971997683338574,-0.5909681092664519,-0.6016038102737051,1.9829056693693274,-0.45252812595650316
https://glebekitchen.com/green-chili-chana-achari/,1.44072197619208,2.5846329531197076,1.3107309108291345,0.5147684067996747,-1.1456361522497,-0.5564211712129683,-0.5909681092664519,-0.6016038102737051,-0.5043104245690389,-0.45252812595650316
https://glebekitchen.com/masala-chilli-chicken-restaurant-style/,2.1909069954012437,3.015579992572534,2.1013737049120143,0.32743682006110664,-1.770733081590724,-0.5564211712129683,1.6921386861996075,1.6622235147497502,1.9829056693693274,2.2098073968028227
https://glebekitchen.com/laal-maas-spicy-lamb-curry/,1.6704469032880072,2.4466352183055697,1.1294122572355134,0.021201906285347457,-0.07698709940115418,-0.5564211712129683,1.6921386861996075,1.6622235147497502,1.9829056693693274,-0.45252812595650316
https://glebekitchen.com/chettinad-chicken-curry-indian-hotel-style/,2.011573197950402,4.514197675397659,3.3437333864048475,0.407841499973971,-1.245652728595604,-0.5564211712129683,1.6921386861996075,1.6622235147497502,1.9829056693693274,-0.45252812595650316
https://glebekitchen.com/bengali-chicken-curry-restaurant-style/,2.201314807059091,2.4676152022243794,1.6650344539194528,0.30307402330712535,-1.0577321087352378,-0.5564211712129683,1.6921386861996075,1.6622235147497502,-0.5043104245690389,-0.45252812595650316
https://glebekitchen.com/chicken-dhansak-bengali-style/,1.9487089640968935,2.6949056413407564,1.466263000227543,0.34194123362595924,-1.3081757162539658,1.7971997683338574,1.6921386861996075,-0.6016038102737051,-0.5043104245690389,-0.45252812595650316
https://glebekitchen.com/spinach-potato-curry/,1.805135527521949,2.0018957123528778,0.78761767785136,0.27582807104497786,-0.8237092360650627,-0.5564211712129683,-0.5909681092664519,-0.6016038102737051,-0.5043104245690389,-0.45252812595650316
https://glebekitchen.com/chicken-shashlik/,1.6921653779459214,3.0955345390110818,2.315170647424073,0.6157747976896067,-0.6890115589071375,-0.5564211712129683,1.6921386861996075,1.6622235147497502,1.9829056693693274,-0.45252812595650316
https://glebekitchen.com/nearly-restaurant-style-chicken-madras/,2.1067375209175228,3.410348688103154,3.188592327705249,0.713436744887889,-1.2997588524758243,-0.5564211712129683,1.6921386861996075,1.6622235147497502,-0.5043104245690389,-0.45252812595650316
https://glebekitchen.com/lamb-saag-indian-restaurant-style/,2.1072655307087627,4.124775577667903,2.557474706124112,0.9711148814457496,-1.689696168795537,-0.5564211712129683,-0.5909681092664519,1.6622235147497502,1.9829056693693274,-0.45252812595650316
https://glebekitchen.com/simple-chicken-curry/,1.490197483142114,2.337513277200497,1.5317601419568738,-0.04508019863511793,0.3792902730472406,-0.5564211712129683,1.6921386861996075,-0.6016038102737051,-0.5043104245690389,-0.45252812595650316
https://glebekitchen.com/egg-curry-south-indian-restaurant-style/,2.136265808108176,3.759798609036086,2.5800941537429627,0.8787453618947774,-1.0737071400431026,-0.5564211712129683,-0.5909681092664519,1.6622235147497502,1.9829056693693274,-0.45252812595650316
https://glebekitchen.com/chicken-dopiaza-indian-hotel-style/,1.8388423705766597,4.295235916876729,3.271012609228712,0.6803459142259511,-1.4002350558181358,-0.5564211712129683,1.6921386861996075,1.6622235147497502,1.9829056693693274,2.2098073968028227
https://glebekitchen.com/punjabi-dal-makhani/,1.988104830282186,2.3066533564310645,0.6666456399738722,0.4125962036173748,-1.347482269083497,-0.5564211712129683,-0.5909681092664519,-0.6016038102737051,-0.5043104245690389,-0.45252812595650316
https://glebekitchen.com/kerala-chicken-curry-nadan-kohzi-indian-hotel-style/,1.8751280871362193,4.380283407541933,3.0719838518479117,0.38132225760823757,-1.0430632064018721,-0.5564211712129683,1.6921386861996075,1.6622235147497502,1.9829056693693274,-0.45252812595650316
https://glebekitchen.com/chettinad-chicken-curry/,1.6710781472688248,2.56656123751083,1.1225737522158659,0.5488927658187647,0.34054072466148566,-0.5564211712129683,1.6921386861996075,1.6622235147497502,1.9829056693693274,-0.45252812595650316
https://glebekitchen.com/chicken-and-chickpea-curry-easy-restaurant-style/,2.0598097338993053,3.1595170908712804,2.567822514369694,0.7658243814270275,-1.0448481146792532,1.7971997683338574,1.6921386861996075,1.6622235147497502,-0.5043104245690389,-0.45252812595650316
https://glebekitchen.com/indian-restaurant-madras-curry/,2.422621583064951,3.6755822086234704,2.3169824871768285,0.8910443917721379,-1.9810925132103763,-0.5564211712129683,1.6921386861996075,1.6622235147497502,1.9829056693693274,-0.45252812595650316
https://glebekitchen.com/lamb-madras-indian-hotel-style/,1.86200696662416,3.8542265106044535,2.626766374111781,1.0588444286242766,-1.9921744329887527,-0.5564211712129683,1.6921386861996075,1.6622235147497502,1.9829056693693274,-0.45252812595650316
https://glebekitchen.com/murgir-jhol-homestyle-bengali-chicken-curry/,1.3175163153369989,2.7926048825352274,1.3849220823668136,0.45354724611111163,-0.25604164591570255,-0.5564211712129683,1.6921386861996075,-0.6016038102737051,-0.5043104245690389,-0.45252812595650316
https://glebekitchen.com/lamb-rogan-josh-restaurant-style-at-home/,1.9956999141671596,4.283562665209049,2.8567332953907694,0.8123685561681394,-0.9658716030359983,-0.5564211712129683,1.6921386861996075,1.6622235147497502,1.9829056693693274,-0.45252812595650316
https://glebekitchen.com/thai-chicken-khao-soi/,0.8535099556393495,1.7877032846490528,0.7859013754008882,-1.3719856721657704,0.6762652272910167,1.7971997683338574,1.6921386861996075,-0.6016038102737051,1.9829056693693274,-0.45252812595650316
https://glebekitchen.com/thai-grilled-chicken-with-sweet-chili-sauce/,0.40303979145113855,0.5422511230381218,1.1236622678794825,-0.809796802326963,1.0100926306277378,1.7971997683338574,-0.5909681092664519,-0.6016038102737051,1.9829056693693274,2.2098073968028227
https://glebekitchen.com/thai-tom-yum-soup/,1.1415001282435706,0.6965175958877472,-0.41760457078308577,-1.101871128323587,-0.4078365169899801,-0.5564211712129683,-0.5909681092664519,-0.6016038102737051,1.9829056693693274,-0.45252812595650316
https://glebekitchen.com/chicken-pad-thai/,0.7826628745033943,1.2934266714363054,1.075201969304968,-1.3511534525837703,0.5245808458204972,1.7971997683338574,1.6921386861996075,1.6622235147497502,1.9829056693693274,2.2098073968028227
https://glebekitchen.com/thai-cucumber-salad/,1.1963482479501826,0.1741887055513106,-1.1273869942468397,-0.9636764662747274,-0.20480147479077518,-0.5564211712129683,-0.5909681092664519,-0.6016038102737051,-0.5043104245690389,-0.45252812595650316
https://glebekitchen.com/thai-fried-rice-khao-pad/,0.8329394770707806,1.2546621783083585,0.1521656682693064,-0.9915981352040482,0.5289880522999707,1.7971997683338574,1.6921386861996075,1.6622235147497502,1.9829056693693274,-0.45252812595650316
https://glebekitchen.com/nam-prik-pao-thai-chili-paste/,0.804396741550337,0.25871498241627455,-0.6865679095738555,-0.7069129713648572,0.01972743076645526,-0.5564211712129683,-0.5909681092664519,1.6622235147497502,-0.5043104245690389,-0.45252812595650316
https://glebekitchen.com/thai-red-chicken-curry/,1.2558114376166465,1.0492115268050428,-0.24029172548556565,-0.5491511356627553,-0.2702368794536356,-0.5564211712129683,1.6921386861996075,1.6622235147497502,-0.5043104245690389,-0.45252812595650316
https://glebekitchen.com/thai-sweet-chili-sauce/,1.1992697912030426,0.007165872934366387,-0.6088812195271245,-0.3508797305564598,-0.027922314460401394,1.7971997683338574,-0.5909681092664519,-0.6016038102737051,1.9829056693693274,2.2098073968028227
https://glebekitchen.com/panang-curry-with-chicken/,0.9729139126365133,2.006444624818822,1.266147106774664,-0.5217968971439467,1.7960177056560447,-0.5564211712129683,1.6921386861996075,-0.6016038102737051,1.9829056693693274,2.2098073968028227
https://glebekitchen.com/sesame-noodles-thai-style/,0.9994784546618485,0.8083774355011782,0.547171396111256,-1.225590511699104,0.2102761435128943,1.7971997683338574,1.6921386861996075,1.6622235147497502,1.9829056693693274,-0.45252812595650316
https://glebekitchen.com/thai-basil-chicken-pad-kra-pao/,0.8939843965776625,0.9441236495798696,0.4858025010690184,-0.8425436287853647,-0.39720578748453816,-0.5564211712129683,1.6921386861996075,1.6622235147497502,1.9829056693693274,-0.45252812595650316
https://glebekitchen.com/easy-beef-massaman-curry/,0.9691534727998359,1.2570548809052242,0.28800429289691304,-1.210158841410711,-0.008759496137650754,1.7971997683338574,1.6921386861996075,1.6622235147497502,1.9829056693693274,2.2098073968028227
https://glebekitchen.com/larb-thai-pork-salad/,1.2193351848730714,0.2350781196332614,-0.8612280374801777,-0.4360756945614463,0.011530505581023871,-0.5564211712129683,-0.5909681092664519,-0.6016038102737051,1.9829056693693274,-0.45252812595650316
https://glebekitchen.com/grilled-pork-belly-skewers-asian-style/,0.7207740437555558,-0.20582663695311296,0.1535950060246251,-1.5655247349153345,-0.5897754036886179,-0.5564211712129683,-0.5909681092664519,-0.6016038102737051,-0.5043104245690389,-0.45252812595650316
https://glebekitchen.com/spicy-thai-beef-salad/,1.3187251877525,0.47872663362063744,-0.2832615803874372,-1.0478742012029179,0.2681829925244123,-0.5564211712129683,1.6921386861996075,-0.6016038102737051,1.9829056693693274,-0.45252812595650316
https://glebekitchen.com/thai-green-curry-from-scratch/,0.9735436219571361,1.9818993432168306,0.5481081662176006,-0.9835266253891496,1.1547414102869564,1.7971997683338574,1.6921386861996075,1.6622235147497502,1.9829056693693274,2.2098073968028227
https://glebekitchen.com/thai-basil-beef-pad-gra-prow/,0.7387655499398986,0.3414533753630734,0.058713200872913485,-1.5292145346807018,0.6896508281619156,-0.5564211712129683,1.6921386861996075,1.6622235147497502,-0.5043104245690389,-0.45252812595650316
https://glebekitchen.com/pad-thai-rest-us/,0.9840800125884687,0.9703084682927418,0.000992887087949036,-1.365373132392811,0.4558431941626383,1.7971997683338574,-0.5909681092664519,1.6622235147497502,1.9829056693693274,2.2098073968028227
https://glebekitchen.com/papaya-salad-som-tam-thai/,0.9706162313160037,0.8260188421899114,0.08514705713277723,-1.1878258867366147,0.4100844762488683,-0.5564211712129683,-0.5909681092664519,-0.6016038102737051,-0.5043104245690389,2.2098073968028227
https://glebekitchen.com/thai-beef-stir-fry-with-rice-noodles/,0.9541647016657698,0.9191174479825092,-0.38167492054367935,-1.2023422927224214,-0.374742519323006,1.7971997683338574,1.6921386861996075,-0.6016038102737051,1.9829056693693274,2.2098073968028227
https://glebekitchen.com/thai-roast-chicken/,0.5403366980425679,0.6512877869138382,1.0080282235247902,-1.3665831886499213,0.688452838370875,1.7971997683338574,1.6921386861996075,1.6622235147497502,-0.5043104245690389,-0.45252812595650316
https://glebekitchen.com/thai-beef-noodles/,0.5739825975498444,0.6895792270596464,0.8843931507117667,-2.0641748389849237,-0.010205680052172789,1.7971997683338574,1.6921386861996075,1.6622235147497502,1.9829056693693274,2.2098073968028227
https://glebekitchen.com/beef-and-broccoli-thai-style/,0.44153369228288963,0.6872659084733443,1.0603314821746135,-1.4239681378176556,-1.6777366275529384,-0.5564211712129683,1.6921386861996075,1.6622235147497502,1.9829056693693274,-0.45252812595650316
https://glebekitchen.com/thai-curry-noodle-soup/,1.2318376547247178,0.7632208952059278,-0.19646127873649183,-1.0394350950422842,-0.13731479153808346,1.7971997683338574,1.6921386861996075,1.6622235147497502,1.9829056693693274,-0.45252812595650316
https://glebekitchen.com/thai-chicken-buddha-bowl/,1.2182656793148177,0.8916078270745919,0.0829331443274096,-0.17655318837696213,-0.19474398884884303,1.7971997683338574,-0.5909681092664519,-0.6016038102737051,1.9829056693693274,-0.45252812595650316
https://glebekitchen.com/thai-ribs-with-hot-and-sweet-dipping-sauce/,1.2283035655286956,0.25856690035604,0.17912651717957023,-0.8499304003696605,1.0804334173664334,-0.5564211712129683,-0.5909681092664519,-0.6016038102737051,1.9829056693693274,2.2098073968028227
https://glebekitchen.com/korean-ramen/,1.4068879325559245,0.14330212023632172,-0.4945976708770313,-0.8695729200952195,-0.7125242058928362,1.7971997683338574,1.6921386861996075,-0.6016038102737051,1.9829056693693274,2.2098073968028227
https://glebekitchen.com/korean-pork-ribs-with-gochujang-glaze/,0.38284351091923047,-0.3733003152546683,0.729486895748166,-0.9720818109072811,0.6891564874699836,-0.5564211712129683,1.6921386861996075,1.6622235147497502,1.9829056693693274,2.2098073968028227
https://glebekitchen.com/korean-pork-stew-kimchi-jjigae/,1.0891703579734116,-0.14179959993524174,0.0984487451274718,-0.1926779463204552,-0.48002516153700675,-0.5564211712129683,-0.5909681092664519,1.6622235147497502,-0.5043104245690389,-0.45252812595650316
https://glebekitchen.com/korean-pork-bone-soup-gamjatang/,0.6701647268109016,-0.0018724515126479248,1.2930545833884652,-1.3711054646759098,0.3893134486852181,-0.5564211712129683,1.6921386861996075,1.6622235147497502,1.9829056693693274,-0.45252812595650316
https://glebekitchen.com/korean-beef-stew-with-gochujang/,0.9293211429552762,-0.19285099842121098,-0.6462608635974444,-1.2320660963780097,-0.42453404190029126,-0.5564211712129683,1.6921386861996075,1.6622235147497502,1.9829056693693274,-0.45252812595650316
https://glebekitchen.com/korean-meatloaf-gochujang-glaze/,0.6308948452526009,-0.16850079183419805,0.6468734558227249,-0.7809263864997797,0.039254504410009314,-0.5564211712129683,1.6921386861996075,1.6622235147497502,1.9829056693693274,2.2098073968028227
https://glebekitchen.com/korean-bulgogi-sauce/,0.42536450513458346,-0.07371245565201769,-0.14671062159129533,-1.6000263202051406,-0.2519130903664022,1.7971997683338574,-0.5909681092664519,-0.6016038102737051,1.9829056693693274,2.2098073968028227
https://glebekitchen.com/spicy-miso-grilled-chicken/,1.1496868293589304,0.013836502792254656,0.026047022899077774,-1.1381694565129723,-0.1744393536328688,-0.5564211712129683,1.6921386861996075,-0.6016038102737051,-0.5043104245690389,-0.45252812595650316
https://glebekitchen.com/korean-style-pork-chops/,0.6001643380192039,-0.773001092867658,0.22413688338837925,-1.19887942517947,-0.384038002954492,-0.5564211712129683,1.6921386861996075,-0.6016038102737051,-0.5043104245690389,-0.45252812595650316
https://glebekitchen.com/easy-korean-beef-bulgogi/,0.9633010180896838,0.38130058886483387,-0.04701926947371904,-0.7603855801941275,-0.6541445446412433,-0.5564211712129683,-0.5909681092664519,-0.6016038102737051,-0.5043104245690389,-0.45252812595650316
https://glebekitchen.com/korean-braised-pork-ribs/,0.3377950832772405,0.572056410058016,0.8042192875394416,-0.6099848119969329,0.11516239131735055,-0.5564211712129683,1.6921386861996075,1.6622235147497502,-0.5043104245690389,-0.45252812595650316
https://glebekitchen.com/korean-chicken-wings-gochujang-sauce/,1.3407500828422807,-0.6478701224273904,0.2202056661225143,0.11426711782492213,-0.06245317478053576,1.7971997683338574,1.6921386861996075,1.6622235147497502,1.9829056693693274,2.2098073968028227
https://mykoreankitchen.com/spicy-mayo-recipe/,1.6661496264885773,-0.1745956601044452,-1.154663071302194,-0.23222625153565046,0.45237755105927685,-0.5564211712129683,-0.5909681092664519,-0.6016038102737051,-0.5043104245690389,-0.45252812595650316
https://mykoreankitchen.com/strawberry-milk/,1.2641211029744515,-0.23252468429405965,-1.7101643227423533,-0.059603916971880104,-0.628030676921444,1.7971997683338574,-0.5909681092664519,-0.6016038102737051,-0.5043104245690389,2.2098073968028227
https://mykoreankitchen.com/dakgangjeong-soy-garlic-fried-chicken/,0.5509049071719005,-0.3570435713122585,1.415756519693642,-0.7336855249981425,0.49091790652551043,1.7971997683338574,1.6921386861996075,-0.6016038102737051,1.9829056693693274,2.2098073968028227
https://mykoreankitchen.com/chili-oil-recipe/,1.0600652736498861,0.31096571447139026,-0.9358865386233974,-0.8489227892060504,0.1605879171434922,1.7971997683338574,-0.5909681092664519,1.6622235147497502,1.9829056693693274,2.2098073968028227
https://mykoreankitchen.com/dalgona-coffee-whipped-coffee/,1.4238969342700238,-0.29272508500184846,-1.560318824889047,-0.11320586261990961,-0.931864427399653,-0.5564211712129683,-0.5909681092664519,-0.6016038102737051,-0.5043104245690389,2.2098073968028227
https://mykoreankitchen.com/omelet-rice-omurice/,0.8580546884037951,-0.49291576713356905,-0.41257865512450237,-0.4148985139729481,-1.0827336677562125,1.7971997683338574,1.6921386861996075,1.6622235147497502,1.9829056693693274,2.2098073968028227
https://mykoreankitchen.com/tuna-pancakes-chamchijeon/,1.0376798983096562,-0.8179478518915049,0.17382761610580016,-0.16651279046678144,0.49355808065118506,-0.5564211712129683,-0.5909681092664519,-0.6016038102737051,-0.5043104245690389,-0.45252812595650316
https://mykoreankitchen.com/pan-fried-zucchini/,1.6338913732096243,-0.2892359024413696,-1.0814245393795026,0.41931776632543605,-0.19232062035071718,-0.5564211712129683,-0.5909681092664519,-0.6016038102737051,-0.5043104245690389,-0.45252812595650316
https://mykoreankitchen.com/slow-cooker-short-ribs/,0.5516195374507081,-0.6347749195837136,0.3699326908256065,-1.6162188147419534,-0.4199709868049264,1.7971997683338574,-0.5909681092664519,-0.6016038102737051,1.9829056693693274,2.2098073968028227
https://mykoreankitchen.com/korean-ground-beef-rice-bowls/,0.4815189257475302,-0.7063453694233778,0.6157736867278969,-1.3691181246087396,-0.1188032812021278,-0.5564211712129683,-0.5909681092664519,1.6622235147497502,-0.5043104245690389,2.2098073968028227
https://mykoreankitchen.com/doenjang-jjigae/,1.0933589665187735,0.13642417757524136,-0.2331236590886226,-0.43470687774945377,0.5113735762002435,-0.5564211712129683,-0.5909681092664519,-0.6016038102737051,-0.5043104245690389,-0.45252812595650316
https://mykoreankitchen.com/spicy-sweet-and-vinegary-noodles-bibim-guksu/,0.6573711051649131,-0.7970597745286971,-0.1817768203796302,-1.5852990288137752,-0.8517467410103858,1.7971997683338574,-0.5909681092664519,-0.6016038102737051,1.9829056693693274,2.2098073968028227
https://mykoreankitchen.com/galbitang-beef-short-rib-soup/,1.053234717724672,-0.4966223577597957,0.315811537301169,-0.7980615292863329,0.14956619093314524,-0.5564211712129683,1.6921386861996075,-0.6016038102737051,1.9829056693693274,-0.45252812595650316
https://mykoreankitchen.com/nuclear-fire-noodle-fries/,1.2283748558592202,-0.30110176409604933,-1.2016696291902176,-0.35822290170633647,-0.8786520806105855,1.7971997683338574,-0.5909681092664519,1.6622235147497502,1.9829056693693274,-0.45252812595650316
https://mykoreankitchen.com/kimchi-jjim-braised-kimchi/,0.6377367628650027,-0.4232409404788423,-0.08354807621371822,-1.2403851255916447,0.09959742646104477,-0.5564211712129683,-0.5909681092664519,-0.6016038102737051,-0.5043104245690389,-0.45252812595650316
https://mykoreankitchen.com/air-fryer-chicken-wings/,0.7047182162997168,-0.6712306449593461,1.0411705270209413,-0.9780683994124941,-0.10914938392488398,-0.5564211712129683,-0.5909681092664519,-0.6016038102737051,1.9829056693693274,2.2098073968028227
https://mykoreankitchen.com/pickled-radishes/,1.4623151905079315,-0.5612653536894384,-1.0962542146989953,0.13239213700606747,-0.5846129229129531,-0.5564211712129683,-0.5909681092664519,-0.6016038102737051,-0.5043104245690389,-0.45252812595650316
https://mykoreankitchen.com/air-fryer-chickpeas/,1.1205593834607916,-0.21154985683649133,-0.28386538563434816,-0.9843140169978413,0.23708089259305465,-0.5564211712129683,-0.5909681092664519,-0.6016038102737051,-0.5043104245690389,-0.45252812595650316
https://mykoreankitchen.com/bean-sprout-rice-kongnamul-bap/,0.6206954152793875,-0.6865573730232566,0.5003987842825501,-0.8999735618399273,-0.2745549507316995,1.7971997683338574,-0.5909681092664519,-0.6016038102737051,1.9829056693693274,-0.45252812595650316
https://mykoreankitchen.com/gochujang-chicken/,0.6093982745773605,0.10848922560137568,0.485743541145227,-1.1821357071257386,0.7864354296509222,1.7971997683338574,1.6921386861996075,-0.6016038102737051,1.9829056693693274,2.2098073968028227
https://mykoreankitchen.com/korean-style-tuna-cakes/,0.9917239377146512,-0.7728616219818323,0.4286865720716526,0.07477403611018511,0.7305651668769266,-0.5564211712129683,-0.5909681092664519,-0.6016038102737051,-0.5043104245690389,-0.45252812595650316
https://www.justonecookbook.com/cranberry-brie-bites/,1.4438554613947892,-0.3663384963143641,-1.2528164149726566,-0.15310942937436747,-0.3363888092473837,-0.5564211712129683,-0.5909681092664519,-0.6016038102737051,-0.5043104245690389,-0.45252812595650316
https://www.justonecookbook.com/white-stew/,2.642742180508358,-1.4650880758173102,2.1525082751175164,2.3072958451400116,2.8683350342473175,-0.5564211712129683,1.6921386861996075,-0.6016038102737051,1.9829056693693274,2.2098073968028227
https://www.justonecookbook.com/namasu-daikon-and-carrot-salad/,2.8830374641505068,-2.3817070534896123,1.049993036845826,0.03990230437445249,0.07295867136861632,-0.5564211712129683,-0.5909681092664519,-0.6016038102737051,-0.5043104245690389,-0.45252812595650316
https://www.justonecookbook.com/instant-pot-kuromame/,2.447773683115072,-2.5247261595313404,1.2769000712859973,-0.1453154622740262,-0.18247758367935152,-0.5564211712129683,-0.5909681092664519,-0.6016038102737051,-0.5043104245690389,2.2098073968028227
https://www.justonecookbook.com/tai-meshi-with-leftover-baked-sea-bream/,2.6758265164898827,-2.7558979631012464,1.9038484017498247,-0.39421828685453564,0.1751453671739452,1.7971997683338574,-0.5909681092664519,-0.6016038102737051,-0.5043104245690389,-0.45252812595650316
https://omnivorescookbook.com/dou-fu-nao/,-0.7541047540568879,-0.7139172405785748,0.22442916435324614,-0.9127096739936065,-1.2494955874010623,-0.5564211712129683,1.6921386861996075,-0.6016038102737051,-0.5043104245690389,-0.45252812595650316
https://omnivorescookbook.com/chinese-steamed-eggs/,0.8039192573932877,-0.5531380054543266,-0.780224040668584,-0.6768905475714824,-0.5040796602798677,-0.5564211712129683,-0.5909681092664519,-0.6016038102737051,-0.5043104245690389,-0.45252812595650316
https://omnivorescookbook.com/coconut-waffles/,0.8249940652871893,-0.10131710640537585,-1.4725215762736472,0.6607512204754437,0.03850568468385983,-0.5564211712129683,-0.5909681092664519,-0.6016038102737051,-0.5043104245690389,-0.45252812595650316
https://omnivorescookbook.com/scallion-biscuits-char-siu-gravy/,0.628305084132254,-0.5187595304216169,-0.9800470251768784,0.4712418927600446,0.19429066702280148,-0.5564211712129683,-0.5909681092664519,-0.6016038102737051,-0.5043104245690389,-0.45252812595650316
https://omnivorescookbook.com/savory-oatmeal/,0.5465908127578922,-0.47194407760508994,-0.5330854881800857,-0.9936648452338783,-0.6968825083675907,-0.5564211712129683,-0.5909681092664519,-0.6016038102737051,1.9829056693693274,-0.45252812595650316
https://omnivorescookbook.com/egg-katsu-sando/,-0.2753445886738576,-0.6436466888463552,-0.6399576192183969,0.25066165170596605,-0.4706632264330001,-0.5564211712129683,-0.5909681092664519,-0.6016038102737051,-0.5043104245690389,-0.45252812595650316
https://omnivorescookbook.com/recipes/egg-and-green-onion-crepe/,0.8703733842374762,-0.019819932940470745,-1.6448053698409024,0.6866061914817151,-0.06304042456477633,-0.5564211712129683,-0.5909681092664519,-0.6016038102737051,-0.5043104245690389,-0.45252812595650316
https://omnivorescookbook.com/chinese-fish-en-papillote/,-0.4344435951256533,-0.9022898748510145,-0.09532667946401904,-0.7329634505855809,-0.8790862539169826,-0.5564211712129683,1.6921386861996075,-0.6016038102737051,-0.5043104245690389,-0.45252812595650316
https://omnivorescookbook.com/you-tiao-chinese-donuts/,1.3389660585182317,-0.31858306201688713,-1.569896217376765,1.2105769565710323,-0.5084992259917621,-0.5564211712129683,-0.5909681092664519,-0.6016038102737051,-0.5043104245690389,-0.45252812595650316
https://omnivorescookbook.com/matcha-pancakes/,0.9032757560429194,-0.23136227942957424,-1.9541112191442458,1.404973252768386,0.032263392104998775,-0.5564211712129683,-0.5909681092664519,-0.6016038102737051,-0.5043104245690389,-0.45252812595650316
https://omnivorescookbook.com/shen-jian-bao/,-1.3331023154113883,-1.3120504074302233,0.5446602851228205,1.3390779928527374,-1.093310595094313,-0.5564211712129683,-0.5909681092664519,-0.6016038102737051,-0.5043104245690389,-0.45252812595650316
https://omnivorescookbook.com/recipes/authentic-pork-belly-bun/,-0.9001973581040221,-0.11680063485691078,0.7463989883450934,-1.7614878065468458,-0.8341894985539445,-0.5564211712129683,1.6921386861996075,-0.6016038102737051,-0.5043104245690389,-0.45252812595650316
https://omnivorescookbook.com/sticky-wings-with-hot-sauce/,0.14288322410633644,-0.7947370489624519,-0.7768438431501715,-0.48021647887703284,-0.631038477378968,-0.5564211712129683,1.6921386861996075,-0.6016038102737051,-0.5043104245690389,-0.45252812595650316
https://omnivorescookbook.com/recipes/baked-samosa/,-0.08486113764832925,-0.2425641349666533,-0.5243047278441606,0.2910763674764934,0.07910605463537476,-0.5564211712129683,-0.5909681092664519,-0.6016038102737051,-0.5043104245690389,-0.45252812595650316
https://omnivorescookbook.com/salt-pepper-pork-chops/,-0.3829737140610978,-0.24515651890417245,-0.13224178691877905,0.8349493419646463,1.013587770599981,-0.5564211712129683,1.6921386861996075,-0.6016038102737051,-0.5043104245690389,-0.45252812595650316
https://omnivorescookbook.com/grilled-chicken-wings-chinese-style/,-0.22810398556938102,-0.17473845271031757,-0.1526724260910785,-0.31009037185419647,1.3902349394008469,-0.5564211712129683,1.6921386861996075,-0.6016038102737051,-0.5043104245690389,-0.45252812595650316
https://omnivorescookbook.com/shrimp-baked-spring-rolls/,-0.6779970979648698,-0.542225897488987,0.06797168167319362,-0.4037781273566896,0.2645454991680871,-0.5564211712129683,-0.5909681092664519,-0.6016038102737051,-0.5043104245690389,-0.45252812595650316
https://omnivorescookbook.com/vegan-dumplings/,-0.632497453966779,0.08560367663959186,0.5394524110012063,-1.4120648847520587,0.2692825637623622,-0.5564211712129683,-0.5909681092664519,-0.6016038102737051,-0.5043104245690389,-0.45252812595650316
https://omnivorescookbook.com/recipes/green-onion-tofu-salad/,1.0085400976229772,-0.5373496095849349,-1.1637903893475394,0.025840889204465672,-0.13474333024497842,-0.5564211712129683,-0.5909681092664519,-0.6016038102737051,-0.5043104245690389,-0.45252812595650316
https://omnivorescookbook.com/cheesy-bbq-sausage-bites/,1.2086593457364483,-0.451097403718687,-1.5558423560490617,-0.5820828987337104,-0.4764668565664741,-0.5564211712129683,-0.5909681092664519,-0.6016038102737051,-0.5043104245690389,-0.45252812595650316
https://omnivorescookbook.com/instant-pot-meatballs/,-0.9950450996896514,-0.4992786528410226,0.3419077980454379,-0.6105177488984763,0.8215110867502918,-0.5564211712129683,-0.5909681092664519,-0.6016038102737051,-0.5043104245690389,-0.45252812595650316
https://omnivorescookbook.com/korean-seafood-pancake/,-0.5127615273774422,-0.39565596458205843,0.22452205646737533,0.7577232821352744,0.20561783641196552,-0.5564211712129683,-0.5909681092664519,-0.6016038102737051,-0.5043104245690389,-0.45252812595650316
https://omnivorescookbook.com/chicken-spring-rolls/,-0.6835871104543143,-0.029017603590290555,0.7342071600806734,-1.2766343280793473,1.280184730328621,-0.5564211712129683,-0.5909681092664519,-0.6016038102737051,-0.5043104245690389,-0.45252812595650316
https://omnivorescookbook.com/blistered-shishito-peppers/,0.9121413188575473,0.05702258762463681,-1.5622359613298087,0.05015203036264157,0.3602789911866145,-0.5564211712129683,-0.5909681092664519,-0.6016038102737051,-0.5043104245690389,-0.45252812595650316
https://omnivorescookbook.com/crispy-marinated-tofu/,-0.19664992400946651,0.1399075302395457,0.3320122089275215,-1.3364736996946038,0.7953430080619436,-0.5564211712129683,-0.5909681092664519,-0.6016038102737051,-0.5043104245690389,-0.45252812595650316
https://omnivorescookbook.com/recipes/honey-lotus-root-with-sticky-rice/,0.946305299626344,-0.3763580339702735,-1.6878564391940534,-0.3609621758813457,-0.6747379488045913,1.7971997683338574,-0.5909681092664519,-0.6016038102737051,-0.5043104245690389,2.2098073968028227
https://omnivorescookbook.com/rainbow-longevity-noodles/,0.2743332239327017,-0.3364383573715541,-0.09920386390963504,0.014825456167152935,-0.1257504063302423,-0.5564211712129683,-0.5909681092664519,-0.6016038102737051,-0.5043104245690389,-0.45252812595650316
https://omnivorescookbook.com/crispy-tofu-with-garlic-sauce/,-0.12487585134281765,-0.5624379813871323,-0.26464820027769265,-1.2387938934467702,0.11116856521263863,-0.5564211712129683,-0.5909681092664519,-0.6016038102737051,-0.5043104245690389,-0.45252812595650316
https://omnivorescookbook.com/chinese-chive-pockets/,-0.5091725840553065,-0.40134029308951497,-0.2909112988276281,1.3445244029520977,-0.720970637184433,-0.5564211712129683,-0.5909681092664519,-0.6016038102737051,-0.5043104245690389,-0.45252812595650316
https://omnivorescookbook.com/drunken-chicken/,0.22866730075670721,-0.26701368942667136,-0.5652747302948946,0.03677434444008098,-0.5614848152751799,-0.5564211712129683,-0.5909681092664519,-0.6016038102737051,-0.5043104245690389,-0.45252812595650316
https://omnivorescookbook.com/salt-and-pepper-chicken/,-0.18200122838622623,0.789648505883127,0.1714904180695047,0.8687066403819343,1.1941730916811177,-0.5564211712129683,-0.5909681092664519,-0.6016038102737051,-0.5043104245690389,-0.45252812595650316
https://omnivorescookbook.com/chinese-pickled-cucumber/,0.2943231104208168,-0.5669259199022035,-0.21201270186470134,-1.0218754701211745,0.11415763096187975,-0.5564211712129683,-0.5909681092664519,-0.6016038102737051,-0.5043104245690389,-0.45252812595650316
https://omnivorescookbook.com/recipes/bang-bang-chicken/,-0.4145421469344623,-0.01971582004153818,0.43135207317762764,-1.7992775929997693,0.5904401344930675,-0.5564211712129683,1.6921386861996075,-0.6016038102737051,-0.5043104245690389,-0.45252812595650316
https://omnivorescookbook.com/baked-crispy-tofu-nugget/,0.6980692303933712,-0.13026333814523033,-1.3833037091783296,0.4617298022142977,0.23622366504833878,-0.5564211712129683,-0.5909681092664519,-0.6016038102737051,-0.5043104245690389,-0.45252812595650316
https://omnivorescookbook.com/chicken-noodle-salad-with-garlicky-nutty-and-spciy-sauce/,-0.24345694081934113,-0.39784580876061904,0.14726942721926334,-2.2181650795777013,0.3139727566782548,1.7971997683338574,1.6921386861996075,-0.6016038102737051,-0.5043104245690389,-0.45252812595650316
https://omnivorescookbook.com/chinese-scallion-pancakes/,0.23428624728691658,-0.590877058306518,-0.744637654304546,-0.015538378853736871,0.35994592206526216,-0.5564211712129683,-0.5909681092664519,-0.6016038102737051,-0.5043104245690389,-0.45252812595650316
https://omnivorescookbook.com/saliva-chicken/,-0.6098592723375232,0.04179195691368257,0.6761689126433784,-1.804192688894461,0.8995017607240071,-0.5564211712129683,-0.5909681092664519,-0.6016038102737051,-0.5043104245690389,-0.45252812595650316
https://omnivorescookbook.com/fu-qi-fei-pian/,-1.040831552775703,-0.26818251731082404,0.9555607760172609,-1.7716633184575932,0.535864465041669,-0.5564211712129683,1.6921386861996075,-0.6016038102737051,-0.5043104245690389,-0.45252812595650316
https://omnivorescookbook.com/recipes/chinese-style-potato-salad/,0.5763795117340796,0.387328287013693,-0.9653448448047689,-0.2215227587382043,0.5643843702105585,-0.5564211712129683,-0.5909681092664519,-0.6016038102737051,-0.5043104245690389,-0.45252812595650316
https://omnivorescookbook.com/3-ingredient-fried-shrimp/,0.32599809013298325,-0.32732837250403635,-1.0261363054108719,1.0552936055824063,0.7896617205735662,-0.5564211712129683,-0.5909681092664519,-0.6016038102737051,-0.5043104245690389,-0.45252812595650316
https://omnivorescookbook.com/recipes/avocado-shrimp-spring-roll/,-0.6322930148335706,-0.43277062442420333,-0.34128260064184895,-1.1539341173671782,1.0998345661254956,-0.5564211712129683,-0.5909681092664519,-0.6016038102737051,-0.5043104245690389,-0.45252812595650316
https://omnivorescookbook.com/chinese-seaweed-salad/,-0.7808405832349706,-0.18208049460621795,0.14174859453246735,-1.1982326129665368,0.3730858342168559,-0.5564211712129683,-0.5909681092664519,-0.6016038102737051,-0.5043104245690389,-0.45252812595650316
https://omnivorescookbook.com/recipes/chinese-baked-hot-wings/,-0.12226297944233308,0.08048227202970731,-0.3872908183405208,-0.11606845803958257,0.40298174096060024,-0.5564211712129683,1.6921386861996075,-0.6016038102737051,-0.5043104245690389,2.2098073968028227
https://omnivorescookbook.com/nepali-momos-spinach-ricotta/,0.8933770444739388,-0.034654683792940136,-1.231954597606837,0.23140956020566694,1.2542660884277748,-0.5564211712129683,-0.5909681092664519,-0.6016038102737051,-0.5043104245690389,-0.45252812595650316
https://omnivorescookbook.com/salt-and-pepper-squid/,-0.28772843855179986,-0.053258599897865994,-0.33078775619446044,1.312565974887777,1.1485495649933672,-0.5564211712129683,-0.5909681092664519,-0.6016038102737051,-0.5043104245690389,-0.45252812595650316
https://omnivorescookbook.com/low-sugar-kettle-corn/,0.3772551736072747,-0.41978420523872023,-0.954983021566797,-1.0335881643475648,-0.12889779805703377,-0.5564211712129683,-0.5909681092664519,-0.6016038102737051,-0.5043104245690389,-0.45252812595650316
https://omnivorescookbook.com/coconut-shrimp/,1.151810162673101,0.24947453317085802,-1.2206713997872,0.5913045794812261,0.16332369364917446,-0.5564211712129683,-0.5909681092664519,-0.6016038102737051,-0.5043104245690389,-0.45252812595650316
https://omnivorescookbook.com/turkey-dumplings/,0.33623890598695366,0.19813882042338032,-0.5812104699238066,0.2673840107636087,2.130684025051428,-0.5564211712129683,-0.5909681092664519,-0.6016038102737051,-0.5043104245690389,-0.45252812595650316
https://omnivorescookbook.com/siu-yuk/,-0.5110136872679938,-0.5406289520554156,0.14793096807521133,-0.6465170118623172,1.106782735756864,-0.5564211712129683,-0.5909681092664519,1.6622235147497502,-0.5043104245690389,-0.45252812595650316
https://omnivorescookbook.com/chinese-bbq-ribs/,-0.7542898189888392,-0.699433821839789,-0.13728481007383922,0.09856204956728239,0.0014406653576974878,-0.5564211712129683,1.6921386861996075,-0.6016038102737051,-0.5043104245690389,2.2098073968028227
https://omnivorescookbook.com/pork-zongzi/,-0.7867529878944988,-0.7412143206099272,0.44687249180726224,-0.400357235183811,-1.3126387188923332,1.7971997683338574,-0.5909681092664519,-0.6016038102737051,-0.5043104245690389,-0.45252812595650316
https://omnivorescookbook.com/chinese-turnip-cake/,0.5615535598195972,-0.5366406728138152,-0.9287767226460028,0.6242053806805306,-0.3792850700150006,-0.5564211712129683,-0.5909681092664519,-0.6016038102737051,-0.5043104245690389,-0.45252812595650316
https://omnivorescookbook.com/instant-pot-shredded-chicken-lettuce-wrap/,0.02339817543063111,-0.0999629014680415,0.1859175946376435,-1.3239578487518682,1.7585538013447848,-0.5564211712129683,-0.5909681092664519,-0.6016038102737051,-0.5043104245690389,-0.45252812595650316
https://omnivorescookbook.com/thai-fish-cakes/,0.1452663734520063,0.16883537665921416,-0.07474125106317882,-1.3312871969277655,-0.052260622307469286,-0.5564211712129683,-0.5909681092664519,-0.6016038102737051,1.9829056693693274,2.2098073968028227
https://omnivorescookbook.com/dan-dan-noodles/,-1.2105755168960826,-0.11923287092001172,0.680468051748301,-2.507144660210516,0.821704259447632,-0.5564211712129683,-0.5909681092664519,1.6622235147497502,-0.5043104245690389,2.2098073968028227
https://omnivorescookbook.com/recipes/sweet-and-sour-pork-ribs/,-0.15115174287417682,-0.3690300617091089,0.05252144596815669,-1.9552193756052607,-0.4775319543564888,-0.5564211712129683,1.6921386861996075,1.6622235147497502,-0.5043104245690389,2.2098073968028227
https://omnivorescookbook.com/gua-bao/,-1.3486546777082589,-0.315350035134263,0.7822880129115342,-1.6818715547491399,-0.8199831816598567,-0.5564211712129683,-0.5909681092664519,-0.6016038102737051,-0.5043104245690389,-0.45252812595650316
https://omnivorescookbook.com/celtuce-leaves-salad/,-0.0018154571673363853,-0.21232510973717872,-0.25479305593685486,-1.8456064472046283,-0.28325941998492316,-0.5564211712129683,-0.5909681092664519,-0.6016038102737051,-0.5043104245690389,-0.45252812595650316
https://omnivorescookbook.com/shu-mai/,-0.3668185742969907,-0.6329967022161798,-0.15580397235869017,0.9408291666400587,-0.18631723111276405,-0.5564211712129683,-0.5909681092664519,-0.6016038102737051,-0.5043104245690389,-0.45252812595650316
https://omnivorescookbook.com/chinese-egg-rolls/,-0.17644203655111557,-0.17510472937504248,-0.06826539617248391,-1.5521535950490752,1.625421176941626,-0.5564211712129683,-0.5909681092664519,-0.6016038102737051,-0.5043104245690389,-0.45252812595650316
https://omnivorescookbook.com/tofu-with-century-egg-salad/,0.31707302667230475,-0.854995749943961,-0.8525488761420454,-1.1823733845029616,-0.9470587296584275,-0.5564211712129683,-0.5909681092664519,-0.6016038102737051,-0.5043104245690389,-0.45252812595650316
https://omnivorescookbook.com/sichuan-spicy-wonton-red-oil/,-0.4139996741530956,-0.4205462266934226,0.4816644973716224,-0.18443694260636656,0.3485328063569964,-0.5564211712129683,-0.5909681092664519,-0.6016038102737051,1.9829056693693274,-0.45252812595650316
https://omnivorescookbook.com/chinese-deviled-eggs/,1.053426157237024,-0.020367708596746567,-1.5107420749320093,-0.7861483194271848,-0.0972658309144429,-0.5564211712129683,-0.5909681092664519,-0.6016038102737051,-0.5043104245690389,-0.45252812595650316
https://omnivorescookbook.com/sliced-tofu-salad/,-0.20665892392247923,-0.6678193372865183,-0.2705714418857701,-0.9684162151467169,0.9664774036858524,-0.5564211712129683,-0.5909681092664519,-0.6016038102737051,-0.5043104245690389,-0.45252812595650316
https://omnivorescookbook.com/chinese-pickled-cabbage/,0.6383812346946994,-0.128390532424557,-0.9636680302849899,-0.39875568084500584,0.6264998108488028,-0.5564211712129683,-0.5909681092664519,-0.6016038102737051,-0.5043104245690389,-0.45252812595650316
https://omnivorescookbook.com/spam-musubi/,0.0852696861199744,-0.3339348609484395,-0.6076882358054885,-0.3286130689454502,-0.8681914734289434,1.7971997683338574,-0.5909681092664519,-0.6016038102737051,-0.5043104245690389,-0.45252812595650316
https://omnivorescookbook.com/lumpia-shanghai/,-0.09213631958200125,-0.6035339871969457,-0.09383717155230666,-0.5141853724630023,1.4574428451417885,-0.5564211712129683,-0.5909681092664519,-0.6016038102737051,-0.5043104245690389,-0.45252812595650316
https://omnivorescookbook.com/beef-satay/,0.15140129264885793,-0.0585203970943616,-0.497698946044353,-2.068454879491045,0.6937417698838337,-0.5564211712129683,1.6921386861996075,-0.6016038102737051,-0.5043104245690389,-0.45252812595650316
https://omnivorescookbook.com/recipes/golden-needle-mushroom-salad/,-0.20031339378118987,-0.6938206155900035,-0.44906104734217905,-0.48122218781026926,-0.5532426063714275,-0.5564211712129683,-0.5909681092664519,-0.6016038102737051,-0.5043104245690389,-0.45252812595650316
https://omnivorescookbook.com/steamed-ribs-in-black-bean-sauce/,-0.5787916439966206,0.1869895676792172,0.01598450729999668,-0.6952804330794242,1.3994681861497682,-0.5564211712129683,-0.5909681092664519,1.6622235147497502,-0.5043104245690389,-0.45252812595650316
https://omnivorescookbook.com/shrimp-and-snow-peas/,-1.185238825574463,-0.840357599930915,0.3308639472573185,0.46832506778556393,0.3602901954075205,1.7971997683338574,-0.5909681092664519,-0.6016038102737051,-0.5043104245690389,-0.45252812595650316
https://omnivorescookbook.com/chicken-chow-fun/,-1.6745176590933666,-0.4110942303377199,1.5384799820622301,-0.966038902279579,0.24384648199721576,-0.5564211712129683,-0.5909681092664519,-0.6016038102737051,-0.5043104245690389,-0.45252812595650316
https://omnivorescookbook.com/vegetarian-mapo-tofu/,-0.3422052664169605,0.5432952352125686,0.23708123565204312,-0.9901437656611121,1.305408001931983,-0.5564211712129683,-0.5909681092664519,-0.6016038102737051,-0.5043104245690389,-0.45252812595650316
https://omnivorescookbook.com/singapore-noodles/,-1.4315590746378821,-0.37500311751485965,0.780011585500633,-0.021157412419940794,1.4995071417339716,1.7971997683338574,1.6921386861996075,1.6622235147497502,1.9829056693693274,2.2098073968028227
https://omnivorescookbook.com/recipes/authentic-chinese-steamed-fish/,-0.501027249516333,-0.5699934937156914,0.31981561534753394,-1.1313147017255505,-0.3037134685902776,-0.5564211712129683,1.6921386861996075,-0.6016038102737051,-0.5043104245690389,-0.45252812595650316
https://omnivorescookbook.com/thai-salmon-curry/,0.3509507871488245,0.6310877333807751,-0.11590670659945604,-0.27646582819346316,0.4656820636304235,-0.5564211712129683,-0.5909681092664519,1.6622235147497502,-0.5043104245690389,-0.45252812595650316
https://omnivorescookbook.com/garlic-shrimp-and-broccoli/,-1.3189166094379166,-0.3351248753095691,0.8196691585474681,-0.5220910435925415,1.3367338276762977,-0.5564211712129683,1.6921386861996075,-0.6016038102737051,-0.5043104245690389,-0.45252812595650316
https://omnivorescookbook.com/chicken-lo-mein/,-2.2082954267713353,-0.3101330339182825,2.2418917432364953,-0.23450409062355843,1.05015711911928,1.7971997683338574,1.6921386861996075,1.6622235147497502,-0.5043104245690389,-0.45252812595650316
https://omnivorescookbook.com/sesame-noodles/,-0.6444492676864866,-0.14683573855931473,0.316199478184335,-1.9490092916546697,0.17478508475371957,-0.5564211712129683,-0.5909681092664519,-0.6016038102737051,-0.5043104245690389,2.2098073968028227
https://omnivorescookbook.com/instant-pot-orange-chicken/,-1.0800093383608842,-0.327854590703664,1.0300107518599002,-1.4268750927942333,1.0759038262401601,-0.5564211712129683,1.6921386861996075,-0.6016038102737051,-0.5043104245690389,2.2098073968028227
https://omnivorescookbook.com/moo-shu-chicken/,-1.4565912594101775,-0.7169015565170532,0.8030781228681544,0.8673635322432429,-0.3451376988985169,-0.5564211712129683,-0.5909681092664519,-0.6016038102737051,-0.5043104245690389,-0.45252812595650316
https://omnivorescookbook.com/spam-ramen/,0.35351009178251674,-0.5248712863666514,-0.2417283801432553,-0.8058329005566892,-0.9536956536780404,1.7971997683338574,-0.5909681092664519,1.6622235147497502,1.9829056693693274,-0.45252812595650316
https://omnivorescookbook.com/chinese-mushroom-chicken/,-1.073178977036827,-0.18929290895852655,0.9753344601592263,-1.7099324582922946,0.5478054126119046,-0.5564211712129683,-0.5909681092664519,-0.6016038102737051,-0.5043104245690389,-0.45252812595650316
https://omnivorescookbook.com/recipes/mongolian-beef-fried-rice/,0.128023573625043,-0.14984044754785264,-0.42933680594994394,-0.45056343009059024,0.6280572190621007,-0.5564211712129683,-0.5909681092664519,-0.6016038102737051,-0.5043104245690389,-0.45252812595650316
https://omnivorescookbook.com/slow-cooker-spare-ribs-plum-glaze/,-0.37845711120203357,-0.1702555912726203,0.41587988311371615,-1.2081742230627222,0.2349317819523374,-0.5564211712129683,1.6921386861996075,1.6622235147497502,-0.5043104245690389,-0.45252812595650316
https://omnivorescookbook.com/black-pepper-chicken/,-1.7241834927664634,-0.1636511709821908,1.3692264032752364,-0.8363214247860857,1.5355095132475027,-0.5564211712129683,-0.5909681092664519,-0.6016038102737051,-0.5043104245690389,2.2098073968028227
https://omnivorescookbook.com/quick-dinner-tuna-pasta-with-arrabiata-sauce/,0.3997379116354025,0.3912965625915145,-1.1212157385578958,0.412964104615995,2.165043467573537,1.7971997683338574,-0.5909681092664519,-0.6016038102737051,1.9829056693693274,-0.45252812595650316
https://omnivorescookbook.com/general-tsos-chicken/,-1.5895948547507517,0.08263001316572896,1.4211087669916773,-1.5085061516612268,0.6839883266200858,-0.5564211712129683,-0.5909681092664519,-0.6016038102737051,-0.5043104245690389,2.2098073968028227
https://omnivorescookbook.com/5-ingredient-baked-chicken-thigh/,0.8718526844808431,-0.6860590440956297,-0.45898139008059186,-0.4864697159572222,0.9409804369728008,-0.5564211712129683,-0.5909681092664519,-0.6016038102737051,-0.5043104245690389,-0.45252812595650316
https://omnivorescookbook.com/crispy-sesame-chicken/,-1.0735917395125494,-0.5585545887590704,1.0369445418191945,-1.1036806921408104,0.8715376917309026,-0.5564211712129683,-0.5909681092664519,1.6622235147497502,-0.5043104245690389,2.2098073968028227
https://omnivorescookbook.com/asian-pineapple-glazed-ham/,0.03284814434226305,-0.23713940405973696,-0.47536423074483797,-1.1777333318702758,-0.06668292232978776,1.7971997683338574,-0.5909681092664519,-0.6016038102737051,1.9829056693693274,2.2098073968028227
https://omnivorescookbook.com/crispy-baked-chicken-leg/,0.39538295214897917,0.07287358310023195,-0.7158548644025998,0.848141792997464,0.853739737435834,-0.5564211712129683,1.6921386861996075,-0.6016038102737051,1.9829056693693274,-0.45252812595650316
https://omnivorescookbook.com/szechuan-beef-stir-fry/,-1.4060024142803724,-0.6632986042738162,1.2667487863496787,-1.2115996188106835,0.12691568612827916,-0.5564211712129683,-0.5909681092664519,-0.6016038102737051,1.9829056693693274,2.2098073968028227
https://omnivorescookbook.com/recipes/lanzhou-beef-noodles/,0.12463803592425153,0.5801217185978798,-0.4757055457609404,-0.42004955242834907,0.8673342806668503,-0.5564211712129683,1.6921386861996075,-0.6016038102737051,1.9829056693693274,-0.45252812595650316
https://omnivorescookbook.com/shrimp-laksa-curry-bowl/,-0.8953523359528505,0.32958650997946537,1.0571805919350397,-1.4811681233803153,2.450368373558482,-0.5564211712129683,-0.5909681092664519,1.6622235147497502,-0.5043104245690389,-0.45252812595650316
https://omnivorescookbook.com/recipes/chinese-spicy-roast-fish/,-0.01384353335072394,0.451911345897572,0.13123304768134772,-0.2903472466905393,2.4359468061702656,1.7971997683338574,1.6921386861996075,-0.6016038102737051,1.9829056693693274,2.2098073968028227
https://omnivorescookbook.com/recipes/curry-pork-and-green-beans-stir-fry/,-0.8066021728024715,-0.2518431187239658,0.19789315270875324,-1.548225444722906,-0.5599383770573143,-0.5564211712129683,-0.5909681092664519,-0.6016038102737051,1.9829056693693274,-0.45252812595650316
https://omnivorescookbook.com/hokkien-noodles/,-1.194221707811995,0.04608600647130758,1.3068250081804345,-1.7407256658560337,1.222186412030027,-0.5564211712129683,-0.5909681092664519,-0.6016038102737051,-0.5043104245690389,-0.45252812595650316
https://omnivorescookbook.com/century-egg-congee/,-0.055004763668954466,-0.4677451851541325,-0.23483408330315023,0.18376375465160547,-0.7028080997849241,-0.5564211712129683,-0.5909681092664519,-0.6016038102737051,1.9829056693693274,-0.45252812595650316
https://omnivorescookbook.com/beef-chow-mein/,-1.52574260236042,0.015072853065824086,1.377507909806638,-0.9195879363145041,2.064241014386905,-0.5564211712129683,1.6921386861996075,-0.6016038102737051,-0.5043104245690389,2.2098073968028227
https://omnivorescookbook.com/sichuan-dry-rub-roast-chicken-breast/,0.717040023144529,0.5468974967451001,-0.5591434073275326,-0.08975519840081547,1.1598493272865313,-0.5564211712129683,1.6921386861996075,-0.6016038102737051,-0.5043104245690389,-0.45252812595650316
https://omnivorescookbook.com/twice-cooked-pork/,-0.5110976857042132,0.14623337647123183,-0.03544792240428441,-1.8421905877450373,0.8962761477610641,-0.5564211712129683,-0.5909681092664519,1.6622235147497502,-0.5043104245690389,-0.45252812595650316
https://omnivorescookbook.com/kung-pao-chicken/,-1.4989578989696344,0.1056621865751782,1.3600247126109102,-1.8178058364718115,1.083113731977309,-0.5564211712129683,1.6921386861996075,1.6622235147497502,1.9829056693693274,2.2098073968028227
https://omnivorescookbook.com/chicken-adobo/,0.08398182099715264,0.3659620103459414,0.06548527420304984,-1.3400438007074171,1.3365610769230982,-0.5564211712129683,-0.5909681092664519,-0.6016038102737051,-0.5043104245690389,-0.45252812595650316
https://omnivorescookbook.com/chinese-brined-turkey/,-0.46617445717321027,-0.3082324169382905,0.08964898912519595,0.1430816659542635,1.7093101212256538,-0.5564211712129683,1.6921386861996075,-0.6016038102737051,-0.5043104245690389,-0.45252812595650316
https://omnivorescookbook.com/braised-daikon/,-0.29101601209929934,-0.5465666064608206,0.4215821633393302,-0.1836782138584315,-0.28275545931171453,-0.5564211712129683,1.6921386861996075,-0.6016038102737051,-0.5043104245690389,-0.45252812595650316
https://omnivorescookbook.com/recipes/yu-xiang-rou-si/,-0.7828344902657584,-0.28958087839864366,0.33252678887940174,0.25759001209171994,0.17994548400830584,-0.5564211712129683,-0.5909681092664519,-0.6016038102737051,-0.5043104245690389,-0.45252812595650316
https://omnivorescookbook.com/recipes/beef-chow-fun-with-chinese-broccoli/,-1.7035980205794725,-0.6132722733704603,0.9729155104836956,-1.4180357569247706,-0.46866387462453496,1.7971997683338574,1.6921386861996075,-0.6016038102737051,1.9829056693693274,-0.45252812595650316
https://omnivorescookbook.com/vegan-dan-dan-noodles/,-0.5511043609835693,-0.08559359282312763,0.17364442931246932,-1.7039911801947196,0.6282126262586047,-0.5564211712129683,-0.5909681092664519,1.6622235147497502,-0.5043104245690389,-0.45252812595650316
https://omnivorescookbook.com/asian-instant-pot-pulled-pork/,-1.1364486752221563,0.02531836651553571,0.5981873673616188,-0.40700150725831963,-0.4935991618022526,-0.5564211712129683,1.6921386861996075,1.6622235147497502,-0.5043104245690389,-0.45252812595650316
https://omnivorescookbook.com/sesame-beef-squash-noodle-bowl/,-0.8638952577419692,-0.44768291255351894,0.4184266602322023,-1.7607480228356303,1.1874351053466223,-0.5564211712129683,1.6921386861996075,1.6622235147497502,-0.5043104245690389,2.2098073968028227
https://omnivorescookbook.com/xo-noodles-with-shrimp/,-1.3549692280047063,-0.5443233577468257,0.3197976236453306,0.2909412074385453,0.5276303803815066,-0.5564211712129683,-0.5909681092664519,-0.6016038102737051,-0.5043104245690389,-0.45252812595650316
https://omnivorescookbook.com/moo-shu-pork/,-1.254945309206645,-0.9192247439236229,1.2535477741789076,0.34144794600269024,-0.1797272003823402,-0.5564211712129683,-0.5909681092664519,1.6622235147497502,-0.5043104245690389,-0.45252812595650316
https://omnivorescookbook.com/chinese-vegetable-stir-fry/,-1.007238377058363,-0.16250012603149513,0.5601698989010706,-0.7255535542252225,1.4855914218811255,-0.5564211712129683,-0.5909681092664519,-0.6016038102737051,-0.5043104245690389,-0.45252812595650316
https://omnivorescookbook.com/pork-and-pepper-stir-fry/,-1.6611781047444392,-0.2699415731508053,1.0829783547341687,-0.8391948537844365,0.6102022210465279,-0.5564211712129683,1.6921386861996075,-0.6016038102737051,-0.5043104245690389,-0.45252812595650316
https://omnivorescookbook.com/recipes/moms-best-braised-chicken-with-mushrooms/,-0.5442029471277421,-0.8614403864450071,-0.061134213001037906,-0.871993142617278,-1.3301521369450888,-0.5564211712129683,-0.5909681092664519,1.6622235147497502,-0.5043104245690389,-0.45252812595650316
https://omnivorescookbook.com/pineapple-chicken/,-0.8866856725887994,-0.6568754191242593,0.516056150123844,-0.9054935950565383,0.04927389406584765,-0.5564211712129683,1.6921386861996075,-0.6016038102737051,-0.5043104245690389,2.2098073968028227
https://omnivorescookbook.com/sichuan-crispy-beef/,0.4655779609831314,-0.06008829455175932,-0.6505961334044723,-0.030608567379004407,0.07994082951684203,-0.5564211712129683,1.6921386861996075,-0.6016038102737051,-0.5043104245690389,-0.45252812595650316
https://omnivorescookbook.com/easy-chicken-curry/,-0.17672456137515827,0.8988132778389331,1.2149063806834326,-0.7973929585864032,2.3955803322087084,-0.5564211712129683,1.6921386861996075,-0.6016038102737051,-0.5043104245690389,-0.45252812595650316
https://omnivorescookbook.com/chinese-instant-pot-pork-ribs/,0.6564453172499197,0.05930771888883593,-0.7418776418996976,-0.3518044966227973,0.516872202765005,-0.5564211712129683,1.6921386861996075,-0.6016038102737051,-0.5043104245690389,-0.45252812595650316
https://omnivorescookbook.com/hunan-chicken/,-1.4859887528153028,-0.1398719723024815,1.2975924942059935,0.03671920350454987,-0.20238802879415166,-0.5564211712129683,1.6921386861996075,-0.6016038102737051,-0.5043104245690389,-0.45252812595650316
https://omnivorescookbook.com/recipes/black-pepper-steak/,-1.5481584180949581,-0.3044333783088975,1.4359111970608334,-0.91064272650447,1.987067195378621,-0.5564211712129683,-0.5909681092664519,-0.6016038102737051,-0.5043104245690389,-0.45252812595650316
https://omnivorescookbook.com/ground-beef-stir-fry-with-celery/,-0.8197468912737227,-0.27780794728539515,-0.054121900268186,-1.6809726343436575,0.9204495457958729,-0.5564211712129683,1.6921386861996075,-0.6016038102737051,-0.5043104245690389,-0.45252812595650316
https://omnivorescookbook.com/air-fryer-tofu/,-1.117931354631046,-1.0554012213812514,0.9024177457168752,-0.9129925057561106,1.076769429352396,-0.5564211712129683,-0.5909681092664519,-0.6016038102737051,-0.5043104245690389,2.2098073968028227
https://omnivorescookbook.com/mongolian-beef/,-1.3462339340388634,-0.17047418225013805,1.2660657607486832,-1.2342222321449299,-0.17322400168077295,-0.5564211712129683,-0.5909681092664519,-0.6016038102737051,1.9829056693693274,2.2098073968028227
https://omnivorescookbook.com/moo-goo-gai-pan/,-1.1478396257839325,-0.25459995863881263,0.9525683842174794,-0.18246391307935245,0.592835450357136,-0.5564211712129683,-0.5909681092664519,-0.6016038102737051,-0.5043104245690389,-0.45252812595650316
https://omnivorescookbook.com/recipes/chinese-style-squid-stir-fry/,-0.4208443013608136,0.243746894925827,-0.08600449900638116,-1.272389795632038,0.5972817693212994,-0.5564211712129683,-0.5909681092664519,-0.6016038102737051,-0.5043104245690389,-0.45252812595650316
https://omnivorescookbook.com/teriyaki-chicken/,-0.8900416341036523,0.027532418653452122,0.8238620892367988,-1.6093634779235246,0.3928193433814493,-0.5564211712129683,-0.5909681092664519,-0.6016038102737051,-0.5043104245690389,-0.45252812595650316
https://omnivorescookbook.com/hong-shao-rou/,-0.5293433693032221,-0.5223470019154968,0.2088768936244686,-2.0620762065672844,-1.5285476945408536,-0.5564211712129683,1.6921386861996075,1.6622235147497502,1.9829056693693274,2.2098073968028227
https://omnivorescookbook.com/recipes/hand-pulled-noodles/,1.3739701839764789,-0.18490831328760954,-1.7233451031484321,0.7180807278573011,-0.7353974874117565,-0.5564211712129683,-0.5909681092664519,-0.6016038102737051,-0.5043104245690389,-0.45252812595650316
https://omnivorescookbook.com/asian-seafood-pizza/,0.7210000168157061,-0.1697220882773231,-1.2096826358120534,0.861446022545405,2.2955334026683527,-0.5564211712129683,-0.5909681092664519,-0.6016038102737051,-0.5043104245690389,-0.45252812595650316
https://omnivorescookbook.com/sweet-and-sour-chicken/,-1.2851650087536755,-0.02357983591050866,1.1085314479444357,-0.6810868631963977,0.9251449693112036,-0.5564211712129683,-0.5909681092664519,1.6622235147497502,-0.5043104245690389,2.2098073968028227
https://omnivorescookbook.com/authentic-mapo-tofu/,-0.9888275279071465,0.0016836610627243382,0.963061253463216,-0.7780036954647329,-0.5164619411724795,-0.5564211712129683,1.6921386861996075,1.6622235147497502,-0.5043104245690389,-0.45252812595650316
https://omnivorescookbook.com/mapo-eggplant/,-1.0238805483986306,-0.015247862795813265,1.1944811712628967,-1.761345541669869,0.4973107613687968,-0.5564211712129683,-0.5909681092664519,-0.6016038102737051,-0.5043104245690389,-0.45252812595650316
https://omnivorescookbook.com/vegetable-udon-stir-fry/,-1.1690196747295716,-0.5843169264187691,0.29277999737065413,-0.53917740974848,0.4376114001723231,1.7971997683338574,-0.5909681092664519,-0.6016038102737051,-0.5043104245690389,-0.45252812595650316
https://omnivorescookbook.com/recipes/thai-curry-chicken-fried-rice/,-0.350695633943283,-0.08172455162769664,0.0009207606978606128,-1.279181727044199,0.7487851359342619,1.7971997683338574,1.6921386861996075,-0.6016038102737051,-0.5043104245690389,-0.45252812595650316
https://omnivorescookbook.com/hoisin-tofu-tacos/,-0.10040422853266211,-0.09761693394983144,-0.2151625209634486,-0.2060328275894321,1.947296031920724,-0.5564211712129683,-0.5909681092664519,-0.6016038102737051,-0.5043104245690389,-0.45252812595650316
https://omnivorescookbook.com/korean-fire-chicken/,-0.16815110938421535,0.3059611331393265,0.3115853405086839,-0.4393052765670658,1.6714510121328174,-0.5564211712129683,1.6921386861996075,1.6622235147497502,-0.5043104245690389,2.2098073968028227
https://omnivorescookbook.com/kung-pao-tofu/,-0.8036214913422614,-0.32273254550463526,0.404579233604773,-1.8132798183344299,0.2540883075261279,-0.5564211712129683,-0.5909681092664519,-0.6016038102737051,-0.5043104245690389,2.2098073968028227
https://omnivorescookbook.com/chinese-roasted-turkey-breast/,-0.14987263597285774,-0.5266872543775439,0.8033112144340283,0.03431703174293329,2.287578625436346,-0.5564211712129683,1.6921386861996075,-0.6016038102737051,1.9829056693693274,2.2098073968028227
https://omnivorescookbook.com/instant-pot-pork-chops-black-bean-sauce/,0.08540467038403617,-0.4370087919641917,-0.7534632763071252,-0.9242879819254471,0.06214883334813602,-0.5564211712129683,1.6921386861996075,1.6622235147497502,-0.5043104245690389,2.2098073968028227
https://omnivorescookbook.com/asian-instant-pot-chicken-rice/,-0.4799797144174386,-0.0070826899836979795,0.8000156636320873,-0.6228836954450725,2.541521229270139,1.7971997683338574,1.6921386861996075,-0.6016038102737051,-0.5043104245690389,-0.45252812595650316
https://omnivorescookbook.com/tomato-egg-noodles/,-0.06494693888447595,0.06259364878014255,-0.4160748856264621,-1.4164347287294983,0.8487642447918613,1.7971997683338574,-0.5909681092664519,-0.6016038102737051,1.9829056693693274,2.2098073968028227
https://omnivorescookbook.com/sweet-and-sour-salmon/,0.4882550071436583,-0.5840367841566263,-0.5198195705033914,-1.6845106237365142,0.16274188014312385,-0.5564211712129683,-0.5909681092664519,-0.6016038102737051,-0.5043104245690389,2.2098073968028227
https://omnivorescookbook.com/crispy-chinese-honey-chicken/,-1.1276673716601608,-0.03935338076799172,1.1294982068832549,-0.8246188786561015,0.8491266417373937,-0.5564211712129683,1.6921386861996075,-0.6016038102737051,-0.5043104245690389,2.2098073968028227
https://omnivorescookbook.com/recipes/sichuan-spicy-shrimp-stir-fry/,-0.7083436651591994,-0.46671352594528187,-0.27136985429859967,-0.18827162359052493,-0.08565721086132846,-0.5564211712129683,-0.5909681092664519,-0.6016038102737051,-0.5043104245690389,2.2098073968028227
https://omnivorescookbook.com/recipes/moms-best-braised-duck-leg/,-0.6181438335821345,-0.7244611457375357,-0.36553618711872343,-1.0568485056356498,-1.0763421217635494,-0.5564211712129683,1.6921386861996075,-0.6016038102737051,-0.5043104245690389,-0.45252812595650316
https://omnivorescookbook.com/cumin-lamb-noodles/,-1.144466407746748,0.16986164431574238,0.8409398175310128,-1.7029568460232578,0.5048368309728685,1.7971997683338574,1.6921386861996075,1.6622235147497502,-0.5043104245690389,-0.45252812595650316
https://omnivorescookbook.com/pineapple-fried-rice/,-0.18708448258582272,0.2978313276997933,0.3773693729829928,-0.2019262551886356,0.701259228588583,1.7971997683338574,-0.5909681092664519,-0.6016038102737051,-0.5043104245690389,2.2098073968028227
https://omnivorescookbook.com/vegetarian-duck/,-1.0383563092547774,-1.31940689600845,0.22929443923902554,-0.26152764669779577,-2.246021672848402,-0.5564211712129683,-0.5909681092664519,-0.6016038102737051,-0.5043104245690389,2.2098073968028227
https://omnivorescookbook.com/broiled-fish-potato-peppers/,-0.19083718697916335,-0.3361109860857793,-0.04716272545130813,-0.40861291147310225,2.461765095298567,-0.5564211712129683,1.6921386861996075,1.6622235147497502,1.9829056693693274,-0.45252812595650316
https://omnivorescookbook.com/thai-sweet-chili-chicken/,-0.6324831591477083,0.0227876791851897,1.0994461728682337,-1.161876180116417,-0.20651062175832058,-0.5564211712129683,1.6921386861996075,-0.6016038102737051,1.9829056693693274,2.2098073968028227
https://omnivorescookbook.com/kung-pao-cauliflower/,-1.093576153373289,0.13966315294490905,0.6789382402356932,-1.836988173305668,1.1212694416579432,1.7971997683338574,-0.5909681092664519,-0.6016038102737051,-0.5043104245690389,2.2098073968028227
https://omnivorescookbook.com/three-cup-chicken/,-0.2819495968033041,-0.2371282189042097,0.14888353761780382,-1.6104549662796952,-0.08726281238014141,-0.5564211712129683,-0.5909681092664519,1.6622235147497502,-0.5043104245690389,-0.45252812595650316
https://omnivorescookbook.com/chinese-chicken-and-rice/,-0.8296504860569475,-0.21677908956212344,0.48754712619200424,0.4161136649021102,0.99741010383204,-0.5564211712129683,1.6921386861996075,-0.6016038102737051,-0.5043104245690389,-0.45252812595650316
https://omnivorescookbook.com/korean-instant-pot-short-ribs/,0.31559355209544465,-0.054514795332814184,-0.34533139605012125,-1.3254096548357492,1.0675474795352777,-0.5564211712129683,1.6921386861996075,-0.6016038102737051,-0.5043104245690389,2.2098073968028227
https://omnivorescookbook.com/instant-pot-butter-chicken/,0.5449921382193074,0.6567532111947831,-0.5898092251018252,-0.1969448758622441,1.7563600964104824,-0.5564211712129683,1.6921386861996075,-0.6016038102737051,-0.5043104245690389,-0.45252812595650316
https://omnivorescookbook.com/asian-turkey-meatballs/,-1.6412239855500772,-0.9094499340470736,1.2599488531577128,-0.7507024037532866,0.5080625211154556,-0.5564211712129683,1.6921386861996075,-0.6016038102737051,-0.5043104245690389,-0.45252812595650316
https://omnivorescookbook.com/lu-rou-fan/,-1.0957037865680508,-0.3699505581278717,0.33028177166021083,-1.1887750722232682,-0.6745088993851124,-0.5564211712129683,-0.5909681092664519,1.6622235147497502,-0.5043104245690389,-0.45252812595650316
https://omnivorescookbook.com/chicken-chop-suey/,-1.5130707933585827,-0.9740785649090121,0.8678648634710205,0.22974522379630893,1.0051438367351133,-0.5564211712129683,-0.5909681092664519,-0.6016038102737051,-0.5043104245690389,-0.45252812595650316
https://omnivorescookbook.com/shrimp-egg-foo-young/,-0.3906435672236084,-0.4383014640180195,-0.08033248916698049,0.3780751321191359,0.29607882629355725,-0.5564211712129683,-0.5909681092664519,-0.6016038102737051,-0.5043104245690389,-0.45252812595650316
https://omnivorescookbook.com/ginger-chicken/,-1.1306994252766194,-0.3335300392704348,1.050903912454571,-0.5030766038716927,-0.33795962599305096,-0.5564211712129683,1.6921386861996075,-0.6016038102737051,-0.5043104245690389,-0.45252812595650316
https://omnivorescookbook.com/chinese-beef-and-broccoli/,-1.225121324601038,-0.4370550183027827,0.6726594751798921,-1.5895408012358452,0.643779174374563,-0.5564211712129683,1.6921386861996075,1.6622235147497502,-0.5043104245690389,-0.45252812595650316
https://omnivorescookbook.com/home-style-tofu/,-1.2861278843799429,-0.470256085039415,1.1204939609126323,-0.8307027054367538,0.03353789120103083,-0.5564211712129683,-0.5909681092664519,-0.6016038102737051,-0.5043104245690389,-0.45252812595650316
https://omnivorescookbook.com/vegan-pad-thai/,-0.12395529722055919,0.38681902363958964,0.4736223570301763,-1.8724415361757523,1.24289878754481,1.7971997683338574,-0.5909681092664519,-0.6016038102737051,-0.5043104245690389,2.2098073968028227
https://omnivorescookbook.com/vegetable-lo-mein/,-0.6121306104509668,-0.6867646681467591,-0.013643844078143102,-1.6879550769432958,-0.35872096571469436,1.7971997683338574,-0.5909681092664519,-0.6016038102737051,-0.5043104245690389,2.2098073968028227
https://omnivorescookbook.com/instant-pot-whole-chicken/,0.4756047534827141,-0.10157964775470278,-0.48340263229308195,-0.21777413809833884,0.0011214088185148297,-0.5564211712129683,1.6921386861996075,-0.6016038102737051,-0.5043104245690389,-0.45252812595650316
https://omnivorescookbook.com/steamed-salmon-black-bean-sauce/,-0.12156426860749371,-0.0785119318613589,-0.6075016689984768,-1.2162363097768467,0.9494008709152723,-0.5564211712129683,1.6921386861996075,-0.6016038102737051,-0.5043104245690389,2.2098073968028227
https://omnivorescookbook.com/ginger-beef/,-1.0605902324202667,0.12674327263200624,0.7870741109527574,-1.1581461819033083,1.3853045928802938,-0.5564211712129683,1.6921386861996075,-0.6016038102737051,-0.5043104245690389,2.2098073968028227
https://omnivorescookbook.com/peking-chicken/,0.0940778415338658,-0.5194244395414611,-0.5134018654695456,-1.0606969204527703,-1.2543129513965365,-0.5564211712129683,1.6921386861996075,1.6622235147497502,-0.5043104245690389,-0.45252812595650316
https://omnivorescookbook.com/shrimp-fried-rice/,-0.047587396426122947,-1.1271647433619836,-0.11530937856710793,-0.1734644959193938,0.6423252978124715,1.7971997683338574,1.6921386861996075,-0.6016038102737051,1.9829056693693274,-0.45252812595650316
https://omnivorescookbook.com/fried-crispy-pork-chop/,-0.15990768762491359,-0.36678914779542543,-0.21239391045154746,-0.5308297425350517,-0.3210355490452885,-0.5564211712129683,1.6921386861996075,-0.6016038102737051,-0.5043104245690389,-0.45252812595650316
https://omnivorescookbook.com/cumin-lamb/,-1.0439297665790945,0.01494551535181534,0.8812353223800997,-0.7952198922161988,1.1683037848457791,-0.5564211712129683,1.6921386861996075,-0.6016038102737051,-0.5043104245690389,-0.45252812595650316
https://omnivorescookbook.com/beef-randang/,0.42480129567920943,1.2863853955886901,0.2703213682255911,-0.661588176459793,0.563849177343444,-0.5564211712129683,1.6921386861996075,-0.6016038102737051,-0.5043104245690389,-0.45252812595650316
https://omnivorescookbook.com/cashew-chicken/,-2.060796480758818,-0.21914778445655841,1.9445970720101782,-0.21360299465707283,0.9544296814197871,-0.5564211712129683,1.6921386861996075,-0.6016038102737051,-0.5043104245690389,-0.45252812595650316
https://omnivorescookbook.com/sweet-and-sour-tofu/,-0.7298365809945535,0.17538802057848268,0.48166429136644145,-1.388162798659011,0.43246034433211805,-0.5564211712129683,-0.5909681092664519,-0.6016038102737051,-0.5043104245690389,-0.45252812595650316
https://omnivorescookbook.com/honey-garlic-shrimp/,-0.24195319078946836,-0.3316117449791798,-0.04386105203135398,-1.5075356717996715,0.7072774680627562,-0.5564211712129683,1.6921386861996075,-0.6016038102737051,-0.5043104245690389,2.2098073968028227
https://omnivorescookbook.com/shrimp-salad-bowl/,-0.04049066272468158,-0.35750983865702735,-0.09411649998984878,-0.1769350815482387,1.562848030971638,1.7971997683338574,1.6921386861996075,1.6622235147497502,-0.5043104245690389,2.2098073968028227
https://omnivorescookbook.com/cheesy-kimchi-pancake/,-0.03413223151354805,-0.2885532729488001,-0.6468745305804134,1.657858804324791,-0.25796309417827024,-0.5564211712129683,-0.5909681092664519,-0.6016038102737051,-0.5043104245690389,-0.45252812595650316
https://omnivorescookbook.com/soy-sauce-chicken/,-0.5522164834924107,-0.29992433774925287,0.34395317902927564,-1.6807396146120834,-0.5199538463966323,-0.5564211712129683,1.6921386861996075,-0.6016038102737051,-0.5043104245690389,-0.45252812595650316
https://omnivorescookbook.com/crispy-chinese-duck-breast/,0.028637424212750066,0.1948274782762879,-0.26301695854735313,-0.564867235940945,0.39854068904413104,-0.5564211712129683,-0.5909681092664519,-0.6016038102737051,-0.5043104245690389,-0.45252812595650316
https://omnivorescookbook.com/thai-basil-chicken/,-0.331807099219784,-0.03386951300908003,-0.1616080779352383,-1.2575856089075406,0.5374505704457628,-0.5564211712129683,-0.5909681092664519,-0.6016038102737051,-0.5043104245690389,2.2098073968028227
https://omnivorescookbook.com/chicken-and-rice-casserole/,0.3201950348590901,-0.07046267580934581,-0.0680399709354431,-1.379753640321459,1.2948234137837917,1.7971997683338574,1.6921386861996075,-0.6016038102737051,1.9829056693693274,-0.45252812595650316
https://omnivorescookbook.com/recipes/buddhas-delight/,-0.6559093492365277,-0.840913162578974,0.5351398667919984,-0.511060337529924,-1.4719225986867257,-0.5564211712129683,-0.5909681092664519,-0.6016038102737051,1.9829056693693274,2.2098073968028227
https://omnivorescookbook.com/pineapple-marinated-flank-steak/,0.25373490246755626,-0.148435693525262,-0.16013543900524901,-1.322017351920559,0.6451187728303119,-0.5564211712129683,1.6921386861996075,-0.6016038102737051,-0.5043104245690389,2.2098073968028227
https://omnivorescookbook.com/roast-chicken-and-vegetables/,0.848446589602719,0.3151245017647191,-1.155732621571727,-0.5459661581243063,0.8760802070256756,-0.5564211712129683,1.6921386861996075,-0.6016038102737051,-0.5043104245690389,-0.45252812595650316
https://omnivorescookbook.com/pork-chop-bun/,-0.5508242731418991,-0.407525970220082,-0.036266244683705165,-0.35196240809360707,1.3083457279770736,1.7971997683338574,-0.5909681092664519,1.6622235147497502,-0.5043104245690389,-0.45252812595650316
https://omnivorescookbook.com/slow-roast-goose-black-currant-sauce/,0.8090345857308838,-0.011435869145838452,-1.3378588942705698,0.27602154550644803,-0.16924556054245257,-0.5564211712129683,-0.5909681092664519,-0.6016038102737051,-0.5043104245690389,-0.45252812595650316
https://omnivorescookbook.com/orange-beef/,-1.0175869775399946,-0.4641278637563497,0.3443202764021877,-1.4250689230224598,0.4602306192215906,-0.5564211712129683,1.6921386861996075,-0.6016038102737051,-0.5043104245690389,-0.45252812595650316
https://omnivorescookbook.com/sweet-and-sour-pork/,-0.5836938513973332,-0.010365632468413412,-0.27984837979717664,-0.7137478549919892,0.9739574805558646,-0.5564211712129683,1.6921386861996075,1.6622235147497502,-0.5043104245690389,2.2098073968028227
https://omnivorescookbook.com/instant-pot-braised-beef/,-0.6371819912138142,-0.23720763965993685,0.058065575981191116,-2.0189098601342357,-0.19495950819694463,-0.5564211712129683,1.6921386861996075,-0.6016038102737051,-0.5043104245690389,-0.45252812595650316
https://omnivorescookbook.com/string-bean-chicken/,-0.9816685064987658,-0.02917844110548571,0.9286212575487216,-1.9229780526542632,0.9097916952425323,-0.5564211712129683,-0.5909681092664519,-0.6016038102737051,-0.5043104245690389,2.2098073968028227
https://omnivorescookbook.com/hot-dry-noodles/,-1.600809109323364,-0.036554970014635334,1.4118025504865312,-0.482756266893866,-0.9324314155256084,1.7971997683338574,-0.5909681092664519,-0.6016038102737051,-0.5043104245690389,-0.45252812595650316
https://omnivorescookbook.com/da-pan-ji/,-0.28789365712739184,0.8765640741723097,0.5847146312185907,-1.1243848856143785,0.5607910969595429,-0.5564211712129683,-0.5909681092664519,-0.6016038102737051,-0.5043104245690389,-0.45252812595650316
https://omnivorescookbook.com/instant-pot-bolognese/,-0.4014391377302248,0.10699757031903306,-0.10753068047361378,-0.3245166601677615,2.4445629731177068,-0.5564211712129683,-0.5909681092664519,-0.6016038102737051,-0.5043104245690389,2.2098073968028227
https://omnivorescookbook.com/salmon-noodle-bowl/,-0.29102843411585516,-0.21673521621020764,-0.05206681599687468,-1.5263688246308402,0.5132171000044736,1.7971997683338574,1.6921386861996075,1.6622235147497502,1.9829056693693274,2.2098073968028227
https://omnivorescookbook.com/cantonese-ground-beef-rice-eggs/,-1.1889964228120156,-0.6782336902433513,0.8623629555539014,-0.06952836453572969,-0.3858192816247681,-0.5564211712129683,1.6921386861996075,-0.6016038102737051,1.9829056693693274,-0.45252812595650316
https://omnivorescookbook.com/recipes/spicy-beef-stir-fry-with-pepper/,-1.2679130906457041,-0.3383844204700933,0.6030961654205484,-0.18262893588043103,-0.3418932660538017,-0.5564211712129683,-0.5909681092664519,-0.6016038102737051,-0.5043104245690389,-0.45252812595650316
https://omnivorescookbook.com/grilled-five-spice-chicken/,0.9842926513636587,0.4183354733979324,-1.0396066431952744,0.18224030190013474,0.7785272238817599,-0.5564211712129683,1.6921386861996075,-0.6016038102737051,1.9829056693693274,2.2098073968028227
https://omnivorescookbook.com/easy-fried-udon/,0.002683097540610813,-0.8557576845017157,-0.18012020754413657,-1.587573183966495,-0.42150041067454225,1.7971997683338574,1.6921386861996075,-0.6016038102737051,-0.5043104245690389,-0.45252812595650316
https://omnivorescookbook.com/easy-egg-foo-young/,-1.1360209565198558,-0.6729566484782596,1.0448498586961839,-0.2203739451282009,1.5751406559271017,-0.5564211712129683,-0.5909681092664519,-0.6016038102737051,-0.5043104245690389,-0.45252812595650316
https://omnivorescookbook.com/sous-vide-salmon-asian-sauce/,0.36601715548715846,-0.28798660703677964,-1.0776723255860834,-0.6553267557290939,-0.5799556418685476,-0.5564211712129683,-0.5909681092664519,-0.6016038102737051,-0.5043104245690389,-0.45252812595650316
https://omnivorescookbook.com/recipes/beef-burger-and-kimchi-pizza/,0.36316634321187985,-0.286534234068404,-1.1763396336015368,-0.1646974323291844,-0.1375454472814387,1.7971997683338574,-0.5909681092664519,-0.6016038102737051,-0.5043104245690389,-0.45252812595650316
https://omnivorescookbook.com/chinese-beef-meat-pie/,-0.741018821201719,-1.006335497115073,0.21891679340014156,0.7415003025560997,-0.7269381366517672,-0.5564211712129683,-0.5909681092664519,-0.6016038102737051,-0.5043104245690389,-0.45252812595650316
https://omnivorescookbook.com/honey-garlic-pork-chops/,-1.0796114900364442,-0.8123199487276297,0.4356722779079805,0.9311703570810747,1.0102593156553596,-0.5564211712129683,-0.5909681092664519,1.6622235147497502,-0.5043104245690389,2.2098073968028227
https://omnivorescookbook.com/salmon-poke-bowl/,-0.1770928462777456,-0.4463003884824761,-0.13107823257065207,-0.8273566125613305,0.4517444545748988,1.7971997683338574,1.6921386861996075,-0.6016038102737051,1.9829056693693274,-0.45252812595650316
https://omnivorescookbook.com/recipes/chinese-ground-chicken-bowl/,-0.42425025623788865,-0.24478009154262073,-0.19905089810902105,-0.4167278975190638,-0.22351044027438707,1.7971997683338574,-0.5909681092664519,-0.6016038102737051,-0.5043104245690389,-0.45252812595650316
https://omnivorescookbook.com/moms-best-braised-pork-spare-ribs/,-0.9266533765128505,-0.4091445037664911,0.2514349246443292,-1.2900132597497358,-0.5622003644804489,-0.5564211712129683,1.6921386861996075,1.6622235147497502,-0.5043104245690389,-0.45252812595650316
https://omnivorescookbook.com/shrimp-chow-mein/,-1.3056937915329756,-0.6778872834099683,0.935183859689507,0.03922370757913792,-0.20196698737790764,1.7971997683338574,1.6921386861996075,-0.6016038102737051,-0.5043104245690389,-0.45252812595650316
https://omnivorescookbook.com/sichuan-eggplant/,-1.5359777747125987,-0.25867835590570715,1.2321684772121444,-1.6711380930276107,0.13023465965859995,-0.5564211712129683,-0.5909681092664519,1.6622235147497502,-0.5043104245690389,2.2098073968028227
