url,0,1,2,3,4,high_carb,high_protein,high_fat,high_sodium,high_sugar
https://glebekitchen.com/miso-chicken-with-maple-and-ginger/,0.038613253803286424,0.00973481537331467,0.003927521891062491,-0.030398758648947036,-0.026938997872001335,0.0,1.0,0.0,0.0,0.0
https://glebekitchen.com/tonkotsu-ramen-home/,0.06168866274793095,0.04020037433262344,0.055277290844171094,-0.006116781906981036,-0.011609236517969678,1.0,1.0,1.0,1.0,1.0
https://glebekitchen.com/garlic-ginger-grilled-chicken/,-0.027353299732458067,0.0025054685564813986,-0.011160123280277682,0.0006383490124865588,-0.013289222129558954,0.0,1.0,1.0,1.0,0.0
https://glebekitchen.com/tonkotsu-ramen-broth-home/,0.05413850108963612,0.012144050844944073,0.08357639446560033,0.07436581410064064,0.027419552213667247,0.0,0.2590163934426229,0.2612982744453574,0.0,0.17267393126571667
https://glebekitchen.com/japanese-chicken-curry-curry-rice/,0.011672590037894741,0.006822664482068442,-0.04874916094828144,0.0022828688490016884,-0.025028245685789312,0.0,0.0,0.0,1.0,0.0
https://glebekitchen.com/chicken-karaage-japanese-fried-chicken/,0.022760171936454826,0.0009025061722469574,0.027755679429478868,0.003466975652191377,0.01167118517009711,0.0,1.0,1.0,1.0,0.0
https://glebekitchen.com/curry-chicken-ramen/,0.023912035027948718,0.022465816264883944,0.03260518794872775,-0.00519920913077903,-0.0018905974997809334,1.0,1.0,1.0,0.0,0.0
https://glebekitchen.com/sous-vide-steak-tataki-style/,0.02155258802503238,-0.004305666214874172,-0.010648777130041335,0.007507203675983178,-0.0198437048886303,0.0,0.0,0.0,0.0,0.0
https://glebekitchen.com/momofuku-pork-belly/,-0.04797925537706592,0.00852311533829428,0.02730678037173734,0.021137397361141057,0.019890203847952228,0.0,0.0,1.0,1.0,0.0
https://glebekitchen.com/gyudon-japanese-beef-bowl/,0.08026578243628014,0.06931457825419496,0.021262051256380112,-0.0618300024088788,-0.0233085902866558,0.0,1.0,0.0,1.0,1.0
https://glebekitchen.com/japadog-style-terimayo-hot-dog/,-0.024718599417121553,-0.007313920673343112,0.013307497942740243,-0.019387408525370083,-0.009547484946448921,1.0,0.0,1.0,1.0,1.0
https://glebekitchen.com/japanese-miso-soup/,0.11043047421522931,0.11325759022940764,0.026803807041159193,-0.05895988773927935,-0.042694301340952194,0.0,0.0,0.0,1.0,0.0
https://glebekitchen.com/japanese-chicken-yakitori/,-0.04726997261951354,0.012187355052367578,0.012312547903176672,-0.015008730361557273,-0.001299350684045665,0.0,0.0,0.0,0.0,0.0
https://glebekitchen.com/miso-ramen-with-chashu-pork/,0.06066962319157049,0.037673579685754535,0.057714501335721945,-0.003446482543160302,-0.007861399270059247,1.0,1.0,1.0,1.0,1.0
https://glebekitchen.com/30-minute-curry-ramen/,0.04118915780360861,0.025660628583331388,0.04330249229371641,-0.009863620727603625,-0.007187609562260609,0.0,1.0,0.0,1.0,0.0
https://glebekitchen.com/japanese-gyoza/,0.023146727922971653,0.049000396400225785,0.013082074457675202,-0.0036928566856285565,0.0158099340706318,0.0,0.0,0.0,0.0,0.17267393126571667
https://glebekitchen.com/vietnamese-chicken-curry-ca-ri-ga/,-0.012104898991047856,0.005248300473942879,-0.011605128232795352,0.0021863922181338652,-0.0007133209006121839,1.0,1.0,1.0,1.0,0.0
https://glebekitchen.com/asian-grilled-chicken-wings/,0.07590383892092549,0.03682328674666665,-0.04943847361918827,0.032248031853454664,-0.02733010980262972,0.2364975450081833,0.0,0.0,1.0,0.17267393126571667
https://glebekitchen.com/carpaccio-asian-style/,-0.02118007158338141,0.0029322416012794988,-0.028958617615984873,0.0143812926552472,0.007401156456336446,0.0,0.0,0.0,0.0,0.17267393126571667
https://glebekitchen.com/vietnamese-grilled-chicken-with-ginger-soy-noodle-salad/,0.033003809578030036,0.018102988515340545,-0.0465219240521137,0.013403303411313728,-0.0055994121304473905,1.0,1.0,1.0,1.0,1.0
https://glebekitchen.com/vietnamese-lemongrass-chicken-noodle-bowl/,0.05501241383213767,0.02017117583474212,-0.04340689860586406,0.007624240509935606,-0.002556821465364285,1.0,0.0,0.0,1.0,1.0
https://glebekitchen.com/vietnamese-spring-rolls-with-peanut-sauce/,0.04769783600959583,-0.007104828180747114,-0.001783278544151181,-0.005050841023135842,-0.014054904339558968,1.0,0.0,0.0,0.0,0.0
https://glebekitchen.com/nuoc-cham-vietnamese-dipping-sauce/,0.017834469181436247,-0.016537581836770354,-0.038837885847179385,0.03121032431217579,-0.006699737716464844,1.0,0.0,0.0,1.0,1.0
https://glebekitchen.com/salmon-with-rice-noodles/,-0.01569766572853342,-0.011650918474982461,-0.008910886803304565,0.01384207422788861,-0.01268384651443669,0.0,1.0,0.0,0.0,0.0
https://glebekitchen.com/vietnamese-noodle-salad/,0.03793587819819081,0.0228060880447879,-0.031148492830611246,0.009493821722546753,-0.025157011148627808,1.0,1.0,1.0,1.0,1.0
https://glebekitchen.com/vietnamese-sate-sauce/,-0.03234340876247307,0.010263100509784266,-0.009263458232719877,0.007057770355457405,0.0005253237354698392,1.0,0.0,1.0,1.0,1.0
https://glebekitchen.com/authentic-pho-ga-vietnamese-chicken-noodle-soup/,0.0018861207017936608,0.014806909008491314,0.014396916332828141,-0.0014843314674421444,0.01485178806545817,1.0,1.0,1.0,1.0,0.0
https://glebekitchen.com/bun-cha-vietnamese-grilled-pork-with-rice-noodles/,0.08170053604772459,0.02221397230990654,-0.0570184073267928,0.009913285739519924,-0.018000123645619568,0.0,1.0,1.0,1.0,1.0
https://glebekitchen.com/vietnamese-ginger-beef-stir-fry/,-0.04741544120981475,0.00433743012106747,-0.0002878316086456098,0.005249185102922772,0.009388832984341991,0.0,1.0,1.0,1.0,0.0
https://glebekitchen.com/beef-pho-easy-vietnamese-pho-bo/,0.030864603187536324,0.008506493155648436,-0.014874116024396289,0.0006566116637542714,0.013623012186166251,1.0,1.0,1.0,1.0,1.0
https://glebekitchen.com/vietnamese-banh-mi-gochujang-mayo/,-0.005886166832087272,0.022815279738407458,0.005298819767322748,0.012256820685009611,0.020492630742032735,0.2364975450081833,0.0,1.0,0.0,0.17267393126571667
https://glebekitchen.com/bo-kho-vietnamese-beef-stew-with-egg-noodles/,0.022261735740221025,0.01264979140186133,-0.016334741297218326,0.0229358915063269,0.006693517703565232,1.0,1.0,1.0,1.0,0.0
https://glebekitchen.com/vietnamese-beef-noodle-salad/,0.06034561996603197,0.017594955381865122,-0.047181721165960616,0.007733523664930136,-0.012101673437409435,1.0,1.0,0.0,1.0,1.0
https://glebekitchen.com/bun-thit-nuong-vietnamese-grilled-pork-with-rice-noodles/,-0.004587095898521857,0.0025233468070837185,-0.01231588860097862,0.013451639415369665,0.0014276697462410298,1.0,0.0,0.0,1.0,0.0
https://glebekitchen.com/spicy-beef-noodle-soup-vietnamese-style/,0.055595778449243835,0.016951717779483216,-0.014386137955349548,0.02573308675916318,0.015956550684506857,1.0,1.0,0.0,1.0,0.0
https://glebekitchen.com/shaking-beef-vietnamese-bo-luc-lac/,0.0002750387940846519,0.008616757899952936,0.003228726067004461,0.012541150965086572,0.006639246158637096,0.0,1.0,0.0,1.0,1.0
https://glebekitchen.com/vindaloo-paste/,-0.04426465552222834,0.002088656708430443,-0.027417094574518696,0.00760243323402232,-0.009567799172609644,0.0,0.0,1.0,0.0,1.0
https://glebekitchen.com/beef-rogan-josh/,0.011253788899121347,-0.013171281238682464,-0.05855641392950261,0.02118196081731195,-0.01470867254282553,0.0,1.0,1.0,0.0,0.0
https://glebekitchen.com/achari-chicken-curry-indian-hotel-style/,0.003927133262785066,-0.0022944338600546436,-0.06134204726027542,0.011867273205413486,-0.009346202358200925,0.0,1.0,1.0,1.0,0.0
https://glebekitchen.com/indian-restaurant-hariyali-chicken-curry/,-0.00920894260014596,0.0017754111154498072,-0.05251328013672571,0.0136009135252149,-0.008207362088182136,0.0,1.0,1.0,1.0,0.0
https://glebekitchen.com/ceylon-chicken-curry-indian-hotel-style/,0.013083609915271327,-0.018644535827813564,-0.05234385258998384,0.004471570164698892,-0.008417691997221645,0.0,1.0,1.0,1.0,1.0
https://glebekitchen.com/lemon-coriander-chicken-curry/,0.008439316975619051,-0.01002612429609844,-0.04888903695987488,0.021244417030604514,-0.018976721265415,0.0,0.0,1.0,0.0,0.0
https://glebekitchen.com/lamb-vindaloo-indian-restaurant-style/,0.009618494030084244,0.001804641016747224,-0.05393879379075164,0.015532715708083109,-0.010974192043977026,0.0,1.0,1.0,0.0,0.0
https://glebekitchen.com/kari-ayam-malaysian-curry-chicken/,0.026310901307174613,-0.014102623614567981,-0.030049249809610896,0.007633759883715206,0.004910323299539718,0.2364975450081833,0.2590163934426229,0.2612982744453574,0.1990008326394671,0.17267393126571667
https://glebekitchen.com/indian-spiced-chicken-wings-with-tamarind-dipping-sauce/,0.007987190280509216,-0.0116577838004941,-0.053843814123946954,0.013639173370165947,-0.01721013111180581,0.0,0.0,0.0,0.0,1.0
https://glebekitchen.com/gobi-manchurian-indian-cauliflower-wings/,0.009829913045621088,-0.011891784814689442,-0.027549683306681196,0.010535342932394812,0.01617181673009695,0.0,0.0,0.0,1.0,0.0
https://glebekitchen.com/tandoori-marinade/,0.008256470225817724,-0.005882754429883316,-0.0724038994734374,0.008689833327749466,-0.023100455391376267,0.0,0.0,1.0,1.0,0.0
https://glebekitchen.com/chicken-vindaloo-restaurant-style/,0.012364806660389136,-0.0020356356246585923,-0.07034235681790246,0.0017516577271414983,-0.008020026225292475,0.0,0.0,1.0,0.0,0.0
https://glebekitchen.com/chicken-tikka/,0.011273669037290192,-0.00602122699790687,-0.06452795707810666,0.009255984420538843,-0.02287138068974859,0.0,0.0,0.0,0.0,0.17267393126571667
https://glebekitchen.com/garam-masala-indias-most-famous-spice-mix/,0.08009057548758934,-0.03677971322473534,-0.11251663040527661,0.03206932676416825,-0.03433613835929885,0.0,0.0,0.0,0.0,0.17267393126571667
https://glebekitchen.com/indian-restaurant-curry-base/,-0.033283162085287483,-0.0017960794297994073,-0.03966212735845227,0.0042853409632979565,-0.0165718235954677,0.0,0.0,0.0,0.0,0.0
https://glebekitchen.com/nearly-restaurant-style-chicken-saag-curry/,0.01780630920379641,0.0023501668724355326,-0.07079610786927523,0.009195982419295954,-0.026364003226736377,0.0,1.0,1.0,0.0,0.0
https://glebekitchen.com/nihari-gosht-indian-beef-stew/,0.042381541738320504,-0.025794267270527884,-0.05953574196793662,0.016081794120744997,-0.010650696697079205,0.0,1.0,1.0,0.0,0.0
https://glebekitchen.com/palak-paneer-indian-restaurant-style-spinach-curry/,0.03235268526444159,0.004692186965634657,-0.07609033512327201,0.01582106448000396,-0.022011365459865255,0.0,0.0,1.0,0.0,0.0
https://glebekitchen.com/tandoori-chicken/,0.015215111848084651,-0.009377309544413974,-0.07517209657874653,0.008190152552972925,-0.027725558339016323,0.0,1.0,1.0,1.0,0.17267393126571667
https://glebekitchen.com/bagara-baingan-indian-hotel-style-eggplant-curry/,0.018181658079999198,-0.0155679561870186,-0.06369302375016662,0.00011359151679813955,-0.01706248305986728,1.0,0.0,1.0,1.0,1.0
https://glebekitchen.com/sambar-south-indian-lentil-and-vegetable-stew/,0.025454742879730718,-0.004785218243714958,-0.0650263626134932,0.02208417376603869,0.014020116971376183,1.0,0.0,0.0,0.0,1.0
https://glebekitchen.com/indian-restaurant-spice-mix/,0.061068088386718115,0.0028276756154823664,-0.11527816617287964,0.013873388426901213,-0.05246595504173435,1.0,0.0,0.0,0.0,0.0
https://glebekitchen.com/bombay-potatoes-restaurant-style-bombay-aloo/,-0.00021828065481820173,-0.004369200952408183,-0.05615400766796299,0.00987429312189011,-0.011429201306207193,1.0,0.0,0.0,0.0,0.0
https://glebekitchen.com/hariyali-chicken-curry-indian-hotel-style/,-0.0016283670240296124,-0.006394457121355407,-0.060692805543346086,0.010386055608044824,-0.015007057546526056,0.0,1.0,1.0,1.0,0.0
https://glebekitchen.com/lamb-keema-papadum/,0.03067292941873805,-0.00749956809925936,-0.06043151221300854,0.02629101280393142,-0.015566016908394278,0.0,0.0,0.0,0.0,0.0
https://glebekitchen.com/restaurant-style-chicken-tikka-masala/,0.012431645277433592,-0.01907163090182774,-0.014916515245533094,0.0024120073117274623,-0.013679457401948359,0.0,0.0,1.0,1.0,1.0
https://glebekitchen.com/dal-palak-indian-spinach-and-lentil-curry/,6.8467981289964e-05,-0.0017805872706113516,-0.05699610548907581,0.01507531379996638,-0.011302439259392134,0.0,0.0,0.0,0.0,0.0
https://glebekitchen.com/mulligatawny-soup/,-0.03171846305355868,0.0017438175080018512,-0.020291848075213493,0.012300155675081028,-0.0034234498171364933,0.0,1.0,0.0,0.0,0.0
https://glebekitchen.com/indian-restaurant-chicken-jalfrezi/,0.014888336208375671,-0.0016067737490782935,-0.05366850353008896,0.026078891820466823,-0.00475392815893587,0.0,1.0,1.0,1.0,0.0
https://glebekitchen.com/lamb-or-beef-keema/,0.022503745591694553,-0.010147416689928562,-0.05815913427689009,0.022925485389449954,-0.005175360139270064,0.0,1.0,1.0,0.0,0.17267393126571667
https://glebekitchen.com/indian-restaurant-lamb-curry/,0.02362619693739706,-0.00799204613932432,-0.05677936125484743,0.026845190975219643,-0.007758045553255567,0.0,0.0,1.0,0.0,0.0
https://glebekitchen.com/naga-chicken-tikka-curry-indian-hotel-style/,0.00452287080148117,-0.012333947889791698,-0.0421924568917863,0.005145641181113362,-0.008127223473783815,0.0,1.0,1.0,1.0,0.0
https://glebekitchen.com/restaurant-style-pathia-curry/,0.01439705135055016,-0.0036027552785752957,-0.0571927082098762,0.01228386237881243,-0.006847266235885901,0.0,1.0,1.0,1.0,0.0
https://glebekitchen.com/gunpowder-potatoes/,0.028196119828140624,-0.015459915074983534,-0.06964207671107295,0.02553139284707666,-0.012629132864516664,1.0,0.0,1.0,1.0,0.0
https://glebekitchen.com/nearly-restaurant-style-chettinad-chicken-curry/,0.018990364798507103,-0.009303403301465858,-0.05959796108343507,0.010504653238925162,-0.021980883728042966,0.0,1.0,1.0,1.0,0.0
https://glebekitchen.com/bengali-masoor-dal/,-0.0493580367089793,-0.0024061765713490253,-0.012159438139370959,0.004848587868423578,-0.0035084581122405015,0.0,0.0,0.0,0.0,0.0
https://glebekitchen.com/indian-restaurant-vindaloo-curry/,0.0025405189598934454,0.0014686025163284013,-0.04502504787207336,0.019672218090982546,-0.005388545116303393,0.0,1.0,0.0,1.0,0.0
https://glebekitchen.com/shahi-chicken-korma/,0.014788427192776562,-0.02245500359466711,-0.030089378601661006,0.008853610134163064,-0.018076018766451124,0.0,1.0,1.0,0.0,0.0
https://glebekitchen.com/saag-aloo-indian-restaurant-style/,0.03333920556076763,-0.005659973073690637,-0.0654545485911784,0.0252091419974393,-0.013971826687222121,0.0,0.0,0.0,1.0,0.0
https://glebekitchen.com/chole-masala-punjabi-chickpea-curry/,0.014542335319046609,-0.0163487431097405,-0.06905763406259066,0.02298625252494651,-0.009619614831096775,0.0,0.0,1.0,1.0,1.0
https://glebekitchen.com/aloo-keema-indian-restaurant-potato-and-beef-curry/,-0.014204599507910533,-0.0012194842062859023,-0.04296843845948107,0.01034871445861992,-0.004535966153566233,0.0,1.0,1.0,1.0,0.0
https://glebekitchen.com/kerala-fried-chicken/,0.035783581567114746,-0.00915450687402956,-0.0652763843570972,0.0063182387478371285,-0.013719025469623619,1.0,1.0,0.0,1.0,0.0
https://glebekitchen.com/easy-mint-raita-indian-mint-sauce/,-0.0016829835438504255,-0.03165089923703673,-0.03796542990599966,0.0032080534567610047,-0.02782511689376744,0.0,0.0,0.0,0.0,0.0
https://glebekitchen.com/chicken-masala-indian-restaurant-style/,0.003918266763196645,-0.011185904248703447,-0.055808657772899596,0.015169408244834088,-0.01038380424131927,0.0,1.0,1.0,0.0,0.0
https://glebekitchen.com/indian-lentil-curry-with-spinach/,-0.00558791470293305,-0.00014229857176749933,-0.0479595664946276,0.017924618718471848,-0.007267668537700234,0.0,0.0,0.0,0.0,0.0
https://glebekitchen.com/garlic-chilli-chicken-indian-restaurant-style/,0.01363534202140372,-0.009396279610480812,-0.056821471696679185,0.024003658461423157,-0.004152999644237736,0.0,0.0,1.0,1.0,0.0
https://glebekitchen.com/homemade-curry-powder/,0.05063525767468859,-0.016707762733257504,-0.09820129418761027,0.015514182010853465,-0.03207307869719158,1.0,0.0,0.0,0.0,0.0
https://glebekitchen.com/karahi-chicken-indian-restaurant-style/,-0.002261156788480903,-0.005069720752964469,-0.04177998045521706,0.011949257459307555,-0.008288590576846964,0.0,1.0,1.0,1.0,0.0
https://glebekitchen.com/garlic-ginger-paste/,-0.07119672125616987,-0.001706247542998406,-0.00019577171097092744,-0.007504491236888531,-0.0033475016923969806,0.0,0.0,0.0,0.0,0.0
https://glebekitchen.com/papadum-with-red-onion-chutney-and-mint-raita/,0.044231676267930405,-0.02223908200110351,-0.061376735761957235,0.018658052526817882,-0.022504602493376203,0.2364975450081833,0.2590163934426229,0.2612982744453574,0.1990008326394671,0.17267393126571667
https://glebekitchen.com/chicken-bhuna-curry/,0.036359610396726985,-0.01649818873364594,-0.0834356289866328,0.019383203430580483,-0.018222732739773217,0.0,1.0,0.0,0.0,1.0
https://glebekitchen.com/tarka-dhal/,0.01810575831555675,-0.011410289294833493,-0.06308514088601104,0.01725319168937054,-0.017777413437802207,0.0,0.0,0.0,0.0,0.0
https://glebekitchen.com/chaat-masala-indian-street-food-spice-mix/,0.017336524403835485,-0.003926015377708027,-0.0849650034022368,0.023047163960270768,-0.015683055382160384,0.0,0.0,0.0,1.0,0.0
https://glebekitchen.com/keema-matar-nearly-restaurant-style/,0.021598571478458332,-0.0020496148748205857,-0.06233246867527357,0.012046085941765886,-0.005976799909055805,0.0,1.0,1.0,0.0,0.0
https://glebekitchen.com/pilau-rice-indian-restaurant-style/,0.08487248416107407,-0.029166802244361488,-0.12619424254483613,0.023804807103671208,-0.03348152068496443,0.0,0.0,0.0,0.0,0.0
https://glebekitchen.com/dal-tadka-restaurant-style/,0.022249553490794338,-0.01897582511652565,-0.07579826404080864,0.022860256889957385,-0.009556417871201192,0.0,0.0,0.0,0.0,0.0
https://glebekitchen.com/eggplant-curry-baingan-masala-restaurant-style/,0.020625946319817165,-0.002841079793302729,-0.06527849634285389,0.025145459376209715,-0.003625419697845701,0.0,0.0,0.0,1.0,1.0
https://glebekitchen.com/restaurant-style-aloo-chaat-chicken-curry/,0.009768862196024053,-0.0019063346773584013,-0.057644306127216584,0.015896054841804796,-0.008182233461030922,1.0,1.0,1.0,1.0,0.0
https://glebekitchen.com/chicken-65-south-indian-fried-chicken-bites/,0.03240796041410592,-0.004712899518185661,-0.06684488786362808,0.011742368369580264,-0.011879417737287528,0.0,1.0,0.0,0.0,0.17267393126571667
https://glebekitchen.com/seekh-kebab-spicy-lamb-skewers/,0.025410504445251225,0.0007964491491348898,-0.062678025825237,0.034345942635245715,-0.01796344376763361,0.0,0.0,1.0,1.0,0.0
https://glebekitchen.com/nearly-indian-restaurant-style-chicken-tikka-masala/,0.01440146623630419,-0.00858196164977586,-0.05459191816428551,0.00434705081514704,-0.0275593548837285,0.0,1.0,1.0,1.0,0.0
https://glebekitchen.com/chana-masala/,0.022995163587880212,0.004168026329604702,-0.08062993181164657,0.018721044393658487,-0.02996793985205224,0.0,0.0,0.0,0.0,0.0
https://glebekitchen.com/chana-chaat-indian-chickpea-salad/,0.014527826151280033,0.003052096653413027,-0.06241315977527032,0.028320420418056613,8.251371800695095e-05,0.0,0.2590163934426229,0.0,0.0,0.0
https://glebekitchen.com/chicken-tikka-jalfrezi-indian-hotel-style/,-0.0014745919389632038,-0.0027329951261858124,-0.04818700290729834,0.018212560823238307,-0.002402708579011582,0.0,1.0,1.0,1.0,1.0
https://glebekitchen.com/mint-coriander-chutney/,-0.013443212081658279,-0.0021587650503225955,-0.04863623844593463,0.020844897514670814,-0.009911495051518187,0.0,0.0,0.2612982744453574,0.0,0.0
https://glebekitchen.com/indian-restaurant-dhansak-curry/,0.011358350059675929,0.0004965644940292522,-0.05567485350011835,0.016876956977215342,-0.007588066558999984,0.0,1.0,1.0,1.0,0.0
https://glebekitchen.com/chicken-biryani-indian-restaurant-style/,0.04016637603017976,-0.006419272107568404,-0.08521607024385522,0.012548546365435417,-0.03353674455928694,1.0,0.0,0.0,1.0,0.0
https://glebekitchen.com/indian-restaurant-dopiaza-curry/,-0.00010173201416134439,0.0006103058900011869,-0.04542685451376915,0.02045566688346427,-0.0028665179419972253,0.0,0.0,0.0,1.0,0.0
https://glebekitchen.com/indian-restaurant-bhuna-curry/,0.013470130141426707,7.02536402161295e-05,-0.053949118516778034,0.02882923246351773,-0.0042353253192733455,0.0,1.0,1.0,1.0,0.0
https://glebekitchen.com/butter-chicken-indian-restaurant-style/,0.006499170303703791,-0.010992838653059687,-0.03795036608567551,0.009873266851932806,-0.007863125241060337,0.0,1.0,1.0,1.0,0.0
https://glebekitchen.com/nearly-restaurant-chicken-jalfrezi/,-0.009944286779994187,-0.00171506656113345,-0.04112001771395296,0.01822199596405311,-0.00023685098956825537,0.0,1.0,1.0,0.0,0.0
https://glebekitchen.com/nadan-chicken-curry/,0.021031326374582642,-0.000590685681107652,-0.05626011125521452,0.013727647636252489,-0.0212541224695523,0.0,1.0,1.0,1.0,0.0
https://glebekitchen.com/tandoori-paste-pataks-copycat/,0.012972385691631953,-0.013326109052333338,-0.054848026273444504,-0.01858248374275659,-0.021080557393876497,1.0,0.0,0.0,1.0,1.0
https://glebekitchen.com/tandoori-chicken-tacos/,0.02525902611706859,-0.02368648900694855,-0.01964703375794609,0.006209111266417834,0.01510638870233521,0.0,0.0,0.2612982744453574,0.0,0.17267393126571667
https://glebekitchen.com/hotel-style-indian-curry-gravy/,-0.0033605841186263464,-0.005882963488354683,-0.057803526271595955,0.015582367730780514,-0.014065872627041672,0.0,0.0,1.0,0.0,1.0
https://glebekitchen.com/methi-chicken-curry-indian-hotel-style/,0.02264138421005188,0.0011877021301084966,-0.08269119779594292,0.00467560987386162,-0.02987251947223243,0.0,1.0,1.0,1.0,0.0
https://glebekitchen.com/restaurant-style-keema-matar/,0.0018567525334320146,0.0007891336322546361,-0.04905881202912371,0.016440003576497553,0.0024669031547664673,0.0,1.0,1.0,1.0,0.0
https://glebekitchen.com/chicken-chaat-salad/,-0.023689576962766235,-0.005123850315028976,-0.025076761430135243,0.014372580188199837,-0.022966025947291177,0.0,0.0,0.0,0.0,0.17267393126571667
https://glebekitchen.com/easy-chana-masala/,0.02578420220897731,0.0026353790635547394,-0.08441582777379325,0.013668765945484976,-0.022842877850771603,1.0,0.0,0.0,1.0,0.0
https://glebekitchen.com/green-chili-chana-achari/,0.0036258382626126002,0.00045327775588812664,-0.049408236895308974,0.021101355837968717,0.007569247288657252,0.0,0.0,0.0,0.0,0.0
https://glebekitchen.com/masala-chilli-chicken-restaurant-style/,0.004385538731201461,0.00019047786348332817,-0.06265241853971984,0.009658607256743544,-0.006697589091484366,0.0,1.0,1.0,1.0,1.0
https://glebekitchen.com/laal-maas-spicy-lamb-curry/,0.04282134883901031,0.0026480612448386907,-0.08347188900286637,0.02278771160979379,-0.02755272892605088,0.0,1.0,1.0,1.0,0.0
https://glebekitchen.com/chettinad-chicken-curry-indian-hotel-style/,0.02433331875561346,-0.016638964640841327,-0.06579241905808059,0.008281408459837105,-0.013541014557376592,0.0,1.0,1.0,1.0,0.0
https://glebekitchen.com/bengali-chicken-curry-restaurant-style/,-0.013747253601415658,-0.0035277143309836805,-0.0345382365529347,0.013465611598534098,0.0009841738306441822,0.0,1.0,1.0,0.0,0.0
https://glebekitchen.com/chicken-dhansak-bengali-style/,0.0036503824646149626,-0.014026521235466886,-0.05640868559152785,0.016530850861013587,-0.0113607690241038,1.0,1.0,0.0,0.0,0.0
https://glebekitchen.com/spinach-potato-curry/,0.0016383657999041136,-0.0026188973439133408,-0.04232201350246273,0.01020829819431362,-0.007470759016864427,0.0,0.0,0.0,0.0,0.0
https://glebekitchen.com/chicken-shashlik/,-0.018612100833949277,-0.0009950064527792135,-0.037618482976797395,0.013792476687703102,-0.004358944093103485,0.0,1.0,1.0,1.0,0.0
https://glebekitchen.com/nearly-restaurant-style-chicken-madras/,-0.0034465450371039302,-0.010081824888911142,-0.0428037838492758,0.01324530260685843,-0.00941241889282841,0.0,1.0,1.0,0.0,0.0
https://glebekitchen.com/lamb-saag-indian-restaurant-style/,0.03319603901485135,0.005292167766848127,-0.06656104848024233,0.01990350193383395,-0.01780651374051343,0.0,0.0,1.0,1.0,0.0
https://glebekitchen.com/simple-chicken-curry/,0.005500348610753853,-0.01671022612013191,-0.04952774592178668,0.015040499834351309,-0.019062054552667542,0.0,1.0,0.0,0.0,0.0
https://glebekitchen.com/egg-curry-south-indian-restaurant-style/,0.0251751621557347,-0.017961528398731653,-0.05386384798087895,0.015995998729783262,-0.012466005768301718,0.0,0.0,1.0,1.0,0.0
https://glebekitchen.com/chicken-dopiaza-indian-hotel-style/,-0.009705737823399422,-0.0017050389218774855,-0.05019801758269027,0.011932445010694332,-0.009130286512971505,0.0,1.0,1.0,1.0,1.0
https://glebekitchen.com/green-chili-chicken-curry-indian-hotel-style/,0.0117529076053963,-0.0011643070612531576,-0.057830666575487626,0.021273327192561725,-0.0043065827181353105,0.2364975450081833,0.2590163934426229,0.2612982744453574,0.1990008326394671,0.17267393126571667
https://glebekitchen.com/punjabi-dal-makhani/,0.028025373227457448,-0.026774236874391302,-0.056644094912995345,0.01649948378094844,-0.010028282260083518,0.0,0.0,0.0,0.0,0.0
https://glebekitchen.com/kerala-chicken-curry-nadan-kohzi-indian-hotel-style/,0.0324984203576045,-0.01374509156253274,-0.06821328066705142,0.010708999039223982,-0.017154621372986848,0.0,1.0,1.0,1.0,0.0
https://glebekitchen.com/chettinad-chicken-curry/,-0.025924875102142194,-0.00790280590545954,-0.01895860478704843,0.0008789584227661806,-0.005563413268148022,0.0,1.0,1.0,1.0,0.0
https://glebekitchen.com/chicken-and-chickpea-curry-easy-restaurant-style/,-0.012810885276050798,-0.004578854758235729,-0.0467907161133994,0.006011256022648358,-0.014516706693081605,1.0,1.0,1.0,0.0,0.0
https://glebekitchen.com/indian-restaurant-madras-curry/,0.02377593788608988,-0.018391724358487863,-0.04595965340496705,0.01493666292928391,-0.01752064748183288,0.0,1.0,1.0,1.0,0.0
https://glebekitchen.com/lamb-madras-indian-hotel-style/,0.02026539859647565,-0.008347331133626176,-0.047313757574822556,0.006463378786548244,-0.011289512083959537,0.0,1.0,1.0,1.0,0.0
https://glebekitchen.com/kachumber-indian-tomato-and-cucumber-salad/,0.011978153876842139,-0.007083317031249629,-0.04993991210882725,0.028440562387960527,-0.018222098907846773,0.0,0.2590163934426229,0.0,0.0,0.0
https://glebekitchen.com/murgir-jhol-homestyle-bengali-chicken-curry/,-0.006770553508973163,-0.011861627531789203,-0.04396869286045817,0.015694203658978025,-0.009332810520567699,0.0,1.0,0.0,0.0,0.0
https://glebekitchen.com/lamb-rogan-josh-restaurant-style-at-home/,0.0344874913679048,-0.013932583025908754,-0.05533053345055869,0.029326149721074262,-0.009031484061136179,0.0,1.0,1.0,1.0,0.0
https://glebekitchen.com/thai-chicken-khao-soi/,0.01597109778303193,-0.012499625135776779,-0.018100864549356454,-0.0005628051405450137,-0.004269481872294807,1.0,1.0,0.0,1.0,0.0
https://glebekitchen.com/thai-grilled-chicken-with-sweet-chili-sauce/,0.02308864784078694,0.024170530263006886,-0.04261963769984535,0.001716326591313577,-0.015032824981850481,1.0,0.0,0.0,1.0,1.0
https://glebekitchen.com/thai-tom-yum-soup/,0.007198785317295367,0.0007787362843910982,-0.03567998360639855,0.024118281475544442,-0.0032734446627800443,0.0,0.0,0.0,1.0,0.0
https://glebekitchen.com/chicken-pad-thai/,0.04251547055980337,0.01668168016105304,-0.026304719149186608,-0.0013616766257888437,0.010401972891311355,1.0,1.0,1.0,1.0,1.0
https://glebekitchen.com/thai-cucumber-salad/,0.019920250177131827,-0.010152794965256891,-0.03478661804139448,0.029798902999887612,0.002486298654583974,0.0,0.0,0.0,0.0,0.0
https://glebekitchen.com/thai-fried-rice-khao-pad/,-0.012870627312881163,-0.0017088922368037,-0.0027463958713805276,0.019345418856340356,0.0033554155995549973,1.0,1.0,1.0,1.0,0.0
https://glebekitchen.com/nam-prik-pao-thai-chili-paste/,-0.04340755638942442,0.009567643685444509,0.0052178477317443885,-0.0030451185365949975,-0.0046526281853000485,0.0,0.0,1.0,0.0,0.0
https://glebekitchen.com/thai-red-chicken-curry/,0.06139569181971342,-0.0032485143612787128,-0.05734944372490435,0.02459619999770586,0.009337577475807206,0.0,1.0,1.0,0.0,0.0
https://glebekitchen.com/thai-sweet-chili-sauce/,0.04083704834835543,0.05648639692519294,-0.055574710686823986,-0.021195380053154262,-0.04240021258348324,1.0,0.0,0.0,1.0,1.0
https://glebekitchen.com/panang-curry-with-chicken/,0.0025429394069286424,-0.005600365890454294,-0.029139613295681707,0.008653409909827488,-0.005872251583490158,0.0,1.0,0.0,1.0,1.0
https://glebekitchen.com/sesame-noodles-thai-style/,0.05349573376745245,0.005859991049279958,-0.01779449807473364,-0.007321818935958517,-0.0016065730105236642,1.0,1.0,1.0,1.0,0.0
https://glebekitchen.com/thai-basil-chicken-pad-kra-pao/,-0.015378674096775498,-0.0008725244506912069,-0.002779177473232468,0.013419093773495048,0.00048788044768333224,0.0,1.0,1.0,1.0,0.0
https://glebekitchen.com/easy-beef-massaman-curry/,0.038454710957326325,-0.02765770321956055,-0.044698217536584664,0.004593438498703209,-0.0036407580354573857,1.0,1.0,1.0,1.0,1.0
https://glebekitchen.com/larb-thai-pork-salad/,0.037092273237549045,-0.008306869138669322,-0.028663219061282334,0.021227777333466667,0.016348059655178555,0.0,0.0,0.0,1.0,0.0
https://glebekitchen.com/grilled-pork-belly-skewers-asian-style/,0.051736091432347024,0.018498685190883164,-0.03491398252295598,0.0038404838236122934,-0.011801024476374865,0.0,0.0,0.0,0.0,0.0
https://glebekitchen.com/spicy-thai-beef-salad/,0.0381261230140208,0.004898668353808354,-0.05353976042717189,0.04056912396622672,-0.011720797247408434,0.0,1.0,0.0,1.0,0.0
https://glebekitchen.com/thai-green-curry-from-scratch/,0.009019241388538187,-0.014949095138705435,-0.03443725630320628,0.007920060438972835,-0.028438022748414105,1.0,1.0,1.0,1.0,1.0
https://glebekitchen.com/thai-basil-beef-pad-gra-prow/,-0.031951569857057736,0.0029309067239781618,-0.009041927384125743,0.016198204175802828,0.0061943022709054435,0.0,1.0,1.0,0.0,0.0
https://glebekitchen.com/pad-thai-rest-us/,0.04567740028793791,0.02094556759650245,-0.0411736163927219,-0.005254711592356402,0.003119051036563179,1.0,0.0,1.0,1.0,1.0
https://glebekitchen.com/thai-chicken-salad-with-rice-noodles/,0.008450425666819986,-0.007739544929888236,-0.029349692537174416,0.0301447720019913,-0.012806332295449013,0.2364975450081833,0.2590163934426229,0.2612982744453574,0.1990008326394671,0.17267393126571667
https://glebekitchen.com/papaya-salad-som-tam-thai/,0.04670000409031055,-0.010235425112809894,-0.05361831602139334,0.03594929964714418,0.0179753648463206,0.0,0.0,0.0,0.0,1.0
https://glebekitchen.com/thai-dipping-sauce/,-0.0011086841731073036,-0.007550699662676729,-0.030482109737457325,0.02286204200547511,-0.0010532423476946563,0.0,0.0,0.2612982744453574,1.0,1.0
https://glebekitchen.com/thai-beef-stir-fry-with-rice-noodles/,0.0009717960318129089,-0.0036731696638872737,-0.014242476990795082,-0.0010842040751857403,0.009755809475274475,1.0,1.0,0.0,1.0,1.0
https://glebekitchen.com/thai-roast-chicken/,-0.028201446265429652,0.008452220695016234,-0.000998642421176657,-0.004016462404789941,0.025531448477967768,1.0,1.0,1.0,0.0,0.0
https://glebekitchen.com/thai-beef-noodles/,0.04869169825922417,0.02860949739794308,-0.01622926075053467,0.005629073811788648,0.007804126849935075,1.0,1.0,1.0,1.0,1.0
https://glebekitchen.com/beef-and-broccoli-thai-style/,0.010208291435399048,0.02737423650969667,-0.022594491215842376,0.0036352877229029355,-0.01182932127741338,0.0,1.0,1.0,1.0,0.0
https://glebekitchen.com/thai-curry-noodle-soup/,0.037082409080287794,-0.004255244177003227,-0.021460480642549313,0.003739055155441189,0.016048900395998333,1.0,1.0,1.0,1.0,0.0
https://glebekitchen.com/thai-chicken-buddha-bowl/,0.024099338481458805,0.012512907008950625,-0.0292461768049856,0.0289081245513071,0.009280906044249606,1.0,0.0,0.0,1.0,0.0
https://glebekitchen.com/thai-ribs-with-hot-and-sweet-dipping-sauce/,0.05450895932484897,0.027419478585776685,-0.04347333559781727,0.026535913915128915,-0.011143734875751946,0.0,0.0,0.0,1.0,1.0
https://glebekitchen.com/spicy-grilled-korean-chicken-wings/,-0.02102916894043835,-0.004216960210774366,0.008277025171130888,0.007028168441112371,0.01158057280313501,0.0,0.0,0.0,0.0,0.17267393126571667
https://glebekitchen.com/korean-ramen/,0.05756544022286357,0.04748669484138501,0.04378595493472991,-0.01952147474488325,-0.0077302903202884805,1.0,1.0,0.0,1.0,1.0
https://glebekitchen.com/korean-pork-ribs-with-gochujang-glaze/,-0.030555996900186583,0.01104736513937019,0.01777921264822512,-0.010188706176616144,0.0055290118343427185,0.0,1.0,1.0,1.0,1.0
https://glebekitchen.com/korean-pork-stew-kimchi-jjigae/,-0.005726574993200504,0.03172570250208223,0.027234364420034143,0.003474636366126616,0.009148289484101856,0.0,0.0,1.0,0.0,0.0
https://glebekitchen.com/korean-pork-bone-soup-gamjatang/,0.019539041526812125,0.04101523714439802,0.016683314086494982,0.006993712403251763,0.00934039300792103,0.0,1.0,1.0,1.0,0.0
https://glebekitchen.com/korean-bbq-shrimp/,-0.01065963878604679,-0.004972456025174484,0.0135860784143335,0.0017190313162716174,-0.019336721633905454,0.2364975450081833,0.2590163934426229,0.2612982744453574,0.1990008326394671,0.17267393126571667
https://glebekitchen.com/korean-beef-stew-with-gochujang/,0.06536896637317756,0.1068749556897192,0.03001478840545978,-0.06360968905349886,-0.04248630950457024,0.0,1.0,1.0,1.0,0.0
https://glebekitchen.com/korean-meatloaf-gochujang-glaze/,0.013083626821716874,-0.021026085922688963,0.023173456795514115,-0.004619321811008721,-0.010005767927724769,0.0,1.0,1.0,1.0,1.0
https://glebekitchen.com/korean-bulgogi-sauce/,-0.028088784101895917,-0.015990112365998285,-0.005459239879534789,0.015061816397167515,0.004116172676962726,1.0,0.0,0.0,1.0,1.0
https://glebekitchen.com/spicy-miso-grilled-chicken/,-0.010811066152569968,0.030997340912941422,0.003283297861069674,-0.011930205704011841,-0.006095412047734976,0.0,1.0,0.0,0.0,0.0
https://glebekitchen.com/korean-style-pork-chops/,-0.034753795290147445,-0.005062927477009608,-0.003829618026580828,-0.007410504594506219,0.007683893678209469,0.0,1.0,0.0,0.0,0.0
https://glebekitchen.com/spicy-korean-chicken/,-0.024787036793880102,0.0037402386132605945,-0.004509360689620963,0.0010858353016854228,0.0068086352560633116,1.0,1.0,0.0,0.0,0.17267393126571667
https://glebekitchen.com/easy-korean-beef-bulgogi/,0.0015551212027936862,0.012418115263011608,-0.009824680728335674,0.015154998788204936,0.00560631097216986,0.0,0.0,0.0,0.0,0.0
https://glebekitchen.com/korean-braised-pork-ribs/,-0.016358040090539313,0.04398205524650745,0.01950922114973294,-0.01522762151142171,-0.00800301375482962,0.0,1.0,1.0,0.0,0.0
https://glebekitchen.com/gochujang-mayonnaise/,-0.02097925370502402,-0.005572056386433231,0.03243504490251438,0.00918963605606238,-0.04242537328284004,0.0,0.2590163934426229,0.0,0.0,0.0
https://glebekitchen.com/korean-chicken-wings-gochujang-sauce/,0.005304996013537015,-0.020902958120523493,0.010081404633327299,-0.01828050058457356,0.015285776919409438,1.0,1.0,1.0,1.0,1.0
https://mykoreankitchen.com/spicy-mayo-recipe/,0.02521399349350033,-0.02952863746332099,-0.03436054510093458,0.027269433962608215,-0.0469683458024211,0.0,0.0,0.0,0.0,0.0
https://mykoreankitchen.com/strawberry-milk/,0.010616616140044142,-0.07050113570202937,0.026916728927277665,-0.02557408419022984,-0.0316697119096599,1.0,0.0,0.0,0.0,1.0
https://mykoreankitchen.com/dakgangjeong-soy-garlic-fried-chicken/,0.015230647453018002,-0.015589241443114153,-0.015975516658547358,0.005424216111322649,0.00562270920818989,1.0,1.0,0.0,1.0,1.0
https://mykoreankitchen.com/chili-oil-recipe/,-0.04399740038745962,0.0059522602235728035,-0.011886716963044355,0.015211794902606593,0.005161770234699723,1.0,0.0,1.0,1.0,1.0
https://mykoreankitchen.com/dalgona-coffee-whipped-coffee/,-0.008903253451523655,-0.05570726164416278,0.016142653745283828,-0.0335795284370355,-0.0017750985645328182,0.0,0.0,0.0,0.0,1.0
https://mykoreankitchen.com/omelet-rice-omurice/,0.06575379757112447,-0.02091171674375332,0.05211382736952896,0.0513589118169698,0.02407104736270179,1.0,1.0,1.0,1.0,1.0
https://mykoreankitchen.com/tuna-pancakes-chamchijeon/,-0.028585904497571424,-0.011642160322072253,0.01544666490885835,0.005468740931209134,0.005811198031386829,0.0,0.0,0.0,0.0,0.0
https://mykoreankitchen.com/pan-fried-zucchini/,-0.052432436233843506,-0.02650485684608337,0.03409152326164529,-0.019399956775186585,-0.009061937617570901,0.0,0.0,0.0,0.0,0.0
https://mykoreankitchen.com/slow-cooker-short-ribs/,0.029863520831992584,-0.011688543229286641,0.009672335657840345,0.019616039438085434,0.026177410220693947,1.0,0.0,0.0,1.0,1.0
https://mykoreankitchen.com/korean-ground-beef-rice-bowls/,0.029358142173700277,0.009149210627032745,-0.0010156823817949836,0.0039060752963189158,0.016430672184741247,0.0,0.0,1.0,0.0,1.0
https://mykoreankitchen.com/doenjang-jjigae/,-0.011611444571549133,0.010806947787250054,0.004628465434453881,0.0130062275227218,0.01762933480094246,0.0,0.0,0.0,0.0,0.0
https://mykoreankitchen.com/spicy-sweet-and-vinegary-noodles-bibim-guksu/,0.01032061136712367,0.011290565583996022,0.0014179380787170725,-0.0036341352949145153,0.010946921381447804,1.0,0.0,0.0,1.0,1.0
https://mykoreankitchen.com/galbitang-beef-short-rib-soup/,0.020927668868820214,0.02690056792858096,0.02336739835604903,0.019306554118893305,0.00110594408679098,0.0,1.0,0.0,1.0,0.0
https://mykoreankitchen.com/nuclear-fire-noodle-fries/,-0.0030383488505490728,0.008931059265601561,-0.004015303456529067,-0.033650451933049316,-0.00040312871899041077,1.0,0.0,1.0,1.0,0.0
https://mykoreankitchen.com/kimchi-jjim-braised-kimchi/,0.0027193102497338295,0.016642938541000206,-0.010913089714437373,0.01827961967245801,0.010202514352706351,0.0,0.0,0.0,0.0,0.0
https://mykoreankitchen.com/air-fryer-chicken-wings/,0.017472245711636,-0.018794825739011888,-0.01444224531598928,0.011546515457766315,0.005955394425236436,0.0,0.0,0.0,1.0,1.0
https://mykoreankitchen.com/pickled-radishes/,0.01275743422592569,0.05834168393124852,0.0026431315021890976,-0.008915554075627873,0.0022474406462617887,0.0,0.0,0.0,0.0,0.0
https://mykoreankitchen.com/air-fryer-chickpeas/,-0.0014354381982742775,-0.019273190239253543,-0.024855883308969814,0.0070927063518894376,-0.019231079941756168,0.0,0.0,0.0,0.0,0.0
https://mykoreankitchen.com/bean-sprout-rice-kongnamul-bap/,-0.015235936664306986,0.003302508731848919,-0.004689997987155725,0.009409442870045253,0.018858127245120967,1.0,0.0,0.0,1.0,0.0
https://mykoreankitchen.com/gochujang-chicken/,0.017606950133622956,-0.011360006258257886,-0.013352058216934843,0.02080209618282587,0.006297656140543655,1.0,1.0,0.0,1.0,1.0
https://mykoreankitchen.com/korean-style-tuna-cakes/,0.0030768616744224057,-0.010514548462711626,0.009844143348628806,0.0028305335594574804,-0.014359438518920648,0.0,0.0,0.0,0.0,0.0
https://www.justonecookbook.com/corn-dogs/,0.07632124463739176,-0.08259398130186105,0.042366446240867696,-0.023594888515606132,-0.05311495228697736,0.2364975450081833,0.2590163934426229,0.2612982744453574,0.1990008326394671,0.17267393126571667
https://www.justonecookbook.com/renkon-chips/,0.06271636361215344,-0.01156168656484787,-0.056105091389897506,-0.04114762780971258,-0.007125175526909117,0.2364975450081833,0.2590163934426229,0.2612982744453574,0.1990008326394671,0.17267393126571667
https://www.justonecookbook.com/mini-fruit-puff-pastry-with-lemon-glaze/,0.052416958502724244,-0.05518792526376323,0.033551058626927546,0.007211920896431337,-0.051230540225884566,0.2364975450081833,0.2590163934426229,0.2612982744453574,0.1990008326394671,0.17267393126571667
https://www.justonecookbook.com/tandoori-chicken-puffs/,0.05969164729121954,-0.04030917292753239,0.011752362569909901,0.013517567590000383,-0.04322967796769946,0.2364975450081833,0.2590163934426229,0.2612982744453574,0.1990008326394671,0.17267393126571667
https://www.justonecookbook.com/steamed-cake/,0.0738046889105421,-0.08903592012877899,0.03912080097539525,-0.028246432457187245,-0.019341706514699523,0.2364975450081833,0.2590163934426229,0.2612982744453574,0.1990008326394671,0.17267393126571667
https://www.justonecookbook.com/candied-sweet-potatoes/,0.006473749370627927,-0.01746319236838289,0.00069956009785804,-0.02946799635847552,0.0013770879540861358,0.2364975450081833,0.2590163934426229,0.2612982744453574,0.1990008326394671,0.17267393126571667
https://www.justonecookbook.com/oyaki/,0.013792906314553476,-0.0019019763655275122,0.004319466872600678,-0.043924436384622755,-0.028186326757290627,0.2364975450081833,0.2590163934426229,0.2612982744453574,0.1990008326394671,0.17267393126571667
https://www.justonecookbook.com/how-to-enjoy-japanese-mochi/,0.03206599361364963,-0.024442197388832673,-0.02490281401709215,-0.011874496380321741,0.0500608139308175,0.2364975450081833,0.2590163934426229,0.2612982744453574,0.1990008326394671,0.17267393126571667
https://www.justonecookbook.com/green-tea-steamed-cake/,0.08224364528477669,-0.07208962325159037,0.008217363747323887,-0.026032370476795443,-0.018593643699019915,0.2364975450081833,0.2590163934426229,0.2612982744453574,0.1990008326394671,0.17267393126571667
https://www.justonecookbook.com/spicy-edamame/,-0.015759360064771584,-0.045972759814165515,-0.00410291863754398,-0.037788285544585486,-0.03461392140728641,0.2364975450081833,0.2590163934426229,0.2612982744453574,0.1990008326394671,0.17267393126571667
https://www.justonecookbook.com/japanese-fruit-sandwich-fruit-sando/,0.035530661239743584,-0.07656392728896307,-0.004270474455525856,0.00900005106620676,-0.02629153200374019,0.2364975450081833,0.2590163934426229,0.2612982744453574,0.1990008326394671,0.17267393126571667
https://www.justonecookbook.com/roast-chestnuts/,0.1012071300983785,0.02093350781730887,0.010002852041772863,0.043285503345175204,0.058415558100574014,0.2364975450081833,0.2590163934426229,0.2612982744453574,0.1990008326394671,0.17267393126571667
https://www.justonecookbook.com/rice-cracker-recipe/,-0.01291955889530948,-0.04852403355306245,0.004272053631120319,-0.04561547121475986,-0.039852076684689625,0.2364975450081833,0.2590163934426229,0.2612982744453574,0.1990008326394671,0.17267393126571667
https://www.justonecookbook.com/takoyaki-recipe/,0.059395056033096756,0.02277555606695862,0.027958060973882846,-0.0332565520852764,-0.050775099406168665,0.2364975450081833,0.2590163934426229,0.2612982744453574,0.1990008326394671,0.17267393126571667
https://www.justonecookbook.com/nikuman-steamed-pork-buns/,-0.015458414880960163,-0.021820848953776513,0.010919603794478212,-0.017755202518075844,0.002770849053182156,0.2364975450081833,0.2590163934426229,0.2612982744453574,0.1990008326394671,0.17267393126571667
https://www.justonecookbook.com/homemade-popcorn-with-truffle-salt/,-0.029056402409343,-0.03812377264293447,0.002057135086650121,-0.038255250755081176,-0.022851336449030323,0.2364975450081833,0.2590163934426229,0.2612982744453574,0.1990008326394671,0.17267393126571667
https://www.justonecookbook.com/sata-andagi/,0.05085491263965708,-0.08609496117782249,0.03936409373829368,-0.043553429792138394,-0.0410765769381758,0.2364975450081833,0.2590163934426229,0.2612982744453574,0.1990008326394671,0.17267393126571667
https://www.justonecookbook.com/banana-bread/,0.01981359888542885,-0.0702923742258912,0.028381631390081402,-0.02933677166620469,-0.04376355894056549,0.2364975450081833,0.2590163934426229,0.2612982744453574,0.1990008326394671,0.17267393126571667
https://www.justonecookbook.com/seared-tuna-aburi-toro/,-0.060215330818363895,0.025830590275246895,0.008013610705755896,0.006328263707075617,-0.0008412760085513357,0.2364975450081833,0.2590163934426229,0.2612982744453574,0.1990008326394671,0.17267393126571667
https://www.justonecookbook.com/chicken-spring-rolls/,-0.02766756599359689,0.0017310678907601251,-0.005132877447382945,0.002796425071849581,0.005827346084166866,0.2364975450081833,0.2590163934426229,0.2612982744453574,0.1990008326394671,0.17267393126571667
https://www.justonecookbook.com/gyoza-with-wings-hanetsuki-gyoza/,-0.011619315790497003,-0.05863999726028802,0.005616419510999543,-0.053445629383750526,-0.03935375829906923,0.2364975450081833,0.2590163934426229,0.2612982744453574,0.1990008326394671,0.17267393126571667
https://www.justonecookbook.com/sauteed-abalone/,0.0976896800619454,0.04868021671114689,0.012205809492476223,-0.01728943952259162,-0.06294573576290007,0.2364975450081833,0.2590163934426229,0.2612982744453574,0.1990008326394671,0.17267393126571667
https://www.justonecookbook.com/grilled-oysters-ponzu-sauce/,0.024575602182720487,0.048789147934842875,-0.009093184097762162,0.009940193811406046,-0.0031721665504535488,0.2364975450081833,0.2590163934426229,0.2612982744453574,0.1990008326394671,0.17267393126571667
https://www.justonecookbook.com/japanese-clams-sake-steamed-clams/,-0.022729555121257648,0.006633468652460239,-0.025033627574550632,0.034897045398447894,0.010035242682449534,0.2364975450081833,0.2590163934426229,0.2612982744453574,0.1990008326394671,0.17267393126571667
https://www.justonecookbook.com/miso-dengaku/,0.1071954483374553,0.055349567244349314,-0.0038005503456241367,-0.04152946856047437,-0.024651358377380785,0.2364975450081833,0.2590163934426229,0.2612982744453574,0.1990008326394671,0.17267393126571667
https://www.justonecookbook.com/thai-chicken-lettuce-wraps/,0.012318383962280697,0.0073924721453741534,-0.0057845370798790775,0.0095061685862912,0.0057452825861023325,0.2364975450081833,0.2590163934426229,0.2612982744453574,0.1990008326394671,0.17267393126571667
https://www.justonecookbook.com/shrimp-egg-rolls/,-0.014040809075272219,-0.03923951902705696,0.020744841904708183,-0.03345348599259431,-0.02640827231922448,0.2364975450081833,0.2590163934426229,0.2612982744453574,0.1990008326394671,0.17267393126571667
https://www.justonecookbook.com/agedashi-tofu-2/,0.12490661780195035,0.08353626713632374,0.015175888866250155,-0.047307661411631605,-0.034993895605122616,0.2364975450081833,0.2590163934426229,0.2612982744453574,0.1990008326394671,0.17267393126571667
https://www.justonecookbook.com/tazukuri-candied-sardines/,0.006866816772909485,-0.04483167064689732,-0.011323183751517148,-0.036839443770172696,-0.024461363537858275,0.2364975450081833,0.2590163934426229,0.2612982744453574,0.1990008326394671,0.17267393126571667
https://www.justonecookbook.com/pickled-chrysanthemum-turnip/,0.01763172741033017,0.027977212361558007,-0.017026098428654286,-0.006000554616032356,-0.008838084409479061,0.2364975450081833,0.2590163934426229,0.2612982744453574,0.1990008326394671,0.17267393126571667
https://www.justonecookbook.com/bitter-melon-salad/,-0.02494442054266288,0.0121130360363468,0.004491319291233619,-0.02152136563175153,0.0017190925765944204,0.2364975450081833,0.2590163934426229,0.2612982744453574,0.1990008326394671,0.17267393126571667
https://www.justonecookbook.com/spicy-miso-chicken/,0.053921830992344946,0.08868067945995632,0.00603598088947257,-0.054548316098220216,-0.044470020619213645,0.2364975450081833,0.2590163934426229,0.2612982744453574,0.1990008326394671,0.17267393126571667
https://www.justonecookbook.com/cheese-tart/,0.06552021351538569,-0.07964128331786424,0.08041533831786991,0.0016645102250539858,-0.036472260465725596,0.2364975450081833,0.2590163934426229,0.2612982744453574,0.1990008326394671,0.17267393126571667
https://www.justonecookbook.com/bbq-king-crab/,-0.04232533512649706,0.020241626455134436,-0.0015926677855489925,0.017761836718688622,0.003901259654586256,0.2364975450081833,0.2590163934426229,0.2612982744453574,0.1990008326394671,0.17267393126571667
https://www.justonecookbook.com/eggplant-agebitashi/,0.09916064216243593,0.08368907608564974,0.008724342825682005,-0.035615548394354116,-0.04404149796386736,0.2364975450081833,0.2590163934426229,0.2612982744453574,0.1990008326394671,0.17267393126571667
https://www.justonecookbook.com/tsukune/,-0.007742594375896119,0.029686728381895327,0.010779284658827888,-0.017042236342844148,-0.007284566517320303,0.2364975450081833,0.2590163934426229,0.2612982744453574,0.1990008326394671,0.17267393126571667
https://www.justonecookbook.com/fresh-spring-rolls-yakiniku/,-0.005002119524719868,-0.0050100749252848225,-0.012427016090320132,0.0007926758823562694,-0.01188575207661679,0.2364975450081833,0.2590163934426229,0.2612982744453574,0.1990008326394671,0.17267393126571667
https://www.justonecookbook.com/garlic-soy-marinated-albacore/,-0.08802347624760279,0.01017579876071755,0.009344945671592197,-0.012846979932571787,0.0004354813797083696,0.2364975450081833,0.2590163934426229,0.2612982744453574,0.1990008326394671,0.17267393126571667
https://www.justonecookbook.com/tuna-tataki/,-0.011866173327823875,-0.021138784166488813,-0.01258698425772711,-0.02049658717332492,-0.01932823227593804,0.2364975450081833,0.2590163934426229,0.2612982744453574,0.1990008326394671,0.17267393126571667
https://www.justonecookbook.com/gyutan-bbq-beef-tongue/,-0.06244185188325156,0.002353633012595206,0.004889183682565583,0.0050863719141239876,-0.0007829268753667695,0.2364975450081833,0.2590163934426229,0.2612982744453574,0.1990008326394671,0.17267393126571667
https://www.justonecookbook.com/teriyaki-wings/,-0.03400374093348341,2.1520211124446607e-05,0.002507470014688123,-0.005079149899169296,-0.0003891072619722096,0.2364975450081833,0.2590163934426229,0.2612982744453574,0.1990008326394671,0.17267393126571667
https://www.justonecookbook.com/salmon-kombu-roll/,-0.011519208905935767,0.02098281979037845,0.018715598265035875,-0.03127397529328762,-0.011369026493264513,0.2364975450081833,0.2590163934426229,0.2612982744453574,0.1990008326394671,0.17267393126571667
https://www.justonecookbook.com/ham-katsu/,0.11343815940335542,-0.06648103755648951,0.044044890843179016,-0.0435954267600437,-0.0797966721152484,0.2364975450081833,0.2590163934426229,0.2612982744453574,0.1990008326394671,0.17267393126571667
https://www.justonecookbook.com/octopus-carpaccio/,-0.028106415946241817,-0.00764218988145721,-0.01139873212251769,0.012157774463342649,-0.019925429571826307,0.2364975450081833,0.2590163934426229,0.2612982744453574,0.1990008326394671,0.17267393126571667
https://www.justonecookbook.com/grilled-clams-little-neck-clams/,-0.004333222570441928,0.01575393554419578,0.011396765469066913,-0.017826982308973827,-0.02986622329913632,0.2364975450081833,0.2590163934426229,0.2612982744453574,0.1990008326394671,0.17267393126571667
https://www.justonecookbook.com/napa-cabbage-gyoza/,-0.008522393935872173,0.004565189050438456,0.009213444250298306,-0.0066908435099607136,0.0103863531148234,0.2364975450081833,0.2590163934426229,0.2612982744453574,0.1990008326394671,0.17267393126571667
https://www.justonecookbook.com/teba-shio-salted-chicken-wings/,-0.03333715954476901,-0.011207319739565139,0.007706206254881972,0.025702897647476845,-0.0016746531471947572,0.2364975450081833,0.2590163934426229,0.2612982744453574,0.1990008326394671,0.17267393126571667
https://www.justonecookbook.com/japanese-tofu-cold-tofu-hiyayakko/,0.0969080609205241,0.02831937561878263,0.03851981376352123,0.045308809125846554,0.007960876739446607,0.2364975450081833,0.2590163934426229,0.2612982744453574,0.1990008326394671,0.17267393126571667
https://www.justonecookbook.com/eggplant-with-sesame-ponzu-sauce/,-0.032921069846326756,0.01599560874354303,-0.0036998469847673962,0.008613339675041659,0.00795030173892675,0.2364975450081833,0.2590163934426229,0.2612982744453574,0.1990008326394671,0.17267393126571667
https://www.justonecookbook.com/chawanmushi-with-shrimp/,0.04430903324187821,0.04941283051824383,0.04391481450768817,-0.02742454199416773,-0.029826113206899565,0.2364975450081833,0.2590163934426229,0.2612982744453574,0.1990008326394671,0.17267393126571667
https://www.justonecookbook.com/instant-pot-chawanmushi/,0.06220496360193901,0.05895016052732648,0.04242169301850375,-0.03469992559887025,-0.037881852596562,0.2364975450081833,0.2590163934426229,0.2612982744453574,0.1990008326394671,0.17267393126571667
https://www.justonecookbook.com/burrata-crostini/,0.01439201623963936,0.03170870066722344,0.027454470965694987,-0.014830364658637818,-0.026567506460513476,0.2364975450081833,0.2590163934426229,0.2612982744453574,0.1990008326394671,0.17267393126571667
https://www.justonecookbook.com/coconut-shrimp/,0.06283977726359322,-0.016566405825612845,0.008885422333684735,0.004826491564820945,-0.03845303377700422,0.2364975450081833,0.2590163934426229,0.2612982744453574,0.1990008326394671,0.17267393126571667
https://www.justonecookbook.com/japanese-pickled-cucumber/,-0.045011773178228985,0.0003753803919055917,-0.00838704800553869,-0.013508060594085132,0.004001961742633314,0.2364975450081833,0.2590163934426229,0.2612982744453574,0.1990008326394671,0.17267393126571667
https://www.justonecookbook.com/asian-meatball-karaage/,0.04511108158578113,-0.04304373017614942,0.03114141748825846,-0.015748561627980877,0.012159737072384632,0.2364975450081833,0.2590163934426229,0.2612982744453574,0.1990008326394671,0.17267393126571667
https://www.justonecookbook.com/datemaki-sweet-rolled-omelette/,0.019138033605016504,-0.014598102504613516,0.05123503146578114,-0.02617637617702601,-0.03308429433471929,0.2364975450081833,0.2590163934426229,0.2612982744453574,0.1990008326394671,0.17267393126571667
https://www.justonecookbook.com/hijiki-salad/,0.11340315506121897,0.06724005348493915,-0.0026477768661853115,-0.057295641165412456,-0.030152671845581975,0.2364975450081833,0.2590163934426229,0.2612982744453574,0.1990008326394671,0.17267393126571667
https://www.justonecookbook.com/temari-sushi/,0.10085503036911056,0.053051834295529794,0.013850777417064974,-0.016699226283678384,-0.020816802304388926,0.2364975450081833,0.2590163934426229,0.2612982744453574,0.1990008326394671,0.17267393126571667
https://www.justonecookbook.com/slow-cooker-sriracha-chili-chicken-wings/,0.02288454119707082,-0.01744521798284434,-0.0035692557269630413,0.016767127426060558,-0.007591731972823313,0.2364975450081833,0.2590163934426229,0.2612982744453574,0.1990008326394671,0.17267393126571667
https://www.justonecookbook.com/momofuku-fried-chicken/,-0.022680837462405797,-0.019389614325060298,-0.00022146926322211445,-0.0009966786300417958,-0.004393845570204435,0.2364975450081833,0.2590163934426229,0.2612982744453574,0.1990008326394671,0.17267393126571667
https://www.justonecookbook.com/braised-pork-belly-kakuni/,0.07504788165244045,0.050760775351756444,0.028741852294339006,-0.004582595031943484,-0.02404407951803032,0.2364975450081833,0.2590163934426229,0.2612982744453574,0.1990008326394671,0.17267393126571667
https://www.justonecookbook.com/bbq-chicken-wings/,-0.010622725405191389,-0.0012941878679323376,0.00024371046263096607,0.009540815473496441,-0.00021162573102898483,0.2364975450081833,0.2590163934426229,0.2612982744453574,0.1990008326394671,0.17267393126571667
https://www.justonecookbook.com/japanese-beef-tendon-stew/,0.08467332993189834,0.09644554651788714,0.017761441833632815,-0.028375782732083493,-0.02410413451305054,0.2364975450081833,0.2590163934426229,0.2612982744453574,0.1990008326394671,0.17267393126571667
https://www.justonecookbook.com/japanese-grilled-eggplant-yaki-nasu/,0.0020789097046269907,0.056963782157047525,-0.0037270538047553398,0.004348803627898687,-0.01406308256790468,0.2364975450081833,0.2590163934426229,0.2612982744453574,0.1990008326394671,0.17267393126571667
https://www.justonecookbook.com/kamaboko-with-salmon-roe/,-0.12646778241219747,0.01150822113993262,0.015993942349859444,-0.01226265605479878,0.010631852228343923,0.2364975450081833,0.2590163934426229,0.2612982744453574,0.1990008326394671,0.17267393126571667
https://www.justonecookbook.com/gluten-free-karaage/,0.018658909844672052,-0.031971528818903874,0.005995655926978706,-0.020933499260399443,-0.00045148347613314287,0.2364975450081833,0.2590163934426229,0.2612982744453574,0.1990008326394671,0.17267393126571667
https://www.justonecookbook.com/edamame/,-0.08266668822166401,-0.00211797817297145,0.011758148951245925,-0.018659878755526136,-0.0039473329840408215,0.2364975450081833,0.2590163934426229,0.2612982744453574,0.1990008326394671,0.17267393126571667
https://www.justonecookbook.com/egg-tofu/,0.11146385239927685,0.07873375210490333,0.05557288363460975,-0.05268525965278776,-0.06097208268475477,0.2364975450081833,0.2590163934426229,0.2612982744453574,0.1990008326394671,0.17267393126571667
https://www.justonecookbook.com/spring-rolls-with-sesame-ponzu-vinaigrette/,0.02734052724564505,0.029415156267635762,0.0047411916794507306,0.014300046186773756,0.006638911879127989,0.2364975450081833,0.2590163934426229,0.2612982744453574,0.1990008326394671,0.17267393126571667
https://www.justonecookbook.com/chawanmushi-with-matsutake-mushroom/,0.08958126596520306,0.06534635589124305,0.05543716218323766,-0.04582590908692362,-0.050809198661053004,0.2364975450081833,0.2590163934426229,0.2612982744453574,0.1990008326394671,0.17267393126571667
https://www.justonecookbook.com/nagoya-style-fried-chicken-wings/,0.0010257029193852258,-0.017623534613367537,0.0036091967523121465,-0.021861753579365543,-0.0005220592132433835,0.2364975450081833,0.2590163934426229,0.2612982744453574,0.1990008326394671,0.17267393126571667
https://www.justonecookbook.com/fried-chicken-wings/,0.005749615511005115,-0.03538149001084348,-0.0002597565281927134,-0.006219668883909087,-0.005126359168498812,0.2364975450081833,0.2590163934426229,0.2612982744453574,0.1990008326394671,0.17267393126571667
https://www.justonecookbook.com/chawanmushi-savory-steamed-egg-custard/,0.043760581502746254,0.04709902993719838,0.03901959664528091,-0.024612922230780952,-0.029093070771520707,0.2364975450081833,0.2590163934426229,0.2612982744453574,0.1990008326394671,0.17267393126571667
https://www.justonecookbook.com/karashi-renkon/,0.08567599067359642,-0.0010593726332691193,-0.008840549175989866,-0.04685219975287475,-0.03613571882706705,0.2364975450081833,0.2590163934426229,0.2612982744453574,0.1990008326394671,0.17267393126571667
https://www.justonecookbook.com/cranberry-brie-bites/,0.05219646650934972,-0.0312833368080161,-0.01166269692494157,0.0509525318189022,-0.06284283391400616,0.0,0.0,0.0,0.0,0.0
https://www.justonecookbook.com/shishamo-wrap/,-0.006391760956600889,-0.05359603658705503,0.01888370950876489,-0.04029877540550337,-0.03774543160438059,0.2364975450081833,0.2590163934426229,0.2612982744453574,0.1990008326394671,0.17267393126571667
https://www.justonecookbook.com/boiled-squid-with-miso-vinaigrette/,0.020207460695790963,0.04102176871697244,0.002137660539856028,-0.03388920349141237,-0.01548675397012982,0.2364975450081833,0.2590163934426229,0.2612982744453574,0.1990008326394671,0.17267393126571667
https://www.justonecookbook.com/vegan-miso-soup/,0.118867370447319,0.11284226356447588,0.015499906064323572,-0.05952896969673347,-0.028825197710944397,0.2364975450081833,0.2590163934426229,0.2612982744453574,0.1990008326394671,0.17267393126571667
https://www.justonecookbook.com/kimchi-gyoza-nabe/,0.03410362293316758,0.07074769038499538,0.012251503334946961,-0.008672132311729187,0.002880488942927022,0.0,0.0,0.0,0.1990008326394671,1.0
https://www.justonecookbook.com/ozoni-zoni-japanese-new-year-mochi-soup/,0.17741930489584035,0.12493098335857462,-0.014908561435024744,-0.027033373952490516,-0.06299848673137902,0.2364975450081833,0.2590163934426229,0.2612982744453574,0.1990008326394671,0.17267393126571667
https://www.justonecookbook.com/potato-leek-soup/,-0.027117135626909962,-0.026594881575555288,0.019415217291584918,-0.009132458614621888,-0.009112886833391171,0.2364975450081833,0.2590163934426229,0.2612982744453574,0.1990008326394671,0.17267393126571667
https://www.justonecookbook.com/homemade-miso-soup/,0.187277265689083,0.17519319566426686,0.02287335220644853,-0.07085448376634641,-0.07901552391915026,0.2364975450081833,0.2590163934426229,0.2612982744453574,0.1990008326394671,0.17267393126571667
https://www.justonecookbook.com/miso-soup-yuzu-kosho/,0.04041128675927059,0.06333696179421604,0.008940365841633978,-0.01720669924853539,-0.008388607290407435,0.2364975450081833,0.2590163934426229,0.2612982744453574,0.1990008326394671,0.17267393126571667
https://www.justonecookbook.com/nabeyaki-udon/,0.08313229406137258,0.05694225792314376,0.034339732581409155,-0.0335222055619713,-0.007985399447196407,0.2364975450081833,0.2590163934426229,0.2612982744453574,0.1990008326394671,0.17267393126571667
https://www.justonecookbook.com/kimchi-nabe/,0.05897211540206923,0.07476471087655842,0.018079227478398425,-0.014465544443818456,0.0002765843800540389,0.2364975450081833,0.2590163934426229,0.2612982744453574,0.1990008326394671,0.17267393126571667
https://www.justonecookbook.com/chanko-nabe-sumo-stew/,0.08253834774911833,0.058361630199367,0.032627226329901726,-0.011552909141560283,-0.013403797440160152,0.2364975450081833,0.2590163934426229,0.2612982744453574,0.1990008326394671,0.17267393126571667
https://www.justonecookbook.com/monkfish-hot-pot/,0.0909887091385696,0.10878766029962282,0.02103146341701767,-0.03428253473536269,-0.010999938609254654,0.2364975450081833,0.2590163934426229,0.2612982744453574,0.1990008326394671,0.17267393126571667
https://www.justonecookbook.com/mille-feuille-nabe/,0.07026841609588765,0.08703659299768954,0.025479803900467838,-0.0030524847690093586,-0.009082360252287952,0.2364975450081833,0.2590163934426229,0.2612982744453574,0.1990008326394671,0.17267393126571667
https://www.justonecookbook.com/thomas-kellers-clam-chowder-giveaway-winners/,0.029298138023169693,-0.03337261973798677,0.0031047024982438307,0.022912898803489772,-0.03171018008956346,0.2364975450081833,0.2590163934426229,0.2612982744453574,0.1990008326394671,0.17267393126571667
https://www.justonecookbook.com/kabocha-miso-soup/,0.0486554544056465,0.045201736304279885,-0.012824391139157005,-0.04637703391249872,-0.009987848244180702,0.2364975450081833,0.2590163934426229,0.2612982744453574,0.1990008326394671,0.17267393126571667
https://www.justonecookbook.com/pressure-cooker-oxtail-soup/,-0.00014702079863502016,0.0005994663943663919,-0.007170570611240435,0.02100212949890256,-0.0012395865156968875,0.2364975450081833,0.2590163934426229,0.2612982744453574,0.1990008326394671,0.17267393126571667
https://www.justonecookbook.com/shrimp-pork-wonton/,-0.0062058364014689945,0.010507281620064476,0.004310431910563064,0.004189928814102734,0.0074640541391085636,0.2364975450081833,0.2590163934426229,0.2612982744453574,0.1990008326394671,0.17267393126571667
https://www.justonecookbook.com/bouillabaisse-french-seafood-stew/,-0.016215506181480106,0.00362987632361396,-0.013793905611896775,0.019201875062739616,-0.009626330488209368,0.2364975450081833,0.2590163934426229,0.2612982744453574,0.1990008326394671,0.17267393126571667
https://www.justonecookbook.com/taiwanese-hot-pot-and-homemade-meatballs/,0.0035046037995415122,0.0117142696707452,0.019866295176877862,0.0006382928168849167,0.019541364960884388,0.2364975450081833,0.2590163934426229,0.2612982744453574,0.1990008326394671,0.17267393126571667
https://www.justonecookbook.com/japanese-clam-soup-clear-broth/,0.04561643914388024,0.09784779709562398,0.011820424290607763,-0.062168867331479354,-0.03883939310217238,0.2364975450081833,0.2590163934426229,0.2612982744453574,0.1990008326394671,0.17267393126571667
https://www.justonecookbook.com/chicken-corn-chowder-with-roasted-potato/,0.030097813436178764,-0.02796427998774503,0.015417505591581828,0.020602020672946055,-0.010074478002176005,0.2364975450081833,0.2590163934426229,0.2612982744453574,0.1990008326394671,0.17267393126571667
https://www.justonecookbook.com/miso-nikomi-udon/,0.15740267554236012,0.11738289187169486,0.05637111045533839,-0.06701825025121162,-0.042436517921175275,0.2364975450081833,0.2590163934426229,0.2612982744453574,0.1990008326394671,0.17267393126571667
https://www.justonecookbook.com/kale-soup/,-0.025580193101049555,-0.007566112453110529,0.020326241981431552,-0.002517799098345562,-0.010442798121610874,0.2364975450081833,0.2590163934426229,0.2612982744453574,0.1990008326394671,0.17267393126571667
https://www.justonecookbook.com/hayashi-rice/,-0.020269307501612984,-0.015600944774549897,-0.005622983816727748,0.004436296253056929,-0.010665329265361737,0.2364975450081833,0.2590163934426229,0.2612982744453574,0.1990008326394671,0.17267393126571667
https://www.justonecookbook.com/instant-pot-cream-stew/,0.0012640849444959564,-0.009512284741344211,-0.00025149603861051564,0.001802093141125072,-0.014766725759526226,0.2364975450081833,0.2590163934426229,0.2612982744453574,0.1990008326394671,0.17267393126571667
https://www.justonecookbook.com/clam-soup/,0.06095539679827354,0.09112808561541966,0.006720324859670315,-0.04770881247380579,-0.03315464613854755,0.2364975450081833,0.2590163934426229,0.2612982744453574,0.1990008326394671,0.17267393126571667
https://www.justonecookbook.com/sukiyaki/,0.09807460875783357,0.07875291759044226,0.025889416623732748,-0.04456558843433897,-0.02210025613493087,0.2364975450081833,0.2590163934426229,0.2612982744453574,0.1990008326394671,0.17267393126571667
https://www.justonecookbook.com/hot-pot-for-one/,0.08820314600971443,0.10158878515436943,0.030764821805420617,0.012734848258713573,0.006476625457732777,0.2364975450081833,0.2590163934426229,0.2612982744453574,0.1990008326394671,0.17267393126571667
https://www.justonecookbook.com/homemade-instant-miso-soup/,0.09782594182289624,0.10324885136059904,0.02227531283402099,-0.06059304750127498,-0.03445272003829774,0.2364975450081833,0.2590163934426229,0.2612982744453574,0.1990008326394671,0.17267393126571667
https://www.justonecookbook.com/kimchi-soup-with-malony-glass-noodles/,-0.01994492585699622,0.008392336948000388,0.019927347606597118,-0.0009924662633092214,0.0018982183185407965,0.2364975450081833,0.2590163934426229,0.2612982744453574,0.1990008326394671,0.17267393126571667
https://www.justonecookbook.com/oxtail-oden/,0.10730885855665975,0.06647870653179014,0.035778146896405336,-0.02068920561500686,-0.026037580958882187,0.2364975450081833,0.2590163934426229,0.2612982744453574,0.1990008326394671,0.17267393126571667
https://www.justonecookbook.com/kabocha-squash-soup/,0.01384969861948384,-0.018623383682609167,0.019710550073603405,-0.003759064315755588,-0.029079435143794588,0.2364975450081833,0.2590163934426229,0.2612982744453574,0.1990008326394671,0.17267393126571667
https://www.justonecookbook.com/vegetable-miso-soup/,0.0928701868398258,0.0681673522846543,0.0014492446192113054,-0.030616651891797124,0.01673790655415896,0.2364975450081833,0.2590163934426229,0.2612982744453574,0.1990008326394671,0.17267393126571667
https://www.justonecookbook.com/zosui-japanese-rice-soup/,0.019852766486411436,0.024573532494995068,0.018968676085684328,-0.010946348971261934,-0.015401733397365282,0.2364975450081833,0.2590163934426229,0.2612982744453574,0.1990008326394671,0.17267393126571667
https://www.justonecookbook.com/white-stew/,-0.002491847216985086,-0.014697836976307074,0.010111106682841998,0.0011824117993871493,-0.013507103624844878,0.0,1.0,0.0,1.0,1.0
https://www.justonecookbook.com/kimchi-chigae/,-0.027533236313354643,0.023848272965209038,0.0158945253136708,-0.014463243733995105,0.01258038622629276,0.2364975450081833,0.2590163934426229,0.2612982744453574,0.1990008326394671,0.17267393126571667
https://www.justonecookbook.com/corn-potage/,0.023518480844954427,-0.04715279415316702,0.006841154250605633,-0.0030397648094593285,-0.01779976654523426,0.2364975450081833,0.2590163934426229,0.2612982744453574,0.1990008326394671,0.17267393126571667
https://www.justonecookbook.com/instant-pot-tonjiru/,0.1127983954451884,0.06210552989914065,0.0272548230297556,-0.010765322756447348,-0.019560234654183238,0.2364975450081833,0.2590163934426229,0.2612982744453574,0.1990008326394671,0.17267393126571667
https://www.justonecookbook.com/pressure-cooker-oxtail-broth/,-0.09011678652557102,0.0029159002317693875,0.009438600856306125,-0.013165151777836798,-0.0003695222269814284,0.2364975450081833,0.2590163934426229,0.2612982744453574,0.1990008326394671,0.17267393126571667
https://www.justonecookbook.com/matsutake-clear-soup/,0.056216451795421785,0.063295700188174,-0.002811919519902771,-0.017814716596808212,-0.05647688563751921,0.2364975450081833,0.2590163934426229,0.2612982744453574,0.1990008326394671,0.17267393126571667
https://www.justonecookbook.com/creamy-roasted-cauliflower-soup/,0.004079051719935701,-0.021197085032515425,-0.002892004796420677,0.0056366094281019,-0.03281847624056857,0.2364975450081833,0.2590163934426229,0.2612982744453574,0.1990008326394671,0.17267393126571667
https://www.justonecookbook.com/hot-tofu-yudofu/,0.04898998703835671,0.09420356808646092,0.016160829100647003,-0.040582254796967886,-0.035608006847198274,0.2364975450081833,0.2590163934426229,0.2612982744453574,0.1990008326394671,0.17267393126571667
https://www.justonecookbook.com/soup-curry/,0.03134361249313277,-0.0005962404313107874,-0.039543259769609755,0.0037527255442068425,-0.019213955674911014,0.2364975450081833,0.2590163934426229,0.2612982744453574,0.1990008326394671,0.17267393126571667
https://www.justonecookbook.com/coconut-curry/,-0.019465423862047096,-0.01969093707198643,-0.0032027530369889944,-0.006109358122153107,-0.010921106534381789,0.2364975450081833,0.2590163934426229,0.2612982744453574,0.1990008326394671,0.17267393126571667
https://www.justonecookbook.com/soy-milk-hot-pot-tonyu-nabe/,0.08629846919206392,0.07743492014788969,0.009601673800220121,-0.013933932201151484,-0.011487880494382038,0.2364975450081833,0.2590163934426229,0.2612982744453574,0.1990008326394671,0.17267393126571667
https://www.justonecookbook.com/kare-kare-guest-post-by-ang-sarap/,0.010619087445642687,-0.0219879593618591,0.011194308403836496,-0.0046577803945692785,0.0009760476693119298,0.2364975450081833,0.2590163934426229,0.2612982744453574,0.1990008326394671,0.17267393126571667
https://www.justonecookbook.com/shabu-shabu/,0.11435503619967478,0.11940610689848673,0.02024739892311333,-0.017632927625272594,0.007838983862435403,0.2364975450081833,0.2590163934426229,0.2612982744453574,0.1990008326394671,0.17267393126571667
https://www.justonecookbook.com/nameko-mushroom-miso-soup/,0.24177324019240318,0.1820894222719195,0.04570517934791794,-0.08639792133093038,-0.07979067294507076,0.2364975450081833,0.2590163934426229,0.2612982744453574,0.1990008326394671,0.17267393126571667
https://www.justonecookbook.com/pickled-ginger/,-0.055481265857378226,-0.002090845082863871,0.005022724194653671,-0.02387830221930229,0.008073296440611066,0.2364975450081833,0.2590163934426229,0.2612982744453574,0.1990008326394671,0.17267393126571667
https://www.justonecookbook.com/korean-pancake/,0.005492929052129101,-0.040871989353587254,0.022150403651508246,-0.029349614864547555,-0.011848804936174417,0.2364975450081833,0.2590163934426229,0.2612982744453574,0.1990008326394671,0.17267393126571667
https://www.justonecookbook.com/pickled-cucumber/,-0.01959265928677195,-0.0017191660361640312,-0.005017525057592623,0.008571328149838003,-0.0004462065976276504,0.2364975450081833,0.2590163934426229,0.2612982744453574,0.1990008326394671,0.17267393126571667
https://www.justonecookbook.com/takikomi-gohan/,0.051578941580108346,0.07847055596738124,0.026645341856971257,-0.029278234992588397,-0.027035509423410174,0.2364975450081833,0.2590163934426229,0.2612982744453574,0.1990008326394671,0.17267393126571667
https://www.justonecookbook.com/myoga-shiso-rice/,-0.037593234711436475,-0.0037903825219735786,-0.015379219296980384,-0.02304503569606983,0.006498498709354067,0.2364975450081833,0.2590163934426229,0.2612982744453574,0.1990008326394671,0.17267393126571667
https://www.justonecookbook.com/pickled-lotus-root/,0.044375150224432586,0.04550395328049712,-0.040000299805630773,-0.010322349810895963,0.015118294667586863,0.2364975450081833,0.2590163934426229,0.2612982744453574,0.1990008326394671,0.17267393126571667
https://www.justonecookbook.com/maple-and-miso-glazed-roasted-carrots/,0.052320897665508286,-0.010745807792588583,-0.01103602175130458,-0.012125680749124122,-0.0458678192096448,0.2364975450081833,0.2590163934426229,0.2612982744453574,0.1990008326394671,0.17267393126571667
https://www.justonecookbook.com/simmered-koyadofu/,0.14230071918368764,0.0905572892188063,0.014803422917427506,-0.03933620395758224,-0.01712743775058489,0.2364975450081833,0.2590163934426229,0.2612982744453574,0.1990008326394671,0.17267393126571667
https://www.justonecookbook.com/tsukemono-shiozuke-salt-pickling/,0.05929730514593529,0.06660450750179377,-0.007167536756219725,0.011315889685973843,0.01126464213948102,0.2364975450081833,0.2590163934426229,0.2612982744453574,0.1990008326394671,0.17267393126571667
https://www.justonecookbook.com/kuri-kinton-candied-chestnuts-with-sweet-potatoes/,0.06016976918930567,-0.018781834870893195,0.002982865670033613,-0.02781901746359819,0.0002518521295556129,0.2364975450081833,0.2590163934426229,0.2612982744453574,0.1990008326394671,0.17267393126571667
https://www.justonecookbook.com/simmered-kombu-tsukudani/,0.038984031980741886,0.061706868420193337,-0.014078251806632561,-0.02275350597969286,-0.018260363704913348,0.2364975450081833,0.2590163934426229,0.2612982744453574,0.1990008326394671,0.17267393126571667
https://www.justonecookbook.com/sweet-onion-takikomi-gohan/,-0.01569573367109203,-0.004488329499716223,0.005185703530707656,-0.0347682014481667,-0.02975883167166503,0.2364975450081833,0.2590163934426229,0.2612982744453574,0.1990008326394671,0.17267393126571667
https://www.justonecookbook.com/simmered-sweet-potatoes-with-lemon/,0.025794213570272288,-0.032481571467044314,-0.008384545082653993,0.010844528872142139,0.029631312422760483,0.2364975450081833,0.2590163934426229,0.2612982744453574,0.1990008326394671,0.17267393126571667
https://www.justonecookbook.com/tsukemono-amazuzuke-sweet-vinegar-pickling/,0.029187022543945357,0.029925910254904153,-0.01968006858438935,0.013334751340269122,0.005485013855176568,0.2364975450081833,0.2590163934426229,0.2612982744453574,0.1990008326394671,0.17267393126571667
https://www.justonecookbook.com/bean-sprout-namul/,-0.021633459030502056,0.006228880489502522,-0.009383957626125006,-0.002932483043175829,0.024257472124442608,0.2364975450081833,0.2590163934426229,0.2612982744453574,0.1990008326394671,0.17267393126571667
https://www.justonecookbook.com/miso-meat-sauce-niku-miso/,0.00913236524798567,0.021734069968762947,0.014965559846386077,-0.024427126682254528,0.007972576166438807,0.2364975450081833,0.2590163934426229,0.2612982744453574,0.1990008326394671,0.17267393126571667
https://www.justonecookbook.com/quick-and-easy-tamagoyaki/,0.05521670791955247,-0.08276716200647426,0.05417538839105054,-0.040133829644651856,-0.05362958581655831,0.2364975450081833,0.2590163934426229,0.2612982744453574,0.1990008326394671,0.17267393126571667
https://www.justonecookbook.com/pickled-tomatoes/,0.054707483006091996,0.06011151208014046,0.014360836676762781,-0.02673236793400964,-0.031031854403105057,0.2364975450081833,0.2590163934426229,0.2612982744453574,0.1990008326394671,0.17267393126571667
https://www.justonecookbook.com/spinach-and-bean-sprout-namul/,-0.00957346827868703,0.0012106648831485477,-0.01783934046671731,0.022797425379101243,0.015416734238865155,0.2364975450081833,0.2590163934426229,0.2612982744453574,0.1990008326394671,0.17267393126571667
https://www.justonecookbook.com/kuromame-sweet-black-soybeans/,-0.08914523687814815,0.0002898503243914785,0.01290061014756517,-0.01875996562506488,0.000945589405036471,0.2364975450081833,0.2590163934426229,0.2612982744453574,0.1990008326394671,0.17267393126571667
https://www.justonecookbook.com/ham-flower/,0.45341247992576894,0.02349687566933216,0.3113639938350532,0.4601888902503957,0.031114265859521203,0.2364975450081833,0.2590163934426229,0.2612982744453574,0.1990008326394671,0.17267393126571667
https://www.justonecookbook.com/easy-orange-ginger-cranberry-sauce/,0.024130585199201755,-0.042283575510989165,-0.04268892645641836,0.0238070704608001,-0.056079442640424026,0.2364975450081833,0.2590163934426229,0.2612982744453574,0.1990008326394671,0.17267393126571667
https://www.justonecookbook.com/tsukemono-misozuke-miso-pickling/,0.06817643232036158,0.08347406627539639,-0.01058406471759843,-0.024606947651194085,-0.018992478434158657,0.2364975450081833,0.2590163934426229,0.2612982744453574,0.1990008326394671,0.17267393126571667
https://www.justonecookbook.com/homemade-chashu/,-0.02182900062132656,-0.01882821731348915,0.01573821769384466,-0.008468370641949656,-0.006353937831557964,0.2364975450081833,0.2590163934426229,0.2612982744453574,0.1990008326394671,0.17267393126571667
https://www.justonecookbook.com/tamagoyaki-japanese-rolled-omelette/,0.09865541033925042,0.05529207503679554,0.0293803465752619,-0.043312241298387004,-0.04615858416194897,0.2364975450081833,0.2590163934426229,0.2612982744453574,0.1990008326394671,0.17267393126571667
https://www.justonecookbook.com/sekihan-japanese-azuki-beans-rice/,0.030383078030769072,-0.014466489467419076,-0.01833289668981291,-0.029196611079764814,0.06453235340768294,0.2364975450081833,0.2590163934426229,0.2612982744453574,0.1990008326394671,0.17267393126571667
https://www.justonecookbook.com/chikuzenni-simmered-chicken-and-vegetables/,0.05570155037761325,0.05319636581854594,-0.004240728369094461,-0.023042622469347598,0.010868658703888163,0.2364975450081833,0.2590163934426229,0.2612982744453574,0.1990008326394671,0.17267393126571667
https://www.justonecookbook.com/green-beans-with-yuzu-vinaigrette/,0.016229492585662125,-0.029549633997158372,-0.034135332775162126,0.026685585717001855,-0.018416939448420204,0.2364975450081833,0.2590163934426229,0.2612982744453574,0.1990008326394671,0.17267393126571667
https://www.justonecookbook.com/pearl-balls-guest-post-by-weeknite-meals/,0.013690714330871906,-0.010413587608999566,0.027508176823120373,0.0006563820532552278,0.02543571012368651,0.2364975450081833,0.2590163934426229,0.2612982744453574,0.1990008326394671,0.17267393126571667
https://www.justonecookbook.com/bamboo-rice-takenoko-gohan/,0.018466139949194504,0.06787772501189701,0.008635176646537701,-0.030022573895032503,-0.014138750503968902,0.2364975450081833,0.2590163934426229,0.2612982744453574,0.1990008326394671,0.17267393126571667
https://www.justonecookbook.com/simmered-bamboo-shoots/,0.06311052587034113,0.1268155247566329,0.01312303396603963,-0.07271248901688379,-0.05228295793719814,0.2364975450081833,0.2590163934426229,0.2612982744453574,0.1990008326394671,0.17267393126571667
https://www.justonecookbook.com/simmered-kabocha-squash/,-0.03900354720030236,0.045536107525494314,0.01015577813863189,-0.02272022775823992,-0.023179710845304666,0.2364975450081833,0.2590163934426229,0.2612982744453574,0.1990008326394671,0.17267393126571667
https://www.justonecookbook.com/how-to-make-rice/,-0.08266668822166401,-0.00211797817297145,0.011758148951245925,-0.018659878755526136,-0.0039473329840408215,0.2364975450081833,0.2590163934426229,0.2612982744453574,0.1990008326394671,0.17267393126571667
https://www.justonecookbook.com/simmered-fried-tofu-and-greens/,0.14377358037468652,0.12588985720152374,0.02052991934601716,-0.0010096147179178738,-0.009050596192153535,0.2364975450081833,0.2590163934426229,0.2612982744453574,0.1990008326394671,0.17267393126571667
https://www.justonecookbook.com/daikon-leaves-furikake/,-0.003740138541199011,0.034048018085825235,-0.002252806721846609,-0.026810352512342362,-0.003745289177695271,0.2364975450081833,0.2590163934426229,0.2612982744453574,0.1990008326394671,0.17267393126571667
https://www.justonecookbook.com/plum-rice-ball/,-0.017147082369274348,-0.0066835897712719874,-0.021341605679866007,-0.021344413240339335,0.0043829205483947664,0.2364975450081833,0.2590163934426229,0.2612982744453574,0.1990008326394671,0.17267393126571667
https://www.justonecookbook.com/ume-shiso-rice/,0.017284650666176533,-0.008137372704372542,-0.042045821278574806,-0.023742417291746806,0.013286235688533729,0.2364975450081833,0.2590163934426229,0.2612982744453574,0.1990008326394671,0.17267393126571667
https://www.justonecookbook.com/green-bean-gomaae/,0.005671113159170692,-0.005376542552814294,-0.020275314689212478,-0.0031727484246928893,0.040653540320558984,0.2364975450081833,0.2590163934426229,0.2612982744453574,0.1990008326394671,0.17267393126571667
https://www.justonecookbook.com/pickled-daikon/,0.0321085263260864,0.03674419062397537,-0.018346344333970425,0.011346078346083149,0.011611925926382391,0.2364975450081833,0.2590163934426229,0.2612982744453574,0.1990008326394671,0.17267393126571667
https://www.justonecookbook.com/steamed-vegetables-with-miso-sesame-sauce/,0.08343423771256367,0.04583028333091655,-0.0015697010514483776,-0.01578448597127488,0.006373336157698959,0.2364975450081833,0.2590163934426229,0.2612982744453574,0.1990008326394671,0.17267393126571667
https://www.justonecookbook.com/pickled-cucumbers-and-myoga/,0.044128204978328894,0.04762177105044768,-0.022180581008155547,0.007868577671305095,-0.006954757885132857,0.2364975450081833,0.2590163934426229,0.2612982744453574,0.1990008326394671,0.17267393126571667
https://www.justonecookbook.com/matsutake-gohan/,0.1963233331760802,0.1875431977465363,0.03731078477995421,-0.09377665683538862,-0.08519149363808935,0.2364975450081833,0.2590163934426229,0.2612982744453574,0.1990008326394671,0.17267393126571667
https://www.justonecookbook.com/yaki-onigiri-grilled-rice-ball/,-0.02684686490234219,-0.04121318573019087,0.005925333847461449,-0.04202537763896632,-0.03328719145780223,0.2364975450081833,0.2590163934426229,0.2612982744453574,0.1990008326394671,0.17267393126571667
https://www.justonecookbook.com/how-to-cook-rice/,-0.110410701823965,0.002651896771012814,0.015845012785243553,-0.02048482237975564,0.0061021088887729565,0.2364975450081833,0.2590163934426229,0.2612982744453574,0.1990008326394671,0.17267393126571667
https://www.justonecookbook.com/pounded-burdock-root-with-sesame-sauce/,-6.485958390140444e-06,0.019787379105828548,-0.01015115790785451,-0.04161832337507514,0.00029037451712657017,0.2364975450081833,0.2590163934426229,0.2612982744453574,0.1990008326394671,0.17267393126571667
https://www.justonecookbook.com/tsukemono-pickled-cabbage/,0.032854693414665674,0.03433609166759463,-0.023791352318653387,0.00021426522587743825,-0.00030117079864060966,0.2364975450081833,0.2590163934426229,0.2612982744453574,0.1990008326394671,0.17267393126571667
https://www.justonecookbook.com/tsukemono-kasuzuke-sake-lees-pickling/,0.05822942117437388,0.054978402044241724,-0.0010038556992901895,-0.025778159085614885,-0.016532820487553637,0.2364975450081833,0.2590163934426229,0.2612982744453574,0.1990008326394671,0.17267393126571667
https://www.justonecookbook.com/easy-soy-sauce-pickles/,0.023868621015348774,0.04392438284194972,-0.011947381353258226,0.008075019888742901,-0.0019483416812759867,0.2364975450081833,0.2590163934426229,0.2612982744453574,0.1990008326394671,0.17267393126571667
https://www.justonecookbook.com/pickled-daikon-with-shio-koji/,0.035084179114305,0.05828565548573748,-0.01362012312696049,-0.004568207042613087,-0.008708984307791164,0.2364975450081833,0.2590163934426229,0.2612982744453574,0.1990008326394671,0.17267393126571667
https://www.justonecookbook.com/simmered-taro/,0.08078394590355949,0.04670484379501637,0.017035897628546876,-0.05939779069531714,-0.06535330969346745,0.2364975450081833,0.2590163934426229,0.2612982744453574,0.1990008326394671,0.17267393126571667
https://www.justonecookbook.com/instant-pot-rice/,-0.110410701823965,0.002651896771012814,0.015845012785243553,-0.02048482237975564,0.0061021088887729565,0.2364975450081833,0.2590163934426229,0.2612982744453574,0.1990008326394671,0.17267393126571667
https://www.justonecookbook.com/miso-yaki-onigiri/,0.04874694885860463,0.011170880912673783,-0.006405907062720604,-0.06129460764080216,-0.03887557198140494,0.2364975450081833,0.2590163934426229,0.2612982744453574,0.1990008326394671,0.17267393126571667
https://www.justonecookbook.com/pickled-turnip-with-yuzu/,0.09657899794873705,0.06710265392154519,-0.02874475399251119,0.02381735638266523,-0.026020041512988323,0.2364975450081833,0.2590163934426229,0.2612982744453574,0.1990008326394671,0.17267393126571667
https://www.justonecookbook.com/tsukemono-shoyuzuke-soy-sauce-pickling/,-0.01218420204988253,-0.00160053859240125,-0.023684882407303685,0.016578398459369904,0.01672695682196247,0.2364975450081833,0.2590163934426229,0.2612982744453574,0.1990008326394671,0.17267393126571667
https://www.justonecookbook.com/ramen-egg/,0.010908421545201191,0.002399568026501405,0.06104585576765904,-0.031082671886898432,-0.030712205516228223,0.2364975450081833,0.2590163934426229,0.2612982744453574,0.1990008326394671,0.17267393126571667
https://www.justonecookbook.com/pickled-watermelon-rind/,-0.0420857635752033,-0.0026281532333165365,-0.008156840416161404,-0.02460452112854081,0.010537488328158777,0.2364975450081833,0.2590163934426229,0.2612982744453574,0.1990008326394671,0.17267393126571667
https://www.justonecookbook.com/how-to-make-sushi-rice/,0.012313579646323146,0.053740890796947896,0.00777990044135848,-0.04997626777798347,-0.013386913762983357,0.2364975450081833,0.2590163934426229,0.2612982744453574,0.1990008326394671,0.17267393126571667
https://www.justonecookbook.com/simmered-kabocha-with-shio-koji/,-0.110410701823965,0.002651896771012814,0.015845012785243553,-0.02048482237975564,0.0061021088887729565,0.2364975450081833,0.2590163934426229,0.2612982744453574,0.1990008326394671,0.17267393126571667
https://www.justonecookbook.com/nanakusa-gayu-seven-herb-rice-porridge/,-0.08266668822166401,-0.00211797817297145,0.011758148951245925,-0.018659878755526136,-0.0039473329840408215,0.2364975450081833,0.2590163934426229,0.2612982744453574,0.1990008326394671,0.17267393126571667
https://www.justonecookbook.com/kinpira-renkon-lotus-root/,0.011805412441559091,0.02108621067465499,-0.036668968664311366,-0.010931070105671934,0.017114583181251388,0.2364975450081833,0.2590163934426229,0.2612982744453574,0.1990008326394671,0.17267393126571667
https://www.justonecookbook.com/cherry-blossom-rice-balls/,0.004790989594138057,-0.014545507424896595,-0.034499738547823504,-0.002023022128961225,0.005016786132363659,0.2364975450081833,0.2590163934426229,0.2612982744453574,0.1990008326394671,0.17267393126571667
https://www.justonecookbook.com/shibazuke-pickles/,0.01190776672563912,0.03929084262305285,-0.002038622805821177,-0.013338406300717824,-0.011142625775109324,0.2364975450081833,0.2590163934426229,0.2612982744453574,0.1990008326394671,0.17267393126571667
https://www.justonecookbook.com/namasu-daikon-and-carrot-salad/,0.03417779010676141,0.03038291700969596,-0.01639807536581834,0.002465107943337976,-0.023315249645070982,0.0,0.0,0.0,0.0,0.0
https://www.justonecookbook.com/how-to-cook-rice-in-donabe/,-0.110410701823965,0.002651896771012814,0.015845012785243553,-0.02048482237975564,0.0061021088887729565,1.0,0.0,0.2612982744453574,0.1990008326394671,0.17267393126571667
https://www.justonecookbook.com/instant-pot-brown-rice/,-0.08266668822166401,-0.00211797817297145,0.011758148951245925,-0.018659878755526136,-0.0039473329840408215,0.2364975450081833,0.2590163934426229,0.2612982744453574,0.1990008326394671,0.17267393126571667
https://www.justonecookbook.com/onigiri-rice-balls/,0.052335444003276235,0.07008954658843136,0.015359531478218938,-0.03062738429380108,-0.043756251713636896,0.2364975450081833,0.2590163934426229,0.2612982744453574,0.1990008326394671,0.17267393126571667
https://www.justonecookbook.com/chestnut-rice-kurigohan/,0.02889069356602677,-0.01084752296844269,-0.013953594693718247,-0.02797224007330086,0.051404702428396176,0.2364975450081833,0.2590163934426229,0.2612982744453574,0.1990008326394671,0.17267393126571667
https://www.justonecookbook.com/ginger-rice/,-0.024719806841160798,0.04104937375843247,0.017726461165199284,-0.035773831110765084,-0.01517153190072985,0.2364975450081833,0.2590163934426229,0.2612982744453574,0.1990008326394671,0.17267393126571667
https://www.justonecookbook.com/instant-pot-takikomi-gohan/,0.05252862111464719,0.08143334239934308,0.02895544743164658,-0.040601372487704866,-0.03256936421896836,0.2364975450081833,0.2590163934426229,0.2612982744453574,0.1990008326394671,0.17267393126571667
https://www.justonecookbook.com/instant-pot-kuromame/,-0.08914523687814815,0.0002898503243914785,0.01290061014756517,-0.01875996562506488,0.000945589405036471,0.0,0.0,0.0,0.0,1.0
https://www.justonecookbook.com/kinpira-gobo-braised-carrot-burdock-root/,0.08722500479430195,0.06148715699970798,0.006748799355160629,-0.06001533252282133,-0.048629354893551656,0.2364975450081833,0.2590163934426229,0.2612982744453574,0.1990008326394671,0.17267393126571667
https://www.justonecookbook.com/spinach-with-sesame-miso-sauce/,0.045834812563836445,0.046288666222718725,-0.005186747142099325,-0.039814903032029364,-0.01802812602024943,0.2364975450081833,0.2590163934426229,0.2612982744453574,0.1990008326394671,0.17267393126571667
https://www.justonecookbook.com/okra-ohitashi/,0.14495012021070716,0.14945340080124678,0.03119607075652281,-0.06969889726969214,-0.08227313559599365,0.2364975450081833,0.2590163934426229,0.2612982744453574,0.1990008326394671,0.17267393126571667
https://www.justonecookbook.com/dinner-rolls/,-0.020891935151796166,-0.05296751521117729,0.021066857548846688,-0.030240055158774027,-0.014737483418630593,0.2364975450081833,0.2590163934426229,0.2612982744453574,0.1990008326394671,0.17267393126571667
https://www.justonecookbook.com/spinach-ohitashi-japanese-spinach-salad-with-bonito-flakes/,0.0657367305057429,0.08150413457441559,-0.004186296977698676,-0.04218392923068353,-0.034158197387890936,0.2364975450081833,0.2590163934426229,0.2612982744453574,0.1990008326394671,0.17267393126571667
https://www.justonecookbook.com/grilled-corn-with-miso-butter/,0.01098720980168207,-0.029904312199543787,0.010547048104818322,-0.005053605287966082,0.007903001192200483,0.2364975450081833,0.2590163934426229,0.2612982744453574,0.1990008326394671,0.17267393126571667
https://www.justonecookbook.com/onsen-tamago/,0.09792551555219768,0.09055201547918575,0.041237635422490794,-0.038708085747520236,-0.05705995137754294,0.2364975450081833,0.2590163934426229,0.2612982744453574,0.1990008326394671,0.17267393126571667
https://www.justonecookbook.com/japanese-turnips-with-soboro-ankake-sauce/,0.0494909915788702,0.03715252479506338,0.02459947221323707,-0.033325394297183515,-0.00811749099623581,0.2364975450081833,0.2590163934426229,0.2612982744453574,0.1990008326394671,0.17267393126571667
https://www.justonecookbook.com/mashed-potatoes-with-shio-koji/,-0.0008326703473283981,-0.041869254946421325,0.019831495564181158,-0.0026531502645621096,-0.017146646052956942,0.2364975450081833,0.2590163934426229,0.2612982744453574,0.1990008326394671,0.17267393126571667
https://www.justonecookbook.com/baby-sardine-tsukudani/,-0.0006035310605817018,0.02696447724738074,-0.012760907822372294,-0.04176758745995448,-0.008268655185174124,0.2364975450081833,0.2590163934426229,0.2612982744453574,0.1990008326394671,0.17267393126571667
https://www.justonecookbook.com/daikon-and-cucumber-salad-with-shio-koji/,0.03723470998554643,0.04139325268506302,-0.015435314501244737,0.008565575430397567,0.01711002474390554,0.2364975450081833,0.2590163934426229,0.2612982744453574,0.1990008326394671,0.17267393126571667
https://www.justonecookbook.com/popovers-with-strawberry-butter/,0.01438536812504961,-0.06097794903299645,0.04488774881036267,-0.018182607121694398,-0.033975601303057705,0.2364975450081833,0.2590163934426229,0.2612982744453574,0.1990008326394671,0.17267393126571667
https://www.justonecookbook.com/miso-glazed-eggplant/,0.01258624753874409,0.012060696709372107,-0.031540170906673014,0.011671155789848333,-0.0035134268608267073,0.2364975450081833,0.2590163934426229,0.2612982744453574,0.1990008326394671,0.17267393126571667
https://www.justonecookbook.com/sansai-gohan/,0.050922100529662374,0.09620357251887157,0.018937598652480937,-0.062356578878454694,-0.03635014225325022,0.2364975450081833,0.2590163934426229,0.2612982744453574,0.1990008326394671,0.17267393126571667
https://www.justonecookbook.com/pickled-cucumbers/,-0.01533581637992235,0.013832022163199814,-0.00551719198560427,0.008929217016493287,0.003842595258342053,0.2364975450081833,0.2590163934426229,0.2612982744453574,0.1990008326394671,0.17267393126571667
https://www.justonecookbook.com/chikuwa-cucumber/,0.11190706483305078,0.03812609750322912,-0.022539154733973974,0.05366974165706438,0.03062744146359891,0.2364975450081833,0.2590163934426229,0.2612982744453574,0.1990008326394671,0.17267393126571667
https://www.justonecookbook.com/broccoli-blanched-with-sesame-oil/,-0.03576812878215028,0.0009055975183887828,-0.0056850518773775725,-0.016260820094056036,0.007063900877549576,0.2364975450081833,0.2590163934426229,0.2612982744453574,0.1990008326394671,0.17267393126571667
https://www.justonecookbook.com/simmered-kiriboshi-daikon/,0.07471861334952412,0.05996179640117175,0.02150869672433092,-0.052791557341344074,-0.046256240867388214,0.2364975450081833,0.2590163934426229,0.2612982744453574,0.1990008326394671,0.17267393126571667
https://www.justonecookbook.com/tai-meshi-with-leftover-baked-sea-bream/,0.05889874365137557,0.05251920232845894,0.048533273456384106,0.008299816748929307,-0.004343967824348826,1.0,0.0,0.0,0.0,0.0
https://www.justonecookbook.com/mame-gohan-green-pea-rice/,0.13360969801087008,0.1062575839104209,-0.006171935815865852,-0.042728477811859976,-0.00034418560165842057,0.2364975450081833,0.2590163934426229,0.2612982744453574,0.1990008326394671,0.17267393126571667
https://www.justonecookbook.com/how-to-make-octopus-sausage-tako-sausage/,-0.04539246533077031,-0.0038650640363003023,-0.029435110134765238,-0.018906172031303747,0.012856972654659463,0.2364975450081833,0.2590163934426229,0.2612982744453574,0.1990008326394671,0.17267393126571667
https://www.justonecookbook.com/souffle-pancake/,0.07795442220445863,-0.10487953053274301,0.028729439960755172,-0.03915808302856764,-0.04839774833918981,0.2364975450081833,0.2590163934426229,0.2612982744453574,0.1990008326394671,0.17267393126571667
https://www.justonecookbook.com/rice-porridge-okayu/,0.025657026035718233,0.015493135318266857,0.0010453834340848642,-0.011009119090018612,-0.00037358274324516367,0.2364975450081833,0.2590163934426229,0.2612982744453574,0.1990008326394671,0.17267393126571667
https://www.justonecookbook.com/curry-bread/,0.08249789857625897,-0.07853719458245377,0.04344889250550816,-0.04607190503919198,-0.050450271478008776,0.2364975450081833,0.2590163934426229,0.2612982744453574,0.1990008326394671,0.17267393126571667
https://www.justonecookbook.com/spinach-and-feta-turnovers-guest-post-by-katherine-martinelli/,0.010721499640033319,-0.03090694608700054,0.01765915611059608,0.013701178536166052,-0.028518020122188355,0.2364975450081833,0.2590163934426229,0.2612982744453574,0.1990008326394671,0.17267393126571667
https://www.justonecookbook.com/how-to-cook-salmon-salted-salmon/,0.017786106644132504,0.003555609862965812,0.036559656863978336,-3.178768989462801e-05,-0.024231231241126337,0.2364975450081833,0.2590163934426229,0.2612982744453574,0.1990008326394671,0.17267393126571667
https://www.justonecookbook.com/blueberry-creme-fraiche-scones/,0.017308647074581768,-0.05283079349130265,0.04868522478579502,-0.01780847548715557,-0.03311755061755225,0.2364975450081833,0.2590163934426229,0.2612982744453574,0.1990008326394671,0.17267393126571667
https://www.justonecookbook.com/melon-pan/,0.05203514233336829,-0.08665732722948627,0.05273889384383004,-0.03543816592160166,-0.029282754706212544,0.2364975450081833,0.2590163934426229,0.2612982744453574,0.1990008326394671,0.17267393126571667
https://www.justonecookbook.com/french-toast/,0.08090408685792412,-0.08812959544669005,0.04652715428355273,-0.018544948135726404,-0.050875015222112734,0.2364975450081833,0.2590163934426229,0.2612982744453574,0.1990008326394671,0.17267393126571667
https://www.justonecookbook.com/avocado-toast/,0.05142518390612397,0.014008732224776168,0.006934747237547179,0.00636451069675886,-0.007459655794953018,0.2364975450081833,0.2590163934426229,0.2612982744453574,0.1990008326394671,0.17267393126571667
https://www.justonecookbook.com/matcha-souffle-pancake/,0.07795442220445863,-0.10487953053274301,0.028729439960755172,-0.03915808302856764,-0.04839774833918981,0.2364975450081833,0.2590163934426229,0.2612982744453574,0.1990008326394671,0.17267393126571667
https://www.justonecookbook.com/nutella-banana-bread/,0.023906660324788324,-0.06666481818065047,0.03245742516606032,-0.01587338270376651,-0.03347742211444086,0.2364975450081833,0.2590163934426229,0.2612982744453574,0.1990008326394671,0.17267393126571667
https://www.justonecookbook.com/buttermilk-pancakes/,0.06586431069934115,-0.07912208119046263,0.03459520144704696,-0.022567648280349222,-0.04793490194066467,0.2364975450081833,0.2590163934426229,0.2612982744453574,0.1990008326394671,0.17267393126571667
https://www.justonecookbook.com/red-bean-pancake/,0.05129005227754213,-0.05745497659538677,0.012251683178556242,-0.016680908560905757,-0.011177669647707044,0.2364975450081833,0.2590163934426229,0.2612982744453574,0.1990008326394671,0.17267393126571667
https://www.justonecookbook.com/strawberry-sauce-strawberry-compote/,0.002473062273878609,-0.02975484806183715,0.0019976262230290247,-0.019446304006659563,0.02158592635066193,0.2364975450081833,0.2590163934426229,0.2612982744453574,0.1990008326394671,0.17267393126571667
https://www.justonecookbook.com/anpan/,0.05321520286604173,-0.06512672759154597,0.027665824211829153,-0.02672932572290345,-0.00017435898501254614,0.2364975450081833,0.2590163934426229,0.2612982744453574,0.1990008326394671,0.17267393126571667
https://www.justonecookbook.com/banana-muffins/,0.005724625549902157,-0.06018627003826311,0.0460265036958285,-0.01869828455169321,-0.030425112944550938,0.2364975450081833,0.2590163934426229,0.2612982744453574,0.1990008326394671,0.17267393126571667
https://www.justonecookbook.com/ogura-toast/,0.06588142859772245,-0.04990055337168335,-0.014728661343874239,-0.0034744206239153263,0.026365038456797045,0.2364975450081833,0.2590163934426229,0.2612982744453574,0.1990008326394671,0.17267393126571667
https://www.spicetheplate.com/chinese/chinese-pork-rib-rice-bowl/,0.019459820674150013,0.017564898811999928,0.011549980361686326,0.013263628018778725,0.022354742373269253,0.2364975450081833,0.2590163934426229,0.2612982744453574,0.1990008326394671,0.17267393126571667
https://www.spicetheplate.com/rice-noodle/cantonese-casserole-rice/,-0.026717524016450556,-0.0008633854348666542,0.016690848162764872,-0.010327736443283619,0.01818877138700175,0.2364975450081833,0.2590163934426229,0.2612982744453574,0.1990008326394671,0.17267393126571667
https://www.spicetheplate.com/rice-noodle/better-than-takeout-beef-lo-mein/,-0.010809459579757878,0.010821420237041517,0.0055886321929436555,0.014981596607185543,0.01814134488505191,0.2364975450081833,0.2590163934426229,0.2612982744453574,0.1990008326394671,0.17267393126571667
https://www.spicetheplate.com/pork/braised-pork-belly/,0.009361203010047751,-0.01529083862831671,-0.007649925262371395,0.006367045375730021,0.005641175164505544,0.2364975450081833,0.2590163934426229,0.2612982744453574,0.1990008326394671,0.17267393126571667
https://www.spicetheplate.com/rice-noodle/tasty-spam-fried-rice/,0.06324761697586322,-0.021732486672983588,0.01486898312286426,0.017149831092224472,0.06495436132191296,0.2364975450081833,0.2590163934426229,0.2612982744453574,0.1990008326394671,0.17267393126571667
https://www.spicetheplate.com/rice-noodle/tuna-kimchi-fried-rice/,-0.014120573723874954,0.014472777573306998,0.01459822358754769,-0.01613559288315309,0.0004986348679614828,0.2364975450081833,0.2590163934426229,0.2612982744453574,0.1990008326394671,0.17267393126571667
https://www.spicetheplate.com/rice-noodle/chili-oil-noodles-made-with-wonton-wrap/,0.014617279087570515,0.05968624344302296,-0.000371466313368406,0.005984352173701889,0.002839942623692473,0.2364975450081833,0.2590163934426229,0.2612982744453574,0.1990008326394671,0.17267393126571667
https://www.spicetheplate.com/recipes/stir-fried-ramen-with-beef/,0.01670664643344568,0.01978401890579671,0.010048065736663822,0.02642248739387599,0.014628629563904491,0.2364975450081833,0.2590163934426229,0.2612982744453574,0.1990008326394671,0.17267393126571667
https://www.spicetheplate.com/chicken/sriracha-chicken-avocado-bowl/,-0.007428324780083992,-0.0036398906702893013,0.006776003346801667,0.0038426010903624104,-0.00505005382048419,0.2364975450081833,0.2590163934426229,0.2612982744453574,0.1990008326394671,0.17267393126571667
