url,0,1,2,3,4,high_carb,high_protein,high_fat,high_sodium,high_sugar
https://glebekitchen.com/miso-chicken-with-maple-and-ginger/,0.7979363434341095,0.3114911921527514,0.14683384914885797,-1.1940250795923315,-1.187467922079113,-0.663548093614435,2.0181835771888283,-0.7105396770094238,-0.5994318570462771,-0.551257766599824
https://glebekitchen.com/tonkotsu-ramen-home/,1.2747857571183112,1.286317412878887,2.06658997971233,-0.2402595147938697,-0.5117338080065063,2.14218121571719,2.0181835771888283,2.008726948526641,2.4127759266883624,2.641220464242846
https://glebekitchen.com/garlic-ginger-grilled-chicken/,-0.5652513015496545,0.08016910004261228,-0.41723099289349774,0.025073547878849054,-0.5857873801844873,-0.663548093614435,2.0181835771888283,2.008726948526641,2.4127759266883624,-0.551257766599824
https://glebekitchen.com/tonkotsu-ramen-broth-home/,1.1187629464883653,0.38858105985498914,3.1245767783734926,2.9209958250562207,1.208650702086576,-0.663548093614435,-1.511932150378754e-16,-1.5094962088824465e-16,-0.5994318570462771,0.0
https://glebekitchen.com/japanese-chicken-curry-curry-rice/,0.2412120941864376,0.218309214061048,-1.8225301203545763,0.08966822266022083,-1.1032421858824626,-0.663548093614435,-0.705471250433263,-0.7105396770094238,2.4127759266883624,-0.551257766599824
https://glebekitchen.com/chicken-karaage-japanese-fried-chicken/,0.4703350943545887,0.028878074492202702,1.0376704088260715,0.13617845145778268,0.5144644974540828,-0.663548093614435,2.0181835771888283,2.008726948526641,2.4127759266883624,-0.551257766599824
https://glebekitchen.com/curry-chicken-ramen/,0.4941381498558352,0.7188532727817529,1.218973536373722,-0.20421840799116453,-0.08333731994114618,2.14218121571719,2.0181835771888283,2.008726948526641,-0.5994318570462771,-0.551257766599824
https://glebekitchen.com/sous-vide-steak-tataki-style/,0.4453805775563106,-0.13777119039765767,-0.3981138687706476,0.294873536457455,-0.8747082249463937,-0.663548093614435,-0.705471250433263,-0.7105396770094238,-0.5994318570462771,-0.551257766599824
https://glebekitchen.com/momofuku-pork-belly/,-0.9914831780638202,0.27271964138717,1.0208879240033955,0.8302504341697984,0.8767578937153361,-0.663548093614435,-0.705471250433263,2.008726948526641,2.4127759266883624,-0.551257766599824
https://glebekitchen.com/gyudon-japanese-beef-bowl/,1.6586787859517818,2.217903451271387,0.7949004266224545,-2.4286048782460004,-1.0274399740405902,-0.663548093614435,2.0181835771888283,-0.7105396770094238,2.4127759266883624,2.641220464242846
https://glebekitchen.com/japadog-style-terimayo-hot-dog/,-0.5108056662148416,-0.23402825657027063,0.4975124772492245,-0.7615130694948924,-0.4208520363047583,2.14218121571719,-0.705471250433263,2.008726948526641,2.4127759266883624,2.641220464242846
https://glebekitchen.com/japanese-miso-soup/,2.2820270275046104,3.6239764646808816,1.0020838250839035,-2.3158703769335163,-1.8819598835431202,-0.663548093614435,-0.705471250433263,-0.7105396770094238,2.4127759266883624,-0.551257766599824
https://glebekitchen.com/japanese-chicken-yakitori/,-0.976825970129325,0.38996669262544253,0.46031539774920266,-0.5895240878580749,-0.057275228431544964,-0.663548093614435,-0.705471250433263,-0.7105396770094238,-0.5994318570462771,-0.551257766599824
https://glebekitchen.com/miso-ramen-with-chashu-pork/,1.2537274774519709,1.205465928110523,2.1577072306370813,-0.13537350786043048,-0.3465295739732723,2.14218121571719,2.0181835771888283,2.008726948526641,2.4127759266883624,2.641220464242846
https://glebekitchen.com/30-minute-curry-ramen/,0.8511669628873566,0.8210797516223725,1.6189016376188987,-0.3874306401900868,-0.31682900129274516,-0.663548093614435,2.0181835771888283,-0.7105396770094238,2.4127759266883624,-0.551257766599824
https://glebekitchen.com/japanese-gyoza/,0.4783232082800603,1.5678974182195151,0.4890848226316978,-0.1450507748984495,0.6969000720911445,-0.663548093614435,-0.705471250433263,-0.7105396770094238,-0.5994318570462771,0.0
https://glebekitchen.com/vietnamese-chicken-curry-ca-ri-ga/,-0.2501456854105852,0.16793326927243757,-0.4338678931784247,0.0858787417086773,-0.0314431031046599,2.14218121571719,2.0181835771888283,2.008726948526641,2.4127759266883624,-0.551257766599824
https://glebekitchen.com/asian-grilled-chicken-wings/,1.5685399627218168,1.1782585542550732,-1.848300678875626,1.2666622096376623,-1.2047080909142849,-7.78746320021402e-17,-0.705471250433263,-0.7105396770094238,2.4127759266883624,0.0
https://glebekitchen.com/carpaccio-asian-style/,-0.4376825884452567,0.09382483355217915,-1.0826433075423765,0.5648791223886687,0.326242123777091,-0.663548093614435,-0.705471250433263,-0.7105396770094238,-0.5994318570462771,0.0
https://glebekitchen.com/vietnamese-grilled-chicken-with-ginger-soy-noodle-salad/,0.6820181295327028,0.5792530477392054,-1.7392629163767028,0.5264649325754094,-0.24682144150275218,2.14218121571719,2.0181835771888283,2.008726948526641,2.4127759266883624,2.641220464242846
https://glebekitchen.com/vietnamese-lemongrass-chicken-noodle-bowl/,1.1368222051508097,0.6454301768382901,-1.6228049591313676,0.2994705963765489,-0.11270439557660657,2.14218121571719,-0.705471250433263,-0.7105396770094238,2.4127759266883624,2.641220464242846
https://glebekitchen.com/vietnamese-spring-rolls-with-peanut-sauce/,0.9856676945463057,-0.22733778866807955,-0.0666694317702336,-0.19839069497223977,-0.6195385637734896,2.14218121571719,-0.705471250433263,-0.7105396770094238,-0.5994318570462771,-0.551257766599824
https://glebekitchen.com/nuoc-cham-vietnamese-dipping-sauce/,0.3685462820155383,-0.5291637164255003,-1.4519884115025463,1.2259023600701868,-0.2953236665464174,2.14218121571719,-0.705471250433263,-0.7105396770094238,2.4127759266883624,2.641220464242846
https://glebekitchen.com/salmon-with-rice-noodles/,-0.3243896009305181,-0.3728019840412327,-0.33314131530022156,0.5436992994531424,-0.5591024928259363,-0.663548093614435,2.0181835771888283,-0.7105396770094238,-0.5994318570462771,-0.551257766599824
https://glebekitchen.com/vietnamese-noodle-salad/,0.7839384913956611,0.7297411692968495,-1.1645137123009062,0.3729053994871579,-1.1089181526470357,2.14218121571719,2.0181835771888283,2.008726948526641,2.4127759266883624,2.641220464242846
https://glebekitchen.com/vietnamese-sate-sauce/,-0.6683710586421999,0.3283950738027906,-0.3463225072876608,0.2772203598093743,0.023156209727665876,2.14218121571719,-0.705471250433263,2.008726948526641,2.4127759266883624,2.641220464242846
https://glebekitchen.com/authentic-pho-ga-vietnamese-chicken-noodle-soup/,0.03897636453358193,0.4737862570866434,0.538241338853834,-0.05830267673168288,0.6546651065880492,2.14218121571719,2.0181835771888283,2.008726948526641,2.4127759266883624,-0.551257766599824
https://glebekitchen.com/bun-cha-vietnamese-grilled-pork-with-rice-noodles/,1.6883277260871359,0.7107948586502002,-2.13168314584888,0.3893814195127276,-0.7934433761861028,-0.663548093614435,2.0181835771888283,2.008726948526641,2.4127759266883624,2.641220464242846
https://glebekitchen.com/vietnamese-ginger-beef-stir-fry/,-0.9798320538854571,0.13878756067569098,-0.01076083703067772,0.20618140144118505,0.4138586760961852,-0.663548093614435,2.0181835771888283,2.008726948526641,2.4127759266883624,-0.551257766599824
https://glebekitchen.com/beef-pho-easy-vietnamese-pho-bo/,0.637811792149756,0.2721877706438657,-0.5560818676832336,0.025790881895192283,0.6005008074178771,2.14218121571719,2.0181835771888283,2.008726948526641,2.4127759266883624,2.641220464242846
https://glebekitchen.com/vietnamese-banh-mi-gochujang-mayo/,-0.12163663965659129,0.7300352818705,0.19810102246726738,0.4814325302876955,0.9033128017901406,-7.78746320021402e-17,-0.705471250433263,2.008726948526641,-0.5994318570462771,0.0
https://glebekitchen.com/bo-kho-vietnamese-beef-stew-with-egg-noodles/,0.46003499486325405,0.4047635679923277,-0.6106886240352757,0.9008930265088857,0.2950494890945203,2.14218121571719,2.0181835771888283,2.008726948526641,2.4127759266883624,-0.551257766599824
https://glebekitchen.com/vietnamese-beef-noodle-salad/,1.247032005727051,0.5629971825449717,-1.763930009920831,0.30376310151951674,-0.5334403706730383,2.14218121571719,2.0181835771888283,-0.7105396770094238,2.4127759266883624,2.641220464242846
https://glebekitchen.com/bun-thit-nuong-vietnamese-grilled-pork-with-rice-noodles/,-0.09479155905624836,0.08074116200579938,-0.4604402926653123,0.5283635101376238,0.06293151790720651,2.14218121571719,-0.705471250433263,-0.7105396770094238,2.4127759266883624,-0.551257766599824
https://glebekitchen.com/spicy-beef-noodle-soup-vietnamese-style/,1.1488773360608837,0.542415092395357,-0.5378383797624122,1.0107633446680393,0.7033629155364621,2.14218121571719,2.0181835771888283,-0.7105396770094238,2.4127759266883624,-0.551257766599824
https://glebekitchen.com/shaking-beef-vietnamese-bo-luc-lac/,0.005683630050253763,0.27571598307920153,0.12070875463338704,0.49260066676392494,0.2926572056476732,-0.663548093614435,2.0181835771888283,-0.7105396770094238,2.4127759266883624,2.641220464242846
https://glebekitchen.com/vindaloo-paste/,-0.9147216018291414,0.06683210139663018,-1.0250121171866426,0.29861403395376207,-0.42174748505316145,-0.663548093614435,-0.705471250433263,2.008726948526641,-0.5994318570462771,2.641220464242846
https://glebekitchen.com/beef-rogan-josh/,0.23255763965636017,-0.4214500160386094,-2.1891828710588515,0.8320008307868393,-0.6483565908412747,-0.663548093614435,2.0181835771888283,2.008726948526641,-0.5994318570462771,-0.551257766599824
https://glebekitchen.com/achari-chicken-curry-indian-hotel-style/,0.08115354307744131,-0.07341648618660027,-2.293326215289601,0.46613159429549933,-0.41197952300811586,-0.663548093614435,2.0181835771888283,2.008726948526641,2.4127759266883624,-0.551257766599824
https://glebekitchen.com/indian-restaurant-hariyali-chicken-curry/,-0.19030123756702572,0.056808979287750326,-1.9632550162111921,0.5342268097857233,-0.36177957513163017,-0.663548093614435,2.0181835771888283,2.008726948526641,2.4127759266883624,-0.551257766599824
https://glebekitchen.com/ceylon-chicken-curry-indian-hotel-style/,0.27037058073104714,-0.5965812878239376,-1.956920818839417,0.1756376628225321,-0.3710508932862605,-0.663548093614435,2.0181835771888283,2.008726948526641,2.4127759266883624,2.641220464242846
https://glebekitchen.com/lemon-coriander-chicken-curry/,0.1743970545169061,-0.32081239241828385,-1.8277595076770488,0.8344540324425022,-0.8364916867355902,-0.663548093614435,-0.705471250433263,2.008726948526641,-0.5994318570462771,-0.551257766599824
https://glebekitchen.com/lamb-vindaloo-indian-restaurant-style/,0.19876454843220204,0.05774426737000795,-2.0165490939122477,0.6101055745008658,-0.4837411207676229,-0.663548093614435,2.0181835771888283,2.008726948526641,-0.5994318570462771,-0.551257766599824
https://glebekitchen.com/kari-ayam-malaysian-curry-chicken/,0.5437103148172346,-0.451250781214105,-1.123417548256398,0.2998445054287611,0.21644648523846152,-7.78746320021402e-17,-1.511932150378754e-16,-1.5094962088824465e-16,0.0,0.0
https://glebekitchen.com/indian-spiced-chicken-wings-with-tamarind-dipping-sauce/,0.16505393301508164,-0.3730216583078859,-2.012998195800249,0.5357296084670915,-0.7586205963246132,-0.663548093614435,-0.705471250433263,-0.7105396770094238,-0.5994318570462771,2.641220464242846
https://glebekitchen.com/gobi-manchurian-indian-cauliflower-wings/,0.2031334865447304,-0.3805091403074384,-1.0299690631788445,0.4138150451686604,0.7128518180214626,-0.663548093614435,-0.705471250433263,-0.7105396770094238,2.4127759266883624,-0.551257766599824
https://glebekitchen.com/tandoori-marinade/,0.17061855743171964,-0.18823430339822653,-2.706883258184907,0.34132574460140186,-1.018265411839573,-0.663548093614435,-0.705471250433263,2.008726948526641,2.4127759266883624,-0.551257766599824
https://glebekitchen.com/chicken-vindaloo-restaurant-style/,0.25551663333331665,-0.06513555144062409,-2.629810678656938,0.06880291663294935,-0.3535218318817341,-0.663548093614435,-0.705471250433263,2.008726948526641,-0.5994318570462771,-0.551257766599824
https://glebekitchen.com/chicken-tikka/,0.232968459341182,-0.1926650998376071,-2.412434246910717,0.3635634488259636,-1.0081678253875757,-0.663548093614435,-0.705471250433263,-0.7105396770094238,-0.5994318570462771,0.0
https://glebekitchen.com/garam-masala-indias-most-famous-spice-mix/,1.6550581640613085,-1.1768643040538949,-4.206532870831889,1.2596428980623802,-1.513533022403719,-0.663548093614435,-0.705471250433263,-0.7105396770094238,-0.5994318570462771,0.0
https://glebekitchen.com/indian-restaurant-curry-base/,-0.6877909017343344,-0.05747031672761517,-1.4828034030125565,0.16832281356855214,-0.730484074555135,-0.663548093614435,-0.705471250433263,-0.7105396770094238,-0.5994318570462771,-0.551257766599824
https://glebekitchen.com/nearly-restaurant-style-chicken-saag-curry/,0.3679643608517952,0.07519981147866235,-2.646774559515252,0.3612066455387931,-1.162122224371143,-0.663548093614435,2.0181835771888283,2.008726948526641,-0.5994318570462771,-0.551257766599824
https://glebekitchen.com/nihari-gosht-indian-beef-stew/,0.8758073747438834,-0.8253558752463165,-2.2257959083508636,0.6316726852816789,-0.469481483151991,-0.663548093614435,2.0181835771888283,2.008726948526641,-0.5994318570462771,-0.551257766599824
https://glebekitchen.com/palak-paneer-indian-restaurant-style-spinach-curry/,0.6685627559826605,0.15013894518591978,-2.8447038868455805,0.6214315522922342,-0.970258453151893,-0.663548093614435,-0.705471250433263,2.008726948526641,-0.5994318570462771,-0.551257766599824
https://glebekitchen.com/tandoori-chicken/,0.3144177068022264,-0.30005184661045187,-2.8103747338403893,0.3216989110269334,-1.2221394168315822,-0.663548093614435,2.0181835771888283,2.008726948526641,2.4127759266883624,0.0
https://glebekitchen.com/bagara-baingan-indian-hotel-style-eggplant-curry/,0.37572088174265744,-0.4981379765423391,-2.3812195324611087,0.004461732186245409,-0.7521122872083081,2.14218121571719,-0.705471250433263,2.008726948526641,2.4127759266883624,2.641220464242846
https://glebekitchen.com/sambar-south-indian-lentil-and-vegetable-stew/,0.5260179460654271,-0.15311572724140318,-2.4310675748023933,0.8674386228477987,0.6180051405924608,2.14218121571719,-0.705471250433263,-0.7105396770094238,-0.5994318570462771,2.641220464242846
https://glebekitchen.com/indian-restaurant-spice-mix/,1.2619616931547357,0.09047896798354577,-4.309775306537246,0.5449292818810495,-2.312693252708438,2.14218121571719,-0.705471250433263,-0.7105396770094238,-0.5994318570462771,-0.551257766599824
https://glebekitchen.com/bombay-potatoes-restaurant-style-bombay-aloo/,-0.004510732724969548,-0.1398041525421511,-2.099366806785877,0.387849838440401,-0.5037978766170589,2.14218121571719,-0.705471250433263,-0.7105396770094238,-0.5994318570462771,-0.551257766599824
https://glebekitchen.com/hariyali-chicken-curry-indian-hotel-style/,-0.03364992848161073,-0.20460758581623104,-2.269053744513134,0.40795122647140264,-0.6615093674221768,-0.663548093614435,2.0181835771888283,2.008726948526641,2.4127759266883624,-0.551257766599824
https://glebekitchen.com/lamb-keema-papadum/,0.6338508862135122,-0.23996853748995395,-2.2592850642830644,1.0326779793313894,-0.6861482316857276,-0.663548093614435,-0.705471250433263,-0.7105396770094238,-0.5994318570462771,-0.551257766599824
https://glebekitchen.com/restaurant-style-chicken-tikka-masala/,0.2568978420228601,-0.6102473255108902,-0.5576669997367552,0.09474061936612757,-0.6029889060255001,-0.663548093614435,-0.705471250433263,2.008726948526641,2.4127759266883624,2.641220464242846
https://glebekitchen.com/dal-palak-indian-spinach-and-lentil-curry/,0.0014148792254378474,-0.05697460407673779,-2.1308493720938486,0.5921394017353315,-0.4982102201999499,-0.663548093614435,-0.705471250433263,-0.7105396770094238,-0.5994318570462771,-0.551257766599824
https://glebekitchen.com/mulligatawny-soup/,-0.6554566615194808,0.055798058168963965,-0.7586285301191296,0.4831346742984657,-0.15090527346313565,-0.663548093614435,2.0181835771888283,-0.7105396770094238,-0.5994318570462771,-0.551257766599824
https://glebekitchen.com/indian-restaurant-chicken-jalfrezi/,0.30766494360850316,-0.05141298025970948,-2.0064440555543808,1.024346133380394,-0.20955260546169593,-0.663548093614435,2.0181835771888283,2.008726948526641,2.4127759266883624,-0.551257766599824
https://glebekitchen.com/lamb-or-beef-keema/,0.4650360874141073,-0.3246934636974345,-2.174330222951564,0.9004842873009552,-0.2281292785941903,-0.663548093614435,2.0181835771888283,2.008726948526641,-0.5994318570462771,0.0
https://glebekitchen.com/indian-restaurant-lamb-curry/,0.48823135417498104,-0.2557266762862373,-2.1227461988779344,1.0544454022292213,-0.3419737540457769,-0.663548093614435,-0.705471250433263,2.008726948526641,-0.5994318570462771,-0.551257766599824
https://glebekitchen.com/naga-chicken-tikka-curry-indian-hotel-style/,0.09346435831449207,-0.3946573185838418,-1.5774019909516703,0.20211432617316039,-0.35824707424314023,-0.663548093614435,2.0181835771888283,2.008726948526641,2.4127759266883624,-0.551257766599824
https://glebekitchen.com/restaurant-style-pathia-curry/,0.2975126253129528,-0.1152796939358823,-2.138199537172228,0.482494694074319,-0.30182670668312594,-0.663548093614435,2.0181835771888283,2.008726948526641,2.4127759266883624,-0.551257766599824
https://glebekitchen.com/gunpowder-potatoes/,0.582668035936967,-0.49468091510884094,-2.603630092928787,1.002841060991474,-0.5566907214419894,2.14218121571719,-0.705471250433263,2.008726948526641,2.4127759266883624,-0.551257766599824
https://glebekitchen.com/nearly-restaurant-style-chettinad-chicken-curry/,0.39243266897416684,-0.29768702069022485,-2.228122024531162,0.41260959253452684,-0.9689148219255066,-0.663548093614435,2.0181835771888283,2.008726948526641,2.4127759266883624,-0.551257766599824
https://glebekitchen.com/bengali-masoor-dal/,-1.0199754605320888,-0.07699199008890137,-0.45459125499826725,0.19044644494736337,-0.1546524293160102,-0.663548093614435,-0.705471250433263,-0.7105396770094238,-0.5994318570462771,-0.551257766599824
https://glebekitchen.com/indian-restaurant-vindaloo-curry/,0.05249939359189325,0.04699182584023694,-1.6833008880771985,0.7727000317053,-0.23752644781700535,-0.663548093614435,2.0181835771888283,-0.7105396770094238,2.4127759266883624,-0.551257766599824
https://glebekitchen.com/shahi-chicken-korma/,0.3056003407395145,-0.7185072927701104,-1.1249177983280323,0.34775869196519654,-0.7967888243671378,-0.663548093614435,2.0181835771888283,2.008726948526641,-0.5994318570462771,-0.551257766599824
https://glebekitchen.com/saag-aloo-indian-restaurant-style/,0.6889490306536373,-0.1811058240620811,-2.4470756829680425,0.9901834521453222,-0.615876510431328,-0.663548093614435,-0.705471250433263,-0.7105396770094238,2.4127759266883624,-0.551257766599824
https://glebekitchen.com/chole-masala-punjabi-chickpea-curry/,0.30051489389078984,-0.5231213213772716,-2.5817801921354424,0.902871144101122,-0.4240315133086753,-0.663548093614435,-0.705471250433263,2.008726948526641,2.4127759266883624,2.641220464242846
https://glebekitchen.com/aloo-keema-indian-restaurant-potato-and-beef-curry/,-0.29353564061269033,-0.039020625934902256,-1.6064127421616055,0.4064845129970456,-0.19994486538026238,-0.663548093614435,2.0181835771888283,2.008726948526641,2.4127759266883624,-0.551257766599824
https://glebekitchen.com/kerala-fried-chicken/,0.7394616464103722,-0.2929226852703096,-2.4404148568806487,0.2481724866101037,-0.6047330618892883,2.14218121571719,2.0181835771888283,-0.7105396770094238,2.4127759266883624,-0.551257766599824
https://glebekitchen.com/easy-mint-raita-indian-mint-sauce/,-0.03477856960413657,-1.0127543212660062,-1.4193708812609638,0.1260083126512206,-1.2265279464531083,-0.663548093614435,-0.705471250433263,-0.7105396770094238,-0.5994318570462771,-0.551257766599824
https://glebekitchen.com/chicken-masala-indian-restaurant-style/,0.08097031836665451,-0.35792262268131425,-2.086455598191291,0.5958353134111937,-0.45771689445549635,-0.663548093614435,2.0181835771888283,2.008726948526641,-0.5994318570462771,-0.551257766599824
https://glebekitchen.com/indian-lentil-curry-with-spinach/,-0.11547330997266544,-0.0045532195590474635,-1.7930104394686683,0.7040565221477191,-0.3203579917051124,-0.663548093614435,-0.705471250433263,-0.7105396770094238,-0.5994318570462771,-0.551257766599824
https://glebekitchen.com/garlic-chilli-chicken-indian-restaurant-style/,0.28177203116475835,-0.30065884410016025,-2.124320534663964,0.9428335721169556,-0.18306374577741147,-0.663548093614435,-0.705471250433263,2.008726948526641,2.4127759266883624,-0.551257766599824
https://glebekitchen.com/homemade-curry-powder/,1.046369015251083,-0.5346091047863026,-3.671341476104522,0.6093775941393869,-1.4137776132651854,2.14218121571719,-0.705471250433263,-0.7105396770094238,-0.5994318570462771,-0.551257766599824
https://glebekitchen.com/karahi-chicken-indian-restaurant-style/,-0.04672642168213505,-0.1622191382849764,-1.561981197753168,0.46935183287206955,-0.36536011755220404,-0.663548093614435,2.0181835771888283,2.008726948526641,2.4127759266883624,-0.551257766599824
https://glebekitchen.com/garlic-ginger-paste/,-1.4712681742145888,-0.054595907666948294,-0.0073190970473604525,-0.29476699525479344,-0.14755748887594555,-0.663548093614435,-0.705471250433263,-0.7105396770094238,-0.5994318570462771,-0.551257766599824
https://glebekitchen.com/papadum-with-red-onion-chutney-and-mint-raita/,0.9140400911303089,-0.7115983097014622,-2.2946230753363235,0.7328648814461806,-0.9920002847544879,-7.78746320021402e-17,-1.511932150378754e-16,-1.5094962088824465e-16,0.0,0.0
https://glebekitchen.com/chicken-bhuna-curry/,0.7513651845155783,-0.5279032297922914,-3.119314137533446,0.7613478986502922,-0.8032559594056623,-0.663548093614435,2.0181835771888283,-0.7105396770094238,-0.5994318570462771,2.641220464242846
https://glebekitchen.com/tarka-dhal/,0.37415242597834253,-0.3651024163229987,-2.3584932986548215,0.6776837112997044,-0.7836263358878982,-0.663548093614435,-0.705471250433263,-0.7105396770094238,-0.5994318570462771,-0.551257766599824
https://glebekitchen.com/chaat-masala-indian-street-food-spice-mix/,0.35825633760694137,-0.12562325668390242,-3.176491140860643,0.9052636688173789,-0.6913072741232636,-0.663548093614435,-0.705471250433263,-0.7105396770094238,2.4127759266883624,-0.551257766599824
https://glebekitchen.com/keema-matar-nearly-restaurant-style/,0.4463308178254187,-0.06558285456157462,-2.3303539881900073,0.4731551341124021,-0.26345665129828616,-0.663548093614435,2.0181835771888283,2.008726948526641,-0.5994318570462771,-0.551257766599824
https://glebekitchen.com/pilau-rice-indian-restaurant-style/,1.7538754960840115,-0.9332690609915723,-4.717882391807664,0.9350229404063399,-1.475861573794685,-0.663548093614435,-0.705471250433263,-0.7105396770094238,-0.5994318570462771,-0.551257766599824
https://glebekitchen.com/dal-tadka-restaurant-style/,0.45978325074420484,-0.6071817657509502,-2.8337845533694863,0.8979221937234596,-0.4212457985985181,-0.663548093614435,-0.705471250433263,-0.7105396770094238,-0.5994318570462771,-0.551257766599824
https://glebekitchen.com/eggplant-curry-baingan-masala-restaurant-style/,0.4262316838189471,-0.09090787014234149,-2.4404938153197366,0.9876820787254265,-0.15980808253227316,-0.663548093614435,-0.705471250433263,-0.7105396770094238,2.4127759266883624,2.641220464242846
https://glebekitchen.com/restaurant-style-aloo-chaat-chicken-curry/,0.20187188108824178,-0.06099822528943454,-2.1550829212270926,0.6243770795669475,-0.36067190814231853,2.14218121571719,2.0181835771888283,2.008726948526641,2.4127759266883624,-0.551257766599824
https://glebekitchen.com/chicken-65-south-indian-fried-chicken-bites/,0.6697050075792399,-0.15080169814416533,-2.4990547355765518,0.4612254891393799,-0.5236433650216772,-0.663548093614435,2.0181835771888283,-0.7105396770094238,-0.5994318570462771,0.0
https://glebekitchen.com/seekh-kebab-spicy-lamb-skewers/,0.5251037663170006,0.025484499236948396,-2.3432729451907313,1.3490655115992194,-0.7918265313910197,-0.663548093614435,-0.705471250433263,2.008726948526641,2.4127759266883624,-0.551257766599824
https://glebekitchen.com/nearly-indian-restaurant-style-chicken-tikka-masala/,0.2976038581785693,-0.27460258492685297,-2.0409667212097933,0.1707466990836366,-1.2148131876737363,-0.663548093614435,2.0181835771888283,2.008726948526641,2.4127759266883624,-0.551257766599824
https://glebekitchen.com/chana-masala/,0.475191156991298,0.13336703784763795,-3.014420688896841,0.7353391229007943,-1.3209833355417457,-0.663548093614435,-0.705471250433263,-0.7105396770094238,-0.5994318570462771,-0.551257766599824
https://glebekitchen.com/chana-chaat-indian-chickpea-salad/,0.3002150643987476,0.09765991327818435,-2.3333706957051303,1.112390562860357,0.0036371951818806353,-0.663548093614435,-1.511932150378754e-16,-0.7105396770094238,-0.5994318570462771,-0.551257766599824
https://glebekitchen.com/chicken-tikka-jalfrezi-indian-hotel-style/,-0.030472192419421746,-0.08744941504868131,-1.8015133491494641,0.7153665265637601,-0.10591111730425251,-0.663548093614435,2.0181835771888283,2.008726948526641,2.4127759266883624,2.641220464242846
https://glebekitchen.com/mint-coriander-chutney/,-0.2778016985332295,-0.06907540341709814,-1.818308413605383,0.8187614073810524,-0.43689755979216527,-0.663548093614435,-0.705471250433263,-1.5094962088824465e-16,-0.5994318570462771,-0.551257766599824
https://glebekitchen.com/indian-restaurant-dhansak-curry/,0.23471837831213868,0.01588889571032851,-2.081453208147395,0.6629056841008184,-0.334481099565279,-0.663548093614435,2.0181835771888283,2.008726948526641,2.4127759266883624,-0.551257766599824
https://glebekitchen.com/chicken-biryani-indian-restaurant-style/,0.8300313509397458,-0.20540160700125826,-3.1858774948444033,0.4928911488060412,-1.478295835811501,2.14218121571719,-0.705471250433263,-0.7105396770094238,2.4127759266883624,-0.551257766599824
https://glebekitchen.com/indian-restaurant-dopiaza-curry/,-0.002102274825209919,0.01952835282068483,-1.6983227816401667,0.8034729167958532,-0.12635578058097452,-0.663548093614435,-0.705471250433263,-0.7105396770094238,2.4127759266883624,-0.551257766599824
https://glebekitchen.com/indian-restaurant-bhuna-curry/,0.27835795567471217,0.002247951225041196,-2.0169350928464134,1.1323760612846583,-0.18669265204678312,-0.663548093614435,2.0181835771888283,2.008726948526641,2.4127759266883624,-0.551257766599824
https://glebekitchen.com/butter-chicken-indian-restaurant-style/,0.13430425247021202,-0.35174497778055847,-1.418807707131721,0.38780952784477424,-0.34660565457612064,-0.663548093614435,2.0181835771888283,2.008726948526641,2.4127759266883624,-0.551257766599824
https://glebekitchen.com/nearly-restaurant-chicken-jalfrezi/,-0.20549700037486526,-0.054878095501761454,-1.537307912082843,0.7157371270508542,-0.010440364328374448,-0.663548093614435,2.0181835771888283,2.008726948526641,-0.5994318570462771,-0.551257766599824
https://glebekitchen.com/nadan-chicken-curry/,0.4346087939233837,-0.018900552289892417,-2.1033335824161026,0.5392047665755464,-0.9368792693942646,-0.663548093614435,2.0181835771888283,2.008726948526641,2.4127759266883624,-0.551257766599824
https://glebekitchen.com/tandoori-paste-pataks-copycat/,0.2680721510062631,-0.4264041418646335,-2.0505415474002273,-0.7298966344711809,-0.9292285408579792,2.14218121571719,-0.705471250433263,-0.7105396770094238,2.4127759266883624,2.641220464242846
https://glebekitchen.com/tandoori-chicken-tacos/,0.5219734923464274,-0.7579119290657093,-0.7345215815605177,0.24388609612975107,0.6658878733245438,-0.663548093614435,-0.705471250433263,-1.5094962088824465e-16,-0.5994318570462771,0.0
https://glebekitchen.com/hotel-style-indian-curry-gravy/,-0.06944590106496588,-0.1882409927775294,-2.1610355059127344,0.6120558436232939,-0.6200220446218766,-0.663548093614435,-0.705471250433263,2.008726948526641,-0.5994318570462771,2.641220464242846
https://glebekitchen.com/methi-chicken-curry-indian-hotel-style/,0.4678803661274961,0.03800367426011985,-3.0914829248279987,0.1836520864635271,-1.3167772161943594,-0.663548093614435,2.0181835771888283,2.008726948526641,2.4127759266883624,-0.551257766599824
https://glebekitchen.com/restaurant-style-keema-matar/,0.03836947631340673,0.025250419905511842,-1.834106697482419,0.6457427030365153,0.1087408068065347,-0.663548093614435,2.0181835771888283,2.008726948526641,2.4127759266883624,-0.551257766599824
https://glebekitchen.com/chicken-chaat-salad/,-0.48954109165391735,-0.1639511569388072,-0.9375167108179441,0.5645369076199733,-1.0123397774342975,-0.663548093614435,-0.705471250433263,-0.7105396770094238,-0.5994318570462771,0.0
https://glebekitchen.com/easy-chana-masala/,0.5328261672484579,0.08432593067263838,-3.15595972852998,0.5368919676775018,-1.0069114235297865,2.14218121571719,-0.705471250433263,-0.7105396770094238,2.4127759266883624,-0.551257766599824
https://glebekitchen.com/green-chili-chana-achari/,0.07492733297980549,0.014503821915817278,-1.8471702524449163,0.8288347683831965,0.3336515482970725,-0.663548093614435,-0.705471250433263,-0.7105396770094238,-0.5994318570462771,-0.551257766599824
https://glebekitchen.com/masala-chilli-chicken-restaurant-style/,0.09062641436515566,0.0060948435589003305,-2.3423155943718106,0.3793779684120014,-0.29522895540485905,-0.663548093614435,2.0181835771888283,2.008726948526641,2.4127759266883624,2.641220464242846
https://glebekitchen.com/laal-maas-spicy-lamb-curry/,0.8848959139156566,0.08473173064066493,-3.1206697500294305,0.8950727061860998,-1.2145211162228007,-0.663548093614435,2.0181835771888283,2.008726948526641,2.4127759266883624,-0.551257766599824
https://glebekitchen.com/chettinad-chicken-curry-indian-hotel-style/,0.5028439066644594,-0.532407727666887,-2.459707266583621,0.3252833284932876,-0.5968863613892269,-0.663548093614435,2.0181835771888283,2.008726948526641,2.4127759266883624,-0.551257766599824
https://glebekitchen.com/bengali-chicken-curry-restaurant-style/,-0.28408466499244833,-0.11287856013629742,-1.2912422531422867,0.5289123199527763,0.04338226905071082,-0.663548093614435,2.0181835771888283,2.008726948526641,-0.5994318570462771,-0.551257766599824
https://glebekitchen.com/chicken-dhansak-bengali-style/,0.07543453475301132,-0.44881568410308614,-2.108888164234034,0.6493110703299857,-0.5007813895072357,2.14218121571719,2.0181835771888283,-0.7105396770094238,-0.5994318570462771,-0.551257766599824
https://glebekitchen.com/spinach-potato-curry/,0.03385655148988562,-0.0837985544150568,-1.5822455784238598,0.400969138402294,-0.32931019662502165,-0.663548093614435,-0.705471250433263,-0.7105396770094238,-0.5994318570462771,-0.551257766599824
https://glebekitchen.com/chicken-shashlik/,-0.38461590827666586,-0.03183786587524624,-1.406399966144979,0.5417511703353886,-0.19214175335290895,-0.663548093614435,2.0181835771888283,2.008726948526641,2.4127759266883624,-0.551257766599824
https://glebekitchen.com/nearly-restaurant-style-chicken-madras/,-0.07122226887166969,-0.3225946803604265,-1.6002569852066764,0.5202588593178119,-0.41489834022451655,-0.663548093614435,2.0181835771888283,2.008726948526641,-0.5994318570462771,-0.551257766599824
https://glebekitchen.com/lamb-saag-indian-restaurant-style/,0.6859905182544361,0.16933691945372675,-2.488443151387191,0.7817845707175086,-0.7849090738782479,-0.663548093614435,-0.705471250433263,2.008726948526641,2.4127759266883624,-0.551257766599824
https://glebekitchen.com/simple-chicken-curry/,0.11366377152355564,-0.53468792737151,-1.8516382021731372,0.5907719528686028,-0.8402531682049239,-0.663548093614435,2.0181835771888283,-0.7105396770094238,-0.5994318570462771,-0.551257766599824
https://glebekitchen.com/egg-curry-south-indian-restaurant-style/,0.5202404578035843,-0.5747266567728847,-2.013747179105298,0.6283027500252835,-0.5495000978375945,-0.663548093614435,-0.705471250433263,2.008726948526641,2.4127759266883624,-0.551257766599824
https://glebekitchen.com/chicken-dopiaza-indian-hotel-style/,-0.2005674266299288,-0.05455723463419119,-1.876696895841996,0.4686914609955276,-0.4024619774298888,-0.663548093614435,2.0181835771888283,2.008726948526641,2.4127759266883624,2.641220464242846
https://glebekitchen.com/green-chili-chicken-curry-indian-hotel-style/,0.24287184310198384,-0.03725508709038046,-2.1620501699675807,0.8355895873127066,-0.18983366997779252,-7.78746320021402e-17,-1.511932150378754e-16,-1.5094962088824465e-16,0.0,0.0
https://glebekitchen.com/punjabi-dal-makhani/,0.579139586381873,-0.8567125973283439,-2.1176891481000317,0.6480790108007173,-0.4420455264886038,-0.663548093614435,-0.705471250433263,-0.7105396770094238,-0.5994318570462771,-0.551257766599824
https://glebekitchen.com/kerala-chicken-curry-nadan-kohzi-indian-hotel-style/,0.6715743469752473,-0.4398105965931864,-2.5502133002000815,0.4206360390511055,-0.756173733433733,-0.663548093614435,2.0181835771888283,2.008726948526641,2.4127759266883624,-0.551257766599824
https://glebekitchen.com/chettinad-chicken-curry/,-0.5357331487363204,-0.2528711987277486,-0.7087840609390491,0.03452438347307622,-0.24523461580066203,-0.663548093614435,2.0181835771888283,2.008726948526641,2.4127759266883624,-0.551257766599824
https://glebekitchen.com/chicken-and-chickpea-curry-easy-restaurant-style/,-0.2647347722987234,-0.1465125811473407,-1.7493119432373927,0.23611459052592626,-0.6398947583043453,2.14218121571719,2.0181835771888283,2.008726948526641,-0.5994318570462771,-0.551257766599824
https://glebekitchen.com/indian-restaurant-madras-curry/,0.491325725492949,-0.5884919155091818,-1.7182419352914444,0.5866933695859918,-0.7723081221353203,-0.663548093614435,2.0181835771888283,2.008726948526641,2.4127759266883624,-0.551257766599824
https://glebekitchen.com/lamb-madras-indian-hotel-style/,0.4187810262426065,-0.26709496034557706,-1.7688663068222206,0.2538734051336328,-0.49764039179644964,-0.663548093614435,2.0181835771888283,2.008726948526641,2.4127759266883624,-0.551257766599824
https://glebekitchen.com/kachumber-indian-tomato-and-cucumber-salad/,0.24752651911362736,-0.22664948248613437,-1.8670473964210152,1.117109588621689,-0.8032280201673796,-0.663548093614435,-1.511932150378754e-16,-0.7105396770094238,-0.5994318570462771,-0.551257766599824
https://glebekitchen.com/murgir-jhol-homestyle-bengali-chicken-curry/,-0.13991234039735898,-0.37954417819542613,-1.6438081298633964,0.6164486184931304,-0.411389212348354,-0.663548093614435,2.0181835771888283,-0.7105396770094238,-0.5994318570462771,-0.551257766599824
https://glebekitchen.com/lamb-rogan-josh-restaurant-style-at-home/,0.7126781621801375,-0.44580988237374175,-2.0685805012298295,1.1518943473718204,-0.3981067767377668,-0.663548093614435,2.0181835771888283,2.008726948526641,2.4127759266883624,-0.551257766599824
https://glebekitchen.com/thai-chicken-khao-soi/,0.3300400279796276,-0.3999586007227865,-0.6767166901735872,-0.02210627942064041,-0.18819826896818817,2.14218121571719,2.0181835771888283,-0.7105396770094238,2.4127759266883624,-0.551257766599824
https://glebekitchen.com/thai-grilled-chicken-with-sweet-chili-sauce/,0.47712299322848967,0.7734001106201364,-1.5933725199696158,0.06741515396947353,-0.6626451930021552,2.14218121571719,-0.705471250433263,-0.7105396770094238,2.4127759266883624,2.641220464242846
https://glebekitchen.com/thai-tom-yum-soup/,0.14876167811480648,0.024917729232187085,-1.3339274677036528,0.9473358202231957,-0.14429306354385202,-0.663548093614435,-0.705471250433263,-0.7105396770094238,2.4127759266883624,-0.551257766599824
https://glebekitchen.com/chicken-pad-thai/,0.8785749911338129,0.5337745238313674,-0.9834249866930371,-0.053484948522490354,0.4585177664536158,2.14218121571719,2.0181835771888283,2.008726948526641,2.4127759266883624,2.641220464242846
https://glebekitchen.com/thai-cucumber-salad/,0.4116485926726121,-0.3248655558562996,-1.300528212843967,1.170463502707451,0.10959575820359158,-0.663548093614435,-0.705471250433263,-0.7105396770094238,-0.5994318570462771,-0.551257766599824
https://glebekitchen.com/thai-fried-rice-khao-pad/,-0.26596933136128215,-0.054680531647444956,-0.10267641741195797,0.7598637680058327,0.14790633299156958,2.14218121571719,2.0181835771888283,2.008726948526641,2.4127759266883624,-0.551257766599824
https://glebekitchen.com/nam-prik-pao-thai-chili-paste/,-0.8970097935605542,0.3061420913889498,0.19507381192913026,-0.11960843352239545,-0.20508731429639168,-0.663548093614435,-0.705471250433263,2.008726948526641,-0.5994318570462771,-0.551257766599824
https://glebekitchen.com/thai-red-chicken-curry/,1.2687315625563784,-0.10394481788466599,-2.1440592318113043,0.9661078598335107,0.4115993391860261,-0.663548093614435,2.0181835771888283,2.008726948526641,-0.5994318570462771,-0.551257766599824
https://glebekitchen.com/thai-sweet-chili-sauce/,0.8438906806904548,1.8074318252479418,-2.0777092812773583,-0.832527921525304,-1.8689964850010592,2.14218121571719,-0.705471250433263,-0.7105396770094238,2.4127759266883624,2.641220464242846
https://glebekitchen.com/panang-curry-with-chicken/,0.05254941171951804,-0.1791985344160902,-1.0894099897064344,0.33989507846843386,-0.2588481731542153,-0.663548093614435,2.0181835771888283,-0.7105396770094238,2.4127759266883624,2.641220464242846
https://glebekitchen.com/sesame-noodles-thai-style/,1.105480268748876,0.18750592876659214,-0.6652629109288675,-0.2875918565862666,-0.07081755318217378,2.14218121571719,2.0181835771888283,2.008726948526641,2.4127759266883624,-0.551257766599824
https://glebekitchen.com/thai-basil-chicken-pad-kra-pao/,-0.317797692941419,-0.027918729930230535,-0.10390198633676503,0.5270851581799505,0.021505713916540495,-0.663548093614435,2.0181835771888283,2.008726948526641,2.4127759266883624,-0.551257766599824
https://glebekitchen.com/easy-beef-massaman-curry/,0.7946600824013688,-0.8849814421425934,-1.671082049453377,0.1804244979985905,-0.1604841946867949,2.14218121571719,2.0181835771888283,2.008726948526641,2.4127759266883624,2.641220464242846
https://glebekitchen.com/larb-thai-pork-salad/,0.766505537907031,-0.26580027168814874,-1.071599573599432,0.8338004460270548,0.7206205858509932,-0.663548093614435,-0.705471250433263,-0.7105396770094238,2.4127759266883624,-0.551257766599824
https://glebekitchen.com/grilled-pork-belly-skewers-asian-style/,1.069117558220027,0.5919144105354144,-1.305289845647359,0.1508493835593043,-0.5201877991137219,-0.663548093614435,-0.705471250433263,-0.7105396770094238,-0.5994318570462771,-0.551257766599824
https://glebekitchen.com/spicy-thai-beef-salad/,0.7878698682610772,0.1567458638888556,-2.0016308817829755,1.5935042622025923,-0.5166513921052807,-0.663548093614435,2.0181835771888283,-0.7105396770094238,2.4127759266883624,-0.551257766599824
https://glebekitchen.com/thai-green-curry-from-scratch/,0.18638109419070026,-0.4783358787804859,-1.2874670179769838,0.31109003184076345,-1.2535447659022025,2.14218121571719,2.0181835771888283,2.008726948526641,2.4127759266883624,2.641220464242846
https://glebekitchen.com/thai-basil-beef-pad-gra-prow/,-0.6602737740933458,0.09378212061864873,-0.33804038229726646,0.6362451261126004,0.2730441303463218,-0.663548093614435,2.0181835771888283,2.008726948526641,-0.5994318570462771,-0.551257766599824
https://glebekitchen.com/pad-thai-rest-us/,0.9439157328987181,0.6702088915661752,-1.5393117456784864,-0.20639847500863098,0.1374874102906347,2.14218121571719,-0.705471250433263,2.008726948526641,2.4127759266883624,2.641220464242846
https://glebekitchen.com/thai-chicken-salad-with-rice-noodles/,0.174626613737229,-0.2476472315581061,-1.0972639863257385,1.1840488029341656,-0.5645016519392049,-7.78746320021402e-17,-1.511932150378754e-16,-1.5094962088824465e-16,0.0,0.0
https://glebekitchen.com/papaya-salad-som-tam-thai/,0.9650476671046252,-0.32750952620211615,-2.0045677515424947,1.412043362302123,0.7923520111659038,-0.663548093614435,-0.705471250433263,-0.7105396770094238,-0.5994318570462771,2.641220464242846
https://glebekitchen.com/thai-dipping-sauce/,-0.02291077047325177,-0.2416046272394494,-1.139600396146469,0.8979923108201064,-0.046426801323689516,-0.663548093614435,-0.705471250433263,-1.5094962088824465e-16,2.4127759266883624,2.641220464242846
https://glebekitchen.com/thai-beef-stir-fry-with-rice-noodles/,0.020082000241134098,-0.11753278862586025,-0.5324674886552303,-0.04258617505135608,0.430034957530633,2.14218121571719,2.0181835771888283,-0.7105396770094238,2.4127759266883624,2.641220464242846
https://glebekitchen.com/thai-roast-chicken/,-0.5827781058605116,0.2704511795720176,-0.03733512242373151,-0.1577616013187115,1.1254233069787898,2.14218121571719,2.0181835771888283,2.008726948526641,-0.5994318570462771,-0.551257766599824
https://glebekitchen.com/thai-beef-noodles/,1.0062056894375349,0.915436616887985,-0.6067451413228986,0.22110295304393504,0.3440050122935679,2.14218121571719,2.0181835771888283,2.008726948526641,2.4127759266883624,2.641220464242846
https://glebekitchen.com/beef-and-broccoli-thai-style/,0.21095261182000608,0.875911174242787,-0.8447148626547042,0.14278953830999797,-0.5214351188429245,-0.663548093614435,2.0181835771888283,2.008726948526641,2.4127759266883624,-0.551257766599824
https://glebekitchen.com/thai-curry-noodle-soup/,0.7663016967695758,-0.13615780379658812,-0.8023188831870817,0.1468653927988743,0.7074336801777618,2.14218121571719,2.0181835771888283,2.008726948526641,2.4127759266883624,-0.551257766599824
https://glebekitchen.com/thai-chicken-buddha-bowl/,0.49800874396758293,0.4003835894205982,-1.0933939599258002,1.1354748434582906,0.4091012690130857,2.14218121571719,-0.705471250433263,-0.7105396770094238,2.4127759266883624,-0.551257766599824
https://glebekitchen.com/thai-ribs-with-hot-and-sweet-dipping-sauce/,1.1264184031123197,0.8773588142516834,-1.6252887643207314,1.042297387550217,-0.4912145492562312,-0.663548093614435,-0.705471250433263,-0.7105396770094238,2.4127759266883624,2.641220464242846
https://glebekitchen.com/spicy-grilled-korean-chicken-wings/,-0.4345642109125588,-0.13493280693494725,0.3094438424760382,0.2760576337737459,0.5104703147594479,-0.663548093614435,-0.705471250433263,-0.7105396770094238,-0.5994318570462771,0.0
https://glebekitchen.com/korean-ramen/,1.189580062680372,1.51946252910808,1.6369763123040297,-0.7667790223015012,-0.3407503065747593,2.14218121571719,2.0181835771888283,-0.7105396770094238,2.4127759266883624,2.641220464242846
https://glebekitchen.com/korean-pork-ribs-with-gochujang-glaze/,-0.6314344955421421,0.3534896970765523,0.66469145185814,-0.40019958854136856,0.24371820456252227,-0.663548093614435,2.0181835771888283,2.008726948526641,2.4127759266883624,2.641220464242846
https://glebekitchen.com/korean-pork-stew-kimchi-jjigae/,-0.11833870136286494,1.0151478497832302,1.0181805901620349,0.13647935468451936,0.4032555463228738,-0.663548093614435,-0.705471250433263,2.008726948526641,-0.5994318570462771,-0.551257766599824
https://glebekitchen.com/korean-pork-bone-soup-gamjatang/,0.40377098054307786,1.3123911060047362,0.6237203233555305,0.27470424385989917,0.41172344751717616,-0.663548093614435,2.0181835771888283,2.008726948526641,2.4127759266883624,-0.551257766599824
https://glebekitchen.com/korean-bbq-shrimp/,-0.22027962830064984,-0.15910689579738221,0.5079274524107446,0.06752139217053282,-0.8523604614966356,-7.78746320021402e-17,-1.511932150378754e-16,-1.5094962088824465e-16,0.0,0.0
https://glebekitchen.com/korean-beef-stew-with-gochujang/,1.3508386075830041,3.4197471736670217,1.1221291784499565,-2.498508735572276,-1.8727916273618241,-0.663548093614435,2.0181835771888283,2.008726948526641,2.4127759266883624,-0.551257766599824
https://glebekitchen.com/korean-meatloaf-gochujang-glaze/,0.270370930099878,-0.6727852885960288,0.8663599984288306,-0.1814411620141381,-0.4410530973125048,-0.663548093614435,2.0181835771888283,2.008726948526641,2.4127759266883624,2.641220464242846
https://glebekitchen.com/korean-bulgogi-sauce/,-0.5804499613515962,-0.5116459812062486,-0.20409846900234285,0.5916092406969379,0.18144041730341567,2.14218121571719,-0.705471250433263,-0.7105396770094238,2.4127759266883624,2.641220464242846
https://glebekitchen.com/spicy-miso-grilled-chicken/,-0.22340884915717027,0.9918419922996188,0.12274896899751024,-0.4686035038400836,-0.26868506070386033,-0.663548093614435,2.0181835771888283,-0.7105396770094238,-0.5994318570462771,-0.551257766599824
https://glebekitchen.com/korean-style-pork-chops/,-0.7181812875846683,-0.1620017694346536,-0.1431736273430664,-0.29107531792523106,0.3387051479380947,-0.663548093614435,2.0181835771888283,-0.7105396770094238,-0.5994318570462771,-0.551257766599824
https://glebekitchen.com/spicy-korean-chicken/,-0.5122199130028263,0.1196788372354719,-0.1685864027300108,0.042650247580554086,0.3001238575439051,2.14218121571719,2.0181835771888283,-0.7105396770094238,-0.5994318570462771,0.0
https://glebekitchen.com/easy-korean-beef-bulgogi/,0.03213631600371464,0.39735047653489064,-0.36730430230902544,0.5952693280432649,0.24712554165094097,-0.663548093614435,-0.705471250433263,-0.7105396770094238,-0.5994318570462771,-0.551257766599824
https://glebekitchen.com/korean-braised-pork-ribs/,-0.33803612516287296,1.407322306247085,0.7293693363823996,-0.5981218574465378,-0.3527719241440393,-0.663548093614435,2.0181835771888283,2.008726948526641,-0.5994318570462771,-0.551257766599824
https://glebekitchen.com/gochujang-mayonnaise/,-0.4335327210352469,-0.1782926968815699,1.2126125894269277,0.36095736835768844,-1.8701055657294974,-0.663548093614435,-1.511932150378754e-16,-0.7105396770094238,-0.5994318570462771,-0.551257766599824
https://glebekitchen.com/korean-chicken-wings-gochujang-sauce/,0.10962684322174303,-0.6688454885676887,0.37690215056653026,-0.7180351151029376,0.6737952852626845,2.14218121571719,2.0181835771888283,2.008726948526641,2.4127759266883624,2.641220464242846
https://mykoreankitchen.com/spicy-mayo-recipe/,0.5210429008151268,-0.9448469368314681,-1.284599102427481,1.0711091342135755,-2.070359270916366,-0.663548093614435,-0.705471250433263,-0.7105396770094238,-0.5994318570462771,-0.551257766599824
https://mykoreankitchen.com/strawberry-milk/,0.21939057261497508,-2.2558704983914417,1.0063055087948598,-1.0045179233592783,-1.3959972517498151,2.14218121571719,-0.705471250433263,-0.7105396770094238,-0.5994318570462771,2.641220464242846
https://mykoreankitchen.com/dakgangjeong-soy-garlic-fried-chicken/,0.3147387474442999,-0.4988190546668052,-0.597258695986957,0.21305639973138754,0.2478483740051729,2.14218121571719,2.0181835771888283,-0.7105396770094238,2.4127759266883624,2.641220464242846
https://mykoreankitchen.com/chili-oil-recipe/,-0.9091988197790261,0.19045832529361967,-0.4443953347271249,0.5975002081197222,0.2275302371666631,2.14218121571719,-0.705471250433263,2.008726948526641,2.4127759266883624,2.641220464242846
https://mykoreankitchen.com/dalgona-coffee-whipped-coffee/,-0.18398422313664875,-1.7825013290618887,0.6035072625033878,-1.3189617239878015,-0.07824614018408568,-0.663548093614435,-0.705471250433263,-0.7105396770094238,-0.5994318570462771,2.641220464242846
https://mykoreankitchen.com/omelet-rice-omurice/,1.3587910790450954,-0.6691257439076056,1.9483211243100083,2.0173135843544405,1.0610489940965238,2.14218121571719,2.0181835771888283,2.008726948526641,2.4127759266883624,2.641220464242846
https://mykoreankitchen.com/tuna-pancakes-chamchijeon/,-0.5907228700474717,-0.37252174375043734,0.5774871096814409,0.2148052787636778,0.2561569396125608,-0.663548093614435,-0.705471250433263,-0.7105396770094238,-0.5994318570462771,-0.551257766599824
https://mykoreankitchen.com/pan-fried-zucchini/,-1.0835074054861014,-0.8480930701013772,1.2745414851146808,-0.7620059489956285,-0.399449165996316,-0.663548093614435,-0.705471250433263,-0.7105396770094238,-0.5994318570462771,-0.551257766599824
https://mykoreankitchen.com/slow-cooker-short-ribs/,0.6171245949938667,-0.3740058876719878,0.361608748287904,0.7704934047416302,1.1538972261654752,2.14218121571719,-0.705471250433263,-0.7105396770094238,2.4127759266883624,2.641220464242846
https://mykoreankitchen.com/korean-ground-beef-rice-bowls/,0.6066810307011038,0.2927532178250927,-0.03797217629035095,0.1534257342690007,0.724262136634865,-0.663548093614435,-0.705471250433263,2.008726948526641,-0.5994318570462771,2.641220464242846
https://mykoreankitchen.com/doenjang-jjigae/,-0.23994853349088086,0.3457969073569451,0.1730392380345083,0.5108682901284127,0.7770990466378808,-0.663548093614435,-0.705471250433263,-0.7105396770094238,-0.5994318570462771,-0.551257766599824
https://mykoreankitchen.com/spicy-sweet-and-vinegary-noodles-bibim-guksu/,0.2132736841666076,0.3612715392095054,0.05301085817664037,-0.14274427238527745,0.4825390331056705,2.14218121571719,-0.705471250433263,-0.7105396770094238,2.4127759266883624,2.641220464242846
https://mykoreankitchen.com/galbitang-beef-short-rib-soup/,0.43246672914068124,0.860754893886255,0.8736106736976511,0.7583372099065543,0.04874988791035539,-0.663548093614435,2.0181835771888283,-0.7105396770094238,2.4127759266883624,-0.551257766599824
https://mykoreankitchen.com/nuclear-fire-noodle-fries/,-0.06278696388124673,0.2857728874298993,-0.15011563993176893,-1.3217475098796145,-0.017769867481503103,2.14218121571719,-0.705471250433263,2.008726948526641,2.4127759266883624,-0.551257766599824
https://mykoreankitchen.com/kimchi-jjim-braised-kimchi/,0.05619408528454106,0.532534883123926,-0.40799542646066805,0.7180005139808646,0.44972565705505535,-0.663548093614435,-0.705471250433263,-0.7105396770094238,-0.5994318570462771,-0.551257766599824
https://mykoreankitchen.com/air-fryer-chicken-wings/,0.36106099542273057,-0.6013902114462618,-0.5399360026291524,0.45353263262120297,0.262513100038033,-0.663548093614435,-0.705471250433263,-0.7105396770094238,2.4127759266883624,2.641220464242846
https://mykoreankitchen.com/pickled-radishes/,0.26363021540986803,1.8667966451382023,0.09881578843804671,-0.3501917722265296,0.09906692471980805,-0.663548093614435,-0.705471250433263,-0.7105396770094238,-0.5994318570462771,-0.551257766599824
https://mykoreankitchen.com/air-fryer-chickpeas/,-0.029663087006128915,-0.6166967501683303,-0.9292589886147168,0.2785926018934056,-0.847703787879544,-0.663548093614435,-0.705471250433263,-0.7105396770094238,-0.5994318570462771,-0.551257766599824
https://mykoreankitchen.com/bean-sprout-rice-kongnamul-bap/,-0.3148480480988649,0.10567251072869822,-0.17533968646274672,0.36959110408327295,0.8312640759863451,2.14218121571719,-0.705471250433263,-0.7105396770094238,2.4127759266883624,-0.551257766599824
https://mykoreankitchen.com/gochujang-chicken/,0.3638446394655832,-0.3634934774363989,-0.4991784021659031,0.8170802247955066,0.2775999570107457,2.14218121571719,2.0181835771888283,-0.7105396770094238,2.4127759266883624,2.641220464242846
https://mykoreankitchen.com/korean-style-tuna-cakes/,0.06358282485720501,-0.3364408168002814,0.3680319294315289,0.11117980499302568,-0.6329623953089799,-0.663548093614435,-0.705471250433263,-0.7105396770094238,-0.5994318570462771,-0.551257766599824
https://www.justonecookbook.com/corn-dogs/,1.5771655810864944,-2.64281311085602,1.5839067353032326,-0.9267776017819287,-2.3413009764962918,-7.78746320021402e-17,-1.511932150378754e-16,-1.5094962088824465e-16,0.0,0.0
https://www.justonecookbook.com/renkon-chips/,1.2960230212432,-0.3699467728225297,-2.097538028845585,-1.6162271669678698,-0.3140769162085815,-7.78746320021402e-17,-1.511932150378754e-16,-1.5094962088824465e-16,0.0,0.0
https://www.justonecookbook.com/mini-fruit-puff-pastry-with-lemon-glaze/,1.083187560796584,-1.7658837865553925,1.2543357409213698,0.28327519955073255,-2.2582363099797846,-7.78746320021402e-17,-1.511932150378754e-16,-1.5094962088824465e-16,0.0,0.0
https://www.justonecookbook.com/tandoori-chicken-puffs/,1.23351777127522,-1.2897987119824768,0.43937237795153467,0.5309530860762305,-1.9055592235599237,-7.78746320021402e-17,-1.511932150378754e-16,-1.5094962088824465e-16,0.0,0.0
https://www.justonecookbook.com/steamed-cake/,1.5251613836427742,-2.848939999556173,1.4625654416020886,-1.1094844086358988,-0.852580194467642,-7.78746320021402e-17,-1.511932150378754e-16,-1.5094962088824465e-16,0.0,0.0
https://www.justonecookbook.com/candied-sweet-potatoes/,0.13377893319801146,-0.5587810760676236,0.02615366756152178,-1.1574659052261675,0.060701878337442255,-7.78746320021402e-17,-1.511932150378754e-16,-1.5094962088824465e-16,0.0,0.0
https://www.justonecookbook.com/oyaki/,0.2850280705695752,-0.06085876956316587,0.16148705590113435,-1.7252967220098698,-1.2424500356158292,-7.78746320021402e-17,-1.511932150378754e-16,-1.5094962088824465e-16,0.0,0.0
https://www.justonecookbook.com/how-to-enjoy-japanese-mochi/,0.6626383216241514,-0.7820928195875971,-0.931013534281939,-0.4664153115385071,2.2066749096780964,-7.78746320021402e-17,-1.511932150378754e-16,-1.5094962088824465e-16,0.0,0.0
https://www.justonecookbook.com/green-tea-steamed-cake/,1.6995509863932061,-2.3066983632823277,0.30721334784194887,-1.0225188334001072,-0.8196056717500407,-7.78746320021402e-17,-1.511932150378754e-16,-1.5094962088824465e-16,0.0,0.0
https://www.justonecookbook.com/spicy-edamame/,-0.32566450392935026,-1.4710201695577276,-0.1533912102860855,-1.48427641983974,-1.5257776671507095,-7.78746320021402e-17,-1.511932150378754e-16,-1.5094962088824465e-16,0.0,0.0
https://www.justonecookbook.com/japanese-fruit-sandwich-fruit-sando/,0.7342350907248338,-2.449865567303018,-0.15965543143722682,0.3535107079457933,-1.1589277012121633,-7.78746320021402e-17,-1.511932150378754e-16,-1.5094962088824465e-16,0.0,0.0
https://www.justonecookbook.com/roast-chestnuts/,2.091428185036482,0.6698230070009267,0.3739653930643498,1.7002002342851326,2.5749510699830274,-7.78746320021402e-17,-1.511932150378754e-16,-1.5094962088824465e-16,0.0,0.0
https://www.justonecookbook.com/rice-cracker-recipe/,-0.2669804942164045,-1.5526549276873438,0.15971447030128624,-1.7917184473495587,-1.75667494819807,-7.78746320021402e-17,-1.511932150378754e-16,-1.5094962088824465e-16,0.0,0.0
https://www.justonecookbook.com/takoyaki-recipe/,1.2273887632095786,0.7287642178285253,1.0452366202911558,-1.3062756183290443,-2.238160531126105,-7.78746320021402e-17,-1.511932150378754e-16,-1.5094962088824465e-16,0.0,0.0
https://www.justonecookbook.com/nikuman-steamed-pork-buns/,-0.31944552272750826,-0.6982158360218197,0.40823896105387736,-0.6974020664675337,0.1221387069857121,-7.78746320021402e-17,-1.511932150378754e-16,-1.5094962088824465e-16,0.0,0.0
https://www.justonecookbook.com/homemade-popcorn-with-truffle-salt/,-0.6004456296269931,-1.2198710437242362,0.0769077987011023,-1.502618227117725,-1.0072842775663662,-7.78746320021402e-17,-1.511932150378754e-16,-1.5094962088824465e-16,0.0,0.0
https://www.justonecookbook.com/sata-andagi/,1.0509081478623106,-2.754836231320677,1.4716611548373808,-1.7107240487886965,-1.8106507782753953,-7.78746320021402e-17,-1.511932150378754e-16,-1.5094962088824465e-16,0.0,0.0
https://www.justonecookbook.com/banana-bread/,0.40944466181100847,-2.249190622237231,1.0610721716441724,-1.1523115640426143,-1.9290926353259825,-7.78746320021402e-17,-1.511932150378754e-16,-1.5094962088824465e-16,0.0,0.0
https://www.justonecookbook.com/seared-tuna-aburi-toro/,-1.2443396025794415,0.82651812595253,0.2995958617529988,0.24856625442447006,-0.037083349518645205,-7.78746320021402e-17,-1.511932150378754e-16,-1.5094962088824465e-16,0.0,0.0
https://www.justonecookbook.com/chicken-spring-rolls/,-0.5717455605560394,0.05539010040892231,-0.19189712335497985,0.10984006641681882,0.2568687439184019,-7.78746320021402e-17,-1.511932150378754e-16,-1.5094962088824465e-16,0.0,0.0
https://www.justonecookbook.com/gyoza-with-wings-hanetsuki-gyoza/,-0.24011119089596855,-1.876341969927031,0.20997476732375725,-2.099277230881447,-1.7347091311800034,-7.78746320021402e-17,-1.511932150378754e-16,-1.5094962088824465e-16,0.0,0.0
https://www.justonecookbook.com/sauteed-abalone/,2.018740676374761,1.5576524213469836,0.4563248886877907,-0.6791074806860358,-2.7746407793364174,-7.78746320021402e-17,-1.511932150378754e-16,-1.5094962088824465e-16,0.0,0.0
https://www.justonecookbook.com/grilled-oysters-ponzu-sauce/,0.5078506526093974,1.561137964259768,-0.33995665947323406,0.39043833479820145,-0.1398287360225438,-7.78746320021402e-17,-1.511932150378754e-16,-1.5094962088824465e-16,0.0,0.0
https://www.justonecookbook.com/japanese-clams-sake-steamed-clams/,-0.46970240305925026,0.21225539257034606,-0.9359041138115386,1.3707121363280492,0.44235234110446436,-7.78746320021402e-17,-1.511932150378754e-16,-1.5094962088824465e-16,0.0,0.0
https://www.justonecookbook.com/miso-dengaku/,2.2151757661999745,1.7710559496939673,-0.14208690660691609,-1.6312253923258562,-1.0866290367556717,-7.78746320021402e-17,-1.511932150378754e-16,-1.5094962088824465e-16,0.0,0.0
https://www.justonecookbook.com/thai-chicken-lettuce-wraps/,0.2545573161473135,0.23654171889389877,-0.2162599900246936,0.37339036879578763,0.25325139437970523,-7.78746320021402e-17,-1.511932150378754e-16,-1.5094962088824465e-16,0.0,0.0
https://www.justonecookbook.com/shrimp-egg-rolls/,-0.2901509390909092,-1.255572303378645,0.7755641015736768,-1.3140109349936226,-1.164073600866993,-7.78746320021402e-17,-1.511932150378754e-16,-1.5094962088824465e-16,0.0,0.0
https://www.justonecookbook.com/agedashi-tofu-2/,2.5811740804689007,2.672964040963028,0.5673639099396566,-1.8581855540442307,-1.5425268860077774,-7.78746320021402e-17,-1.511932150378754e-16,-1.5094962088824465e-16,0.0,0.0
https://www.justonecookbook.com/tazukuri-candied-sardines/,0.14190160442632935,-1.4345080004580133,-0.42332715156561157,-1.4470071060398817,-1.0782540861221874,-7.78746320021402e-17,-1.511932150378754e-16,-1.5094962088824465e-16,0.0,0.0
https://www.justonecookbook.com/pickled-chrysanthemum-turnip/,0.36435665768804976,0.8952049830858876,-0.6365356165055819,-0.23569425270772837,-0.3895817423777176,-7.78746320021402e-17,-1.511932150378754e-16,-1.5094962088824465e-16,0.0,0.0
https://www.justonecookbook.com/bitter-melon-salad/,-0.5154722214889087,0.38758865893788125,0.16791190923443788,-0.845332225836725,0.07577740268920215,-7.78746320021402e-17,-1.511932150378754e-16,-1.5094962088824465e-16,0.0,0.0
https://www.justonecookbook.com/spicy-miso-chicken/,1.1142854956616415,2.8375731338078976,0.2256604372866889,-2.1425893808022693,-1.960233384716841,-7.78746320021402e-17,-1.511932150378754e-16,-1.5094962088824465e-16,0.0,0.0
https://www.justonecookbook.com/cheese-tart/,1.3539641041346089,-2.54833372117767,3.0063979229982647,0.06537987214886416,-1.6076930387145778,-7.78746320021402e-17,-1.511932150378754e-16,-1.5094962088824465e-16,0.0,0.0
https://www.justonecookbook.com/bbq-king-crab/,-0.8746458746397042,0.647684430965601,-0.05954328145177627,0.6976626495395658,0.17196707604099368,-7.78746320021402e-17,-1.511932150378754e-16,-1.5094962088824465e-16,0.0,0.0
https://www.justonecookbook.com/eggplant-agebitashi/,2.04913785879754,2.6778535678797524,0.3261672051540273,-1.3989340320568069,-1.9413441554468553,-7.78746320021402e-17,-1.511932150378754e-16,-1.5094962088824465e-16,0.0,0.0
https://www.justonecookbook.com/tsukune/,-0.15999940011453334,0.9499054743390445,0.40299300715005226,-0.6693976501043953,-0.3211028526996497,-7.78746320021402e-17,-1.511932150378754e-16,-1.5094962088824465e-16,0.0,0.0
https://www.justonecookbook.com/fresh-spring-rolls-yakiniku/,-0.10336795192938716,-0.16031061210770547,-0.4645948912796178,0.03113531359788441,-0.5239225819694198,-7.78746320021402e-17,-1.511932150378754e-16,-1.5094962088824465e-16,0.0,0.0
https://www.justonecookbook.com/garlic-soy-marinated-albacore/,-1.8189902133394775,0.3256016231978252,0.3493689866297958,-0.5046132446938406,0.019195969038028116,-7.78746320021402e-17,-1.511932150378754e-16,-1.5094962088824465e-16,0.0,0.0
https://www.justonecookbook.com/tuna-tataki/,-0.2452124600531145,-0.6763913672907482,-0.4705754414619368,-0.8050802144135635,-0.8519862515756412,-7.78746320021402e-17,-1.511932150378754e-16,-1.5094962088824465e-16,0.0,0.0
https://www.justonecookbook.com/gyutan-bbq-beef-tongue/,-1.2903502829055908,0.07531071981016134,0.1827864183113907,0.19978630376765283,-0.03451132645130581,-7.78746320021402e-17,-1.511932150378754e-16,-1.5094962088824465e-16,0.0,0.0
https://www.justonecookbook.com/teriyaki-wings/,-0.7026815414668629,0.0006885961326917521,0.09374396479363693,-0.1995026320861648,-0.01715180327180101,-7.78746320021402e-17,-1.511932150378754e-16,-1.5094962088824465e-16,0.0,0.0
https://www.justonecookbook.com/salmon-kombu-roll/,-0.2380424990984238,0.6714008741396249,0.6996990490702222,-1.2284024907059756,-0.5011453777963507,-7.78746320021402e-17,-1.511932150378754e-16,-1.5094962088824465e-16,0.0,0.0
https://www.justonecookbook.com/ham-katsu/,2.34418033200054,-2.1272368144534894,1.6466568582500518,-1.7123736369684264,-3.5174281120533295,-7.78746320021402e-17,-1.511932150378754e-16,-1.5094962088824465e-16,0.0,0.0
https://www.justonecookbook.com/octopus-carpaccio/,-0.5808143204257379,-0.24453209902246523,-0.42615159364858995,0.4775421190352178,-0.8783106395647265,-7.78746320021402e-17,-1.511932150378754e-16,-1.5094962088824465e-16,0.0,0.0
https://www.justonecookbook.com/grilled-clams-little-neck-clams/,-0.08954530977263309,0.5040888784815505,0.426078068585171,-0.7002214865474735,-1.3164996816097763,-7.78746320021402e-17,-1.511932150378754e-16,-1.5094962088824465e-16,0.0,0.0
https://www.justonecookbook.com/napa-cabbage-gyoza/,-0.17611382581584167,0.14607531064449664,0.34445269070766055,-0.26280793392849294,0.45782924850585754,-7.78746320021402e-17,-1.511932150378754e-16,-1.5094962088824465e-16,0.0,0.0
https://www.justonecookbook.com/teba-shio-salted-chicken-wings/,-0.6889067500799032,-0.35860786801193767,0.28810327685613946,1.0095775542579644,-0.07381851776191814,-7.78746320021402e-17,-1.511932150378754e-16,-1.5094962088824465e-16,0.0,0.0
https://www.justonecookbook.com/japanese-tofu-cold-tofu-hiyayakko/,2.002588649331375,0.9061534024258092,1.440097007801754,1.779673145455781,0.3509145293613073,-7.78746320021402e-17,-1.511932150378754e-16,-1.5094962088824465e-16,0.0,0.0
https://www.justonecookbook.com/eggplant-with-sesame-ponzu-sauce/,-0.6803083270045769,0.5118218523582201,-0.1383220231748287,0.3383211699469723,0.35044838455692495,-7.78746320021402e-17,-1.511932150378754e-16,-1.5094962088824465e-16,0.0,0.0
https://www.justonecookbook.com/chawanmushi-with-shrimp/,0.9156386598819997,1.5810943398024426,1.6417938404100334,-1.0772015829831794,-1.3147316333657737,-7.78746320021402e-17,-1.511932150378754e-16,-1.5094962088824465e-16,0.0,0.0
https://www.justonecookbook.com/instant-pot-chawanmushi/,1.285455026733814,1.886266464856502,1.5859721845199086,-1.3629695180488626,-1.6698276974177901,-7.78746320021402e-17,-1.511932150378754e-16,-1.5094962088824465e-16,0.0,0.0
https://www.justonecookbook.com/burrata-crostini/,0.29740857559962336,1.0146038310621903,1.0264094663385843,-0.5825181069532487,-1.1710926234668286,-7.78746320021402e-17,-1.511932150378754e-16,-1.5094962088824465e-16,0.0,0.0
https://www.justonecookbook.com/coconut-shrimp/,1.2985733434269096,-0.5300860162640527,0.33218930377882877,0.18957852987976095,-1.6950052980357904,-7.78746320021402e-17,-1.511932150378754e-16,-1.5094962088824465e-16,0.0,0.0
https://www.justonecookbook.com/japanese-pickled-cucumber/,-0.9301606615256199,0.01201128951104352,-0.31355714259719797,-0.5305796632109916,0.17640601247843823,-7.78746320021402e-17,-1.511932150378754e-16,-1.5094962088824465e-16,0.0,0.0
https://www.justonecookbook.com/asian-meatball-karaage/,0.9322128529311441,-1.3772981112742821,1.1642491944241071,-0.6185837312789727,0.5359998090122059,-7.78746320021402e-17,-1.511932150378754e-16,-1.5094962088824465e-16,0.0,0.0
https://www.justonecookbook.com/datemaki-sweet-rolled-omelette/,0.39548421982522103,-0.4671049401506863,1.9154665690095831,-1.028175196532077,-1.4583518820473569,-7.78746320021402e-17,-1.511932150378754e-16,-1.5094962088824465e-16,0.0,0.0
https://www.justonecookbook.com/hijiki-salad/,2.3434569732048534,2.1515235386849327,-0.0989894594436276,-2.2505008606723145,-1.3291263005302942,-7.78746320021402e-17,-1.511932150378754e-16,-1.5094962088824465e-16,0.0,0.0
https://www.justonecookbook.com/temari-sushi/,2.0841521038254163,1.6975339004275365,0.5178234566890075,-0.6559246455673973,-0.917602246905259,-7.78746320021402e-17,-1.511932150378754e-16,-1.5094962088824465e-16,0.0,0.0
https://www.justonecookbook.com/slow-cooker-sriracha-chili-chicken-wings/,0.47290516403991223,-0.5582059380126212,-0.1334397545126884,0.6585917172025771,-0.3346426705842541,-7.78746320021402e-17,-1.511932150378754e-16,-1.5094962088824465e-16,0.0,0.0
https://www.justonecookbook.com/momofuku-fried-chicken/,-0.46869566089856746,-0.6204220470427477,-0.00827982256726963,-0.03914828543845332,-0.19368020644190198,-7.78746320021402e-17,-1.511932150378754e-16,-1.5094962088824465e-16,0.0,0.0
https://www.justonecookbook.com/braised-pork-belly-kakuni/,1.5508517508857897,1.624225403622919,1.074539345954872,-0.17999858023627793,-1.059860254610848,-7.78746320021402e-17,-1.511932150378754e-16,-1.5094962088824465e-16,0.0,0.0
https://www.justonecookbook.com/bbq-chicken-wings/,-0.21951681954349078,-0.041410967377659445,0.009111329305989666,0.3747512550323148,-0.009328437838611871,-7.78746320021402e-17,-1.511932150378754e-16,-1.5094962088824465e-16,0.0,0.0
https://www.justonecookbook.com/japanese-beef-tendon-stew/,1.7497600077022892,3.0860306138965976,0.6640270743749651,-1.11456512505797,-1.0625074718713405,-7.78746320021402e-17,-1.511932150378754e-16,-1.5094962088824465e-16,0.0,0.0
https://www.justonecookbook.com/japanese-grilled-eggplant-yaki-nasu/,0.042960316592085795,1.8227070296852161,-0.13933917399224888,0.17081554736818222,-0.61989905913661,-7.78746320021402e-17,-1.511932150378754e-16,-1.5094962088824465e-16,0.0,0.0
https://www.justonecookbook.com/kamaboko-with-salmon-roe/,-2.613435282463054,0.3682360049951853,0.5979475566104302,-0.4816617362877636,0.4686508211415446,-7.78746320021402e-17,-1.511932150378754e-16,-1.5094962088824465e-16,0.0,0.0
https://www.justonecookbook.com/gluten-free-karaage/,0.3855832085473494,-1.0230137136494517,0.22415285321103257,-0.822241572729821,-0.01990133960454739,-7.78746320021402e-17,-1.511932150378754e-16,-1.5094962088824465e-16,0.0,0.0
https://www.justonecookbook.com/edamame/,-1.7082930969621621,-0.06777031928729298,0.43958870689069224,-0.7329366134173412,-0.17399798309442724,-7.78746320021402e-17,-1.511932150378754e-16,-1.5094962088824465e-16,0.0,0.0
https://www.justonecookbook.com/egg-tofu/,2.3033816124811626,2.5192948572033274,2.0776409753285554,-2.069410862355775,-2.687642379071273,-7.78746320021402e-17,-1.511932150378754e-16,-1.5094962088824465e-16,0.0,0.0
https://www.justonecookbook.com/spring-rolls-with-sesame-ponzu-vinaigrette/,0.5649873602750843,0.9412158055182017,0.17725360753061487,0.5616878630972646,0.2926424706454301,-7.78746320021402e-17,-1.511932150378754e-16,-1.5094962088824465e-16,0.0,0.0
https://www.justonecookbook.com/chawanmushi-with-matsutake-mushroom/,1.851181673749256,2.090929670345717,2.0725669098822537,-1.7999841828014989,-2.2396636223522277,-7.78746320021402e-17,-1.511932150378754e-16,-1.5094962088824465e-16,0.0,0.0
https://www.justonecookbook.com/nagoya-style-fried-chicken-wings/,0.021195976933554336,-0.5639116507243991,0.1349329847615909,-0.8587022371235565,-0.02301230996408709,-7.78746320021402e-17,-1.511932150378754e-16,-1.5094962088824465e-16,0.0,0.0
https://www.justonecookbook.com/fried-chicken-wings/,0.11881482975705572,-1.1321244503341497,-0.00971122553457287,-0.24430078609162992,-0.22596932144886256,-7.78746320021402e-17,-1.511932150378754e-16,-1.5094962088824465e-16,0.0,0.0
https://www.justonecookbook.com/chawanmushi-savory-steamed-egg-custard/,0.9043049976762059,1.5070581641016423,1.458781828995107,-0.966764688156964,-1.282419207281066,-7.78746320021402e-17,-1.511932150378754e-16,-1.5094962088824465e-16,0.0,0.0
https://www.justonecookbook.com/karashi-renkon/,1.7704798219404618,-0.03389743223847488,-0.33051168143818827,-1.8402955918379207,-1.592858322061427,-7.78746320021402e-17,-1.511932150378754e-16,-1.5094962088824465e-16,0.0,0.0
https://www.justonecookbook.com/cranberry-brie-bites/,1.0786311311352539,-1.0009931881766156,-0.4360201492046815,2.001351488166865,-2.7701048776943167,-0.663548093614435,-0.705471250433263,-0.7105396770094238,-0.5994318570462771,-0.551257766599824
https://www.justonecookbook.com/shishamo-wrap/,-0.13208465652228804,-1.7149470935964723,0.7059840352998611,-1.5828853101110554,-1.6638142758019103,-7.78746320021402e-17,-1.511932150378754e-16,-1.5094962088824465e-16,0.0,0.0
https://www.justonecookbook.com/boiled-squid-with-miso-vinaigrette/,0.4175837493476287,1.3126001009625057,0.07991831336572736,-1.3311253713827556,-0.6826543305003161,-7.78746320021402e-17,-1.511932150378754e-16,-1.5094962088824465e-16,0.0,0.0
https://www.justonecookbook.com/vegan-miso-soup/,2.4563740577668898,3.6106869884010275,0.579477576954935,-2.3382232018429394,-1.2706113936372585,-7.78746320021402e-17,-1.511932150378754e-16,-1.5094962088824465e-16,0.0,0.0
https://www.justonecookbook.com/kimchi-gyoza-nabe/,0.7047455860565495,2.263759668260903,0.45803319304826995,-0.34063047091254645,0.1269716206921137,-0.663548093614435,-0.705471250433263,-0.7105396770094238,0.0,2.641220464242846
https://www.justonecookbook.com/ozoni-zoni-japanese-new-year-mochi-soup/,3.6663398563722986,3.9974975847875345,-0.5573696395578089,-1.0618369933467606,-2.7769660359485964,-7.78746320021402e-17,-1.511932150378754e-16,-1.5094962088824465e-16,0.0,0.0
https://www.justonecookbook.com/potato-leek-soup/,-0.5603710103472745,-0.850973649673878,0.7258549197325198,-0.35871151023383263,-0.4016950015589128,-7.78746320021402e-17,-1.511932150378754e-16,-1.5094962088824465e-16,0.0,0.0
https://www.justonecookbook.com/homemade-miso-soup/,3.870052944866472,5.60577014373632,0.8551403252654519,-2.783075177364712,-3.482995189579232,-7.78746320021402e-17,-1.511932150378754e-16,-1.5094962088824465e-16,0.0,0.0
https://www.justonecookbook.com/miso-soup-yuzu-kosho/,0.8350923896347516,2.026633786059776,0.33424341499238736,-0.6758575465865424,-0.3697688427612539,-7.78746320021402e-17,-1.511932150378754e-16,-1.5094962088824465e-16,0.0,0.0
https://www.justonecookbook.com/nabeyaki-udon/,1.7179147627018931,1.8220183048330494,1.283821008138724,-1.3167101534137722,-0.3519954874932233,-7.78746320021402e-17,-1.511932150378754e-16,-1.5094962088824465e-16,0.0,0.0
https://www.justonecookbook.com/kimchi-nabe/,1.2186487667738701,2.392294874511348,0.6759077693066394,-0.5681884268808793,0.012191807602600677,-7.78746320021402e-17,-1.511932150378754e-16,-1.5094962088824465e-16,0.0,0.0
https://www.justonecookbook.com/chanko-nabe-sumo-stew/,1.7056409628555826,1.8674348787971842,1.2197974605749207,-0.4537837684945175,-0.5908378466735388,-7.78746320021402e-17,-1.511932150378754e-16,-1.5094962088824465e-16,0.0,0.0
https://www.justonecookbook.com/monkfish-hot-pot/,1.8802662483118848,3.4809492218135265,0.7862796980919391,-1.3465749288889532,-0.4848760263983433,-7.78746320021402e-17,-1.511932150378754e-16,-1.5094962088824465e-16,0.0,0.0
https://www.justonecookbook.com/mille-feuille-nabe/,1.452084905460284,2.784966234499102,0.9525848069179483,-0.1198977698846603,-0.40034939338139053,-7.78746320021402e-17,-1.511932150378754e-16,-1.5094962088824465e-16,0.0,0.0
https://www.justonecookbook.com/thomas-kellers-clam-chowder-giveaway-winners/,0.6054410551033682,-1.0678453271894344,0.11607202478402777,0.8999899020046191,-1.3977810844569092,-7.78746320021402e-17,-1.511932150378754e-16,-1.5094962088824465e-16,0.0,0.0
https://www.justonecookbook.com/kabocha-miso-soup/,1.00545671634806,1.4463492309664907,-0.47945110585838596,-1.821631674112642,-0.44026319972672623,-7.78746320021402e-17,-1.511932150378754e-16,-1.5094962088824465e-16,0.0,0.0
https://www.justonecookbook.com/pressure-cooker-oxtail-soup/,-0.0030381598781920273,0.01918151445877071,-0.26807806872778034,0.8249372823453833,-0.05464083077721838,-7.78746320021402e-17,-1.511932150378754e-16,-1.5094962088824465e-16,0.0,0.0
https://www.justonecookbook.com/shrimp-pork-wonton/,-0.12824255711175012,0.3362082949298048,0.1611492759244229,0.16457514412084437,0.32901464638613076,-7.78746320021402e-17,-1.511932150378754e-16,-1.5094962088824465e-16,0.0,0.0
https://www.justonecookbook.com/bouillabaisse-french-seafood-stew/,-0.3350906860970672,0.11614750357864959,-0.5156972543933837,0.7542255479864421,-0.4243275387003686,-7.78746320021402e-17,-1.511932150378754e-16,-1.5094962088824465e-16,0.0,0.0
https://www.justonecookbook.com/taiwanese-hot-pot-and-homemade-meatballs/,0.07242204335428039,0.37482907328080184,0.7427188619333798,0.025071340586159962,0.8613811157692876,-7.78746320021402e-17,-1.511932150378754e-16,-1.5094962088824465e-16,0.0,0.0
https://www.justonecookbook.com/japanese-clam-soup-clear-broth/,0.942655981191992,3.1308993337855715,0.4419169250494144,-2.4419150670221854,-1.7120359725699077,-7.78746320021402e-17,-1.511932150378754e-16,-1.5094962088824465e-16,0.0,0.0
https://www.justonecookbook.com/chicken-corn-chowder-with-roasted-potato/,0.6219662119378929,-0.8947911775454751,0.5763969630411363,0.8092215099260098,-0.44408182947701164,-7.78746320021402e-17,-1.511932150378754e-16,-1.5094962088824465e-16,0.0,0.0
https://www.justonecookbook.com/miso-nikomi-udon/,3.252699604360372,3.7559764130382183,2.1074833848255357,-2.632392740586911,-1.870596820103144,-7.78746320021402e-17,-1.511932150378754e-16,-1.5094962088824465e-16,0.0,0.0
https://www.justonecookbook.com/kale-soup/,-0.5286103536204111,-0.2420978002768945,0.7599143764561685,-0.09889598794205018,-0.4603173379010212,-7.78746320021402e-17,-1.511932150378754e-16,-1.5094962088824465e-16,0.0,0.0
https://www.justonecookbook.com/hayashi-rice/,-0.41886180310456184,-0.4991935337422966,-0.21022017964832138,0.1742521478532461,-0.47012648507580784,-7.78746320021402e-17,-1.511932150378754e-16,-1.5094962088824465e-16,0.0,0.0
https://www.justonecookbook.com/instant-pot-cream-stew/,0.02612210106767445,-0.30437073540192333,-0.009402399889585819,0.07078395638169234,-0.6509155699441027,-7.78746320021402e-17,-1.511932150378754e-16,-1.5094962088824465e-16,0.0,0.0
https://www.justonecookbook.com/clam-soup/,1.259632940585026,2.9158843736016196,0.2512452365756783,-1.8739422641938956,-1.4614529814536303,-7.78746320021402e-17,-1.511932150378754e-16,-1.5094962088824465e-16,0.0,0.0
https://www.justonecookbook.com/sukiyaki/,2.026695162615279,2.5199081076564456,0.967898537683956,-1.7504803696723936,-0.9741767438661175,-7.78746320021402e-17,-1.511932150378754e-16,-1.5094962088824465e-16,0.0,0.0
https://www.justonecookbook.com/hot-pot-for-one/,1.8227030585126764,3.250602151513593,1.150169834660446,0.500208853305707,0.28548890389021986,-7.78746320021402e-17,-1.511932150378754e-16,-1.5094962088824465e-16,0.0,0.0
https://www.justonecookbook.com/homemade-instant-miso-soup/,2.0215565025632745,3.303720365039083,0.8327820990271895,-2.380018842248279,-1.5186719293805515,-7.78746320021402e-17,-1.511932150378754e-16,-1.5094962088824465e-16,0.0,0.0
https://www.justonecookbook.com/kimchi-soup-with-malony-glass-noodles/,-0.4121585114135463,0.26853504053566024,0.7450013605429912,-0.03898282896106166,0.08367324475395155,-7.78746320021402e-17,-1.511932150378754e-16,-1.5094962088824465e-16,0.0,0.0
https://www.justonecookbook.com/oxtail-oden/,2.217519369152502,2.1271622271465196,1.337597388360139,-0.812646025005247,-1.1477335684170167,-7.78746320021402e-17,-1.511932150378754e-16,-1.5094962088824465e-16,0.0,0.0
https://www.justonecookbook.com/kabocha-squash-soup/,0.28620167392251183,-0.5959044689348638,0.7368961947060078,-0.1476513274981454,-1.2818181503821007,-7.78746320021402e-17,-1.511932150378754e-16,-1.5094962088824465e-16,0.0,0.0
https://www.justonecookbook.com/vegetable-miso-soup/,1.9191466660265246,2.1811949189349247,0.05418128063940588,-1.2025836526459626,0.7378049922368888,-7.78746320021402e-17,-1.511932150378754e-16,-1.5094962088824465e-16,0.0,0.0
https://www.justonecookbook.com/zosui-japanese-rice-soup/,0.41025405364492,0.7862952340373025,0.7091605852680418,-0.42995884643168475,-0.6789066334495802,-7.78746320021402e-17,-1.511932150378754e-16,-1.5094962088824465e-16,0.0,0.0
https://www.justonecookbook.com/white-stew/,-0.05149360027639815,-0.4702962086334674,0.37801258772737145,0.04644365117596857,-0.5953915713907076,-0.663548093614435,2.0181835771888283,-0.7105396770094238,2.4127759266883624,2.641220464242846
https://www.justonecookbook.com/kimchi-chigae/,-0.5689696604878083,0.7630886351558827,0.5942307635537782,-0.5680980578871427,0.5545419752460427,-7.78746320021402e-17,-1.511932150378754e-16,-1.5094962088824465e-16,0.0,0.0
https://www.justonecookbook.com/corn-potage/,0.4860054193866165,-1.5087784925398309,0.2557625492867083,-0.1193981458411416,-0.7846116582878058,-7.78746320021402e-17,-1.511932150378754e-16,-1.5094962088824465e-16,0.0,0.0
https://www.justonecookbook.com/instant-pot-tonjiru/,2.3309597182692703,1.987230862188879,1.0189454532224984,-0.42284836395940884,-0.8622128896755897,-7.78746320021402e-17,-1.511932150378754e-16,-1.5094962088824465e-16,0.0,0.0
https://www.justonecookbook.com/pressure-cooker-oxtail-broth/,-1.8622481153382169,0.09330194816864465,0.35287036781766057,-0.5171106353686982,-0.016288497186145865,-7.78746320021402e-17,-1.511932150378754e-16,-1.5094962088824465e-16,0.0,0.0
https://www.justonecookbook.com/matsutake-clear-soup/,1.161703445531982,2.025313511728595,-0.10512607645642866,-0.6997397047709892,-2.489494611200336,-7.78746320021402e-17,-1.511932150378754e-16,-1.5094962088824465e-16,0.0,0.0
https://www.justonecookbook.com/creamy-roasted-cauliflower-soup/,0.08429291223851967,-0.6782568578589565,-0.10812013472967066,0.22139894259311751,-1.4466346510868002,-7.78746320021402e-17,-1.511932150378754e-16,-1.5094962088824465e-16,0.0,0.0
https://www.justonecookbook.com/hot-tofu-yudofu/,1.0123697764870492,3.0142925780320384,0.6041867640979419,-1.5940200247507246,-1.5695968387958479,-7.78746320021402e-17,-1.511932150378754e-16,-1.5094962088824465e-16,0.0,0.0
https://www.justonecookbook.com/soup-curry/,0.6477104382396645,-0.01907829122961884,-1.4783594339926749,0.14740234850889086,-0.8469489521701995,-7.78746320021402e-17,-1.511932150378754e-16,-1.5094962088824465e-16,0.0,0.0
https://www.justonecookbook.com/coconut-curry/,-0.4022496839816944,-0.6300636661247134,-0.11973773013574943,-0.2399679178450465,-0.48140111762158583,-7.78746320021402e-17,-1.511932150378754e-16,-1.5094962088824465e-16,0.0,0.0
https://www.justonecookbook.com/soy-milk-hot-pot-tonyu-nabe/,1.7833432349908782,2.477735289899637,0.3589669927916465,-0.5473073653318521,-0.5063844484703383,-7.78746320021402e-17,-1.511932150378754e-16,-1.5094962088824465e-16,0.0,0.0
https://www.justonecookbook.com/kare-kare-guest-post-by-ang-sarap/,0.21944164172618902,-0.7035629759765708,0.4185090337077813,-0.1829517668986074,0.04302406879554399,-7.78746320021402e-17,-1.511932150378754e-16,-1.5094962088824465e-16,0.0,0.0
https://www.justonecookbook.com/shabu-shabu/,2.3631274355510925,3.820714534564829,0.7569667595993722,-0.6925992621722141,0.34554150538808903,-7.78746320021402e-17,-1.511932150378754e-16,-1.5094962088824465e-16,0.0,0.0
https://www.justonecookbook.com/nameko-mushroom-miso-soup/,4.996203018843319,5.826433172771438,1.7087281995717083,-3.3936018929295813,-3.5171636693231703,-7.78746320021402e-17,-1.511932150378754e-16,-1.5094962088824465e-16,0.0,0.0
https://www.justonecookbook.com/pickled-ginger/,-1.146510952764208,-0.06690212423065474,0.18777894743053433,-0.9379097362885163,0.3558699768347733,-7.78746320021402e-17,-1.511932150378754e-16,-1.5094962088824465e-16,0.0,0.0
https://www.justonecookbook.com/korean-pancake/,0.1135104476024717,-1.3078075136692093,0.8281122597312914,-1.1528160287512117,-0.5222939562760538,-7.78746320021402e-17,-1.511932150378754e-16,-1.5094962088824465e-16,0.0,0.0
https://www.justonecookbook.com/pickled-cucumber/,-0.404878982462404,-0.0550092690592977,-0.1875845731334328,0.3366710099748371,-0.019668735408067843,-7.78746320021402e-17,-1.511932150378754e-16,-1.5094962088824465e-16,0.0,0.0
https://www.justonecookbook.com/takikomi-gohan/,1.065870083166374,2.5108731999347684,0.9961594652468909,-1.1500123169851633,-1.1917221401444107,-7.78746320021402e-17,-1.511932150378754e-16,-1.5094962088824465e-16,0.0,0.0
https://www.justonecookbook.com/myoga-shiso-rice/,-0.7768578218329476,-0.12128332435774672,-0.5749655963519347,-0.9051800732712165,0.28645307430128186,-7.78746320021402e-17,-1.511932150378754e-16,-1.5094962088824465e-16,0.0,0.0
https://www.justonecookbook.com/pickled-lotus-root/,0.9170049561171499,1.456019463282222,-1.4954462764255103,-0.4054489427304909,0.6664126869009397,-7.78746320021402e-17,-1.511932150378754e-16,-1.5094962088824465e-16,0.0,0.0
https://www.justonecookbook.com/maple-and-miso-glazed-roasted-carrots/,1.081202479881471,-0.34384057135107493,-0.4125913484332477,-0.47628151822856224,-2.0218481855179324,-7.78746320021402e-17,-1.511932150378754e-16,-1.5094962088824465e-16,0.0,0.0
https://www.justonecookbook.com/simmered-koyadofu/,2.940620236562702,2.8976202316287814,0.553438943902684,-1.545076711970909,-0.7549754824905609,-7.78746320021402e-17,-1.511932150378754e-16,-1.5094962088824465e-16,0.0,0.0
https://www.justonecookbook.com/tsukemono-shiozuke-salt-pickling/,1.225368757698869,2.131187562257427,-0.2679646453980558,0.4444739418141003,0.4965441275095432,-7.78746320021402e-17,-1.511932150378754e-16,-1.5094962088824465e-16,0.0,0.0
https://www.justonecookbook.com/kuri-kinton-candied-chestnuts-with-sweet-potatoes/,1.2433980792393773,-0.6009745342256663,0.11151704814725724,-1.092696084229869,0.011101612850470342,-7.78746320021402e-17,-1.511932150378754e-16,-1.5094962088824465e-16,0.0,0.0
https://www.justonecookbook.com/simmered-kombu-tsukudani/,0.805598411610265,1.9744746326580056,-0.5263277861693862,-0.8937291519747114,-0.8049147280129098,-7.78746320021402e-17,-1.511932150378754e-16,-1.5094962088824465e-16,0.0,0.0
https://www.justonecookbook.com/sweet-onion-takikomi-gohan/,-0.32434967529104886,-0.14361598582274177,0.19387207279260787,-1.3656513077012584,-1.311765871045332,-7.78746320021402e-17,-1.511932150378754e-16,-1.5094962088824465e-16,0.0,0.0
https://www.justonecookbook.com/simmered-sweet-potatoes-with-lemon/,0.5330330503323132,-1.0393338785858637,-0.3134635686308455,0.42595948075496093,1.306144837247369,-7.78746320021402e-17,-1.511932150378754e-16,-1.5094962088824465e-16,0.0,0.0
https://www.justonecookbook.com/tsukemono-amazuzuke-sweet-vinegar-pickling/,0.6031448725634848,0.957558731633382,-0.7357566175086729,0.5237722932794923,0.2417787787106642,-7.78746320021402e-17,-1.511932150378754e-16,-1.5094962088824465e-16,0.0,0.0
https://www.justonecookbook.com/bean-sprout-namul/,-0.44705176317363926,0.1993095230928359,-0.3508274827517164,-0.11518425273436178,1.0692665761127629,-7.78746320021402e-17,-1.511932150378754e-16,-1.5094962088824465e-16,0.0,0.0
https://www.justonecookbook.com/miso-meat-sauce-niku-miso/,0.18871877956739846,0.6954391126368256,0.5595005751369586,-0.9594668722435221,0.3514302387550254,-7.78746320021402e-17,-1.511932150378754e-16,-1.5094962088824465e-16,0.0,0.0
https://www.justonecookbook.com/quick-and-easy-tamagoyaki/,1.1410439078316414,-2.648354486020227,2.025394390466489,-1.57640644768435,-2.363985963180183,-7.78746320021402e-17,-1.511932150378754e-16,-1.5094962088824465e-16,0.0,0.0
https://www.justonecookbook.com/pickled-tomatoes/,1.1305208613279145,1.9234269826292496,0.5368924692808599,-1.0500138547993958,-1.3678805663597298,-7.78746320021402e-17,-1.511932150378754e-16,-1.5094962088824465e-16,0.0,0.0
https://www.justonecookbook.com/spinach-and-bean-sprout-namul/,-0.19783409891315093,0.0387384283407326,-0.6669393830664225,0.8954542508506177,0.6795678688143822,-7.78746320021402e-17,-1.511932150378754e-16,-1.5094962088824465e-16,0.0,0.0
https://www.justonecookbook.com/kuromame-sweet-black-soybeans/,-1.8421712065887315,0.009274528548128104,0.4823006203087949,-0.7368679000118775,0.041681472015917445,-7.78746320021402e-17,-1.511932150378754e-16,-1.5094962088824465e-16,0.0,0.0
https://www.justonecookbook.com/ham-flower/,9.369692027056445,0.7518447483008746,11.640615881785473,18.075641925193167,1.3715132538624712,-7.78746320021402e-17,-1.511932150378754e-16,-1.5094962088824465e-16,0.0,0.0
https://www.justonecookbook.com/easy-orange-ginger-cranberry-sauce/,0.4986544520922374,-1.3529749501468187,-1.5959629408794282,0.9351118422331276,-2.471975369684822,-7.78746320021402e-17,-1.511932150378754e-16,-1.5094962088824465e-16,0.0,0.0
https://www.justonecookbook.com/tsukemono-misozuke-miso-pickling/,1.4088544154096196,2.670973759732189,-0.3956945384982122,-0.966530014170795,-0.8371862609181482,-7.78746320021402e-17,-1.511932150378754e-16,-1.5094962088824465e-16,0.0,0.0
https://www.justonecookbook.com/homemade-chashu/,-0.4510925969963127,-0.6024586632805197,0.5883870661519645,-0.3326269683094953,-0.2800808474654468,-7.78746320021402e-17,-1.511932150378754e-16,-1.5094962088824465e-16,0.0,0.0
https://www.justonecookbook.com/tamagoyaki-japanese-rolled-omelette/,2.038697328827365,1.7692163342946337,1.0984100144139797,-1.7012504675226325,-2.0346650711113243,-7.78746320021402e-17,-1.511932150378754e-16,-1.5094962088824465e-16,0.0,0.0
https://www.justonecookbook.com/sekihan-japanese-azuki-beans-rice/,0.6278611564219352,-0.46289363256174926,-0.6853914151667183,-1.1468062321534986,2.8445787022961477,-7.78746320021402e-17,-1.511932150378754e-16,-1.5094962088824465e-16,0.0,0.0
https://www.justonecookbook.com/chikuzenni-simmered-chicken-and-vegetables/,1.1510630950282847,1.7021585691738346,-0.15854334791764782,-0.9050852847549365,0.4790892232968697,-7.78746320021402e-17,-1.511932150378754e-16,-1.5094962088824465e-16,0.0,0.0
https://www.justonecookbook.com/green-beans-with-yuzu-vinaigrette/,0.3353797127682627,-0.9455187765228514,-1.2761793421852308,1.0481763080419342,-0.8118165687448295,-7.78746320021402e-17,-1.511932150378754e-16,-1.5094962088824465e-16,0.0,0.0
https://www.justonecookbook.com/pearl-balls-guest-post-by-weeknite-meals/,0.2829162905522121,-0.3332103069778007,1.0284173069022624,0.025781863083024263,1.121203171353782,-7.78746320021402e-17,-1.511932150378754e-16,-1.5094962088824465e-16,0.0,0.0
https://www.justonecookbook.com/bamboo-rice-takenoko-gohan/,0.38159965133911344,2.1719275275143928,0.3228336493748862,-1.1792490146904255,-0.623234493039279,-7.78746320021402e-17,-1.511932150378754e-16,-1.5094962088824465e-16,0.0,0.0
https://www.justonecookbook.com/simmered-bamboo-shoots/,1.3041683174831984,4.057798476405011,0.49061612976103036,-2.856055291216588,-2.304626761426817,-7.78746320021402e-17,-1.511932150378754e-16,-1.5094962088824465e-16,0.0,0.0
https://www.justonecookbook.com/simmered-kabocha-squash/,-0.8060016903139126,1.4570483234837628,0.3796826692654628,-0.8924220252108225,-1.0217589831163132,-7.78746320021402e-17,-1.511932150378754e-16,-1.5094962088824465e-16,0.0,0.0
https://www.justonecookbook.com/how-to-make-rice/,-1.7082930969621621,-0.06777031928729298,0.43958870689069224,-0.7329366134173412,-0.17399798309442724,-7.78746320021402e-17,-1.511932150378754e-16,-1.5094962088824465e-16,0.0,0.0
https://www.justonecookbook.com/simmered-fried-tofu-and-greens/,2.971056663368868,4.028179292145135,0.7675290332947863,-0.0396563987313092,-0.3989492372707649,-7.78746320021402e-17,-1.511932150378754e-16,-1.5094962088824465e-16,0.0,0.0
https://www.justonecookbook.com/daikon-leaves-furikake/,-0.07728932885856199,1.0894564855399977,-0.0842231543278991,-1.0530769911407847,-0.16509191539175802,-7.78746320021402e-17,-1.511932150378754e-16,-1.5094962088824465e-16,0.0,0.0
https://www.justonecookbook.com/plum-rice-ball/,-0.3543415500803443,-0.21385915046939133,-0.7978746384896971,-0.8383817580337469,0.19319863273939689,-7.78746320021402e-17,-1.511932150378754e-16,-1.5094962088824465e-16,0.0,0.0
https://www.justonecookbook.com/ume-shiso-rice/,0.35718437561278477,-0.2603767845073366,-1.5719198899965763,-0.9325723469130638,0.585655738208216,-7.78746320021402e-17,-1.511932150378754e-16,-1.5094962088824465e-16,0.0,0.0
https://www.justonecookbook.com/green-bean-gomaae/,0.11719259196552297,-0.17203671412474633,-0.7580104149886916,-0.12462157531066134,1.7920033729163813,-7.78746320021402e-17,-1.511932150378754e-16,-1.5094962088824465e-16,0.0,0.0
https://www.justonecookbook.com/pickled-daikon/,0.6635172529157496,1.175727664391532,-0.6858941671330728,0.4456597144867962,0.5118523568194444,-7.78746320021402e-17,-1.511932150378754e-16,-1.5094962088824465e-16,0.0,0.0
https://www.justonecookbook.com/steamed-vegetables-with-miso-sesame-sauce/,1.7241543770628582,1.466461257249785,-0.058684649962529666,-0.6199947943870519,0.2809359234465174,-7.78746320021402e-17,-1.511932150378754e-16,-1.5094962088824465e-16,0.0,0.0
https://www.justonecookbook.com/pickled-cucumbers-and-myoga/,0.9119018744730011,1.5237846500501722,-0.8292404666659859,0.30906785335406933,-0.3065649261959165,-7.78746320021402e-17,-1.511932150378754e-16,-1.5094962088824465e-16,0.0,0.0
https://www.justonecookbook.com/matsutake-gohan/,4.056988395833787,6.0009411587142045,1.394896399297532,-3.6834293608780695,-3.755231223147295,-7.78746320021402e-17,-1.511932150378754e-16,-1.5094962088824465e-16,0.0,0.0
https://www.justonecookbook.com/yaki-onigiri-grilled-rice-ball/,-0.5547859116452186,-1.3187249951037106,0.22152380061703736,-1.6507040784049478,-1.4672955638534848,-7.78746320021402e-17,-1.511932150378754e-16,-1.5094962088824465e-16,0.0,0.0
https://www.justonecookbook.com/how-to-cook-rice/,-2.2816184343913033,0.08485445845569731,0.5923796942709796,-0.8046181080907308,0.268980256685153,-7.78746320021402e-17,-1.511932150378754e-16,-1.5094962088824465e-16,0.0,0.0
https://www.justonecookbook.com/pounded-burdock-root-with-sesame-sauce/,-0.00013403123051634582,0.6331495843412484,-0.37950993788730225,-1.6347154979022402,0.012799675255752107,-7.78746320021402e-17,-1.511932150378754e-16,-1.5094962088824465e-16,0.0,0.0
https://www.justonecookbook.com/tsukemono-pickled-cabbage/,0.6789366692976228,1.0986741625037582,-0.8894605642693032,0.008416069101263768,-0.013275574100860303,-7.78746320021402e-17,-1.511932150378754e-16,-1.5094962088824465e-16,0.0,0.0
https://www.justonecookbook.com/tsukemono-kasuzuke-sake-lees-pickling/,1.2033011164733816,1.75917953640481,-0.037530025396477616,-1.0125337290709158,-0.7287648220525215,-7.78746320021402e-17,-1.511932150378754e-16,-1.5094962088824465e-16,0.0,0.0
https://www.justonecookbook.com/easy-soy-sauce-pickles/,0.4932410066457788,1.405476924967513,-0.4466633261396339,0.3171766445041952,-0.08588267680771904,-7.78746320021402e-17,-1.511932150378754e-16,-1.5094962088824465e-16,0.0,0.0
https://www.justonecookbook.com/pickled-daikon-with-shio-koji/,0.7250086132982972,1.86500386668094,-0.5092002438392438,-0.17943343807689585,-0.38389102477122256,-7.78746320021402e-17,-1.511932150378754e-16,-1.5094962088824465e-16,0.0,0.0
https://www.justonecookbook.com/simmered-taro/,1.6693865461547521,1.494445134819654,0.6369019681845075,-2.333070655338794,-2.880766360776626,-7.78746320021402e-17,-1.511932150378754e-16,-1.5094962088824465e-16,0.0,0.0
https://www.justonecookbook.com/instant-pot-rice/,-2.2816184343913033,0.08485445845569731,0.5923796942709796,-0.8046181080907308,0.268980256685153,-7.78746320021402e-17,-1.511932150378754e-16,-1.5094962088824465e-16,0.0,0.0
https://www.justonecookbook.com/miso-yaki-onigiri/,1.0073474337066604,0.3574419112686644,-0.2394904515871876,-2.407575243847157,-1.7136307333976697,-7.78746320021402e-17,-1.511932150378754e-16,-1.5094962088824465e-16,0.0,0.0
https://www.justonecookbook.com/pickled-turnip-with-yuzu/,1.9957886188080476,2.1471270758696055,-1.0746478284849528,0.9355158603318772,-1.1469604316630453,-7.78746320021402e-17,-1.511932150378754e-16,-1.5094962088824465e-16,0.0,0.0
https://www.justonecookbook.com/tsukemono-shoyuzuke-soy-sauce-pickling/,-0.25178446967652796,-0.05121346991337919,-0.8854800932915118,0.6511786803060199,0.7373223293033798,-7.78746320021402e-17,-1.511932150378754e-16,-1.5094962088824465e-16,0.0,0.0
https://www.justonecookbook.com/ramen-egg/,0.2254206818404636,0.07678053219945612,2.2822528366675803,-1.220888333049803,-1.3537904802586043,-7.78746320021402e-17,-1.511932150378754e-16,-1.5094962088824465e-16,0.0,0.0
https://www.justonecookbook.com/pickled-watermelon-rind/,-0.8696951691486816,-0.08409472110277218,-0.3049506300457422,-0.9664347034070342,0.4644912712947183,-7.78746320021402e-17,-1.511932150378754e-16,-1.5094962088824465e-16,0.0,0.0
https://www.justonecookbook.com/how-to-make-sushi-rice/,0.2544580357725645,1.71958208756375,0.29085839862512647,-1.9630050621623445,-0.5900936161290529,-7.78746320021402e-17,-1.511932150378754e-16,-1.5094962088824465e-16,0.0,0.0
https://www.justonecookbook.com/simmered-kabocha-with-shio-koji/,-2.2816184343913033,0.08485445845569731,0.5923796942709796,-0.8046181080907308,0.268980256685153,-7.78746320021402e-17,-1.511932150378754e-16,-1.5094962088824465e-16,0.0,0.0
https://www.justonecookbook.com/nanakusa-gayu-seven-herb-rice-porridge/,-1.7082930969621621,-0.06777031928729298,0.43958870689069224,-0.7329366134173412,-0.17399798309442724,-7.78746320021402e-17,-1.511932150378754e-16,-1.5094962088824465e-16,0.0,0.0
https://www.justonecookbook.com/kinpira-renkon-lotus-root/,0.24395684663972714,0.6747091392238614,-1.3709015411351724,-0.42935871177115936,0.7544088545555425,-7.78746320021402e-17,-1.511932150378754e-16,-1.5094962088824465e-16,0.0,0.0
https://www.justonecookbook.com/cherry-blossom-rice-balls/,0.09900498770844372,-0.46542202132232297,-1.2898029714700718,-0.07946176968754758,0.22113935464187376,-7.78746320021402e-17,-1.511932150378754e-16,-1.5094962088824465e-16,0.0,0.0
https://www.justonecookbook.com/shibazuke-pickles/,0.24607198056730828,1.2572145377189232,-0.07621570085262844,-0.5239158555377761,-0.4911656602277035,-7.78746320021402e-17,-1.511932150378754e-16,-1.5094962088824465e-16,0.0,0.0
https://www.justonecookbook.com/namasu-daikon-and-carrot-salad/,0.7062782381247176,0.9721818727421679,-0.6130564237147529,0.09682634551755852,-1.027733517792189,-0.663548093614435,-0.705471250433263,-0.7105396770094238,-0.5994318570462771,-0.551257766599824
https://www.justonecookbook.com/how-to-cook-rice-in-donabe/,-2.2816184343913033,0.08485445845569731,0.5923796942709796,-0.8046181080907308,0.268980256685153,2.14218121571719,-0.705471250433263,-1.5094962088824465e-16,0.0,0.0
https://www.justonecookbook.com/instant-pot-brown-rice/,-1.7082930969621621,-0.06777031928729298,0.43958870689069224,-0.7329366134173412,-0.17399798309442724,-7.78746320021402e-17,-1.511932150378754e-16,-1.5094962088824465e-16,0.0,0.0
https://www.justonecookbook.com/onigiri-rice-balls/,1.0815030774852898,2.2427006149622004,0.5742295499872622,-1.20300520792409,-1.9287705336049652,-7.78746320021402e-17,-1.511932150378754e-16,-1.5094962088824465e-16,0.0,0.0
https://www.justonecookbook.com/chestnut-rice-kurigohan/,0.5970212844737962,-0.3470952177076636,-0.5216673707164147,-1.098714475995742,2.2659133597981866,-7.78746320021402e-17,-1.511932150378754e-16,-1.5094962088824465e-16,0.0,0.0
https://www.justonecookbook.com/ginger-rice/,-0.5108306174279084,1.3134833973522226,0.6627192914180874,-1.4051511784621338,-0.6687593780034788,-7.78746320021402e-17,-1.511932150378754e-16,-1.5094962088824465e-16,0.0,0.0
https://www.justonecookbook.com/instant-pot-takikomi-gohan/,1.0854950497409244,2.605675396216335,1.0825247874215944,-1.5947709436440738,-1.4356538218792678,-7.78746320021402e-17,-1.511932150378754e-16,-1.5094962088824465e-16,0.0,0.0
https://www.justonecookbook.com/instant-pot-kuromame/,-1.8421712065887315,0.009274528548128104,0.4823006203087949,-0.7368679000118775,0.041681472015917445,-0.663548093614435,-0.705471250433263,-0.7105396770094238,-0.5994318570462771,2.641220464242846
https://www.justonecookbook.com/kinpira-gobo-braised-carrot-burdock-root/,1.8024899361282067,1.9674443840428995,0.25230978055312353,-2.3573269231111897,-2.1435763602591473,-7.78746320021402e-17,-1.511932150378754e-16,-1.5094962088824465e-16,0.0,0.0
https://www.justonecookbook.com/spinach-with-sesame-miso-sauce/,0.9471686308928113,1.4811284315057327,-0.19391108911941765,-1.5638794106951646,-0.7946777176331381,-7.78746320021402e-17,-1.511932150378754e-16,-1.5094962088824465e-16,0.0,0.0
https://www.justonecookbook.com/okra-ohitashi/,2.995369659612116,4.782157257391524,1.1662924547725932,-2.7376851904057795,-3.626590336927395,-7.78746320021402e-17,-1.511932150378754e-16,-1.5094962088824465e-16,0.0,0.0
https://www.justonecookbook.com/dinner-rolls/,-0.4317282979365995,-1.694835888077124,0.7876029387403398,-1.187791405721837,-0.6496265709269509,-7.78746320021402e-17,-1.511932150378754e-16,-1.5094962088824465e-16,0.0,0.0
https://www.justonecookbook.com/spinach-ohitashi-japanese-spinach-salad-with-bonito-flakes/,1.3584383910325002,2.607940579289952,-0.15650838263041192,-1.6569317858947794,-1.5056894048877867,-7.78746320021402e-17,-1.511932150378754e-16,-1.5094962088824465e-16,0.0,0.0
https://www.justonecookbook.com/grilled-corn-with-miso-butter/,0.22704882780304367,-0.9568676446682584,0.394310639977029,-0.19849927182473748,0.3483633819075642,-7.78746320021402e-17,-1.511932150378754e-16,-1.5094962088824465e-16,0.0,0.0
https://www.justonecookbook.com/onsen-tamago/,2.0236141767977656,2.89745148436666,1.541705153231767,-1.5204050171683763,-2.515196081835259,-7.78746320021402e-17,-1.511932150378754e-16,-1.5094962088824465e-16,0.0,0.0
https://www.justonecookbook.com/japanese-turnips-with-soboro-ankake-sauce/,1.0227229503774917,1.1887933973172509,0.9196728350055946,-1.3089796539938217,-0.3578180677542751,-7.78746320021402e-17,-1.511932150378754e-16,-1.5094962088824465e-16,0.0,0.0
https://www.justonecookbook.com/mashed-potatoes-with-shio-koji/,-0.017206991558341104,-1.3397176667118997,0.7414178479039546,-0.10421241184215001,-0.7558221822457922,-7.78746320021402e-17,-1.511932150378754e-16,-1.5094962088824465e-16,0.0,0.0
https://www.justonecookbook.com/baby-sardine-tsukudani/,-0.012471867045519105,0.862799841750103,-0.4770777264046781,-1.640578403782264,-0.3644813677843745,-7.78746320021402e-17,-1.511932150378754e-16,-1.5094962088824465e-16,0.0,0.0
https://www.justonecookbook.com/daikon-and-cucumber-salad-with-shio-koji/,0.7694489691559667,1.3244867140772614,-0.5770627647419238,0.3364450503767146,0.7542079191625957,-7.78746320021402e-17,-1.511932150378754e-16,-1.5094962088824465e-16,0.0,0.0
https://www.justonecookbook.com/popovers-with-strawberry-butter/,0.2972711934387337,-1.9511509269487415,1.6781678422853,-0.714189982768565,-1.4976405905084642,-7.78746320021402e-17,-1.511932150378754e-16,-1.5094962088824465e-16,0.0,0.0
https://www.justonecookbook.com/miso-glazed-eggplant/,0.26009267154189547,0.3859139235956466,-1.179156940557951,0.45842834840201163,-0.1548714511811527,-7.78746320021402e-17,-1.511932150378754e-16,-1.5094962088824465e-16,0.0,0.0
https://www.justonecookbook.com/sansai-gohan/,1.0522965742183745,3.0782880151381304,0.7079987281822023,-2.4492881409495113,-1.6023100819800633,-7.78746320021402e-17,-1.511932150378754e-16,-1.5094962088824465e-16,0.0,0.0
https://www.justonecookbook.com/pickled-cucumbers/,-0.3169120454886569,0.44259217132243794,-0.20626505929425917,0.35072843539237425,0.16938115621431252,-7.78746320021402e-17,-1.511932150378754e-16,-1.5094962088824465e-16,0.0,0.0
https://www.justonecookbook.com/chikuwa-cucumber/,2.3125405222837863,1.219945433784756,-0.8426460597666582,2.1080800796448282,1.3500540905858707,-7.78746320021402e-17,-1.511932150378754e-16,-1.5094962088824465e-16,0.0,0.0
https://www.justonecookbook.com/broccoli-blanched-with-sesame-oil/,-0.7391423172289145,0.028976990296781142,-0.21254064851067395,-0.6387046007786366,0.3113759367253498,-7.78746320021402e-17,-1.511932150378754e-16,-1.5094962088824465e-16,0.0,0.0
https://www.justonecookbook.com/simmered-kiriboshi-daikon/,1.5440474772294877,1.9186364330874721,0.8041214836754405,-2.0735861021247626,-2.0389697674343283,-7.78746320021402e-17,-1.511932150378754e-16,-1.5094962088824465e-16,0.0,0.0
