url,0,1,2,3,4,high_carb,high_protein,high_fat,high_sodium,high_sugar
https://glebekitchen.com/miso-chicken-with-maple-and-ginger/,0.7821088603683786,0.3157245899473039,0.14532753010686247,-1.2021925932136888,-1.1873968887882742,-0.6641208585839314,2.0199256436134796,-0.7111530044235852,-0.5999492778219834,-0.5517336042081445
https://glebekitchen.com/tonkotsu-ramen-home/,1.2786893955416774,1.2860599113746662,2.067555608658777,-0.24803623074726439,-0.5127359302999539,2.144030315082381,2.0199256436134796,2.010460852128312,2.414858599434092,2.6435003269584407
https://glebekitchen.com/garlic-ginger-grilled-chicken/,-0.5654431934456945,0.08160457931598683,-0.4173256281246683,0.02577542176006208,-0.591086863989459,-0.6641208585839314,2.0199256436134796,2.010460852128312,2.414858599434092,-0.5517336042081445
https://glebekitchen.com/tonkotsu-ramen-broth-home/,1.1232900493753377,0.39510771137273404,3.1335063954170534,2.9242302037215864,1.2094741609988646,-0.6641208585839314,0.0,0.0,-0.5999492778219834,0.0
https://glebekitchen.com/japanese-chicken-curry-curry-rice/,0.24111034031612016,0.2194489457155783,-1.824567611745585,0.09257662633230145,-1.1068271859148047,-0.6641208585839314,-0.7060802028560391,-0.7111530044235852,2.414858599434092,-0.5517336042081445
https://glebekitchen.com/chicken-karaage-japanese-fried-chicken/,0.47362870246400063,0.029896970625775024,1.0379497145047991,0.13726443988733725,0.5156391672892422,-0.6641208585839314,2.0199256436134796,2.010460852128312,2.414858599434092,-0.5517336042081445
https://glebekitchen.com/curry-chicken-ramen/,0.4964052211011366,0.7205073374399807,1.220936924436675,-0.20585351250999495,-0.0811626597099654,2.144030315082381,2.0199256436134796,2.010460852128312,-0.5999492778219834,-0.5517336042081445
https://glebekitchen.com/sous-vide-steak-tataki-style/,0.4480909201214497,-0.1384859744094205,-0.3984247862668938,0.294395987381265,-0.8788673120951986,-0.6641208585839314,-0.7060802028560391,-0.7111530044235852,-0.5999492778219834,-0.5517336042081445
https://glebekitchen.com/momofuku-pork-belly/,-0.9893694485395687,0.27471880931314585,1.0240276117753757,0.8314450047472538,0.8739976033539425,-0.6641208585839314,-0.7060802028560391,2.010460852128312,2.414858599434092,-0.5517336042081445
https://glebekitchen.com/gyudon-japanese-beef-bowl/,1.6633328676101895,2.2155413143418157,0.7896634660818875,-2.4379847672193957,-1.0242772786988885,-0.6641208585839314,2.0199256436134796,-0.7111530044235852,2.414858599434092,2.6435003269584407
https://glebekitchen.com/japadog-style-terimayo-hot-dog/,-0.5116138056962292,-0.23329958935542983,0.49830470778564684,-0.7636919119628085,-0.4192253520641681,2.144030315082381,-0.7060802028560391,2.010460852128312,2.414858599434092,2.6435003269584407
https://glebekitchen.com/japanese-miso-soup/,2.2873800975050016,3.6227797359892078,0.9977858045897924,-2.3299513973431587,-1.8798345609139135,-0.6641208585839314,-0.7060802028560391,-0.7111530044235852,2.414858599434092,-0.5517336042081445
https://glebekitchen.com/japanese-chicken-yakitori/,-0.9763445429708622,0.3913588096815681,0.4601935355106797,-0.5909063932252048,-0.05747356578376586,-0.6641208585839314,-0.7060802028560391,-0.7111530044235852,-0.5999492778219834,-0.5517336042081445
https://glebekitchen.com/miso-ramen-with-chashu-pork/,1.2576139440773468,1.2052281326155745,2.158929932355014,-0.14300795878587325,-0.34767418302860753,2.144030315082381,2.0199256436134796,2.010460852128312,2.414858599434092,2.6435003269584407
https://glebekitchen.com/30-minute-curry-ramen/,0.8551532006292666,0.8223846115800778,1.6198683377719982,-0.3901608679486567,-0.31356972589345516,-0.6641208585839314,2.0199256436134796,-0.7111530044235852,2.414858599434092,-0.5517336042081445
https://glebekitchen.com/japanese-gyoza/,0.47979102920391625,1.5687075427799486,0.4891262037634246,-0.14773767476175295,0.6978626999182443,-0.6641208585839314,-0.7060802028560391,-0.7111530044235852,-0.5999492778219834,0.0
https://glebekitchen.com/vietnamese-chicken-curry-ca-ri-ga/,-0.2524870932991439,0.16940665465591853,-0.4314027378153806,0.08697294760127494,-0.03226725803885688,2.144030315082381,2.0199256436134796,2.010460852128312,2.414858599434092,-0.5517336042081445
https://glebekitchen.com/asian-grilled-chicken-wings/,1.5711149417359442,1.1809642635945645,-1.8465008640924736,1.2695873704765668,-1.2109635876544653,0.0,-0.7060802028560391,-0.7111530044235852,2.414858599434092,0.0
https://glebekitchen.com/carpaccio-asian-style/,-0.4402907009172621,0.09591255979895298,-1.0781168097757192,0.5666351804367639,0.3257689759089203,-0.6641208585839314,-0.7060802028560391,-0.7111530044235852,-0.5999492778219834,0.0
https://glebekitchen.com/vietnamese-grilled-chicken-with-ginger-soy-noodle-salad/,0.6848982091084632,0.5805695056006828,-1.7403662909838538,0.5311476780313441,-0.2503862702223763,2.144030315082381,2.0199256436134796,2.010460852128312,2.414858599434092,2.6435003269584407
https://glebekitchen.com/vietnamese-lemongrass-chicken-noodle-bowl/,1.1382281587840728,0.645663760952937,-1.6232999348157693,0.30210544320165594,-0.11533588417240782,2.144030315082381,-0.7060802028560391,-0.7111530044235852,2.414858599434092,2.6435003269584407
https://glebekitchen.com/vietnamese-spring-rolls-with-peanut-sauce/,0.9866037491100049,-0.2278905957921639,-0.06637362367863035,-0.19913815460464013,-0.6195953370101439,2.144030315082381,-0.7060802028560391,-0.7111530044235852,-0.5999492778219834,-0.5517336042081445
https://glebekitchen.com/nuoc-cham-vietnamese-dipping-sauce/,0.37209490676657514,-0.5279150949707033,-1.451615498545603,1.232861876224255,-0.30042360318955497,2.144030315082381,-0.7060802028560391,-0.7111530044235852,2.414858599434092,2.6435003269584407
https://glebekitchen.com/salmon-with-rice-noodles/,-0.32259065553478117,-0.3727901346483328,-0.33210671168452666,0.5441232908136975,-0.5623117648458423,-0.6641208585839314,2.0199256436134796,-0.7111530044235852,-0.5999492778219834,-0.5517336042081445
https://glebekitchen.com/vietnamese-noodle-salad/,0.786940102692013,0.7293693305489675,-1.1652592677722993,0.37311917136502865,-1.1146233641014154,2.144030315082381,2.0199256436134796,2.010460852128312,2.414858599434092,2.6435003269584407
https://glebekitchen.com/vietnamese-sate-sauce/,-0.6656282687892842,0.32988763982638186,-0.34593712200761034,0.27972158407308245,0.02217996672843385,2.144030315082381,-0.7060802028560391,2.010460852128312,2.414858599434092,2.6435003269584407
https://glebekitchen.com/authentic-pho-ga-vietnamese-chicken-noodle-soup/,0.04031931197846735,0.4764020521598809,0.5389695279774704,-0.056516272480368945,0.656794851356068,2.144030315082381,2.0199256436134796,2.010460852128312,2.414858599434092,-0.5517336042081445
https://glebekitchen.com/bun-cha-vietnamese-grilled-pork-with-rice-noodles/,1.6902774099734545,0.7111783060682769,-2.1321854361111257,0.3925591292218834,-0.7967978497914515,-0.6641208585839314,2.0199256436134796,2.010460852128312,2.414858599434092,2.6435003269584407
https://glebekitchen.com/vietnamese-ginger-beef-stir-fry/,-0.9803204194054609,0.14062450372797622,-0.009693654684610819,0.20721081981570674,0.4136183304227541,-0.6641208585839314,2.0199256436134796,2.010460852128312,2.414858599434092,-0.5517336042081445
https://glebekitchen.com/beef-pho-easy-vietnamese-pho-bo/,0.637804886934175,0.2727865034864579,-0.55693968813032,0.026887382985084297,0.5989940415970986,2.144030315082381,2.0199256436134796,2.010460852128312,2.414858599434092,2.6435003269584407
https://glebekitchen.com/vietnamese-banh-mi-gochujang-mayo/,-0.12015260226228835,0.7309973611529118,0.19882892618601256,0.4828779094309697,0.9005671961936953,0.0,-0.7060802028560391,2.010460852128312,-0.5999492778219834,0.0
https://glebekitchen.com/bo-kho-vietnamese-beef-stew-with-egg-noodles/,0.45391547976143565,0.4073060602310513,-0.6091028038886582,0.9005954285021373,0.29256786580174987,2.144030315082381,2.0199256436134796,2.010460852128312,2.414858599434092,-0.5517336042081445
https://glebekitchen.com/vietnamese-beef-noodle-salad/,1.248690086196963,0.5632267616752697,-1.7642960230818316,0.3063906354085357,-0.5362949951462179,2.144030315082381,2.0199256436134796,-0.7111530044235852,2.414858599434092,2.6435003269584407
https://glebekitchen.com/bun-thit-nuong-vietnamese-grilled-pork-with-rice-noodles/,-0.09695885621632526,0.08209165657227173,-0.45703063724010856,0.5283991019184167,0.060864490678563116,2.144030315082381,-0.7060802028560391,-0.7111530044235852,2.414858599434092,-0.5517336042081445
https://glebekitchen.com/spicy-beef-noodle-soup-vietnamese-style/,1.1503003133346725,0.5442042965817717,-0.5367691269834501,1.0129514712686063,0.7008602896352795,2.144030315082381,2.0199256436134796,-0.7111530044235852,2.414858599434092,-0.5517336042081445
https://glebekitchen.com/shaking-beef-vietnamese-bo-luc-lac/,0.00683797352594804,0.2764511074396505,0.12133789166109986,0.49170240417129324,0.28972197578510434,-0.6641208585839314,2.0199256436134796,-0.7111530044235852,2.414858599434092,2.6435003269584407
https://glebekitchen.com/vindaloo-paste/,-0.9158117224995141,0.06831608130261052,-1.0236213065189885,0.2998618878208669,-0.4227554664314301,-0.6641208585839314,-0.7060802028560391,2.010460852128312,-0.5999492778219834,2.6435003269584407
https://glebekitchen.com/beef-rogan-josh/,0.2309034549208388,-0.4213555842775512,-2.1887045466606003,0.834702001442101,-0.654073033827486,-0.6641208585839314,2.0199256436134796,2.010460852128312,-0.5999492778219834,-0.5517336042081445
https://glebekitchen.com/achari-chicken-curry-indian-hotel-style/,0.08318560900304711,-0.07160597477613442,-2.295371422811458,0.47334650487783114,-0.414247629274046,-0.6641208585839314,2.0199256436134796,2.010460852128312,2.414858599434092,-0.5517336042081445
https://glebekitchen.com/indian-restaurant-hariyali-chicken-curry/,-0.1878323855622632,0.05814952034599623,-1.9652333868444825,0.5411088785617052,-0.36692169353724413,-0.6641208585839314,2.0199256436134796,2.010460852128312,2.414858599434092,-0.5517336042081445
https://glebekitchen.com/ceylon-chicken-curry-indian-hotel-style/,0.2707076153622784,-0.5966813177638552,-1.9591157804516741,0.18160074076302804,-0.37624493918057894,-0.6641208585839314,2.0199256436134796,2.010460852128312,2.414858599434092,2.6435003269584407
https://glebekitchen.com/lemon-coriander-chicken-curry/,0.17669347078018852,-0.32058355214137924,-1.8287230185935672,0.8390336808992791,-0.8426919953421432,-0.6641208585839314,-0.7060802028560391,2.010460852128312,-0.5999492778219834,-0.5517336042081445
https://glebekitchen.com/lamb-vindaloo-indian-restaurant-style/,0.1981236063493321,0.05975695372399769,-2.015991459327036,0.6144807051443927,-0.48627874830825063,-0.6641208585839314,2.0199256436134796,2.010460852128312,-0.5999492778219834,-0.5517336042081445
https://glebekitchen.com/kari-ayam-malaysian-curry-chicken/,0.5436550799932794,-0.45182111629347566,-1.1252271523141046,0.30335043743426154,0.21088840490617605,0.0,0.0,0.0,0.0,0.0
https://glebekitchen.com/indian-spiced-chicken-wings-with-tamarind-dipping-sauce/,0.16521538771209482,-0.37159017398138705,-2.0136822402926913,0.5409662224959196,-0.7623132886542383,-0.6641208585839314,-0.7060802028560391,-0.7111530044235852,-0.5999492778219834,2.6435003269584407
https://glebekitchen.com/gobi-manchurian-indian-cauliflower-wings/,0.20552973405234554,-0.3796729073370149,-1.0315546774428046,0.420483564038729,0.7104846729718166,-0.6641208585839314,-0.7060802028560391,-0.7111530044235852,2.414858599434092,-0.5517336042081445
https://glebekitchen.com/tandoori-marinade/,0.17290817236531808,-0.18738690507512173,-2.710056696376688,0.3485556861898962,-1.0225235077213204,-0.6641208585839314,-0.7060802028560391,2.010460852128312,2.414858599434092,-0.5517336042081445
https://glebekitchen.com/chicken-vindaloo-restaurant-style/,0.2544293130797566,-0.06425804162384965,-2.6310013012812195,0.07447472044854316,-0.3572703003671397,-0.6641208585839314,-0.7060802028560391,2.010460852128312,-0.5999492778219834,-0.5517336042081445
https://glebekitchen.com/chicken-tikka/,0.2353303705571891,-0.19176215476803055,-2.4151466324607336,0.37019072348536125,-1.011951161580047,-0.6641208585839314,-0.7060802028560391,-0.7111530044235852,-0.5999492778219834,0.0
https://glebekitchen.com/garam-masala-indias-most-famous-spice-mix/,1.6532030691400523,-1.1789179679121724,-4.2056983136464625,1.264426568380634,-1.5212573236166897,-0.6641208585839314,-0.7060802028560391,-0.7111530044235852,-0.5999492778219834,0.0
https://glebekitchen.com/indian-restaurant-curry-base/,-0.6875610217208097,-0.05603017863344584,-1.4832315325412564,0.17087256161356887,-0.7319059865113544,-0.6641208585839314,-0.7060802028560391,-0.7111530044235852,-0.5999492778219834,-0.5517336042081445
https://glebekitchen.com/nearly-restaurant-style-chicken-saag-curry/,0.3682981017031842,0.07703880767155129,-2.647875385101141,0.3666702792172969,-1.164833477364063,-0.6641208585839314,2.0199256436134796,2.010460852128312,-0.5999492778219834,-0.5517336042081445
https://glebekitchen.com/nihari-gosht-indian-beef-stew/,0.8761161638590038,-0.8253658490422814,-2.2274191024063352,0.6375311767848657,-0.472746209521354,-0.6641208585839314,2.0199256436134796,2.010460852128312,-0.5999492778219834,-0.5517336042081445
https://glebekitchen.com/palak-paneer-indian-restaurant-style-spinach-curry/,0.6692179941455152,0.152212363075391,-2.8456145208494408,0.6278628537153258,-0.9742097132378366,-0.6641208585839314,-0.7060802028560391,2.010460852128312,-0.5999492778219834,-0.5517336042081445
https://glebekitchen.com/tandoori-chicken/,0.31652316974049927,-0.2994681522009613,-2.813280604699966,0.3285528563232815,-1.226092572556716,-0.6641208585839314,2.0199256436134796,2.010460852128312,2.414858599434092,0.0
https://glebekitchen.com/bagara-baingan-indian-hotel-style-eggplant-curry/,0.3749406343020402,-0.49745736473693847,-2.3827730739772206,0.01010291461766881,-0.7541580582250111,2.144030315082381,-0.7060802028560391,2.010460852128312,2.414858599434092,2.6435003269584407
https://glebekitchen.com/sambar-south-indian-lentil-and-vegetable-stew/,0.5258118501249257,-0.1505955839186423,-2.4322511296821325,0.8752087475458084,0.6140986902629305,2.144030315082381,-0.7060802028560391,-0.7111530044235852,-0.5999492778219834,2.6435003269584407
https://glebekitchen.com/indian-restaurant-spice-mix/,1.2624689050249565,0.09279541129163862,-4.312871424204144,0.5525668679880554,-2.3151873758361927,2.144030315082381,-0.7060802028560391,-0.7111530044235852,-0.5999492778219834,-0.5517336042081445
https://glebekitchen.com/bombay-potatoes-restaurant-style-bombay-aloo/,-0.005451179987191428,-0.1376789506187517,-2.099977462118837,0.39298051976001397,-0.5072935412611128,2.144030315082381,-0.7060802028560391,-0.7111530044235852,-0.5999492778219834,-0.5517336042081445
https://glebekitchen.com/hariyali-chicken-curry-indian-hotel-style/,-0.03156222916172718,-0.20348596655621506,-2.2710951044062315,0.4146689757892926,-0.6645028027789518,-0.6641208585839314,2.0199256436134796,2.010460852128312,2.414858599434092,-0.5517336042081445
https://glebekitchen.com/lamb-keema-papadum/,0.6345514553147311,-0.2392275196303438,-2.2591278888438255,1.0376534720269532,-0.6927758104618631,-0.6641208585839314,-0.7060802028560391,-0.7111530044235852,-0.5999492778219834,-0.5517336042081445
https://glebekitchen.com/restaurant-style-chicken-tikka-masala/,0.25521442210733697,-0.6081358352058491,-0.5558433038469128,0.09769110832548696,-0.603454969088564,-0.6641208585839314,-0.7060802028560391,2.010460852128312,2.414858599434092,2.6435003269584407
https://glebekitchen.com/dal-palak-indian-spinach-and-lentil-curry/,0.00282173212933683,-0.054959615567708266,-2.131816930591124,0.5984084303722822,-0.5010053127848485,-0.6641208585839314,-0.7060802028560391,-0.7111530044235852,-0.5999492778219834,-0.5517336042081445
https://glebekitchen.com/mulligatawny-soup/,-0.6545112792666821,0.05791356174780023,-0.7585679863875282,0.48633022751928207,-0.1541541361114808,-0.6641208585839314,2.0199256436134796,-0.7111530044235852,-0.5999492778219834,-0.5517336042081445
https://glebekitchen.com/indian-restaurant-chicken-jalfrezi/,0.30812357810277835,-0.049155374106677516,-2.0059591327195516,1.0304502737657524,-0.21504105349098568,-0.6641208585839314,2.0199256436134796,2.010460852128312,2.414858599434092,-0.5517336042081445
https://glebekitchen.com/lamb-or-beef-keema/,0.46398839993157054,-0.3238885570394345,-2.1748788047178937,0.9056309537981734,-0.23422207819218938,-0.6641208585839314,2.0199256436134796,2.010460852128312,-0.5999492778219834,0.0
https://glebekitchen.com/indian-restaurant-lamb-curry/,0.4881338833118795,-0.254777358173624,-2.12298479266316,1.0593812604309958,-0.34903905306279476,-0.6641208585839314,-0.7060802028560391,2.010460852128312,-0.5999492778219834,-0.5517336042081445
https://glebekitchen.com/naga-chicken-tikka-curry-indian-hotel-style/,0.094326825428085,-0.393732817176871,-1.578716591153364,0.20804505418973263,-0.3607528779594479,-0.6641208585839314,2.0199256436134796,2.010460852128312,2.414858599434092,-0.5517336042081445
https://glebekitchen.com/restaurant-style-pathia-curry/,0.2973305020973574,-0.11336479916386005,-2.138976879205398,0.4889470463314196,-0.30646606515655006,-0.6641208585839314,2.0199256436134796,2.010460852128312,2.414858599434092,-0.5517336042081445
https://glebekitchen.com/gunpowder-potatoes/,0.5831440767050817,-0.4927756796067767,-2.6050388265510787,1.009950904817049,-0.5622795958117672,2.144030315082381,-0.7060802028560391,2.010460852128312,2.414858599434092,-0.5517336042081445
https://glebekitchen.com/nearly-restaurant-style-chettinad-chicken-curry/,0.39223101517647585,-0.2964898827021378,-2.228719537227603,0.4177424938213773,-0.972582399757581,-0.6641208585839314,2.0199256436134796,2.010460852128312,2.414858599434092,-0.5517336042081445
https://glebekitchen.com/bengali-masoor-dal/,-1.0238143768818062,-0.07522646908886844,-0.4506870554179643,0.18870708244593415,-0.1537364721100883,-0.6641208585839314,-0.7060802028560391,-0.7111530044235852,-0.5999492778219834,-0.5517336042081445
https://glebekitchen.com/indian-restaurant-vindaloo-curry/,0.05142553908482328,0.04949589301404376,-1.68158437214416,0.7769172011897333,-0.23993244930266744,-0.6641208585839314,2.0199256436134796,-0.7111530044235852,2.414858599434092,-0.5517336042081445
https://glebekitchen.com/shahi-chicken-korma/,0.3054023818850538,-0.7177695122644349,-1.124704981559882,0.3517350675026808,-0.7987383649336872,-0.6641208585839314,2.0199256436134796,2.010460852128312,-0.5999492778219834,-0.5517336042081445
https://glebekitchen.com/saag-aloo-indian-restaurant-style/,0.6882666959455905,-0.17861251798685066,-2.447000169375839,0.9956435064787608,-0.6207877422335927,-0.6641208585839314,-0.7060802028560391,-0.7111530044235852,2.414858599434092,-0.5517336042081445
https://glebekitchen.com/chole-masala-punjabi-chickpea-curry/,0.30033995355438853,-0.5221126328470809,-2.582414290188568,0.9090539870939868,-0.4289804861253956,-0.6641208585839314,-0.7060802028560391,2.010460852128312,2.414858599434092,2.6435003269584407
https://glebekitchen.com/aloo-keema-indian-restaurant-potato-and-beef-curry/,-0.29492177155615373,-0.036828599820918045,-1.606301661810212,0.4105406787811083,-0.20410369923269256,-0.6641208585839314,2.0199256436134796,2.010460852128312,2.414858599434092,-0.5517336042081445
https://glebekitchen.com/kerala-fried-chicken/,0.7406372254540456,-0.29165144567861456,-2.4431340809215705,0.2561443818012019,-0.6069854167679658,2.144030315082381,2.0199256436134796,-0.7111530044235852,2.414858599434092,-0.5517336042081445
https://glebekitchen.com/easy-mint-raita-indian-mint-sauce/,-0.032536072715250344,-1.0149282615579676,-1.4215892964712524,0.1288610433185829,-1.2316364443635497,-0.6641208585839314,-0.7060802028560391,-0.7111530044235852,-0.5999492778219834,-0.5517336042081445
https://glebekitchen.com/chicken-masala-indian-restaurant-style/,0.08086817749729647,-0.3572072851106436,-2.0869226039764834,0.6004688153441142,-0.46279136357511075,-0.6641208585839314,2.0199256436134796,2.010460852128312,-0.5999492778219834,-0.5517336042081445
https://glebekitchen.com/indian-lentil-curry-with-spinach/,-0.11612005764729783,-0.0019822871149400042,-1.7917988177093185,0.7086131718406335,-0.32340948153784893,-0.6641208585839314,-0.7060802028560391,-0.7111530044235852,-0.5999492778219834,-0.5517336042081445
https://glebekitchen.com/garlic-chilli-chicken-indian-restaurant-style/,0.28197212852840076,-0.30017170540475074,-2.124481285637709,0.9477305621714325,-0.19080459434603692,-0.6641208585839314,-0.7060802028560391,2.010460852128312,2.414858599434092,-0.5517336042081445
https://glebekitchen.com/homemade-curry-powder/,1.0475210001298019,-0.5332980023339028,-3.674455552708002,0.6179160857736014,-1.4178286139736402,2.144030315082381,-0.7060802028560391,-0.7111530044235852,-0.5999492778219834,-0.5517336042081445
https://glebekitchen.com/karahi-chicken-indian-restaurant-style/,-0.045833196334052,-0.1606798848461044,-1.562045073104738,0.47427649989131887,-0.3685875869547798,-0.6641208585839314,2.0199256436134796,2.010460852128312,2.414858599434092,-0.5517336042081445
https://glebekitchen.com/garlic-ginger-paste/,-1.4695957485268791,-0.054565236184685735,-0.007560129849964413,-0.2940325563062568,-0.1481657582718152,-0.6641208585839314,-0.7060802028560391,-0.7111530044235852,-0.5999492778219834,-0.5517336042081445
https://glebekitchen.com/papadum-with-red-onion-chutney-and-mint-raita/,0.9159753001322473,-0.7102151669908247,-2.296144003211508,0.7390741094265991,-0.9933855153239908,0.0,0.0,0.0,0.0,0.0
https://glebekitchen.com/chicken-bhuna-curry/,0.7516633204511305,-0.5278973756039324,-3.121178415225574,0.7675915940675236,-0.8087871976531735,-0.6641208585839314,2.0199256436134796,-0.7111530044235852,-0.5999492778219834,2.6435003269584407
https://glebekitchen.com/tarka-dhal/,0.3731586166256651,-0.3632451111437753,-2.3576875522633673,0.682119435641312,-0.786335300884966,-0.6641208585839314,-0.7060802028560391,-0.7111530044235852,-0.5999492778219834,-0.5517336042081445
https://glebekitchen.com/chaat-masala-indian-street-food-spice-mix/,0.35980787558303357,-0.12302347684861847,-3.178802354703284,0.9137702496418709,-0.6940995945921306,-0.6641208585839314,-0.7060802028560391,-0.7111530044235852,2.414858599434092,-0.5517336042081445
https://glebekitchen.com/keema-matar-nearly-restaurant-style/,0.44655068624130195,-0.06423726013953601,-2.331438029570126,0.4794170860818826,-0.26703244544545096,-0.6641208585839314,2.0199256436134796,2.010460852128312,-0.5999492778219834,-0.5517336042081445
https://glebekitchen.com/pilau-rice-indian-restaurant-style/,1.7547526505909612,-0.9353099550586189,-4.722007248609064,0.9426678345924201,-1.4826293660119676,-0.6641208585839314,-0.7060802028560391,-0.7111530044235852,-0.5999492778219834,-0.5517336042081445
https://glebekitchen.com/dal-tadka-restaurant-style/,0.46112760547061304,-0.6064984892093936,-2.8358653395563977,0.905444433743279,-0.42682346375755764,-0.6641208585839314,-0.7060802028560391,-0.7111530044235852,-0.5999492778219834,-0.5517336042081445
https://glebekitchen.com/eggplant-curry-baingan-masala-restaurant-style/,0.42753469174551983,-0.08921464479901922,-2.441461540239798,0.9941777683777792,-0.1651102942453821,-0.6641208585839314,-0.7060802028560391,-0.7111530044235852,2.414858599434092,2.6435003269584407
https://glebekitchen.com/restaurant-style-aloo-chaat-chicken-curry/,0.2013471485019379,-0.05864887577273463,-2.155670153657799,0.6302639739817169,-0.36542047058907756,2.144030315082381,2.0199256436134796,2.010460852128312,2.414858599434092,-0.5517336042081445
https://glebekitchen.com/chicken-65-south-indian-fried-chicken-bites/,0.6705769814895531,-0.14891657846218095,-2.5006913728470184,0.46779839843936194,-0.5242241282077229,-0.6641208585839314,2.0199256436134796,-0.7111530044235852,-0.5999492778219834,0.0
https://glebekitchen.com/seekh-kebab-spicy-lamb-skewers/,0.5277883095637045,0.027937986522381268,-2.343675014979569,1.3563295155633863,-0.7974216879406184,-0.6641208585839314,-0.7060802028560391,2.010460852128312,2.414858599434092,-0.5517336042081445
https://glebekitchen.com/nearly-indian-restaurant-style-chicken-tikka-masala/,0.2962918195627959,-0.2723476978561615,-2.040977852314055,0.17553136879256634,-1.216634838486641,-0.6641208585839314,2.0199256436134796,2.010460852128312,2.414858599434092,-0.5517336042081445
https://glebekitchen.com/chana-masala/,0.47683576752368734,0.13544751185054488,-3.016141776598116,0.7419907216642537,-1.3257165694051398,-0.6641208585839314,-0.7060802028560391,-0.7111530044235852,-0.5999492778219834,-0.5517336042081445
https://glebekitchen.com/chana-chaat-indian-chickpea-salad/,0.30305763166689176,0.10035014089841679,-2.3345364098717787,1.1211891931658904,-0.0007490126679330758,-0.6641208585839314,0.0,-0.7111530044235852,-0.5999492778219834,-0.5517336042081445
https://glebekitchen.com/chicken-tikka-jalfrezi-indian-hotel-style/,-0.028839722674987772,-0.08625829683475349,-1.8024819579018903,0.720981791821046,-0.11143291292109224,-0.6641208585839314,2.0199256436134796,2.010460852128312,2.414858599434092,2.6435003269584407
https://glebekitchen.com/mint-coriander-chutney/,-0.2764721162009182,-0.06698184572183866,-1.8179356071147774,0.8244685641226344,-0.44033020099088144,-0.6641208585839314,-0.7060802028560391,0.0,-0.5999492778219834,-0.5517336042081445
https://glebekitchen.com/indian-restaurant-dhansak-curry/,0.23508372248719922,0.01780982330267986,-2.081713405076595,0.6690572853884088,-0.33891976878224533,-0.6641208585839314,2.0199256436134796,2.010460852128312,2.414858599434092,-0.5517336042081445
https://glebekitchen.com/chicken-biryani-indian-restaurant-style/,0.8303904948446462,-0.2048521450250948,-3.1877933059710633,0.49790927196782425,-1.4830332420521033,2.144030315082381,-0.7060802028560391,-0.7111530044235852,2.414858599434092,-0.5517336042081445
https://glebekitchen.com/indian-restaurant-dopiaza-curry/,-0.001521662492268253,0.02205084894240485,-1.6977466553397926,0.8095485992985246,-0.13012885576876929,-0.6641208585839314,-0.7060802028560391,-0.7111530044235852,2.414858599434092,-0.5517336042081445
https://glebekitchen.com/indian-restaurant-bhuna-curry/,0.2774500526047696,0.0043718195130937445,-2.015429776987209,1.136984671004038,-0.19223837872517008,-0.6641208585839314,2.0199256436134796,2.010460852128312,2.414858599434092,-0.5517336042081445
https://glebekitchen.com/butter-chicken-indian-restaurant-style/,0.13521882272266578,-0.35025530909534647,-1.4189910818768439,0.39309019776617804,-0.34927505638321105,-0.6641208585839314,2.0199256436134796,2.010460852128312,2.414858599434092,-0.5517336042081445
https://glebekitchen.com/nearly-restaurant-chicken-jalfrezi/,-0.20569024059292915,-0.053132015096082084,-1.5363997193409829,0.719990267461895,-0.015072759722536286,-0.6641208585839314,2.0199256436134796,2.010460852128312,-0.5999492778219834,-0.5517336042081445
https://glebekitchen.com/nadan-chicken-curry/,0.4355096823479774,-0.01660911015029508,-2.103619736777579,0.5453443150352358,-0.9393816875975586,-0.6641208585839314,2.0199256436134796,2.010460852128312,2.414858599434092,-0.5517336042081445
https://glebekitchen.com/tandoori-paste-pataks-copycat/,0.2699274385998913,-0.4269910868354843,-2.0540406771924222,-0.7261558360320118,-0.9277210751798933,2.144030315082381,-0.7060802028560391,-0.7111530044235852,2.414858599434092,2.6435003269584407
https://glebekitchen.com/tandoori-chicken-tacos/,0.5250725742691931,-0.7578268408474871,-0.7365993323569495,0.25020622512542207,0.6653261835136809,-0.6641208585839314,-0.7060802028560391,0.0,-0.5999492778219834,0.0
https://glebekitchen.com/hotel-style-indian-curry-gravy/,-0.06813586688850787,-0.1874460836658147,-2.162275910093069,0.6175945409664859,-0.6250398074316952,-0.6641208585839314,-0.7060802028560391,2.010460852128312,-0.5999492778219834,2.6435003269584407
https://glebekitchen.com/methi-chicken-curry-indian-hotel-style/,0.4698691519152867,0.03938102669272799,-3.0948004324559832,0.19063384540037306,-1.3189618150292168,-0.6641208585839314,2.0199256436134796,2.010460852128312,2.414858599434092,-0.5517336042081445
https://glebekitchen.com/restaurant-style-keema-matar/,0.038540390177097254,0.02727950248042341,-1.8340226448297443,0.6518964682822491,0.1047181158948652,-0.6641208585839314,2.0199256436134796,2.010460852128312,2.414858599434092,-0.5517336042081445
https://glebekitchen.com/chicken-chaat-salad/,-0.48957359642964043,-0.16263200061562727,-0.9355504489239088,0.565079554608726,-1.0139654710950359,-0.6641208585839314,-0.7060802028560391,-0.7111530044235852,-0.5999492778219834,0.0
https://glebekitchen.com/easy-chana-masala/,0.5326297199858894,0.08681768093842283,-3.156894750582711,0.5437627757724229,-1.0100215896480391,2.144030315082381,-0.7060802028560391,-0.7111530044235852,2.414858599434092,-0.5517336042081445
https://glebekitchen.com/green-chili-chana-achari/,0.07704678059127894,0.016846326899520245,-1.8480524949764692,0.8362565975229497,0.3310550384218333,-0.6641208585839314,-0.7060802028560391,-0.7111530044235852,-0.5999492778219834,-0.5517336042081445
https://glebekitchen.com/masala-chilli-chicken-restaurant-style/,0.09309618507261279,0.007720811582650244,-2.345072080744217,0.38768725260983217,-0.29883298440113565,-0.6641208585839314,2.0199256436134796,2.010460852128312,2.414858599434092,2.6435003269584407
https://glebekitchen.com/laal-maas-spicy-lamb-curry/,0.8841856600955683,0.08778180585243134,-3.1206543619122233,0.9016291927663435,-1.2172733897505574,-0.6641208585839314,2.0199256436134796,2.010460852128312,2.414858599434092,-0.5517336042081445
https://glebekitchen.com/chettinad-chicken-curry-indian-hotel-style/,0.5035928654653263,-0.5323215097742875,-2.4619782663323795,0.3317698726004009,-0.6011945729275934,-0.6641208585839314,2.0199256436134796,2.010460852128312,2.414858599434092,-0.5517336042081445
https://glebekitchen.com/bengali-chicken-curry-restaurant-style/,-0.2848229137288726,-0.11084610129545176,-1.2898641110407334,0.533400817751818,0.039646489232132695,-0.6641208585839314,2.0199256436134796,2.010460852128312,-0.5999492778219834,-0.5517336042081445
https://glebekitchen.com/chicken-dhansak-bengali-style/,0.07607366214311877,-0.44850014498890484,-2.1098801911869423,0.6540276755080044,-0.5064021886351155,2.144030315082381,2.0199256436134796,-0.7111530044235852,-0.5999492778219834,-0.5517336042081445
https://glebekitchen.com/spinach-potato-curry/,0.03409462042880633,-0.08166013434373381,-1.5833104278888175,0.40515436475283295,-0.3312124335834595,-0.6641208585839314,-0.7060802028560391,-0.7111530044235852,-0.5999492778219834,-0.5517336042081445
https://glebekitchen.com/chicken-shashlik/,-0.38415455148888966,-0.02966004554407271,-1.4056514783889733,0.5467289524135799,-0.1950538363356152,-0.6641208585839314,2.0199256436134796,2.010460852128312,2.414858599434092,-0.5517336042081445
https://glebekitchen.com/nearly-restaurant-style-chicken-madras/,-0.07235276516427946,-0.3220759655091441,-1.5995350917236275,0.5228234087778765,-0.41883511000015194,-0.6641208585839314,2.0199256436134796,2.010460852128312,-0.5999492778219834,-0.5517336042081445
https://glebekitchen.com/lamb-saag-indian-restaurant-style/,0.6870679329779453,0.17181175585268724,-2.4888774760241934,0.788355365161426,-0.7884764133732346,-0.6641208585839314,-0.7060802028560391,2.010460852128312,2.414858599434092,-0.5517336042081445
https://glebekitchen.com/simple-chicken-curry/,0.11176023464667896,-0.5342008627751045,-1.8506092598725383,0.5927313630945065,-0.8443046783048475,-0.6641208585839314,2.0199256436134796,-0.7111530044235852,-0.5999492778219834,-0.5517336042081445
https://glebekitchen.com/egg-curry-south-indian-restaurant-style/,0.5196748874135364,-0.5729886121247176,-2.013464218582849,0.6344224506411364,-0.5524932901917694,-0.6641208585839314,-0.7060802028560391,2.010460852128312,2.414858599434092,-0.5517336042081445
https://glebekitchen.com/chicken-dopiaza-indian-hotel-style/,-0.19830413510914172,-0.052985276211417486,-1.878313693557077,0.4751599849389419,-0.4055930110408178,-0.6641208585839314,2.0199256436134796,2.010460852128312,2.414858599434092,2.6435003269584407
https://glebekitchen.com/green-chili-chicken-curry-indian-hotel-style/,0.24466854350616485,-0.03574237649396653,-2.1631469602660354,0.8422207792326407,-0.19545977100813153,0.0,0.0,0.0,0.0,0.0
https://glebekitchen.com/punjabi-dal-makhani/,0.5792146749659409,-0.8565841578203475,-2.1182613526320497,0.6540999788587755,-0.4479743251437559,-0.6641208585839314,-0.7060802028560391,-0.7111530044235852,-0.5999492778219834,-0.5517336042081445
https://glebekitchen.com/kerala-chicken-curry-nadan-kohzi-indian-hotel-style/,0.6723211880746888,-0.43971841030717856,-2.5523090434784494,0.42659469219735,-0.7609389763686806,-0.6641208585839314,2.0199256436134796,2.010460852128312,2.414858599434092,-0.5517336042081445
https://glebekitchen.com/chettinad-chicken-curry/,-0.5361387376177111,-0.2516012138634348,-0.7083272465681382,0.03752558194962976,-0.2467545481166936,-0.6641208585839314,2.0199256436134796,2.010460852128312,2.414858599434092,-0.5517336042081445
https://glebekitchen.com/chicken-and-chickpea-curry-easy-restaurant-style/,-0.26380519252907453,-0.14523470729858506,-1.7511652425850124,0.2408230070030272,-0.6431351336249662,2.144030315082381,2.0199256436134796,2.010460852128312,-0.5999492778219834,-0.5517336042081445
https://glebekitchen.com/indian-restaurant-madras-curry/,0.49076479972322656,-0.5877341679301341,-1.7179494165608162,0.5912392075612286,-0.7768602800189683,-0.6641208585839314,2.0199256436134796,2.010460852128312,2.414858599434092,-0.5517336042081445
https://glebekitchen.com/lamb-madras-indian-hotel-style/,0.4197025355057312,-0.26674522534140627,-1.7703855584027353,0.25911247030563117,-0.50117058602969,-0.6641208585839314,2.0199256436134796,2.010460852128312,2.414858599434092,-0.5517336042081445
https://glebekitchen.com/kachumber-indian-tomato-and-cucumber-salad/,0.24891808773969548,-0.22523593281473514,-1.8664599111959455,1.1210071224289813,-0.8085954508262134,-0.6641208585839314,0.0,-0.7111530044235852,-0.5999492778219834,-0.5517336042081445
https://glebekitchen.com/murgir-jhol-homestyle-bengali-chicken-curry/,-0.13962667847048824,-0.3789800015681673,-1.6449248388343816,0.6200856842906137,-0.4174171041331796,-0.6641208585839314,2.0199256436134796,-0.7111530044235852,-0.5999492778219834,-0.5517336042081445
https://glebekitchen.com/lamb-rogan-josh-restaurant-style-at-home/,0.7123789727692627,-0.4438567477223159,-2.0680069211713796,1.1576131651502803,-0.4031817779327045,-0.6641208585839314,2.0199256436134796,2.010460852128312,2.414858599434092,-0.5517336042081445
https://glebekitchen.com/thai-chicken-khao-soi/,0.3309831642219125,-0.39868435854472584,-0.6768994313173532,-0.018432891883412482,-0.187604684676363,2.144030315082381,2.0199256436134796,-0.7111530044235852,2.414858599434092,-0.5517336042081445
https://glebekitchen.com/thai-grilled-chicken-with-sweet-chili-sauce/,0.4796598672909657,0.7745213005079228,-1.5946641439699272,0.07083616342151156,-0.6653108330159264,2.144030315082381,-0.7060802028560391,-0.7111530044235852,2.414858599434092,2.6435003269584407
https://glebekitchen.com/thai-tom-yum-soup/,0.15127177214891574,0.02655761564773201,-1.3330677752247326,0.9525415013413232,-0.14821336474940924,-0.6641208585839314,-0.7060802028560391,-0.7111530044235852,2.414858599434092,-0.5517336042081445
https://glebekitchen.com/chicken-pad-thai/,0.8788764594252565,0.53555503389065,-0.9834683066533675,-0.05039933149673018,0.4585015695102633,2.144030315082381,2.0199256436134796,2.010460852128312,2.414858599434092,2.6435003269584407
https://glebekitchen.com/thai-cucumber-salad/,0.41469457877489463,-0.32371049914381234,-1.3000389266926466,1.176720599027415,0.10523163669832608,-0.6641208585839314,-0.7060802028560391,-0.7111530044235852,-0.5999492778219834,-0.5517336042081445
https://glebekitchen.com/thai-fried-rice-khao-pad/,-0.2628278651177388,-0.052745863617978596,-0.10085032815958832,0.7634712434813118,0.14728073908037825,2.144030315082381,2.0199256436134796,2.010460852128312,2.414858599434092,-0.5517336042081445
https://glebekitchen.com/nam-prik-pao-thai-chili-paste/,-0.8943172279016525,0.3073669922943832,0.19589744704230427,-0.11962444776319656,-0.20317865408619235,-0.6641208585839314,-0.7060802028560391,2.010460852128312,-0.5999492778219834,-0.5517336042081445
https://glebekitchen.com/thai-red-chicken-curry/,1.2683738002481202,-0.10142856622939404,-2.14219987062182,0.9744283564612323,0.4096833683564202,-0.6641208585839314,2.0199256436134796,2.010460852128312,-0.5999492778219834,-0.5517336042081445
https://glebekitchen.com/thai-sweet-chili-sauce/,0.8465329265689335,1.8065638139039988,-2.081165371038292,-0.8337340455624049,-1.8727060756159897,2.144030315082381,-0.7060802028560391,-0.7111530044235852,2.414858599434092,2.6435003269584407
https://glebekitchen.com/panang-curry-with-chicken/,0.05150562111565372,-0.1771477186660994,-1.0873474812863406,0.3435370875640904,-0.2595777196210967,-0.6641208585839314,2.0199256436134796,-0.7111530044235852,2.414858599434092,2.6435003269584407
https://glebekitchen.com/sesame-noodles-thai-style/,1.106716965983368,0.1878552360327951,-0.6658269527916517,-0.28552522773850625,-0.07017522676042706,2.144030315082381,2.0199256436134796,2.010460852128312,2.414858599434092,-0.5517336042081445
https://glebekitchen.com/thai-basil-chicken-pad-kra-pao/,-0.31754510161774513,-0.026153204270997866,-0.09966253105978673,0.5278943087516212,0.022915454530869437,-0.6641208585839314,2.0199256436134796,2.010460852128312,2.414858599434092,-0.5517336042081445
https://glebekitchen.com/easy-beef-massaman-curry/,0.7923407506228387,-0.8851110335018854,-1.6733410984543329,0.18475448036346384,-0.1662821348085454,2.144030315082381,2.0199256436134796,2.010460852128312,2.414858599434092,2.6435003269584407
https://glebekitchen.com/larb-thai-pork-salad/,0.7695592944059673,-0.26459325234716785,-1.072103979614847,0.8408635902637824,0.7177512161529587,-0.6641208585839314,-0.7060802028560391,-0.7111530044235852,2.414858599434092,-0.5517336042081445
https://glebekitchen.com/grilled-pork-belly-skewers-asian-style/,1.0710817119451197,0.5914197788032134,-1.30692008910391,0.1518361009750778,-0.5259943799059918,-0.6641208585839314,-0.7060802028560391,-0.7111530044235852,-0.5999492778219834,-0.5517336042081445
https://glebekitchen.com/spicy-thai-beef-salad/,0.7868892771513556,0.15868950668749215,-1.9989160907257186,1.5960327546782112,-0.5221859919359548,-0.6641208585839314,2.0199256436134796,-0.7111530044235852,2.414858599434092,-0.5517336042081445
https://glebekitchen.com/thai-green-curry-from-scratch/,0.184650883165134,-0.4767054242465626,-1.2851679186043936,0.3126668503504083,-1.2538573294157005,2.144030315082381,2.0199256436134796,2.010460852128312,2.414858599434092,2.6435003269584407
https://glebekitchen.com/thai-basil-beef-pad-gra-prow/,-0.6621884898483351,0.09593453342697685,-0.335002508509976,0.6367990401015554,0.27296758271163635,-0.6641208585839314,2.0199256436134796,2.010460852128312,-0.5999492778219834,-0.5517336042081445
https://glebekitchen.com/pad-thai-rest-us/,0.9442370268772078,0.6710944129467526,-1.5404742133028222,-0.20356239781996874,0.13544484002223803,2.144030315082381,-0.7060802028560391,2.010460852128312,2.414858599434092,2.6435003269584407
https://glebekitchen.com/thai-chicken-salad-with-rice-noodles/,0.17598385144641987,-0.2477094938466624,-1.0959339736633786,1.1852296750839082,-0.5725766236237073,0.0,0.0,0.0,0.0,0.0
https://glebekitchen.com/papaya-salad-som-tam-thai/,0.9669533170972169,-0.3267890897806657,-2.0046407411136524,1.419370591383115,0.7845327637674392,-0.6641208585839314,-0.7060802028560391,-0.7111530044235852,-0.5999492778219834,2.6435003269584407
https://glebekitchen.com/thai-dipping-sauce/,-0.021091890981352796,-0.23912479039493753,-1.1391972350335504,0.9039558568632631,-0.05092850967193694,-0.6641208585839314,-0.7060802028560391,0.0,2.414858599434092,2.6435003269584407
https://glebekitchen.com/thai-beef-stir-fry-with-rice-noodles/,0.022053772361004562,-0.11596528344077799,-0.5336476118733164,-0.038001791761063095,0.42975827932623867,2.144030315082381,2.0199256436134796,-0.7111530044235852,2.414858599434092,2.6435003269584407
https://glebekitchen.com/thai-roast-chicken/,-0.5806381372456334,0.27169441399788935,-0.038176266229240745,-0.15410598574927778,1.1267289113567125,2.144030315082381,2.0199256436134796,2.010460852128312,-0.5999492778219834,-0.5517336042081445
https://glebekitchen.com/thai-beef-noodles/,1.0077293210587142,0.9169847922623223,-0.6080146487655116,0.2226526585430368,0.3420597324427228,2.144030315082381,2.0199256436134796,2.010460852128312,2.414858599434092,2.6435003269584407
https://glebekitchen.com/beef-and-broccoli-thai-style/,0.21236423738576807,0.8771015392649494,-0.8449917871945964,0.1436491681007833,-0.5243806423336324,-0.6641208585839314,2.0199256436134796,2.010460852128312,2.414858599434092,-0.5517336042081445
https://glebekitchen.com/thai-curry-noodle-soup/,0.767492538766524,-0.13464003509591146,-0.8028171685743853,0.15270912171206893,0.7080980212653507,2.144030315082381,2.0199256436134796,2.010460852128312,2.414858599434092,-0.5517336042081445
https://glebekitchen.com/thai-chicken-buddha-bowl/,0.49868862937506825,0.40146689125379453,-1.0923264564630315,1.1376876795235855,0.40253882094712884,2.144030315082381,-0.7060802028560391,-0.7111530044235852,2.414858599434092,-0.5517336042081445
https://glebekitchen.com/thai-ribs-with-hot-and-sweet-dipping-sauce/,1.1297875973044151,0.8796534031145852,-1.625075400425662,1.047126053507492,-0.49586669180696036,-0.6641208585839314,-0.7060802028560391,-0.7111530044235852,2.414858599434092,2.6435003269584407
https://glebekitchen.com/spicy-grilled-korean-chicken-wings/,-0.43206700124449426,-0.13334410146834833,0.31062297667173777,0.279282526953906,0.5110058336044303,-0.6641208585839314,-0.7060802028560391,-0.7111530044235852,-0.5999492778219834,0.0
https://glebekitchen.com/korean-ramen/,1.193542445733827,1.520018235995861,1.6371815096698423,-0.772295830900185,-0.3378790448893118,2.144030315082381,2.0199256436134796,-0.7111530044235852,2.414858599434092,2.6435003269584407
https://glebekitchen.com/korean-pork-ribs-with-gochujang-glaze/,-0.6299726217544616,0.3545915604532817,0.6648855548748036,-0.40098833335573225,0.24402836995264926,-0.6641208585839314,2.0199256436134796,2.010460852128312,2.414858599434092,2.6435003269584407
https://glebekitchen.com/korean-pork-stew-kimchi-jjigae/,-0.11557957404862383,1.0172317177698473,1.0198770327625124,0.13513378101870296,0.40403555131303504,-0.6641208585839314,-0.7060802028560391,2.010460852128312,-0.5999492778219834,-0.5517336042081445
https://glebekitchen.com/korean-pork-bone-soup-gamjatang/,0.40415862488827964,1.3142584943764903,0.6249333716791791,0.2718900913766358,0.41067038262609246,-0.6641208585839314,2.0199256436134796,2.010460852128312,2.414858599434092,-0.5517336042081445
https://glebekitchen.com/korean-bbq-shrimp/,-0.21706483661752957,-0.15940383738847191,0.5090030554767951,0.0660915086783872,-0.8531698590039637,0.0,0.0,0.0,0.0,0.0
https://glebekitchen.com/korean-beef-stew-with-gochujang/,1.3515911344641376,3.416692909416037,1.114548463765265,-2.516185956650616,-1.8747573589963347,-0.6641208585839314,2.0199256436134796,2.010460852128312,2.414858599434092,-0.5517336042081445
https://glebekitchen.com/korean-meatloaf-gochujang-glaze/,0.2718275973950167,-0.6724025377023197,0.8681948494510433,-0.18234915806780477,-0.436812476995258,-0.6641208585839314,2.0199256436134796,2.010460852128312,2.414858599434092,2.6435003269584407
https://glebekitchen.com/korean-bulgogi-sauce/,-0.5807320285763783,-0.5103595019197094,-0.20317536718868262,0.5933620692899229,0.17616291809191828,2.144030315082381,-0.7060802028560391,-0.7111530044235852,2.414858599434092,2.6435003269584407
https://glebekitchen.com/spicy-miso-grilled-chicken/,-0.22123423400332107,0.992060098778839,0.12211364365157339,-0.47056896770582307,-0.27074226993557055,-0.6641208585839314,2.0199256436134796,-0.7111530044235852,-0.5999492778219834,-0.5517336042081445
https://glebekitchen.com/korean-style-pork-chops/,-0.7189967839294764,-0.16043777384937769,-0.14243941741300892,-0.289025873066706,0.3386422938552046,-0.6641208585839314,2.0199256436134796,-0.7111530044235852,-0.5999492778219834,-0.5517336042081445
https://glebekitchen.com/spicy-korean-chicken/,-0.5108995625496479,0.1207227582167582,-0.16756985124413312,0.04463136204176673,0.30040819271329244,2.144030315082381,2.0199256436134796,-0.7111530044235852,-0.5999492778219834,0.0
https://glebekitchen.com/easy-korean-beef-bulgogi/,0.03348947402963374,0.3986843529911398,-0.36560697885908017,0.596056256010657,0.2441106589833021,-0.6641208585839314,-0.7060802028560391,-0.7111530044235852,-0.5999492778219834,-0.5517336042081445
https://glebekitchen.com/korean-braised-pork-ribs/,-0.33482747996495454,1.4072559139233993,0.7287617007647652,-0.6030037126718584,-0.3542345006613748,-0.6641208585839314,2.0199256436134796,2.010460852128312,-0.5999492778219834,-0.5517336042081445
https://glebekitchen.com/gochujang-mayonnaise/,-0.4313425872997331,-0.17779686348610213,1.2164088698906415,0.3550745808531329,-1.8704044689439943,-0.6641208585839314,0.0,-0.7111530044235852,-0.5999492778219834,-0.5517336042081445
https://glebekitchen.com/korean-chicken-wings-gochujang-sauce/,0.1119548043960309,-0.6703436340115304,0.3745565450591308,-0.7164888582560175,0.6750842866896831,2.144030315082381,2.0199256436134796,2.010460852128312,2.414858599434092,2.6435003269584407
https://mykoreankitchen.com/spicy-mayo-recipe/,0.5223896017813635,-0.9456479453131323,-1.28365196584441,1.0721569328818379,-2.0770642936439274,-0.6641208585839314,-0.7060802028560391,-0.7111530044235852,-0.5999492778219834,-0.5517336042081445
https://mykoreankitchen.com/strawberry-milk/,0.22232070065853876,-2.2604829337908954,1.004491393180506,-1.0059485810279956,-1.3971573956853105,2.144030315082381,-0.7060802028560391,-0.7111530044235852,-0.5999492778219834,2.6435003269584407
https://mykoreankitchen.com/dakgangjeong-soy-garlic-fried-chicken/,0.3151832387985432,-0.4976834039000822,-0.5975488209929546,0.21717011108221826,0.24715497581445786,2.144030315082381,2.0199256436134796,-0.7111530044235852,2.414858599434092,2.6435003269584407
https://mykoreankitchen.com/chili-oil-recipe/,-0.9067581808244902,0.19245435648343803,-0.44376850007684465,0.6013390788015929,0.2250097127408569,2.144030315082381,-0.7060802028560391,2.010460852128312,2.414858599434092,2.6435003269584407
https://mykoreankitchen.com/dalgona-coffee-whipped-coffee/,-0.18098923699506983,-1.785616211112989,0.6001006176512232,-1.315871998674874,-0.07540421729063332,-0.6641208585839314,-0.7060802028560391,-0.7111530044235852,-0.5999492778219834,2.6435003269584407
https://mykoreankitchen.com/omelet-rice-omurice/,1.3613112021284928,-0.6679242496693524,1.9517751972522455,2.0170557333451398,1.0557949809959621,2.144030315082381,2.0199256436134796,2.010460852128312,2.414858599434092,2.6435003269584407
https://mykoreankitchen.com/tuna-pancakes-chamchijeon/,-0.5895131896840499,-0.37111569629905145,0.5793979098803255,0.216507068928123,0.2581803215163016,-0.6641208585839314,-0.7060802028560391,-0.7111530044235852,-0.5999492778219834,-0.5517336042081445
https://mykoreankitchen.com/pan-fried-zucchini/,-1.083975793568558,-0.8481813455855879,1.2758105759462912,-0.7624156249691947,-0.39281706126782057,-0.6641208585839314,-0.7060802028560391,-0.7111530044235852,-0.5999492778219834,-0.5517336042081445
https://mykoreankitchen.com/slow-cooker-short-ribs/,0.6106489626495438,-0.3732638223895333,0.3594468819414062,0.7696733047862501,1.1498201549349072,2.144030315082381,-0.7060802028560391,-0.7111530044235852,2.414858599434092,2.6435003269584407
https://mykoreankitchen.com/korean-ground-beef-rice-bowls/,0.607358941633201,0.29489736716119325,-0.03762513998461229,0.15550282606888802,0.7258845727858566,-0.6641208585839314,-0.7060802028560391,2.010460852128312,-0.5999492778219834,2.6435003269584407
https://mykoreankitchen.com/doenjang-jjigae/,-0.23890114894904335,0.3482848932640607,0.17352754014620522,0.5126516762468382,0.7771059814238116,-0.6641208585839314,-0.7060802028560391,-0.7111530044235852,-0.5999492778219834,-0.5517336042081445
https://mykoreankitchen.com/spicy-sweet-and-vinegary-noodles-bibim-guksu/,0.21253147145432924,0.36186769255621737,0.05361095110650317,-0.14312406490352486,0.4818533887882227,2.144030315082381,-0.7060802028560391,-0.7111530044235852,2.414858599434092,2.6435003269584407
https://mykoreankitchen.com/galbitang-beef-short-rib-soup/,0.433641901359146,0.8630209792398007,0.8757651605912686,0.756583564663333,0.047285069109681915,-0.6641208585839314,2.0199256436134796,-0.7111530044235852,2.414858599434092,-0.5517336042081445
https://mykoreankitchen.com/nuclear-fire-noodle-fries/,-0.06404561201461129,0.285317122975945,-0.14960409941633862,-1.323601945018546,-0.011716945661125997,2.144030315082381,-0.7060802028560391,2.010460852128312,2.414858599434092,-0.5517336042081445
https://mykoreankitchen.com/kimchi-jjim-braised-kimchi/,0.05900740529313828,0.5351213325208048,-0.40702162140507814,0.721872943251652,0.4480643623607314,-0.6641208585839314,-0.7060802028560391,-0.7111530044235852,-0.5999492778219834,-0.5517336042081445
https://mykoreankitchen.com/air-fryer-chicken-wings/,0.3618694519894228,-0.6000849778645826,-0.5397487546170687,0.45819607829187,0.26118698919563743,-0.6641208585839314,-0.7060802028560391,-0.7111530044235852,2.414858599434092,2.6435003269584407
https://mykoreankitchen.com/pickled-radishes/,0.26439524110318297,1.867753113345935,0.09832617622533095,-0.3527387178797471,0.09893531219591893,-0.6641208585839314,-0.7060802028560391,-0.7111530044235852,-0.5999492778219834,-0.5517336042081445
https://mykoreankitchen.com/air-fryer-chickpeas/,-0.032825386364179275,-0.6119587067916771,-0.927843640673106,0.28133844738139296,-0.8443201379759422,-0.6641208585839314,-0.7060802028560391,-0.7111530044235852,-0.5999492778219834,-0.5517336042081445
https://mykoreankitchen.com/bean-sprout-rice-kongnamul-bap/,-0.3144239821997397,0.1075585535343039,-0.17487793865874673,0.37207970312319666,0.831256198940346,2.144030315082381,-0.7060802028560391,-0.7111530044235852,2.414858599434092,-0.5517336042081445
https://mykoreankitchen.com/gochujang-chicken/,0.36545392140977945,-0.36097743743487487,-0.4984577397887565,0.8220965882763124,0.275327368906554,2.144030315082381,2.0199256436134796,-0.7111530044235852,2.414858599434092,2.6435003269584407
https://mykoreankitchen.com/korean-style-tuna-cakes/,0.06527444954888086,-0.3350799267785787,0.369682152207207,0.11161684762360095,-0.6294908992036204,-0.6641208585839314,-0.7060802028560391,-0.7111530044235852,-0.5999492778219834,-0.5517336042081445
https://www.justonecookbook.com/corn-dogs/,1.5807862268472592,-2.644890131777439,1.5853002387347834,-0.9327725136866797,-2.3274236220115143,0.0,0.0,0.0,0.0,0.0
https://www.justonecookbook.com/renkon-chips/,1.2976006803306823,-0.3730374242362157,-2.1032293983142294,-1.6157485677639971,-0.30572716969887875,0.0,0.0,0.0,0.0,0.0
https://www.justonecookbook.com/mini-fruit-puff-pastry-with-lemon-glaze/,1.0866855832158158,-1.7676891687836858,1.2578071506147168,0.27888228119345143,-2.2575215921922207,0.0,0.0,0.0,0.0,0.0
https://www.justonecookbook.com/tandoori-chicken-puffs/,1.2365442124898696,-1.2911588186230847,0.44131543933017875,0.5288070677698135,-1.907986629450107,0.0,0.0,0.0,0.0,0.0
https://www.justonecookbook.com/steamed-cake/,1.528564832294228,-2.851796691424535,1.4617495181767375,-1.111331552991991,-0.8400812642150798,0.0,0.0,0.0,0.0,0.0
https://www.justonecookbook.com/candied-sweet-potatoes/,0.13220085826478079,-0.5587168475025033,0.024426347616017658,-1.1586742111340382,0.06668201658619051,0.0,0.0,0.0,0.0,0.0
https://www.justonecookbook.com/oyaki/,0.2866221648689157,-0.06198341282173925,0.15906418090426094,-1.7302076556764878,-1.232014933270579,0.0,0.0,0.0,0.0,0.0
https://www.justonecookbook.com/how-to-enjoy-japanese-mochi/,0.6649235529354265,-0.7828734388602614,-0.9347846209666466,-0.4573544493544851,2.206960406426135,0.0,0.0,0.0,0.0,0.0
https://www.justonecookbook.com/green-tea-steamed-cake/,1.7023797533952425,-2.309392671249158,0.3054474179626923,-1.0228375866190786,-0.8111841603273899,0.0,0.0,0.0,0.0,0.0
https://www.justonecookbook.com/spicy-edamame/,-0.32400930082338814,-1.4719523719031753,-0.1545588874057228,-1.487366081328313,-1.5124037210460552,0.0,0.0,0.0,0.0,0.0
https://www.justonecookbook.com/japanese-fruit-sandwich-fruit-sando/,0.7371620986771009,-2.4530426603673456,-0.16048102650765836,0.35614292320043833,-1.1653121927457533,0.0,0.0,0.0,0.0,0.0
https://www.justonecookbook.com/roast-chestnuts/,2.0933556455656133,0.6680851728594767,0.3740608460292303,1.7004886949586158,2.5643968636497063,0.0,0.0,0.0,0.0,0.0
https://www.justonecookbook.com/rice-cracker-recipe/,-0.26708213875979414,-1.553837193990755,0.1580962765065583,-1.7957998013908523,-1.7401665124428376,0.0,0.0,0.0,0.0,0.0
https://www.justonecookbook.com/takoyaki-recipe/,1.229984858815294,0.7270337044164145,1.0442405861223676,-1.315789134221272,-2.2330009872142518,0.0,0.0,0.0,0.0,0.0
https://www.justonecookbook.com/nikuman-steamed-pork-buns/,-0.3184739577012527,-0.6988531834486664,0.40728020316996366,-0.6968344113042716,0.12671560870146295,0.0,0.0,0.0,0.0,0.0
https://www.justonecookbook.com/homemade-popcorn-with-truffle-salt/,-0.6048032580755819,-1.2187111649412368,0.07882885518078163,-1.504345325087515,-0.993579953717023,0.0,0.0,0.0,0.0,0.0
https://www.justonecookbook.com/sata-andagi/,1.0527076777665243,-2.757083740212978,1.4708116251246732,-1.7137180307804654,-1.795181694774806,0.0,0.0,0.0,0.0,0.0
https://www.justonecookbook.com/banana-bread/,0.4110840795073929,-2.251912471520743,1.0606721176963416,-1.1558539603277167,-1.9199420011573394,0.0,0.0,0.0,0.0,0.0
https://www.justonecookbook.com/seared-tuna-aburi-toro/,-1.2417615952415881,0.828337380852013,0.3012047952309377,0.24781322447849682,-0.039160967904047564,0.0,0.0,0.0,0.0,0.0
https://www.justonecookbook.com/chicken-spring-rolls/,-0.5710945423662331,0.05638026911682779,-0.1908794180944261,0.11165529173414128,0.2570414097106205,0.0,0.0,0.0,0.0,0.0
https://www.justonecookbook.com/gyoza-with-wings-hanetsuki-gyoza/,-0.2378709071279756,-1.8785879180272755,0.207532575798626,-2.104077622060525,-1.7177806010977212,0.0,0.0,0.0,0.0,0.0
https://www.justonecookbook.com/sauteed-abalone/,2.0230513392885685,1.555313031242195,0.45459979079748475,-0.6894070965317184,-2.779760596126096,0.0,0.0,0.0,0.0,0.0
https://www.justonecookbook.com/grilled-oysters-ponzu-sauce/,0.5098160785643917,1.5627416001428347,-0.33939958554974153,0.38947378780595693,-0.14225722385771372,0.0,0.0,0.0,0.0,0.0
https://www.justonecookbook.com/japanese-clams-sake-steamed-clams/,-0.46709442964480824,0.21566061409505027,-0.934146506684529,1.3769084461034289,0.43812176314742624,0.0,0.0,0.0,0.0,0.0
https://www.justonecookbook.com/miso-dengaku/,2.217823294114635,1.7709838449335742,-0.14425647226346214,-1.6393513582298278,-1.0788244576974133,0.0,0.0,0.0,0.0,0.0
https://www.justonecookbook.com/thai-chicken-lettuce-wraps/,0.254903384942652,0.2391984230074945,-0.2151555561111433,0.3748235379445173,0.25469181243077454,0.0,0.0,0.0,0.0,0.0
https://www.justonecookbook.com/shrimp-egg-rolls/,-0.28876097461491673,-1.256373264413217,0.7754140172460152,-1.3168742515488905,-1.151784511950329,0.0,0.0,0.0,0.0,0.0
https://www.justonecookbook.com/agedashi-tofu-2/,2.5857478054881597,2.670935197336844,0.5630439100816051,-1.869450168958345,-1.5388682473363078,0.0,0.0,0.0,0.0,0.0
https://www.justonecookbook.com/tazukuri-candied-sardines/,0.14178220943380018,-1.4362809593829469,-0.42427200336443316,-1.4497492441059179,-1.0685091918275218,0.0,0.0,0.0,0.0,0.0
https://www.justonecookbook.com/pickled-chrysanthemum-turnip/,0.366278064126301,0.8950146005449886,-0.6386750310113868,-0.234903771933967,-0.3909601584395272,0.0,0.0,0.0,0.0,0.0
https://www.justonecookbook.com/bitter-melon-salad/,-0.5158247112895942,0.3887585489470836,0.16840642539563247,-0.8458923367252744,0.08040635968535485,0.0,0.0,0.0,0.0,0.0
https://www.justonecookbook.com/spicy-miso-chicken/,1.1185845009735282,2.8348806232345005,0.22077855699041604,-2.1549325357590403,-1.9623938997833248,0.0,0.0,0.0,0.0,0.0
https://www.justonecookbook.com/cheese-tart/,1.3582158216550595,-2.5498709955298398,3.0110567651965714,0.06169448615139007,-1.6026342186404703,0.0,0.0,0.0,0.0,0.0
https://www.justonecookbook.com/bbq-king-crab/,-0.8717581096521193,0.6502163955124355,-0.05765611872263781,0.6993898686890131,0.16973538709885425,0.0,0.0,0.0,0.0,0.0
https://www.justonecookbook.com/eggplant-agebitashi/,2.0532914202529633,2.676671270643523,0.32343062526530164,-1.4106549150632095,-1.9390224284604798,0.0,0.0,0.0,0.0,0.0
https://www.justonecookbook.com/tsukune/,-0.15899211017138856,0.9504799437066401,0.40235294322269455,-0.6721291530690963,-0.3188842080477309,0.0,0.0,0.0,0.0,0.0
https://www.justonecookbook.com/fresh-spring-rolls-yakiniku/,-0.10209188799042146,-0.16029020919914563,-0.46387648357604466,0.029918236290929216,-0.5239633891195767,0.0,0.0,0.0,0.0,0.0
https://www.justonecookbook.com/garlic-soy-marinated-albacore/,-1.8172521647046682,0.32604376979774385,0.3494640305238568,-0.5056193005522305,0.019710062069883738,0.0,0.0,0.0,0.0,0.0
https://www.justonecookbook.com/tuna-tataki/,-0.24439812274409425,-0.6764324404744522,-0.47050984343184177,-0.8064342339472909,-0.8451434841919011,0.0,0.0,0.0,0.0,0.0
https://www.justonecookbook.com/gyutan-bbq-beef-tongue/,-1.291048399634454,0.0763019348704667,0.18244189118748383,0.19820051134779176,-0.03658180919795817,0.0,0.0,0.0,0.0,0.0
https://www.justonecookbook.com/teriyaki-wings/,-0.702843597500199,0.001979765846136221,0.0946948078462327,-0.19913839402287487,-0.017585186319576004,0.0,0.0,0.0,0.0,0.0
https://www.justonecookbook.com/salmon-kombu-roll/,-0.23689955750884117,0.6705849034382857,0.6979518117173019,-1.2320922672382464,-0.4973447885776937,0.0,0.0,0.0,0.0,0.0
https://www.justonecookbook.com/ham-katsu/,2.347772645420926,-2.1285758420685994,1.6477510719459623,-1.7219768724774278,-3.495731163534301,0.0,0.0,0.0,0.0,0.0
https://www.justonecookbook.com/octopus-carpaccio/,-0.5859344196962055,-0.23905116772159885,-0.42127612937937636,0.47578264030748874,-0.8722368961858548,0.0,0.0,0.0,0.0,0.0
https://www.justonecookbook.com/grilled-clams-little-neck-clams/,-0.086316438536885,0.5026284585933417,0.42496655178739406,-0.7053672286416203,-1.3175878097019529,0.0,0.0,0.0,0.0,0.0
https://www.justonecookbook.com/napa-cabbage-gyoza/,-0.17526602539572625,0.14659121303299236,0.3445794957763551,-0.26321172309407864,0.46195571474387587,0.0,0.0,0.0,0.0,0.0
https://www.justonecookbook.com/teba-shio-salted-chicken-wings/,-0.6885328072874809,-0.35634212900112056,0.2916448546283433,1.0122211133116719,-0.075960661623622,0.0,0.0,0.0,0.0,0.0
https://www.justonecookbook.com/japanese-tofu-cold-tofu-hiyayakko/,2.005113217707893,0.9068352510652021,1.4445553885693454,1.7751472962288952,0.3440078177300084,0.0,0.0,0.0,0.0,0.0
https://www.justonecookbook.com/eggplant-with-sesame-ponzu-sauce/,-0.6790557525921377,0.5144101497490428,-0.13642963553341497,0.3391985410585263,0.35234344904911014,0.0,0.0,0.0,0.0,0.0
https://www.justonecookbook.com/chawanmushi-with-shrimp/,0.9190591473866244,1.5806860690464024,1.6416582780579805,-1.0857514213471136,-1.3129404880659428,0.0,0.0,0.0,0.0,0.0
https://www.justonecookbook.com/instant-pot-chawanmushi/,1.288665672592877,1.8850587590788441,1.5848213236952415,-1.373258569878755,-1.668620374348319,0.0,0.0,0.0,0.0,0.0
https://www.justonecookbook.com/burrata-crostini/,0.3011548274228243,1.013906191350611,1.0259651947855655,-0.5893093290265418,-1.1734274627441745,0.0,0.0,0.0,0.0,0.0
https://www.justonecookbook.com/coconut-shrimp/,1.2919645906463395,-0.5239355630905423,0.3393940326875236,0.18545305135050186,-1.68137540599309,0.0,0.0,0.0,0.0,0.0
https://www.justonecookbook.com/japanese-pickled-cucumber/,-0.9313169387028764,0.012893992520241473,-0.31287864450478536,-0.5291525083160177,0.17913022208707763,0.0,0.0,0.0,0.0,0.0
https://www.justonecookbook.com/asian-meatball-karaage/,0.9356693284323491,-1.3782691808486291,1.1635462749585848,-0.6178611131328487,0.5445422216579083,0.0,0.0,0.0,0.0,0.0
https://www.justonecookbook.com/datemaki-sweet-rolled-omelette/,0.3987728891045895,-0.4705202409695524,1.915586423888494,-1.0369149052111508,-1.457756197243488,0.0,0.0,0.0,0.0,0.0
https://www.justonecookbook.com/hijiki-salad/,2.347321532793671,2.148493005533704,-0.10457499575737471,-2.2599687168199916,-1.325146345016964,0.0,0.0,0.0,0.0,0.0
https://www.justonecookbook.com/temari-sushi/,2.08747171469659,1.6967967726881794,0.5168155914764931,-0.6622594153222044,-0.9172701178232359,0.0,0.0,0.0,0.0,0.0
https://www.justonecookbook.com/slow-cooker-sriracha-chili-chicken-wings/,0.47332959315404943,-0.5573266967749585,-0.13131817075178326,0.660618044768321,-0.3369480051691721,0.0,0.0,0.0,0.0,0.0
https://www.justonecookbook.com/momofuku-fried-chicken/,-0.46659661580632406,-0.6194521994629829,-0.00765946293409802,-0.03797105550603966,-0.18994229689590075,0.0,0.0,0.0,0.0,0.0
https://www.justonecookbook.com/braised-pork-belly-kakuni/,1.5554962626977273,1.6243816555858892,1.0743559475275286,-0.18591700424716187,-1.0625306254978233,0.0,0.0,0.0,0.0,0.0
https://www.justonecookbook.com/bbq-chicken-wings/,-0.218121806340802,-0.04103418045362424,0.01057606117058501,0.37450940388118165,-0.012855335943798998,0.0,0.0,0.0,0.0,0.0
https://www.justonecookbook.com/japanese-beef-tendon-stew/,1.7514448421341673,3.085672536218341,0.6607014150044791,-1.1250187922279766,-1.0644321594929826,0.0,0.0,0.0,0.0,0.0
https://www.justonecookbook.com/japanese-grilled-eggplant-yaki-nasu/,0.0458599010654231,1.823598245054174,-0.13871822626314065,0.16724833283227283,-0.6218814733984311,0.0,0.0,0.0,0.0,0.0
https://www.justonecookbook.com/kamaboko-with-salmon-roe/,-2.6122359315696038,0.36866043547088023,0.5983807862953863,-0.4817498331747924,0.46760132783238434,0.0,0.0,0.0,0.0,0.0
https://www.justonecookbook.com/gluten-free-karaage/,0.3873130328667696,-1.0233268638054844,0.22277375892206444,-0.820568222784466,-0.012195198146986063,0.0,0.0,0.0,0.0,0.0
https://www.justonecookbook.com/edamame/,-1.710908694650224,-0.06710043429728109,0.43965227047079686,-0.7317853372952327,-0.16948141002699613,0.0,0.0,0.0,0.0,0.0
https://www.justonecookbook.com/egg-tofu/,2.306849913047552,2.5168928117389586,2.0753018808438295,-2.0848544907602937,-2.6856868839928896,0.0,0.0,0.0,0.0,0.0
https://www.justonecookbook.com/spring-rolls-with-sesame-ponzu-vinaigrette/,0.56221122283011,0.9419302319997966,0.1812467366891041,0.5584411514812024,0.2939258123454625,0.0,0.0,0.0,0.0,0.0
https://www.justonecookbook.com/chawanmushi-with-matsutake-mushroom/,1.854784216595975,2.089369614813437,2.0712233547532914,-1.8130819385956012,-2.236717260766946,0.0,0.0,0.0,0.0,0.0
https://www.justonecookbook.com/nagoya-style-fried-chicken-wings/,0.022095275515159208,-0.5640325889952164,0.13415202343741875,-0.8584060257934861,-0.01710549889681117,0.0,0.0,0.0,0.0,0.0
https://www.justonecookbook.com/fried-chicken-wings/,0.12061450021244594,-1.1319850422780662,-0.010174248499514033,-0.24190992580686124,-0.22075056278244923,0.0,0.0,0.0,0.0,0.0
https://www.justonecookbook.com/chawanmushi-savory-steamed-egg-custard/,0.9076011977343548,1.5067141579305994,1.4585621374775082,-0.9746538123875064,-1.2810904437109683,0.0,0.0,0.0,0.0,0.0
https://www.justonecookbook.com/karashi-renkon/,1.7729871067268839,-0.03627091400168028,-0.33452521967418314,-1.8443207458399062,-1.5844874352863327,0.0,0.0,0.0,0.0,0.0
https://www.justonecookbook.com/cranberry-brie-bites/,1.077810508457007,-0.9996381907551076,-0.4310218745076256,2.0010852047481578,-2.7735220322377145,-0.6641208585839314,-0.7060802028560391,-0.7111530044235852,-0.5999492778219834,-0.5517336042081445
https://www.justonecookbook.com/shishamo-wrap/,-0.12946982454260209,-1.7167730889082986,0.7052550364758,-1.5870721450227716,-1.6498320091000247,0.0,0.0,0.0,0.0,0.0
https://www.justonecookbook.com/boiled-squid-with-miso-vinaigrette/,0.41904755122192155,1.3116786253714978,0.0769467439865903,-1.3359341245656264,-0.6810558757250046,0.0,0.0,0.0,0.0,0.0
https://www.justonecookbook.com/vegan-miso-soup/,2.4603218533764633,3.6076900935891643,0.5743872472724315,-2.3509091851821946,-1.2682349717023982,0.0,0.0,0.0,0.0,0.0
https://www.justonecookbook.com/kimchi-gyoza-nabe/,0.7067072125145263,2.264830696172902,0.45784762864770095,-0.34530007879735924,0.12711094981377144,-0.6641208585839314,-0.7060802028560391,-0.7111530044235852,0.0,2.6435003269584407
https://www.justonecookbook.com/ozoni-zoni-japanese-new-year-mochi-soup/,3.6711625179949734,3.9953727039565723,-0.5611811102163583,-1.0759102035368444,-2.7817609619158765,0.0,0.0,0.0,0.0,0.0
https://www.justonecookbook.com/potato-leek-soup/,-0.5598339915877235,-0.851649649258744,0.726326599144466,-0.35880944482811683,-0.3998234405410536,0.0,0.0,0.0,0.0,0.0
https://www.justonecookbook.com/homemade-miso-soup/,3.8759320959111276,5.601208105371095,0.8483064155457567,-2.8050481246881005,-3.4861290470010986,0.0,0.0,0.0,0.0,0.0
https://www.justonecookbook.com/miso-soup-yuzu-kosho/,0.8361436011821438,2.0258063802024546,0.3336856235488945,-0.682396980938911,-0.37070242094235484,0.0,0.0,0.0,0.0,0.0
https://www.justonecookbook.com/nabeyaki-udon/,1.7211062619439486,1.8207129479712598,1.2813913431826067,-1.323898569117642,-0.34988199114624385,0.0,0.0,0.0,0.0,0.0
https://www.justonecookbook.com/kimchi-nabe/,1.221304879782356,2.3924411691255103,0.6747460079453856,-0.5741281782901885,0.011820843214442088,0.0,0.0,0.0,0.0,0.0
https://www.justonecookbook.com/chanko-nabe-sumo-stew/,1.7090572030934406,1.8682428339140869,1.220291946720095,-0.46034593934206103,-0.5881150290638646,0.0,0.0,0.0,0.0,0.0
https://www.justonecookbook.com/monkfish-hot-pot/,1.8833065562995943,3.480002855270668,0.78392775512744,-1.3576809732797306,-0.4835169828821522,0.0,0.0,0.0,0.0,0.0
https://www.justonecookbook.com/mille-feuille-nabe/,1.4540628075522992,2.785798151181144,0.9529046513949807,-0.12728938303787815,-0.4020892724559217,0.0,0.0,0.0,0.0,0.0
https://www.justonecookbook.com/thomas-kellers-clam-chowder-giveaway-winners/,0.6033188966024209,-1.066144892042511,0.1192756968607454,0.8969775665909014,-1.3993569256917497,0.0,0.0,0.0,0.0,0.0
https://www.justonecookbook.com/kabocha-miso-soup/,1.0053454209068322,1.4455790964179307,-0.4813260514005188,-1.8264652751025765,-0.436867215710383,0.0,0.0,0.0,0.0,0.0
https://www.justonecookbook.com/pressure-cooker-oxtail-soup/,-0.02563375433227168,0.022326725248537356,-0.26086116423766303,0.8141635865573625,-0.051238253255733696,0.0,0.0,0.0,0.0,0.0
https://www.justonecookbook.com/shrimp-pork-wonton/,-0.12596813854783223,0.3377271962096892,0.16145763686133885,0.16670668600645996,0.32922604270191475,0.0,0.0,0.0,0.0,0.0
https://www.justonecookbook.com/bouillabaisse-french-seafood-stew/,-0.34578921138142515,0.1198026390469893,-0.5066769601918865,0.7488675232336467,-0.41922637282759884,0.0,0.0,0.0,0.0,0.0
https://www.justonecookbook.com/taiwanese-hot-pot-and-homemade-meatballs/,0.0731658025214082,0.37554062776571334,0.7430920295764513,0.024683445593942817,0.8627897699747344,0.0,0.0,0.0,0.0,0.0
https://www.justonecookbook.com/japanese-clam-soup-clear-broth/,0.942675639761224,3.126960019041934,0.43638575174655886,-2.4528363711534644,-1.7100025907578642,0.0,0.0,0.0,0.0,0.0
https://www.justonecookbook.com/chicken-corn-chowder-with-roasted-potato/,0.6188150145676216,-0.8920034063266085,0.5792227683973431,0.8068121062525991,-0.4437456288163006,0.0,0.0,0.0,0.0,0.0
https://www.justonecookbook.com/miso-nikomi-udon/,3.2583705938656666,3.7534849334578655,2.1031181736376876,-2.6490669464061054,-1.8676753668139254,0.0,0.0,0.0,0.0,0.0
https://www.justonecookbook.com/kale-soup/,-0.5287810296409678,-0.24147907552077671,0.7604962717502806,-0.10135246780460962,-0.4630437031599491,0.0,0.0,0.0,0.0,0.0
https://www.justonecookbook.com/hayashi-rice/,-0.4247062354949543,-0.4958027958478058,-0.20692843800471847,0.1727638674808353,-0.4681261290972125,0.0,0.0,0.0,0.0,0.0
https://www.justonecookbook.com/instant-pot-cream-stew/,0.024196930147981858,-0.30171602566054556,-0.007787266131994392,0.06997233861862291,-0.6480827854839792,0.0,0.0,0.0,0.0,0.0
https://www.justonecookbook.com/clam-soup/,1.2619327159795213,2.9136683525575724,0.2468432993428294,-1.883537043594736,-1.4607074462043534,0.0,0.0,0.0,0.0,0.0
https://www.justonecookbook.com/sukiyaki/,2.027758187521036,2.5190680188613057,0.9640874586756965,-1.7621723835060252,-0.9703153436308077,0.0,0.0,0.0,0.0,0.0
https://www.justonecookbook.com/hot-pot-for-one/,1.8250979292161564,3.2520070844893625,1.1524995776288707,0.49191062208693753,0.28488891444149655,0.0,0.0,0.0,0.0,0.0
https://www.justonecookbook.com/homemade-instant-miso-soup/,2.025556988578098,3.3014693862205045,0.8283912575784546,-2.3932578160661158,-1.516288225024861,0.0,0.0,0.0,0.0,0.0
https://www.justonecookbook.com/kimchi-soup-with-malony-glass-noodles/,-0.4110112407657038,0.26994987413932586,0.7471183605271204,-0.03942852600134402,0.0853376683852501,0.0,0.0,0.0,0.0,0.0
https://www.justonecookbook.com/oxtail-oden/,2.2216286923376294,2.1271785566299677,1.3364663241616617,-0.820381669699183,-1.1467468125840319,0.0,0.0,0.0,0.0,0.0
https://www.justonecookbook.com/kabocha-squash-soup/,0.2880777033784323,-0.5964928577900058,0.7376752739543992,-0.14927688320769184,-1.2818980162290385,0.0,0.0,0.0,0.0,0.0
https://www.justonecookbook.com/vegetable-miso-soup/,1.9227609540346629,2.1801052724587078,0.050540933660380365,-1.2065114313269945,0.7396819057301481,0.0,0.0,0.0,0.0,0.0
https://www.justonecookbook.com/zosui-japanese-rice-soup/,0.4119769091283726,0.7869492166758226,0.7101174875086339,-0.43325527506808065,-0.6776882316945925,0.0,0.0,0.0,0.0,0.0
https://www.justonecookbook.com/white-stew/,-0.05459124283316334,-0.4680703880092235,0.381643969473215,0.044568372667809754,-0.5922389723631375,-0.6641208585839314,2.0199256436134796,-0.7111530044235852,2.414858599434092,2.6435003269584407
https://www.justonecookbook.com/kimchi-chigae/,-0.5661664898286709,0.7640339434357178,0.5937119558757504,-0.5684815843347559,0.5564998740689268,0.0,0.0,0.0,0.0,0.0
https://www.justonecookbook.com/corn-potage/,0.48154676585613365,-1.5070713440728905,0.258456976898045,-0.12181348858722502,-0.77649841803183,0.0,0.0,0.0,0.0,0.0
https://www.justonecookbook.com/instant-pot-tonjiru/,2.333904824445236,1.9883978668511768,1.0182241140863764,-0.4311158129744577,-0.8608819203095657,0.0,0.0,0.0,0.0,0.0
https://www.justonecookbook.com/pressure-cooker-oxtail-broth/,-1.8631409454612826,0.09393271219317,0.35302252395176803,-0.5161682236213441,-0.014444435510696643,0.0,0.0,0.0,0.0,0.0
https://www.justonecookbook.com/matsutake-clear-soup/,1.1643677383891449,2.023373173399633,-0.1066429532530484,-0.7094672896574556,-2.492502867418295,0.0,0.0,0.0,0.0,0.0
https://www.justonecookbook.com/creamy-roasted-cauliflower-soup/,0.08275628818089113,-0.6762971842809944,-0.10541699517388012,0.2196866022031894,-1.4432118891938501,0.0,0.0,0.0,0.0,0.0
https://www.justonecookbook.com/hot-tofu-yudofu/,1.0152174834507728,3.01259280401688,0.6012297049327731,-1.6050497315946637,-1.569079851545909,0.0,0.0,0.0,0.0,0.0
https://www.justonecookbook.com/soup-curry/,0.6461039473288696,-0.017090662392046572,-1.4767801828889573,0.14852093837090607,-0.8446226106162023,0.0,0.0,0.0,0.0,0.0
https://www.justonecookbook.com/borscht-soup-hong-kong-style/,-0.0005601735826353287,0.01984390699242086,-0.26903009926158755,0.8320171279356703,-0.03156545408043001,0.0,0.0,0.0,0.0,0.0
https://www.justonecookbook.com/coconut-curry/,-0.40375919345619804,-0.6286674520895751,-0.11798463661766014,-0.2396458828153776,-0.47742564055497755,0.0,0.0,0.0,0.0,0.0
https://www.justonecookbook.com/soy-milk-hot-pot-tonyu-nabe/,1.785473550577862,2.4783152068557266,0.35845110090472215,-0.554177153742078,-0.5063917974100337,0.0,0.0,0.0,0.0,0.0
https://www.justonecookbook.com/kare-kare-guest-post-by-ang-sarap/,0.21146988236024142,-0.7031287385050181,0.4149843396858477,-0.187079147908846,0.04661668006142134,0.0,0.0,0.0,0.0,0.0
https://www.justonecookbook.com/shabu-shabu/,2.364785788833874,3.821184920438763,0.7547057708840784,-0.7020842082667581,0.3458512045022589,0.0,0.0,0.0,0.0,0.0
https://www.justonecookbook.com/nameko-mushroom-miso-soup/,5.003360150648468,5.823056307496178,1.7014210223117086,-3.417696575719545,-3.5177489045369605,0.0,0.0,0.0,0.0,0.0
https://www.justonecookbook.com/pickled-ginger/,-1.1469758007716164,-0.0669755666287571,0.18614616346585286,-0.9360354504058104,0.35963927671828616,0.0,0.0,0.0,0.0,0.0
https://www.justonecookbook.com/korean-pancake/,0.11435411212145245,-1.3087371985317149,0.8279939675873162,-1.153588877200269,-0.5136640273908941,0.0,0.0,0.0,0.0,0.0
https://www.justonecookbook.com/pickled-cucumber/,-0.4058332089571641,-0.05426870133833765,-0.18649013875610854,0.3384722911190306,-0.018978978058953846,0.0,0.0,0.0,0.0,0.0
https://www.justonecookbook.com/takikomi-gohan/,1.070139147232886,2.5104253426257688,0.9943165108609724,-1.1591707116364949,-1.193159107092443,0.0,0.0,0.0,0.0,0.0
https://www.justonecookbook.com/myoga-shiso-rice/,-0.778479885765567,-0.12046176936998594,-0.5740989931375013,-0.9041649153319371,0.2909203284565346,0.0,0.0,0.0,0.0,0.0
https://www.justonecookbook.com/pickled-lotus-root/,0.9186431059204698,1.4552971420308944,-1.4995797648620737,-0.402182523527908,0.6635728953190155,0.0,0.0,0.0,0.0,0.0
https://www.justonecookbook.com/maple-and-miso-glazed-roasted-carrots/,1.058318629409862,-0.33614185993824086,-0.4115371432789897,-0.48553975249214343,-2.0177946577134245,0.0,0.0,0.0,0.0,0.0
https://www.justonecookbook.com/simmered-koyadofu/,2.9437513469152194,2.8951012572095154,0.5480762801151821,-1.554263922250439,-0.7569253989173658,0.0,0.0,0.0,0.0,0.0
https://www.justonecookbook.com/tsukemono-shiozuke-salt-pickling/,1.224513226934472,2.132725047525626,-0.26649972885582307,0.441955781177773,0.49576013536150376,0.0,0.0,0.0,0.0,0.0
https://www.justonecookbook.com/kuri-kinton-candied-chestnuts-with-sweet-potatoes/,1.2319139792993468,-0.5975301816399937,0.10674056291029371,-1.0927078964412105,0.01089246470370989,0.0,0.0,0.0,0.0,0.0
https://www.justonecookbook.com/simmered-kombu-tsukudani/,0.8074986460669046,1.9733212920258174,-0.528644919743294,-0.8981896140615212,-0.8067950868947561,0.0,0.0,0.0,0.0,0.0
https://www.justonecookbook.com/sweet-onion-takikomi-gohan/,-0.32285207561887824,-0.14434475212831227,0.19231602578572457,-1.3702969505262237,-1.3034875536272905,0.0,0.0,0.0,0.0,0.0
https://www.justonecookbook.com/simmered-sweet-potatoes-with-lemon/,0.5353579022256301,-1.0395356751241296,-0.3149139681607572,0.4322412906622691,1.303782369676179,0.0,0.0,0.0,0.0,0.0
https://www.justonecookbook.com/tsukemono-amazuzuke-sweet-vinegar-pickling/,0.6052694431320074,0.9593341934807061,-0.7360890377401983,0.5264342640873113,0.23970550559347414,0.0,0.0,0.0,0.0,0.0
https://www.justonecookbook.com/bean-sprout-namul/,-0.4469326010757102,0.20059922257536936,-0.350502078265644,-0.11231305622477657,1.0711720353288006,0.0,0.0,0.0,0.0,0.0
https://www.justonecookbook.com/miso-meat-sauce-niku-miso/,0.1916029587188036,0.6946395796837578,0.5570825229077142,-0.9613479448101557,0.35260311926951055,0.0,0.0,0.0,0.0,0.0
https://www.justonecookbook.com/quick-and-easy-tamagoyaki/,1.144467593195362,-2.649980634360697,2.027209396003482,-1.5841092234828342,-2.3438217778215478,0.0,0.0,0.0,0.0,0.0
https://www.justonecookbook.com/pickled-tomatoes/,1.1314677762105692,1.9232151933277248,0.5356330505348339,-1.0579855925262107,-1.3679552483597581,0.0,0.0,0.0,0.0,0.0
https://www.justonecookbook.com/spinach-and-bean-sprout-namul/,-0.19624356150861136,0.04137210798226075,-0.6661007313588251,0.9013364914949819,0.6792092628969579,0.0,0.0,0.0,0.0,0.0
https://www.justonecookbook.com/kuromame-sweet-black-soybeans/,-1.843221469671149,0.009451798051280366,0.4820408289193152,-0.736344909739303,0.04410738744804477,0.0,0.0,0.0,0.0,0.0
https://www.justonecookbook.com/ham-flower/,9.379030375442024,0.7630848215264346,11.681831341694517,18.051360432952844,1.3130691745041665,0.0,0.0,0.0,0.0,0.0
https://www.justonecookbook.com/easy-orange-ginger-cranberry-sauce/,0.4988192464925135,-1.3537685358227953,-1.5959503359671994,0.9356114592901109,-2.483046070350529,0.0,0.0,0.0,0.0,0.0
https://www.justonecookbook.com/tsukemono-misozuke-miso-pickling/,1.4112416413730016,2.669246329905967,-0.39941864392583415,-0.9733808736796177,-0.8411757448536589,0.0,0.0,0.0,0.0,0.0
https://www.justonecookbook.com/homemade-chashu/,-0.448890241504109,-0.6022350804857689,0.5890602617040629,-0.3342604411139219,-0.27421224595917565,0.0,0.0,0.0,0.0,0.0
https://www.justonecookbook.com/tamagoyaki-japanese-rolled-omelette/,2.042038548012879,1.7676252815744151,1.096203085063493,-1.713081741207107,-2.0291974654832163,0.0,0.0,0.0,0.0,0.0
https://www.justonecookbook.com/sekihan-japanese-azuki-beans-rice/,0.6254475135326829,-0.46230381262229137,-0.6882907334379983,-1.137780588933194,2.851405530239628,0.0,0.0,0.0,0.0,0.0
https://www.justonecookbook.com/chikuzenni-simmered-chicken-and-vegetables/,1.1536390041607372,1.7008104520734333,-0.1621703680530876,-0.9072909088157616,0.4773836676173162,0.0,0.0,0.0,0.0,0.0
https://www.justonecookbook.com/green-beans-with-yuzu-vinaigrette/,0.33225652259598804,-0.9411290145349682,-1.2731105320566898,1.0500011916957603,-0.8087822185292056,0.0,0.0,0.0,0.0,0.0
https://www.justonecookbook.com/pearl-balls-guest-post-by-weeknite-meals/,0.2844063353042346,-0.3322063123526049,1.0294764386671842,0.028087626585565247,1.124255312925332,0.0,0.0,0.0,0.0,0.0
https://www.justonecookbook.com/bamboo-rice-takenoko-gohan/,0.3831053182064207,2.17037155754312,0.32069908203484,-1.1860879351641962,-0.6223563526258642,0.0,0.0,0.0,0.0,0.0
https://www.justonecookbook.com/simmered-bamboo-shoots/,1.308452066573416,4.052435970749258,0.4839861102022644,-2.873991138310118,-2.3079148845793522,0.0,0.0,0.0,0.0,0.0
https://www.justonecookbook.com/simmered-kabocha-squash/,-0.8056451621812954,1.4556957323795483,0.37867482766545185,-0.8980494989270654,-1.0218484038921514,0.0,0.0,0.0,0.0,0.0
https://www.justonecookbook.com/how-to-make-rice/,-1.710908694650224,-0.06710043429728109,0.43965227047079686,-0.7317853372952327,-0.16948141002699613,0.0,0.0,0.0,0.0,0.0
https://www.justonecookbook.com/simmered-fried-tofu-and-greens/,2.973380709246886,4.030033175233532,0.7683227559105619,-0.04952509595183206,-0.3982564127177181,0.0,0.0,0.0,0.0,0.0
https://www.justonecookbook.com/daikon-leaves-furikake/,-0.0774548161368722,1.0894813696217296,-0.08500758318073856,-1.056173922559694,-0.16275864474065446,0.0,0.0,0.0,0.0,0.0
https://www.justonecookbook.com/plum-rice-ball/,-0.3590175995105209,-0.2123706052609043,-0.7964528318404218,-0.8356340590750088,0.19929403984174,0.0,0.0,0.0,0.0,0.0
https://www.justonecookbook.com/ume-shiso-rice/,0.3525380575204997,-0.2587838178551919,-1.569766101070645,-0.9292432828997217,0.5913276604039711,0.0,0.0,0.0,0.0,0.0
https://www.justonecookbook.com/green-bean-gomaae/,0.11581543476513148,-0.1705575299387998,-0.7581015897328023,-0.11859378623655263,1.7954532686939892,0.0,0.0,0.0,0.0,0.0
https://www.justonecookbook.com/pickled-daikon/,0.6655081252271561,1.1778771214459265,-0.6864472437857683,0.4487068923075645,0.5105831755039356,0.0,0.0,0.0,0.0,0.0
https://www.justonecookbook.com/steamed-vegetables-with-miso-sesame-sauce/,1.7249675064914114,1.4653761474921385,-0.06074795666299647,-0.6244196619254465,0.27954940028793046,0.0,0.0,0.0,0.0,0.0
https://www.justonecookbook.com/pickled-cucumbers-and-myoga/,0.9137013884604891,1.524450885462053,-0.8304759317819735,0.30996472732895547,-0.30930729582151834,0.0,0.0,0.0,0.0,0.0
https://www.justonecookbook.com/matsutake-gohan/,4.063156999469363,5.9952789205898185,1.386197145660485,-3.708662654502995,-3.758430699331078,0.0,0.0,0.0,0.0,0.0
https://www.justonecookbook.com/yaki-onigiri-grilled-rice-ball/,-0.5546452609476875,-1.3198318020032902,0.22007145313857365,-1.6542449013893699,-1.4531328999507918,0.0,0.0,0.0,0.0,0.0
https://www.justonecookbook.com/how-to-cook-rice/,-2.28002393920622,0.0842003042115818,0.5919226256554703,-0.8049156687930391,0.2690686098038472,0.0,0.0,0.0,0.0,0.0
https://www.justonecookbook.com/pounded-burdock-root-with-sesame-sauce/,-0.0001725048014464723,0.6324067510852373,-0.381526799849831,-1.6366667510577972,0.01649066785365139,0.0,0.0,0.0,0.0,0.0
https://www.justonecookbook.com/tsukemono-pickled-cabbage/,0.6774825365164056,1.098929965715206,-0.8897117946365676,0.008810279995843127,-0.014943460713472892,0.0,0.0,0.0,0.0,0.0
https://www.justonecookbook.com/tsukemono-kasuzuke-sake-lees-pickling/,1.2042116885612753,1.7583217582279804,-0.039547794563549905,-1.0175760161768466,-0.727350641082346,0.0,0.0,0.0,0.0,0.0
https://www.justonecookbook.com/easy-soy-sauce-pickles/,0.49081532726257643,1.4051984454207376,-0.4451432411413122,0.3135126960451601,-0.08604828756468179,0.0,0.0,0.0,0.0,0.0
https://www.justonecookbook.com/pickled-daikon-with-shio-koji/,0.7271563854320042,1.8651865827453165,-0.5112873687790427,-0.18061191807643046,-0.3866020188224125,0.0,0.0,0.0,0.0,0.0
https://www.justonecookbook.com/simmered-taro/,1.6723601437472662,1.4916515718487855,0.6327391170692175,-2.346008693685289,-2.874796850286963,0.0,0.0,0.0,0.0,0.0
https://www.justonecookbook.com/instant-pot-rice/,-2.28002393920622,0.0842003042115818,0.5919226256554703,-0.8049156687930391,0.2690686098038472,0.0,0.0,0.0,0.0,0.0
https://www.justonecookbook.com/miso-yaki-onigiri/,1.0074951515330475,0.3555551950614473,-0.24269254417389755,-2.4151604673635725,-1.7029210354723534,0.0,0.0,0.0,0.0,0.0
https://www.justonecookbook.com/pickled-turnip-with-yuzu/,1.99692781560459,2.147702538366557,-1.074188669568295,0.9318431062093769,-1.1522020720108648,0.0,0.0,0.0,0.0,0.0
https://www.justonecookbook.com/tsukemono-shoyuzuke-soy-sauce-pickling/,-0.24915152622374082,-0.04919535088011517,-0.8860340469303455,0.6580375292277973,0.7355228805195557,0.0,0.0,0.0,0.0,0.0
https://www.justonecookbook.com/ramen-egg/,0.22887942331614275,0.07474691967650293,2.2832268596323275,-1.2301500414386086,-1.3500777475137173,0.0,0.0,0.0,0.0,0.0
https://www.justonecookbook.com/pickled-watermelon-rind/,-0.870003167423149,-0.08391224562023004,-0.305475124909377,-0.9650762076523464,0.46808706162162195,0.0,0.0,0.0,0.0,0.0
https://www.justonecookbook.com/how-to-make-sushi-rice/,0.2551695495660887,1.7168723860377053,0.2862495322948474,-1.968243788787007,-0.5871597828420261,0.0,0.0,0.0,0.0,0.0
https://www.justonecookbook.com/simmered-kabocha-with-shio-koji/,-2.28002393920622,0.0842003042115818,0.5919226256554703,-0.8049156687930391,0.2690686098038472,0.0,0.0,0.0,0.0,0.0
https://www.justonecookbook.com/nanakusa-gayu-seven-herb-rice-porridge/,-1.710908694650224,-0.06710043429728109,0.43965227047079686,-0.7317853372952327,-0.16948141002699613,0.0,0.0,0.0,0.0,0.0
https://www.justonecookbook.com/kinpira-renkon-lotus-root/,0.2451278492918784,0.6748725332873764,-1.3732238939408714,-0.42580318855953925,0.7532594241921842,0.0,0.0,0.0,0.0,0.0
https://www.justonecookbook.com/cherry-blossom-rice-balls/,0.09542966809411954,-0.46612946858261567,-1.289114876326955,-0.07727292977815425,0.2187428518944659,0.0,0.0,0.0,0.0,0.0
https://www.justonecookbook.com/shibazuke-pickles/,0.24641003093049862,1.257824598084497,-0.07652338739035729,-0.5268717786593151,-0.48911697213042293,0.0,0.0,0.0,0.0,0.0
https://www.justonecookbook.com/namasu-daikon-and-carrot-salad/,0.7076394558894828,0.9725827814042373,-0.6133441088013392,0.0948849589896394,-1.0299109796574468,-0.6641208585839314,-0.7060802028560391,-0.7111530044235852,-0.5999492778219834,-0.5517336042081445
https://www.justonecookbook.com/how-to-cook-rice-in-donabe/,-2.28002393920622,0.0842003042115818,0.5919226256554703,-0.8049156687930391,0.2690686098038472,2.144030315082381,-0.7060802028560391,0.0,0.0,0.0
https://www.justonecookbook.com/instant-pot-brown-rice/,-1.710908694650224,-0.06710043429728109,0.43965227047079686,-0.7317853372952327,-0.16948141002699613,0.0,0.0,0.0,0.0,0.0
https://www.justonecookbook.com/onigiri-rice-balls/,1.0813457737112868,2.240691961249628,0.5741095449912369,-1.2136843342677688,-1.9274675437815436,0.0,0.0,0.0,0.0,0.0
https://www.justonecookbook.com/chestnut-rice-kurigohan/,0.5942838104377759,-0.3470533224236879,-0.524033854709381,-1.0918792564750135,2.270794718465606,0.0,0.0,0.0,0.0,0.0
https://www.justonecookbook.com/ginger-rice/,-0.5096175542584513,1.3131185431846712,0.6609008503257644,-1.4105134206904095,-0.6664075682195172,0.0,0.0,0.0,0.0,0.0
https://www.justonecookbook.com/instant-pot-takikomi-gohan/,1.08864384181223,2.6046591819115585,1.0799247105680092,-1.6051715923427312,-1.435803251752295,0.0,0.0,0.0,0.0,0.0
https://www.justonecookbook.com/instant-pot-kuromame/,-1.843221469671149,0.009451798051280366,0.4820408289193152,-0.736344909739303,0.04410738744804477,-0.6641208585839314,-0.7060802028560391,-0.7111530044235852,-0.5999492778219834,2.6435003269584407
https://www.justonecookbook.com/kinpira-gobo-braised-carrot-burdock-root/,1.8051527037303987,1.9647418675917456,0.2481795961578512,-2.3691387065017357,-2.138598333157541,0.0,0.0,0.0,0.0,0.0
https://www.justonecookbook.com/spinach-with-sesame-miso-sauce/,0.9470730887197921,1.480548305632195,-0.19579008078042245,-1.569305152833548,-0.791469264996707,0.0,0.0,0.0,0.0,0.0
https://www.justonecookbook.com/okra-ohitashi/,2.9990934038691064,4.778346257313297,1.1606825575209585,-2.7586593819726364,-3.6280617675422566,0.0,0.0,0.0,0.0,0.0
https://www.justonecookbook.com/dinner-rolls/,-0.4364314435774418,-1.6914331728014498,0.7890593903371297,-1.188718287342038,-0.6352155469949435,0.0,0.0,0.0,0.0,0.0
https://www.justonecookbook.com/spinach-ohitashi-japanese-spinach-salad-with-bonito-flakes/,1.3587803488618617,2.6057541401544353,-0.1589817970976402,-1.666560471632237,-1.5044042532552064,0.0,0.0,0.0,0.0,0.0
https://www.justonecookbook.com/grilled-corn-with-miso-butter/,0.22837808406904625,-0.9590380791327572,0.3927160185066397,-0.1977209846759858,0.3478206475585711,0.0,0.0,0.0,0.0,0.0
https://www.justonecookbook.com/onsen-tamago/,2.028356704146041,2.895134602636137,1.5398764860769014,-1.535433905263829,-2.516193824204599,0.0,0.0,0.0,0.0,0.0
https://www.justonecookbook.com/japanese-turnips-with-soboro-ankake-sauce/,1.0253356102083817,1.1877432479834373,0.9165372582729715,-1.31283483319065,-0.3560821979014923,0.0,0.0,0.0,0.0,0.0
https://www.justonecookbook.com/mashed-potatoes-with-shio-koji/,-0.019802224161446426,-1.3400412925952367,0.7416132686926006,-0.10612619126326509,-0.7583332755329975,0.0,0.0,0.0,0.0,0.0
https://www.justonecookbook.com/baby-sardine-tsukudani/,-0.013224747391278796,0.8620983468095332,-0.4783510547252897,-1.6443032664206236,-0.3621124477722865,0.0,0.0,0.0,0.0,0.0
https://www.justonecookbook.com/daikon-and-cucumber-salad-with-shio-koji/,0.7699427003038914,1.3257447203202934,-0.5763339354992116,0.3369039123003571,0.7525112792076818,0.0,0.0,0.0,0.0,0.0
https://www.justonecookbook.com/popovers-with-strawberry-butter/,0.2986898090794437,-1.9534559418028066,1.679116963021595,-0.7166259055313399,-1.4924239888478659,0.0,0.0,0.0,0.0,0.0
https://www.justonecookbook.com/miso-glazed-eggplant/,0.261667073800197,0.38791089204809703,-1.1786449876142437,0.46167861583841907,-0.15673405569694746,0.0,0.0,0.0,0.0,0.0
https://www.justonecookbook.com/sansai-gohan/,1.054391767934772,3.0753699469455356,0.703036148140092,-2.461453156665051,-1.6002679810982545,0.0,0.0,0.0,0.0,0.0
https://www.justonecookbook.com/pickled-cucumbers/,-0.3176291398542487,0.44371062458257954,-0.20478732020744278,0.35242693938771225,0.16980560441142886,0.0,0.0,0.0,0.0,0.0
https://www.justonecookbook.com/chikuwa-cucumber/,2.313792277205965,1.2215246689254282,-0.8379358905878562,2.110374949492999,1.3473669017189784,0.0,0.0,0.0,0.0,0.0
https://www.justonecookbook.com/broccoli-blanched-with-sesame-oil/,-0.7409017493636729,0.03019817328204213,-0.21154024023368997,-0.6373928914878603,0.3160653866965698,0.0,0.0,0.0,0.0,0.0
https://www.justonecookbook.com/simmered-kiriboshi-daikon/,1.5472644077042783,1.9168253944556697,0.80060684466923,-2.0853005574374612,-2.0337023405873276,0.0,0.0,0.0,0.0,0.0
https://www.justonecookbook.com/tai-meshi-with-leftover-baked-sea-bream/,1.2194807896155317,1.6822633963826363,1.8162041871596715,0.3229132182708853,-0.18958202783260694,2.144030315082381,-0.7060802028560391,-0.7111530044235852,-0.5999492778219834,-0.5517336042081445
https://www.justonecookbook.com/mame-gohan-green-pea-rice/,2.761703517762733,3.396725831220633,-0.23732839495534117,-1.6847011159359524,-0.013684227554288915,0.0,0.0,0.0,0.0,0.0
https://www.justonecookbook.com/how-to-make-octopus-sausage-tako-sausage/,-0.9464289621170524,-0.12144566673472755,-1.0940450298184385,-0.7405588748802532,0.5688772754499699,0.0,0.0,0.0,0.0,0.0
https://www.justonecookbook.com/souffle-pancake/,1.5978488150813186,-3.355154277057909,1.0715910242907762,-1.5435597837665889,-2.125571803484983,0.0,0.0,0.0,0.0,0.0
https://www.justonecookbook.com/rice-porridge-okayu/,0.5308076451378171,0.49651549493719127,0.040449220379002296,-0.43311890625437693,-0.01226502265211334,0.0,0.0,0.0,0.0,0.0
https://www.justonecookbook.com/curry-bread/,1.7072795142302282,-2.5156643397196765,1.6231425819690404,-1.8139816010522942,-2.2090951108703454,0.0,0.0,0.0,0.0,0.0
https://www.justonecookbook.com/spinach-and-feta-turnovers-guest-post-by-katherine-martinelli/,0.21957002997669248,-0.9851419655378733,0.6653708499495558,0.535797067045319,-1.2506394818237279,0.0,0.0,0.0,0.0,0.0
https://www.justonecookbook.com/how-to-cook-salmon-salted-salmon/,0.36605096128792686,0.11525241748956398,1.3694549364647264,-0.0037816170341301468,-1.0604086910283799,0.0,0.0,0.0,0.0,0.0
https://www.justonecookbook.com/blueberry-creme-fraiche-scones/,0.3593285729528878,-1.6919290761897592,1.8216909507516057,-0.7022434721333097,-1.4534775731718095,0.0,0.0,0.0,0.0,0.0
https://www.justonecookbook.com/melon-pan/,1.0774721457022387,-2.7758770258980943,1.9708638412231116,-1.393072907998533,-1.2820694018149457,0.0,0.0,0.0,0.0,0.0
https://www.justonecookbook.com/french-toast/,1.6449919700138378,-2.8146537259619056,1.7393359195461497,-0.7383882643967546,-2.242054552684958,0.0,0.0,0.0,0.0,0.0
https://www.justonecookbook.com/easy-homemade-granola/,0.4740795088628742,-1.5891941754280472,-0.3031503015915669,-0.8129893851339942,-1.4113112496942273,0.0,0.0,0.0,0.0,0.0
https://www.justonecookbook.com/avocado-toast/,1.0636940668778014,0.4481520407426381,0.2607978831903158,0.2466508520358361,-0.3297976597202003,0.0,0.0,0.0,0.0,0.0
https://www.justonecookbook.com/matcha-souffle-pancake/,1.5978488150813186,-3.355154277057909,1.0715910242907762,-1.5435597837665889,-2.125571803484983,0.0,0.0,0.0,0.0,0.0
https://www.justonecookbook.com/nutella-banana-bread/,0.49583223504334106,-2.135951037903411,1.2134643190298278,-0.6247705733096985,-1.4729042118755886,0.0,0.0,0.0,0.0,0.0
https://www.justonecookbook.com/buttermilk-pancakes/,1.3431863521461964,-2.528608898492025,1.292692032542365,-0.892446099844052,-2.110170575331699,0.0,0.0,0.0,0.0,0.0
https://www.justonecookbook.com/red-bean-pancake/,1.0466847003316841,-1.8359859843641877,0.45649999588746015,-0.6565239679739161,-0.49115329715747813,0.0,0.0,0.0,0.0,0.0
https://www.justonecookbook.com/strawberry-sauce-strawberry-compote/,0.05364208647045165,-0.9535698799251798,0.0715175758030901,-0.759516129001564,0.9536459174189701,0.0,0.0,0.0,0.0,0.0
https://www.justonecookbook.com/anpan/,1.100641934653275,-2.085757218676846,1.033824495288592,-1.048004401350531,-0.000999257810735044,0.0,0.0,0.0,0.0,0.0
https://www.justonecookbook.com/banana-muffins/,0.12107025487104016,-1.9286111231051146,1.7214509291647864,-0.7373322167192328,-1.3375614698179423,0.0,0.0,0.0,0.0,0.0
https://www.justonecookbook.com/ogura-toast/,1.363932144362798,-1.5989592197711255,-0.5533650466740491,-0.13001053025580908,1.1595334636640744,0.0,0.0,0.0,0.0,0.0
https://www.spicetheplate.com/chinese/chinese-pork-rib-rice-bowl/,0.4045567766255937,0.562613974549845,0.4327827279327213,0.521192733717111,0.9831227183211927,0.0,0.0,0.0,0.0,0.0
https://www.spicetheplate.com/rice-noodle/cantonese-casserole-rice/,-0.5493634816423884,-0.026777695881554937,0.6240345193012314,-0.4037421056068767,0.805337609469026,0.0,0.0,0.0,0.0,0.0
https://www.spicetheplate.com/rice-noodle/better-than-takeout-beef-lo-mein/,-0.2238895737097602,0.3474271786496138,0.21028301988721387,0.5887848068483776,0.7970063044413866,0.0,0.0,0.0,0.0,0.0
https://www.spicetheplate.com/pork/braised-pork-belly/,0.19360660826828238,-0.4889843599550392,-0.28321009727627616,0.2525711081496828,0.24854904988523613,0.0,0.0,0.0,0.0,0.0
https://www.spicetheplate.com/rice-noodle/tasty-spam-fried-rice/,1.3088137882812243,-0.6943247268085498,0.5557666347340627,0.6806261171436371,2.866781347148639,0.0,0.0,0.0,0.0,0.0
https://www.spicetheplate.com/rice-noodle/tuna-kimchi-fried-rice/,-0.29112593103751183,0.46356573497744563,0.5472867464720759,-0.6351675945398025,0.024687415299246864,0.0,0.0,0.0,0.0,0.0
https://www.spicetheplate.com/rice-noodle/chili-oil-noodles-made-with-wonton-wrap/,0.3050521996217407,1.9130423631786146,-0.012595905254348231,0.23447455701517605,0.1266923824948155,0.0,0.0,0.0,0.0,0.0
https://www.spicetheplate.com/recipes/stir-fried-ramen-with-beef/,0.34641417959591375,0.6354965236054255,0.37696544927842635,1.0394067511686111,0.6420032054949479,0.0,0.0,0.0,0.0,0.0
https://www.spicetheplate.com/chicken/sriracha-chicken-avocado-bowl/,-0.15598356947970404,-0.11217025999548279,0.25736756576145947,0.14954495232783696,-0.21669324527715073,0.0,0.0,0.0,0.0,0.0
https://www.spicetheplate.com/rice-noodle/beef-kale-stir-fried-noodles/,0.2565460989572148,-0.17981114391505065,0.11597455776852375,0.7129420829610511,0.3900117920473231,0.0,0.0,0.0,0.0,0.0
https://www.spicetheplate.com/veggie/fresh-sauteed-okra-and-egg/,-1.1339729087369363,-0.41250865891302674,0.16357381448314376,0.2443430277627442,0.138181494833124,0.0,0.0,0.0,0.0,0.0
https://www.spicetheplate.com/rice-noodle/better-than-takeout-black-bean-sauce-noodles/,0.007392359296272615,0.03678183830195351,-0.13627513518258697,0.21223683600311724,1.5633612343670558,0.0,0.0,0.0,0.0,0.0
https://www.spicetheplate.com/seafood-and-other/homemade-low-sugar-bubble-milk-tea/,-2.6122359315696038,0.36866043547088023,0.5983807862953863,-0.4817498331747924,0.46760132783238434,0.0,0.0,0.0,0.0,0.0
https://www.spicetheplate.com/pork/green-bean-and-tofu-with-ground-pork-stir-fry/,0.3112405109959835,0.032690086724553515,0.39016835983210824,0.29938081541033384,1.4505971595581062,0.0,0.0,0.0,0.0,0.0
https://www.spicetheplate.com/rice-noodle/healthy-pork-fried-rice/,-0.08686696418355837,0.14488193080863773,-0.2229083899607007,1.1330568729817665,0.7020956298377786,0.0,0.0,0.0,0.0,0.0
https://www.spicetheplate.com/rice-noodle/creamy-thai-peanut-butter-noodle-with-shrimp/,1.791306291950372,0.6122454678920649,-0.3832792753917472,-0.07350869546869199,0.2383172186686621,0.0,0.0,0.0,0.0,0.0
https://www.spicetheplate.com/rice-noodle/deluxe-instant-ramen-with-beef-and-vegetables/,-0.26686473285184215,0.5369083104489616,0.7534524924405173,-0.5741414410626232,0.27383977077281574,0.0,0.0,0.0,0.0,0.0
https://www.spicetheplate.com/chicken/summer-chicken-skin-salad/,-0.7726302281678205,-0.12200128080445966,-0.293276041665378,-0.1677785731701733,0.34106339543089115,0.0,0.0,0.0,0.0,0.0
https://www.spicetheplate.com/beef/korean-sweet-potato-noodles-beef/,-0.4081635601726437,0.2947868824089131,0.23455005071235488,0.7423006365953497,0.6000613165395149,0.0,0.0,0.0,0.0,0.0
https://www.spicetheplate.com/seafood-and-other/on-the-go-summer-watermelon-parfait/,7.248564598450005,-3.575842614605288,-1.7945749501876975,-3.4768540433843214,3.853612216187079,0.0,0.0,0.0,0.0,0.0
https://www.spicetheplate.com/veggie/soy-brown-sugar-glazed-pan-fried-tofu/,0.4550801574656257,0.6391618393741264,-0.17264511801070878,-0.18005312750307306,0.509970733819424,0.0,0.0,0.0,0.0,0.0
https://www.spicetheplate.com/rice-noodle/home-style-meat-sauce-noodle/,0.31853687217345056,0.1767238081787309,0.4997671308986131,0.6369594220027701,1.2597518407458803,0.0,0.0,0.0,0.0,0.0
https://www.spicetheplate.com/rice-noodle/spicy-rice-cakes/,-1.382995560318913,0.20131916793436702,0.25528067580200575,-0.05482124636524301,0.27274548527914044,0.0,0.0,0.0,0.0,0.0
https://www.spicetheplate.com/rice-noodle/easy-sesame-noodle/,-0.6048759382647559,-0.5172956791320327,0.11525854925102923,-1.236097684119112,1.0437265996681488,0.0,0.0,0.0,0.0,0.0
https://www.spicetheplate.com/pork/korean-style-pan-fried-pork-belly/,-0.30703905671293463,0.06207283786747487,-0.22615704167793588,0.4239455776483018,-0.005714184567557188,0.0,0.0,0.0,0.0,0.0
https://www.spicetheplate.com/pork/ginger-minced-pork-rice-bowl/,-0.4304341458471242,0.10744560322232813,0.22340559381136704,0.2850388411241393,0.04520882802994243,0.0,0.0,0.0,0.0,0.0
https://www.spicetheplate.com/rice-noodle/tuna-rice-bowl/,0.4447997135820863,0.8919270097944368,-0.13227753392989317,-1.3186946755479212,0.14733110656260123,0.0,0.0,0.0,0.0,0.0
https://www.spicetheplate.com/beef/korean-bbq-short-ribs/,-0.47528517983146695,-0.287987652181956,0.023685386769344192,0.10749659484985791,0.5281004605826761,0.0,0.0,0.0,0.0,0.0
https://www.spicetheplate.com/beef/pan-fried-marinated-beef/,-0.18442158206065834,0.17634718671819685,0.017771312794077985,-0.6379525444576493,0.23657942733475254,0.0,0.0,0.0,0.0,0.0
https://www.spicetheplate.com/beef/beef-with-peppers/,-0.3628115623777705,-0.3956670044948259,0.5821681179329282,-0.18700680673565379,0.8709474798386704,0.0,0.0,0.0,0.0,0.0
https://www.spicetheplate.com/beef/mongolian-beef-stir-fry/,-0.20994104936489816,-0.10150501353186729,0.6753141311334684,0.3397694375814981,0.69364617815471,0.0,0.0,0.0,0.0,0.0
https://www.spicetheplate.com/beef/marinated-beef-stir-fry-with-cilantro/,-0.26338144464844415,-0.2817871806516775,0.02968089915503977,0.3497194658532492,0.8502454321590169,0.0,0.0,0.0,0.0,0.0
https://www.spicetheplate.com/beef/beef-mushroom-shumai/,1.2425886359178677,-0.3976271191721344,1.054832304193749,-0.25967425697351393,2.2583210366971556,0.0,0.0,0.0,0.0,0.0
https://www.spicetheplate.com/beef/steamed-sticky-rice-meat-balls/,0.051509551723348444,-0.294123373830173,0.9227011429875215,-0.13703922464181298,1.1521040054593732,0.0,0.0,0.0,0.0,0.0
https://www.spicetheplate.com/beef/beef-with-onion-stir-fry/,-0.6716480174879166,0.2468949693098372,1.2131102605744237,0.8761586956420656,0.294318026085754,0.0,0.0,0.0,0.0,0.0
https://www.spicetheplate.com/beef/beef-with-chinese-broccoli/,-0.30386714005287213,-0.011231579715103156,0.8019430734847725,0.055484473716711176,0.9100547677623622,0.0,0.0,0.0,0.0,0.0
https://www.spicetheplate.com/beef/spicy-ground-beef-green-beans/,0.1851843542014702,0.08683624154850031,-0.07210272024736245,1.2103088730321518,1.03068157202928,0.0,0.0,0.0,0.0,0.0
https://www.spicetheplate.com/beef/tasty-beef-and-bean-sprouts/,-0.08725878736847857,-0.105450988133777,0.5371208888419234,0.2673479614398562,1.4090848907086628,0.0,0.0,0.0,0.0,0.0
https://www.spicetheplate.com/beef/beef-and-tomato-stew/,-1.033553528444229,-0.03611358560308219,-0.02711222244671336,0.23752025999350557,0.3211579677063456,0.0,0.0,0.0,0.0,0.0
https://www.spicetheplate.com/beef/stir-fried-beef-with-leeks/,-0.8673476072165844,0.003041852134573383,0.2741277560570659,0.5450098142165847,0.27530245539062126,0.0,0.0,0.0,0.0,0.0
https://www.spicetheplate.com/beef/simple-japanese-hot-pot/,0.3102033374832491,1.4640051467063528,0.997058584226875,-0.4452561894335123,0.07264826393320592,0.0,0.0,0.0,0.0,0.0
https://www.spicetheplate.com/beef/korean-seaweed-soup-with-beef/,-0.7521519463224131,0.2954790627626555,0.4744837495145228,-0.04322291118107034,0.49461399412354007,0.0,0.0,0.0,0.0,0.0
https://www.spicetheplate.com/beef/beef-and-carrot-congee/,-0.3154498942999886,0.040294134907998526,0.4652448546745336,0.3550166571412187,1.3751249501667708,0.0,0.0,0.0,0.0,0.0
