url,0,1,2,3,4,high_carb,high_protein,high_fat,high_sodium,high_sugar
https://glebekitchen.com/miso-chicken-with-maple-and-ginger/,0.4359771188917703,0.3684757796274982,-0.15682740433044437,0.970864039370806,0.3887301383861745,-0.7036108087542426,2.218253514520711,-0.6980248607467489,-0.5815316284697883,-0.6873385328541783
https://glebekitchen.com/tonkotsu-ramen-home/,1.0416129228799993,1.42606745023223,-1.2773385214503572,1.4201717725150647,-0.7564013944968364,2.1444377186211403,2.218253514520711,2.1728151915318006,2.637402779740576,2.24826216875528
https://glebekitchen.com/garlic-ginger-grilled-chicken/,-0.5913769696851029,0.11517700936043396,0.389559962163557,0.43035775238738366,0.7187655887584464,-0.7036108087542426,2.218253514520711,2.1728151915318006,2.637402779740576,-0.6873385328541783
https://glebekitchen.com/tonkotsu-ramen-broth-home/,0.43156510519042784,0.3624743453358028,-2.643167860476321,-1.4556476471207045,-1.6905277535322856,-0.7036108087542426,0.0,-7.968181815139334e-17,-0.5815316284697883,0.0
https://glebekitchen.com/japanese-chicken-curry-curry-rice/,0.006384799947619212,0.4621595921409737,0.7079626969022327,-0.6550292882601857,0.7261267794919055,-0.7036108087542426,-0.6822094947945709,-0.6980248607467489,2.637402779740576,-0.6873385328541783
https://glebekitchen.com/chicken-karaage-japanese-fried-chicken/,-0.013596327185266769,0.2812773612219234,-0.959864715832293,-0.33201006419553936,-0.7904709321902317,-0.7036108087542426,2.218253514520711,2.1728151915318006,2.637402779740576,-0.6873385328541783
https://glebekitchen.com/curry-chicken-ramen/,0.1256722979442531,0.513185169103448,-0.834507846317118,0.5809021263735973,-1.2398408265648662,2.1444377186211403,2.218253514520711,2.1728151915318006,-0.5815316284697883,-0.6873385328541783
https://glebekitchen.com/sous-vide-steak-tataki-style/,0.167609801541077,0.2511652075816719,0.2687487216480104,0.2198865011948679,0.8926472788108102,-0.7036108087542426,-0.6822094947945709,-0.6980248607467489,-0.5815316284697883,-0.6873385328541783
https://glebekitchen.com/momofuku-pork-belly/,-1.0342109174963938,0.1621471256183679,-0.2605695883644039,-0.03287925224358774,-0.8190655258660242,-0.7036108087542426,-0.6822094947945709,2.1728151915318006,2.637402779740576,-0.6873385328541783
https://glebekitchen.com/gyudon-japanese-beef-bowl/,1.3824002262658752,1.8033713459119314,-0.8449125437203081,2.2013394172041396,-0.8223932593508583,-0.7036108087542426,2.218253514520711,-0.6980248607467489,2.637402779740576,2.24826216875528
https://glebekitchen.com/japadog-style-terimayo-hot-dog/,-0.1497327497831487,0.5946577655809759,-0.15961770267257439,1.037865076736558,0.4056752809678154,2.1444377186211403,-0.6822094947945709,2.1728151915318006,2.637402779740576,2.24826216875528
https://glebekitchen.com/japanese-miso-soup/,1.8808421604739927,2.421325004611192,-1.0059637601459028,2.907286378570993,-1.4109674541552124,-0.7036108087542426,-0.6822094947945709,-0.6980248607467489,2.637402779740576,-0.6873385328541783
https://glebekitchen.com/japanese-chicken-yakitori/,-0.9804335184729523,0.18116903588325703,-0.014821750905234589,0.7887001101762803,-0.36578936136828055,-0.7036108087542426,-0.6822094947945709,-0.6980248607467489,-0.5815316284697883,-0.6873385328541783
https://glebekitchen.com/miso-ramen-with-chashu-pork/,0.7412689789205035,0.9148213951232657,-1.3716780119611969,1.0633731032745588,-1.3637223010209691,2.1444377186211403,2.218253514520711,2.1728151915318006,2.637402779740576,2.24826216875528
https://glebekitchen.com/30-minute-curry-ramen/,0.45527510158848655,0.5176270438232463,-0.982487793172781,0.8595388205930647,-1.5886288306608574,-0.7036108087542426,2.218253514520711,-0.6980248607467489,2.637402779740576,-0.6873385328541783
https://glebekitchen.com/japanese-gyoza/,0.5488218553495089,1.8118820660193322,-0.25796585826348684,0.5678885627760722,-0.5606386306410189,-0.7036108087542426,-0.6822094947945709,-0.6980248607467489,-0.5815316284697883,0.0
https://glebekitchen.com/vietnamese-chicken-curry-ca-ri-ga/,-0.33442025706739203,0.19319507899541474,0.36952247954069645,-0.06729955743462239,0.11184308823841903,2.1444377186211403,2.218253514520711,2.1728151915318006,2.637402779740576,-0.6873385328541783
https://glebekitchen.com/asian-grilled-chicken-wings/,1.071119199800931,1.7235991004245068,-0.6648922158746587,-1.08899385407058,1.4599736877697285,-7.904922625854801e-17,-0.6822094947945709,-0.6980248607467489,2.637402779740576,0.0
https://glebekitchen.com/carpaccio-asian-style/,-0.4922272532456151,0.4332974723327459,0.6670867947750001,-0.5736886633690431,0.5639673937024959,-0.7036108087542426,-0.6822094947945709,-0.6980248607467489,-0.5815316284697883,0.0
https://glebekitchen.com/vietnamese-grilled-chicken-with-ginger-soy-noodle-salad/,0.4713975847946577,1.0258701286849663,0.4607421465849425,-0.8002410710044151,0.8863870896733591,2.1444377186211403,2.218253514520711,2.1728151915318006,2.637402779740576,2.24826216875528
https://glebekitchen.com/vietnamese-lemongrass-chicken-noodle-bowl/,0.8811346947143215,1.0793770295120686,0.31771446102317813,-0.761668517902882,0.7517810102321619,2.1444377186211403,-0.6822094947945709,-0.6980248607467489,2.637402779740576,2.24826216875528
https://glebekitchen.com/vietnamese-spring-rolls-with-peanut-sauce/,0.5846486320841794,0.2653387609639462,-0.11246673553745894,0.13449336066552006,0.56821436628484,2.1444377186211403,-0.6822094947945709,-0.6980248607467489,-0.5815316284697883,-0.6873385328541783
https://glebekitchen.com/nuoc-cham-vietnamese-dipping-sauce/,0.2811779118702268,0.19711766674547773,0.33514639810693403,-1.2407164774320982,1.8196242523382913,2.1444377186211403,-0.6822094947945709,-0.6980248607467489,2.637402779740576,2.24826216875528
https://glebekitchen.com/salmon-with-rice-noodles/,-0.3653560217576455,-0.04548684969561109,0.2980708899350698,-0.026823769084701656,1.1028855950588374,-0.7036108087542426,2.218253514520711,-0.6980248607467489,-0.5815316284697883,-0.6873385328541783
https://glebekitchen.com/vietnamese-noodle-salad/,0.49423972706908087,1.0437531453039215,0.02532218124429625,-0.0038139159136148042,1.13972375607956,2.1444377186211403,2.218253514520711,2.1728151915318006,2.637402779740576,2.24826216875528
https://glebekitchen.com/vietnamese-sate-sauce/,-0.6656315906544322,0.4360609340554699,0.28619365118774226,-0.08171749232836942,0.26853509405098985,2.1444377186211403,-0.6822094947945709,2.1728151915318006,2.637402779740576,2.24826216875528
https://glebekitchen.com/authentic-pho-ga-vietnamese-chicken-noodle-soup/,-0.18313979437652883,0.4460266397700128,-0.5104537923913879,-0.16123211511607835,-0.8406537981457427,2.1444377186211403,2.218253514520711,2.1728151915318006,2.637402779740576,-0.6873385328541783
https://glebekitchen.com/bun-cha-vietnamese-grilled-pork-with-rice-noodles/,1.338488640930241,1.3476254023650953,0.2803294891080856,-0.8504465989416252,1.3904490185794727,-0.7036108087542426,2.218253514520711,2.1728151915318006,2.637402779740576,2.24826216875528
https://glebekitchen.com/vietnamese-ginger-beef-stir-fry/,-0.9701320899261999,0.194352669172517,0.2304601878437773,-0.08100417783782547,-0.14336705637309288,-0.7036108087542426,2.218253514520711,2.1728151915318006,2.637402779740576,-0.6873385328541783
https://glebekitchen.com/beef-pho-easy-vietnamese-pho-bo/,0.4396739171806238,0.5429576346756039,0.09461138604723143,-0.6646797326807328,-0.28197805284444816,2.1444377186211403,2.218253514520711,2.1728151915318006,2.637402779740576,2.24826216875528
https://glebekitchen.com/vietnamese-banh-mi-gochujang-mayo/,-0.2613854698491064,0.699693112904123,-0.06906650487630121,-0.19216096929722226,-0.4862871537014156,-7.904922625854801e-17,-0.6822094947945709,2.1728151915318006,-0.5815316284697883,0.0
https://glebekitchen.com/bo-kho-vietnamese-beef-stew-with-egg-noodles/,0.22341580143735384,0.7252807276956719,-0.09570365123100838,-0.9011781164278124,0.22264001690625815,2.1444377186211403,2.218253514520711,2.1728151915318006,2.637402779740576,-0.6873385328541783
https://glebekitchen.com/vietnamese-beef-noodle-salad/,0.9643563757652043,1.1149247453780673,0.40730617032244243,-0.6062642241537815,1.2050461520403148,2.1444377186211403,2.218253514520711,-0.6980248607467489,2.637402779740576,2.24826216875528
https://glebekitchen.com/bun-thit-nuong-vietnamese-grilled-pork-with-rice-noodles/,-0.19883711820678726,0.43628103270004387,0.26271976616995235,-0.2883705071058125,0.5815275496379425,2.1444377186211403,-0.6822094947945709,-0.6980248607467489,2.637402779740576,-0.6873385328541783
https://glebekitchen.com/spicy-beef-noodle-soup-vietnamese-style/,0.8126160636140244,0.9891991489891167,-0.35672625694937904,-1.243722859618529,-0.013135944506905185,2.1444377186211403,2.218253514520711,-0.6980248607467489,2.637402779740576,-0.6873385328541783
https://glebekitchen.com/shaking-beef-vietnamese-bo-luc-lac/,-0.1628877035169017,0.4823470091735526,-0.06966244047262145,-0.20136077082529932,0.07124479430459665,-0.7036108087542426,2.218253514520711,-0.6980248607467489,2.637402779740576,2.24826216875528
https://glebekitchen.com/vindaloo-paste/,-0.9199683355052202,0.2609941911690878,0.5622962187428937,-0.1534549860631157,0.7520699679733983,-0.7036108087542426,-0.6822094947945709,2.1728151915318006,-0.5815316284697883,2.24826216875528
https://glebekitchen.com/beef-rogan-josh/,0.14121887412034204,0.2455876869165902,0.9534967042164714,-1.2701977026199174,1.5954214600104006,-0.7036108087542426,2.218253514520711,2.1728151915318006,-0.5815316284697883,-0.6873385328541783
https://glebekitchen.com/achari-chicken-curry-indian-hotel-style/,-0.0443567951077931,0.5311734077313732,0.740644717547745,-1.3496517758394697,1.0529168219892602,-0.7036108087542426,2.218253514520711,2.1728151915318006,2.637402779740576,-0.6873385328541783
https://glebekitchen.com/indian-restaurant-hariyali-chicken-curry/,-0.17728645047638525,0.4323394096182895,1.2018199675781922,-0.8391579937204469,0.9393050717358262,-0.7036108087542426,2.218253514520711,2.1728151915318006,2.637402779740576,-0.6873385328541783
https://glebekitchen.com/ceylon-chicken-curry-indian-hotel-style/,0.16321917251980014,-0.0683687884689874,0.981050137521309,-1.0908035528423297,1.0058549743630067,-0.7036108087542426,2.218253514520711,2.1728151915318006,2.637402779740576,2.24826216875528
https://glebekitchen.com/lemon-coriander-chicken-curry/,0.04221571871033915,0.17704765032203507,0.797667117250589,-0.8988886710960335,1.4006203172256566,-0.7036108087542426,-0.6822094947945709,2.1728151915318006,-0.5815316284697883,-0.6873385328541783
https://glebekitchen.com/lamb-vindaloo-indian-restaurant-style/,0.27397352432790817,0.6482924828017937,0.47235091437129145,-1.2231207483516198,1.2866142629967052,-0.7036108087542426,2.218253514520711,2.1728151915318006,-0.5815316284697883,-0.6873385328541783
https://glebekitchen.com/kari-ayam-malaysian-curry-chicken/,0.5952195302391273,0.12576731349037695,0.4518750117067282,-1.1449249274119213,0.7364361534638604,-7.904922625854801e-17,0.0,-7.968181815139334e-17,8.934337736883246e-17,0.0
https://glebekitchen.com/indian-spiced-chicken-wings-with-tamarind-dipping-sauce/,0.06443125128557062,0.2288970113104176,0.5367983803655814,-1.0700582333284117,1.4733824167770324,-0.7036108087542426,-0.6822094947945709,-0.6980248607467489,-0.5815316284697883,2.24826216875528
https://glebekitchen.com/gobi-manchurian-indian-cauliflower-wings/,-0.04714929464683405,0.2512215009372985,0.32819850682007906,-1.426913060563014,0.20808060209230836,-0.7036108087542426,-0.6822094947945709,-0.6980248607467489,2.637402779740576,-0.6873385328541783
https://glebekitchen.com/tandoori-marinade/,0.09909792092095199,0.4323129532949908,1.1543953722134674,-1.0533793225982244,1.5916382889986294,-0.7036108087542426,-0.6822094947945709,2.1728151915318006,2.637402779740576,-0.6873385328541783
https://glebekitchen.com/chicken-vindaloo-restaurant-style/,0.16031901330949916,0.5215165596991224,1.0354131932202173,-1.2846394750851697,1.147651109842665,-0.7036108087542426,-0.6822094947945709,2.1728151915318006,-0.5815316284697883,-0.6873385328541783
https://glebekitchen.com/chicken-tikka/,0.13434924881891697,0.3927718972380216,0.9356756855203896,-1.0144984065967502,1.4305797906698574,-0.7036108087542426,-0.6822094947945709,-0.6980248607467489,-0.5815316284697883,0.0
https://glebekitchen.com/garam-masala-indias-most-famous-spice-mix/,1.489638027599102,0.2598429860284998,1.4695112414549671,-2.522833985942367,3.2836246045978434,-0.7036108087542426,-0.6822094947945709,-0.6980248607467489,-0.5815316284697883,0.0
https://glebekitchen.com/indian-restaurant-curry-base/,-0.44293618469924956,0.08397614056012218,0.7212220494550675,-0.20875122477411495,0.9604657144203818,-0.7036108087542426,-0.6822094947945709,-0.6980248607467489,-0.5815316284697883,-0.6873385328541783
https://glebekitchen.com/nearly-restaurant-style-chicken-saag-curry/,0.20824950367404196,0.5844658602707272,0.796854642091727,-1.2132479519365802,1.399001320365806,-0.7036108087542426,2.218253514520711,2.1728151915318006,-0.5815316284697883,-0.6873385328541783
https://glebekitchen.com/nihari-gosht-indian-beef-stew/,0.740800117582706,0.04297160413946159,0.7299697990955195,-1.783893587310609,1.5700085088709672,-0.7036108087542426,2.218253514520711,2.1728151915318006,-0.5815316284697883,-0.6873385328541783
https://glebekitchen.com/palak-paneer-indian-restaurant-style-spinach-curry/,0.45864673479508045,0.7025915563785591,1.071612197981771,-1.411017183871985,1.3346333807802109,-0.7036108087542426,-0.6822094947945709,2.1728151915318006,-0.5815316284697883,-0.6873385328541783
https://glebekitchen.com/tandoori-chicken/,0.22849757375348503,0.3799523411082688,1.1351946573951919,-0.9110432905316526,1.8531740176768705,-0.7036108087542426,2.218253514520711,2.1728151915318006,2.637402779740576,0.0
https://glebekitchen.com/bagara-baingan-indian-hotel-style-eggplant-curry/,0.20022026191880846,0.19891586723352245,0.8023857149113802,-1.1236705780053968,1.3776776066571161,2.1444377186211403,-0.6822094947945709,2.1728151915318006,2.637402779740576,2.24826216875528
https://glebekitchen.com/sambar-south-indian-lentil-and-vegetable-stew/,0.31004022860291597,0.6289459832248657,0.775547114724855,-2.096955621289154,0.8252379468447373,2.1444377186211403,-0.6822094947945709,-0.6980248607467489,-0.5815316284697883,2.24826216875528
https://glebekitchen.com/indian-restaurant-spice-mix/,1.0029889101465963,0.898433080027851,1.225108635636082,-1.9086611988377071,2.2826564194259213,2.1444377186211403,-0.6822094947945709,-0.6980248607467489,-0.5815316284697883,-0.6873385328541783
https://glebekitchen.com/bombay-potatoes-restaurant-style-bombay-aloo/,-0.08651701559698471,0.42164578741477804,0.8065626975468827,-1.105991813650439,1.1010068683791212,2.1444377186211403,-0.6822094947945709,-0.6980248607467489,-0.5815316284697883,-0.6873385328541783
https://glebekitchen.com/hariyali-chicken-curry-indian-hotel-style/,-0.05151547986355339,0.37969462875487,0.9421428090418594,-0.9884889402953349,1.4192111669103402,-0.7036108087542426,2.218253514520711,2.1728151915318006,2.637402779740576,-0.6873385328541783
https://glebekitchen.com/lamb-keema-papadum/,0.42786916960681526,0.4130048025806416,0.9324741295074928,-1.217539595715457,1.4593412468538245,-0.7036108087542426,-0.6822094947945709,-0.6980248607467489,-0.5815316284697883,-0.6873385328541783
https://glebekitchen.com/restaurant-style-chicken-tikka-masala/,0.10702567387100617,-0.24033165976437101,0.14426411522432117,-0.5363253874090184,0.5081973838719264,-0.7036108087542426,-0.6822094947945709,2.1728151915318006,2.637402779740576,2.24826216875528
https://glebekitchen.com/dal-palak-indian-spinach-and-lentil-curry/,-0.12199934663565275,0.5006398016752499,0.7131955073789342,-1.1800637548330608,1.1815091478206619,-0.7036108087542426,-0.6822094947945709,-0.6980248607467489,-0.5815316284697883,-0.6873385328541783
https://glebekitchen.com/mulligatawny-soup/,-0.7226823089360865,0.23400422817134664,0.34076426917894304,-0.4135043290586723,0.4191609857976865,-0.7036108087542426,2.218253514520711,-0.6980248607467489,-0.5815316284697883,-0.6873385328541783
https://glebekitchen.com/indian-restaurant-chicken-jalfrezi/,0.14974823460578174,0.5750782069286974,0.7361388912074281,-1.4576824963942814,1.0915059863687988,-0.7036108087542426,2.218253514520711,2.1728151915318006,2.637402779740576,-0.6873385328541783
https://glebekitchen.com/lamb-or-beef-keema/,0.3712033045400937,0.3169356938504717,0.9526076278030502,-1.4840518011436905,1.1432796115489972,-0.7036108087542426,2.218253514520711,2.1728151915318006,-0.5815316284697883,0.0
https://glebekitchen.com/indian-restaurant-lamb-curry/,0.3519134673890188,0.4242438516814449,0.8731589312105084,-1.4480073346092508,1.334722668656348,-0.7036108087542426,-0.6822094947945709,2.1728151915318006,-0.5815316284697883,-0.6873385328541783
https://glebekitchen.com/naga-chicken-tikka-curry-indian-hotel-style/,-0.03768921673984363,0.03830475340983413,0.8758779345629311,-0.9666083480952394,0.5905667536951366,-0.7036108087542426,2.218253514520711,2.1728151915318006,2.637402779740576,-0.6873385328541783
https://glebekitchen.com/restaurant-style-pathia-curry/,0.16419971338709596,0.46578240476143457,0.7580495238663185,-1.3192692150320622,1.0152904535504987,-0.7036108087542426,2.218253514520711,2.1728151915318006,2.637402779740576,-0.6873385328541783
https://glebekitchen.com/gunpowder-potatoes/,0.3572387318589064,0.38203738003089055,1.018242190725595,-1.6704920090695425,1.6540192449417483,2.1444377186211403,-0.6822094947945709,2.1728151915318006,2.637402779740576,-0.6873385328541783
https://glebekitchen.com/nearly-restaurant-style-chettinad-chicken-curry/,0.2350524187263567,0.2380652777376926,0.8939596105249131,-1.1624371744675281,1.2224882897958558,-0.7036108087542426,2.218253514520711,2.1728151915318006,2.637402779740576,-0.6873385328541783
https://glebekitchen.com/bengali-masoor-dal/,-1.0145653439719953,0.10140414848611518,0.343168192722673,-0.03057521681076536,0.4785508497762661,-0.7036108087542426,-0.6822094947945709,-0.6980248607467489,-0.5815316284697883,-0.6873385328541783
https://glebekitchen.com/indian-restaurant-vindaloo-curry/,-0.058000723522366446,0.5164444370973521,0.6121654590119904,-1.0925354256900468,0.8607984154935866,-0.7036108087542426,2.218253514520711,-0.6980248607467489,2.637402779740576,-0.6873385328541783
https://glebekitchen.com/shahi-chicken-korma/,0.1741182815547825,-0.2184101581377599,0.4925952703589535,-0.7270767007717177,0.9757466940235666,-0.7036108087542426,2.218253514520711,2.1728151915318006,-0.5815316284697883,-0.6873385328541783
https://glebekitchen.com/saag-aloo-indian-restaurant-style/,0.3938691388400055,0.6006335301062855,0.7212665232385226,-1.5384247077847164,1.4425201292885363,-0.7036108087542426,-0.6822094947945709,-0.6980248607467489,2.637402779740576,-0.6873385328541783
https://glebekitchen.com/chole-masala-punjabi-chickpea-curry/,0.22888094500931427,0.22017415937640625,1.0368305372138586,-1.6651500999414575,1.5849939608666295,-0.7036108087542426,-0.6822094947945709,2.1728151915318006,2.637402779740576,2.24826216875528
https://glebekitchen.com/aloo-keema-indian-restaurant-potato-and-beef-curry/,-0.3678984037424724,0.31439052369635456,0.8121065890477297,-0.8392754807154795,0.6884394259504056,-0.7036108087542426,2.218253514520711,2.1728151915318006,2.637402779740576,-0.6873385328541783
https://glebekitchen.com/kerala-fried-chicken/,0.41832307973818145,0.4337094283419238,0.8983545368181667,-1.4951765701962771,1.0358029157199558,2.1444377186211403,2.218253514520711,-0.6980248607467489,2.637402779740576,-0.6873385328541783
https://glebekitchen.com/easy-mint-raita-indian-mint-sauce/,-0.11390967175354354,-0.34105467290587577,1.7431527623265861,0.26217132813215177,1.763283732024365,-0.7036108087542426,-0.6822094947945709,-0.6980248607467489,-0.5815316284697883,-0.6873385328541783
https://glebekitchen.com/chicken-masala-indian-restaurant-style/,0.0349562423669019,0.19153931060410762,0.8959375094033457,-1.227311392637399,1.2371738136066428,-0.7036108087542426,2.218253514520711,2.1728151915318006,-0.5815316284697883,-0.6873385328541783
https://glebekitchen.com/indian-lentil-curry-with-spinach/,-0.18160533638743978,0.4586064033207452,0.6689605677617672,-1.0316909279784672,1.0641415730997843,-0.7036108087542426,-0.6822094947945709,-0.6980248607467489,-0.5815316284697883,-0.6873385328541783
https://glebekitchen.com/garlic-chilli-chicken-indian-restaurant-style/,0.20824390662446562,0.3017858576553687,1.0472501848941984,-1.3888499360062951,1.2895013351425504,-0.7036108087542426,-0.6822094947945709,2.1728151915318006,2.637402779740576,-0.6873385328541783
https://glebekitchen.com/homemade-curry-powder/,0.8363076783097525,0.5439421238958089,0.9756811347093287,-1.9580614446130993,2.266762093002668,2.1444377186211403,-0.6822094947945709,-0.6980248607467489,-0.5815316284697883,-0.6873385328541783
https://glebekitchen.com/karahi-chicken-indian-restaurant-style/,-0.2039545962619589,0.2963053028361887,0.7527792393525947,-0.7796956180785303,0.7950623337625375,-0.7036108087542426,2.218253514520711,2.1728151915318006,2.637402779740576,-0.6873385328541783
https://glebekitchen.com/garlic-ginger-paste/,-0.2043247384086051,0.020495907573780052,0.23496841801220567,0.30683289395526103,1.0357926240163644,-0.7036108087542426,-0.6822094947945709,-0.6980248607467489,-0.5815316284697883,-0.6873385328541783
https://glebekitchen.com/papadum-with-red-onion-chutney-and-mint-raita/,0.6097766762964042,0.3645590214689789,0.6701726046164028,-1.5596260625818876,1.5978155124540119,-7.904922625854801e-17,0.0,-7.968181815139334e-17,8.934337736883246e-17,0.0
https://glebekitchen.com/chicken-bhuna-curry/,0.802814326355518,0.37309041916111363,0.9587085398238533,-1.7600010032879656,2.120969045178721,-0.7036108087542426,2.218253514520711,-0.6980248607467489,-0.5815316284697883,2.24826216875528
https://glebekitchen.com/tarka-dhal/,0.10627572262580477,0.46337475689671315,0.7495815235215372,-1.2022848316622534,1.5453732401215137,-0.7036108087542426,-0.6822094947945709,-0.6980248607467489,-0.5815316284697883,-0.6873385328541783
https://glebekitchen.com/chaat-masala-indian-street-food-spice-mix/,0.1523819639265007,0.8328677087799897,0.7929707554483285,-1.9879806374131002,1.824050018700499,-0.7036108087542426,-0.6822094947945709,-0.6980248607467489,2.637402779740576,-0.6873385328541783
https://glebekitchen.com/keema-matar-nearly-restaurant-style/,0.29744211700882395,0.5720919190988908,0.633247068710198,-1.4808141232326801,1.1565365542260233,-0.7036108087542426,2.218253514520711,2.1728151915318006,-0.5815316284697883,-0.6873385328541783
https://glebekitchen.com/pilau-rice-indian-restaurant-style/,1.6284476017417169,0.40993131093452784,1.7795034393864755,-2.4904923962548984,3.0916526644440268,-0.7036108087542426,-0.6822094947945709,-0.6980248607467489,-0.5815316284697883,-0.6873385328541783
https://glebekitchen.com/dal-tadka-restaurant-style/,0.3556717802998941,0.2415312584098396,1.0819483510438457,-1.8991067400678336,1.651967156627737,-0.7036108087542426,-0.6822094947945709,-0.6980248607467489,-0.5815316284697883,-0.6873385328541783
https://glebekitchen.com/eggplant-curry-baingan-masala-restaurant-style/,0.24199663787829725,0.6522214161908992,0.8656225437615291,-1.6612483042625592,1.344193679317391,-0.7036108087542426,-0.6822094947945709,-0.6980248607467489,2.637402779740576,2.24826216875528
https://glebekitchen.com/restaurant-style-aloo-chaat-chicken-curry/,0.07834809645404116,0.46409930431408,0.9003992076509149,-1.26677054742163,0.9584019472890194,2.1444377186211403,2.218253514520711,2.1728151915318006,2.637402779740576,-0.6873385328541783
https://glebekitchen.com/chicken-65-south-indian-fried-chicken-bites/,0.3410741249719737,0.6322422550125552,0.5391419388357858,-1.8173306875158706,1.0679063563016329,-0.7036108087542426,2.218253514520711,-0.6980248607467489,-0.5815316284697883,0.0
https://glebekitchen.com/seekh-kebab-spicy-lamb-skewers/,0.33074669199018775,0.7816913395469963,0.7128204047601628,-1.4003467143072115,1.6972740039345555,-0.7036108087542426,-0.6822094947945709,2.1728151915318006,2.637402779740576,-0.6873385328541783
https://glebekitchen.com/nearly-indian-restaurant-style-chicken-tikka-masala/,0.06805288402128692,0.23132644117195786,0.6732835248392341,-0.8936126052815334,1.1749720881298042,-0.7036108087542426,2.218253514520711,2.1728151915318006,2.637402779740576,-0.6873385328541783
https://glebekitchen.com/chana-masala/,0.2990458856170159,0.7166097031526183,1.0828064664139627,-1.3567421200644636,1.681097406177634,-0.7036108087542426,-0.6822094947945709,-0.6980248607467489,-0.5815316284697883,-0.6873385328541783
https://glebekitchen.com/chana-chaat-indian-chickpea-salad/,0.12796469171895505,0.6835081001069923,0.9310085012441872,-1.6286403904740443,1.0102193877296326,-0.7036108087542426,0.0,-0.6980248607467489,-0.5815316284697883,-0.6873385328541783
https://glebekitchen.com/chicken-tikka-jalfrezi-indian-hotel-style/,-0.13197226756639405,0.3866566933287214,0.875666488490019,-1.162515919216641,0.8775236874254652,-0.7036108087542426,2.218253514520711,2.1728151915318006,2.637402779740576,2.24826216875528
https://glebekitchen.com/mint-coriander-chutney/,-0.2810047358147732,0.42588157299167084,0.8956360101532109,-0.7168858161878054,1.3711826194445624,-0.7036108087542426,-0.6822094947945709,-7.968181815139334e-17,-0.5815316284697883,-0.6873385328541783
https://glebekitchen.com/indian-restaurant-dhansak-curry/,0.113017482782423,0.5586400004337981,0.766820907872693,-1.2993889999046295,0.9864589191541236,-0.7036108087542426,2.218253514520711,2.1728151915318006,2.637402779740576,-0.6873385328541783
https://glebekitchen.com/chicken-biryani-indian-restaurant-style/,0.6429002072189505,0.5568081212081224,0.9455289328361289,-1.522680099842245,1.9679174693458563,2.1444377186211403,-0.6822094947945709,-0.6980248607467489,2.637402779740576,-0.6873385328541783
https://glebekitchen.com/indian-restaurant-dopiaza-curry/,-0.10144290580149035,0.4836197708741317,0.7162962202231756,-1.1839796813147587,0.743059271345446,-0.7036108087542426,-0.6822094947945709,-0.6980248607467489,2.637402779740576,-0.6873385328541783
https://glebekitchen.com/indian-restaurant-bhuna-curry/,0.13261880141311835,0.6133990694978484,0.7138011688111682,-1.4122180386299732,1.2459780008019106,-0.7036108087542426,2.218253514520711,2.1728151915318006,2.637402779740576,-0.6873385328541783
https://glebekitchen.com/butter-chicken-indian-restaurant-style/,0.037853409930774,0.09582755804381818,0.6067598971525251,-1.0152220381064443,0.6927785787629935,-0.7036108087542426,2.218253514520711,2.1728151915318006,2.637402779740576,-0.6873385328541783
https://glebekitchen.com/nearly-restaurant-chicken-jalfrezi/,-0.2916957165533168,0.3842114398149329,0.6632311305950742,-1.0343163759567076,0.8430254716567713,-0.7036108087542426,2.218253514520711,2.1728151915318006,-0.5815316284697883,-0.6873385328541783
https://glebekitchen.com/nadan-chicken-curry/,0.19712817132766414,0.4636690903901735,0.6682818625037884,-1.082092154275189,1.0751691863242103,-0.7036108087542426,2.218253514520711,2.1728151915318006,2.637402779740576,-0.6873385328541783
https://glebekitchen.com/tandoori-paste-pataks-copycat/,0.04696102893650018,0.23398454461490004,0.7828957847386488,-0.8290093238016247,0.8645440051014668,2.1444377186211403,-0.6822094947945709,-0.6980248607467489,2.637402779740576,2.24826216875528
https://glebekitchen.com/tandoori-chicken-tacos/,0.15157327082112812,0.047515195234161624,0.17946999293073457,-1.3296712492719969,0.1574678501878456,-0.7036108087542426,-0.6822094947945709,-7.968181815139334e-17,-0.5815316284697883,0.0
https://glebekitchen.com/hotel-style-indian-curry-gravy/,-0.08168583880697897,0.3076734019343799,1.0125666491754879,-0.9494765914898236,1.381356862666399,-0.7036108087542426,-0.6822094947945709,2.1728151915318006,-0.5815316284697883,2.24826216875528
https://glebekitchen.com/methi-chicken-curry-indian-hotel-style/,0.2849875522772672,0.6447069978265707,0.9269641922114448,-1.3878294751263374,1.5081465720632297,-0.7036108087542426,2.218253514520711,2.1728151915318006,2.637402779740576,-0.6873385328541783
https://glebekitchen.com/restaurant-style-keema-matar/,-0.07097739730371368,0.43701655330597267,0.7745036710352399,-1.2622911295188524,0.6849569620080543,-0.7036108087542426,2.218253514520711,2.1728151915318006,2.637402779740576,-0.6873385328541783
https://glebekitchen.com/chicken-chaat-salad/,-0.6334652545431679,0.15045143465727895,0.3443761519659514,-0.04927519505291946,1.1290328302978891,-0.7036108087542426,-0.6822094947945709,-0.6980248607467489,-0.5815316284697883,0.0
https://glebekitchen.com/easy-chana-masala/,0.33832992971947934,0.7092262178865558,1.0865881869075746,-1.6061125748933345,1.4760063590555705,2.1444377186211403,-0.6822094947945709,-0.6980248607467489,2.637402779740576,-0.6873385328541783
https://glebekitchen.com/green-chili-chana-achari/,-0.06318757152834523,0.556559725368964,0.6481084646186406,-1.5469965027874508,0.6439320922194465,-0.7036108087542426,-0.6822094947945709,-0.6980248607467489,-0.5815316284697883,-0.6873385328541783
https://glebekitchen.com/masala-chilli-chicken-restaurant-style/,0.028243111705136915,0.4600286015157395,1.1159026341188183,-1.2776057752676,0.7635953473242406,-0.7036108087542426,2.218253514520711,2.1728151915318006,2.637402779740576,2.24826216875528
https://glebekitchen.com/laal-maas-spicy-lamb-curry/,0.6353192693743472,0.8476977501911843,0.7917762467848521,-1.7921837217294712,1.7026621989484725,-0.7036108087542426,2.218253514520711,2.1728151915318006,2.637402779740576,-0.6873385328541783
https://glebekitchen.com/chettinad-chicken-curry-indian-hotel-style/,0.35423661259804357,0.1852396213286476,0.9286258456751499,-1.4078673058824571,1.383762203590897,-0.7036108087542426,2.218253514520711,2.1728151915318006,2.637402779740576,-0.6873385328541783
https://glebekitchen.com/bengali-chicken-curry-restaurant-style/,-0.3769548062647901,0.283787189292083,0.7025573767789106,-0.8887171359235198,0.5027199987408696,-0.7036108087542426,2.218253514520711,2.1728151915318006,-0.5815316284697883,-0.6873385328541783
https://glebekitchen.com/chicken-dhansak-bengali-style/,-0.008460960294491176,0.15439605545680785,0.8664047547391788,-1.2868805751417518,1.316247994862769,2.1444377186211403,2.218253514520711,-0.6980248607467489,-0.5815316284697883,-0.6873385328541783
https://glebekitchen.com/spinach-potato-curry/,-0.10679253936031559,0.4362336364939151,0.5352876139839498,-0.9492543333955079,0.7993153122182003,-0.7036108087542426,-0.6822094947945709,-0.6980248607467489,-0.5815316284697883,-0.6873385328541783
https://glebekitchen.com/chicken-shashlik/,-0.45703383489579863,0.3122193558268347,0.5869614929135666,-0.8263700719606001,0.6806531694057784,-0.7036108087542426,2.218253514520711,2.1728151915318006,2.637402779740576,-0.6873385328541783
https://glebekitchen.com/nearly-restaurant-style-chicken-madras/,-0.1400717831567788,0.13604013260884082,0.7535737848306306,-0.9447816751140004,0.9738223784773624,-0.7036108087542426,2.218253514520711,2.1728151915318006,-0.5815316284697883,-0.6873385328541783
https://glebekitchen.com/lamb-saag-indian-restaurant-style/,0.44745142360408,0.7296870636392014,0.8399725978026389,-1.452996862317073,1.1165245413492133,-0.7036108087542426,-0.6822094947945709,2.1728151915318006,2.637402779740576,-0.6873385328541783
https://glebekitchen.com/simple-chicken-curry/,0.07228677683695112,0.040118252470302596,0.7301829220749182,-1.0208279086028869,1.4509107591200545,-0.7036108087542426,2.218253514520711,-0.6980248607467489,-0.5815316284697883,-0.6873385328541783
https://glebekitchen.com/egg-curry-south-indian-restaurant-style/,0.3184951783869883,0.1642259930994257,0.7389728842231615,-1.3699285373508288,1.1895576548967817,-0.7036108087542426,-0.6822094947945709,2.1728151915318006,2.637402779740576,-0.6873385328541783
https://glebekitchen.com/chicken-dopiaza-indian-hotel-style/,-0.2499166493672283,0.3851328976368926,0.7895414724378856,-0.9955243674107676,0.9347341404341867,-0.7036108087542426,2.218253514520711,2.1728151915318006,2.637402779740576,2.24826216875528
https://glebekitchen.com/green-chili-chicken-curry-indian-hotel-style/,0.11408397256465411,0.551965742322719,0.9286429570971529,-1.368849710060586,1.0984560061439297,-7.904922625854801e-17,0.0,-7.968181815139334e-17,8.934337736883246e-17,0.0
https://glebekitchen.com/punjabi-dal-makhani/,0.3395863452093336,-0.05472388244615373,1.0410728548849524,-1.373192179242321,1.2755516078517,-0.7036108087542426,-0.6822094947945709,-0.6980248607467489,-0.5815316284697883,-0.6873385328541783
https://glebekitchen.com/kerala-chicken-curry-nadan-kohzi-indian-hotel-style/,0.4866880065362381,0.31096552345036993,0.8902357341008021,-1.410223169417109,1.5006840398822556,-0.7036108087542426,2.218253514520711,2.1728151915318006,2.637402779740576,-0.6873385328541783
https://glebekitchen.com/chettinad-chicken-curry/,-0.6086994911733269,-0.071241191696101,0.561686143130348,-0.2358007640114435,0.2726098433103236,-0.7036108087542426,2.218253514520711,2.1728151915318006,2.637402779740576,-0.6873385328541783
https://glebekitchen.com/chicken-and-chickpea-curry-easy-restaurant-style/,-0.320524954426053,0.2509606313585684,0.6769159517113933,-0.7088957745664268,1.0041942311454228,2.1444377186211403,2.218253514520711,2.1728151915318006,-0.5815316284697883,-0.6873385328541783
https://glebekitchen.com/indian-restaurant-madras-curry/,0.24791546572327253,0.05380095636771477,0.7277234286477554,-1.039392593919472,1.141865538296086,-0.7036108087542426,2.218253514520711,2.1728151915318006,2.637402779740576,-0.6873385328541783
https://glebekitchen.com/lamb-madras-indian-hotel-style/,0.23920648626205246,0.2614691010585547,0.7101431698878132,-1.0323817064173653,0.8802865878499571,-0.7036108087542426,2.218253514520711,2.1728151915318006,2.637402779740576,-0.6873385328541783
https://glebekitchen.com/kachumber-indian-tomato-and-cucumber-salad/,0.03218300643655854,0.3942377608980914,0.9176277395465772,-0.7071760735088388,1.6154558468663045,-0.7036108087542426,0.0,-0.6980248607467489,-0.5815316284697883,-0.6873385328541783
https://glebekitchen.com/murgir-jhol-homestyle-bengali-chicken-curry/,-0.17545966520271586,0.10775887920777463,0.7989955445395508,-0.9934404017428512,1.0808858901263025,-0.7036108087542426,2.218253514520711,-0.6980248607467489,-0.5815316284697883,-0.6873385328541783
https://glebekitchen.com/lamb-rogan-josh-restaurant-style-at-home/,0.49691616543345823,0.38990552189818906,0.6413326265972238,-1.74181173382115,1.3625824087821057,-0.7036108087542426,2.218253514520711,2.1728151915318006,2.637402779740576,-0.6873385328541783
https://glebekitchen.com/thai-chicken-khao-soi/,0.15049809751859675,-0.014273273508802718,0.18042937769547612,-0.5801558942350444,0.250298105310823,2.1444377186211403,2.218253514520711,-0.6980248607467489,2.637402779740576,-0.6873385328541783
https://glebekitchen.com/thai-grilled-chicken-with-sweet-chili-sauce/,0.28782749736040214,1.0190336462281941,0.32837719431197615,-0.3727237961568665,0.7184026599225329,2.1444377186211403,-0.6822094947945709,-0.6980248607467489,2.637402779740576,2.24826216875528
https://glebekitchen.com/thai-tom-yum-soup/,0.08445297782313338,0.5658128315991725,0.4245848559609089,-0.8066886419498459,1.3899484810449683,-0.7036108087542426,-0.6822094947945709,-0.6980248607467489,2.637402779740576,-0.6873385328541783
https://glebekitchen.com/chicken-pad-thai/,0.5514801614915678,0.8921292751246539,-0.19499218979378102,-0.8641921271255403,-0.11727672733795999,2.1444377186211403,2.218253514520711,2.1728151915318006,2.637402779740576,2.24826216875528
https://glebekitchen.com/thai-cucumber-salad/,0.2506500092386412,0.3467585176170693,0.28342249331114117,-1.1526050650378186,1.5786518348295155,-0.7036108087542426,-0.6822094947945709,-0.6980248607467489,-0.5815316284697883,-0.6873385328541783
https://glebekitchen.com/thai-fried-rice-khao-pad/,-0.3579373145604821,0.17568925214555856,-0.1313497523613517,-0.42969164395574805,0.36116257533771934,2.1444377186211403,2.218253514520711,2.1728151915318006,2.637402779740576,-0.6873385328541783
https://glebekitchen.com/nam-prik-pao-thai-chili-paste/,-0.8912004782109016,0.3278786931802281,-0.037267046344783394,0.3485341323919687,0.05437676354325417,-0.7036108087542426,-0.6822094947945709,2.1728151915318006,-0.5815316284697883,-0.6873385328541783
https://glebekitchen.com/thai-red-chicken-curry/,0.9611836638015452,0.781575204274487,0.7109891582034754,-1.8544589868263648,0.9928792519890645,-0.7036108087542426,2.218253514520711,2.1728151915318006,-0.5815316284697883,-0.6873385328541783
https://glebekitchen.com/thai-sweet-chili-sauce/,0.511091420996378,1.7736442185864931,0.06132970645924803,0.6645210380886393,1.0205072160663642,2.1444377186211403,-0.6822094947945709,-0.6980248607467489,2.637402779740576,2.24826216875528
https://glebekitchen.com/panang-curry-with-chicken/,0.16567264274863575,0.35372023649626383,0.32454908461165244,-0.5798808592707587,1.121549831206778,-0.7036108087542426,2.218253514520711,-0.6980248607467489,2.637402779740576,2.24826216875528
https://glebekitchen.com/sesame-noodles-thai-style/,0.8109689243163951,0.6208706703396693,-0.25096802856934597,-0.6705702870520271,0.01747782489780655,2.1444377186211403,2.218253514520711,2.1728151915318006,2.637402779740576,-0.6873385328541783
https://glebekitchen.com/thai-basil-chicken-pad-kra-pao/,-0.41055353377112763,0.24622962134621829,-0.13763164589236399,-0.3059889605575048,0.3460037680859663,-0.7036108087542426,2.218253514520711,2.1728151915318006,2.637402779740576,-0.6873385328541783
https://glebekitchen.com/easy-beef-massaman-curry/,0.5759983917856334,-0.14458000968947482,0.6838655137509736,-1.3446806914451452,1.006375677510951,2.1444377186211403,2.218253514520711,2.1728151915318006,2.637402779740576,2.24826216875528
https://glebekitchen.com/larb-thai-pork-salad/,0.5237394228339844,0.5337904252253726,0.2722341324185233,-1.3391934758759094,0.7849257853021414,-0.7036108087542426,-0.6822094947945709,-0.6980248607467489,2.637402779740576,-0.6873385328541783
https://glebekitchen.com/grilled-pork-belly-skewers-asian-style/,0.8307120722340647,0.9416635776373832,0.24428857347593882,-0.5172095463070011,0.6037186335848783,-0.7036108087542426,-0.6822094947945709,-0.6980248607467489,-0.5815316284697883,-0.6873385328541783
https://glebekitchen.com/spicy-thai-beef-salad/,0.623405974985446,0.9896583020672087,0.7297861161637075,-1.1987287883224667,2.0367534415992066,-0.7036108087542426,2.218253514520711,-0.6980248607467489,2.637402779740576,-0.6873385328541783
https://glebekitchen.com/thai-green-curry-from-scratch/,-0.05206537063374745,0.1838901965521958,0.1851938794898278,-0.3402727830403358,1.613087516892233,2.1444377186211403,2.218253514520711,2.1728151915318006,2.637402779740576,2.24826216875528
https://glebekitchen.com/thai-basil-beef-pad-gra-prow/,-0.6853165343885901,0.34172831091578243,0.2280523389812993,-0.44340495951954545,0.3116327160644486,-0.7036108087542426,2.218253514520711,2.1728151915318006,-0.5815316284697883,-0.6873385328541783
https://glebekitchen.com/pad-thai-rest-us/,0.6562402642669418,1.0468719549486485,0.019562362128892393,-0.8088487578115983,0.36654875331310555,2.1444377186211403,-0.6822094947945709,2.1728151915318006,2.637402779740576,2.24826216875528
https://glebekitchen.com/thai-chicken-salad-with-rice-noodles/,0.10080900298103555,0.26688814547870493,0.5165663899546874,-0.5222804234213457,1.7859250896304015,-7.904922625854801e-17,0.0,-7.968181815139334e-17,8.934337736883246e-17,0.0
https://glebekitchen.com/papaya-salad-som-tam-thai/,0.6737450634245797,0.5786462928145546,0.3879013666459144,-2.137925637739263,1.3924786633136448,-0.7036108087542426,-0.6822094947945709,-0.6980248607467489,-0.5815316284697883,2.24826216875528
https://glebekitchen.com/thai-dipping-sauce/,-0.08098877904363536,0.24981866661386998,0.45077884616958674,-0.8684323660281558,1.1367770486562039,-0.7036108087542426,-0.6822094947945709,-7.968181815139334e-17,2.637402779740576,2.24826216875528
https://glebekitchen.com/thai-beef-stir-fry-with-rice-noodles/,-0.09192579732575401,0.24100737706829783,0.23121697078961298,-0.5570519148039037,0.15412138064035638,2.1444377186211403,2.218253514520711,-0.6980248607467489,2.637402779740576,2.24826216875528
https://glebekitchen.com/thai-roast-chicken/,-0.6203665984850337,0.27782463592366485,0.32377674986452937,-0.2915158137862014,-0.7974063415336397,2.1444377186211403,2.218253514520711,2.1728151915318006,-0.5815316284697883,-0.6873385328541783
https://glebekitchen.com/thai-beef-noodles/,0.6587641488154052,1.1775858201483436,-0.3953990466514528,-0.6655641130424879,-0.22655937426000233,2.1444377186211403,2.218253514520711,2.1728151915318006,2.637402779740576,2.24826216875528
https://glebekitchen.com/beef-and-broccoli-thai-style/,0.03354979100618757,0.9904146835139831,-0.11249018036320246,-0.09502012610231517,0.42788258764688786,-0.7036108087542426,2.218253514520711,2.1728151915318006,2.637402779740576,-0.6873385328541783
https://glebekitchen.com/thai-curry-noodle-soup/,0.5014859669044714,0.34556318741460734,0.22874401710627082,-1.0827758560399936,-0.15425366241072203,2.1444377186211403,2.218253514520711,2.1728151915318006,2.637402779740576,-0.6873385328541783
https://glebekitchen.com/thai-chicken-buddha-bowl/,0.2961486127154638,0.7801311095934129,0.4993759075957178,-0.99303291743697,0.7493747435068323,2.1444377186211403,-0.6822094947945709,-0.6980248607467489,2.637402779740576,-0.6873385328541783
https://glebekitchen.com/thai-ribs-with-hot-and-sweet-dipping-sauce/,0.7793697799666282,1.404341350441651,-0.2897260736663383,-1.2037094815550893,1.0326259656640389,-0.7036108087542426,-0.6822094947945709,-0.6980248607467489,2.637402779740576,2.24826216875528
https://glebekitchen.com/spicy-grilled-korean-chicken-wings/,-0.517063307593116,0.06660961641216248,-0.2196347767648725,-0.3916808043981301,-0.26178246570804103,-0.7036108087542426,-0.6822094947945709,-0.6980248607467489,-0.5815316284697883,0.0
https://glebekitchen.com/korean-ramen/,0.7315290369326859,1.1135793203349753,-1.0953663547719474,1.2303597752752229,-1.4790707345842795,2.1444377186211403,2.218253514520711,-0.6980248607467489,2.637402779740576,2.24826216875528
https://glebekitchen.com/korean-pork-ribs-with-gochujang-glaze/,-0.6874414550477645,0.25650066141550426,-0.18348461684747389,0.4877718015443673,-0.5355454280495161,-0.7036108087542426,2.218253514520711,2.1728151915318006,2.637402779740576,2.24826216875528
https://glebekitchen.com/korean-pork-stew-kimchi-jjigae/,-0.2520050560352723,0.7723195219688604,-0.4786259569952643,0.5005353349038627,-1.0776874653003379,-0.7036108087542426,-0.6822094947945709,2.1728151915318006,-0.5815316284697883,-0.6873385328541783
https://glebekitchen.com/korean-pork-bone-soup-gamjatang/,0.6123708455126221,1.6891193666788833,-0.42625206629222856,0.4000230393230911,-0.35035666918840846,-0.7036108087542426,2.218253514520711,2.1728151915318006,2.637402779740576,-0.6873385328541783
https://glebekitchen.com/korean-bbq-shrimp/,-0.6586581967634935,0.0897499316322733,-0.24428170066786478,0.5045329643671638,0.3580216598394124,-7.904922625854801e-17,0.0,-7.968181815139334e-17,8.934337736883246e-17,0.0
https://glebekitchen.com/korean-beef-stew-with-gochujang/,1.0369563282706222,2.095384076124398,-0.6104124792183069,3.1314468014357173,-1.346238717264484,-0.7036108087542426,2.218253514520711,2.1728151915318006,2.637402779740576,-0.6873385328541783
https://glebekitchen.com/korean-meatloaf-gochujang-glaze/,-0.06992184785222595,-0.11648573161154499,-0.8258045318677719,-0.024848992714607082,-0.1079759188537558,-0.7036108087542426,2.218253514520711,2.1728151915318006,2.637402779740576,2.24826216875528
https://glebekitchen.com/korean-bulgogi-sauce/,-0.5884909157389283,-0.29503920606691,0.614255806283144,-0.11986977754088289,0.5019607360989482,2.1444377186211403,-0.6822094947945709,-0.6980248607467489,2.637402779740576,2.24826216875528
https://glebekitchen.com/spicy-miso-grilled-chicken/,-0.3682612126938608,0.7014929680100684,-0.016659251383591794,0.7033983541693399,-0.24700375621690288,-0.7036108087542426,2.218253514520711,-0.6980248607467489,-0.5815316284697883,-0.6873385328541783
https://glebekitchen.com/korean-style-pork-chops/,-0.7249316328886546,-0.07963821325670531,0.4964437177543544,0.11888016203115633,-0.15350386285514128,-0.7036108087542426,2.218253514520711,-0.6980248607467489,-0.5815316284697883,-0.6873385328541783
https://glebekitchen.com/spicy-korean-chicken/,-0.5234368046290746,0.2898832415805236,0.4230727108872971,0.07509747823921267,0.07800854159316538,2.1444377186211403,2.218253514520711,-0.6980248607467489,-0.5815316284697883,0.0
https://glebekitchen.com/easy-korean-beef-bulgogi/,-0.12835986822461487,0.5698697343795567,0.25251816581210645,-0.15159919001717462,0.3232294195196856,-0.7036108087542426,-0.6822094947945709,-0.6980248607467489,-0.5815316284697883,-0.6873385328541783
https://glebekitchen.com/korean-braised-pork-ribs/,-0.4785899613818991,0.9277283639403897,-0.38639644581085525,1.1599352779293617,-0.56362383847129,-0.7036108087542426,2.218253514520711,2.1728151915318006,-0.5815316284697883,-0.6873385328541783
https://glebekitchen.com/gochujang-mayonnaise/,-0.6721579017297272,-0.12814840915403322,-0.7206509754112432,1.245672415947131,0.66724435465743,-0.7036108087542426,0.0,-0.6980248607467489,-0.5815316284697883,-0.6873385328541783
https://glebekitchen.com/korean-chicken-wings-gochujang-sauce/,-0.2506008944258015,-0.14955841873709064,-0.33875576164775395,-0.35956511939253805,-0.4393038087346197,2.1444377186211403,2.218253514520711,2.1728151915318006,2.637402779740576,2.24826216875528
https://mykoreankitchen.com/spicy-mayo-recipe/,0.12424233742541804,-0.23282134585560982,0.5100659357333502,0.03322456480947025,2.476863696388974,-0.7036108087542426,-0.6822094947945709,-0.6980248607467489,-0.5815316284697883,-0.6873385328541783
https://mykoreankitchen.com/strawberry-milk/,1.5309654933424077,-2.896774338047791,0.8552257230117538,1.6553229373628198,2.001248849646326,2.1444377186211403,-0.6822094947945709,-0.6980248607467489,-0.5815316284697883,2.24826216875528
https://mykoreankitchen.com/dakgangjeong-soy-garlic-fried-chicken/,0.06600552228479865,0.08027109854951057,0.103783033571996,-0.9107875588069251,0.24854950665210665,2.1444377186211403,2.218253514520711,-0.6980248607467489,2.637402779740576,2.24826216875528
https://mykoreankitchen.com/chili-oil-recipe/,-0.8794764726920182,0.24675287269346363,0.4898852286320172,-0.3438483907930613,0.1482795240808718,2.1444377186211403,-0.6822094947945709,2.1728151915318006,2.637402779740576,2.24826216875528
https://mykoreankitchen.com/dalgona-coffee-whipped-coffee/,1.4005037054731553,-2.8586342418503974,1.1860828253163411,1.2964606033122745,1.1227531623270997,-0.7036108087542426,-0.6822094947945709,-0.6980248607467489,-0.5815316284697883,2.24826216875528
https://mykoreankitchen.com/omelet-rice-omurice/,0.6866416554569714,-0.08712031818074334,-1.1652260901024731,-1.4259159570001558,-1.1626546231180221,2.1444377186211403,2.218253514520711,2.1728151915318006,2.637402779740576,2.24826216875528
https://mykoreankitchen.com/tuna-pancakes-chamchijeon/,-0.7670051895474804,-0.22046485177877206,-0.05931848073280232,0.046952837266393606,-0.3489809071510463,-0.7036108087542426,-0.6822094947945709,-0.6980248607467489,-0.5815316284697883,-0.6873385328541783
https://mykoreankitchen.com/pan-fried-zucchini/,-1.283994894688608,-0.8267478462751167,-0.3062522078055875,0.9750501935515966,-0.4354032441610616,-0.7036108087542426,-0.6822094947945709,-0.6980248607467489,-0.5815316284697883,-0.6873385328541783
https://mykoreankitchen.com/slow-cooker-short-ribs/,0.2175761435151895,0.14659140136126017,-0.4965650225051702,-1.2661435093251103,-0.44094372561803724,2.1444377186211403,-0.6822094947945709,-0.6980248607467489,2.637402779740576,2.24826216875528
https://mykoreankitchen.com/korean-ground-beef-rice-bowls/,0.2879601554651801,0.57850712867433,-0.12000905655016822,-0.4604886681197471,-0.4435567539434863,-0.7036108087542426,-0.6822094947945709,2.1728151915318006,-0.5815316284697883,2.24826216875528
https://mykoreankitchen.com/doenjang-jjigae/,-0.36899955662167333,0.5295860572343581,-0.009968621294644911,-0.45628163072324407,-0.5305882844099459,-0.7036108087542426,-0.6822094947945709,-0.6980248607467489,-0.5815316284697883,-0.6873385328541783
https://mykoreankitchen.com/spicy-sweet-and-vinegary-noodles-bibim-guksu/,-0.0447246927298035,0.521470151791065,0.09309867738100523,0.15648200605561136,-0.3108803147209719,2.1444377186211403,-0.6822094947945709,-0.6980248607467489,2.637402779740576,2.24826216875528
https://mykoreankitchen.com/galbitang-beef-short-rib-soup/,0.4657896454478495,0.40775428561389176,-1.806200937773184,0.40824147173230096,-0.443522027098141,-0.7036108087542426,2.218253514520711,-0.6980248607467489,2.637402779740576,-0.6873385328541783
https://mykoreankitchen.com/nuclear-fire-noodle-fries/,-0.23937824516086367,0.36357913313678336,0.413421339567723,0.7295324541707641,-0.19106676866176675,2.1444377186211403,-0.6822094947945709,2.1728151915318006,2.637402779740576,-0.6873385328541783
https://mykoreankitchen.com/kimchi-jjim-braised-kimchi/,-0.07020031835695,0.7465059633157581,0.3127803079876696,-0.494622090851135,-0.13211800610059235,-0.7036108087542426,-0.6822094947945709,-0.6980248607467489,-0.5815316284697883,-0.6873385328541783
https://mykoreankitchen.com/air-fryer-chicken-wings/,0.10905262375000858,0.03501114948891428,-0.01739759179652234,-1.0566167194836114,0.3290038150645685,-0.7036108087542426,-0.6822094947945709,-0.6980248607467489,2.637402779740576,2.24826216875528
https://mykoreankitchen.com/pickled-radishes/,0.09060204109288247,1.460559316019961,-0.07130824575426449,1.2289680249777997,-0.23888760790562302,-0.7036108087542426,-0.6822094947945709,-0.6980248607467489,-0.5815316284697883,-0.6873385328541783
https://mykoreankitchen.com/air-fryer-chickpeas/,-0.1340108691789625,-0.12953246175290511,0.41360116695512217,-0.5390236216967864,0.8851434188922652,-0.7036108087542426,-0.6822094947945709,-0.6980248607467489,-0.5815316284697883,-0.6873385328541783
https://mykoreankitchen.com/bean-sprout-rice-kongnamul-bap/,-0.4387593592143611,0.34575016352694127,0.1933660056669861,-0.628012731036975,-0.3960503908746531,2.1444377186211403,-0.6822094947945709,-0.6980248607467489,2.637402779740576,-0.6873385328541783
https://mykoreankitchen.com/gochujang-chicken/,0.08972286655539871,0.20995725514912236,0.0620421058339085,-0.9334650818647826,0.3648542674324452,2.1444377186211403,2.218253514520711,-0.6980248607467489,2.637402779740576,2.24826216875528
https://mykoreankitchen.com/korean-style-tuna-cakes/,-0.24163790278323927,0.06922521383274197,-0.6122973493377948,0.05638725502592854,0.2948243234547131,-0.7036108087542426,-0.6822094947945709,-0.6980248607467489,-0.5815316284697883,-0.6873385328541783
https://www.justonecookbook.com/corn-dogs/,0.7372349263636141,-1.5709406300522393,-1.218628064340182,0.1210315850193439,0.03729424411093233,-7.904922625854801e-17,0.0,-7.968181815139334e-17,8.934337736883246e-17,0.0
https://www.justonecookbook.com/renkon-chips/,0.8856811197235751,0.38849671547819425,1.1918066768521265,-0.6115039514936431,0.24875357801922382,-7.904922625854801e-17,0.0,-7.968181815139334e-17,8.934337736883246e-17,0.0
https://www.justonecookbook.com/mini-fruit-puff-pastry-with-lemon-glaze/,0.6590109888822844,-1.890960526900052,-0.7495587861395328,0.678911474822644,0.9410047107966834,-7.904922625854801e-17,0.0,-7.968181815139334e-17,8.934337736883246e-17,0.0
https://www.justonecookbook.com/tandoori-chicken-puffs/,0.4015841830346624,-0.7660252286078286,-0.6484528700989722,0.39875538086697565,0.9884851876639438,-7.904922625854801e-17,0.0,-7.968181815139334e-17,8.934337736883246e-17,0.0
https://www.justonecookbook.com/steamed-cake/,0.46942118833793867,-1.4891477817835719,-0.918934430479302,-0.47829303558777536,-0.30231364448154624,-7.904922625854801e-17,0.0,-7.968181815139334e-17,8.934337736883246e-17,0.0
https://www.justonecookbook.com/candied-sweet-potatoes/,-0.22793562499084016,-0.023726419669767965,0.11589832817696448,0.013370869988117852,-0.2986551533967577,-7.904922625854801e-17,0.0,-7.968181815139334e-17,8.934337736883246e-17,0.0
https://www.justonecookbook.com/oyaki/,0.9284643436115352,1.0487069146763106,0.2827467241609988,1.4128975964250399,0.5629027124785415,-7.904922625854801e-17,0.0,-7.968181815139334e-17,8.934337736883246e-17,0.0
https://www.justonecookbook.com/how-to-enjoy-japanese-mochi/,0.9411798090888235,-0.23930562975344363,0.7753611456619581,-2.7610118068573994,-1.3229630092952491,-7.904922625854801e-17,0.0,-7.968181815139334e-17,8.934337736883246e-17,0.0
https://www.justonecookbook.com/green-tea-steamed-cake/,2.6046964491090363,-1.4258848215421738,2.02458305598846,0.04105185214305489,-1.2175273969295863,-7.904922625854801e-17,0.0,-7.968181815139334e-17,8.934337736883246e-17,0.0
https://www.justonecookbook.com/spicy-edamame/,-0.6178772412310812,-0.6073248483784466,0.3894782114247269,0.11108422920429559,0.27944508319408723,-7.904922625854801e-17,0.0,-7.968181815139334e-17,8.934337736883246e-17,0.0
https://www.justonecookbook.com/japanese-fruit-sandwich-fruit-sando/,-0.09059975699617817,-1.2896409338241706,0.44026588756122076,0.23687492655533945,1.2433231170162506,-7.904922625854801e-17,0.0,-7.968181815139334e-17,8.934337736883246e-17,0.0
https://www.justonecookbook.com/roast-chestnuts/,1.5530277020959757,0.7370309601178032,-0.5167713633826729,-1.7503364579223362,-0.7330404784367681,-7.904922625854801e-17,0.0,-7.968181815139334e-17,8.934337736883246e-17,0.0
https://www.justonecookbook.com/rice-cracker-recipe/,-0.6037290889288196,-0.738605268620181,0.3383210216684943,0.47343613488061354,0.23021633442735887,-7.904922625854801e-17,0.0,-7.968181815139334e-17,8.934337736883246e-17,0.0
https://www.justonecookbook.com/takoyaki-recipe/,0.6485731724722457,0.5456787430902914,-0.7601711863574881,1.6158359735134444,-0.37547758762989836,-7.904922625854801e-17,0.0,-7.968181815139334e-17,8.934337736883246e-17,0.0
https://www.justonecookbook.com/nikuman-steamed-pork-buns/,-0.5879087479101444,-0.23770784096900222,-0.016390754385689255,-0.04506737858322113,-0.4796845644036048,-7.904922625854801e-17,0.0,-7.968181815139334e-17,8.934337736883246e-17,0.0
https://www.justonecookbook.com/homemade-popcorn-with-truffle-salt/,-0.7298199382038552,-0.7067163414079679,0.34065616788451325,0.34869261557915987,0.10267770768030267,-7.904922625854801e-17,0.0,-7.968181815139334e-17,8.934337736883246e-17,0.0
https://www.justonecookbook.com/sata-andagi/,0.056188018090166825,-1.534726312603573,-0.8668282550527734,0.4688190614006216,-0.21945578804274507,-7.904922625854801e-17,0.0,-7.968181815139334e-17,8.934337736883246e-17,0.0
https://www.justonecookbook.com/banana-bread/,-0.37178091499596494,-1.2830038513349786,-0.2053275442114744,0.5756915088202592,0.24327760162869988,-7.904922625854801e-17,0.0,-7.968181815139334e-17,8.934337736883246e-17,0.0
https://www.justonecookbook.com/seared-tuna-aburi-toro/,-1.1496846583345042,0.5341546777679161,0.1341484021271498,0.8484308180701174,-0.18574953945107778,-7.904922625854801e-17,0.0,-7.968181815139334e-17,8.934337736883246e-17,0.0
https://www.justonecookbook.com/chicken-spring-rolls/,-0.7018497563138157,0.18838911738414657,0.38304856237765444,0.15367588388197195,0.15270746906976226,-7.904922625854801e-17,0.0,-7.968181815139334e-17,8.934337736883246e-17,0.0
https://www.justonecookbook.com/gyoza-with-wings-hanetsuki-gyoza/,-0.6153916897991697,-0.8847218331331475,0.30838341017033466,0.39840836049240513,0.10457710967948569,-7.904922625854801e-17,0.0,-7.968181815139334e-17,8.934337736883246e-17,0.0
https://www.justonecookbook.com/sauteed-abalone/,1.244786562670345,1.012978022697886,-0.3907519447345878,1.872341219144933,-0.19493161228415867,-7.904922625854801e-17,0.0,-7.968181815139334e-17,8.934337736883246e-17,0.0
https://www.justonecookbook.com/grilled-oysters-ponzu-sauce/,1.4086903933974335,2.202075084269049,0.08382728240732876,1.8382345811075198,1.4682531085253463,-7.904922625854801e-17,0.0,-7.968181815139334e-17,8.934337736883246e-17,0.0
https://www.justonecookbook.com/japanese-clams-sake-steamed-clams/,-0.5042216641952232,0.5155406706471591,0.48776503504819274,-1.03865620035947,0.45288013479015965,-7.904922625854801e-17,0.0,-7.968181815139334e-17,8.934337736883246e-17,0.0
https://www.justonecookbook.com/miso-dengaku/,1.5419755234187142,1.8726662045466747,-0.7223432975963496,1.1357235300284783,-0.25733524864773627,-7.904922625854801e-17,0.0,-7.968181815139334e-17,8.934337736883246e-17,0.0
https://www.justonecookbook.com/thai-chicken-lettuce-wraps/,0.02111697548164105,0.5504530801298179,-0.0019412572556701568,-0.280651747581522,0.1559236149178939,-7.904922625854801e-17,0.0,-7.968181815139334e-17,8.934337736883246e-17,0.0
https://www.justonecookbook.com/shrimp-egg-rolls/,-0.653377536730023,-0.715924645437512,-0.2390994257202759,0.6157156556850468,-0.08150374752162312,-7.904922625854801e-17,0.0,-7.968181815139334e-17,8.934337736883246e-17,0.0
https://www.justonecookbook.com/agedashi-tofu-2/,2.322049008425812,2.4528814506267995,-1.088318782709202,1.7687256026056364,-0.6233762445172587,-7.904922625854801e-17,0.0,-7.968181815139334e-17,8.934337736883246e-17,0.0
https://www.justonecookbook.com/tazukuri-candied-sardines/,-0.32061054937927885,-0.5927455867710778,0.3772995899372099,0.1275671605723467,0.34558185868421,-7.904922625854801e-17,0.0,-7.968181815139334e-17,8.934337736883246e-17,0.0
https://www.justonecookbook.com/pickled-chrysanthemum-turnip/,1.1893959677586712,1.6613097633987086,0.4389758534379952,1.2627771920007416,1.238562137163238,-7.904922625854801e-17,0.0,-7.968181815139334e-17,8.934337736883246e-17,0.0
https://www.justonecookbook.com/bitter-melon-salad/,-0.6666260687236218,0.2353064111470396,0.06721330217956036,0.7880247801478649,-0.514476939268366,-7.904922625854801e-17,0.0,-7.968181815139334e-17,8.934337736883246e-17,0.0
https://www.justonecookbook.com/spicy-miso-chicken/,0.7609186203011912,2.14267256813183,-0.3852237703595926,2.5449784543425307,-0.06871990912463183,-7.904922625854801e-17,0.0,-7.968181815139334e-17,8.934337736883246e-17,0.0
https://www.justonecookbook.com/cheese-tart/,0.19895512491145534,-1.8331161821074247,-1.671540973768124,0.9616421813512352,-0.35242668673578953,-7.904922625854801e-17,0.0,-7.968181815139334e-17,8.934337736883246e-17,0.0
https://www.justonecookbook.com/bbq-king-crab/,-0.8238792528514307,0.5495987266547703,0.26913797370509907,0.21352633184984943,-0.08311392780831317,-7.904922625854801e-17,0.0,-7.968181815139334e-17,8.934337736883246e-17,0.0
https://www.justonecookbook.com/eggplant-agebitashi/,1.5396067380820284,2.13226823433216,-0.7343606506041787,1.860595038507816,-0.38575487446750345,-7.904922625854801e-17,0.0,-7.968181815139334e-17,8.934337736883246e-17,0.0
https://www.justonecookbook.com/tsukune/,1.1506761221819055,2.4478523718402383,-0.023759305824345208,1.843671882128709,1.0714608822975487,-7.904922625854801e-17,0.0,-7.968181815139334e-17,8.934337736883246e-17,0.0
https://www.justonecookbook.com/fresh-spring-rolls-yakiniku/,-0.245964873661585,0.2056486006600566,0.5596218744870979,0.22852986770868644,0.6984467907607196,-7.904922625854801e-17,0.0,-7.968181815139334e-17,8.934337736883246e-17,0.0
https://www.justonecookbook.com/garlic-soy-marinated-albacore/,-1.6112983283841624,-0.01406371103220295,0.5413210559327124,1.0639934376948832,-0.3344403136951644,-7.904922625854801e-17,0.0,-7.968181815139334e-17,8.934337736883246e-17,0.0
https://www.justonecookbook.com/tuna-tataki/,-0.5535190849825681,-0.15933686018212284,0.4058743246693819,0.2716902044279774,0.3400602690144354,-7.904922625854801e-17,0.0,-7.968181815139334e-17,8.934337736883246e-17,0.0
https://www.justonecookbook.com/gyutan-bbq-beef-tongue/,0.25337540285172483,1.092783596108758,0.3726264232241848,1.7826078933668907,1.3645427829204828,-7.904922625854801e-17,0.0,-7.968181815139334e-17,8.934337736883246e-17,0.0
https://www.justonecookbook.com/teriyaki-wings/,-0.8223597402307661,0.029645232646902355,0.04349259232432602,0.40879791100870455,0.002971070744144529,-7.904922625854801e-17,0.0,-7.968181815139334e-17,8.934337736883246e-17,0.0
https://www.justonecookbook.com/salmon-kombu-roll/,-0.4370922349434584,0.4753712936330857,-0.2014075279286208,1.2148423109377129,-0.29699333211178397,-7.904922625854801e-17,0.0,-7.968181815139334e-17,8.934337736883246e-17,0.0
https://www.justonecookbook.com/ham-katsu/,1.1670502626744919,-0.5039102252797187,-2.760159982473046,0.511198009083993,0.8440898139243544,-7.904922625854801e-17,0.0,-7.968181815139334e-17,8.934337736883246e-17,0.0
https://www.justonecookbook.com/octopus-carpaccio/,-0.7036095328552969,0.08450832177044063,0.4317661097388039,0.22620215175466113,0.9688498433705643,-7.904922625854801e-17,0.0,-7.968181815139334e-17,8.934337736883246e-17,0.0
https://www.justonecookbook.com/grilled-clams-little-neck-clams/,-0.47859399143740733,0.49589584431636724,-0.14636313452389513,1.190156559778551,0.15436454176009912,-7.904922625854801e-17,0.0,-7.968181815139334e-17,8.934337736883246e-17,0.0
https://www.justonecookbook.com/napa-cabbage-gyoza/,-0.4315015930117958,0.371417859065059,-0.07735276344777668,-0.15494911664249408,-0.6610046239980959,-7.904922625854801e-17,0.0,-7.968181815139334e-17,8.934337736883246e-17,0.0
https://www.justonecookbook.com/teba-shio-salted-chicken-wings/,-0.04564204408536319,0.9630307291021376,-0.49122705548070034,0.6631569391539903,1.1895860346754323,-7.904922625854801e-17,0.0,-7.968181815139334e-17,8.934337736883246e-17,0.0
https://www.justonecookbook.com/japanese-tofu-cold-tofu-hiyayakko/,2.7373389392884437,2.3077970535636716,-1.119797989606839,0.4447798351805388,0.5816259391517378,-7.904922625854801e-17,0.0,-7.968181815139334e-17,8.934337736883246e-17,0.0
https://www.justonecookbook.com/eggplant-with-sesame-ponzu-sauce/,1.0300099425829512,2.5810798073714487,0.3574771662122207,1.1371125439292085,1.4232435874546183,-7.904922625854801e-17,0.0,-7.968181815139334e-17,8.934337736883246e-17,0.0
https://www.justonecookbook.com/chawanmushi-with-shrimp/,0.49250851008147684,0.8146225763676561,-1.1386533384017958,1.9096281636056274,-1.0855841459814142,-7.904922625854801e-17,0.0,-7.968181815139334e-17,8.934337736883246e-17,0.0
https://www.justonecookbook.com/instant-pot-chawanmushi/,0.836410532637615,0.9892415617011758,-1.05043907253407,2.2041129185518735,-1.0827447821926364,-7.904922625854801e-17,0.0,-7.968181815139334e-17,8.934337736883246e-17,0.0
https://www.justonecookbook.com/burrata-crostini/,2.8432551578231484,2.821443379550677,-0.3353912430573992,3.9400176591004863,2.8932268062203685,-7.904922625854801e-17,0.0,-7.968181815139334e-17,8.934337736883246e-17,0.0
https://www.justonecookbook.com/coconut-shrimp/,0.6353938966656583,0.4376523406089303,-1.6572832714799055,-0.292388864404904,1.1664166844946726,-7.904922625854801e-17,0.0,-7.968181815139334e-17,8.934337736883246e-17,0.0
https://www.justonecookbook.com/japanese-pickled-cucumber/,-1.0555058466390224,0.005208908029249992,0.5549600061911529,0.5061856476633667,-0.011835865353980084,-7.904922625854801e-17,0.0,-7.968181815139334e-17,8.934337736883246e-17,0.0
https://www.justonecookbook.com/asian-meatball-karaage/,0.2703792932552208,-0.47360140015371366,-1.0657118031340729,-0.8389741468393471,-0.8011384911477016,-7.904922625854801e-17,0.0,-7.968181815139334e-17,8.934337736883246e-17,0.0
https://www.justonecookbook.com/datemaki-sweet-rolled-omelette/,-0.10398738686682035,-0.44465301413570985,-1.052099732062434,1.7252856360166162,-0.26167621961124177,-7.904922625854801e-17,0.0,-7.968181815139334e-17,8.934337736883246e-17,0.0
https://www.justonecookbook.com/hijiki-salad/,1.8267985242316858,1.5731138843909074,-0.04990478950065781,1.5615953117764816,-1.0415348280032084,-7.904922625854801e-17,0.0,-7.968181815139334e-17,8.934337736883246e-17,0.0
https://www.justonecookbook.com/temari-sushi/,1.9689669605604847,1.863582628199204,-0.7546138643063928,1.4419728901988573,0.0038947481528667054,-7.904922625854801e-17,0.0,-7.968181815139334e-17,8.934337736883246e-17,0.0
https://www.justonecookbook.com/slow-cooker-sriracha-chili-chicken-wings/,-0.11470076687950154,0.014332729753393203,-0.4077125019912884,-0.6059248649830218,0.49735309623656365,-7.904922625854801e-17,0.0,-7.968181815139334e-17,8.934337736883246e-17,0.0
https://www.justonecookbook.com/momofuku-fried-chicken/,-0.6565425369631175,-0.14974409351471765,0.029673841155052783,-0.2986188334971265,0.09496733418594538,-7.904922625854801e-17,0.0,-7.968181815139334e-17,8.934337736883246e-17,0.0
https://www.justonecookbook.com/braised-pork-belly-kakuni/,1.3373763802404204,1.62978130254422,-0.9721156700280215,1.231734066094952,-0.3043893357784896,-7.904922625854801e-17,0.0,-7.968181815139334e-17,8.934337736883246e-17,0.0
https://www.justonecookbook.com/bbq-chicken-wings/,-0.42943793543888575,0.11776463179827742,-0.06355791727982284,0.09854167298587971,0.28018198916962483,-7.904922625854801e-17,0.0,-7.968181815139334e-17,8.934337736883246e-17,0.0
https://www.justonecookbook.com/japanese-beef-tendon-stew/,1.3498463232579092,2.116061220748292,-0.6238631026033372,1.929557314694853,-1.0411608978139837,-7.904922625854801e-17,0.0,-7.968181815139334e-17,8.934337736883246e-17,0.0
https://www.justonecookbook.com/japanese-grilled-eggplant-yaki-nasu/,1.445181189009243,2.5732652096448883,-0.157607782398813,2.2432915894602155,1.8780575543981208,-7.904922625854801e-17,0.0,-7.968181815139334e-17,8.934337736883246e-17,0.0
https://www.justonecookbook.com/kamaboko-with-salmon-roe/,11.692441081537687,14.238168030071627,2.3363896479875024,8.054571035935453,9.949944081169141,-7.904922625854801e-17,0.0,-7.968181815139334e-17,8.934337736883246e-17,0.0
https://www.justonecookbook.com/gluten-free-karaage/,0.06469077497746079,0.19489253725944752,-0.2352575847619246,0.0929896380157187,0.17838434080709686,-7.904922625854801e-17,0.0,-7.968181815139334e-17,8.934337736883246e-17,0.0
https://www.justonecookbook.com/edamame/,-1.6405992194797092,-0.3750622229319502,0.5782196194329641,1.07687926743555,-0.20697127869591977,-7.904922625854801e-17,0.0,-7.968181815139334e-17,8.934337736883246e-17,0.0
https://www.justonecookbook.com/egg-tofu/,1.6510078349329604,1.2996831863658533,-1.4842708645344638,3.0316313421862264,-1.4571958410636494,-7.904922625854801e-17,0.0,-7.968181815139334e-17,8.934337736883246e-17,0.0
https://www.justonecookbook.com/spring-rolls-with-sesame-ponzu-vinaigrette/,0.7380142909984182,1.5588884180126266,-0.2821886612112436,0.5842328953107565,0.3984926162634939,-7.904922625854801e-17,0.0,-7.968181815139334e-17,8.934337736883246e-17,0.0
https://www.justonecookbook.com/chawanmushi-with-matsutake-mushroom/,1.228235939776849,1.0033292463125336,-1.480297636160919,2.7122451206999396,-1.427673773702372,-7.904922625854801e-17,0.0,-7.968181815139334e-17,8.934337736883246e-17,0.0
https://www.justonecookbook.com/nagoya-style-fried-chicken-wings/,-0.34579744565127735,-0.10581543086139454,-0.255754726299236,-0.03348282762882599,-0.2157567408338362,-7.904922625854801e-17,0.0,-7.968181815139334e-17,8.934337736883246e-17,0.0
https://www.justonecookbook.com/fried-chicken-wings/,-0.2351463261760469,-0.4004389697884335,-0.2608760002025198,-0.5686944917179136,0.17645859806491873,-7.904922625854801e-17,0.0,-7.968181815139334e-17,8.934337736883246e-17,0.0
https://www.justonecookbook.com/chawanmushi-savory-steamed-egg-custard/,0.4973663362938839,0.7619017613689698,-0.9488230870718052,1.7846697483809897,-1.022526785259155,-7.904922625854801e-17,0.0,-7.968181815139334e-17,8.934337736883246e-17,0.0
https://www.justonecookbook.com/karashi-renkon/,1.1385569210859792,0.4569096242968145,-0.5153138303768507,0.5921858380954613,0.22816518841000644,-7.904922625854801e-17,0.0,-7.968181815139334e-17,8.934337736883246e-17,0.0
https://www.justonecookbook.com/cranberry-brie-bites/,1.6667032889146416,-0.5576536798797661,-1.053505325514117,-1.8317900117418724,3.9106440230567143,-0.7036108087542426,-0.6822094947945709,-0.6980248607467489,-0.5815316284697883,-0.6873385328541783
https://www.justonecookbook.com/shishamo-wrap/,2.055151913614933,0.9965261913168563,1.3269668668220063,1.976704104317137,0.9197701151587707,-7.904922625854801e-17,0.0,-7.968181815139334e-17,8.934337736883246e-17,0.0
https://www.justonecookbook.com/boiled-squid-with-miso-vinaigrette/,0.1234903019953825,1.0932618301685135,-0.05069603181524134,1.196996096818879,-0.26581959195781674,-7.904922625854801e-17,0.0,-7.968181815139334e-17,8.934337736883246e-17,0.0
https://www.justonecookbook.com/vegan-miso-soup/,2.6004765515039336,2.688778472152016,-0.8483108381898236,2.052425437230971,-1.4036706253096125,-7.904922625854801e-17,0.0,-7.968181815139334e-17,8.934337736883246e-17,0.0
https://www.justonecookbook.com/kimchi-gyoza-nabe/,0.7114195337059198,1.7996291311153911,-0.5200440082555738,0.8744537029523884,-1.0362043291595906,-0.7036108087542426,-0.6822094947945709,-0.6980248607467489,8.934337736883246e-17,2.24826216875528
https://www.justonecookbook.com/ozoni-zoni-japanese-new-year-mochi-soup/,4.3437624632228,3.998795315976805,-1.2056460510910278,3.113672934025877,1.5076148279881572,-7.904922625854801e-17,0.0,-7.968181815139334e-17,8.934337736883246e-17,0.0
https://www.justonecookbook.com/potato-leek-soup/,-1.021427814184606,-0.564953169221471,0.1872897218898889,0.46879783313523343,-0.20150390720950082,-7.904922625854801e-17,0.0,-7.968181815139334e-17,8.934337736883246e-17,0.0
https://www.justonecookbook.com/homemade-miso-soup/,3.186839364792648,3.7454922526753522,-1.075452307698674,3.8319800292522164,-1.2487428365541304,-7.904922625854801e-17,0.0,-7.968181815139334e-17,8.934337736883246e-17,0.0
https://www.justonecookbook.com/miso-soup-yuzu-kosho/,1.443984846003261,2.0675665686318316,-0.5258340662171853,1.5504357736055174,-0.025213525512721283,-7.904922625854801e-17,0.0,-7.968181815139334e-17,8.934337736883246e-17,0.0
https://www.justonecookbook.com/nabeyaki-udon/,1.3778324556894188,1.6606957244418703,-0.9871606650414863,1.4957684076545512,-0.9764029377248262,-7.904922625854801e-17,0.0,-7.968181815139334e-17,8.934337736883246e-17,0.0
https://www.justonecookbook.com/kimchi-nabe/,0.883050889674016,1.7230208313147914,-0.46905874173308465,0.9324662634403672,-1.4084061334797973,-7.904922625854801e-17,0.0,-7.968181815139334e-17,8.934337736883246e-17,0.0
https://www.justonecookbook.com/chanko-nabe-sumo-stew/,1.1394692909117492,1.6236313430155187,-1.5766239876481012,0.8583643226428307,-0.9417074623077087,-7.904922625854801e-17,0.0,-7.968181815139334e-17,8.934337736883246e-17,0.0
https://www.justonecookbook.com/monkfish-hot-pot/,1.417044211324149,2.672004988835037,-0.8267192040454897,1.6958004089297005,-1.3622841956911282,-7.904922625854801e-17,0.0,-7.968181815139334e-17,8.934337736883246e-17,0.0
https://www.justonecookbook.com/mille-feuille-nabe/,1.3021866992001905,2.361816788122222,-0.7704576501051154,1.309804606621165,-0.8154107904909783,-7.904922625854801e-17,0.0,-7.968181815139334e-17,8.934337736883246e-17,0.0
https://www.justonecookbook.com/thomas-kellers-clam-chowder-giveaway-winners/,0.13927333749598456,-0.4038802774459716,-0.07391023696970175,-0.17663114743298922,0.9609747352887253,-7.904922625854801e-17,0.0,-7.968181815139334e-17,8.934337736883246e-17,0.0
https://www.justonecookbook.com/kabocha-miso-soup/,0.46283359140363756,1.1773640014195255,0.07476729631390967,1.2166277256935176,-0.3886312330844049,-7.904922625854801e-17,0.0,-7.968181815139334e-17,8.934337736883246e-17,0.0
https://www.justonecookbook.com/pressure-cooker-oxtail-soup/,-0.23309057761079646,0.4040197178975328,-0.048244807423385515,-0.6047912514169299,0.4980562134931374,-7.904922625854801e-17,0.0,-7.968181815139334e-17,8.934337736883246e-17,0.0
https://www.justonecookbook.com/shrimp-pork-wonton/,-0.3000881101137499,0.41806136432665986,-0.2001569308970482,-0.16287055987498855,-0.3921463317705088,-7.904922625854801e-17,0.0,-7.968181815139334e-17,8.934337736883246e-17,0.0
https://www.justonecookbook.com/bouillabaisse-french-seafood-stew/,-0.4494168988269666,0.45434667976161897,0.12045658306798829,-0.22716977307742864,0.9415544493300703,-7.904922625854801e-17,0.0,-7.968181815139334e-17,8.934337736883246e-17,0.0
https://www.justonecookbook.com/taiwanese-hot-pot-and-homemade-meatballs/,0.2164636829733256,0.08230505950133228,-1.45441856514058,0.08862454728102753,-0.9441031238210651,-7.904922625854801e-17,0.0,-7.968181815139334e-17,8.934337736883246e-17,0.0
https://www.justonecookbook.com/japanese-clam-soup-clear-broth/,0.6930699776906245,2.02167403593978,0.22317555770021785,2.8765768485169416,-0.7424767885642372,-7.904922625854801e-17,0.0,-7.968181815139334e-17,8.934337736883246e-17,0.0
https://www.justonecookbook.com/chicken-corn-chowder-with-roasted-potato/,0.0986524519324214,-0.1351028943065605,-0.457922392731407,-0.6106840630508206,0.3836318653261466,-7.904922625854801e-17,0.0,-7.968181815139334e-17,8.934337736883246e-17,0.0
https://www.justonecookbook.com/miso-nikomi-udon/,2.611998596538377,2.82544221254382,-1.6222030949921902,3.181466196786553,-1.4932313847456224,-7.904922625854801e-17,0.0,-7.968181815139334e-17,8.934337736883246e-17,0.0
https://www.justonecookbook.com/kale-soup/,-0.9242589787337486,-0.19659516607877275,-0.02230013733410235,0.5958064895832547,-0.3526968090970152,-7.904922625854801e-17,0.0,-7.968181815139334e-17,8.934337736883246e-17,0.0
https://www.justonecookbook.com/hayashi-rice/,-0.5864145752950878,-0.12958550513956135,0.36341359375727594,-0.08287629739819798,0.43797850151641793,-7.904922625854801e-17,0.0,-7.968181815139334e-17,8.934337736883246e-17,0.0
https://www.justonecookbook.com/instant-pot-cream-stew/,-0.2664793337150677,-0.029551223226685568,0.1274899810627839,0.053028917693779494,0.19015139779941442,-7.904922625854801e-17,0.0,-7.968181815139334e-17,8.934337736883246e-17,0.0
https://www.justonecookbook.com/clam-soup/,0.935590618581689,2.0499363772951735,-0.004890581455567847,2.284273415010775,-0.6093002884093767,-7.904922625854801e-17,0.0,-7.968181815139334e-17,8.934337736883246e-17,0.0
https://www.justonecookbook.com/sukiyaki/,1.4881718024536952,1.9122825815472437,-0.757867602640038,1.5421614901632692,-1.6461106021662906,-7.904922625854801e-17,0.0,-7.968181815139334e-17,8.934337736883246e-17,0.0
https://www.justonecookbook.com/hot-pot-for-one/,1.614631348549341,3.175325042412772,-1.3268194948535534,1.0345705098090743,-0.45140100786388637,-7.904922625854801e-17,0.0,-7.968181815139334e-17,8.934337736883246e-17,0.0
https://www.justonecookbook.com/homemade-instant-miso-soup/,1.7079015257469654,1.718177640319046,-0.4084956001070478,2.6026100444514193,-1.1150679100633722,-7.904922625854801e-17,0.0,-7.968181815139334e-17,8.934337736883246e-17,0.0
https://www.justonecookbook.com/kimchi-soup-with-malony-glass-noodles/,-0.641529822830479,0.1765270186107549,-0.25730319986265804,0.5238185208858933,-0.6177989740649205,-7.904922625854801e-17,0.0,-7.968181815139334e-17,8.934337736883246e-17,0.0
https://www.justonecookbook.com/oxtail-oden/,1.6146850723166788,1.5166363839497066,-1.2730920219821191,1.4221755579144677,-1.1524626181025879,-7.904922625854801e-17,0.0,-7.968181815139334e-17,8.934337736883246e-17,0.0
https://www.justonecookbook.com/kabocha-squash-soup/,-0.3339124748391513,-0.3079259877308405,-0.17691517905581602,0.6872064084795269,0.023084569019418757,-7.904922625854801e-17,0.0,-7.968181815139334e-17,8.934337736883246e-17,0.0
https://www.justonecookbook.com/vegetable-miso-soup/,1.4993831432173443,1.812967081219611,-0.26363426480622876,0.5215931211370822,-1.1886074104755022,-7.904922625854801e-17,0.0,-7.968181815139334e-17,8.934337736883246e-17,0.0
https://www.justonecookbook.com/zosui-japanese-rice-soup/,0.07221290100204315,0.4246153296969883,-0.5549862683088888,0.93080973052544,-0.5669679790342205,-7.904922625854801e-17,0.0,-7.968181815139334e-17,8.934337736883246e-17,0.0
https://www.justonecookbook.com/white-stew/,-0.2596396671756031,-0.32150526803610785,-0.10955212607760606,0.10642702871198423,0.28264607242309253,-0.7036108087542426,2.218253514520711,-0.6980248607467489,2.637402779740576,2.24826216875528
https://www.justonecookbook.com/kimchi-chigae/,0.030635807588556888,0.67446279049095,-0.11533098790344497,0.5616220122410234,-1.2383148046115884,-7.904922625854801e-17,0.0,-7.968181815139334e-17,8.934337736883246e-17,0.0
https://www.justonecookbook.com/corn-potage/,-0.21588029924338228,-0.5525760512625277,-0.06319514619327352,-0.27791136269849276,0.5270124711438292,-7.904922625854801e-17,0.0,-7.968181815139334e-17,8.934337736883246e-17,0.0
https://www.justonecookbook.com/instant-pot-tonjiru/,2.3666017376876995,2.4348604930400413,-1.0528453636942263,1.5700190544368673,0.09005917256671138,-7.904922625854801e-17,0.0,-7.968181815139334e-17,8.934337736883246e-17,0.0
https://www.justonecookbook.com/pressure-cooker-oxtail-broth/,-1.7264410009345799,-0.25372957747967445,0.6422362839073559,1.0234326394032331,-0.2174156454045846,-7.904922625854801e-17,0.0,-7.968181815139334e-17,8.934337736883246e-17,0.0
https://www.justonecookbook.com/matsutake-clear-soup/,1.2019822750656999,1.700985538455873,-0.6935584202059516,1.6892474836498987,0.4321909936977898,-7.904922625854801e-17,0.0,-7.968181815139334e-17,8.934337736883246e-17,0.0
https://www.justonecookbook.com/creamy-roasted-cauliflower-soup/,-0.2548401647908199,-0.17807833409007617,0.3122688986541981,0.21355919785647573,0.8463523142704078,-7.904922625854801e-17,0.0,-7.968181815139334e-17,8.934337736883246e-17,0.0
https://www.justonecookbook.com/hot-tofu-yudofu/,1.9719919546608036,3.1732609950613786,-0.5441712396632082,3.340887499208365,1.1386744398722726,-7.904922625854801e-17,0.0,-7.968181815139334e-17,8.934337736883246e-17,0.0
https://www.justonecookbook.com/soup-curry/,0.33600487500542686,0.4201187809203077,0.5726528123469128,-0.6816910763618088,0.6948437870660478,-7.904922625854801e-17,0.0,-7.968181815139334e-17,8.934337736883246e-17,0.0
https://www.justonecookbook.com/borscht-soup-hong-kong-style/,-0.21375767259817188,0.41675168748975056,-0.0617463459824537,-0.63843968973836,0.5037930716815199,-7.904922625854801e-17,0.0,-7.968181815139334e-17,8.934337736883246e-17,0.0
https://www.justonecookbook.com/coconut-curry/,-0.5837095278022796,-0.2670523492651706,0.2765901649972901,-0.04530729011104682,0.16031197296046962,-7.904922625854801e-17,0.0,-7.968181815139334e-17,8.934337736883246e-17,0.0
https://www.justonecookbook.com/soy-milk-hot-pot-tonyu-nabe/,1.270304469296791,1.9851193691225957,-0.6935800295769534,1.051900070134416,-0.8247184412278221,-7.904922625854801e-17,0.0,-7.968181815139334e-17,8.934337736883246e-17,0.0
https://www.justonecookbook.com/kare-kare-guest-post-by-ang-sarap/,-0.20992259123523713,-0.1411670140318967,-0.2698886992970823,-0.5266397841268593,-0.3481284320381142,-7.904922625854801e-17,0.0,-7.968181815139334e-17,8.934337736883246e-17,0.0
https://www.justonecookbook.com/shabu-shabu/,1.9959123283626712,3.352969316633656,-0.9870174663602065,1.4945718114947073,-1.1217946961430412,-7.904922625854801e-17,0.0,-7.968181815139334e-17,8.934337736883246e-17,0.0
https://www.justonecookbook.com/nameko-mushroom-miso-soup/,4.65960788800706,3.5006703474605727,-2.098039499224763,3.3064355735582907,-2.715614938022799,-7.904922625854801e-17,0.0,-7.968181815139334e-17,8.934337736883246e-17,0.0
https://www.justonecookbook.com/cherry-blossom-milk-pudding/,0.35926598197384935,-1.5954888093285542,0.5735833992329948,0.19917788804960096,0.5761990136226873,-7.904922625854801e-17,0.0,-7.968181815139334e-17,8.934337736883246e-17,0.0
https://www.justonecookbook.com/easy-apple-pie/,2.599000100860617,-2.8372359820173214,-6.190895798912909,1.4560242626803788,0.01426549849204697,-7.904922625854801e-17,0.0,-7.968181815139334e-17,8.934337736883246e-17,0.0
https://www.justonecookbook.com/chocolate-gateau-chocolate-cake/,-0.0324816889695423,-1.8105996342547706,-0.612879958504617,0.6647156225534592,0.1160077222794362,-7.904922625854801e-17,0.0,-7.968181815139334e-17,8.934337736883246e-17,0.0
https://www.justonecookbook.com/matcha-and-white-chocolate-truffles-guest-post-by-with-a-glass/,5.1185221582066465,-2.5207636938318982,6.973704860228181,3.4821088645336196,-2.209559611180733,-7.904922625854801e-17,0.0,-7.968181815139334e-17,8.934337736883246e-17,0.0
https://www.justonecookbook.com/sesame-cookies/,1.186872702201877,-1.9724899048765243,-3.788309663652805,1.2116254549361298,-0.057667539621545874,-7.904922625854801e-17,0.0,-7.968181815139334e-17,8.934337736883246e-17,0.0
https://www.justonecookbook.com/pineapple-sorbet/,0.1350766390570689,-0.16589086050228752,0.6583095579211247,-0.5218272838141923,2.2377767939121713,-7.904922625854801e-17,0.0,-7.968181815139334e-17,8.934337736883246e-17,0.0
https://www.justonecookbook.com/dorayaki-japanese-red-bean-pancake/,0.5273466892099865,-0.8371763288202279,-0.06181544372049214,-1.3242013983982142,-0.5131983921780735,-7.904922625854801e-17,0.0,-7.968181815139334e-17,8.934337736883246e-17,0.0
https://www.justonecookbook.com/green-tea-cookie-vegan/,4.154988335179169,-1.9344434573593292,5.837962018493524,2.5601732665390147,-1.696075288489141,-7.904922625854801e-17,0.0,-7.968181815139334e-17,8.934337736883246e-17,0.0
https://www.justonecookbook.com/basque-burnt-cheesecake/,0.35307224232995565,-1.3786846451523624,-0.5687803657835842,0.08787163670454155,0.08480277407590248,2.1444377186211403,2.218253514520711,2.1728151915318006,2.637402779740576,2.24826216875528
https://www.justonecookbook.com/orange-chiffon-cake/,0.6590323688624696,-1.9571963628055786,-0.3267539738357764,-0.07570522390983572,0.47037195326376047,-7.904922625854801e-17,0.0,-7.968181815139334e-17,8.934337736883246e-17,0.0
https://www.justonecookbook.com/warabi-mochi/,-1.9920199107436658,-0.48324663138655555,0.7479130792702865,1.212977600490892,-0.5541820207626758,-7.904922625854801e-17,0.0,-7.968181815139334e-17,8.934337736883246e-17,0.0
https://www.justonecookbook.com/pineapple-upside-down-cake/,0.5016149479275105,-1.8838901633238694,-2.741609468763285,1.3030070701323389,0.0601503135033921,-7.904922625854801e-17,0.0,-7.968181815139334e-17,8.934337736883246e-17,0.0
https://www.justonecookbook.com/green-tea-madeleine/,1.7780534797835705,-2.074162093925291,2.1381708386962797,1.7224703337919618,-0.9995102862557084,-7.904922625854801e-17,0.0,-7.968181815139334e-17,8.934337736883246e-17,0.0
https://www.justonecookbook.com/yuzu-sorbet/,3.3729232369972753,3.318186702379108,0.6343147089510153,5.442278540906974,4.470740607166151,-7.904922625854801e-17,0.0,-7.968181815139334e-17,8.934337736883246e-17,0.0
https://www.justonecookbook.com/matcha-zenzai/,3.498736940826951,-1.1020862458358516,3.168342460464533,-1.0945129065732093,-2.6916549477453744,-7.904922625854801e-17,0.0,-7.968181815139334e-17,8.934337736883246e-17,0.0
https://www.justonecookbook.com/frozen-chocolate-banana/,0.4236010822096036,-1.5516659630964922,0.363595312073253,-0.1089877602505326,0.6078713505290315,-7.904922625854801e-17,0.0,-7.968181815139334e-17,8.934337736883246e-17,0.0
https://www.justonecookbook.com/custard-cream-pastry-cream/,1.4631631967990715,-2.628427338856763,-3.5288670204883386,1.0913804902297632,-0.54958404455256,-7.904922625854801e-17,0.0,-7.968181815139334e-17,8.934337736883246e-17,0.0
https://www.justonecookbook.com/chocolate-cake-guest-post-by-gourmantines-blog/,-0.6340822426725164,-1.3103600973104246,-0.45739515425199634,0.8647686330614023,-0.11041388167980057,-7.904922625854801e-17,0.0,-7.968181815139334e-17,8.934337736883246e-17,0.0
https://www.justonecookbook.com/blueberry-cake/,0.6027308486674715,-2.092515365335956,-2.9411452514759047,1.5304717881647283,0.031122955076079456,-7.904922625854801e-17,0.0,-7.968181815139334e-17,8.934337736883246e-17,0.0
https://www.justonecookbook.com/chocolate-ice-cream/,1.3599844660375915,-2.88907390246592,-3.431421361194929,1.6491072501422261,-0.06623193319572802,-7.904922625854801e-17,0.0,-7.968181815139334e-17,8.934337736883246e-17,0.0
https://www.justonecookbook.com/coconut-macaroons/,-0.26962902549096146,-1.392145085316888,-0.7262685015351887,0.8494892892874063,-0.13764652300199956,-7.904922625854801e-17,0.0,-7.968181815139334e-17,8.934337736883246e-17,0.0
https://www.justonecookbook.com/shiratama-dango/,0.9440440241242325,-0.37779126457025247,-0.1790651428058223,-1.9180120691414646,-2.5768710340476764,-7.904922625854801e-17,0.0,-7.968181815139334e-17,8.934337736883246e-17,0.0
https://www.justonecookbook.com/green-tea-white-chocolate-cookies/,2.051095783306492,-2.5314535028694345,-1.0250932801488595,1.9115405379862527,-0.4137128096162911,-7.904922625854801e-17,0.0,-7.968181815139334e-17,8.934337736883246e-17,0.0
https://www.justonecookbook.com/yuzu-ice-cream/,1.2130135462962066,-2.679429327009811,-3.4962377662133437,1.727491778797525,-0.04096509895934974,-7.904922625854801e-17,0.0,-7.968181815139334e-17,8.934337736883246e-17,0.0
https://www.justonecookbook.com/coffee-ice-cream/,1.1231012290383988,-2.3454084406650795,-2.851725770738519,1.1287120302675278,-0.22621632468184963,-7.904922625854801e-17,0.0,-7.968181815139334e-17,8.934337736883246e-17,0.0
https://www.justonecookbook.com/strawberry-cheesecake-ice-cream/,1.50434687598716,-2.601078293891198,-3.530757489084554,1.3563893686209,0.6199255648134914,-7.904922625854801e-17,0.0,-7.968181815139334e-17,8.934337736883246e-17,0.0
https://www.justonecookbook.com/chocolate-chiffon-cake/,0.42402496963217196,-2.1187680040387287,-0.34139337078964493,0.24817893765848537,0.1404431873344718,-7.904922625854801e-17,0.0,-7.968181815139334e-17,8.934337736883246e-17,0.0
https://www.justonecookbook.com/panettone-bread-pudding/,0.42035309873067994,-1.7838935079235472,-0.3261680169465334,0.29657047772495976,1.4005914883350898,-0.7036108087542426,-0.6822094947945709,2.1728151915318006,-0.5815316284697883,2.24826216875528
https://www.justonecookbook.com/castella/,-0.3258498103575876,-1.5635831616499605,-1.0088917272801416,0.35516339482223264,-0.4489891070955535,-7.904922625854801e-17,0.0,-7.968181815139334e-17,8.934337736883246e-17,0.0
https://www.justonecookbook.com/chocolate-chip-cookies-with-nutella-recipe/,1.1898840754574866,-2.2635933540226585,-3.0961228803818117,1.1907678826031844,0.03313927948074592,-7.904922625854801e-17,0.0,-7.968181815139334e-17,8.934337736883246e-17,0.0
https://www.justonecookbook.com/sweet-potato-pie/,1.5298443059686118,-1.9564611544665245,-3.7988346456111013,0.7042751997247485,-0.34953917858938904,-7.904922625854801e-17,0.0,-7.968181815139334e-17,8.934337736883246e-17,0.0
https://www.justonecookbook.com/cherry-blossom-madeleines/,-0.26163354919240206,-1.2122319525065832,-0.6916104777264994,0.6182229764416661,0.11534331668988589,-7.904922625854801e-17,0.0,-7.968181815139334e-17,8.934337736883246e-17,0.0
https://www.justonecookbook.com/kashiwa-mochi/,0.8821366076131965,-0.11723886981326931,0.15993940795721706,-2.8201836428657714,-1.478400302641306,-7.904922625854801e-17,0.0,-7.968181815139334e-17,8.934337736883246e-17,0.0
https://www.justonecookbook.com/meyer-lemon-cookies/,1.0258268893196272,-2.398464826139665,-0.38127129635635737,-0.08127781630643537,0.4590368944772117,-7.904922625854801e-17,0.0,-7.968181815139334e-17,8.934337736883246e-17,0.0
https://www.justonecookbook.com/nama-chocolate/,0.4938325783565105,-2.2840326829643405,0.46070812950838913,0.46673248910133297,0.7543255987886462,-7.904922625854801e-17,0.0,-7.968181815139334e-17,8.934337736883246e-17,0.0
https://www.justonecookbook.com/cherry-blossom-cookies/,1.6578835962178229,-2.491626176826876,-3.49136189543427,0.9065866906398953,0.1357291719302262,-7.904922625854801e-17,0.0,-7.968181815139334e-17,8.934337736883246e-17,0.0
https://www.justonecookbook.com/matcha-tiramisu/,3.6107831309619915,-2.887454636415327,0.011532319790363801,2.9518963713830924,-1.1625217768729479,-7.904922625854801e-17,0.0,-7.968181815139334e-17,8.934337736883246e-17,0.0
https://www.justonecookbook.com/souffle-japanese-cheesecake/,0.26953469819573017,-1.6290821321764153,-0.6611109841418165,0.46628878689444064,0.31992587435915226,-7.904922625854801e-17,0.0,-7.968181815139334e-17,8.934337736883246e-17,0.0
https://www.justonecookbook.com/matcha-vegan-panna-cotta/,3.369766722109615,-1.1982511266349605,3.7689167607844465,-0.2414120104477394,-1.6290925675707018,-7.904922625854801e-17,0.0,-7.968181815139334e-17,8.934337736883246e-17,0.0
https://www.justonecookbook.com/peanut-butter-chocolate-chip-cookies/,0.2857325457272796,-1.7329432210890554,-1.313036721244533,0.30399743822977593,-0.2669386624167016,-7.904922625854801e-17,0.0,-7.968181815139334e-17,8.934337736883246e-17,0.0
https://www.justonecookbook.com/tofu-pudding-blancmange/,1.68300406871092,-0.9102683880532149,0.7296447133240263,-0.18964866387029283,2.0672023761257186,-7.904922625854801e-17,0.0,-7.968181815139334e-17,8.934337736883246e-17,0.0
https://www.justonecookbook.com/mitarashi-dango/,0.704327891559793,-0.18340677232256966,-0.28648963149321277,-0.7776970066092879,-1.654090723217685,-7.904922625854801e-17,0.0,-7.968181815139334e-17,8.934337736883246e-17,0.0
https://www.justonecookbook.com/daifuku/,1.3481251044737748,-0.1611424504946678,-0.06090441421030032,-3.09368089016261,-2.043076402428923,-7.904922625854801e-17,0.0,-7.968181815139334e-17,8.934337736883246e-17,0.0
https://www.justonecookbook.com/tart-crust/,-0.6045637258694454,-1.1898239110715365,-0.9440803602971449,0.9969231120408215,-0.2809086620618927,-7.904922625854801e-17,0.0,-7.968181815139334e-17,8.934337736883246e-17,0.0
https://www.justonecookbook.com/pear-almond-tart/,0.15029263026397796,-1.6019004149502916,-0.38042470173807863,0.3821310074766969,0.7371463887082602,-7.904922625854801e-17,0.0,-7.968181815139334e-17,8.934337736883246e-17,0.0
https://www.justonecookbook.com/sakura-mochi/,2.1541501686806397,0.4013963982216612,0.43958885439778084,-4.245412073252645,-2.8032817584337644,-7.904922625854801e-17,0.0,-7.968181815139334e-17,8.934337736883246e-17,0.0
https://www.justonecookbook.com/miso-butter-cookies/,0.22411762808043867,-0.5665806704316018,-0.833159572321635,1.059024770398859,-0.42397561241350534,-7.904922625854801e-17,0.0,-7.968181815139334e-17,8.934337736883246e-17,0.0
https://www.justonecookbook.com/green-tea-donuts/,1.8198105963620517,-1.9624001851335713,1.892470665807218,1.7296460107317975,-1.1542078913814726,-7.904922625854801e-17,0.0,-7.968181815139334e-17,8.934337736883246e-17,0.0
https://www.justonecookbook.com/lavender-madeleines-guest-post-by-roti-n-rice/,-0.24832051203234448,-1.589193414507243,-0.35954193371757137,0.5745550743985587,0.22407383688939853,-7.904922625854801e-17,0.0,-7.968181815139334e-17,8.934337736883246e-17,0.0
https://www.justonecookbook.com/purin-dora/,0.8416843701338746,-2.2823897459504368,-2.082761707162343,1.144225644320593,0.058143392785840416,-7.904922625854801e-17,0.0,-7.968181815139334e-17,8.934337736883246e-17,0.0
https://www.justonecookbook.com/twinkie-minions/,0.7090099695910479,-2.539346877394722,0.8506689313161625,-0.19777429838274976,0.2982058026176934,-7.904922625854801e-17,0.0,-7.968181815139334e-17,8.934337736883246e-17,0.0
https://www.justonecookbook.com/zenzai-red-bean-soup/,0.6286751757035506,0.046340402688658563,0.6196720900659285,-2.685187592582942,-1.4084401667962088,-7.904922625854801e-17,0.0,-7.968181815139334e-17,8.934337736883246e-17,0.0
https://www.justonecookbook.com/chocolate-souffle/,0.32251532983895775,-2.1540965885084415,-0.9238502146920367,0.619221727663945,-0.05240440249920592,-7.904922625854801e-17,0.0,-7.968181815139334e-17,8.934337736883246e-17,0.0
https://www.justonecookbook.com/fruit-jelly/,-1.1735170530887948,-0.6654593012925711,0.5939480296015044,0.7847713051060737,0.19597911264634774,-7.904922625854801e-17,0.0,-7.968181815139334e-17,8.934337736883246e-17,0.0
https://www.justonecookbook.com/meyer-lemon-chiffon-cake/,0.5069841522998456,-1.9528155213588516,-0.4856657673423345,0.16142588431493382,0.4267228963085867,-7.904922625854801e-17,0.0,-7.968181815139334e-17,8.934337736883246e-17,0.0
https://www.justonecookbook.com/lychee-coconut-sorbet/,0.29002538435623526,-0.3153234246800327,0.9273060734809961,-0.4701975919371216,2.900522057566375,-7.904922625854801e-17,0.0,-7.968181815139334e-17,8.934337736883246e-17,0.0
https://www.justonecookbook.com/chocolate-covered-strawberries/,0.5862493268344094,-1.78461574038625,0.5683434324939063,-0.13470775889770506,0.9972535680448542,-7.904922625854801e-17,0.0,-7.968181815139334e-17,8.934337736883246e-17,0.0
https://www.justonecookbook.com/white-bean-paste-shiroan/,-0.8503729671381991,-0.17303448205838304,0.5337452509006109,-0.43319376730523984,-1.0599258517278274,-7.904922625854801e-17,0.0,-7.968181815139334e-17,8.934337736883246e-17,0.0
https://www.justonecookbook.com/green-tea-chiffon-cake/,2.992503729979857,-2.638202351676478,-0.006924582365842663,2.2496145757902912,-1.050421593200273,-7.904922625854801e-17,0.0,-7.968181815139334e-17,8.934337736883246e-17,0.0
https://www.justonecookbook.com/matcha-marble-pound-cake/,1.8278760896103001,-1.8887865872031846,2.317109991989097,1.9303006940048162,-1.3702405155427364,-7.904922625854801e-17,0.0,-7.968181815139334e-17,8.934337736883246e-17,0.0
https://www.justonecookbook.com/matcha-swiss-roll/,2.488623007709811,-2.4495310998633775,2.49166186843023,1.9500722796308116,-1.4515708829635798,-7.904922625854801e-17,0.0,-7.968181815139334e-17,8.934337736883246e-17,0.0
https://www.justonecookbook.com/easy-apple-tart/,1.9190734362656379,-2.6291863633004606,-3.9520765052268167,0.9376826527153109,0.36276280346048545,-7.904922625854801e-17,0.0,-7.968181815139334e-17,8.934337736883246e-17,0.0
https://www.justonecookbook.com/nougat-and-glace-with-orange-caramel-guest-post-by-mad-about-macarons/,0.07971624970188901,-1.4333262882885742,-1.123357762023073,0.22962186053035197,0.6654331276283342,-7.904922625854801e-17,0.0,-7.968181815139334e-17,8.934337736883246e-17,0.0
https://www.justonecookbook.com/black-sesame-ice-cream/,0.8983149265020702,-1.7985027460310448,-2.1337858452561065,0.9260471903021935,0.3823379961046715,-7.904922625854801e-17,0.0,-7.968181815139334e-17,8.934337736883246e-17,0.0
https://www.justonecookbook.com/mochi-ice-cream/,0.6780631422418797,-0.5674825353269474,-0.3003718165708774,-1.5280093701280257,-1.753262719826682,-7.904922625854801e-17,0.0,-7.968181815139334e-17,8.934337736883246e-17,0.0
https://www.justonecookbook.com/blueberry-frozen-yogurt/,0.2439631323781646,-1.3320075014874027,0.3759504735813061,0.7358102338663842,1.0867468730292515,-7.904922625854801e-17,0.0,-7.968181815139334e-17,8.934337736883246e-17,0.0
https://www.justonecookbook.com/mango-lassi-popsicles/,1.3525460916890142,-2.005045386816789,0.1492869949154003,0.44413693121309616,1.9222673819164533,-7.904922625854801e-17,0.0,-7.968181815139334e-17,8.934337736883246e-17,0.0
https://www.justonecookbook.com/ohagi-botamochi/,1.0149485510140244,0.2252529872750182,0.46792388653998046,-2.65986412170352,-1.8414154825940137,-7.904922625854801e-17,0.0,-7.968181815139334e-17,8.934337736883246e-17,0.0
https://www.justonecookbook.com/almond-cookies/,1.5157382853814765,-2.2741256306293596,-3.3788925779128607,0.9905032500318053,0.2226875332847036,-7.904922625854801e-17,0.0,-7.968181815139334e-17,8.934337736883246e-17,0.0
https://www.justonecookbook.com/imagawayaki-obanyaki/,0.7274824124048095,-1.1331990522125261,-0.14116218402071967,-1.2199412554460323,-0.557600348665095,-7.904922625854801e-17,0.0,-7.968181815139334e-17,8.934337736883246e-17,0.0
https://www.justonecookbook.com/kabocha-squash-pie/,1.0015897311999662,-2.103668860708067,-3.3986110671360823,1.0462648550025389,-0.18404164170382792,-7.904922625854801e-17,0.0,-7.968181815139334e-17,8.934337736883246e-17,0.0
https://www.justonecookbook.com/strawberry-daifuku/,1.2849367771971625,-0.2231954661905853,-0.036124245359106376,-2.8778209133913517,-1.7759779961278634,-7.904922625854801e-17,0.0,-7.968181815139334e-17,8.934337736883246e-17,0.0
https://www.justonecookbook.com/no-bake-creme-caramel/,1.3777855341867213,-2.778221013508239,-3.0542007746656394,1.677690146810202,-0.04987071188428424,-7.904922625854801e-17,0.0,-7.968181815139334e-17,8.934337736883246e-17,0.0
https://www.justonecookbook.com/strawberry-frozen-yogurt/,-0.15365678334645455,-0.9903272150834906,0.4162385492176289,0.7520510883130129,1.1506905276014905,-7.904922625854801e-17,0.0,-7.968181815139334e-17,8.934337736883246e-17,0.0
https://www.justonecookbook.com/meyer-lemon-pound-cake/,0.4832661561918118,-1.6051469092171973,-0.4048840578766945,0.5582753501994775,1.626797450239156,-7.904922625854801e-17,0.0,-7.968181815139334e-17,8.934337736883246e-17,0.0
https://www.justonecookbook.com/green-tea-mochi/,3.0110269784430437,-1.1305839559120048,3.0356785966272795,0.26127149591750093,-2.867356227201128,-7.904922625854801e-17,0.0,-7.968181815139334e-17,8.934337736883246e-17,0.0
https://www.justonecookbook.com/soy-sauce-caramel-ice-cream/,0.7322667349479158,-2.2960435446442373,-2.5200114836190304,1.554601442745702,0.12426472917112909,-7.904922625854801e-17,0.0,-7.968181815139334e-17,8.934337736883246e-17,0.0
https://www.justonecookbook.com/tsukimi-dango/,-2.007063701946324,-0.4459651770631494,0.7984849061864733,1.2830918259168966,-0.5985276016246548,-7.904922625854801e-17,0.0,-7.968181815139334e-17,8.934337736883246e-17,0.0
https://www.justonecookbook.com/japanese-strawberry-shortcake/,0.22583208820897807,-1.5995088110479583,-0.10260803458872539,0.35447133614006576,0.551584176556747,-7.904922625854801e-17,0.0,-7.968181815139334e-17,8.934337736883246e-17,0.0
https://www.justonecookbook.com/green-tea-pudding/,3.133827785530122,-1.4995869155962962,3.5041863331132608,-0.06459190261252234,-2.0098645128314505,-7.904922625854801e-17,0.0,-7.968181815139334e-17,8.934337736883246e-17,0.0
https://www.justonecookbook.com/coffee-jelly/,-1.9920199107436658,-0.48324663138655555,0.7479130792702865,1.212977600490892,-0.5541820207626758,-7.904922625854801e-17,0.0,-7.968181815139334e-17,8.934337736883246e-17,0.0
https://www.justonecookbook.com/red-bean-ice-cream/,0.8404889702993981,-0.8027735281875573,0.41645901645488426,-1.7596360244786255,-0.7098996821284477,-7.904922625854801e-17,0.0,-7.968181815139334e-17,8.934337736883246e-17,0.0
https://www.justonecookbook.com/chocolate-almond-toffee/,-0.3223096038030451,-1.043247882059877,0.049517527425643554,0.2563083607529547,0.8274448009855895,-7.904922625854801e-17,0.0,-7.968181815139334e-17,8.934337736883246e-17,0.0
https://www.justonecookbook.com/pon-de-ring-donut-recipe/,0.8264288969256481,-1.8305723220826207,0.9915163230311199,1.227579689171941,-0.6225963248336178,-7.904922625854801e-17,0.0,-7.968181815139334e-17,8.934337736883246e-17,0.0
https://www.justonecookbook.com/green-tea-ice-cream-matcha-ice-cream/,4.130270035700175,-1.8527896728001068,6.9161664101727744,3.78775225814848,-2.7030390780848315,-7.904922625854801e-17,0.0,-7.968181815139334e-17,8.934337736883246e-17,0.0
https://www.justonecookbook.com/japanese-sweet-potato/,1.9627022381066441,-2.6402539975876156,-5.244138544540298,1.7200381996093383,0.13848858679545378,-7.904922625854801e-17,0.0,-7.968181815139334e-17,8.934337736883246e-17,0.0
https://www.justonecookbook.com/earl-grey-chiffon-cake/,1.0160243329930914,-2.0009546358793813,1.0923298127922112,0.44447289842308196,-0.9040397911650876,-7.904922625854801e-17,0.0,-7.968181815139334e-17,8.934337736883246e-17,0.0
https://www.justonecookbook.com/green-tea-chocolate/,3.737813905134694,-2.3303988448744533,5.029602387667373,2.8454934202469824,-1.607676205617538,-7.904922625854801e-17,0.0,-7.968181815139334e-17,8.934337736883246e-17,0.0
https://www.justonecookbook.com/instant-pot-kabocha-flan/,-0.16850896241234578,-1.765460128579457,-0.18515524009256362,0.6700686074269239,-0.1523624606369432,-7.904922625854801e-17,0.0,-7.968181815139334e-17,8.934337736883246e-17,0.0
https://www.justonecookbook.com/flambeed-pear-purses-with-caramel-sauce-and-ganache-guest-post-by-five-euro-food/,-0.49136107766778014,-1.3414766741558497,0.04400169933601849,0.8936961670643663,0.40331191817900747,-7.904922625854801e-17,0.0,-7.968181815139334e-17,8.934337736883246e-17,0.0
