url,0,1,2,3,4,high_carb,high_protein,high_fat,high_sodium,high_sugar
https://mykoreankitchen.com/spicy-mayo-recipe/,0.7708680695549729,-1.2148342702782458,1.1914577797538606,1.5988670790829385,-1.065830417847622,-0.5863019699779287,-0.3202563076101742,-0.3202563076101742,-0.4026936331284145,-0.4780914437337574
https://mykoreankitchen.com/strawberry-milk/,0.18654565938804968,-1.0149257892321781,1.4827838702472511,1.0568024263938307,-0.0031801909249552693,1.7056057308448835,-0.3202563076101742,-0.3202563076101742,-0.4026936331284145,2.0916500663351885
https://mykoreankitchen.com/dakgangjeong-soy-garlic-fried-chicken/,0.6958962697559843,2.3103917740449775,0.4855373579557166,0.6939254079047231,-2.872898585839776,1.7056057308448835,3.1224989991991987,-0.3202563076101742,2.4832774042918895,2.0916500663351885
https://mykoreankitchen.com/chili-oil-recipe/,-0.13739785806313992,-0.47656751477100434,1.1624068515111021,0.8229206572639594,-0.2621582531546038,1.7056057308448835,-0.3202563076101742,3.1224989991991987,2.4832774042918895,2.0916500663351885
https://mykoreankitchen.com/dalgona-coffee-whipped-coffee/,0.37572464131944694,-0.8039089670476688,2.0007413435162635,1.6044490176007826,0.202503249686528,-0.5863019699779287,-0.3202563076101742,-0.3202563076101742,-0.4026936331284145,2.0916500663351885
https://mykoreankitchen.com/omelet-rice-omurice/,0.41450603747856835,0.828212894654618,1.3658732072346047,0.5374335385130412,0.09894818777778806,1.7056057308448835,3.1224989991991987,3.1224989991991987,2.4832774042918895,2.0916500663351885
https://mykoreankitchen.com/tuna-pancakes-chamchijeon/,0.7632722159373254,1.4110518067037896,0.5996287623669659,1.9699302901085878,-1.8388876457323655,-0.5863019699779287,-0.3202563076101742,-0.3202563076101742,-0.4026936331284145,-0.4780914437337574
https://mykoreankitchen.com/pan-fried-zucchini/,0.7481630639581568,-1.0472817682301874,0.9720847180842371,1.7059783290920683,-0.5912015955994628,-0.5863019699779287,-0.3202563076101742,-0.3202563076101742,-0.4026936331284145,-0.4780914437337574
https://mykoreankitchen.com/slow-cooker-short-ribs/,0.367303397206232,2.2399835916194673,1.2461545527515798,0.6212372549313295,-1.278307182785071,1.7056057308448835,-0.3202563076101742,-0.3202563076101742,2.4832774042918895,2.0916500663351885
https://mykoreankitchen.com/korean-ground-beef-rice-bowls/,0.36196085383070725,2.712530879794722,1.1342481283760377,1.3079718887540837,-2.4988353567363215,-0.5863019699779287,-0.3202563076101742,3.1224989991991987,-0.4026936331284145,2.0916500663351885
https://mykoreankitchen.com/doenjang-jjigae/,0.10410644546739468,0.23829936696088405,1.4705943900464105,1.178213839078095,-2.6906227116869927,-0.5863019699779287,-0.3202563076101742,-0.3202563076101742,-0.4026936331284145,-0.4780914437337574
https://mykoreankitchen.com/spicy-sweet-and-vinegary-noodles-bibim-guksu/,0.4623010494396741,1.7699627706369603,1.2052961588790376,1.0221657679115153,-0.9143067340829072,1.7056057308448835,-0.3202563076101742,-0.3202563076101742,2.4832774042918895,2.0916500663351885
https://mykoreankitchen.com/galbitang-beef-short-rib-soup/,0.6942404641850503,0.7408373273354714,0.9195869076669866,0.33148002334041726,-1.1802495968903197,-0.5863019699779287,3.1224989991991987,-0.3202563076101742,2.4832774042918895,-0.4780914437337574
https://mykoreankitchen.com/nuclear-fire-noodle-fries/,0.3362743000462551,0.0022701800494819633,1.722109099506971,0.8520379659935202,-0.5305763658313739,1.7056057308448835,-0.3202563076101742,3.1224989991991987,2.4832774042918895,-0.4780914437337574
https://mykoreankitchen.com/kimchi-jjim-braised-kimchi/,0.10278466734369601,1.378689798368814,1.1576753864194567,1.418446114445254,-1.4708432041499768,-0.5863019699779287,-0.3202563076101742,-0.3202563076101742,-0.4026936331284145,-0.4780914437337574
https://mykoreankitchen.com/air-fryer-chicken-wings/,0.7220635266302645,2.4117070190812555,0.44966939230111175,0.9259958353573825,-2.2453819244125435,-0.5863019699779287,-0.3202563076101742,-0.3202563076101742,2.4832774042918895,2.0916500663351885
https://mykoreankitchen.com/pickled-radishes/,0.8468615798943083,-0.958594077222684,1.333946290047623,1.623587777421964,-0.6104434477410496,-0.5863019699779287,-0.3202563076101742,-0.3202563076101742,-0.4026936331284145,-0.4780914437337574
https://mykoreankitchen.com/air-fryer-chickpeas/,0.590812035766798,0.033526715652072984,0.1045314884279975,1.3458779046149059,-0.12282882342787724,-0.5863019699779287,-0.3202563076101742,-0.3202563076101742,-0.4026936331284145,-0.4780914437337574
https://mykoreankitchen.com/bean-sprout-rice-kongnamul-bap/,0.5974470754605482,2.5330975194750907,2.1001897902363837,-0.7276649163986764,-1.9408580950662795,1.7056057308448835,-0.3202563076101742,-0.3202563076101742,2.4832774042918895,-0.4780914437337574
https://mykoreankitchen.com/gochujang-chicken/,0.05818564635407663,1.0998619555029832,0.6492520491786009,1.7244593766489396,-1.708265891290571,1.7056057308448835,3.1224989991991987,-0.3202563076101742,2.4832774042918895,2.0916500663351885
https://mykoreankitchen.com/korean-style-tuna-cakes/,0.9621046227392882,1.2616298048836259,0.689055586230168,2.154469763797425,-1.9303150377654517,-0.5863019699779287,-0.3202563076101742,-0.3202563076101742,-0.4026936331284145,-0.4780914437337574
https://www.justonecookbook.com/namasu-daikon-and-carrot-salad/,4.415353464789722,-1.0076914794224745,0.17734030754146,1.1574448159186044,-0.8326732247278251,-0.5863019699779287,-0.3202563076101742,-0.3202563076101742,-0.4026936331284145,-0.4780914437337574
https://www.justonecookbook.com/instant-pot-kuromame/,4.246118466883764,-0.6244083395376493,-0.23192731839802364,0.17152363549765817,0.4484729745003031,-0.5863019699779287,-0.3202563076101742,-0.3202563076101742,-0.4026936331284145,2.0916500663351885
https://www.justonecookbook.com/tai-meshi-with-leftover-baked-sea-bream/,4.860494934104475,-0.13382705094971137,0.9826853487192071,-2.945436637418673,0.6075227714174681,1.7056057308448835,-0.3202563076101742,-0.3202563076101742,-0.4026936331284145,-0.4780914437337574
https://omnivorescookbook.com/fried-cabbage/,-0.27707434031526196,-0.522660073754935,-0.8041986269420763,-0.49540583646253356,1.1086054799631824,-0.5863019699779287,-0.3202563076101742,-0.3202563076101742,-0.4026936331284145,-0.4780914437337574
https://omnivorescookbook.com/recipes/teriyaki-king-oyster-mushroom/,0.10555035538557579,0.9007825801560625,0.1726879264322961,-0.7189398426901068,0.7195317859973261,-0.5863019699779287,-0.3202563076101742,-0.3202563076101742,-0.4026936331284145,-0.4780914437337574
https://omnivorescookbook.com/grilled-eggplant-with-yu-xiang-sauce/,-0.829461569491157,0.10952697890226926,-1.7291295079131623,-0.6280557037234562,0.533020438718853,-0.5863019699779287,-0.3202563076101742,-0.3202563076101742,-0.4026936331284145,2.0916500663351885
https://omnivorescookbook.com/winter-melon-stir-fry/,-0.8238664695573967,-1.0366002655139208,-1.0034898236365966,-0.29035624334928845,-0.022815826400379303,-0.5863019699779287,-0.3202563076101742,-0.3202563076101742,-0.4026936331284145,2.0916500663351885
https://omnivorescookbook.com/dou-fu-nao/,-0.6409678888896582,0.30246672496294386,-0.27514868421704275,-0.2563691906941667,0.6833860708574222,-0.5863019699779287,3.1224989991991987,-0.3202563076101742,-0.4026936331284145,-0.4780914437337574
https://omnivorescookbook.com/vegetable-fried-rice/,-0.9525901094286988,0.24848946775842753,-1.6364584701860803,-1.8048274062274063,0.4780494178743907,1.7056057308448835,-0.3202563076101742,-0.3202563076101742,-0.4026936331284145,-0.4780914437337574
https://omnivorescookbook.com/instant-pot-chinese-sausage-rice/,0.0783230415400097,0.2055309184739579,0.9520217115424657,-1.8400473905606936,0.4590848308289373,1.7056057308448835,-0.3202563076101742,-0.3202563076101742,-0.4026936331284145,-0.4780914437337574
https://omnivorescookbook.com/recipes/chinese-spinach-and-peanut-salad/,-0.417694314546454,0.22435821322484575,-1.2019963511860594,-0.6664637983491399,0.761457607382575,-0.5863019699779287,-0.3202563076101742,-0.3202563076101742,-0.4026936331284145,-0.4780914437337574
https://omnivorescookbook.com/cabbage-glass-noodles-stir-fry/,-0.7774196466791758,-0.26113928111910795,-1.4992006168307883,-1.1099777477398545,1.194006210360984,-0.5863019699779287,-0.3202563076101742,-0.3202563076101742,-0.4026936331284145,-0.4780914437337574
https://omnivorescookbook.com/restaurant-style-mashed-potatoes/,0.652350976424112,-1.567040373254093,0.9289237546010504,1.0211180278330667,-0.24310905231191662,1.7056057308448835,-0.3202563076101742,3.1224989991991987,-0.4026936331284145,-0.4780914437337574
https://omnivorescookbook.com/baby-bok-choy-stir-fry/,-0.44924289454438954,0.3792721056954269,-0.950219515445627,-0.7779166131330603,1.0483242775215724,-0.5863019699779287,-0.3202563076101742,-0.3202563076101742,-0.4026936331284145,-0.4780914437337574
https://omnivorescookbook.com/steamed-eggplant/,-0.34570612131486833,1.2932832287783924,-0.5944961244724636,-0.6970457873991366,-0.32036167915546326,-0.5863019699779287,-0.3202563076101742,-0.3202563076101742,-0.4026936331284145,-0.4780914437337574
https://omnivorescookbook.com/kimchi-fried-rice/,-0.3218392850437339,0.6160461979206862,0.3700825624555289,-0.372175749095118,0.4651034600238987,1.7056057308448835,-0.3202563076101742,-0.3202563076101742,-0.4026936331284145,-0.4780914437337574
https://omnivorescookbook.com/bean-sprout-stir-fry/,-0.5590363967404117,0.7900921929830644,-1.2967631178095393,-0.739449907503007,0.09116758710456957,-0.5863019699779287,-0.3202563076101742,-0.3202563076101742,-0.4026936331284145,-0.4780914437337574
https://omnivorescookbook.com/chinese-soy-sauce-eggs/,0.07801403794180216,0.2646501769760274,1.1558049984479366,0.18206853836265757,0.3744687367431173,-0.5863019699779287,-0.3202563076101742,-0.3202563076101742,-0.4026936331284145,-0.4780914437337574
https://omnivorescookbook.com/tofu-fried-rice/,-0.7528577427152561,0.195598561590286,-0.7876245829727194,-1.158728183909814,0.7867982855654435,1.7056057308448835,-0.3202563076101742,-0.3202563076101742,-0.4026936331284145,-0.4780914437337574
https://omnivorescookbook.com/recipes/stir-fried-bok-choy-with-crispy-tofu/,-0.5116859894612564,-0.05960325542368391,-0.3892268826460642,-0.0197341412672433,1.4142338639863328,-0.5863019699779287,-0.3202563076101742,-0.3202563076101742,2.4832774042918895,-0.4780914437337574
https://omnivorescookbook.com/vegetables-egg-and-ham-fried-rice/,-0.47397581659638266,-0.031570618263350815,-0.2052840575180215,-1.366772974946051,1.1762539256250704,1.7056057308448835,-0.3202563076101742,-0.3202563076101742,2.4832774042918895,-0.4780914437337574
https://omnivorescookbook.com/szechuan-dry-fried-green-beans/,-0.5055994923326195,0.06927390210817855,-0.8032776549791784,0.17986943700838143,0.13768486675954456,-0.5863019699779287,3.1224989991991987,3.1224989991991987,-0.4026936331284145,-0.4780914437337574
https://omnivorescookbook.com/pork-fried-rice/,-0.7558477550042032,0.6804028786656071,-0.8119125722290642,-1.469068653535509,0.8539969051766486,1.7056057308448835,3.1224989991991987,-0.3202563076101742,-0.4026936331284145,-0.4780914437337574
https://omnivorescookbook.com/potato-brussels-sprouts-salad/,-0.6847212227200881,-0.944999140485776,-0.45015689874473713,0.19267023068562994,-1.401002268852458,-0.5863019699779287,-0.3202563076101742,3.1224989991991987,-0.4026936331284145,-0.4780914437337574
https://omnivorescookbook.com/napa-cabbage-stir-fry-vinegar-sauce/,-0.5189132605404909,0.36190476350882195,-0.8940239655840716,-0.07984930279013427,0.5444551600145688,-0.5863019699779287,-0.3202563076101742,-0.3202563076101742,-0.4026936331284145,-0.4780914437337574
https://omnivorescookbook.com/milk-bread-rolls/,0.3315855415722899,-1.338343829533146,1.0724177471763283,1.4718827761331332,0.1696411040011325,-0.5863019699779287,-0.3202563076101742,-0.3202563076101742,-0.4026936331284145,2.0916500663351885
https://omnivorescookbook.com/stir-fried-water-spinach/,-0.754545527621674,-0.9000166857312852,-0.8567313090880851,-0.2437474017831679,0.09463746400254068,-0.5863019699779287,-0.3202563076101742,-0.3202563076101742,-0.4026936331284145,-0.4780914437337574
https://omnivorescookbook.com/recipes/classic-tomato-and-egg-stir-fry/,-0.6897516660942432,-0.9047076082880581,-1.095007764446907,-0.7543926554253793,0.3744405494429675,-0.5863019699779287,-0.3202563076101742,-0.3202563076101742,-0.4026936331284145,-0.4780914437337574
https://omnivorescookbook.com/recipes/green-beans-with-spicy-peanut-sauce/,-0.7674313754168288,1.0100580520835567,-1.1779484277166001,-1.6751244322449004,0.20338026084712205,-0.5863019699779287,-0.3202563076101742,-0.3202563076101742,-0.4026936331284145,-0.4780914437337574
https://omnivorescookbook.com/silkie-chicken-soup/,0.10917759347931685,-1.1757820092696052,1.7168170529661086,0.5699504728299991,0.14705712701101964,-0.5863019699779287,-0.3202563076101742,-0.3202563076101742,-0.4026936331284145,-0.4780914437337574
https://omnivorescookbook.com/sticky-rice-stuffing/,0.0783230415400097,0.2055309184739579,0.9520217115424657,-1.8400473905606936,0.4590848308289373,1.7056057308448835,-0.3202563076101742,-0.3202563076101742,-0.4026936331284145,-0.4780914437337574
https://omnivorescookbook.com/shen-jian-bao/,-0.2408792468522473,1.3576811512981903,-0.6725742306098329,-0.19626506287926815,-0.6694165659063062,-0.5863019699779287,-0.3202563076101742,-0.3202563076101742,-0.4026936331284145,-0.4780914437337574
https://omnivorescookbook.com/recipes/chinese-broccoli-with-oyster-sauce/,-0.7710209466023409,-0.8593374083272084,-0.7269625871848017,-0.09084996018951585,0.8264798405538103,-0.5863019699779287,-0.3202563076101742,-0.3202563076101742,-0.4026936331284145,-0.4780914437337574
https://omnivorescookbook.com/chinese-napa-cabbage-with-glass-noodles/,-0.7443625652365856,0.16242201431896564,-0.8985474977435203,-0.8017184171043347,1.3524744658678638,-0.5863019699779287,-0.3202563076101742,-0.3202563076101742,-0.4026936331284145,-0.4780914437337574
https://omnivorescookbook.com/creamy-chicken-potato-salad/,-0.29802077174702446,-1.0975130894396807,0.31501335578351414,0.6108373677384873,-1.2199152860939695,-0.5863019699779287,-0.3202563076101742,-0.3202563076101742,-0.4026936331284145,-0.4780914437337574
https://omnivorescookbook.com/roasted-baby-squash/,0.19255433906594288,-0.3434176026905763,0.04511818315020217,0.43963419272971754,0.4952205015214841,-0.5863019699779287,-0.3202563076101742,-0.3202563076101742,-0.4026936331284145,-0.4780914437337574
https://omnivorescookbook.com/hoisin-roasted-asparagus/,0.05391667305867172,-0.9822331805542035,0.6225990590418741,0.5843800266003705,0.6526610714504297,-0.5863019699779287,-0.3202563076101742,-0.3202563076101742,-0.4026936331284145,-0.4780914437337574
https://omnivorescookbook.com/vegetarian-lentil-stew/,-0.2662938128438397,-1.0432093530878146,-0.22148333631888995,0.33841644647073715,-0.7524966296264631,-0.5863019699779287,-0.3202563076101742,-0.3202563076101742,-0.4026936331284145,-0.4780914437337574
https://omnivorescookbook.com/five-spice-garlic-roasted-potatoes/,0.15806657727763626,-0.9681584670400861,-0.28712802715117214,0.5843065707466074,-1.0900036047294677,-0.5863019699779287,-0.3202563076101742,-0.3202563076101742,-0.4026936331284145,-0.4780914437337574
https://omnivorescookbook.com/stir-fried-bitter-melon/,-0.7308715381849772,-0.11287526102390065,-1.559522691970696,-0.5914744191045155,0.7324950133515601,-0.5863019699779287,-0.3202563076101742,-0.3202563076101742,-0.4026936331284145,-0.4780914437337574
https://omnivorescookbook.com/recipes/four-ingredient-okra-stir-fry/,-0.3862897945081412,-0.35548158610445074,-0.6374800199283791,-0.5048815699187987,1.3929499225366464,-0.5863019699779287,-0.3202563076101742,-0.3202563076101742,-0.4026936331284145,-0.4780914437337574
https://omnivorescookbook.com/lemongrass-pumpkin-porridge/,0.6971273820452593,-1.2633352788870398,2.2406315126789957,-0.4166054223908149,0.4558488793576395,-0.5863019699779287,-0.3202563076101742,-0.3202563076101742,-0.4026936331284145,-0.4780914437337574
https://omnivorescookbook.com/choy-sum-with-garlic-sauce/,-0.43949132245234523,-0.1934925098792627,-0.37527924964345677,-0.26310264249049303,1.0879391286492692,-0.5863019699779287,-0.3202563076101742,-0.3202563076101742,-0.4026936331284145,-0.4780914437337574
https://omnivorescookbook.com/sauteed-potato/,-0.46349113669237696,-1.1038716998369305,-0.15503280607124953,0.08947616655120759,-0.49441895704427785,-0.5863019699779287,-0.3202563076101742,-0.3202563076101742,-0.4026936331284145,-0.4780914437337574
https://omnivorescookbook.com/oven-roasted-green-beans/,0.09550346768849431,0.10325329326437796,-0.9272310195252883,-0.4895691798433037,0.5278713944206849,-0.5863019699779287,-0.3202563076101742,-0.3202563076101742,-0.4026936331284145,-0.4780914437337574
https://omnivorescookbook.com/chinese-fish-en-papillote/,0.004336733382442174,0.5670600621917185,-0.023769811719038976,0.41749488580739796,0.020349719981490537,-0.5863019699779287,3.1224989991991987,-0.3202563076101742,-0.4026936331284145,-0.4780914437337574
https://omnivorescookbook.com/garlic-noodles/,-0.8572700909877604,0.8427637003080969,-1.0485519940101582,-0.7220064982835863,-0.08039377220130432,1.7056057308448835,-0.3202563076101742,-0.3202563076101742,-0.4026936331284145,-0.4780914437337574
https://omnivorescookbook.com/yellow-chives-eggs/,-0.4850506477725752,-1.5712980683940991,-0.2563242940927223,-0.051072273039527834,0.771363876424954,-0.5863019699779287,-0.3202563076101742,-0.3202563076101742,-0.4026936331284145,-0.4780914437337574
https://omnivorescookbook.com/chinese-coleslaw/,-0.8105330235301462,0.44502711606811246,-1.3061095271911514,-1.4941333904655851,0.5443552798343112,-0.5863019699779287,-0.3202563076101742,-0.3202563076101742,-0.4026936331284145,-0.4780914437337574
https://omnivorescookbook.com/stir-fried-pea-shoots/,-0.7163248595413249,-1.284225209184191,-0.7409406547102818,-0.4027918609537598,0.15687078031202142,-0.5863019699779287,-0.3202563076101742,-0.3202563076101742,-0.4026936331284145,-0.4780914437337574
https://omnivorescookbook.com/potato-fried-rice/,-0.33081258815603815,0.3767244860412615,0.22744790841363544,-0.27251870170907627,0.39079347663621367,-0.5863019699779287,-0.3202563076101742,-0.3202563076101742,-0.4026936331284145,-0.4780914437337574
https://omnivorescookbook.com/chicken-fried-rice/,-0.6384040096486491,0.4975596933310786,-0.8411711867333211,-0.9794607482323658,0.18721588467870903,1.7056057308448835,-0.3202563076101742,-0.3202563076101742,-0.4026936331284145,-0.4780914437337574
https://omnivorescookbook.com/egg-fried-rice/,-0.4770278911447003,-0.8318447811475118,-0.15812129827276405,-0.9566077279572408,0.36173085722222686,1.7056057308448835,-0.3202563076101742,-0.3202563076101742,-0.4026936331284145,-0.4780914437337574
https://omnivorescookbook.com/recipes/spicy-cauliflower-stir-fry/,-0.8661347021488159,0.28293043631395204,-1.6510075110691544,-0.7413578296123303,0.973745801154181,-0.5863019699779287,-0.3202563076101742,-0.3202563076101742,-0.4026936331284145,-0.4780914437337574
https://omnivorescookbook.com/steamed-bao-buns/,0.19717194410276628,-1.3236004811456104,0.5539523901362423,1.2540011499252102,0.30215125376360163,-0.5863019699779287,-0.3202563076101742,-0.3202563076101742,-0.4026936331284145,-0.4780914437337574
https://omnivorescookbook.com/fire-roasted-eggplant/,-0.30614031275858694,0.021599164189270832,0.109659610228525,0.073669289401352,0.2219579919750983,-0.5863019699779287,-0.3202563076101742,-0.3202563076101742,-0.4026936331284145,2.0916500663351885
https://omnivorescookbook.com/curried-vegan-green-bean-casserole/,-0.3308802583651517,0.17350423609779503,-0.916167676384335,-0.009989904747389181,0.8164925970254471,-0.5863019699779287,-0.3202563076101742,3.1224989991991987,-0.4026936331284145,-0.4780914437337574
https://omnivorescookbook.com/chinese-tea-eggs/,-0.05810246851182238,-0.3056852836285001,0.43671780082160233,-0.11764449395074057,0.6742436374012403,-0.5863019699779287,-0.3202563076101742,-0.3202563076101742,-0.4026936331284145,-0.4780914437337574
https://omnivorescookbook.com/easy-swiss-chard-stir-fry/,-0.5976182072810765,-0.24272853026442545,-1.2339091600299796,-0.6695442024449219,1.5785205436735614,-0.5863019699779287,-0.3202563076101742,-0.3202563076101742,-0.4026936331284145,-0.4780914437337574
https://omnivorescookbook.com/easy-chinese-broccoli-recipe/,-0.7374777265248751,-0.11145323810073189,-1.4214871936195745,-0.8407738345877592,1.4474485619973074,-0.5863019699779287,-0.3202563076101742,-0.3202563076101742,-0.4026936331284145,-0.4780914437337574
https://omnivorescookbook.com/celtuce-stir-fry-with-eggs/,-0.3785541925579597,-1.4500546896659177,-0.09519446695932507,0.09986898203207434,0.44351735545481163,-0.5863019699779287,-0.3202563076101742,-0.3202563076101742,-0.4026936331284145,-0.4780914437337574
https://omnivorescookbook.com/instant-pot-black-beans/,-0.28680393847536245,-0.8243940980294523,0.36013203966016666,0.7340376134731662,-0.5266866803620751,-0.5863019699779287,-0.3202563076101742,-0.3202563076101742,-0.4026936331284145,-0.4780914437337574
https://omnivorescookbook.com/stir-fried-baby-bok-choy-gluten-balls/,-0.7970787869220531,0.1619140655041055,-1.1430461548829203,-0.5861016437737505,1.2465029846566231,-0.5863019699779287,-0.3202563076101742,-0.3202563076101742,-0.4026936331284145,-0.4780914437337574
https://omnivorescookbook.com/glazed-carrots/,0.15555349640978247,-1.2791335064792326,-0.46774519600478137,0.2007793010505747,-0.4413708859357527,-0.5863019699779287,-0.3202563076101742,-0.3202563076101742,-0.4026936331284145,2.0916500663351885
https://omnivorescookbook.com/xo-fried-rice/,-0.7083821058846883,-0.2499149657140584,-0.37588822728827714,-0.9936124941645059,0.5541372443917502,1.7056057308448835,-0.3202563076101742,-0.3202563076101742,-0.4026936331284145,-0.4780914437337574
