url,0,1,2,3,4,high_carb,high_protein,high_fat,high_sodium,high_sugar
https://mykoreankitchen.com/spicy-mayo-recipe/,-0.010429175054115314,-0.0013036595681699952,0.0012359191806781324,0.0004148796971322195,-0.002418697159480446,0.0,0.0,0.0,0.0,0.0
https://mykoreankitchen.com/strawberry-milk/,-0.012143104464880183,-0.003849523289253316,-0.006653260372919147,0.0023573522707746224,0.0015305058994397934,1.0,0.0,0.0,0.0,1.0
https://mykoreankitchen.com/dakgangjeong-soy-garlic-fried-chicken/,-0.004016042296241583,-0.00026855325310501865,0.007939823291197062,-0.0006705692836562205,0.0001827402876368429,1.0,1.0,0.0,1.0,1.0
https://mykoreankitchen.com/chili-oil-recipe/,0.00035666381784663575,0.00140333525072648,0.014936832174012498,-0.003359297463278164,-0.007619515269625433,1.0,0.0,1.0,1.0,1.0
https://mykoreankitchen.com/dalgona-coffee-whipped-coffee/,-0.013456363405049606,-0.004484697175111688,-0.0073755429598353385,0.0011019894485762326,0.0003077928007909698,0.0,0.0,0.0,0.0,1.0
https://mykoreankitchen.com/omelet-rice-omurice/,0.006296946687285774,0.0003443894194584549,0.003329213923696498,0.017640021108648127,-0.0014701247179985668,1.0,1.0,1.0,1.0,1.0
https://mykoreankitchen.com/tuna-pancakes-chamchijeon/,0.00010434761026392416,0.0008887083454954643,0.0070915829961940725,0.00873964834338165,-0.002301919926230736,0.0,0.0,0.0,0.0,0.0
https://mykoreankitchen.com/pan-fried-zucchini/,0.009760042151859728,-0.0005881642298537815,0.0001734048763738835,0.026217266048747856,0.00099895242947319,0.0,0.0,0.0,0.0,0.0
https://mykoreankitchen.com/slow-cooker-short-ribs/,0.0028554144262735175,-0.0022592884498313292,0.006569253307501414,-0.003047553397664582,0.0016707391009620535,1.0,0.0,0.0,1.0,1.0
https://mykoreankitchen.com/korean-ground-beef-rice-bowls/,0.0009839856026821181,-0.00018186781475571794,0.006729114151569316,-0.001735923330425656,0.0020017548383935045,0.0,0.0,1.0,0.0,1.0
https://mykoreankitchen.com/doenjang-jjigae/,-0.0037307912089146037,0.0015830153332572477,0.015655826066668276,-0.0005816458934941487,-0.005382813633014439,0.0,0.0,0.0,0.0,0.0
https://mykoreankitchen.com/spicy-sweet-and-vinegary-noodles-bibim-guksu/,0.007212336919393974,-0.0016350582649566116,0.00033954433073043956,-0.0025037383998620655,0.0077135952899732635,1.0,0.0,0.0,1.0,1.0
https://mykoreankitchen.com/galbitang-beef-short-rib-soup/,-0.00223132839932458,0.0013393929078050343,0.009835007764474239,0.006344173953487238,-0.005756111140200281,0.0,1.0,0.0,1.0,0.0
https://mykoreankitchen.com/nuclear-fire-noodle-fries/,0.003790586771195362,-0.006074229986723574,0.005155830300662945,-0.005781119474526371,0.017011982531291242,1.0,0.0,1.0,1.0,0.0
https://mykoreankitchen.com/kimchi-jjim-braised-kimchi/,-0.004795740669360917,0.0016350277243687642,0.011345969318928478,-0.0010360160197181666,-0.0038028001501542626,0.0,0.0,0.0,0.0,0.0
https://mykoreankitchen.com/air-fryer-chicken-wings/,0.000894380760161407,-0.0006163340584626136,0.008022575389463774,-0.001736361460299149,-0.000710673918867239,0.0,0.0,0.0,1.0,1.0
https://mykoreankitchen.com/pickled-radishes/,-0.012031761030052397,-0.0021239790526170086,-0.006014036801998862,0.0019703699034226193,-0.0002758685938247016,0.0,0.0,0.0,0.0,0.0
https://mykoreankitchen.com/air-fryer-chickpeas/,-0.006425575944315002,-0.0010244530848602354,0.002616933818574845,-0.0014872255881762295,-0.0031415405339548924,0.0,0.0,0.0,0.0,0.0
https://mykoreankitchen.com/bean-sprout-rice-kongnamul-bap/,0.0021509782676039464,-0.0014388728121088174,0.009172371729483805,-0.0032762583438881655,0.0012269763372682156,1.0,0.0,0.0,1.0,0.0
https://mykoreankitchen.com/gochujang-chicken/,-0.00348012581147036,0.0005634458989256745,0.008846937806969164,-0.0013442926631085754,-0.0036614977312183533,1.0,1.0,0.0,1.0,1.0
https://mykoreankitchen.com/korean-style-tuna-cakes/,0.0008724225625947289,0.0010778430214739459,0.007310198463497996,0.009016629976005785,-0.002315320347312782,0.0,0.0,0.0,0.0,0.0
https://www.justonecookbook.com/pickled-ginger/,-0.006316506435056864,0.002377838418451724,-0.0013462702617325472,0.0028423450950306917,0.0008539871742179732,0.24210526315789474,0.0851063829787234,0.08791208791208792,0.12903225806451613,0.18888888888888888
https://www.justonecookbook.com/korean-pancake/,0.0064608373653443065,-0.0019235207867903,0.0008558885356050842,0.0037248006198528517,0.002729044753032689,0.24210526315789474,0.0851063829787234,0.08791208791208792,0.12903225806451613,0.18888888888888888
https://www.justonecookbook.com/pickled-cucumber/,-0.013266037143480727,-0.003145222028687717,-0.006280996581333127,0.0026802449607934336,0.0002711242683939479,0.24210526315789474,0.0851063829787234,0.08791208791208792,0.12903225806451613,0.18888888888888888
https://www.justonecookbook.com/takikomi-gohan/,0.005929663164119757,0.026923819163095705,0.006551874521373555,-0.0027856874463285733,-0.006794691463426291,0.24210526315789474,0.0851063829787234,0.08791208791208792,0.12903225806451613,0.18888888888888888
https://www.justonecookbook.com/myoga-shiso-rice/,0.012056398407855521,-0.0034121823334077933,0.0037260852101056014,-0.006706454025376268,0.012762557335009445,0.24210526315789474,0.0851063829787234,0.08791208791208792,0.12903225806451613,0.18888888888888888
https://www.justonecookbook.com/pickled-lotus-root/,-0.007093869878357998,0.0009336780346508865,0.000566991819953178,0.0020440077891569325,-0.000385286717234308,0.24210526315789474,0.0851063829787234,0.08791208791208792,0.12903225806451613,0.18888888888888888
https://www.justonecookbook.com/maple-and-miso-glazed-roasted-carrots/,-0.006697990306306187,-0.002129453753630608,0.0016072120243504349,-0.0005308383226769506,-0.00045905823408612763,0.24210526315789474,0.0851063829787234,0.08791208791208792,0.12903225806451613,0.18888888888888888
https://www.justonecookbook.com/simmered-koyadofu/,-0.0010308313929638312,0.02684673834852314,-0.008911389198405987,-0.0024092207113208548,-0.0005701577084072099,0.24210526315789474,0.0851063829787234,0.08791208791208792,0.12903225806451613,0.18888888888888888
https://www.justonecookbook.com/tsukemono-shiozuke-salt-pickling/,-0.014141542941084386,-0.0035686711985539934,-0.006762518281783156,0.0018433364565037236,-0.0005440177832280284,0.24210526315789474,0.0851063829787234,0.08791208791208792,0.12903225806451613,0.18888888888888888
https://www.justonecookbook.com/kuri-kinton-candied-chestnuts-with-sweet-potatoes/,-0.006388129006219803,0.014561853960690154,-0.00862473122073331,-0.0006161361525676094,0.0010297546091939812,0.24210526315789474,0.0851063829787234,0.08791208791208792,0.12903225806451613,0.18888888888888888
https://www.justonecookbook.com/simmered-kombu-tsukudani/,-0.0015037017119050125,0.007674327431301123,0.0024566004417691007,-0.0013223416834858498,0.005431656541153401,0.24210526315789474,0.0851063829787234,0.08791208791208792,0.12903225806451613,0.18888888888888888
https://www.justonecookbook.com/sweet-onion-takikomi-gohan/,0.009423037051477378,0.0026962781490222393,-0.0009286325786486121,-0.0038656324434363874,-0.004472755084537414,0.24210526315789474,0.0851063829787234,0.08791208791208792,0.12903225806451613,0.18888888888888888
https://www.justonecookbook.com/agedashi-tofu-2/,0.020354587377428405,0.017292460944241916,-0.0006678513007819983,-0.006700623629336232,-0.006223539312574297,0.24210526315789474,0.0851063829787234,0.08791208791208792,0.12903225806451613,0.18888888888888888
https://www.justonecookbook.com/simmered-sweet-potatoes-with-lemon/,-0.013456363405049606,-0.004484697175111736,-0.007375542959835348,0.0011019894485762472,0.00030779280079096553,0.24210526315789474,0.0851063829787234,0.08791208791208792,0.12903225806451613,0.18888888888888888
https://www.justonecookbook.com/tsukemono-amazuzuke-sweet-vinegar-pickling/,-0.005997333488973247,0.0017984708478467708,0.0018048229614507669,0.0023579194525185634,-0.0003096247734912812,0.24210526315789474,0.0851063829787234,0.08791208791208792,0.12903225806451613,0.18888888888888888
https://www.justonecookbook.com/bean-sprout-namul/,0.0049409913845556,-0.0009912466135118517,0.008042749282535658,-0.0036100614193588336,0.003669698407641532,0.24210526315789474,0.0851063829787234,0.08791208791208792,0.12903225806451613,0.18888888888888888
https://www.justonecookbook.com/miso-meat-sauce-niku-miso/,0.0037865254834488263,0.005317105550625986,0.00031724203409758,-0.0037103917857772986,-0.0016693608980454875,0.24210526315789474,0.0851063829787234,0.08791208791208792,0.12903225806451613,0.18888888888888888
https://www.justonecookbook.com/quick-and-easy-tamagoyaki/,0.025063315673969272,-0.013135134233413087,-0.012085574516847615,-0.006627022696676222,-0.0031663363304145096,0.24210526315789474,0.0851063829787234,0.08791208791208792,0.12903225806451613,0.18888888888888888
https://www.justonecookbook.com/pickled-tomatoes/,-0.0008028639554082074,0.014949197942412427,-0.0008437361834040357,0.0010193737830581017,-0.0019747326455790146,0.24210526315789474,0.0851063829787234,0.08791208791208792,0.12903225806451613,0.18888888888888888
https://www.justonecookbook.com/spinach-and-bean-sprout-namul/,0.001707694008955425,-0.004321741321649036,0.00044427360247096295,-0.003408137210844994,-0.0015212617717709188,0.24210526315789474,0.0851063829787234,0.08791208791208792,0.12903225806451613,0.18888888888888888
https://www.justonecookbook.com/bitter-melon-salad/,0.0023901006812774204,-0.00262542424480673,0.0009587719779539871,-0.0036231031138383002,0.0076889394666294734,0.24210526315789474,0.0851063829787234,0.08791208791208792,0.12903225806451613,0.18888888888888888
https://www.justonecookbook.com/kuromame-sweet-black-soybeans/,-0.01227638124162828,-0.0024786828012668856,-0.0059132369554821635,0.0010630473058553757,-0.00018973899011225085,0.24210526315789474,0.0851063829787234,0.08791208791208792,0.12903225806451613,0.18888888888888888
https://www.justonecookbook.com/ham-flower/,-0.01946913944177724,-0.005970076306474643,-0.006014981649258365,-0.003092093180608753,-0.0006723146859323399,0.24210526315789474,0.0851063829787234,0.08791208791208792,0.12903225806451613,0.18888888888888888
https://www.justonecookbook.com/easy-orange-ginger-cranberry-sauce/,-0.011850666440058149,-0.0017716262282128743,-0.002892295675982484,-0.0006096877392567191,3.875429920477321e-05,0.24210526315789474,0.0851063829787234,0.08791208791208792,0.12903225806451613,0.18888888888888888
https://www.justonecookbook.com/tsukemono-misozuke-miso-pickling/,-0.003465797600554924,0.01356083090109369,0.0013988759367971923,-0.003906311974240282,-0.0012671029946557078,0.24210526315789474,0.0851063829787234,0.08791208791208792,0.12903225806451613,0.18888888888888888
https://www.justonecookbook.com/homemade-chashu/,0.008082153685434768,-0.004804044152319143,-0.00048445534294170434,-0.003300763425366382,-0.003835338718789251,0.24210526315789474,0.0851063829787234,0.08791208791208792,0.12903225806451613,0.18888888888888888
https://www.justonecookbook.com/tamagoyaki-japanese-rolled-omelette/,0.013634939441243648,0.011959149478974834,-0.00660638033933671,0.0011112343120182433,-0.002933675381988641,0.24210526315789474,0.0851063829787234,0.08791208791208792,0.12903225806451613,0.18888888888888888
https://www.justonecookbook.com/sekihan-japanese-azuki-beans-rice/,-0.007159424377040516,-0.0033727029840057983,0.001166817427774526,-0.001056936731401983,0.010518235192749116,0.24210526315789474,0.0851063829787234,0.08791208791208792,0.12903225806451613,0.18888888888888888
https://www.justonecookbook.com/chikuzenni-simmered-chicken-and-vegetables/,0.004575899243178047,0.013106741844299644,-0.004839841120888966,-0.0015180024948703798,-0.0007157620946611327,0.24210526315789474,0.0851063829787234,0.08791208791208792,0.12903225806451613,0.18888888888888888
https://www.justonecookbook.com/green-beans-with-yuzu-vinaigrette/,-0.006674753669980578,-0.002987769218137375,0.0024537283331492574,-0.00012258103586063867,-0.0003814404520637417,0.24210526315789474,0.0851063829787234,0.08791208791208792,0.12903225806451613,0.18888888888888888
https://www.justonecookbook.com/pearl-balls-guest-post-by-weeknite-meals/,-0.007124078882735842,0.00034699549028982383,0.00760384928887204,0.000843752922423218,-0.002509162699866427,0.24210526315789474,0.0851063829787234,0.08791208791208792,0.12903225806451613,0.18888888888888888
https://www.justonecookbook.com/bamboo-rice-takenoko-gohan/,-0.012309700495431146,-0.0021359726640994927,-0.005728230999454369,0.0007394710787720848,-0.0006198001964911501,0.24210526315789474,0.0851063829787234,0.08791208791208792,0.12903225806451613,0.18888888888888888
https://www.justonecookbook.com/simmered-bamboo-shoots/,0.001340079312632466,0.03230934069791047,-0.009875286233721957,-0.004058415866072149,-0.0007237464739092556,0.24210526315789474,0.0851063829787234,0.08791208791208792,0.12903225806451613,0.18888888888888888
https://www.justonecookbook.com/simmered-kabocha-squash/,-0.01167019646592282,-0.0014564830655646802,-0.003915331030987567,0.00021369912448545406,-0.00024133629420316325,0.24210526315789474,0.0851063829787234,0.08791208791208792,0.12903225806451613,0.18888888888888888
https://www.justonecookbook.com/how-to-make-rice/,-0.014141542941084386,-0.0035686711985539934,-0.006762518281783156,0.0018433364565037236,-0.0005440177832280284,0.24210526315789474,0.0851063829787234,0.08791208791208792,0.12903225806451613,0.18888888888888888
https://www.justonecookbook.com/simmered-fried-tofu-and-greens/,-0.0020718697894365097,0.024311717450457328,-0.007789784508918691,-0.0015768489255659386,-0.0020642744768391446,0.24210526315789474,0.0851063829787234,0.08791208791208792,0.12903225806451613,0.18888888888888888
https://www.justonecookbook.com/daikon-leaves-furikake/,0.004678587493415999,0.0037774322898562573,-0.0012142413470063276,-0.004270326840150853,0.008069436127699467,0.24210526315789474,0.0851063829787234,0.08791208791208792,0.12903225806451613,0.18888888888888888
https://www.justonecookbook.com/plum-rice-ball/,-0.0015985125566642556,-0.0005875227552900432,0.006321995433799367,-0.0019872794623454573,0.01494261113700306,0.24210526315789474,0.0851063829787234,0.08791208791208792,0.12903225806451613,0.18888888888888888
https://www.justonecookbook.com/ume-shiso-rice/,0.006554147580166212,0.0008828434986622957,0.014599902163436236,-0.005206593105655796,0.025143396191078447,0.24210526315789474,0.0851063829787234,0.08791208791208792,0.12903225806451613,0.18888888888888888
https://www.justonecookbook.com/green-bean-gomaae/,-0.003849977446689748,-0.0006607161445953895,0.003190192326683784,-0.0014501671725906007,0.01077091630134846,0.24210526315789474,0.0851063829787234,0.08791208791208792,0.12903225806451613,0.18888888888888888
https://www.justonecookbook.com/pickled-daikon/,-0.005997333488973247,0.0017984708478467708,0.0018048229614507669,0.0023579194525185634,-0.0003096247734912812,0.24210526315789474,0.0851063829787234,0.08791208791208792,0.12903225806451613,0.18888888888888888
https://www.justonecookbook.com/steamed-vegetables-with-miso-sesame-sauce/,0.005453302487468258,0.011223879443136794,-0.0011759567526975737,-0.002999099298995366,0.005334145237645114,0.24210526315789474,0.0851063829787234,0.08791208791208792,0.12903225806451613,0.18888888888888888
https://www.justonecookbook.com/pickled-cucumbers-and-myoga/,-0.00980316952402596,9.0308006793283e-06,0.004134010128222228,-0.0005862671018644366,-0.001801414930293712,0.24210526315789474,0.0851063829787234,0.08791208791208792,0.12903225806451613,0.18888888888888888
https://www.justonecookbook.com/matsutake-gohan/,0.011204374385089042,0.056838697933366086,-0.011541781262797488,-0.007498685903266962,-0.0014114395498033942,0.24210526315789474,0.0851063829787234,0.08791208791208792,0.12903225806451613,0.18888888888888888
https://www.justonecookbook.com/yaki-onigiri-grilled-rice-ball/,0.009022509108793136,-0.00817641469888554,-0.009228851565304803,-0.003701079819861403,-0.0023821502213026125,0.24210526315789474,0.0851063829787234,0.08791208791208792,0.12903225806451613,0.18888888888888888
https://www.justonecookbook.com/how-to-cook-rice/,-0.014769622477376591,-0.005119871100331434,-0.008097825553127427,-0.00015337341034211624,-0.0009149203188059464,0.24210526315789474,0.0851063829787234,0.08791208791208792,0.12903225806451613,0.18888888888888888
https://www.justonecookbook.com/pounded-burdock-root-with-sesame-sauce/,0.0028578235775907172,0.01092775564820704,0.002763968292215295,-0.0019755224605453032,0.010222954797826022,0.24210526315789474,0.0851063829787234,0.08791208791208792,0.12903225806451613,0.18888888888888888
https://www.justonecookbook.com/tsukemono-pickled-cabbage/,-0.0034410384121655643,0.00015016120472919638,0.0069712735411639835,-0.0021362748004688835,0.00825941087142318,0.24210526315789474,0.0851063829787234,0.08791208791208792,0.12903225806451613,0.18888888888888888
https://www.justonecookbook.com/hijiki-salad/,0.014887095137871264,0.01410696096464885,-0.01138318343107078,-0.006144690580098207,-0.00222682288450786,0.24210526315789474,0.0851063829787234,0.08791208791208792,0.12903225806451613,0.18888888888888888
https://www.justonecookbook.com/tsukemono-kasuzuke-sake-lees-pickling/,-0.013266037143480727,-0.003145222028687717,-0.006280996581333127,0.0026802449607934336,0.0002711242683939479,0.24210526315789474,0.0851063829787234,0.08791208791208792,0.12903225806451613,0.18888888888888888
https://www.justonecookbook.com/easy-soy-sauce-pickles/,-0.000425362145927792,-0.000686407591139071,0.00038305439535699353,-0.0012548663490983838,-0.00047124370143224637,0.24210526315789474,0.0851063829787234,0.08791208791208792,0.12903225806451613,0.18888888888888888
https://www.justonecookbook.com/pickled-daikon-with-shio-koji/,-0.011214883830380487,-0.0020964593926618875,-2.5872455518710583e-05,0.0005509475749216001,-0.0013153611386703553,0.24210526315789474,0.0851063829787234,0.08791208791208792,0.12903225806451613,0.18888888888888888
https://www.justonecookbook.com/simmered-taro/,0.011801264439686347,0.01248771289128905,-0.01057304121571957,-0.0048134185783613136,-0.001957421954372502,0.24210526315789474,0.0851063829787234,0.08791208791208792,0.12903225806451613,0.18888888888888888
https://www.justonecookbook.com/instant-pot-rice/,-0.014769622477376591,-0.005119871100331434,-0.008097825553127427,-0.00015337341034211624,-0.0009149203188059464,0.24210526315789474,0.0851063829787234,0.08791208791208792,0.12903225806451613,0.18888888888888888
https://www.justonecookbook.com/miso-yaki-onigiri/,0.01065062907690963,0.00122049307057527,-0.0032388256987348914,-0.004694976636022856,0.006535335462035347,0.24210526315789474,0.0851063829787234,0.08791208791208792,0.12903225806451613,0.18888888888888888
https://www.justonecookbook.com/pickled-turnip-with-yuzu/,-0.010094143819549274,-0.0009023403232139974,0.0036489629991848806,0.0002754266584630514,-0.0021269380484773307,0.24210526315789474,0.0851063829787234,0.08791208791208792,0.12903225806451613,0.18888888888888888
https://www.justonecookbook.com/tsukemono-shoyuzuke-soy-sauce-pickling/,-0.0035234166799995833,0.0033895936044467593,0.0036996868324509404,0.0013749881317258472,-0.00038289815471020006,0.24210526315789474,0.0851063829787234,0.08791208791208792,0.12903225806451613,0.18888888888888888
https://www.justonecookbook.com/ramen-egg/,0.005699954407495471,0.017981853865187806,0.0006786094661959562,0.010300582436760469,-0.002544094873837407,0.24210526315789474,0.0851063829787234,0.08791208791208792,0.12903225806451613,0.18888888888888888
https://www.justonecookbook.com/pickled-watermelon-rind/,0.006209435955451318,-6.199175114498959e-05,0.002646861877189684,-0.002886803621992519,0.008241639997093977,0.24210526315789474,0.0851063829787234,0.08791208791208792,0.12903225806451613,0.18888888888888888
https://www.justonecookbook.com/how-to-make-sushi-rice/,-0.007338231405645142,0.0009154406144507336,-0.003708274168982153,0.003488956399034568,0.0007847208817091182,0.24210526315789474,0.0851063829787234,0.08791208791208792,0.12903225806451613,0.18888888888888888
https://www.justonecookbook.com/simmered-kabocha-with-shio-koji/,-0.014769622477376591,-0.005119871100331434,-0.008097825553127427,-0.00015337341034211624,-0.0009149203188059464,0.24210526315789474,0.0851063829787234,0.08791208791208792,0.12903225806451613,0.18888888888888888
https://www.justonecookbook.com/nanakusa-gayu-seven-herb-rice-porridge/,-0.014141542941084386,-0.0035686711985539934,-0.006762518281783156,0.0018433364565037236,-0.0005440177832280284,0.24210526315789474,0.0851063829787234,0.08791208791208792,0.12903225806451613,0.18888888888888888
https://www.justonecookbook.com/kinpira-renkon-lotus-root/,0.004422156414558035,0.004635812186701499,0.001802018448714878,-0.003082717122310597,0.005962756178820789,0.24210526315789474,0.0851063829787234,0.08791208791208792,0.12903225806451613,0.18888888888888888
https://www.justonecookbook.com/japanese-pickled-cucumber/,0.002890776063650638,-0.00282335930607208,0.001941100799445874,-0.003663673376504504,0.0070849759306558825,0.24210526315789474,0.0851063829787234,0.08791208791208792,0.12903225806451613,0.18888888888888888
https://www.justonecookbook.com/cherry-blossom-rice-balls/,-0.0015985125566642556,-0.0005875227552900432,0.006321995433799367,-0.0019872794623454573,0.01494261113700306,0.24210526315789474,0.0851063829787234,0.08791208791208792,0.12903225806451613,0.18888888888888888
https://www.justonecookbook.com/shibazuke-pickles/,-0.005527951204040704,0.013937419135748162,-0.004980166827198923,-0.0013780902038669834,0.00016227882232270995,0.24210526315789474,0.0851063829787234,0.08791208791208792,0.12903225806451613,0.18888888888888888
https://www.justonecookbook.com/namasu-daikon-and-carrot-salad/,-0.007338231405645142,0.0009154406144507336,-0.003708274168982153,0.003488956399034568,0.0007847208817091182,0.0,0.0,0.0,0.0,0.0
https://www.justonecookbook.com/how-to-cook-rice-in-donabe/,-0.014769622477376591,-0.005119871100331434,-0.008097825553127427,-0.00015337341034211624,-0.0009149203188059464,1.0,0.0,0.08791208791208792,0.12903225806451613,0.18888888888888888
https://www.justonecookbook.com/how-to-enjoy-japanese-mochi/,-0.011242299957270422,-0.0022690904428440085,-0.005792151821439723,-0.00012271531875604968,-7.718731755744127e-05,0.24210526315789474,0.0851063829787234,0.08791208791208792,0.12903225806451613,0.18888888888888888
https://www.justonecookbook.com/instant-pot-brown-rice/,-0.014141542941084386,-0.0035686711985539934,-0.006762518281783156,0.0018433364565037236,-0.0005440177832280284,0.24210526315789474,0.0851063829787234,0.08791208791208792,0.12903225806451613,0.18888888888888888
https://www.justonecookbook.com/onigiri-rice-balls/,-0.00710188257767632,-0.002450231959436662,0.0005347862221473609,-0.001309468153875469,0.00862400461765075,0.24210526315789474,0.0851063829787234,0.08791208791208792,0.12903225806451613,0.18888888888888888
https://www.justonecookbook.com/chestnut-rice-kurigohan/,-0.007159424377040516,-0.0033727029840057983,0.001166817427774526,-0.001056936731401983,0.010518235192749116,0.24210526315789474,0.0851063829787234,0.08791208791208792,0.12903225806451613,0.18888888888888888
https://www.justonecookbook.com/ginger-rice/,-0.0072720798483914585,0.010465617967593724,-0.005415776713224489,-0.0019300727933540278,5.452040687165816e-05,0.24210526315789474,0.0851063829787234,0.08791208791208792,0.12903225806451613,0.18888888888888888
https://www.justonecookbook.com/instant-pot-takikomi-gohan/,-0.000424938803896483,0.023766570255049906,-0.005328311166683164,-0.001653277349542354,-0.002417403881889242,0.24210526315789474,0.0851063829787234,0.08791208791208792,0.12903225806451613,0.18888888888888888
https://www.justonecookbook.com/instant-pot-kuromame/,-0.01227638124162828,-0.0024786828012668856,-0.0059132369554821635,0.0010630473058553757,-0.00018973899011225085,0.0,0.0,0.0,0.0,1.0
https://www.justonecookbook.com/kinpira-gobo-braised-carrot-burdock-root/,0.0170535147645704,0.00909005785023213,-0.00261951019890007,-0.0070484023581489814,0.004764262159683127,0.24210526315789474,0.0851063829787234,0.08791208791208792,0.12903225806451613,0.18888888888888888
https://www.justonecookbook.com/spinach-with-sesame-miso-sauce/,-0.0015880307919776198,0.007882258715421106,0.0008344265460692113,-0.002582056045875021,0.009837757298808572,0.24210526315789474,0.0851063829787234,0.08791208791208792,0.12903225806451613,0.18888888888888888
https://www.justonecookbook.com/okra-ohitashi/,0.0011916238788948607,0.03298599114540592,-0.009363014405446644,-0.003362534855737427,-0.0009902901981850034,0.24210526315789474,0.0851063829787234,0.08791208791208792,0.12903225806451613,0.18888888888888888
https://www.justonecookbook.com/dinner-rolls/,-0.0013750888156151316,-0.0031853826591083942,-0.00716293848849763,0.013142866865289165,0.002888384326298426,0.24210526315789474,0.0851063829787234,0.08791208791208792,0.12903225806451613,0.18888888888888888
https://www.justonecookbook.com/spinach-ohitashi-japanese-spinach-salad-with-bonito-flakes/,-0.0019163456526351509,0.007723464972462823,0.0006538559238464295,-0.002895896719271579,0.009532078943572461,0.24210526315789474,0.0851063829787234,0.08791208791208792,0.12903225806451613,0.18888888888888888
https://www.justonecookbook.com/grilled-corn-with-miso-butter/,-0.0035283943389062206,0.0026181168022626424,0.01123129415763147,0.00017355418151860386,-0.006584484994572075,0.24210526315789474,0.0851063829787234,0.08791208791208792,0.12903225806451613,0.18888888888888888
https://www.justonecookbook.com/onsen-tamago/,0.009401246794737111,0.027016129768765332,0.008191709811895907,0.004220027188151096,-0.006889620008205983,0.24210526315789474,0.0851063829787234,0.08791208791208792,0.12903225806451613,0.18888888888888888
https://www.justonecookbook.com/japanese-turnips-with-soboro-ankake-sauce/,-0.0041947530928457925,0.013547626379748488,-0.004042214500343435,0.0001842415589338185,-0.002670995535500554,0.24210526315789474,0.0851063829787234,0.08791208791208792,0.12903225806451613,0.18888888888888888
https://www.justonecookbook.com/mashed-potatoes-with-shio-koji/,-0.009529505359578206,-0.0007184145208206327,0.005730698291967363,0.0014789401276201711,0.00032001995530000826,0.24210526315789474,0.0851063829787234,0.08791208791208792,0.12903225806451613,0.18888888888888888
https://www.justonecookbook.com/baby-sardine-tsukudani/,0.002491793492986216,0.011440701649662077,0.0031441904386740717,-0.004389971951906277,0.013236531925751105,0.24210526315789474,0.0851063829787234,0.08791208791208792,0.12903225806451613,0.18888888888888888
https://www.justonecookbook.com/daikon-and-cucumber-salad-with-shio-koji/,0.0112902507087912,-0.0015601741565374392,0.0027408730506443195,-0.0028793503114824736,0.005033648737910104,0.24210526315789474,0.0851063829787234,0.08791208791208792,0.12903225806451613,0.18888888888888888
https://www.justonecookbook.com/popovers-with-strawberry-butter/,0.01101398904297203,0.002281091766335456,0.0028802937591497772,0.034403748761779554,0.0020455105379700643,0.24210526315789474,0.0851063829787234,0.08791208791208792,0.12903225806451613,0.18888888888888888
https://www.justonecookbook.com/miso-glazed-eggplant/,0.002874507869251502,0.009441496734044715,0.013249740117717384,-0.0033992077825927424,0.004568619491086235,0.24210526315789474,0.0851063829787234,0.08791208791208792,0.12903225806451613,0.18888888888888888
https://www.justonecookbook.com/sansai-gohan/,-0.006998641609547327,0.011827838270616946,-0.007713771938536395,-0.0015094789876098514,0.00016528902605733763,0.24210526315789474,0.0851063829787234,0.08791208791208792,0.12903225806451613,0.18888888888888888
https://www.justonecookbook.com/pickled-cucumbers/,-0.012098093004473464,-0.0006438757217109916,-0.002038510229414484,0.000550113745025965,-0.0004054852312573969,0.24210526315789474,0.0851063829787234,0.08791208791208792,0.12903225806451613,0.18888888888888888
https://www.justonecookbook.com/chikuwa-cucumber/,-0.01946913944177724,-0.005970076306474643,-0.006014981649258365,-0.003092093180608753,-0.0006723146859323399,0.24210526315789474,0.0851063829787234,0.08791208791208792,0.12903225806451613,0.18888888888888888
https://www.justonecookbook.com/broccoli-blanched-with-sesame-oil/,0.004590991777040996,-0.00416765377014703,0.0005867905588294023,-0.004017073826247818,0.009473804718289036,0.24210526315789474,0.0851063829787234,0.08791208791208792,0.12903225806451613,0.18888888888888888
https://www.justonecookbook.com/simmered-kiriboshi-daikon/,0.009144175606144824,0.010726954268144354,-0.01032551957131401,-0.004347413991618602,-0.0018531716608220928,0.24210526315789474,0.0851063829787234,0.08791208791208792,0.12903225806451613,0.18888888888888888
https://www.justonecookbook.com/tai-meshi-with-leftover-baked-sea-bream/,-0.010439500551859918,0.00010642256479016419,0.0004294388178010449,-0.00021294335332827568,-0.0006630527138434092,1.0,0.0,0.0,0.0,0.0
https://www.justonecookbook.com/mame-gohan-green-pea-rice/,-0.013827503311110077,-0.0027930712921221887,-0.006094864753633922,0.00284169135430611,-0.0003585664630639631,0.24210526315789474,0.0851063829787234,0.08791208791208792,0.12903225806451613,0.18888888888888888
https://www.justonecookbook.com/how-to-make-octopus-sausage-tako-sausage/,0.003313753903089234,-0.0030787507686339632,0.013060820919845808,-0.005407346626247695,0.027111614453738813,0.24210526315789474,0.0851063829787234,0.08791208791208792,0.12903225806451613,0.18888888888888888
https://omnivorescookbook.com/fried-cabbage/,0.004003687208511452,-0.00687946897254995,-0.0015133696749759322,-0.004985442909221557,-0.002350083153530586,0.0,0.0,0.0,0.0,0.0
https://omnivorescookbook.com/recipes/teriyaki-king-oyster-mushroom/,0.004983811127849572,-0.005423255500861258,0.003282801988986382,-0.004577079999583964,0.004333825773300498,0.0,0.0,0.0,0.0,0.0
https://omnivorescookbook.com/recipes/roasted-vegetables-with-balsamic-glaze/,-0.006674753669980578,-0.002987769218137375,0.0024537283331492574,-0.00012258103586063867,-0.0003814404520637417,0.24210526315789474,0.0851063829787234,0.08791208791208792,0.12903225806451613,0.18888888888888888
https://omnivorescookbook.com/grilled-eggplant-with-yu-xiang-sauce/,-0.00020793864223674305,-0.003443303822626514,0.0019158678918067158,-0.0029608625106699177,-0.0009584769749126961,0.0,0.0,0.0,0.0,1.0
https://omnivorescookbook.com/winter-melon-stir-fry/,-0.0003173016137774932,-0.005398339235449176,-0.00014096835189880192,-0.002039942268536086,-0.0025043676638054776,0.0,0.0,0.0,0.0,1.0
https://omnivorescookbook.com/dou-fu-nao/,0.004461657697126013,-0.0036854581824151407,0.004821348470856829,-0.0023023071690829577,-0.004845459243549521,0.0,1.0,0.0,0.0,0.0
https://omnivorescookbook.com/vegetable-fried-rice/,0.004970964250388999,-0.0026826445331285045,0.007597643531837422,0.0025168364411079437,-0.004954515488715654,1.0,0.0,0.0,0.0,0.0
https://omnivorescookbook.com/cranberry-relish/,-0.010391188550383868,-9.75039458479948e-05,-0.0002895307769959241,-0.000837844809690971,0.0005155915627661047,0.0,0.0,0.0,0.12903225806451613,1.0
https://omnivorescookbook.com/instant-pot-chinese-sausage-rice/,-0.004549965820795016,0.0014634380674213225,0.00835372028169142,0.0013285689588926914,-0.005461398932912242,1.0,0.0,0.0,0.0,0.0
https://omnivorescookbook.com/recipes/chinese-spinach-and-peanut-salad/,0.0015906806917606055,-0.003378368303590814,-0.001223119140966418,-0.0033322446213891366,0.0014887562862301346,0.0,0.0,0.0,0.0,0.0
https://omnivorescookbook.com/recipes/seafood-congee/,0.005520901946647533,-0.001951342879252767,0.006389959554243181,-0.0038189542176647957,-0.0044485199275497754,0.0,0.0,0.0,0.0,0.18888888888888888
https://omnivorescookbook.com/quick-pickled-shallots/,-0.006127300050625377,0.0015307766432329534,-0.0030920631515266718,0.0033988797020014414,0.0010131804357025392,0.0,0.0,0.08791208791208792,0.0,0.0
https://omnivorescookbook.com/cabbage-glass-noodles-stir-fry/,0.0005899166721377478,-0.0058106776128051645,-0.0010501986138036986,-0.0038083939436479065,-0.0020879223028006993,0.0,0.0,0.0,0.0,0.0
https://omnivorescookbook.com/restaurant-style-mashed-potatoes/,-0.013827503311110077,-0.0027930712921221887,-0.006094864753633922,0.00284169135430611,-0.0003585664630639631,1.0,0.0,1.0,0.0,0.0
https://omnivorescookbook.com/potato-stir-fry/,0.011202499482632342,-0.005261621661233023,-0.0027647752556283207,-0.0050563161763938855,-0.00013428805561378892,0.24210526315789474,0.0851063829787234,0.08791208791208792,0.12903225806451613,0.18888888888888888
https://omnivorescookbook.com/choy-sum-with-dried-shrimps/,0.016243645211136495,-0.013896399735495614,-0.005650645044391847,-0.008215276826659398,-0.0021182789620837346,0.0,0.0,0.0,0.0,0.18888888888888888
https://omnivorescookbook.com/baby-bok-choy-stir-fry/,0.0036551849053901575,-0.006361647873189441,0.0009028707633782955,-0.004823392898874151,0.005552295648664715,0.0,0.0,0.0,0.0,0.0
https://omnivorescookbook.com/steamed-eggplant/,-0.000274199638589542,-0.0008145195440571263,0.009173762609440434,-0.0028850795056629495,0.0008857782343797396,0.0,0.0,0.0,0.0,0.0
https://omnivorescookbook.com/kimchi-fried-rice/,0.009809076899287552,-0.0013943659323428846,0.008926556838354926,-0.0036667543822473028,-0.005387883352632914,1.0,0.0,0.0,0.0,0.0
https://omnivorescookbook.com/bean-sprout-stir-fry/,0.005156169182798569,-0.004770013719438628,0.002459685515285545,-0.0034663394917591856,-0.0023479827154263434,0.0,0.0,0.0,0.0,0.0
https://omnivorescookbook.com/chinese-soy-sauce-eggs/,-0.004637711109320252,0.002648181838578394,-0.0025370570486779476,0.0025356462955348595,0.0009156621447272706,0.0,0.0,0.0,0.0,0.0
https://omnivorescookbook.com/tofu-fried-rice/,0.008070361063522219,-0.001874206170676001,0.010967535271733577,0.0024352093047004713,-0.0061850144199474405,1.0,0.0,0.0,0.0,0.0
https://omnivorescookbook.com/recipes/stir-fried-bok-choy-with-crispy-tofu/,0.005954731435113745,-0.008675319508147223,-0.005246113110946543,-0.004972120725043363,-0.0011342957785620425,0.0,0.0,0.0,1.0,0.0
https://omnivorescookbook.com/turkish-potato-casserole-patates-bastisi/,-0.0051570671684064906,-0.0017691666871611678,0.0013110080795245098,-0.0007193288327602183,-0.0035514424580203566,0.24210526315789474,0.0851063829787234,0.08791208791208792,0.12903225806451613,0.18888888888888888
https://omnivorescookbook.com/vegetables-egg-and-ham-fried-rice/,0.007972291681459132,-0.004768923002373878,0.003962321084600707,0.0034514819986538286,-0.003472426594947855,1.0,0.0,0.0,1.0,0.0
https://omnivorescookbook.com/szechuan-dry-fried-green-beans/,-0.006843803028882438,-0.0018866992271593039,0.0005671992017852289,-0.002340432718308699,-0.0020050208957282573,0.0,1.0,1.0,0.0,0.0
https://omnivorescookbook.com/stir-fried-cauliflower-with-tomato-sauce/,0.002527670827329225,-0.008387118038573742,-0.0036122843923604045,-0.0039093805231855926,-0.001552878700522271,0.24210526315789474,0.0851063829787234,0.08791208791208792,0.12903225806451613,0.18888888888888888
https://omnivorescookbook.com/roasted-orange-cauliflower/,-0.003462503694821143,-6.996462211407438e-05,0.009019023676740016,-7.498534023862485e-05,-0.004172844977790154,0.24210526315789474,0.0851063829787234,0.08791208791208792,0.12903225806451613,0.18888888888888888
https://omnivorescookbook.com/pork-fried-rice/,0.01359446056718745,-0.004255029416489193,0.006368408324636524,0.0013716569801789902,-0.004163006284760185,1.0,1.0,0.0,0.0,0.0
https://omnivorescookbook.com/potato-brussels-sprouts-salad/,-0.004180330292847765,-0.0005789987374004192,0.007090261769876749,-0.0009201353849240102,-0.002977421199900745,0.0,0.0,1.0,0.0,0.0
https://omnivorescookbook.com/pressure-cooker-brown-rice/,-0.014769622477376591,-0.005119871100331434,-0.008097825553127427,-0.00015337341034211624,-0.0009149203188059464,0.24210526315789474,0.0851063829787234,0.08791208791208792,0.12903225806451613,0.18888888888888888
https://omnivorescookbook.com/perfect-steak-and-roasted-brussels-sprouts/,-0.006674753669980578,-0.002987769218137375,0.0024537283331492574,-0.00012258103586063867,-0.0003814404520637417,0.24210526315789474,0.0851063829787234,0.08791208791208792,0.12903225806451613,0.18888888888888888
https://omnivorescookbook.com/napa-cabbage-stir-fry-vinegar-sauce/,0.0006782089381399036,-0.0024420897487810044,0.004415894256915421,-0.0027927259006072713,-0.003428386615818137,0.0,0.0,0.0,0.0,0.0
https://omnivorescookbook.com/milk-bread-rolls/,0.005055907613864758,7.800079551526128e-05,-0.0058121081171845935,0.027199966264449385,0.007263361296759807,0.0,0.0,0.0,0.0,1.0
https://omnivorescookbook.com/stir-fried-water-spinach/,0.0002889798895244307,-0.005245722845116702,0.0004156306828051102,-0.0025172546547417417,-0.0030918453160260835,0.0,0.0,0.0,0.0,0.0
https://omnivorescookbook.com/recipes/classic-tomato-and-egg-stir-fry/,0.006903472204817904,-0.0029562245543280105,0.00871015895683345,0.0031925930782383564,-0.005821708084690514,0.0,0.0,0.0,0.0,0.0
https://omnivorescookbook.com/recipes/green-beans-with-spicy-peanut-sauce/,0.004519592846455968,-0.003262682308998538,0.004432240763664339,-0.004822383664975295,0.005627806276951779,0.0,0.0,0.0,0.0,0.0
https://omnivorescookbook.com/silkie-chicken-soup/,-0.005857320785629628,0.0016968510814281525,0.0051970316324663575,0.0004022310975836701,-0.004156566442274526,0.0,0.0,0.0,0.0,0.0
https://omnivorescookbook.com/recipes/stir-fried-lotus-root-with-pepper/,-0.006662268565058342,-0.002237865452860228,0.00015806671805559646,-0.0008407434225361314,-0.0018474577541421702,0.24210526315789474,0.0851063829787234,0.08791208791208792,0.12903225806451613,0.18888888888888888
https://omnivorescookbook.com/marinated-egg/,-0.001993990928350508,0.002584075399193332,0.002135260251251958,0.008102792493519076,-0.0010000656992301144,0.24210526315789474,0.0851063829787234,0.08791208791208792,0.12903225806451613,0.18888888888888888
https://omnivorescookbook.com/sticky-rice-stuffing/,-0.004549965820795016,0.0014634380674213225,0.00835372028169142,0.0013285689588926914,-0.005461398932912242,1.0,0.0,0.0,0.0,0.0
https://omnivorescookbook.com/shen-jian-bao/,0.0034371091764773616,-0.0016616530307081447,0.0034413682271469976,0.0034920518818066897,0.004223173025747721,0.0,0.0,0.0,0.0,0.0
https://omnivorescookbook.com/recipes/chinese-broccoli-with-oyster-sauce/,0.0034648119618245687,-0.007207214938813348,-0.0016998513157905006,-0.004872227867519925,-0.0015761731862129777,0.0,0.0,0.0,0.0,0.0
https://omnivorescookbook.com/chinese-napa-cabbage-with-glass-noodles/,0.002980446593372361,-0.003889339003251448,0.0035593536914095385,-0.0031667354187840196,-0.003220264257794585,0.0,0.0,0.0,0.0,0.0
https://omnivorescookbook.com/creamy-chicken-potato-salad/,-0.00013497705664453554,0.002686132536758694,0.014524730104438686,0.006739550729662257,-0.004956450885135122,0.0,0.0,0.0,0.0,0.0
https://omnivorescookbook.com/zucchini-stir-fry/,-0.005343177742983894,-0.003777917795361404,-0.003150222886402306,-0.0024138212340829323,-0.0016593269869463064,0.24210526315789474,0.0851063829787234,0.08791208791208792,0.12903225806451613,0.18888888888888888
https://omnivorescookbook.com/roasted-baby-squash/,-0.007512838809417134,-0.0033751749488334175,-0.002889017336277172,-0.0010284658181577882,-0.0008230278759098898,0.0,0.0,0.0,0.0,0.0
https://omnivorescookbook.com/hoisin-roasted-asparagus/,0.0047442529450786725,-0.012065188176720606,-0.01065415105865591,-0.00652866530960069,-0.0031872812746972126,0.0,0.0,0.0,0.0,0.0
https://omnivorescookbook.com/vegetarian-lentil-stew/,-0.004615787627739746,-0.0006191596681514864,0.00840505714735948,-0.0017769252906943938,-0.0028662108447837726,0.0,0.0,0.0,0.0,0.0
https://omnivorescookbook.com/how-to-make-congee/,-0.013456363405049606,-0.004484697175111736,-0.007375542959835348,0.0011019894485762472,0.00030779280079096553,0.0,0.0,0.0,0.0,0.18888888888888888
https://omnivorescookbook.com/five-spice-garlic-roasted-potatoes/,-0.002963280775234194,2.7084402632712652e-05,0.011321512716599817,-0.0007210298344871766,-0.004674841437632592,0.0,0.0,0.0,0.0,0.0
https://omnivorescookbook.com/kung-pao-brussels-sprouts/,-0.006157022579736163,-0.0002143294600733268,0.004627963158461511,-0.0009323471123537801,-0.0022962040875142585,0.24210526315789474,0.0851063829787234,0.08791208791208792,0.12903225806451613,0.18888888888888888
https://omnivorescookbook.com/stir-fried-bitter-melon/,0.0012365504181817695,-0.005344862561924066,0.0009858632836088357,-0.004044265647848612,-0.0021994353804307425,0.0,0.0,0.0,0.0,0.0
https://omnivorescookbook.com/recipes/four-ingredient-okra-stir-fry/,0.007656848441912956,-0.007570382290274529,-0.0007359637266882575,-0.006331339776489129,-0.0027481887280883417,0.0,0.0,0.0,0.0,0.0
https://omnivorescookbook.com/lemongrass-pumpkin-porridge/,-0.014769622477376591,-0.005119871100331434,-0.008097825553127427,-0.00015337341034211624,-0.0009149203188059464,0.0,0.0,0.0,0.0,0.0
https://omnivorescookbook.com/choy-sum-with-garlic-sauce/,0.006951414997568851,-0.008177231532978424,-0.002449083231186293,-0.006025960537689428,-0.0022670740420737794,0.0,0.0,0.0,0.0,0.0
https://omnivorescookbook.com/sauteed-potato/,-0.001645423123419377,0.002681156503456289,0.017760109394380844,-0.0015700070655142195,-0.00847800900429251,0.0,0.0,0.0,0.0,0.0
https://omnivorescookbook.com/oven-roasted-green-beans/,-0.006170112116274106,-0.0020202719906200076,-0.0010251285249304955,0.00020302956309225416,-0.0026299852549982157,0.0,0.0,0.0,0.0,0.0
https://omnivorescookbook.com/chinese-fish-en-papillote/,0.006378713923034644,-0.004663325997386124,-0.004404451383831846,-0.005258926821545294,0.0004352678382873258,0.0,1.0,0.0,0.0,0.0
https://omnivorescookbook.com/garlic-noodles/,0.007301885750173102,-0.0031804819545845227,0.005709010945279593,-0.0037155511134380126,-0.003504866976076113,1.0,0.0,0.0,0.0,0.0
https://omnivorescookbook.com/yellow-chives-eggs/,0.012921366902574453,-0.007582404041366589,0.0013482465517673256,0.006306263974120514,-0.0036868699568401516,0.0,0.0,0.0,0.0,0.0
https://omnivorescookbook.com/chinese-coleslaw/,0.008647696179908012,-0.0037079372143997242,0.00420327099448672,-0.00441829141410761,-0.003915127935340927,0.0,0.0,0.0,0.0,0.0
https://omnivorescookbook.com/easy-oyster-mushroom-stir-fry/,-0.0071269660127317004,-0.00370731487152741,-0.0036002583406904228,-0.001582248604985948,-0.0013993728613166001,0.24210526315789474,0.0851063829787234,0.08791208791208792,0.12903225806451613,0.18888888888888888
https://omnivorescookbook.com/chinese-grilled-potato/,-0.004758933162503475,-0.007745045780059498,-0.008027275494495953,-0.002392311812628588,-0.0017734186874146136,0.24210526315789474,0.0851063829787234,0.08791208791208792,0.12903225806451613,0.18888888888888888
https://omnivorescookbook.com/stir-fried-pea-shoots/,0.003500969764784509,-0.005180394498722225,0.0012383534856102967,-0.0034933670017882517,-0.0032003652432460966,0.0,0.0,0.0,0.0,0.0
https://omnivorescookbook.com/how-to-make-flatbread/,0.013401661793337901,0.0011942787433123364,-0.006740244762933041,0.03867256578895188,0.009852106646816537,0.0,0.0,0.08791208791208792,0.0,0.0
https://omnivorescookbook.com/turkish-eggplant-with-yogurt/,-0.005428113426544482,-0.0028273379791021245,0.005277972282133953,-0.0014928184860989369,-0.001136601905132819,0.24210526315789474,0.0851063829787234,0.08791208791208792,0.12903225806451613,0.18888888888888888
https://omnivorescookbook.com/potato-fried-rice/,0.0036147058648993663,0.0010346671367014136,0.012555556175082857,0.008124857875771682,-0.006099559956101272,0.0,0.0,0.0,0.0,0.0
https://omnivorescookbook.com/chicken-fried-rice/,0.004047996144863048,-0.0014988724012127193,0.008413996100191301,0.003265428377154786,-0.005294213867271801,1.0,0.0,0.0,0.0,0.0
https://omnivorescookbook.com/egg-fried-rice/,0.00961657404182651,-0.004186379047108464,0.007910346840388688,0.005013011595198793,-0.005432237740813356,1.0,0.0,0.0,0.0,0.0
https://omnivorescookbook.com/recipes/spicy-cauliflower-stir-fry/,0.0012927724352113038,-0.004925750304174128,0.00038412623766058554,-0.004530529403924974,-0.0021053931589015864,0.0,0.0,0.0,0.0,0.0
https://omnivorescookbook.com/steamed-bao-buns/,0.004977993929670813,-0.002957796460523762,-0.007022618790298513,0.01876780836442852,0.004650700551141434,0.0,0.0,0.0,0.0,0.0
https://omnivorescookbook.com/fire-roasted-eggplant/,-0.004515411614192654,-0.00033280440661988346,0.0021491141473567485,-0.0030866557388149933,-0.0027473151442983655,0.0,0.0,0.0,0.0,1.0
https://omnivorescookbook.com/curried-vegan-green-bean-casserole/,-0.00536091734796097,-0.0020647529401982404,0.0013950079995600883,-0.0014754310205202018,-0.0034796679197898546,0.0,0.0,1.0,0.0,0.0
https://omnivorescookbook.com/chinese-tea-eggs/,-0.003570200133611112,-0.0006060184780429788,0.001263342516253293,0.011161800693802048,-0.0024622148988886015,0.0,0.0,0.0,0.0,0.0
https://omnivorescookbook.com/pickled-watermelon-radish/,-0.0005349199701793109,0.005399552261824918,-0.0006540301158680867,0.005134576644104932,0.0021134595226617228,0.0,0.0851063829787234,0.08791208791208792,0.0,0.0
https://omnivorescookbook.com/easy-swiss-chard-stir-fry/,0.003768995260902711,-0.007455946862009477,-0.0031497794527120867,-0.004628741591435706,-0.001634144062942179,0.0,0.0,0.0,0.0,0.0
https://omnivorescookbook.com/easy-chinese-broccoli-recipe/,0.001193121628846228,-0.006880083525010915,-0.003471296611246206,-0.0037183439994348663,-0.0014520600419237392,0.0,0.0,0.0,0.0,0.0
https://omnivorescookbook.com/celtuce-stir-fry-with-eggs/,0.009574524457761732,-0.00654518400272816,0.002345520344851671,0.0047699120470836845,-0.0037612891384621924,0.0,0.0,0.0,0.0,0.0
https://omnivorescookbook.com/instant-pot-black-beans/,-0.0030895901939938294,-0.0006456411151493892,0.007730168911269571,-0.0010515808144482244,-0.004727494610546383,0.0,0.0,0.0,0.0,0.0
https://omnivorescookbook.com/stir-fried-baby-bok-choy-gluten-balls/,0.0031653946613780137,-0.00451603885213044,0.003716565088911103,-0.0030265861110199,-0.003674522162918032,0.0,0.0,0.0,0.0,0.0
https://omnivorescookbook.com/recipes/mashed-sweet-potato-casserole/,-0.014262119226066614,-0.0034249034001561027,-0.0054003999204648104,0.0017440416823591442,-0.0003595561513073169,0.24210526315789474,0.0851063829787234,0.08791208791208792,0.12903225806451613,0.18888888888888888
https://omnivorescookbook.com/recipes/stir-fried-snow-peas-and-water-chestnuts/,0.00208991788706237,-0.008598842594364971,-0.003853045249071961,-0.004327834918260074,-0.0019604497617608297,0.24210526315789474,0.0851063829787234,0.08791208791208792,0.12903225806451613,0.18888888888888888
https://omnivorescookbook.com/glazed-carrots/,-0.007831897936107092,-0.0037417593977501756,-0.0009247793864717791,-0.0007800123993687691,-0.0018578920372584443,0.0,0.0,0.0,0.0,1.0
https://omnivorescookbook.com/recipes/chinese-style-green-vegetables/,0.003415826084937846,-0.007385176875344405,-0.002940969254705575,-0.004730960093846636,-0.0019491542734020714,0.0,0.0,0.0,0.0,0.18888888888888888
https://omnivorescookbook.com/xo-fried-rice/,0.007694278423083813,-0.001937361928041236,0.011172250686612244,0.0028289786496070945,-0.006242217660799231,1.0,0.0,0.0,0.0,0.0
https://omnivorescookbook.com/garlic-broccoli-stir-fry/,-0.002710155010869037,-0.0025733163954118755,0.0022230149237271093,-0.000575840454552543,-0.004683919513885854,0.24210526315789474,0.0851063829787234,0.08791208791208792,0.12903225806451613,0.18888888888888888
https://www.justonecookbook.com/corn-dogs/,0.03746545579689172,-0.016230337573173666,-0.013896345776782944,-0.009621814927302155,-0.004731950392076097,0.24210526315789474,0.0851063829787234,0.08791208791208792,0.12903225806451613,0.18888888888888888
https://www.justonecookbook.com/renkon-chips/,0.026701323652590807,-0.011188843021386908,-0.011204601705083476,-0.006725238891313467,-0.003868411675648386,0.24210526315789474,0.0851063829787234,0.08791208791208792,0.12903225806451613,0.18888888888888888
https://www.justonecookbook.com/mini-fruit-puff-pastry-with-lemon-glaze/,-0.013456363405049606,-0.004484697175111736,-0.007375542959835348,0.0011019894485762472,0.00030779280079096553,0.24210526315789474,0.0851063829787234,0.08791208791208792,0.12903225806451613,0.18888888888888888
https://www.justonecookbook.com/tandoori-chicken-puffs/,-0.006182912245725851,0.0009328677256562848,0.005730745958236399,-0.0004262883058720019,-0.004150771116138836,0.24210526315789474,0.0851063829787234,0.08791208791208792,0.12903225806451613,0.18888888888888888
https://www.justonecookbook.com/steamed-cake/,0.028365241543396997,-0.009006421401379305,-0.010744992260526403,0.010198082640619072,0.001590757604753683,0.24210526315789474,0.0851063829787234,0.08791208791208792,0.12903225806451613,0.18888888888888888
https://www.justonecookbook.com/candied-sweet-potatoes/,0.006340454576450199,0.0015761026084910772,-0.0043152570552657775,-0.002447984585676055,0.0036303231670036587,0.24210526315789474,0.0851063829787234,0.08791208791208792,0.12903225806451613,0.18888888888888888
https://www.justonecookbook.com/oyaki/,0.014733327373185974,-0.0066794557613660535,-0.008480156314229955,0.003843014339401016,0.0010654171911659218,0.24210526315789474,0.0851063829787234,0.08791208791208792,0.12903225806451613,0.18888888888888888
https://www.justonecookbook.com/green-tea-steamed-cake/,0.028365241543396997,-0.009006421401379305,-0.010744992260526403,0.010198082640619072,0.001590757604753683,0.24210526315789474,0.0851063829787234,0.08791208791208792,0.12903225806451613,0.18888888888888888
https://www.justonecookbook.com/spicy-edamame/,0.020320832068288483,-0.009674986620736629,-0.0036919322287797198,-0.007243207044814664,-0.004973639037675136,0.24210526315789474,0.0851063829787234,0.08791208791208792,0.12903225806451613,0.18888888888888888
https://www.justonecookbook.com/japanese-fruit-sandwich-fruit-sando/,-0.012143104464880157,-0.0038495232892533176,-0.006653260372919157,0.0023573522707746233,0.0015305058994397997,0.24210526315789474,0.0851063829787234,0.08791208791208792,0.12903225806451613,0.18888888888888888
https://www.justonecookbook.com/roast-chestnuts/,-0.01946913944177724,-0.005970076306474643,-0.006014981649258365,-0.003092093180608753,-0.0006723146859323399,0.24210526315789474,0.0851063829787234,0.08791208791208792,0.12903225806451613,0.18888888888888888
https://www.justonecookbook.com/rice-cracker-recipe/,0.01298786456226459,-0.008685838577418729,-0.009417356225764808,-0.00429236425177207,-0.002626688678166114,0.24210526315789474,0.0851063829787234,0.08791208791208792,0.12903225806451613,0.18888888888888888
https://www.justonecookbook.com/takoyaki-recipe/,0.014157480746297333,0.006294020847452832,0.00046401048349402997,0.008023791097930881,-0.002803700635377958,0.24210526315789474,0.0851063829787234,0.08791208791208792,0.12903225806451613,0.18888888888888888
https://www.justonecookbook.com/nikuman-steamed-pork-buns/,0.009670546240114658,-0.0029275298582048742,0.0018237822358797306,0.0021590660566524994,-0.001280405362225306,0.24210526315789474,0.0851063829787234,0.08791208791208792,0.12903225806451613,0.18888888888888888
https://www.justonecookbook.com/homemade-popcorn-with-truffle-salt/,0.018829422002515816,-0.012738851998857114,-0.007679775106211442,-0.006742518836725324,-0.002104226642967588,0.24210526315789474,0.0851063829787234,0.08791208791208792,0.12903225806451613,0.18888888888888888
https://www.justonecookbook.com/sata-andagi/,0.016310171373497696,-0.007231178782192931,-0.009416384543602295,0.008096256542155289,0.0010338078071668883,0.24210526315789474,0.0851063829787234,0.08791208791208792,0.12903225806451613,0.18888888888888888
https://www.justonecookbook.com/banana-bread/,0.018038652311620898,-0.00542702129605801,-0.004602640327958982,0.013888362885048446,-0.0005604125848497211,0.24210526315789474,0.0851063829787234,0.08791208791208792,0.12903225806451613,0.18888888888888888
